1730	32
l0 0.33444893 0.5840132 0.6315124 0.6308608 0.4098683 0.84174925 0.47184867 0.74745536 0.5496454 0.63784546 0.44597897 0.19566493 0.16087885 0.3388888 1.010948 0.8800524 0.28434542 0.77848715 0.7443746 0.73951375 0.19129322 0.80945724 0.28543186 -0.017978717 0.17275758 0.7561127 0.5176115 0.64996815 0.50745136 0.18040264 0.83944947 0.62086576
l1 0.7239046 1.1506618 0.61007965 0.37791947 0.5222157 0.58139116 0.20782945 0.90851325 0.37345892 0.66484785 0.78614885 0.7889741 0.3871405 0.026864411 0.54634565 0.4230555 0.1702331 0.36164266 0.60042495 0.3396854 0.7575543 0.87325716 0.5417937 0.083018236 0.43313608 0.28333285 0.40168744 0.74215233 0.7123009 0.57851356 0.5327163 0.52664256
l2 0.97237253 0.56302404 0.8083619 0.5413653 0.68959415 1.3834226 0.7416054 0.5230742 0.10856954 0.6342398 0.27088532 0.08847678 0.60193694 0.5958881 0.97563696 0.6255759 0.75734586 0.65131015 0.19722003 0.66592306 0.30945334 0.3234095 0.28104773 0.7835706 0.4727993 -0.01761066 0.042987052 0.43658972 -0.008260372 0.6394738 0.0030676133 0.41251093
l3 0.5459191 0.21201156 0.6057415 0.5094053 0.06666407 0.5438405 0.9142691 0.7268419 0.88649666 1.03369 0.8571182 0.3507362 -0.01965471 0.20430838 0.38283393 0.9127515 0.20086685 0.77006257 0.57737213 0.49370292 0.7667325 0.74513113 0.8774485 0.5200179 0.41467083 0.3389624 0.86125463 0.70780516 0.92311484 0.8797423 0.042054564 0.39044487
l4 0.39690092 0.5946269 0.84541416 0.43364125 0.35111094 0.7351894 0.45518234 0.59530413 0.14208226 0.84058434 0.27596384 1.0768539 0.59554833 0.6993696 0.826081 0.07522694 0.5351803 0.47094434 0.5577866 0.34261885 0.84790283 0.34256282 0.49325323 0.16402034 0.7125885 0.5501864 0.033724133 0.3999813 0.41383153 0.89058244 0.45079473 0.6958811
l5 0.39906773 0.2284399 0.73129 0.6483304 0.75157285 0.22655351 0.90029174 0.3272318 0.9388597 0.85048276 0.5267009 0.18496643 0.44487014 0.64995307 0.93329865 0.09380156 0.20073546 0.6007935 1.093291 0.78891426 0.46006134 0.67559344 1.1254865 0.44655704 0.27226433 0.5274552 0.6808658 0.23992988 0.8540349 0.3688253 0.8652052 1.2310228
l6 0.2664335 0.66498244 0.76407754 0.8920895 0.47407967 0.7439487 0.8293614 0.3380649 0.8326046 0.317222 0.6201776 0.24601741 0.35069197 0.8195056 0.96659213 0.5628741 0.4150871 0.14134702 0.52957296 0.12929487 1.0162319 0.72119385 0.48726267 0.25037214 0.6610894 0.3751852 0.27898374 0.29470196 0.46638423 0.55835867 0.3283392 1.0990899
l7 0.12121102 0.17333938 0.94629866 1.0439903 1.1882542 0.10799533 0.21793489 0.48595294 1.1783433 0.29582098 1.0073514 0.28721797 0.16175564 0.77526414 0.7641159 0.39427802 0.6039585 0.23613927 0.76325065 0.74245733 0.91417533 0.95941514 0.60312486 0.4212222 0.33935234 0.67696565 0.756158 1.0345398 0.36269966 0.40314034 -0.05731807 0.36597008
l8 0.3324313 0.24618445 0.7314502 0.9060054 0.3431896 0.17340879 0.8178461 0.054064568 0.7203082 0.23055497 0.55369896 0.39084077 0.50413376 -0.03362943 0.50643045 0.79040426 0.5624649 0.7147823 0.6802162 0.6959633 0.7777107 1.005942 0.7807004 -0.08950097 0.30687013 0.796642 0.732224 0.3961774 0.7066672 0.7631297 0.10342853 0.78354055
l9 0.8872104 0.8479171 0.6303028 0.634967 0.5208407 0.37854007 0.14191239 0.49036583 0.9515682 0.9039188 0.67374295 0.5299125 0.7780306 0.42213848 0.5654924 0.46832904 0.060314864 0.9954417 0.90453297 0.56974024 -0.15067217 0.7113186 0.91367877 0.06436957 0.77266264 0.83466285 -0.032386597 0.08540892 0.80168897 0.6724801 0.08972191 0.55607766
l10 0.7551534 -0.109194905 1.0746129 0.8267568 0.49569237 0.27673653 0.5833225 0.2804637 0.42991903 0.24905275 0.28664353 0.5732235 0.65279484 0.6353946 0.6115855 0.60651416 -0.0045148726 0.6798838 0.45418218 0.22600365 0.2714724 0.34325707 0.8113581 0.39614365 0.52139527 0.015878752 0.08897142 0.26997918 0.98003393 0.1341984 0.30020097 0.58913535
l11 0.049676936 0.47918406 0.8781503 0.6595678 0.98266643 0.6427767 0.50400656 0.4361804 0.59131414 0.87400043 0.43674615 0.22083373 0.7462593 1.0737154 0.23088582 0.7146043 0.15041761 0.31045267 0.4481492 0.61654055 0.73009354 0.29246214 0.5560736 0.29267335 0.48358256 0.54907364 0.48525012 1.085486 0.40669715 0.43335685 0.032023575 0.4785046
l12 0.52695775 0.7558964 0.29962528 0.5981126 0.9637957 0.6793472 0.86027783 0.9602808 1.2057267 0.4620175 0.92666686 0.30689922 0.12748122 0.32528248 0.46674824 0.7375402 0.30108982 0.08490508 0.27444994 0.8794109 0.74327743 1.0819854 1.1620702 0.2169135 0.28331614 0.6265078 0.19220948 0.8715524 0.74879706 0.88602716 0.72331 0.73164743
l13 -0.10370953 0.19297165 0.72540677 0.759239 0.4942485 0.34789303 0.8204097 0.6802299 1.2814299 0.6876208 0.9396074 0.42124072 0.45523503 1.0239389 0.85563064 0.3156027 0.44434384 0.34182936 0.42520666 0.8130485 0.1366753 0.3878117 0.857008 0.055932593 0.9412022 0.4101913 0.3491239 0.2222527 0.6541008 0.77803236 0.26609024 0.8505091
l14 0.07669431 0.6384549 0.8369277 0.5209986 0.4878204 0.43565598 0.9774558 0.27338493 0.5896262 0.8298034 0.72711176 0.655021 0.44262797 0.9760857 0.9638081 0.47943962 0.52714425 0.39091343 0.70064044 0.54314786 0.5712281 0.34113562 0.9772965 0.66621786 0.38567838 0.7103174 0.49842128 0.7365878 0.2603685 0.55474234 0.2491458 1.0119222
l15 0.23212487 0.7201392 0.40506676 0.946444 0.4245983 0.4411562 1.0914986 0.14317824 0.5243101 0.9547839 0.2540849 0.5763971 0.20890515 0.0770595 0.07175923 0.33791327 0.3166907 0.7569303 0.7252444 0.42695823 0.7257638 1.3543086 1.0957139 0.61176294 0.3211549 0.6161814 0.7780417 0.5617969 0.845404 0.145448 0.6714901 1.0607054
l16 0.5090973 1.0916812 0.5984309 0.3293612 0.8958386 0.5427587 0.5604501 0.39154172 0.8798218 0.77795804 0.89097494 0.24571274 0.59397787 0.052346714 0.5531924 0.8629015 0.49617663 0.15842456 0.84651905 0.74988323 0.481648 0.5768818 0.91793776 0.7154568 0.13056879 0.6108643 0.31470355 0.72449964 0.4889546 0.5467901 0.13712798 0.7890847
l17 0.18677703 0.89039403 0.80518186 0.93453395 1.0619576 -0.08182099 0.6158286 0.5370785 1.0878183 0.15312819 0.52668935 0.5891734 0.66271895 0.5317194 0.74819267 0.4551056 0.48480415 0.5307115 0.965339 0.6687194 0.597732 1.002741 0.44232702 -0.041512564 0.7145867 0.95499516 0.5350403 0.42208087 0.36373645 0.8022961 0.10821687 0.7499591
l18 0.2759814 0.19690543 0.22083716 0.71640617 0.81406564 -0.19423275 0.9157847 0.36044407 0.896035 1.1100172 0.33084175 0.5364266 0.7703982 1.0453789 0.7741716 0.62312376 0.115703434 0.60495543 0.89430374 0.56576186 0.23706931 0.37504852 0.70813096 0.23482582 0.82470727 0.54670376 0.0943223 0.7656915 0.76902133 0.603407 0.21630393 0.6947433
l19 0.554834 0.5978817 0.95181745 0.80620563 0.5883585 -0.04681524 0.5783288 0.31979635 0.80389714 0.80664927 0.7940141 0.5821881 0.49919328 1.068529 0.46773773 0.5846857 0.2628613 0.73852473 0.8935836 0.41632834 0.25264847 0.8747747 0.9871746 0.32556325 0.75910306 0.14995754 0.23871003 0.47820142 0.88990206 0.34318912 0.36225566 0.69893944
l20 0.37979805 0.5148871 0.7770953 1.1871496 0.57309985 0.5434438 0.08533029 0.122026324 0.93971235 0.2999172 0.6565891 0.43048543 0.40635926 0.5816626 -0.068078 0.6051663 0.5217626 0.7115824 0.9482107 0.55889875 0.8037288 0.8189004 0.6300579 0.1607118 0.2691056 0.8211406 0.5292361 0.7970334 0.2327938 0.28118515 0.35125703 0.7526097
l21 0.8975199 0.33431637 0.2368492 0.317049 0.49681926 0.5294228 0.6146651 0.074777246 0.9791648 0.4245794 0.32067823 0.6425837 0.61176527 0.73099065 0.56409115 0.40407467 0.4721859 0.86421174 0.8292851 0.98973376 0.12712272 0.24626075 1.1706841 0.70717305 0.41885123 0.3776522 0.13374215 0.20257688 -0.041291256 0.3517051 0.00020656596 0.9913606
l22 0.84895825 0.029033806 0.868275 1.0522668 0.24558514 0.4896379 0.2671323 0.8231536 0.5554594 0.41198316 0.24945413 0.07949161 0.44033074 -0.029942073 0.7065102 0.10395435 0.12442226 1.0588388 0.49247175 0.60721093 0.19293186 1.1119256 0.16449787 0.8003131 0.77780324 -0.0911348 1.1094095 0.5286898 0.6057615 0.23468722 0.5204581 0.9653871
l23 0.58390355 0.55487007 0.9796953 0.5376595 0.21043961 0.4704419 0.9625493 0.602578 0.44793802 0.6607961 0.41627383 1.1115129 0.34486917 0.6832642 0.5632379 0.95039177 0.9846614 0.27733216 0.28476277 0.07296366 0.35028112 0.27582705 0.1876785 0.084945835 0.022107743 0.25006345 0.07797131 0.73807555 0.23266527 0.9632017 0.76596516 0.45489407
l24 -0.10342 0.49929056 0.33896998 0.34020624 1.0017345 -0.15195653 0.5285024 0.38498217 0.95158505 0.97642475 0.37153482 0.31781754 0.35529342 0.7074701 0.52413195 0.7666539 0.046075597 0.46110317 0.8069018 0.5212575 0.6537668 0.83018744 0.5792105 0.05504769 0.5711812 0.67625177 0.32515985 0.7265463 0.7470575 0.33196098 0.45636788 0.54799056
l25 0.5027812 0.4412027 0.27123335 0.31847903 0.5622556 0.38639116 0.8574558 0.86497396 0.7241274 0.42149952 0.72850734 -0.11103011 0.48749053 0.23915787 0.72277313 0.67739344 0.048959814 0.6515743 0.7419834 0.12133926 0.62961596 0.4548699 0.57249105 0.12215256 0.17202824 0.7724954 0.42444068 0.9485812 0.19745643 0.50936025 0.41513348 1.1255295
l26 -0.0013692777 0.48158783 0.37641403 0.20460021 0.495878 0.500794 0.8942322 0.33466557 0.7386874 0.8388284 0.48788753 0.015890019 0.016084667 0.96983653 0.53150296 0.32189494 0.6795473 0.18528126 1.0621196 1.1797051 0.8609257 0.4396531 0.93788666 0.21710704 0.5362959 0.5300049 0.8713426 0.55633956 0.22785996 0.6816119 0.60812205 0.79810333
l27 -0.20168445 0.675793 0.57559973 0.5028255 0.5399243 0.6304046 0.21427883 0.5826307 0.67843133 0.33124506 0.13440593 0.561247 0.28692755 0.052438974 -0.08984526 0.35945454 0.8084011 0.5715077 0.5062978 0.51327723 0.6082235 1.1543322 0.30322367 -0.10435396 0.582444 0.67133373 0.83401924 0.31382453 0.2293379 0.30882648 0.36361113 1.0025991
l28 0.67646575 0.40792122 0.3326589 0.96742445 0.7458409 0.28747544 0.46344987 0.008287606 1.0557718 0.3181245 0.0224402 0.58135194 0.6230149 0.4820399 0.21248266 0.671267 0.24550012 0.4092677 0.7941136 0.6951522 0.15148248 0.5655763 0.70581603 0.55945724 0.55596834 0.36204106 0.847026 0.46067667 0.6469966 0.8388175 0.2899079 0.88773096
l29 0.736399 0.5309358 0.9467845 0.96079814 0.13809149 0.05786133 0.24557854 0.80580074 0.6592182 0.33343372 0.7535886 0.76825356 0.47772592 0.47955754 -7.3552386e-05 0.30275273 0.3649525 0.68200207 0.7328679 0.4317241 0.41015038 0.23356983 0.978146 0.53362143 0.73295504 0.5657313 0.5166499 0.8263712 0.28334346 1.042509 0.43806234 0.6188992
l30 0.76643777 0.27954754 1.1548973 1.1715007 0.59435946 0.530375 0.7513016 0.36691305 0.35937807 0.35953847 0.4117885 0.77612185 0.30498192 0.4546619 0.000538394 0.26699406 -0.07533478 0.48663673 0.8698513 0.5797819 0.14517681 0.96256334 0.62529033 0.5877969 0.7578639 0.8328137 0.8773303 0.9678505 0.360787 0.17238204 0.15552303 0.3060755
l31 0.83972824 0.6717528 0.29584175 1.059448 0.61039084 0.6062982 0.39180112 0.18813445 0.5537263 0.9169087 0.4621388 0.18990749 0.5214736 0.14740753 0.049817886 0.9196484 0.6749968 1.0704727 1.0869482 0.6827787 0.2852598 0.48932058 0.62251824 0.30435747 0.7194909 0.46444473 0.14966016 0.48325774 0.5404696 0.73186165 0.18232723 0.79972506
l32 1.1216486 0.5824724 0.32010737 1.2723546 0.1446021 0.38953176 0.35936543 0.4338451 0.27054277 0.457407 0.7366709 0.17852758 0.5737643 0.595923 0.21754612 0.6065533 -0.0814132 0.6596099 0.3003032 0.26967975 0.6051652 0.43357268 1.1020515 0.5748924 0.077481315 0.34430513 0.5981653 0.43732744 0.2885598 0.9660916 0.41165257 0.36093852
l33 0.46215203 0.51732945 1.0922037 0.18172951 0.15462694 1.201113 0.047717493 0.30620933 0.5540852 0.15401003 0.25108993 0.18233669 0.2563067 0.43933928 0.5887642 0.25033948 0.94508165 0.59049237 0.31278706 0.4033798 0.64077324 0.14564103 1.0831991 0.29945388 0.1819896 0.39798677 0.99983895 0.5639095 0.22423723 0.695718 0.38507488 0.682742
l34 0.66656077 0.7559714 0.25698832 0.4739263 0.41609916 0.53378797 0.62263584 0.99870646 -0.042489402 0.2937263 -0.022801148 1.109215 0.7610165 0.24184597 1.3129789 0.89895684 0.11849773 -0.060746137 0.6633917 0.8415502 0.74482757 0.8863688 0.4423612 0.2214835 1.042962 0.58601004 0.7365085 0.6816921 0.2434427 0.24735132 0.3408573 0.6590908
l35 0.49143595 0.4157983 0.7187755 0.83554214 0.6190625 0.473421 0.4632299 0.9331879 1.0343946 1.012723 -0.04496345 0.74839705 0.08053612 -0.14344336 0.6873287 0.3804352 0.70774555 0.75479394 0.5170559 0.6581397 0.3949893 0.14262028 0.74257576 0.6525253 0.69189596 0.79979944 0.5550103 0.5241649 0.42272666 0.17013453 0.21937227 0.11413786
l36 0.508942 0.45778346 0.76040274 0.6004313 0.08371653 0.44187397 0.43302783 0.8600095 0.8720149 0.35756874 0.39470354 0.9239554 0.18187952 0.2964662 0.3117902 0.7559584 0.643393 0.15716606 0.6221232 0.41085815 0.8655996 0.65037763 0.7415418 0.5479273 0.8334207 0.32481578 0.48830462 0.3679432 0.37250778 0.16104607 0.6342065 1.0530853
l37 -0.14588273 0.4517065 0.73782706 0.83330065 0.79178846 0.09687222 0.9188277 0.44876444 0.7635877 0.7140341 0.76327604 0.031665776 0.7914484 0.89819986 0.30102775 0.2106837 -0.09161215 0.49314877 0.551777 0.45719516 0.5526221 0.8718216 0.8317995 -0.031045998 0.11835433 0.84219867 0.59243053 0.6302674 0.37218216 0.5144599 0.4549438 0.7717564
l38 0.42422387 0.75272995 0.8204192 0.40564665 0.3502768 0.4609021 0.666086 0.6251299 0.65914905 0.38610935 0.59409237 0.82774866 0.70903605 0.3676299 0.19310968 0.6847773 0.2791281 0.82687116 0.96838397 0.97263753 0.95151657 0.39049432 1.1079352 0.20506959 0.4668566 0.40699258 0.22757879 0.85190713 0.73788947 0.53129065 0.5909484 0.9503508
l39 0.4773358 -0.098149106 0.51386166 0.9267588 0.4748635 0.06262855 0.5086513 0.07511058 0.6559366 0.36493403 0.64647895 0.7241581 0.9098574 0.82111615 0.084285714 0.7780618 0.21089189 0.6434634 0.52898973 0.7172147 0.509596 0.8164496 1.192753 0.08105293 0.47010627 0.9040998 0.18555643 0.8823278 0.41719103 0.4049492 0.16451207 1.0052166
l40 -0.024811814 0.32277104 0.4004592 0.49065635 0.74575824 0.019339098 0.40403065 0.8051913 1.2922393 0.4629072 -0.004025789 1.0114381 0.35472307 0.659699 0.15848182 1.1536309 0.66681695 0.5491822 0.43597078 1.061961 0.28275552 0.69082737 0.5992308 0.014972252 0.23983993 0.5849767 0.32758558 0.66022825 0.5404032 0.41658205 0.8104502 0.46667522
l41 -0.012717444 0.41069034 0.5676886 0.9659111 1.034683 0.26664943 0.58222294 1.0961819 0.8015769 0.35136044 0.8296855 -0.11480373 0.6526314 0.3747328 0.81357414 0.49381787 0.7590348 0.32750246 1.0645269 0.7542084 0.7797559 0.6798876 0.397501 0.15954927 0.5448131 0.553909 0.27931595 0.60441524 0.83935595 0.5504467 0.23487744 1.0789809
l42 -0.11418067 0.09803818 0.29052863 0.9593444 0.821586 0.1802824 0.636997 1.0103732 0.9956065 0.3390101 0.78106755 0.38904595 0.12937592 0.5568281 0.5189931 0.9059477 0.7742652 0.21387039 0.9480808 0.5920559 0.8374293 0.7424457 0.6775516 0.2347786 0.23729931 0.8480014 0.30884162 0.9331851 0.85974354 0.32962874 0.34665003 0.86638635
l43 -0.31474617 0.7643931 0.38984367 0.41326937 0.36201444 0.3286298 0.5051339 0.83205557 1.3240863 0.82931477 0.5478107 0.5325904 0.0074101905 0.025250353 0.024192465 0.87561196 0.41106862 0.11790766 0.554397 1.3258806 0.76980084 0.25156423 0.2616495 0.306372 0.9227525 0.8484655 0.132539 0.40504664 0.1944795 0.7270913 0.28452703 0.32076046
l44 0.83750117 0.74173784 0.34385177 0.815219 0.681358 0.7287076 0.18184672 0.29420188 -0.004019631 0.44539148 0.33412877 0.94601524 0.44241014 0.8850017 0.74088293 0.12157252 0.28242528 0.46369657 0.83669794 0.309565 -0.062282544 0.21124344 0.5293122 -0.033478927 0.17714024 0.0053226613 0.5435242 0.9141187 0.59344614 0.89600664 0.9496379 0.19636834
l45 -0.08611802 0.57619905 0.5505664 0.2639419 1.0932418 0.5275794 1.1129723 0.9717463 1.3630028 0.65441936 0.7493352 0.30365977 0.6519383 0.87398654 0.6121085 0.16656603 0.31665733 0.09415094 0.95170486 1.2236038 0.4908772 0.49015164 0.9928796 0.44066334 0.66628236 0.30579752 -0.00901509 0.32010677 0.80654603 0.9707421 0.49766663 0.7668045
l46 0.787075 0.26263016 0.42327237 0.7311933 0.7572389 -0.1024234 0.5462032 0.88857037 0.7488362 0.6014398 0.49577138 0.30500498 0.41081288 0.8997152 1.0603591 0.7849351 0.2314022 0.091816336 0.85147905 0.6653478 0.6286745 0.5170428 0.40903643 0.84991795 0.6911908 0.15767504 0.45612386 0.6845233 0.37505794 0.56829345 0.465294 0.7519511
l47 -0.0962611 0.28308243 0.84590185 0.43850842 0.5165627 0.17181021 1.1560807 1.0299639 0.7599084 0.93442184 0.99813426 0.59999496 0.58836806 0.50664467 0.622137 0.9113318 0.9169191 0.58895475 0.27592808 0.39260668 0.24593447 1.0217265 0.98698133 0.54833674 0.4212018 0.19820634 0.17359793 0.78852403 0.85412246 0.61340135 0.21112058 0.9944116
l48 0.01509025 0.87094754 0.8557666 0.1408773 0.75782114 1.0550319 0.5569779 0.39391848 0.7968433 0.27888286 0.37352577 0.2760717 -0.031060325 0.643022 0.6309008 0.352194 0.23698467 0.3719178 1.0110098 0.18920457 1.1426306 0.47525603 0.70465934 -0.011940965 0.033732027 0.44455478 1.0324895 0.8889378 0.8852935 0.42132112 0.5917821 0.491532
l49 0.62066877 0.60651124 0.6180727 0.7822281 0.5309658 0.92753685 0.43873036 0.7411116 0.83388084 0.7341637 0.35715732 0.48138788 0.3533939 0.81478035 0.9035963 0.6405094 0.54612577 0.8970014 0.74212813 0.5238682 0.47116867 0.96136004 0.25597852 0.4675318 0.14292702 0.25748724 0.5055201 0.6384766 0.13882957 0.2662445 0.46198508 0.36467224
l50 -0.2077317 0.37482235 0.3219476 0.9140693 0.6829574 0.03658039 0.30904916 0.8235206 1.1315192 1.1967881 0.77362645 0.3929877 0.52380115 0.68969804 0.37152866 1.0349786 0.7245473 -0.005083265 0.40977705 1.055899 0.9017718 1.0597705 0.9995218 0.47049353 0.66092706 0.29234302 0.36022457 0.598703 0.58378613 0.49216545 0.6906168 0.51581615
l51 0.66125315 0.6923345 0.6428427 0.8907175 0.34121743 0.5437822 0.846621 0.47468328 0.4470757 0.47032374 0.1204453 1.0177158 0.4290073 0.59677273 0.08889113 0.22721586 -0.032102622 0.51958996 0.1748061 0.30703184 0.62586886 0.40964192 0.7785835 0.041269626 0.28887442 0.5420693 0.475458 -0.06134459 -0.04742309 0.20251872 0.6374675 0.5588716
l52 0.21843193 0.740014 0.76580775 0.37792543 0.5967327 0.6582365 0.3860521 1.0977931 0.34091255 0.8319361 -0.011248192 0.5290061 0.6253792 0.93696177 0.5202762 0.6356874 0.26264063 0.32027942 0.19633465 0.8646808 0.4465687 0.6303109 0.53826684 0.019843848 0.54011106 0.6957386 0.52702534 0.46260074 0.6648499 0.6244275 0.4969919 0.5581818
l53 0.26093647 0.85839033 0.53782696 0.311907 0.33476692 0.5856927 0.78094226 0.52586985 0.7318589 0.4240077 -0.08190727 0.93517774 0.77136606 0.23648398 0.6749055 1.0827492 0.35924187 0.33961034 0.6895431 0.32157576 0.99609333 0.82592255 1.0433973 0.43419057 0.48634872 0.43935937 1.0725163 0.96182585 0.725788 0.35628414 0.65858406 0.9831867
l54 1.291249 0.5635484 0.53108734 0.22686592 0.77410734 1.4457988 0.4513141 1.0137098 0.16643342 0.47313327 0.50308776 0.8911771 0.53676903 1.0030899 0.78277713 0.8716178 0.34326205 0.41269666 0.5729712 0.5770849 0.100013986 -0.37575996 0.7682036 0.36828756 0.35001397 0.075479314 -0.22372836 0.25703362 -0.07458717 -0.010114523 0.49667087 0.3813595
l55 0.2805927 0.78373194 0.41491234 0.34556308 0.8953443 0.03761444 0.48264247 0.50570333 0.68179953 1.0004947 0.64884233 0.13014829 0.7033325 0.7375107 0.87778836 0.98919535 0.086268835 0.23596092 0.5668195 0.60943776 0.45195028 1.175442 0.48365474 0.011281744 0.763538 0.24489653 0.10071748 0.31682613 0.85185343 0.3802367 0.070554465 0.41710776
l56 0.36131984 0.7770192 0.79831344 0.97825706 0.5912289 1.2865827 0.8333894 0.5609011 0.0149139585 0.945739 0.0032035448 1.3278358 0.7631066 0.26653418 0.101052225 0.20647629 0.48744327 1.0416222 0.23191953 0.30959976 0.18330112 0.4615119 0.91760373 0.045767657 0.6709231 0.16302079 0.33091462 0.6245727 0.713474 0.11118678 0.45574164 0.26533693
l57 1.2186472 0.66206765 1.0091429 0.43058118 0.5317204 1.0115455 0.5729434 0.2681847 0.9328445 0.058040008 0.1695962 1.0943624 0.31321526 0.39940748 0.642921 0.39320815 0.23336983 0.70291936 0.18876725 0.45804647 0.48358732 0.6844965 0.40364793 0.5095213 0.58118296 0.32809258 0.091095865 0.7149522 0.122684985 0.7903936 0.39972463 0.7202648
l58 0.9930263 0.8180873 0.008694225 0.5535425 0.41569588 0.70859915 1.0866241 0.2009056 -0.24781851 0.44624403 0.07028939 0.4641173 0.39982527 -0.036705576 1.1535822 1.2832361 0.16408099 0.58357996 0.8656106 1.0225736 0.794597 -0.15737844 0.10329322 0.38786414 0.48237875 -0.061149202 0.28289777 0.80419564 0.25078002 0.6533209 0.97869754 0.2790606
l59 0.5670281 1.0401787 0.43131056 0.8643445 0.14359562 0.89793384 0.36092898 0.76846135 0.26720142 0.4709848 0.9129086 0.85135025 0.63122207 0.13574539 0.70969003 0.423848 0.44807908 0.305453 0.6395008 0.5042148 0.43502954 0.47588885 0.8659906 0.25866818 0.5131871 0.67048275 0.16000246 0.8245244 0.30081856 0.7510074 0.3753513 0.5979537
l60 0.33932316 0.54125845 0.37504703 0.82812345 0.3353122 0.7934639 0.9345859 1.1367749 0.63822764 0.39943302 0.620601 0.768825 0.58474886 0.63920736 0.6676133 0.80118114 0.13227153 0.6076471 0.6239366 0.6538799 0.54691625 0.4754844 0.5013785 0.73571503 0.19721231 0.30339697 0.2400742 0.354812 0.18947974 0.318779 0.51508945 1.0250719
l61 0.64044017 0.3694326 0.5109869 0.22730863 -0.061201725 0.7259598 0.5690528 0.8208813 0.34262964 0.75559837 0.25364053 0.09276096 0.7017567 0.29217777 0.43685976 0.122676134 0.37628806 1.193918 1.1502802 0.0123213185 0.3575033 0.25296444 1.1524283 0.53450966 0.19719698 0.61875975 0.41225305 0.9113851 0.8568477 0.4349348 0.009705411 0.5261569
l62 1.1401178 0.14997174 0.74316657 0.5727001 -0.13219088 0.91969514 1.0024521 0.6339488 0.519196 0.7969308 0.3597393 0.40098384 0.49065533 0.22033638 0.7836886 0.9761795 0.6120511 0.73214597 0.5347492 0.85834193 0.47603464 0.5428351 0.44857794 0.71615213 0.7084061 -0.001380567 0.67020553 0.5102088 0.21132977 0.36268297 0.4679657 1.0902529
l63 0.86701626 0.7058826 0.9063728 0.29887813 0.52061296 0.8481686 0.075993285 0.27764413 0.3447405 0.53592324 -0.08084803 0.62152636 0.024788253 0.1154391 0.63058305 0.37739545 0.7927626 0.83561563 0.9115769 0.99188864 0.66549736 0.4979197 0.789923 0.20747486 0.46310246 0.41175333 0.8227336 0.6152269 0.678246 0.42186192 0.78042614 0.51864314
l64 0.39806867 0.917027 0.7121108 0.73214865 1.0691086 0.7008304 0.56994003 0.45970634 -0.005908329 0.917236 0.072761305 0.36485535 0.22829913 0.11483089 0.6564597 0.6083259 0.91736466 0.4536177 0.60549295 0.102507785 0.2111308 0.34370223 0.17006871 0.13116181 0.6762549 0.56983167 0.46689317 0.74608374 0.3287715 0.22293735 0.7679503 0.9343945
l65 0.22991265 0.41681132 0.4482668 0.09894314 0.5405799 0.8347991 0.5245697 0.54034054 0.63727534 0.5820816 0.5814363 0.98843515 0.14967968 0.45635986 0.8966332 0.62690514 0.530618 0.67901444 0.8616138 0.16494076 0.3881339 0.7992515 0.67382383 0.6829027 0.30005568 0.62818724 0.42693722 1.0853151 0.22256413 0.46951777 0.24249597 0.9052965
l66 -0.14082393 0.7625793 0.6119531 0.8064517 0.28052944 0.07328121 1.0290759 0.49499303 0.63026214 0.7257453 0.4665021 0.79616684 0.686315 0.18571132 1.215151 0.7742112 0.043643456 0.6039507 0.46270087 0.95837253 0.648888 0.5932152 0.21325533 0.7312272 0.5598823 0.26056054 0.3333585 0.40995684 0.82821983 0.62788874 0.17242734 0.8245959
l67 0.57802975 0.48003793 0.6343677 0.3998829 0.006715632 0.42676035 0.28769293 0.6416301 0.5006405 0.76656383 0.749419 0.60186225 0.40198472 0.42529938 0.42845845 1.2547894 0.74389005 0.88811415 0.31055003 0.6089172 0.5617648 0.54420197 0.80580986 0.45869285 0.43654 -0.046421513 0.92361933 0.6862087 0.732303 0.4209127 -0.12947513 1.0154365
l68 0.37951463 0.5324887 0.17447957 0.68243164 0.39916822 0.17851143 0.73589545 0.40028772 0.32624143 1.0342478 0.85797864 0.46127278 0.6148833 0.4876249 0.87373745 0.8970041 0.32555157 0.34650415 0.5779355 0.97249854 0.1504855 0.3429081 0.7922527 0.92719877 0.45808393 0.7164338 -0.015968941 0.6855165 0.35695556 0.88495034 0.062512755 0.85437196
l69 0.27531224 0.20408174 1.0073684 1.0328157 1.1375391 0.5019848 0.8071589 0.40134335 1.0697502 0.8627484 0.93872064 0.29047427 0.59464973 0.55857366 0.8656474 0.35659027 0.81070745 0.81926167 0.25870085 0.69975454 0.41306373 0.68892187 0.97442555 0.06611117 0.58074933 0.31963748 0.20441356 0.89656126 0.37000048 0.74078214 0.059593555 0.27881026
l70 0.90348506 0.16127579 0.97596925 0.5966214 -0.040856417 0.5424261 0.39827543 0.6452581 0.43361926 0.7906176 0.26514265 0.6895205 -0.14909923 0.114780836 1.0192865 0.07781012 0.66580415 0.75351214 0.97124505 1.0167751 0.5623987 0.6354314 0.953378 0.8031793 0.8133459 0.7193837 0.9035218 0.2755921 0.058654793 0.20010062 0.71721387 0.5517968
l71 0.8735985 0.5803264 0.84852064 0.7644765 0.6004776 0.60345554 0.47719172 0.81124735 0.38240102 0.9227144 0.13058518 0.33783272 0.74699736 0.64456284 0.6162822 0.3126073 0.33750644 0.6517093 0.266643 0.649377 0.7062132 1.0667244 0.46081024 0.8406261 0.12124673 0.011943462 0.60505533 0.40383306 0.30373663 0.4482608 0.57550603 0.56211543
l72 0.5076748 0.30825683 0.4356653 0.5789773 0.22484356 0.96442497 0.5538334 1.0112107 0.68757 0.5946386 0.29037982 0.27994692 0.2567877 0.29744494 0.26316136 0.5371827 0.22351326 0.6216656 0.30146036 0.84777886 0.47018418 0.53691775 0.89780295 0.7431496 0.68340117 0.10366189 0.8811288 0.6087078 0.4423265 0.5735433 0.5305068 0.649128
l73 0.17054991 1.0225531 0.7291151 0.68167746 0.57759506 0.36689878 0.25175336 0.71202534 0.8519631 0.43264133 0.37517238 0.70098823 0.51947504 0.24073176 0.6573401 0.21171452 0.08344095 0.54652846 1.0867199 0.53256655 0.44145006 0.9290606 0.49406537 0.5074399 0.7080833 0.6602815 0.26988232 0.38727355 0.6939709 0.62681496 0.58603114 0.58061147
l74 0.77932245 -0.0050636786 0.9271152 0.85881567 0.16972776 0.9807562 0.15257786 0.59764224 0.34235397 0.6109398 0.41299233 0.42908478 0.35120124 0.273861 0.7452979 0.25912142 0.58320904 1.0344633 1.0389606 0.78243804 0.9872609 0.022535456 0.62865293 0.69454986 0.77712184 0.5523034 0.5463527 0.6505834 0.09543744 0.12625918 0.41283846 1.095592
l75 0.4267224 0.5587193 1.1256179 0.6442591 0.38619322 0.55756116 0.23294434 0.35656703 0.93193346 0.7474713 0.64773846 0.63830256 0.4264821 0.107291825 0.16671744 0.6908012 0.7600115 0.3309554 0.23973572 0.7884933 0.050657187 0.75520676 0.4430918 0.438202 0.31591406 -0.04251408 0.82742447 0.33333597 0.40260133 0.5746995 0.32714075 0.40603602
l76 0.13137916 0.90031517 0.5450098 0.5586114 0.8219163 1.0337858 0.8728775 0.9530329 0.67178565 1.1109165 0.44453228 1.0094618 -0.03639838 0.74661195 0.33622754 0.5410243 0.78545463 0.7621214 0.92374706 0.23200382 1.0100652 0.78725564 0.44412327 0.31176853 0.28665847 -0.09385477 0.58649904 0.9890313 0.7138113 0.26345682 0.74760544 0.38725153
l77 0.43554497 0.6687919 0.9945762 0.8578271 0.23508291 1.2406956 -0.048101045 0.6845296 0.63453406 0.8012687 -0.016769174 0.43787473 0.86361355 0.21378273 0.8273651 0.43814513 0.45098668 0.9355834 0.70239127 0.8341465 0.86484206 1.0043727 0.47032097 0.585337 0.9363391 0.76204294 0.58407277 0.14874436 0.71057713 0.38245788 0.132309 0.8829229
l78 0.44208303 0.80349845 0.7257571 0.97910964 0.8819914 0.52147967 0.7649445 0.3894953 0.84420407 1.143082 0.71716714 0.95953566 0.2782815 0.21439925 0.49400768 0.1721352 0.71239465 0.49052572 0.82901996 0.7161006 0.5275009 0.8385231 0.38595173 0.37556237 0.124773934 0.21045125 0.71233344 0.64779174 0.5648625 0.6160019 0.32762808 0.4190236
l79 0.5064035 0.5162137 0.31173262 1.0035051 0.58912385 0.46889958 0.2942899 1.0178381 0.63740975 0.73561084 -0.023149654 0.69064957 0.74864274 0.16660069 1.1228791 0.5620273 0.9933731 0.2291765 0.104708806 0.54331875 -0.038351364 0.6229293 0.740143 0.33159345 0.5350134 0.73784703 0.60758114 0.4338627 0.7108589 0.815688 0.32441774 0.604705
l80 0.480083 0.30352485 0.7806824 1.002129 0.35297534 1.0826125 0.35404748 1.0021342 0.47347596 0.64192706 0.7318484 0.7843559 0.60216606 -0.109229326 0.49383935 0.5990514 0.82318604 0.51458174 0.53283954 0.55130583 0.615035 0.78218824 0.5749892 0.108792804 0.37449762 0.27650502 0.6440272 0.8235159 0.34903207 0.17279123 0.3372049 0.3000948
l81 0.8289993 0.34265545 0.49878088 0.56717336 0.11584984 0.6816735 0.67047477 0.16181535 0.50140125 0.28813246 0.07885207 0.68989235 0.65273756 0.3402768 0.8201691 0.60035086 0.18502499 0.81979203 0.4757676 0.41864204 0.4609135 0.75367594 0.52357626 0.15829994 0.44385147 0.7606329 0.13909677 0.53177863 0.3266065 0.80468136 0.1966537 0.77820534
l82 0.49510613 0.6170769 0.1265118 0.17015728 0.3164054 0.39003164 0.8351545 1.0558407 0.6955856 1.05338 0.27890372 -0.07403135 0.13602966 0.5681917 0.8056027 0.9514735 0.08890697 0.83243763 0.5315456 0.47424453 0.1621545 0.8015424 0.868409 0.6135675 0.22598979 0.648694 0.78375465 0.56621504 0.64741206 0.44718674 0.233355 0.49878645
l83 1.0402958 0.58817315 0.8818814 0.36111197 0.8955493 0.32748762 0.5960711 0.27129173 0.8280065 1.1462764 0.67385125 0.42874652 0.21392062 0.17970654 1.046105 0.8089416 0.8330742 0.6849796 0.96593565 0.0032755628 0.34240526 0.68936795 0.6957338 0.55268663 0.1597207 0.09698705 0.49245214 0.29883736 0.5870566 0.6974453 0.6272406 0.65421176
l84 0.41834825 0.27401882 0.9347196 0.9601244 0.91505635 0.55417925 0.352112 0.5340099 0.67993104 1.1648312 0.5313652 0.6233351 0.1738187 0.6477349 1.0573652 0.27007908 0.57219183 0.5911868 0.88824546 0.6819014 0.60965663 0.81690174 0.81058604 0.56729275 0.35938522 0.3381271 0.9100377 0.5175204 0.68592423 0.36946347 0.95992744 0.56847394
l85 0.1483952 0.7631188 0.8321182 0.31594643 0.97798926 0.20667152 0.59998685 1.1985544 0.78422314 0.32997802 0.051894512 0.5422692 0.13129137 0.4324096 0.46975443 1.0046798 0.8253973 0.40204203 0.36456677 0.62125826 0.6279635 0.8914541 0.29838467 0.35254276 0.43236712 0.53222483 0.46519274 1.0109076 0.7632065 0.8626759 0.60189486 0.6964239
l86 0.30996904 1.0701423 0.36180735 0.35134742 0.47096762 0.6551212 0.79398423 0.65556985 0.21070401 0.68482906 0.07981752 0.686089 -0.032040987 0.42775548 0.83185184 0.85221314 0.6995614 0.312465 0.13566731 0.35090098 0.23378555 0.239558 0.91878456 0.6012587 0.91497767 0.3716344 0.31677505 0.5651509 0.47190368 0.8682218 0.6767321 0.58306426
l87 0.6929054 -0.4445093 1.0595295 0.13391876 0.5198124 0.85748065 1.3482804 0.29798156 0.6391932 0.9352946 -0.13570322 0.41837075 -0.26462376 -0.09730502 1.208987 0.26866683 0.17121653 0.6260586 0.006087516 0.8350083 -0.42984444 0.74713403 1.0734109 1.4178525 0.27690604 -0.42668286 0.39884692 0.23962693 0.79171795 -0.37898716 0.792227 -0.22794455
l88 0.3249332 0.048598208 0.9987429 0.128985 0.6989464 0.91851956 0.25429016 0.10431714 0.98526156 0.28696892 0.09447042 0.50643533 0.1688151 0.57387626 0.6389575 0.5429595 0.23904844 0.76585424 0.79873717 0.8372738 0.59976965 0.74044216 0.912798 0.26252475 0.7372174 0.5767481 0.2170901 0.7998177 0.5588093 0.41812807 0.8460908 0.9216983
l89 0.26991174 1.2159301 0.9912128 0.57603306 0.47211504 0.5574624 0.7285151 0.45805648 0.1811404 0.44039783 0.123872764 0.84295493 0.47681683 0.7546642 0.5546479 0.16627859 0.2639007 0.71739966 0.73475474 0.70347905 0.81345606 0.46121255 0.20077413 0.39523575 0.10622147 0.38816735 0.6323649 0.32696435 0.4045876 0.8150603 0.42386392 0.4445326
l90 0.43500748 0.0047780983 0.3187331 0.19530976 0.6501121 0.09442284 0.7930723 0.47748753 0.3530414 0.2115323 0.2734082 0.11346644 0.21430789 0.8925871 0.8261579 0.61539096 -0.07580589 0.31548232 0.536267 0.65697986 0.7190566 1.1110308 0.50119984 0.22797923 0.5199961 0.4501421 0.9526983 0.805541 0.8045563 0.38894114 -0.008636465 1.1277088
l91 0.6735376 0.55475795 0.9989238 0.22256914 0.344932 0.051098578 0.40151435 0.971758 0.7938765 0.9945263 0.6680892 0.59585553 0.48797873 0.18477295 0.14821373 0.7500262 0.43528703 0.4607725 0.27760816 0.6778645 0.1754459 1.132616 0.52868026 0.67472667 1.0058604 0.091735445 0.4927368 0.12792729 0.084972754 0.33644995 0.13791172 0.7602641
l92 -0.020755073 0.7587354 0.8417037 0.517967 0.6485203 0.66966194 0.60955334 1.1788895 0.80522764 0.5253876 1.0525454 0.20269182 0.4877466 0.94498867 0.29419202 0.29428402 0.17694904 0.16276127 0.76044434 0.49554294 0.4863818 0.85546726 0.78966326 0.27784213 0.5928304 0.32666034 0.50436294 0.9919048 0.9780722 0.8868267 0.35816243 0.5839439
l93 0.6968907 0.8256079 0.40202793 0.5397126 0.70939153 0.64406186 0.39897427 0.7705007 0.47811112 0.78480023 0.13693689 0.68644035 0.26146573 0.40395918 0.7720586 0.40374097 0.24338 0.30195594 0.7239238 0.60570365 0.27184924 0.47447795 0.8756275 0.31173474 0.65297544 0.3277092 0.47551388 0.5802843 0.84572166 0.35984492 0.89001334 0.48167634
l94 0.5030923 0.5865957 0.8508575 0.33399644 0.58717376 0.8576894 0.1846382 0.27687728 0.9310935 0.7968064 -0.070854574 0.9136363 0.90126073 0.3265092 0.7462456 0.16988324 0.48170257 0.635669 0.62239516 0.46055505 0.3159441 0.3041667 0.9939271 0.25578284 0.8652992 0.44826666 0.7499484 0.91142875 0.30400094 0.5881586 0.10340943 0.15375458
l95 0.78278685 0.9146194 0.37171236 0.8755285 0.7148411 1.0788885 0.8917068 0.4189478 0.0074940845 0.90178126 0.262171 0.62969726 0.16445889 0.9675226 0.7289522 0.76282287 0.4962658 0.523248 -0.07853634 0.30748373 0.6792906 -0.16315581 0.8461234 0.8347747 0.2460716 0.15409932 0.7232163 0.55378366 0.6906043 0.78928417 0.22617084 0.92213213
l96 0.9862358 0.66040474 1.0721798 0.36653188 -0.042280532 0.23597488 0.14980711 0.23310113 0.6006003 0.9178625 0.7185095 1.2109663 0.28046978 0.42172664 0.3850702 0.86703354 0.4421974 0.41729873 0.110007 0.09674177 0.43841866 0.017626384 1.1242701 0.8923102 0.76804143 0.6631256 0.089255095 0.63728094 0.22184831 0.4220853 0.06871858 0.8213834
l97 0.24095742 0.19379948 0.6971572 0.44248208 0.071248256 0.8521695 0.18422443 0.8832044 0.8617273 0.6066916 0.43066883 0.37177193 0.79546374 0.36549962 0.7561268 0.88367 0.65554196 0.5931702 0.34370202 0.8056595 0.24982059 0.33851594 0.98712957 0.6099898 0.16460037 0.3372661 0.97673136 0.6665682 0.6019799 0.33882996 0.056451164 0.69869375
l98 0.58986175 0.37083507 0.45275098 0.61398786 0.35598737 1.1822585 0.42841032 0.51405853 0.82963336 0.30811924 0.38984323 0.5808449 0.55616003 0.14176553 0.6890341 1.0363071 0.7048167 0.72474855 0.71435255 0.76796454 0.15159595 0.39320752 0.45100656 0.2991416 0.6778913 0.54194355 -0.11184953 0.38653767 0.7791859 0.8383886 -0.010564628 0.9103418
l99 0.15519695 0.5256853 0.3554161 0.60340124 1.0531285 0.38823172 0.89849865 0.5112319 0.20987363 0.32497373 0.3960456 -0.14079413 0.06725261 0.47623938 0.47097874 0.8124764 0.3098416 0.018629402 0.53642607 1.1892604 0.9509376 0.83120936 0.11382658 0.73730487 0.011361463 0.46385524 1.2304857 0.82684535 0.5696038 0.78679395 0.43792203 1.1713088
l100 0.40148517 -0.2185104 0.092794284 0.253177 0.88254523 0.44322398 0.33575872 0.09333759 -0.19288006 0.9182727 -0.31422347 0.6766348 0.671021 0.5454915 1.3870804 0.10385433 0.3006781 -0.2561998 0.55876946 1.1637113 -0.35935363 0.3227418 0.34212056 0.84239775 0.42512694 0.21703298 0.18090273 0.6745517 1.0124946 0.5181243 0.7253457 0.707635
l101 0.9602591 0.22806935 0.264952 0.54759943 -0.13485265 1.2436332 0.38837522 0.8377413 0.99683195 0.65466505 0.7992298 0.96730065 0.29569513 0.7541723 0.4596909 0.8274577 0.21181591 0.23540518 0.80335206 0.8496031 0.75869805 0.88668424 0.9611558 0.7406161 0.1807918 0.3268848 0.32141563 0.3988917 0.41220587 0.84709275 0.97574484 0.81704545
l102 0.6511193 0.19730638 1.0122374 0.60148394 0.5193216 -0.10633999 0.6348763 0.16113685 0.4408051 0.22832245 0.18373266 0.59042215 0.03463185 0.47181058 0.23999144 0.9928434 0.6708686 0.60919476 0.76393926 1.0679059 0.61925846 0.51360357 0.8659647 0.6140736 0.81526655 0.836049 0.36039332 0.6290309 0.0870044 0.4499612 0.7559657 1.127406
l103 0.9194692 1.0756059 0.7670805 0.85186857 0.35122204 0.19185427 0.46892217 0.47344404 0.24435867 0.6881595 0.8319905 0.5538225 0.6047089 0.33044213 0.31506577 0.27168363 -0.012525745 0.2923903 0.6596519 0.601163 0.8095896 0.18035167 0.82365286 0.6110172 0.3798972 0.8993702 0.20656098 0.64968085 0.65750957 0.91258997 0.1177331 0.95715207
l104 0.77636844 0.5566356 0.523971 0.7685313 1.0956893 0.62880045 1.0691026 0.30404395 -0.02644568 1.0806757 0.2962409 0.20726237 -0.012589933 -0.1337622 0.6529632 0.6531976 0.10831878 0.7511865 0.708944 0.80415595 0.28048545 0.4388322 0.39527386 0.23891744 0.5638805 0.79454964 0.9650618 0.8642846 0.73238754 0.34068593 0.3157979 0.6756544
l105 0.90920246 -0.32505974 0.7292108 0.1020252 1.0800496 0.5674614 0.5453897 0.86694574 0.20267975 0.88078666 -0.031554308 0.1888399 -0.11302448 0.275522 1.0600022 0.448143 0.6629909 0.5451295 0.90712214 0.6655279 -0.24863596 1.5086423 0.28984818 0.5444602 0.38203487 0.5638367 1.1333079 0.35139123 1.1445944 -0.23672388 0.3955079 1.1386164
l106 0.74852824 0.17747006 0.3894404 0.3677768 0.19556509 0.61154217 0.25923523 0.7453027 0.49768132 0.2929474 0.30606943 0.5084787 0.8627555 0.3611072 0.8090013 0.6187389 0.29100946 0.872655 0.38661966 0.62966216 0.97908956 0.3498735 1.0355686 0.12039189 0.5392857 0.1630406 0.17057878 0.3585656 0.33895847 0.20896947 0.267785 0.96227425
l107 0.77052504 0.6852645 0.8069972 0.75708824 0.33192822 0.7593515 0.08868519 0.3369776 0.8874038 0.71900755 -0.041420113 0.903823 0.5726789 0.5816842 0.3458523 1.1024235 0.61704963 0.22755475 0.14119166 0.35422984 0.019605229 0.5285609 0.5304269 0.43378645 0.42022467 0.6541125 0.17590429 0.5044745 0.391543 0.3224893 0.8153456 0.8583345
l108 0.38246182 -0.035442363 0.2756112 0.70042 0.44695467 0.7955212 0.06559301 0.802442 1.2826208 0.40285045 0.31749955 0.9343206 0.3144889 0.533315 0.49209082 0.35246077 0.6861536 0.31273478 0.91208786 1.1779237 0.33317572 0.24399823 0.47265622 0.29714808 0.6445164 0.4923822 0.27593684 0.54287213 0.83046734 0.840562 0.059876412 0.50414425
l109 0.38786393 0.23453991 0.54363364 0.75147563 0.45289585 0.89928454 0.69661003 0.70585155 0.6548254 0.34219396 0.05692958 0.5619015 0.7164273 0.19011997 0.8672435 0.3892263 0.79103196 0.9714902 0.495188 0.68886393 0.6250812 -0.016896758 1.1189827 0.104330786 0.26169604 0.51107097 0.174548 0.6404094 0.1661522 0.246778 0.37424332 0.2844617
l110 0.36781746 0.67601895 0.6664407 0.6981637 0.26790228 0.9049835 0.1830128 0.27892098 0.73916095 0.629435 0.34577924 0.7603261 0.20709683 0.50714827 0.5462171 0.3374507 0.4137778 1.0922866 0.35149384 1.0212792 0.4492038 0.7549721 0.89569557 0.11677184 0.3727549 0.79882395 0.7120789 0.40256587 0.16311054 0.31376538 0.37822184 0.6513442
l111 0.58473504 0.53210014 0.6545297 0.5213385 0.51892865 0.7501974 0.22677016 0.9794747 0.8456131 0.8197832 0.2990656 0.32047457 0.060119733 0.7846015 0.97789747 0.8152821 1.078894 0.3541412 0.9570097 0.29630953 0.76545614 0.44356573 0.20430441 0.32681367 0.12081416 0.5859999 0.9275565 0.7188488 0.17966695 0.3467276 0.5393123 0.55553776
l112 0.7446611 0.47149855 0.74691105 0.25564107 0.0036418545 1.0364805 0.35170043 0.31421086 0.8865226 0.7199618 0.32721072 0.51253647 0.33726934 0.51224536 0.34162325 0.8433933 0.7727013 0.3647939 0.8286337 0.26592705 0.7651546 0.38668495 0.83447456 0.6898889 0.54525626 0.2922027 0.38338512 0.6891078 0.67198133 0.99099535 0.707859 1.0216714
l113 0.6771878 0.56585145 0.3255611 0.96368134 0.28701198 0.78896576 0.023160284 0.87074685 0.87237513 0.40175456 0.6982963 0.8212603 0.24372882 0.8181025 0.06691079 1.1388276 0.41970935 0.5500919 0.27803054 0.8229027 0.24820976 0.73610175 0.8463305 0.22346015 0.7347768 -0.023443945 0.6109095 1.0126507 0.19482474 0.834305 0.85272145 0.2718233
l114 0.7250622 0.56337273 0.82255733 0.5135241 0.41585177 0.73792225 0.86399484 0.71402025 0.57074195 0.98874974 0.24741976 0.1698207 -0.037790664 0.4017829 0.60565156 0.4166905 0.8341689 0.5655073 0.9705177 0.16638 0.8586031 0.92984325 0.2095832 0.5222693 0.50918007 0.07569244 0.6793652 0.71730405 0.86100703 0.5872012 0.34664667 0.5041746
l115 0.3550826 0.35847807 0.9387816 0.9824815 -0.21392113 0.45431247 0.57669556 0.60165644 1.0184184 0.22276011 0.21541269 0.23519881 0.47871178 0.6833766 0.33331755 0.86558163 0.22749798 0.4786221 0.5824375 0.2226428 0.48843187 0.5016109 0.47323447 0.38590655 0.26104927 0.77430516 0.8195245 1.0751095 0.2860291 0.89506054 0.9090843 0.42748067
l116 0.6376414 0.73190874 0.9360366 0.8718821 0.5881053 1.0069934 0.6690054 0.33285812 0.3991512 0.59753036 0.3502059 0.64266086 0.43648547 0.2795095 0.9863432 0.34126794 0.43785033 0.3090444 0.7304457 0.56152445 0.61706823 0.4891939 0.4019267 0.6548661 0.5283881 0.2845121 0.7120919 0.6060679 0.23594323 0.19421455 0.6898033 0.98797435
l117 0.38133925 0.4798264 0.4514944 0.23858227 0.9538728 0.19331384 0.33491585 0.79745895 0.7054848 0.78610027 0.7138292 0.13885413 0.8336063 0.39424872 0.2869043 0.3278402 0.0068032104 0.25601202 0.52274936 0.70258814 0.7115302 0.40931457 0.7391015 0.33817518 0.19936138 0.2693038 0.535778 0.7864917 0.19810309 0.42438528 0.65982044 1.1701417
l118 0.57430863 0.43904993 0.3144178 0.8360795 0.50825197 0.28319103 0.2390347 0.301705 0.35325474 0.84250903 0.36781555 0.73287135 0.3069079 0.70041966 0.9100378 0.9478782 0.3568695 0.6928486 0.7011299 0.90353954 0.36460614 0.8057195 0.2651297 0.2138982 0.80099124 0.4472588 0.43067214 1.0071887 0.23943365 0.24512215 0.3623119 0.6050508
l119 0.20915534 0.35122913 0.610819 0.26718053 0.37079886 0.5223135 0.83104193 0.56061476 0.77258235 0.67542255 0.3823217 0.45884946 0.23838176 0.19341667 0.05991636 0.34201273 0.14453363 0.79499626 1.0148997 0.57249326 0.8214717 0.47560248 0.70714474 0.13249277 0.19683309 0.7320199 0.44099075 0.54432344 0.87808454 0.50596136 0.35916388 0.9924406
l120 0.5970139 0.4761304 0.5658472 0.4740812 0.0982084 0.3567406 0.47974727 0.67826104 0.89349884 0.37617904 0.26028714 0.7622088 0.021612208 0.06256959 0.8984803 0.17687063 0.5244077 0.7887198 0.93970114 1.0414687 0.08856034 0.8581119 1.000119 0.589202 0.6431855 0.7956928 0.89482176 0.9955736 0.29600978 0.6114219 0.54037833 0.2308985
l121 0.4730666 0.8941807 0.61623347 0.2811735 0.6601418 0.56269187 1.1960394 0.80157423 1.0610595 0.59352523 0.47149938 0.26428208 -0.046636883 0.7259198 1.012853 0.92432755 0.59799325 0.8374731 0.58333266 0.46721387 0.50898725 0.961503 0.4769602 -0.15234357 0.3794109 0.6335734 0.5015286 0.50722855 0.28275254 0.8186387 0.8106086 0.9510683
l122 -0.19254358 0.20483534 1.0965445 0.20562682 0.042526267 0.42014134 0.5138978 0.6817061 1.147123 0.84624153 0.44054818 0.49337915 0.6267872 0.5160383 0.47129118 0.9442277 0.7077242 0.9926369 0.9738571 0.5200704 0.4613878 0.52028084 0.46864733 -0.07063648 0.004663656 0.5458591 0.8624842 0.9835329 0.7345564 0.34212354 0.3856956 0.43995225
l123 0.44390666 0.43007302 0.75505507 0.30211097 0.2862042 1.0752524 0.6558578 0.23195879 0.9958095 0.6337858 0.6319071 0.5917405 0.07052071 0.4646048 0.5460817 1.0244293 0.66064274 0.9613133 0.4234632 0.49085683 0.89133954 0.46643463 0.96462566 0.69597733 0.09371877 0.34717655 0.15504281 0.6852169 0.49443004 0.7416186 0.17047557 0.56556034
l124 -0.12294012 0.63507044 0.877166 0.545581 0.8875282 0.5507622 0.7055691 0.73355967 1.0904664 0.461487 0.5279152 0.8873623 0.46570918 0.6514394 0.6286271 0.60556203 0.8846557 0.79375434 0.7530004 0.35732245 0.9570675 0.92972875 0.24753655 0.23244476 -0.018493818 0.18519126 0.7559213 0.82997566 0.45262322 0.621584 0.45905754 0.9189287
l125 0.013875028 0.40439427 0.7955121 0.417091 1.1391777 0.45391774 0.36727616 0.9799772 0.6274753 0.15905282 0.5477053 0.48577556 -0.10688568 0.52400136 0.8064035 0.31162912 0.5430602 0.7967029 0.3221183 0.45456776 -0.111367315 1.0429169 0.44717366 0.38683915 0.1146923 0.2742807 1.0401878 1.0890052 0.913386 0.23614265 0.35634893 0.7902391
l126 0.6151288 0.4122836 0.9351051 0.26163763 0.48037362 1.3622892 0.33499718 1.1561468 0.26424906 0.6323142 0.027887933 0.21833639 0.652056 0.36212662 1.1072363 0.58632016 0.8155498 0.12596296 0.78384 0.9881991 0.20472993 0.34272864 0.19212767 0.013990322 0.38766533 0.7386602 0.5778959 0.5305155 0.14659445 0.3673247 0.6995511 0.3302992
l127 0.35160938 0.27060345 1.04891 0.5634127 0.89000833 0.3024892 0.4577731 0.5834016 0.72355086 0.8517571 0.4394163 0.110339835 0.7425984 0.17178273 0.96452534 0.5242442 0.19183674 0.53980446 0.4290492 0.8590773 0.6271627 0.6637778 1.0523576 0.16174035 0.34756494 0.71451145 0.66178066 0.59780866 0.7596988 0.39850825 0.827924 1.0916216
l128 0.35116565 0.15446474 1.0630608 0.57505965 0.3346161 0.55230844 0.9670671 0.7363825 0.42086992 0.57533944 0.7193758 0.3991397 0.011327811 0.8669881 0.5368699 0.11963273 0.858066 0.563402 1.026183 0.31103227 0.78971297 0.36127502 0.5951745 0.8268928 0.33786866 0.41923195 0.09982534 0.94990474 0.38961518 0.7043856 0.56666666 0.90719837
l129 0.5034168 0.93362623 0.5179579 0.7412349 1.0422906 0.7744537 0.5221507 1.070461 0.3918827 0.36354586 0.93649656 0.76844466 0.07357931 0.098121695 0.7156029 0.8604314 0.30322573 0.25230318 0.44923475 0.4188659 0.3889457 0.34928593 0.16811155 0.26966438 0.61697364 0.12752686 0.18888445 0.5899144 0.3552724 0.07501955 0.45730275 0.80914336
l130 0.707457 0.49916074 0.5173408 0.5450683 0.8097879 0.70574534 0.37100488 0.92974126 0.6196875 0.8493449 0.12579234 0.65440047 0.47611967 0.3884232 1.0378253 0.40808597 0.53821546 0.5564301 0.8705286 0.8893459 0.66998714 0.69801116 0.7422831 0.4238177 0.664652 0.566842 0.3278109 0.4054885 0.57187045 0.9443863 0.63746184 0.43691698
l131 0.23663421 0.6626023 0.7642479 0.8184563 1.0398736 0.13334316 0.90060294 0.2633575 0.53335965 0.5575955 0.68577176 1.058791 0.33837757 0.11022907 1.1977657 0.60617816 0.22011612 0.26245278 0.42869684 0.4772743 -0.005930458 0.97030747 0.48456845 0.4609769 0.18651295 0.51434886 0.8289164 0.36693507 0.3482674 0.0030355016 0.14675023 0.7313589
l132 0.60287875 0.5866083 0.5659702 0.6047018 0.40484485 0.52517116 -0.0080716275 0.7723674 1.2608825 0.3864947 0.61175543 0.89031464 0.5731515 0.4076144 0.57240885 0.9573894 0.023782946 0.5906336 0.33245403 0.6686365 0.85447776 0.1878932 0.61004996 0.03832796 0.43580678 -0.055386752 0.11076673 0.6464214 0.5586973 0.7162661 0.6362071 0.17109117
l133 0.55048156 0.5558228 0.8462904 0.13420442 0.27197003 0.6311921 0.85226136 0.43465644 1.0130155 0.29593712 -0.118586764 0.5114305 0.63530844 0.36291918 0.77712166 1.0105889 0.47137284 0.5820319 0.43434113 0.56121117 0.31325316 0.8592103 0.73012817 0.16795264 0.13532332 0.19196956 0.78050035 0.18046929 0.6338807 0.5424716 0.65426815 0.7304336
l134 0.21368474 0.5503134 0.51748896 0.82364255 -0.10769112 0.85886145 0.9070556 0.66916084 0.49009377 0.7767259 0.44921768 1.2148901 0.21156792 0.18645704 0.29563728 0.68670034 0.69354147 0.5236081 0.81802183 0.15763816 0.2991983 0.7279203 0.58132505 0.6955629 0.5154064 -0.014283786 0.43702003 0.5162151 0.8969156 0.30289736 0.87563807 0.99473876
l135 1.0236603 0.16903475 0.997119 0.4179342 0.46265 0.8147958 0.78913283 0.9672268 0.7883476 0.2144507 0.18082479 0.3985752 0.41107503 0.3988994 0.6556388 0.43259844 0.10176089 0.5257145 0.7445283 0.72797835 0.6241029 0.65344334 0.6759701 0.31694165 0.6383543 0.0011327681 0.8095014 0.4153985 0.5053356 0.5107758 0.34196928 0.09715773
l136 0.24524094 0.44380948 0.2293968 0.93276614 0.7016479 0.1797782 0.15698756 1.062488 0.99701154 0.3817711 0.57510954 -0.016113963 0.35123083 0.26080853 0.31047717 0.37395522 0.17627516 -0.17513587 0.3470249 0.504696 0.66297245 1.040973 0.5426702 0.7877127 1.0482643 0.73360485 0.100296125 0.9025329 0.8647583 0.9717227 0.035154164 0.47348863
l137 1.2157354 0.39539513 0.79429656 1.0303397 0.5683702 0.4822217 0.59036046 0.4032859 0.09196444 0.30087608 0.5674125 0.31108117 0.08860013 0.61608356 0.6858932 0.3895786 0.55982864 0.6816686 0.99534494 0.028941939 0.43336913 0.7536673 0.41217706 0.42504895 0.5117763 0.21831143 0.70746934 0.8836025 0.086472146 0.8614847 0.64930713 0.41021916
l138 0.39535788 0.37991574 0.82836574 0.53253263 0.18128732 0.89239085 0.87546855 0.9621021 0.18894276 0.28606713 0.81380665 0.049544044 0.5618422 0.66538835 0.9653126 0.530927 0.83170694 -0.12620687 1.109868 0.7952837 0.61587703 0.67414683 1.0099522 0.19653283 0.8800876 0.8136452 0.61434627 1.2279508 0.40090552 0.86188674 0.89933234 1.2164447
l139 0.64171946 0.27798322 0.819451 0.6534194 0.23365025 0.53148675 1.3029716 0.32761362 -0.23029086 0.8073839 0.011088265 0.23962808 0.059276994 0.22774288 1.3350098 0.65335524 0.889837 0.42263934 0.83828807 0.41425124 0.041767225 1.0388718 0.46669337 0.7461986 0.36932412 0.9356423 0.6103662 0.54380256 0.8369657 0.7108283 0.6243503 0.608387
l140 0.7690474 0.30942062 0.65760607 0.59396875 0.6871275 0.7690957 0.50298107 0.54122823 -0.40542617 0.77028453 0.40883425 0.10705344 0.6508122 0.37200877 0.6713519 0.6722282 0.28666618 0.39775595 0.7136563 0.8086397 0.14031482 0.6581268 0.098895 0.092694506 0.34743527 1.034749 0.12715507 1.310986 0.42764768 0.5305925 0.5781689 0.78290665
l141 0.67944986 0.6869365 0.75795364 0.27383694 0.22857568 1.0378697 1.0042027 0.586435 0.23192705 0.6771964 0.31406248 0.78037727 0.44185597 0.50512 1.050961 0.7796926 0.3681279 0.63745147 0.36895335 0.44723302 0.3893474 0.39626887 0.63551486 0.7474425 0.50028765 0.32730895 0.85630393 0.45131996 0.09584385 0.7905105 0.017659297 0.5783883
l142 0.4087867 0.7927149 0.7990699 0.71231425 0.9661019 0.7179881 0.72786444 0.72055274 0.44945228 0.70622885 0.2361192 0.35254458 0.14585704 0.73188186 0.6048542 0.98373306 0.5729138 0.19070284 0.65042484 0.30404833 -0.01445868 0.42668742 0.6140265 0.44173223 0.24858151 1.0465109 0.38441095 0.46145427 0.2802321 0.23345186 0.8502254 0.7221512
l143 0.7011137 0.46291488 0.49420336 0.8772937 0.4312746 0.4533038 0.4717018 0.71009 0.7719974 0.3100992 0.22948658 0.7877421 0.4606917 -0.0063699395 0.6152789 0.81752306 0.7222769 0.4296601 0.693231 0.6051408 0.370158 0.6811093 0.7933559 0.69833314 0.1466618 0.8303471 0.2573577 0.7291767 0.2820431 0.15625067 0.38940006 0.5549275
l144 0.4098744 0.24358179 1.1119685 0.8021543 0.060400594 0.8540098 0.7863314 0.71898764 0.5972711 0.70520425 0.1729651 0.2794481 0.2424337 0.6265719 0.31209254 0.66883063 0.62298673 0.8195424 0.58719516 0.5168749 0.3322786 0.3177718 0.6795589 0.29094973 0.75539976 0.5322769 0.35159326 0.33691704 0.4986286 0.8091383 0.45310614 0.21917066
l145 0.73789144 0.99407107 0.60486746 1.0912805 0.8681668 0.84103405 0.42406437 1.0814857 0.22836283 0.66968334 0.6287748 0.72116196 0.16729468 0.7899181 0.018316388 0.77982396 0.4800425 0.44140196 0.39504045 0.035771035 0.3969952 0.54430926 0.3674968 0.65400136 0.60320437 0.051587466 0.5322516 0.8206864 0.87734866 0.54536384 0.40837568 0.86468256
l146 -0.119555056 0.6417874 0.68313986 0.19181146 0.252461 0.9021375 0.77527845 0.9226629 0.35843188 0.81639045 0.7040577 0.3022141 0.16492319 0.10687914 0.52272046 0.48762673 0.23024932 0.09396465 1.0101833 1.1584959 0.45413458 0.8528466 0.7214051 0.6752271 0.6438218 0.7236866 0.83867407 0.29920763 0.3648096 0.29327628 0.55562663 0.87068385
l147 0.81147736 0.47803965 0.37345374 0.849857 0.025072897 0.44621015 0.42756897 0.23486036 0.9029567 0.4398714 0.2654365 0.12534606 0.16589475 0.37712646 0.41877726 0.6865737 0.93509966 0.93287647 0.60241044 0.29973733 0.496513 0.38666466 0.61216855 0.5761664 0.4088463 0.12731415 0.40660667 0.6106109 0.07490733 1.1210141 0.7715049 0.68235433
l148 0.19298309 0.07871401 0.7540135 0.5548875 0.3340796 0.18604584 0.21016304 0.84878004 1.0899582 0.57656544 0.2514893 0.6198649 0.1887012 0.47738144 0.49814725 0.922099 0.7356943 0.5416338 0.2701421 0.7545553 0.19578943 0.41897088 0.7873346 0.33437788 0.7973238 0.2197405 0.78027827 0.5431088 0.59503996 0.28991032 0.36097792 0.53362036
l149 0.3009811 0.42441094 0.7549139 0.6157194 0.5048088 -0.050744303 0.4170865 0.040872965 0.96249485 0.55455345 0.2515148 0.61703664 0.35329843 0.23896027 0.5065393 0.42814106 0.38269237 0.7669255 0.7882386 1.0312035 0.8578348 0.735487 0.98740506 0.84098786 0.24164654 0.26436728 0.9760525 0.5587748 1.0111345 0.39425388 0.33348787 1.0303069
l150 0.63584477 0.9426303 0.5027948 0.8736724 0.7184019 0.75186145 0.4365665 0.7675765 0.58136165 1.0084594 0.5597761 0.6042213 0.1978763 0.8465224 0.4241881 0.5657389 0.39118642 0.8781937 0.57888037 0.83687603 0.56588125 0.25112307 0.85969245 0.2435607 0.31158763 0.3810394 0.8699674 0.3287334 0.48087987 0.3025538 0.404324 0.8551491
l151 0.42825004 0.32532716 1.0434422 0.30770013 0.3940943 0.43617597 0.8607954 1.2338713 0.7004107 0.44971132 0.6970655 0.36101365 0.46981493 0.46089032 0.63611877 0.64863133 0.70836645 0.22387135 0.82792324 0.59233713 0.65604126 0.2839939 0.848814 0.62818146 0.29013154 -0.05333681 0.41572762 0.3067389 0.7952062 0.36764637 0.441536 0.7797314
l152 0.68681586 0.74759537 0.34402123 0.45631132 0.02042333 1.2958246 0.12079398 0.5444707 0.74151266 0.863229 -0.028068893 0.6511344 0.91282755 0.319763 0.61870104 0.6091494 0.710544 0.486921 0.3238776 0.45500466 0.17242956 0.5911137 0.5431037 0.4688385 0.5436466 0.113221146 0.6489321 0.4005785 0.33673713 0.6782053 0.3037578 0.64125925
l153 0.7429352 0.40556696 0.9018116 0.81044364 0.5046081 0.56602806 0.368236 0.72368073 1.0857701 0.5132269 0.36836153 0.9167969 0.3746305 0.5349311 0.24429134 0.41395485 0.2960093 0.6986763 0.4911362 0.37252265 0.79154944 0.5603582 0.51970696 0.44744834 0.42012176 0.029033694 0.74888337 0.7413465 0.21939556 0.72185975 0.73826647 0.48186564
l154 0.08785735 0.66869193 0.7758717 0.6147274 0.53350747 0.28462818 0.46682465 0.472376 1.0458591 0.76954484 0.6468015 0.5210803 0.1268173 0.9855195 0.2916024 0.9175143 0.20984757 0.32948342 0.694206 0.91496354 0.6650641 0.51469225 0.33795482 0.117370464 0.065577984 0.81954664 0.67981553 0.70001364 0.67628807 0.6744993 0.3228544 0.5534685
l155 0.91857797 0.48232 0.6810248 0.867943 0.86143094 0.6170077 0.8419809 0.27038693 0.4425921 0.87394434 0.7567876 0.7223561 0.04113737 0.07906522 1.0745239 0.5329902 0.7789549 0.11631882 0.8054532 0.29402348 0.51779956 0.6558816 0.2861661 0.50289834 0.17046943 0.30746013 0.8629128 0.7183949 0.21628153 0.22861455 0.19913432 0.6575148
l156 0.56090105 0.6713914 0.30723625 0.4446787 0.60670984 0.4001821 0.4178002 0.90031314 0.51750326 1.0803833 0.45623004 0.96618223 0.589372 0.8273554 0.557136 0.3574533 0.68247235 0.76407707 0.26230496 0.63172257 0.7480501 0.7092163 0.5199041 0.7632703 0.61842453 0.21469796 0.12101034 0.8258305 0.093230784 0.813532 -0.047019243 0.87683034
l157 0.52780545 0.8680977 0.90444046 0.39665988 0.34435865 0.9502536 0.3639231 0.57606775 0.42375764 0.9839099 0.4557896 0.9810377 0.817295 0.76055187 1.0382134 0.98499894 0.42930767 0.16797452 0.9417947 0.53019977 0.70857143 0.26993087 0.17207779 0.10845448 0.41079503 0.10922851 0.810531 0.57531977 0.6444084 0.52374464 0.85126996 1.0203416
l158 0.19880569 0.44313866 0.64757913 0.46297196 0.4639216 1.0245761 0.70846003 0.30474505 -0.1254352 0.34647626 0.12130519 0.50723416 0.22657286 0.104295775 0.8318845 0.11398646 1.1014416 0.3879672 0.69003105 0.41759205 0.16163489 1.1251953 0.44644913 0.53195256 0.67038095 0.652536 0.67546284 0.9993924 0.092435114 0.8607039 0.48381242 0.70920765
l159 0.6601547 0.341669 0.5858042 0.3487698 0.58022827 0.49759886 0.8622381 0.37080204 0.29582793 0.8125691 0.24719426 0.86001486 0.3492406 0.37329662 0.86002606 0.4786619 0.46521765 0.32331342 0.18876697 0.7607507 0.29404312 0.74308175 0.32578456 0.28556412 0.26789084 0.28227863 0.72763944 0.75645274 0.4658013 0.6936222 0.3007173 0.85052514
l160 0.58029747 0.32159975 0.94608676 0.46830243 0.4842248 0.47821924 0.6392701 0.45151067 0.6664051 0.7274922 -0.19133613 0.2860952 0.64863497 0.9002455 0.2571636 0.7476341 0.29576024 1.0799814 0.73322 0.94647324 0.36241907 0.42927614 0.51873714 0.39961186 0.24708676 0.7456452 0.8278597 0.9687967 0.36439645 0.62833613 0.1047212 0.2986566
l161 0.050036933 0.6476692 0.25450227 0.5653466 0.50241286 0.66409266 0.55050176 0.8783559 0.7865253 0.9353056 0.4946977 0.27341574 0.45187125 0.40522423 0.6739248 0.33408618 0.33806634 0.58182967 0.60650396 0.9907661 0.56289464 0.6058337 0.06904449 0.41725078 0.3387315 0.7030408 0.3168696 0.30190742 0.7542403 0.9661879 -0.027274022 0.82379633
l162 0.6660102 0.46449915 0.64908284 0.5035492 0.9202884 0.81271726 0.71272635 0.8354221 0.4848898 0.82873994 0.18381253 0.8205845 0.30162084 0.14619221 0.7385104 0.3459111 0.7224811 0.32077315 0.5851005 0.523748 0.16022828 0.9691208 0.43293652 0.29447466 0.5703518 0.78971785 0.22327329 0.6215875 0.7209016 0.6803671 0.106594704 0.4520308
l163 0.6104259 -0.062836245 0.59301263 1.1023958 0.19820741 1.6173017 1.1888454 -0.15457788 0.25112137 0.73506373 -1.2634531 0.55115545 0.19797482 0.5970404 1.3915373 0.30147138 0.3439897 0.83425176 1.1742268 0.5231868 0.08029681 -0.0054419185 0.59843445 0.72518176 0.13858809 0.434264 1.0375296 0.37361896 0.76460934 -0.7264906 1.2065945 0.07318982
l164 0.56874985 0.36247858 0.38681945 0.80962986 0.59481347 0.48786843 0.44319543 0.2628908 0.98620385 0.610237 0.61038184 0.93092406 0.27382955 0.37228143 0.07811131 0.81912506 0.4342512 0.46911687 0.48347583 0.5804434 0.89938027 0.120599456 0.7870186 0.5832008 0.010162413 0.26512608 0.325823 0.7519216 0.20309088 0.35034057 0.552572 0.8695695
l165 0.35817504 0.65919006 0.73012334 0.2008208 0.20392394 0.8622198 0.36963674 0.9726547 0.47662282 0.777041 0.8039861 0.5959573 0.6550804 0.7487482 0.9238941 0.55693424 0.16420922 0.23772143 0.4491719 0.6936892 0.15603872 0.27588668 0.31894448 0.5046476 -0.03182091 0.48821658 0.8489359 0.8891826 0.26133105 0.9337277 0.11154868 0.47758496
l166 0.25988775 0.7094784 1.1776757 0.41646513 0.7172542 1.1163483 0.06918432 0.27576426 0.43320563 0.79234827 0.21462892 0.6484341 0.20326799 0.08175706 -0.042770263 0.29091167 0.85393107 0.010301075 0.7124709 0.56734717 0.7817791 0.86635315 0.71252203 0.59528154 0.5734029 0.38593805 0.54151905 0.62114036 0.10108004 0.058033783 0.7330212 0.28741676
l167 0.89542425 1.055773 0.8829677 0.71988946 0.91623396 0.93331516 -0.14791209 0.9989268 0.5949614 0.43875358 0.23452763 1.0881227 0.11307387 0.59733534 0.83229977 0.13150342 0.73661643 0.2582471 0.2476991 -0.05751491 0.15149972 0.5183649 0.21255134 0.7169496 0.8348544 0.58612597 0.0021739386 0.43182206 0.78457165 0.2913105 0.14883152 0.83097464
l168 0.9787922 0.7564537 0.12892084 0.3349494 0.43809497 0.86134034 0.7363891 0.22306937 0.034487225 1.0450494 0.43525484 0.79607445 0.5222735 0.6583487 1.1632671 0.8446049 0.0978254 0.016993858 0.40416548 0.4022761 -0.18080139 0.8974441 0.9600258 0.11753061 1.0802578 0.27337435 0.3793854 0.6823509 0.6028936 0.44687173 0.7938252 1.1165366
l169 0.91085935 0.15128529 0.3346527 0.77224463 0.1924579 1.0098575 0.5971323 0.698728 0.1618205 0.50069153 0.19952533 0.57573754 0.14400277 0.5673351 0.07861609 0.16099586 -0.076344155 0.34739977 0.48961768 0.95962346 0.09380608 0.013776027 1.0268005 0.8630237 0.2880514 0.9589714 0.5257397 0.8160961 0.037407666 0.2776996 0.6531827 0.663907
l170 0.91590685 0.4600718 0.16003634 0.3362223 0.6457448 1.1067525 0.7222934 0.8991349 0.95530486 1.0892243 0.10142444 0.3557486 0.34048247 0.31397557 0.6760021 0.22254981 0.7221324 0.8107596 0.74054056 0.26419327 0.6604931 0.46359393 1.0408831 0.19255383 0.47981873 0.28165126 0.48920357 0.17623991 0.7171409 0.88841134 0.01732135 0.150722
l171 0.46083492 0.63730097 0.45527285 0.62303704 -0.13518406 0.7341361 0.72070533 0.5208295 0.71207523 0.31361395 0.5849503 0.7813148 0.3798118 0.09633218 0.5241657 0.88254297 0.42577207 0.5722655 0.6711889 0.38602987 0.53355134 0.72022027 0.38006544 0.13421792 0.26125196 0.21564871 0.9236224 0.7446246 0.22842102 0.59132737 0.24353756 0.54281235
l172 0.73055094 0.6498562 0.8253834 0.7727266 0.005206913 0.5237727 0.5896795 0.19672494 0.20087452 0.6066073 0.33464557 0.76746833 0.40775004 0.20281965 0.42176607 0.83009666 0.36684933 0.5753812 0.25738758 0.7023412 0.85311645 0.52741987 0.6281188 0.68886113 0.28196207 0.51881486 0.7643221 0.54170406 0.6238815 0.43615717 -0.09003381 0.78107405
l173 0.97646123 0.58463705 0.5335484 0.27296802 0.2557882 1.1709574 0.2760922 0.6005593 0.6325622 0.8441765 0.18589978 0.6872456 0.25734589 0.79293454 0.3825569 0.481297 0.49154064 0.97971195 0.75978476 0.71564823 0.4238153 0.20147522 1.0716594 0.6583891 0.3709314 0.52561647 0.5139692 0.60462475 0.48506314 0.18723306 0.24140473 0.8559363
l174 0.690325 0.6882567 0.48090634 0.84055585 0.25852054 0.82966673 1.102175 0.85797113 0.46740258 1.1473242 0.70277774 0.7312511 0.6040637 0.10282213 0.86888415 0.5621679 0.7520835 0.74745345 0.8595953 0.4756341 -0.24275623 1.2749732 0.16321953 0.70932704 0.20344958 0.036547918 0.35644042 0.4473713 0.18289806 0.493319 0.7047638 0.6315738
l175 0.1933603 0.09844657 0.4101877 0.87264955 0.2689311 0.21022785 0.94145286 0.5105129 0.50205356 -7.320275e-05 0.45944375 1.0756079 0.4112151 0.6179492 0.29482207 0.564548 0.22297251 0.47893655 1.0027716 0.8962432 0.61309725 0.6004157 0.48885867 0.3440414 0.4795614 0.11545608 0.5786925 0.57975554 0.017763644 0.36073536 0.5416158 0.76760083
l176 0.36304894 1.026879 0.66318035 0.10296893 0.4934355 0.2639589 0.7315709 1.0746684 0.19652064 0.5602163 0.45762017 0.15672468 0.29986033 0.31219006 0.5618059 0.9791 0.1267281 0.81564105 0.6805949 1.0766896 0.735232 0.74859565 0.7329019 0.7458963 0.11285576 0.39519092 1.0528643 0.42973784 0.9490567 0.74757576 0.4376531 0.9666213
l177 0.46760213 0.39774168 0.3859079 0.82583374 0.22674398 1.0571814 0.8669007 0.84397185 0.4399351 0.17951654 0.23753504 0.49572656 0.33291256 -0.0661655 0.54455584 0.6667325 0.33931524 0.8811594 0.4938302 0.54518265 0.7199921 0.89381975 0.39035353 0.2851315 0.8375827 0.4245246 0.379165 0.79106337 0.4452341 0.32997054 0.16248411 0.7860091
l178 0.60301346 0.64688516 0.1339196 0.8247703 0.4218824 1.1596148 0.32199532 0.51567614 0.18614466 0.73843336 -0.813186 1.179138 0.78088075 0.08242085 0.81115097 -0.12506564 0.15865953 0.53726 0.35685006 1.0793273 0.34383708 0.8240952 0.7643498 1.0403827 0.86080647 0.35091913 0.80207527 0.15502183 1.2144649 0.60302687 0.2917449 0.7164376
l179 0.41575706 0.35151434 0.9343036 0.3653117 0.47046086 0.5550802 0.14708647 0.75121886 0.82775813 0.8331329 0.54258007 0.78605497 0.6195449 0.343052 0.49357316 0.29218632 0.23111136 1.076306 0.7703814 0.95720714 0.5697028 0.29539925 0.87425935 0.44331965 0.20539647 0.19266236 0.47083858 0.78753483 0.55106276 0.5031295 0.47557783 0.261618
l180 0.56583494 0.6771711 0.4070339 1.1390938 0.042761024 0.9327183 0.6457888 0.43433654 0.76249 0.45371544 0.50797355 0.5258536 0.5689138 -0.08761222 0.5897351 0.5256729 0.293335 0.6120357 1.1284641 0.58011305 0.64210653 0.7078404 0.5675803 0.29662907 0.12193123 0.67686015 0.21227519 0.17419294 0.5836383 0.21808147 0.49527165 0.5859818
l181 0.586831 0.4996097 0.71329737 0.90576 0.55621445 0.98989964 0.36750507 0.48686057 0.515401 0.2721697 0.58344984 1.0607322 0.49438217 0.62599176 0.008401149 0.55843604 0.7656617 0.658916 0.30647853 0.9133691 0.14242518 0.18432453 0.57170117 0.7098799 0.33715233 -0.11847591 0.015060569 0.30663708 0.2647794 0.6410378 0.15995419 0.71711767
l182 0.22244306 0.7046435 0.8780218 0.341335 0.25022382 0.7851196 0.3408859 0.47822538 0.9759825 -0.030059941 0.027084973 0.3178436 0.26682732 0.6199316 0.23868014 0.55098987 0.0977187 0.8879092 0.3283431 0.4482307 0.7134265 0.38181752 0.41865262 0.22837435 0.2822147 0.8275718 0.8617066 0.6107563 0.41646025 0.7121736 0.30205384 1.1226916
l183 -0.1785791 0.9690565 0.94301176 0.6240479 0.649318 0.47403035 0.37375593 0.66227096 0.82301193 0.23661663 0.77057 0.7415028 0.55353296 0.14750032 0.81743896 0.5367171 0.057132658 0.6171009 0.32284236 0.6350584 1.1940266 0.5604642 0.20971975 0.20317604 -0.039863028 0.82647306 0.889092 0.8618692 0.22784457 0.41194266 0.20816612 1.182223
l184 0.6034453 0.7115235 0.5956371 0.58024925 0.04929842 0.99738735 0.56311816 0.77451634 0.56643957 0.250597 0.36895964 0.83898807 0.41006172 0.4484881 0.25067157 0.5191016 0.58050376 0.60369116 0.3458893 0.4611977 0.8008449 0.7193694 0.77490973 0.19442722 0.71652555 0.09900056 0.14804468 0.49650645 0.07305996 0.6066992 0.6621408 0.54247105
l185 0.088769324 0.7785255 0.28003752 1.132334 0.4369584 0.17836194 0.27868313 0.41049668 0.9556537 0.041321725 0.3631127 1.0089897 0.7286732 0.025446001 0.7468128 0.79119563 0.6243989 1.026949 0.8227422 0.42567164 0.7110482 0.8480053 0.41608596 0.4437776 -0.065658316 0.8241347 0.19179526 0.6979671 0.2602697 0.66102666 0.45020187 0.9117527
l186 0.3281193 0.79795873 0.5426053 0.3950663 0.17237514 0.7532746 0.389398 0.6929723 0.69023824 0.4533967 0.5070837 0.5641701 0.11940197 0.40306917 0.7157431 0.12195882 0.38798395 0.71346915 0.71270686 0.35745865 0.60627896 1.1149025 0.2002025 0.43188822 0.54093844 0.6313737 0.6775635 0.36589292 0.07130462 1.013554 0.049012035 0.6599068
l187 0.52636015 1.0887223 0.46165448 0.47316885 0.8211892 0.8706172 0.13244829 0.5239812 0.53431726 0.92667675 0.33122507 1.1917202 0.25413182 1.2462983 0.6666408 0.62411577 0.7132877 0.5662596 0.86901844 -0.16794482 0.5135367 0.7145405 0.7029655 -0.04673405 0.8507102 0.2508026 0.3104037 0.63554865 0.31209144 0.25264224 0.4134968 0.34711587
l188 0.7413181 -0.04579912 0.85990924 0.7991566 0.75919247 0.64723104 0.3882595 0.95104593 0.7894454 0.6978295 -0.29295132 1.0704412 0.5486773 0.58644825 0.31855276 0.20390251 0.5921628 0.08612837 0.19868399 0.8449337 0.24597916 0.32349443 0.8112827 0.737717 0.1837762 0.7349942 0.82270604 0.64656806 0.7645232 0.35309938 0.47518185 0.7119149
l189 0.15414347 0.50226456 1.0111867 0.37811378 0.7881328 0.9727109 0.78125954 -0.053536016 -0.059466533 1.1598697 0.04092981 -0.055635374 0.14444578 -0.08635053 1.3694059 0.85841215 0.7183328 0.97893196 0.9468031 1.2329973 0.081911795 0.2826973 0.96149594 0.2400104 0.62812686 0.5872517 1.360913 0.3609194 1.1158992 -0.31569082 0.35777858 0.68429077
l190 0.75687325 0.26777157 0.41950563 0.16269727 0.048856657 0.4642748 0.41910604 0.7503839 0.5704672 0.6596292 0.067320265 0.8366238 0.30822167 0.667822 0.25047863 0.28372523 0.37120733 0.29484248 0.7461522 0.7618002 0.32293746 0.92996055 0.90195006 0.4262679 0.7245638 0.5241621 0.6614463 0.38504648 0.38138315 0.5708396 0.60522956 0.78916746
l191 0.120843925 0.66913164 0.9155315 0.79386735 0.5639256 0.48222426 0.66607666 0.5654173 0.77621573 0.35730788 0.2597202 -0.053827647 0.35934985 0.6128917 0.6776298 0.15373726 0.13129498 0.5139732 0.72431946 0.9700975 0.47853243 0.8387525 0.6100912 0.7549697 0.5826445 1.0259672 0.6222678 0.47476953 0.43334624 0.6747449 0.78056294 1.1205401
l192 -0.110818654 0.5069171 0.48022532 0.8538944 0.49885502 0.12687394 0.7171082 0.806346 0.41491422 0.39780742 0.37294355 0.43319905 0.8128949 0.8297962 0.5014859 0.5288665 0.5527277 0.59385407 0.8317627 1.0257528 0.63668656 0.525973 0.44189677 0.11149447 0.7209942 0.8452173 0.33942702 0.4798047 0.2505156 0.5916938 0.24832879 1.1173297
l193 0.36081126 0.47558278 0.6724772 0.5226936 0.6981646 0.90114653 0.07164158 0.4799411 0.7945474 0.22954726 -0.12946014 0.60010535 0.2731114 0.9560422 0.12920691 0.959141 0.38027033 0.38505074 0.9336544 0.95566285 0.19515613 0.051875345 0.50843257 0.3346219 0.22198726 0.28160802 0.9052858 0.5656431 0.84960496 0.4766852 0.55763507 0.42592221
l194 0.13303341 0.36961886 0.34165314 0.25568438 0.115456186 0.85674137 0.24643381 0.8896192 0.8117344 0.6884965 0.32296398 0.38807666 0.13702244 0.4240418 0.20806143 0.38423806 0.056924123 0.8688668 0.42877 1.0661896 0.417407 0.5523461 0.26585814 0.10155956 0.6417885 0.4605026 0.37785614 0.77635944 0.22323 0.9416444 0.5343874 0.24262819
l195 0.23847412 -0.031143982 0.6057942 0.19959612 0.7052309 0.15329097 0.6904592 0.72908074 1.2928736 0.5841395 0.9546252 0.12641762 0.2639127 0.7416487 0.73860043 0.434489 0.41913813 0.48275527 0.63720995 0.7144776 0.52089965 0.71570647 0.97912097 0.85903287 0.5167883 0.4419255 -0.011466053 0.7719927 0.9095121 0.99193454 0.22065268 0.78051066
l196 0.58400095 0.32409906 0.81283003 0.6786886 1.0316967 0.3355362 0.9327701 0.4653398 0.6802356 0.32864684 0.54630184 0.17478932 0.061908767 1.1514732 0.19942728 0.115159854 0.68924296 0.62313205 0.8450583 0.5819395 0.3310599 0.93547535 0.5203215 0.7567024 0.6738671 0.35366222 0.36343256 0.8462629 0.8244029 0.93283236 0.20267196 1.1728657
l197 0.6073892 0.40497097 0.41146797 1.0095309 1.3717022 0.4801443 0.618461 0.2722923 1.0476463 0.5114971 0.43259293 -0.12155299 0.4367924 0.5524215 0.6660581 0.036422387 -0.12421484 0.54345024 0.44022813 1.0998192 0.5301999 0.8001233 0.7846792 0.94961387 0.7929378 0.28179553 -0.035769027 0.67181885 0.56538653 1.0507345 0.58186454 0.4771282
l198 0.26596713 0.08061483 0.38064474 0.5568928 0.93903 -0.059946552 0.5237472 0.9367403 0.82252073 0.5101141 0.6238329 0.36410218 0.24788979 1.1454216 0.8449781 0.48286954 0.23252715 0.05177943 0.99002457 0.79271966 0.14954956 1.0075922 0.36704004 0.42074013 1.0319065 0.3228148 0.09543623 0.4687833 0.2379572 0.22434804 0.6062049 0.43288735
l199 0.085997894 -0.08763332 0.84843373 0.7414135 0.955771 0.089751065 0.27629393 0.5643175 1.0779506 0.685292 0.43439856 0.0045673363 0.1316941 0.9904472 0.23601359 0.086926326 0.63459563 0.15726812 0.4577287 1.0392385 0.038353514 0.75183105 0.3074013 0.61135525 0.40111005 1.0544714 0.79667586 1.0369656 0.32583866 0.89918387 0.62881947 1.0078229
l200 0.5192584 0.31170183 0.66423184 0.23517342 1.2255121 0.29750058 0.46273547 0.59383947 1.0923196 0.7159066 0.48036078 0.3363154 0.82233584 1.212295 0.8230807 0.21663666 0.6607572 0.5594347 1.0139999 0.5578039 0.2090089 1.1465064 0.59489346 0.66242784 0.18660794 0.26466215 0.34540126 0.8964579 1.000627 0.66204727 -0.010079515 0.85697734
l201 0.6915569 -0.04334076 0.3055215 0.31850514 1.2442131 0.047705732 0.38308108 0.22836863 0.739013 0.38249665 0.5101634 -0.0116958255 0.41280165 0.70454603 0.6470746 0.70265895 0.44787642 0.08570119 0.31164572 0.96774507 0.07930627 0.47756764 0.9020674 0.35784078 0.7143877 0.5350127 -0.09675678 0.5511718 0.85149324 0.7075853 0.3201725 1.2993083
l202 0.07005724 0.2822159 0.2595719 0.32204816 1.2686566 0.5347219 0.39053148 0.25565302 0.5311763 0.3199996 0.28461495 -0.121710494 -0.023790894 0.7474442 0.61978084 0.30155462 0.37831616 -0.034443937 0.56528175 1.0435555 0.73650235 0.8122876 0.9577943 0.90083694 0.6107853 1.0434787 0.6660482 0.9512114 0.5317353 0.2801966 0.12519187 1.2093515
l203 0.30253133 0.19176637 0.983939 0.3245706 0.9328531 0.085648715 0.4871615 0.4209252 1.0732188 0.2151696 0.53442425 0.1711234 0.47660077 1.0489391 0.8374054 0.36297593 0.119975336 0.1833966 0.26063022 1.0083714 0.52473956 0.41932994 0.8542016 0.60248965 0.6255999 0.606281 0.40847424 0.4268881 0.7143559 0.5103609 0.15400599 1.1604394
l204 0.39585534 0.06951089 0.5863712 0.69833297 1.2558372 0.4100788 0.8163912 0.4098786 0.58915204 0.8873648 0.73683006 0.30006805 0.19899686 0.79722756 0.19011155 0.5829949 0.5215028 0.6319007 0.3765671 0.45848525 0.6074244 1.2188237 0.9422082 0.34258467 0.8290637 0.5655037 0.35417596 1.2456763 0.7699245 0.6420826 0.39664203 1.168471
l205 0.6924466 0.40384123 1.0820794 0.61226517 0.83572775 0.061645363 1.0328532 0.5498832 0.71410424 0.6331362 0.8074279 0.0019457139 0.2774775 0.8037501 0.3409619 0.2019645 0.019275622 0.50690895 0.7424378 0.60787785 0.4641414 0.61792696 1.00691 0.75567794 0.6807245 0.9333543 0.5311652 0.79602206 0.5726782 0.68726003 0.47830498 1.1538197
l206 0.25873294 0.13186555 0.8873895 0.4984821 1.2299898 -0.18038125 0.6338227 0.8074099 0.95515823 0.675563 0.252446 0.3863833 0.15241519 0.9874301 0.5868563 0.46298525 0.30262172 0.6093609 0.11074436 0.82493615 0.29068437 0.9631989 0.7173951 0.37382507 0.6817783 0.8734524 0.7507941 0.92250264 0.9347109 0.79796207 0.28357315 0.7494898
l207 0.07379351 0.04285331 0.8816287 0.79640454 1.0436188 0.36112842 0.4613592 0.43762183 0.9719033 0.23022063 0.8824432 -0.15845668 -0.16114306 0.832031 0.29901686 0.24909243 0.20387565 0.37533593 0.29798532 0.9154018 0.4158978 0.5206243 0.54149663 0.62987345 0.11582185 0.9106366 0.25631076 0.5748287 0.19490515 0.27031857 0.15976799 0.4953573
l208 0.16076942 0.23670603 0.64346546 0.18591438 1.126908 0.39956203 0.96588427 0.68928736 1.2150797 0.65925634 0.5618463 0.09182857 0.22435486 1.333117 0.53869027 0.6375177 0.0641768 0.68751127 0.6554456 0.78997976 0.71771353 0.35745856 0.79633987 0.42479753 0.62334967 0.83976483 -0.045189716 0.7585209 0.4084806 0.8484019 0.01394088 0.3734555
l209 0.11805399 0.16413184 0.32795095 0.5382127 0.78992087 0.5455012 0.42704964 0.37406433 0.6850866 0.80822915 0.89250994 0.0916278 0.5002511 0.78750265 0.71519387 0.077274434 0.3934265 0.16123807 0.6972518 0.8768867 0.4525277 0.9387745 0.827846 0.35172105 0.9818683 0.5424423 0.11778882 0.5582559 0.4390762 0.39037502 0.029118072 0.9111169
l210 0.28744972 0.38255826 0.5167332 0.82840526 1.4208423 -0.14981095 0.8944694 0.25397962 0.59192187 0.38428098 0.26349664 -0.0044965204 0.44676623 0.582273 0.2599545 0.41994852 0.6097196 0.11892504 0.7788497 1.0954802 0.3909596 1.0097629 0.7198847 0.28132784 0.5245802 1.1783682 0.31801388 0.6080286 0.33520353 0.6064381 0.34433377 0.7570519
l211 0.27718508 -0.082408264 0.7113172 0.16523856 1.2445081 0.49507833 0.8812878 0.45114517 0.49396494 0.4773771 0.9223927 -0.081578985 0.17604838 1.3959366 0.25599355 0.19152932 0.19496141 0.7775034 0.44776705 0.6326802 0.12583418 0.31731758 0.61801046 0.36446786 0.28936842 0.3583316 0.2341381 0.94393724 0.21323097 0.47949544 0.1583631 1.0861391
l212 0.36171356 -0.09904743 0.6545932 0.9897451 1.1036195 -0.026590848 0.3325567 0.2731083 0.685075 0.7607541 0.29153523 0.32961836 0.7215382 0.6082437 0.34744173 0.057625704 0.23212276 -0.0015459959 0.3955272 0.38908872 0.29807866 0.84708977 0.537043 0.38239664 0.7647247 0.7321374 -0.03684432 0.8677326 0.6997531 0.51266867 0.5761936 0.75771654
l213 0.46458983 0.031207247 0.47834074 0.4880761 0.93497276 0.35739872 0.99535537 0.2904015 1.0365406 0.5793329 0.8347984 0.35619494 0.34737736 0.7400362 0.27281502 0.66457266 0.5053269 0.11188306 0.94912094 0.74121743 0.22459453 0.5140432 0.8017273 0.7066908 0.26685354 0.9228782 0.31265017 0.84069663 0.30529213 0.39020216 -0.045050867 1.1152058
l214 0.2784998 0.4458065 0.89249724 0.20381841 0.5684221 0.21175091 0.57099503 0.56881255 0.88548183 0.20696063 0.45804542 0.13486454 0.2885542 1.1497028 0.6927571 0.87516934 0.12903188 -0.04861484 0.88666373 0.64951307 0.33885998 0.42288646 0.78216016 0.90042675 0.7823418 1.0084447 0.29819438 0.99009675 0.80943465 0.5144801 0.2710943 0.90590453
l215 0.44350886 0.5096424 0.8971217 0.49356923 0.6506252 0.31223392 0.5603786 0.7240197 0.4146065 0.13457376 0.47220328 0.5463132 0.39789686 0.8822549 0.6111423 0.35261816 -0.13497695 0.18046267 0.36658224 0.96446 0.37605593 0.7205086 0.59887123 0.7766381 0.6231177 0.7472526 0.15267989 0.79951465 0.549547 0.33634248 0.5122167 1.0626277
l216 0.13994272 0.14264123 0.21658073 0.07846559 0.8419509 -0.16361627 0.871984 0.13826628 0.7242399 0.5004481 0.3242953 0.17367315 0.2296935 1.200822 0.3967432 0.6939691 0.046620127 0.43734124 0.7764708 0.8392789 0.7739949 1.0668459 0.908898 0.16774678 0.6217703 0.4505011 0.5229584 0.981088 0.6876203 0.9034146 0.5023702 0.50053173
l217 0.6175746 0.055320565 0.23341562 0.88020897 1.1239438 0.17019399 0.15944003 0.93894064 1.1161898 0.4965082 0.6053197 -0.24257304 0.6710007 0.8341487 0.7461053 0.20177858 0.35949668 0.6801975 0.93874854 0.62006253 -0.007561276 0.492596 0.40382877 0.118376836 0.25202763 0.8944471 0.39175853 1.2995971 0.6093989 1.0458674 0.6476489 0.7444556
l218 0.20871504 0.1297812 0.6464997 0.18358116 1.1814644 0.093932964 0.29990658 0.797074 0.91161716 0.58727425 0.68350846 -0.0062445854 0.23666541 1.0557556 0.27242973 0.33055767 0.7072879 0.12346886 0.88309306 0.63565737 0.62918043 0.62703526 0.59656674 0.48667306 0.64901817 0.6478806 0.061345976 0.92116445 0.38157403 0.54723 0.03781038 0.4665586
l219 0.36123484 0.10426613 0.4937106 1.0020167 1.1803911 0.20532238 0.4108787 0.36092374 1.0799298 0.66508603 0.9822145 -0.02799895 0.41089618 0.93405914 0.29759714 0.29646447 0.34172395 0.26443297 0.28577742 0.7557716 0.17525363 0.36800802 0.9357134 0.7721821 0.9163206 0.49425903 0.11988486 1.0000242 0.5687284 1.0083624 -0.0082338825 0.73227197
l220 0.30184764 0.0003477734 0.85727465 0.051928133 0.89656496 -0.07843256 0.3406627 0.9228555 1.0637176 0.42575207 0.54336345 -0.015312446 0.63361144 1.3434025 0.68137425 0.56486434 0.31332925 0.13541003 0.8179226 0.5851224 0.7512832 0.85245603 0.77261776 0.4095926 0.6912315 0.3748424 0.28109488 0.8093758 0.47190714 0.44677567 0.2439927 0.36572835
l221 0.3813537 0.29085907 0.87438095 0.7315852 1.0583467 0.42814034 0.5747335 0.6622492 0.7253665 0.040534966 0.67529786 0.49216023 0.35914576 1.1042622 0.33924672 0.37393385 0.53539735 0.22874838 0.8434456 0.9862999 0.12131513 1.0782335 0.71498144 0.7273653 0.44651437 0.44889143 0.42008984 0.53173655 0.38542083 0.6912577 0.5141127 0.73839164
l222 0.74131304 0.26435876 1.0209352 0.31485665 0.7269648 0.010336931 0.85884017 0.8706389 1.0077121 0.53805953 0.3457225 0.17062473 -0.11544616 1.4021919 0.3428122 0.61477053 0.60967416 0.57409453 1.0733093 0.6682817 0.37567854 0.506276 0.89581716 0.3313558 0.8896316 0.7571472 0.55745107 0.66925436 0.2723083 0.56181014 0.81821066 0.81183755
l223 0.24544978 0.27393156 0.67118317 0.26847604 1.0434508 0.11050547 0.5174577 0.9155555 0.9486484 0.28021455 0.843036 0.09583526 0.21838725 0.94218194 0.89731634 0.66219896 0.58274 0.17443565 0.28402025 0.4291049 0.11666915 0.9559388 0.49323112 0.90056103 0.89120555 0.09140385 0.2704801 1.0854461 0.38866767 1.0239556 0.0036974805 0.4226664
l224 0.6012612 0.091318384 0.5554071 0.8212097 1.4380767 0.0027331768 0.572322 0.30129132 1.1238407 0.124638945 0.7469541 0.45231664 0.26287088 1.1140285 0.5878629 0.20736082 0.58955413 0.29789922 0.84636444 1.0388094 0.40089273 1.1606096 0.80916727 0.2515623 0.47604296 0.32942712 0.20556255 0.9365816 0.16714072 0.66898525 0.8666627 0.64428335
l225 0.05396169 -0.14769508 0.44590202 0.5773139 0.7821336 0.016793903 0.12723501 0.5512753 0.7961274 0.861362 0.9294197 0.20127086 0.35838413 1.1050612 0.29272947 0.15933385 0.27443856 0.27817884 1.0346179 0.677823 0.05205172 0.92068774 0.82755244 0.79476 0.56720495 0.4367004 0.17629804 0.88272566 0.89911616 0.38840252 0.27322632 0.5311748
l226 0.40333986 -0.26338452 0.29237205 0.10784577 0.6087895 0.08704372 0.909125 0.6673375 0.69809616 0.46958357 0.29752836 0.036727935 0.6276763 0.8862277 0.55637217 -0.030696774 0.16649185 0.17014109 0.7673243 0.6701021 0.8289593 0.69197327 0.719382 0.48233023 1.1033218 0.51635194 0.22370933 0.90103513 0.28050774 0.96663713 0.19058344 0.9790556
l227 0.576653 0.31352988 0.7613849 0.49066964 0.8618467 0.18409449 0.97869843 0.7354134 1.0863842 0.7977838 0.71043324 0.4294411 0.83465064 1.1220762 0.5827267 0.17481078 0.5843363 0.8273111 0.7982877 0.5245095 0.5437037 0.5419627 0.51302654 0.12681116 0.911525 0.2556432 -0.08547236 0.5975467 0.5982773 1.0042709 0.00260233 1.1126341
l228 0.18990105 0.6121276 0.4513661 0.48179308 0.8415804 0.058552034 0.8688818 0.85135037 0.48444173 0.72092456 0.87634504 -0.18707323 0.5641206 0.5434213 0.43012807 0.4147857 -0.028385902 0.61960953 0.94228524 0.7113279 0.5787231 1.0540863 0.39247748 0.22670804 0.7199455 0.54525834 0.67305297 0.7182336 0.65375036 0.5432579 0.20735459 1.2010158
l229 0.38938612 0.6878091 0.68424803 0.7853986 0.7586216 0.28884786 0.41209602 0.7878202 0.5669106 0.1972101 1.0306908 0.17025803 0.31164762 1.294461 0.7301515 0.75668436 0.019935733 0.20930173 0.821056 1.1433004 0.15096979 0.7642442 0.5007527 0.6579613 0.9516405 0.49866897 0.42042953 0.5817847 0.331421 0.67842054 0.2868923 0.74876684
l230 0.1107323 0.38942927 0.19748466 0.14480396 1.2247427 0.36306688 0.8971276 0.9514363 1.0929822 0.86761975 0.49402046 -0.04430801 0.3112587 0.9831413 0.22161277 0.82311475 -0.12574875 0.039674927 0.1626189 0.6686465 0.044793423 0.40738928 0.49947244 0.6403445 0.742868 0.8172042 0.4025266 1.0843089 1.0266953 1.0351609 0.14934966 1.2308885
l231 0.2264097 0.4605824 0.9104815 0.3594101 0.7455318 -0.12519039 0.712403 0.24991618 1.1748239 0.47886184 0.9050179 0.6581666 0.27738038 0.85629576 0.8021491 0.40239128 -0.045891725 -0.05899083 0.65550923 0.34559888 0.61325365 0.76565236 0.84447086 0.24676771 0.6009905 0.5690419 -0.066872574 0.41166824 0.5547738 0.34400722 0.71381605 0.6902162
l232 0.55984324 0.28102288 0.45810875 0.7093657 1.1292663 -0.053063933 0.3368692 0.54069775 0.56306016 0.47082403 0.34521508 0.63282514 0.3886616 1.1853753 0.23650402 0.5166281 0.5996327 0.17862618 0.6996831 0.54185885 0.07845641 0.93195873 0.516342 0.7601258 0.9119975 0.38392457 -0.1621119 0.97221565 0.12549473 0.36366332 0.6682153 0.8004036
l233 0.6167553 -0.056611445 0.4205939 0.10881873 0.581451 -0.25521454 0.55301964 0.54898524 0.74711716 0.8003899 0.8684713 0.5856247 0.35466602 1.1002579 0.5430355 0.24969535 0.43751648 0.155269 1.0107964 0.5390318 0.60044837 1.019885 0.84808946 0.39237577 0.6147232 0.34133777 0.2531654 0.67633617 0.7792609 0.71733063 0.35066634 1.0821849
l234 0.1132031 0.022211805 0.29236305 0.90194565 0.96002907 -0.21637502 0.2979161 0.75843954 0.56696266 0.5104656 0.25536078 0.39949784 0.39814925 0.5643429 0.89312226 0.0022727577 0.543596 0.23350888 0.79327136 0.82065713 0.46999216 0.5351144 0.9107152 0.7260459 0.98453087 1.0868165 -0.034259897 0.9947792 0.6479147 0.63735044 0.67936677 0.84506094
l235 0.5065628 0.44975147 0.26396188 0.4566724 0.32661992 1.3170578 0.36329854 0.3948617 0.538794 0.69954455 0.3304896 0.5140497 0.3992787 0.50560784 0.31604233 0.9041065 0.60161495 1.0689127 0.7512222 0.5213617 -0.035066944 -0.02284804 0.71087474 0.17642379 0.625901 -0.1297565 0.6129938 0.84714836 0.72197586 0.6289145 0.21145715 0.40911472
l236 0.583036 0.8896899 0.37274694 0.81006235 0.9293714 0.7297237 0.38139403 0.5270673 0.8759103 0.24276257 0.4867529 0.62171876 0.07245746 0.31992993 1.0648519 0.5141074 0.67898035 0.024544682 0.59848773 0.16679831 0.50386775 0.96346694 0.6106481 0.47074512 0.564816 0.088018924 0.53704435 0.53705895 0.32414684 0.56481177 0.7493367 0.5895674
l237 0.1375307 0.064297915 0.5183905 0.99386054 0.017390223 1.074319 0.4196747 0.4793054 0.63857985 0.09714042 -0.17579158 0.5385596 0.80293393 0.310719 0.997724 0.604358 0.6385865 0.5430588 0.18896453 0.7807458 0.8927771 0.57827765 0.27801478 0.42868572 0.86957735 0.6488464 0.11944411 0.69520277 -0.017486354 0.81743205 0.3496849 0.6734163
l238 0.15420175 0.058128938 0.41227463 0.49781916 0.383051 0.6270503 0.31809288 0.86324966 0.7948372 0.23149322 0.29632017 0.9218506 0.049146686 0.13650985 0.8341547 0.6517968 1.0019138 0.90860397 0.72622055 0.9049087 0.68199086 0.53613 0.17832553 0.93191147 0.18304384 0.49864295 0.34205225 1.0170864 0.12271101 0.87361354 0.15411936 0.49732262
l239 0.58122176 0.37528905 0.24786295 0.77201074 0.5252794 0.49683282 0.31172192 0.3108795 0.41463828 0.9879551 0.482467 0.31308448 0.00023455067 0.22462817 1.3109077 0.7406897 0.5475116 0.460257 0.9909829 0.53866565 0.059926737 1.0235487 0.26109558 0.45805556 0.9634632 0.6108392 0.74375737 0.8688286 0.942706 0.6553396 0.29969236 0.8796855
l240 0.7429553 0.78698707 0.50877696 0.65894544 0.12754686 1.0004096 0.7136637 0.35950214 0.59738284 0.12571086 -0.13582876 0.49003384 0.7506782 0.8820135 0.4834339 0.9570479 0.42007944 0.48864013 0.47151065 0.6962835 0.9255658 0.18514156 1.1116831 0.29474652 0.59761935 0.5666056 0.5077053 0.70569247 0.1850674 0.89525753 0.2972894 0.4690305
l241 0.49713376 0.63411444 0.8722386 0.27505654 0.5714728 0.5594625 0.17354168 0.4907472 0.44795948 0.520055 0.16879275 0.3122809 0.27296445 0.73986745 1.0520035 0.16636248 0.31956053 0.5202644 0.6807335 0.35969654 0.72561413 0.4579295 1.1524929 0.79058427 0.8651472 0.12985115 0.6626362 0.9313447 0.86936176 0.32011622 0.53502935 0.73212343
l242 0.52106553 0.31898057 0.49743152 0.53201294 0.48130897 0.30372626 0.7603774 0.4661008 0.97596115 0.3349196 0.14778465 0.46079236 0.24001527 0.6682954 0.29197884 0.8723889 0.23734036 0.34397295 0.83596236 0.96597457 0.49179682 0.70507354 1.0569305 0.40806428 0.28098464 0.17588273 0.9798898 0.22221938 0.7363788 0.35199097 0.452188 0.34094647
l243 0.41929895 0.17050782 0.6159898 0.964256 0.154409 0.18787858 0.56340253 0.33824953 1.0801347 0.28588393 0.53863215 1.0584211 0.06344241 0.28565717 0.75480753 0.7807443 0.7023904 0.77330714 0.32855 0.15514615 0.46245626 0.47799644 0.54549736 0.072763 0.5247076 0.2673663 0.14185531 0.88117135 0.42225948 0.43685928 0.39143467 0.44320682
l244 0.1558939 0.4332783 0.94138217 0.7240905 0.48855978 0.90330625 0.66763663 0.8888111 0.8952189 0.29745808 0.2272401 0.9423222 0.24622463 0.56752104 1.1460966 0.15635346 0.5903592 0.86451066 0.78815746 0.28309953 0.5161093 0.6437786 0.15197295 0.5240122 0.053350557 0.73757565 0.44018036 0.6383512 0.24262777 0.70621467 0.87746286 0.91696453
l245 0.62318 0.35214534 0.69854635 0.48708224 0.059391182 0.5688468 0.47032678 0.854874 0.5034991 0.35765785 0.15113753 0.73483765 0.32694474 0.4274406 0.359756 0.70427066 0.7074926 0.55317163 1.0463402 0.48602474 0.77056915 0.8167572 0.43066463 -0.044593923 0.14155471 0.75223356 0.11368897 0.6916647 0.64929265 0.5232443 0.7223798 0.3736297
l246 0.23576853 0.5355927 0.958596 0.8869141 0.59200436 0.07682116 0.69502485 0.65309393 1.0718664 0.75290334 -0.054406773 0.48268133 0.95687956 -0.011097567 0.57692975 0.5177574 0.63209516 0.88005304 0.7153081 0.33768988 0.081255704 1.052917 0.30827588 0.8664322 0.31168723 0.32890308 0.25882375 0.39125183 0.46044013 0.44497865 0.63831586 0.5109565
l247 0.48284635 0.9758913 0.37002432 0.9453524 1.1742183 0.6856209 0.5178904 0.5193166 0.83013624 0.38638 0.65462685 0.7881738 0.6016378 0.59971976 0.36939356 0.53621453 0.10402112 0.1897918 0.6581596 0.07423758 1.1349975 1.0056282 0.31246433 0.20814766 -0.016765941 0.21246319 0.7982377 0.90917206 0.8871851 0.45048213 -0.08529747 0.64956045
l248 0.09478163 1.0095637 0.64838934 0.3830042 0.7829901 0.5154191 0.32415274 0.9702182 0.51419985 0.7432423 0.38186243 0.4585435 0.51205087 0.33112282 0.7024366 0.3439476 0.21728973 0.13868326 0.5452726 0.31817886 0.5101776 0.76412463 0.36694926 0.44424194 0.08080005 0.24462228 0.5913565 0.7751979 0.90924203 0.91472894 0.908333 0.2561898
l249 0.15005799 0.55608994 0.7390565 1.1092949 0.45500255 0.67877465 0.317295 0.5009237 0.8191498 0.715852 0.78988546 0.73821384 0.57419145 0.39630705 0.9 0.8212435 0.6573306 0.49184293 0.671443 0.2056204 0.5991271 0.60524017 0.50264084 0.72817767 0.23958415 0.54710305 0.46928328 1.0072131 0.16392143 0.45432857 0.58686256 0.83722913
l250 0.79682624 0.13666977 0.41613284 0.7252403 0.7344911 0.7119902 0.7077752 0.8667403 0.7984504 0.74283135 0.2889597 0.34299016 0.23654549 0.015986187 0.45991695 0.4328974 0.58853257 0.9762042 0.64941794 0.9411639 0.6746553 0.45354572 0.90359074 0.53253174 0.19292949 0.83617294 0.05067781 0.48379958 0.2097277 0.46757787 0.18834585 0.323425
l251 0.6509356 0.50209355 0.31494093 0.3726359 0.5487122 0.76195633 0.31533855 0.27797455 0.7502267 0.24148425 0.030285386 1.007594 0.6424331 0.35912272 0.72690374 0.99668336 0.0888474 0.43834415 0.18915156 0.75424117 0.4387826 0.8854842 0.8841603 0.713323 0.4785732 0.025810888 0.78112036 0.9359186 0.3507603 0.5200982 0.67466307 0.8589723
l252 0.57602954 0.73883617 0.8781847 0.43659133 0.75782275 0.41932118 0.4599384 0.25224033 0.9798965 0.36512068 0.4989256 0.6610853 0.04243821 0.12306087 0.11405899 0.31687966 0.8083722 0.96974444 0.9219432 0.96493804 0.6708592 0.7439297 0.7444919 0.17588796 -0.054823708 0.40852287 0.16699108 0.48147503 0.7899053 0.88047856 0.6319348 0.5688088
l253 0.47341448 0.69408494 1.0078464 0.6793375 0.13179739 0.9813298 0.11793004 0.515742 0.90341944 0.48732442 0.42692772 0.3777475 0.776297 0.5722058 0.2786974 0.4516113 0.4225834 0.4716028 0.31129253 0.61779845 0.20132677 0.5402841 0.8253616 0.07790674 0.84265155 0.3380374 0.9352864 0.5109049 0.23679224 0.82105345 0.45476073 0.6759931
l254 0.56326467 0.6537368 1.0541731 0.78145033 0.041673172 0.52966774 0.50111586 0.6166156 0.78726214 0.2967467 0.71729153 1.0329242 0.17004035 0.44730484 0.3561636 0.41709778 0.4477153 0.9229423 0.80921006 0.08350863 0.4078479 0.095594116 0.7102264 0.55050004 0.53786236 0.017651299 0.9999765 0.6613437 0.1487585 0.3184163 0.36874056 0.6181558
l255 0.59074044 0.44274208 0.41653293 0.515477 0.82058114 0.72887105 0.92714536 1.0005597 0.7225456 1.0450681 0.18690182 0.54024553 0.39838812 0.38383242 0.712991 0.8327248 0.36354542 0.1367101 0.7477006 0.53733116 0.10174645 0.234814 0.70320207 0.5128254 0.19233625 0.69231 0.58421904 0.49167368 0.56599987 0.20657608 0.75917906 0.8282655
l256 0.29255587 0.25986955 0.885671 0.22608955 0.5033314 0.5918842 0.08025489 0.8709311 1.1810163 0.6589937 0.07161962 0.58548015 0.561671 0.8203612 0.32399017 0.9682564 0.44617397 0.5962415 0.5654352 0.906508 0.24949157 0.38439146 0.82939005 0.685995 0.20598112 0.71922547 0.66253304 0.62176955 0.7852706 0.7301056 0.60891676 0.9577199
l257 -0.01734742 0.42250153 0.6105927 0.62343395 0.682998 1.1902964 0.9799705 0.88689184 0.930089 1.0075511 0.4276775 0.80017185 0.84695745 -0.19934696 0.22511935 0.496394 0.28076607 0.5430711 0.45070237 1.0537055 0.2593197 0.54380316 0.5426429 -0.0414373 0.8267538 0.20500588 0.6323178 0.7806094 -0.12508358 0.18350011 0.88898355 0.65853715
l258 0.8117918 1.0103779 0.34416062 0.88751686 0.61203057 0.80202687 0.5962347 0.7369281 0.14011422 1.149196 0.47716618 0.5725284 0.76593584 0.6880256 0.6440913 0.3950647 0.7192491 0.39248902 0.42558426 0.96604425 0.5769918 0.71354944 1.0842516 0.51024306 0.30528924 0.50799155 0.44099736 0.45098162 0.4407021 0.75154644 0.25565615 0.5652306
l259 1.1114306 0.9924383 0.5573723 0.31315586 0.6371024 0.48286107 0.27810645 0.85269135 0.18854274 0.8510777 0.14356619 0.87869996 0.15895565 0.7922338 0.76625496 0.6688996 0.005800217 0.69964623 0.26228353 0.5441698 0.48399824 0.024149092 0.65928566 0.6689194 0.9286344 0.24138026 0.32144195 0.42055595 0.7151729 0.68284506 0.78600603 1.1018904
l260 0.3632587 0.65344334 0.63082594 0.5314769 0.3285999 0.82366365 0.41795728 0.4242277 1.0295557 0.85031396 0.05253225 0.7587397 0.27157778 0.6111773 0.17799175 0.6454983 0.15310165 0.7020678 0.5504856 0.464985 0.36813435 0.60926765 0.8814007 0.70882374 0.6083819 0.73949647 0.9478848 0.8616389 0.5530455 0.66099143 0.7493172 1.0295464
l261 0.6454369 0.4774548 0.38446075 0.6769953 -0.00072563434 -0.008246027 0.52656513 0.36859083 0.42353424 0.46359703 0.14000875 0.8258058 0.6742927 0.7971895 0.15623017 0.41613284 0.18240893 0.5595075 1.1341922 0.7209552 0.8069031 0.9808612 0.86294603 0.7002078 0.44413444 0.55826306 0.70872736 0.48029286 0.36232445 0.7657732 0.676506 1.0394597
l262 0.6401526 0.1253928 1.0088841 0.6638857 0.29325432 0.9756408 0.7004538 0.49306607 0.2640697 0.46021816 0.2535377 0.52330863 0.1251837 0.10101667 0.47932094 0.53850275 0.39992747 0.49377006 0.4053476 0.460074 0.75848216 0.16051945 0.8685422 0.77403796 0.6226399 0.5417178 0.29625386 0.98762965 0.72906905 0.26518366 0.41251117 0.7215357
l263 0.66800886 0.50253135 0.6548058 0.6953735 0.013944682 0.9479524 0.40080288 0.9618966 0.59852135 0.30817765 0.48562667 0.35058227 0.44454664 0.15497416 0.5203262 0.5241514 0.3769671 0.64960384 1.0665817 0.5183992 0.12627424 0.330122 0.79965174 -0.10504829 0.89173764 0.23690566 0.92016286 0.8619655 0.48439175 0.46624407 0.6534484 0.21608014
l264 0.6582845 0.35473445 0.5670867 0.37059212 0.023164934 0.50673693 0.15167263 0.89561945 0.58502746 0.44711405 0.12619372 0.3141677 0.36011446 0.544037 0.6138637 0.8878304 0.7416387 0.9418222 0.62180954 0.5725414 0.087147355 0.5371237 0.5040228 0.33354706 0.4286257 0.14704567 0.5252164 0.4289188 0.703084 0.45272076 0.21747378 0.46382773
l265 0.6120524 0.48886207 0.59923494 0.8178908 0.44079688 0.8710127 0.6193947 0.35494766 0.61285245 0.43354592 0.66323525 0.9623363 0.5868524 0.4478603 -0.019428402 0.95412743 0.7242356 0.41960928 0.54986864 0.58787256 0.47055653 0.5521111 0.7200522 0.60198426 0.051660266 -0.04214493 0.80238783 0.6727561 0.14324094 0.5240601 0.62805194 1.0866853
l266 1.0742265 0.3719148 0.19721909 0.4932013 -0.032960773 0.58431214 0.18542658 0.5282064 0.4690122 0.3644325 0.5818388 0.44520566 0.7647215 0.43320808 0.55018944 0.6557235 0.3159923 0.76109225 0.77427876 0.29012266 0.62869126 0.9279994 1.1399274 0.62861735 0.85939306 0.038321927 0.16262257 0.65944964 -0.008282747 0.652976 0.6526203 0.9514117
l267 0.48853493 0.63662994 0.47591168 0.8208555 0.48613718 0.6774091 0.3602387 0.65003633 0.9035732 0.46660948 -0.121035546 0.9080871 0.7911136 0.59970593 0.48652524 0.78841496 0.2794561 0.41191554 0.43167877 0.86129576 0.3036263 0.12647761 0.91861606 0.501614 0.5746839 0.5564408 0.28526598 0.33503702 0.68615264 0.60391814 0.24677354 0.39373025
l268 0.75334173 0.86637634 0.99492806 1.0174001 0.28909808 0.611369 0.29575592 0.7891926 0.90303135 0.5216843 0.03587174 0.44139552 0.77755445 0.22531533 0.68537134 0.95102173 0.23059586 0.708529 0.5795005 0.12851335 0.44316965 0.50637263 0.7231875 0.47006458 0.5776298 0.6919705 0.69436985 0.51159996 0.4854258 0.43000144 0.8641063 0.53970826
l269 -0.040285036 0.9027228 0.6323994 0.8576658 0.9399135 0.537113 -0.03264407 1.0780597 0.96042687 0.27400425 0.8826094 0.76112753 0.014657227 0.56270736 0.5718161 0.5057392 0.35176197 0.3482678 0.98627913 0.30329832 1.2183096 0.25382605 0.87899595 0.084633105 0.76836586 0.65033346 0.3690711 0.71792024 0.70366055 0.27706674 0.34597135 0.37964976
l270 0.09489825 1.0710015 0.7055238 0.5948622 0.2473256 0.40454796 0.86681664 0.28057408 0.010306681 1.0700983 0.30559748 1.2550763 0.8369315 0.18767935 1.168591 0.31252214 0.36542663 0.48087093 0.8359594 0.3722865 0.47942325 0.775808 0.35780182 0.67398465 0.2428572 0.9735422 0.24533106 0.575302 0.33155718 0.586386 0.08408455 0.42097542
l271 0.6686605 0.75637597 0.6410959 0.66114 0.6853425 0.23765698 0.40310106 0.23551376 0.2837107 0.8096651 0.08056022 0.31141728 0.26883096 0.7925538 0.99991184 1.0078326 0.472274 0.50816786 0.5714175 0.7466964 0.72311354 0.5079753 0.27485576 0.21169281 0.44836858 0.7958919 0.90878403 0.392082 0.6550199 0.39727437 0.08090541 1.1856498
l272 0.60796285 0.4101919 0.5598297 0.54092205 0.16717038 0.55136853 0.94665784 0.9264426 0.82713395 0.6125754 0.5501379 0.8205348 0.31563544 0.14568034 0.24851152 0.71302384 0.4636689 0.6556717 0.39381507 0.8818196 0.34411174 0.22971858 0.52704155 0.32131845 0.20217116 0.48180413 0.6992167 0.62297887 0.4744357 0.83069986 0.1333895 0.7440169
l273 0.26742068 0.6613828 0.8360535 0.80944765 0.85574144 0.8174545 0.6915467 0.85295314 0.33922294 0.6664228 0.56278926 0.62056905 0.027428538 0.31315374 0.56618524 0.6821794 0.7690527 0.5318118 0.7165877 1.0594366 0.21476753 0.4814243 0.42286047 0.17897682 0.81296885 0.40578306 0.4159276 0.35928908 0.21595486 0.23928168 0.5291625 0.58590853
l274 0.25826508 0.27490726 0.6701233 0.88358784 0.54454076 0.5724741 0.40120143 0.49196357 0.36504155 0.36103192 0.21958019 0.37457937 0.5510578 0.53709286 0.757777 0.45940596 0.6290807 0.36583027 0.936749 0.67198455 0.52496696 0.45094234 0.1614954 0.7644075 0.19317847 0.20279366 1.0819854 0.82125676 0.19712736 0.27583736 0.15328005 0.54891855
l275 0.7001995 0.6030126 0.40373525 0.5430003 0.6717179 0.091444746 0.600556 0.5788331 0.79200524 0.4943362 0.6613365 0.87269616 0.37732762 0.24092764 -0.07639151 1.0780648 0.20611404 0.6120425 0.39271617 0.7467803 0.6282631 0.37984955 0.83794993 0.40300244 0.6744252 0.12532237 0.28910363 0.96808356 0.7752273 0.8273574 0.2254025 0.9144508
l276 0.69386125 0.59122694 0.37268746 0.21911792 0.2838317 0.762916 0.02529922 0.43683633 0.9321843 0.5872274 -0.009103412 0.3362909 0.6241465 0.451696 0.5556878 0.8933603 0.5916935 0.27849844 0.6328924 0.84506714 0.33132744 0.68414086 1.1408029 0.1299695 0.45224488 0.2592386 0.7217704 0.5379849 0.8004258 0.7644093 0.8507862 0.52779907
l277 0.7224673 0.15982765 0.6271816 0.24063486 1.4164829 1.1276284 0.9676278 0.49660984 0.3761545 0.42890686 -0.050752707 0.5646777 0.12969668 0.7414269 1.3197985 0.07530102 0.15219156 0.32576495 0.8014831 0.9597327 0.2675533 0.6102858 0.61959934 -0.061308574 0.7027829 0.62309444 0.6617869 0.4203635 0.7864786 -0.04578763 0.5711217 1.0844291
l278 0.6825632 0.5986354 0.6463908 0.9714871 0.28449702 0.91430813 0.41127384 0.30227053 0.422077 0.63800764 0.047860764 0.8405312 0.4241094 0.10421564 0.48273328 0.3504864 0.5830906 0.7113804 0.18691812 0.36582965 0.7913004 0.38653687 0.58884495 0.4408526 0.81364995 0.17972596 0.9364685 0.5191 0.5944513 0.7605876 0.28830248 0.89154446
l279 1.0660986 0.48121244 0.59134024 0.43901533 0.65762144 0.7944129 0.3205877 1.1826918 -0.066566475 1.0075108 0.72336245 -0.02493046 0.28761718 0.15852544 0.86667126 0.045965638 0.68915373 -0.1701783 0.71556133 -0.015724184 0.5193433 0.4770421 0.4127805 0.12516823 0.6275875 0.76753134 0.9373662 0.96030897 0.43535197 0.72640556 0.8603623 1.151045
l280 0.97778165 0.5949747 0.32738563 0.60952026 0.40686193 0.72193384 0.110096544 0.8737298 0.5252772 0.7403239 0.15789779 1.4282869 0.59075826 0.3374896 0.3999156 0.33710018 0.8732493 0.39104518 0.42154032 0.40987828 0.39110097 0.6265419 0.8588351 0.26841587 0.5399672 0.5796634 0.034237664 0.41719478 0.15262096 0.6096838 0.37663183 0.31431565
l281 0.764281 0.3109721 0.47075307 0.69515485 0.5188433 0.40338457 0.6817413 0.71962374 0.4280326 0.87590957 0.23256643 0.29745904 0.07179028 0.28713664 0.044681296 1.1569688 0.7577977 0.86907697 0.4655063 0.9288027 0.6678707 0.68555814 0.65882 0.75695 0.21193379 0.7102624 0.02046177 0.5183857 0.2510388 0.35279864 0.5798532 0.8762982
l282 0.5782357 0.85060763 0.28114423 0.5930367 0.20810959 0.797564 0.44158575 0.8398787 0.19383948 1.04891 0.53822935 0.6393396 0.44426265 0.40093195 0.756918 0.6738598 0.52112544 0.21794304 0.9611444 0.62933666 1.1592077 0.65617245 0.80590105 0.4079605 0.23353179 0.7427933 0.5803426 0.65053225 0.39577731 0.80844545 0.7209767 0.5014668
l283 0.20064914 0.30436704 0.7143682 0.3255978 0.6413802 0.5456123 0.6372856 0.60697705 0.49867612 0.22929741 0.4562359 0.49073988 0.3939981 0.7863883 0.82434875 0.049505908 0.25205985 0.7179696 0.7187158 0.34805408 0.2518659 1.0563877 0.33514255 0.69720733 0.49354482 0.15539058 0.6681444 1.1477829 0.5968456 0.7067987 0.28062445 1.095526
l284 0.71780413 0.58262074 0.48972496 0.21307293 0.76084846 0.27898586 0.2939863 0.7205611 0.7271321 0.07554404 -0.004963648 0.845507 0.31726438 0.40871477 0.19808562 0.59768754 0.19976524 0.6225639 0.51945645 1.1838825 1.1750127 0.7074596 0.2961259 0.36014533 0.026877478 0.88094324 0.25871146 0.5678119 0.21281797 0.685789 0.20520097 0.7833913
l285 0.7248997 0.9713882 0.66304827 0.31534982 0.028299462 0.7971843 0.18387371 0.6891338 0.6011827 0.1460581 0.51526624 0.23187701 0.7568875 0.15426524 0.32622603 0.48123914 0.24015999 0.84544015 0.85174453 0.2542025 0.8655968 0.61281615 0.79080904 0.05838956 0.017441954 0.6106671 0.47260892 0.89916813 0.09070793 0.7183734 0.6255487 0.48404863
l286 0.42062315 0.2118845 0.92570275 0.58416545 0.6556676 0.6526911 0.25348243 0.50029653 1.1408262 0.36421648 0.41919646 0.41314653 0.27679348 0.69546384 0.6370003 0.769103 0.6293521 1.136439 0.54593277 0.55149233 0.5628621 0.7517826 0.9946532 -0.10283129 0.18746965 0.27165505 0.753484 0.78736323 0.72671086 0.18192767 0.09643175 0.13131493
l287 0.4142289 0.55345017 0.96171844 0.3235558 0.7488577 0.37679094 0.58531517 1.0761942 1.0959862 0.61808926 0.5627985 0.20938966 0.0062071546 0.903928 0.63447577 0.7892165 0.49309087 0.21966408 0.44535106 1.0673769 0.31161025 0.5696227 0.4200172 0.018801149 0.8427777 0.91107327 0.29390684 0.651451 0.71967345 0.9542401 0.42416087 0.627114
l288 0.6449396 0.18611073 0.6249084 0.8918075 0.55836904 0.4434834 0.97242665 0.2230372 1.0394291 0.34333095 0.21089037 0.71618515 0.3637213 0.60539293 0.40935764 0.47066218 0.04112794 0.7083357 0.34301636 0.6254007 0.22209327 0.330678 1.1067971 0.3628239 0.36923596 0.50494224 0.3496278 0.2950935 0.47851422 0.265238 0.8152908 1.0839096
l289 0.23585555 0.7185156 0.3565842 0.67686474 0.5596664 0.602747 0.3879588 0.15959853 1.1553867 -0.03417182 0.2803766 0.52130663 0.32117462 0.20115516 0.3231233 0.99489325 0.20812604 0.4204891 0.9682486 0.68753105 1.0713563 0.603559 0.46134982 -0.10074725 0.81836027 0.47017595 0.6993979 0.96517897 0.09377373 0.4319668 0.49915063 0.65136755
l290 0.5023718 0.89575386 0.982865 0.6614964 0.8944142 0.13508707 0.266276 0.7945695 0.9284963 0.32039225 0.66191816 0.18347992 0.6943096 0.83204955 0.8956753 0.78015095 0.41588035 0.267023 0.5115835 0.88071024 0.9115001 0.6958112 0.3883817 0.57289875 0.49547875 0.29740438 0.5958399 0.63075733 0.32130626 0.9772451 0.6417341 1.1699398
