1730	64
l0 0.53805685 0.218119 0.65524894 0.81382483 0.7289119 0.56278163 0.7216504 0.77335453 0.11577191 0.23447937 0.21759728 0.58395624 0.41260758 0.48984066 -0.031437814 0.5289579 0.11147775 0.92431706 0.49992943 0.44078913 0.70394355 0.75765043 0.77264035 0.8899229 0.27411422 0.77793 0.86071515 0.37473372 0.40987906 0.8845623 0.08223708 0.40921912 0.40787777 0.94796497 0.48781165 0.8267036 0.19673038 0.288062 0.6987564 0.6562559 0.14788423 0.96935433 0.7971022 0.90554225 0.48232156 0.4426059 0.64269376 0.99958616 0.23468505 0.69534016 0.64632833 0.34363037 0.24797 0.8336668 0.35073307 0.54358804 0.13612752 0.37082008 0.43629867 0.82840985 0.67592305 0.58270127 -0.018857282 0.8862272
l1 0.43649432 0.9441293 0.11877686 0.28921834 0.91147316 0.8434395 0.5624848 0.9225369 0.024347346 0.40149018 0.36976922 0.38009313 0.9112626 -0.0009914283 0.7499704 0.5537682 0.433006 0.74096483 0.41382793 0.17670849 0.24341878 0.31366944 0.65337646 0.34346986 0.52897245 0.037895184 0.558648 0.6646721 0.7402359 0.97871083 0.17536092 0.6402325 0.03323081 0.7887974 0.85068476 0.9936385 0.5863729 0.5513758 0.76049405 0.8005051 0.35135493 0.2914569 0.4007401 0.24088739 0.45974788 0.32175556 0.357286 0.5300963 0.41908255 0.94676477 0.9675657 0.32903486 0.19442804 0.17696369 0.20744964 0.46497592 0.60114294 0.075404435 0.84868467 0.7406606 0.5769723 0.28930786 0.08241641 0.20063058
l2 0.5286711 0.7716869 0.18233219 0.42312583 0.34482813 0.7684156 0.5518034 0.26008773 0.13270278 0.84635204 0.6304979 0.13150714 0.8643213 0.78009677 0.8631371 0.37492886 -0.00017478083 0.12324991 0.8699286 0.44171172 0.58088195 0.8670017 0.15753989 0.6072958 0.30567247 -0.04570107 -0.022007463 0.6287675 0.20586176 0.16622035 0.37855068 0.24293678 0.43055627 0.41856754 0.78458 0.24075727 0.79663557 0.23852922 0.9371939 0.56253064 0.4506118 0.8301009 0.46345305 -0.03193223 0.5617094 0.7563549 0.335548 0.5899897 0.86438066 0.27636468 0.24900429 0.30294964 0.101388566 0.16007827 0.39447096 0.55381143 0.771104 0.20899361 0.13954414 0.074786864 0.20158276 0.4251349 0.3202602 0.6620959
l3 0.7514597 0.66509855 0.0558215 0.91521937 0.67157984 0.69177556 0.48378226 0.5883528 0.10271806 0.48645803 0.57284826 0.551099 0.3690274 0.4339463 0.67751104 0.26769 0.40163007 0.5117686 0.22260937 0.39387038 0.47169542 0.39575598 0.22893271 0.8671449 0.4987529 0.3643082 0.088063 0.6097691 0.6929587 0.33062154 0.066784695 0.69641984 0.0800658 0.94203067 0.75101656 0.04417504 0.49578318 0.051736783 0.3320712 0.6430363 0.68942726 0.5918811 0.7844113 0.5354424 0.0979575 0.95541507 0.6353789 0.8634589 0.94482684 0.37920433 0.096554704 0.5073918 0.4287104 0.38845897 0.06622086 0.9296239 0.44353312 0.17110467 0.55345166 0.8628307 0.35067964 0.1681278 0.40648645 0.9678072
l4 0.09663819 0.91020924 0.5589036 0.0953557 0.6345881 0.6459968 0.35054943 0.81739956 0.45501497 0.5601186 0.80961233 0.32732314 1.0283314 0.037642267 0.8152941 0.3418746 0.376217 0.17110474 0.15535967 0.7071031 0.7533312 0.16976956 0.49256143 0.26528 0.4843579 0.08152217 0.30566108 0.31663316 0.31992605 0.87782884 0.17580779 0.70269316 0.34818816 0.6274594 0.23977505 0.5337575 0.4632767 0.2295664 0.54632807 0.65392935 0.41207707 0.13811722 0.6866405 0.45915544 0.72324544 0.69804865 0.79808384 0.75215304 0.66822416 0.12973405 0.80212724 1.0580993 0.24315009 0.5902794 0.24492936 0.15344375 0.7862278 0.27654898 0.8328033 0.42357966 0.44380674 0.03153477 0.58387715 0.065160036
l5 0.9654821 0.28094628 0.92326754 0.23284388 0.27023414 0.37327126 0.32534978 0.10653404 0.35728985 0.38235188 0.71302843 0.4466785 0.5675388 0.17584328 0.37099954 0.26569447 0.75870395 0.66550505 0.5431161 0.4687191 0.8348805 0.66731495 0.071389005 0.9826593 0.030609004 0.36183134 0.48366204 0.2493388 0.5295466 0.61569965 0.8404944 0.8976922 0.4604952 0.98947966 0.874318 0.962076 0.72729266 0.12818538 0.7545841 0.5551089 0.31835243 0.27888185 0.5634929 0.10403683 0.38643733 0.5843367 0.70186913 0.94416857 0.23228279 0.49043202 1.0119789 0.39220744 0.90982443 0.41264954 0.47087362 0.8861839 0.8356668 0.86261463 0.83596367 0.39313957 0.42695716 0.13194656 0.35568562 0.29727915
l6 0.8921648 0.25972107 0.5593698 0.27180722 0.6064981 0.6250917 1.0429853 0.4329927 0.09347959 0.8485138 0.6839856 0.24673758 0.9227064 -0.024106853 0.082899764 0.43053 0.22657749 0.35509533 0.052890033 0.95477444 0.29764488 0.32499355 -0.011872378 0.6590128 0.5613208 0.73955226 0.16297871 0.29003465 -0.0028010688 0.9300607 0.08236862 0.57181674 0.6871 1.0263526 0.9569029 0.8554679 0.43447492 0.5384373 0.85503125 0.4087561 0.41572702 0.7411064 0.6594787 0.8616213 0.58408946 0.47008997 0.7997167 0.8131052 0.7357196 0.6443744 0.4069675 0.1445441 0.3140542 0.59331304 0.13624363 0.9611711 0.32783574 0.74038786 0.9251329 0.17457972 0.042580865 0.7896473 0.19333792 0.31131154
l7 0.44984442 0.7299901 0.54782695 0.53803974 0.78928393 0.18013877 0.74271846 0.38009515 0.15368724 0.5783514 0.29173306 0.8610681 0.29582253 0.79277986 0.23671709 0.60566527 0.062659726 0.39989686 1.0073738 0.99708754 0.53687286 0.3888519 0.633069 0.9705461 0.8998565 0.8179244 0.84760046 0.921347 0.816329 0.3854136 0.8601788 0.3617659 0.38428268 0.9952365 0.4608204 0.76246196 1.0164689 0.29079503 0.15949923 0.9090831 0.556935 0.5325979 0.75637126 0.45027533 0.28307265 0.07930271 0.68408865 0.33718506 0.25057524 0.4981524 1.0207405 0.5879168 1.076469 0.9761109 0.19912364 0.5178639 0.50122786 0.8195552 0.0926856 0.067592874 0.8374902 0.7782246 0.37021336 0.5006987
l8 0.24944268 0.2295141 0.80410427 0.9077554 0.16799746 0.7860858 0.31887498 1.0421679 0.81736594 0.5877066 0.3654377 0.4463414 0.9385838 0.84628457 0.8145346 0.6812964 0.089529105 0.069588214 0.38504636 0.97095066 0.5977583 0.5149294 0.501832 0.91117966 0.2252413 0.7434238 0.5885968 0.14462426 0.57357955 0.22064804 0.39289945 0.91933715 0.3944943 0.51429623 0.31303674 0.3727862 0.034290414 0.47912028 0.82871777 0.98823535 0.90070236 0.5804383 0.46327725 0.2457343 0.8170454 0.24441734 0.6914288 0.80580485 0.34188333 0.892537 0.18649462 0.18043225 0.40582448 0.115707986 0.7852057 0.1337614 0.1334954 0.5041618 0.43837684 0.55027926 0.6483938 0.14306213 0.63067997 0.65492445
l9 0.97214097 0.891613 0.5165136 0.46769905 0.3586276 0.90450245 0.64747715 0.7246177 0.57745224 0.46804485 0.51027995 0.50895935 0.17733552 0.9032165 0.4565508 0.7356977 0.83759415 0.6428827 0.085525885 0.6401115 0.54538774 0.60938644 0.62148297 0.6511309 0.12396144 0.40931907 -0.04064088 0.41801202 0.6748112 0.53430814 0.041233804 0.24162357 0.5292388 0.86425596 0.22810596 0.38629055 0.46705237 0.1111915 0.50068337 0.2799373 0.17144698 0.8453641 0.9144158 0.600287 0.81997 1.0288222 0.9151415 1.0528647 0.270993 0.2122284 0.8343193 0.5037298 0.26412973 0.8667352 0.123524465 0.4041698 0.094849214 -0.017893618 0.7191369 0.80434865 0.3725637 0.53595495 -0.062413935 0.5515499
l10 0.48795417 0.16943426 0.61002374 0.58845747 0.17727323 0.081135295 0.93818194 0.6564387 0.9593301 0.8686294 0.54360723 0.09787805 0.3309209 0.72240055 0.5003068 0.14275561 0.79261196 0.6640111 0.7342305 1.0039927 0.7004357 0.4990748 0.36164862 0.9318704 0.54437894 0.21333052 0.615876 0.80977905 0.7386138 0.119118154 0.28345832 0.3374175 0.76277393 0.6548463 1.082498 0.6274415 0.08262408 0.0134830335 0.64297223 0.24697113 0.62513083 0.7086085 0.66075474 -0.021271875 0.8358472 0.4372456 0.6308326 0.6217714 0.6998053 0.6870576 0.7239473 0.71760255 0.18167374 0.09981997 0.22996786 0.3583599 0.06829521 0.38932967 0.91155344 0.8865629 0.23627 0.55764216 0.7624479 0.3177251
l11 0.96003497 0.36032745 0.8365364 0.38772163 0.48139203 0.5919526 0.2563133 0.8502695 0.88140607 0.4577296 0.23148933 0.8361235 0.3569863 0.37860116 0.11481006 0.50761217 0.16713068 0.6160778 0.8691593 0.36452034 0.51897156 0.7447196 0.22708675 0.9168265 0.6873678 0.64190924 0.059752695 0.47392187 0.080639645 0.5216725 0.6123007 0.9136579 0.7403223 1.021832 1.0640372 0.06764674 0.63595444 0.5939665 0.20666867 0.6635033 0.10285825 0.57195693 0.33072752 0.65906745 0.72581416 0.33038265 0.92474896 0.7187265 0.6205555 0.53879625 0.5172158 0.98018277 0.7428943 0.34189236 0.74502915 0.3771573 0.7085581 0.4693898 0.703557 0.056265157 0.5799225 0.43949652 0.080469996 1.044717
l12 0.71694386 0.17699604 0.23998238 0.5532456 0.31368935 0.80694455 0.5546778 0.45824352 0.20014237 0.20454967 0.77120477 0.79485846 0.9772349 0.6253496 0.6800282 0.5508232 0.26684868 0.49398434 0.38861993 0.66615474 0.72654474 0.80398244 0.4349783 0.23099113 0.057245266 0.83184844 0.07135284 0.32428354 0.57989055 0.67105556 0.088581346 0.46905872 0.55177623 0.42945772 0.50255656 0.44649857 0.890339 0.75739515 0.51084554 0.8983507 0.85188395 0.99665797 0.43647268 0.5016513 0.26644722 0.36292762 0.07777586 0.5667069 0.388187 0.13012405 0.7427864 0.98150843 0.90311635 0.084773935 0.7561175 0.78321713 0.84714764 -0.0651047 0.14016616 0.7075681 0.80380356 0.79994476 0.39986402 1.0685737
l13 0.9535311 0.9119661 0.73528314 0.29060513 0.5769489 0.13244723 0.58833677 0.44609895 0.0056544095 0.34280363 -0.022516495 0.012934192 0.20423439 0.85322183 0.27741212 0.054519717 0.30212963 0.388258 0.11402849 0.23358878 0.9207428 0.20284143 0.38820237 0.22889036 0.049687624 0.4443921 0.03491342 0.5100888 0.46497548 0.79907435 0.9953265 0.2193686 0.8238139 0.7314723 0.31780398 0.5148416 0.95744085 0.8284252 0.6577645 0.39379963 0.07837511 0.33441094 0.5501676 0.40238193 0.8610413 0.51268315 0.54849106 0.72372353 0.22382243 0.24281093 0.9499007 1.1099406 0.93235147 0.44683656 0.25777534 0.55451363 0.47670096 0.62091696 0.9422393 -0.009331173 0.23486316 0.73767 0.76152027 0.26085177
l14 0.11191646 0.51064026 0.50344944 0.18324128 0.52903396 0.931423 0.16716655 0.92384833 0.798076 0.24711244 0.57614297 0.37749615 0.73375654 0.18053219 0.73683536 0.48425868 0.5036832 0.77037156 0.65950704 0.87428457 0.91160846 0.5724138 0.74562925 0.10900788 0.41731173 0.43757385 0.728217 0.6810171 0.6607877 0.53065085 0.8053972 0.031498447 0.09557389 0.36967584 0.46334738 0.4028082 0.3433525 0.47541517 0.46104273 0.3318673 0.77003306 -0.008350226 1.0110208 0.13503292 0.57366383 1.0342923 0.37337515 0.9165924 0.23872128 0.2204077 0.43175998 0.37172398 0.30335096 0.34765577 0.10879992 0.42856213 0.30171046 0.7629738 0.4888173 0.43499824 0.48402986 0.24029386 0.0415089 0.60088444
l15 0.15929312 0.13563365 0.37040532 1.0298601 0.8421875 0.9983572 0.1608594 0.73989034 0.9238967 0.6995939 0.39097098 0.3465848 0.56781167 0.8703121 -0.05593857 0.89651495 0.96715295 0.4559542 0.79047656 0.14205003 0.9632742 0.6274695 0.80832344 1.063856 0.47316867 0.110566966 0.6128583 0.40401244 0.7051876 0.20731354 0.09627406 0.14076771 0.8508312 0.6491717 0.57304245 0.82944876 0.17574586 0.58753294 0.97902215 0.36874926 0.7411404 0.63216925 0.9358927 0.5094626 1.0672886 0.6908105 0.48800552 0.23446564 0.28650838 0.40850502 1.0612452 0.18181802 0.5413566 0.96512514 0.72454166 0.65523636 -0.013864727 0.4067887 0.7073031 0.16218182 0.7017328 0.04481523 0.2739505 0.56308544
l16 0.48195314 0.20994613 0.39908424 0.86737466 0.12290902 0.21192822 0.2673971 0.37932825 0.553507 0.39325762 0.84063435 0.33069122 0.6233304 0.30293256 0.45119464 0.14559162 0.12172722 0.6693443 0.567981 0.36658514 0.39727476 -0.026525524 -0.032535627 0.40004647 0.4793384 0.07320746 0.13565578 0.6061624 0.41487667 0.06403163 0.69873196 0.7921679 0.06342322 0.9964458 0.33403137 0.17421594 0.05545222 0.6197887 1.0508379 0.7591204 0.5048853 0.76514286 0.5348623 0.5876825 0.3072294 0.24795528 0.27466008 0.24046083 0.36136726 0.6407524 0.1618491 0.9016323 0.62660086 0.5453574 0.4179702 0.674548 0.4743498 0.040850367 0.79763895 0.5192779 0.7192312 0.49599767 0.55466074 0.8067885
l17 0.3786701 0.39773554 0.52230597 0.6995022 0.8780976 0.49265385 0.3191512 0.24008775 0.847674 0.33451617 0.06549792 0.90314686 0.89657557 0.34196314 0.49780324 0.7312327 0.71088713 0.83903974 0.5329084 0.24025786 0.076613165 0.29067242 0.25727785 0.7726284 1.022684 0.68846685 0.35301244 0.5853936 0.5718867 0.51237166 0.6829874 0.264634 0.37608287 0.70473707 0.6333528 0.96955353 0.108732335 0.20822614 0.37645993 0.8970257 0.49792898 0.20557806 0.6078105 0.30083057 0.9578159 0.17476285 0.90895844 0.4067256 0.37162888 0.13612969 0.41909042 0.9839223 0.35110193 0.34298053 0.85603726 0.5832613 0.90842736 0.7821086 0.50907534 -0.009413179 0.10515594 0.22909445 0.005890691 0.8109184
l18 0.33768877 0.5173541 0.2382872 0.44632953 0.55666673 0.49629223 0.65145004 0.6512511 0.14086539 0.8073972 0.07189384 0.87477845 1.0206728 0.30743197 0.6787447 0.58312947 0.7472082 0.5407713 0.34034657 0.21733224 1.074545 0.3111764 0.589901 0.93872386 0.6978832 0.014318839 0.4818615 0.76898646 0.6379303 0.28029886 0.3781271 0.047215197 0.79283166 0.6098055 0.36930636 0.9773541 0.8688431 0.49030867 0.76007295 0.97960657 0.7131229 0.80735296 0.6445248 0.34289545 0.98885757 0.096795015 0.90818244 1.064988 0.44603792 0.21829608 0.28954756 0.43990293 0.6651461 0.8562091 0.87199694 0.33961454 0.83211315 0.11910829 0.43814087 0.80299306 0.6408283 0.88297564 0.5254487 0.582623
l19 0.7590005 0.6028972 0.03688777 1.1026367 1.0455455 0.2796258 0.6903154 1.0100605 0.37928367 0.31519264 0.20618872 0.45319012 0.7405514 0.29653695 0.49720284 0.58403826 0.15705411 0.33160898 0.4154123 0.1540464 0.59879273 0.917229 0.5755681 0.72479874 0.6505989 0.70544183 0.23105998 0.2999221 0.117262036 0.832773 0.1656791 0.8749347 -0.075800985 0.64956343 0.9214673 0.15781398 0.73629695 0.6484218 0.25113714 0.5852059 0.25548592 0.05075059 0.6508323 0.6521537 0.33637476 0.77807593 0.93115175 0.22665207 0.75165147 0.20091677 0.14175393 0.5356671 0.52518725 0.32421687 0.7654361 0.40275875 0.9077171 0.86200804 0.55689436 0.13947444 0.478791 -0.007469122 0.6768506 0.34124342
l20 0.70258754 0.110574156 0.10392545 0.3042425 0.13981742 0.42154464 0.7219565 0.3180495 0.7969305 -0.016423075 0.28491548 0.66495335 0.65444505 0.35814452 0.57657826 0.27069184 0.4890355 0.116316766 0.03065588 0.40855134 0.73146933 0.38711667 0.12927327 0.172436 0.52873886 0.033572745 0.64820915 0.31808785 0.7373852 0.19173774 0.61640507 0.88292253 0.521427 0.30706376 0.48186636 0.49411476 0.37928796 0.48123085 0.54977715 0.29230714 0.62042403 0.6449667 0.13043392 0.388273 0.35660294 0.89595854 0.6445817 1.082365 0.22249594 0.38430938 0.92986166 0.6732853 0.9639777 0.8445982 0.29719517 0.71491987 -0.06301267 0.3900835 0.65666205 0.34623468 0.65497786 0.6338425 0.24946457 0.35385272
l21 0.3830871 0.8883202 0.08707119 0.84125936 0.37824854 0.42599913 0.30991465 0.4932455 0.12311195 0.34929577 0.13558689 0.12939678 0.21452323 0.44962296 0.048859708 0.18423392 0.24436952 0.34372512 0.7960686 0.4424351 0.16715284 0.11988974 0.12802377 0.73182 0.30215746 0.20312314 0.17209251 0.9366881 0.74639845 0.27423018 0.47295454 0.16325776 0.59354216 0.16843092 0.7361098 0.7126023 0.2558033 0.13221829 0.23684867 0.9912007 0.2486677 0.57126975 0.9208117 0.55869585 0.7690816 0.14871669 0.23570278 0.5247644 0.86886936 0.4431559 0.11636678 0.071050905 0.3308524 0.184563 0.15189761 0.29018414 0.5948262 0.6425001 0.6190172 0.2700044 0.35365903 0.17443919 0.61613995 0.9332017
l22 0.44121268 0.81008804 -0.021364098 0.91873914 0.87883294 0.6057422 0.58922255 0.8592328 0.8221598 0.33840102 0.900136 0.186549 0.3618104 0.79294914 0.3251383 0.6196569 0.56676775 0.9098296 0.8515088 0.260172 0.92107505 0.42798787 -0.006347046 0.71874565 0.109396964 0.6028868 0.5196079 0.47121203 0.15564339 0.46405077 0.03653264 0.53675324 0.28774744 1.0088614 0.30391362 0.6152812 0.84097946 0.4604698 0.10735256 0.8399085 0.36751544 0.5874594 0.17420098 0.804899 0.9017404 0.60753083 0.17029512 0.68980545 0.6828562 0.7475733 0.6673796 0.61631733 0.69461566 0.34666687 0.29587215 0.76160955 0.38325268 -0.05744688 0.2888913 0.6932092 0.25594708 0.38059592 0.3723164 0.16919744
l23 0.35779816 0.244741 0.15051793 0.55023724 0.43825385 0.575581 1.0312485 0.9915708 0.23462355 0.7591902 0.13843292 0.15024538 0.82203084 0.43551254 0.67400485 0.66646785 0.5904306 0.93379176 0.6948913 0.20187934 0.41326573 0.486333 0.34129414 0.8723404 0.44126913 0.68636984 0.76322985 0.85051626 0.43135417 0.77387303 0.90331364 0.08727293 0.23223017 0.29182085 0.97016287 0.8504803 0.52799004 0.72812176 0.20598322 0.34092912 0.61153704 0.3780356 0.21541536 0.56707317 0.2509809 0.6976058 0.66648716 0.9124529 0.48040587 0.5792645 0.8908505 1.045699 0.7723924 0.83124787 0.31421182 0.028411219 0.3473917 0.08280204 0.19305632 0.5874834 0.30572942 0.9101405 0.6451084 1.049549
l24 1.0524454 0.08434516 0.66862875 0.63612276 0.36375785 0.43811366 0.6981561 0.35123724 0.9208025 0.8642739 0.151481 0.5472008 0.18354486 0.08928207 0.82369524 0.21925586 0.18074632 -0.0066333767 0.6178389 0.40168867 0.1640892 0.09752452 0.15395135 0.14573805 0.6236427 0.14371115 0.39489174 0.8565582 0.2152067 0.66755885 0.71567893 0.21260235 0.74100256 0.7884611 0.27905187 0.40324754 0.33651033 0.41683748 0.66080785 1.0924886 0.18060297 0.13885167 0.33731434 0.096338876 0.4845132 0.9150873 0.26878786 0.3364046 0.6238142 0.6899267 0.27691472 0.306651 0.4679578 0.4515176 0.53218395 0.2373892 0.16232394 0.015774056 0.71304053 0.79301566 0.27913728 0.67460996 0.25122425 0.18777262
l25 0.6834581 0.21435124 0.29257107 0.6490745 0.45949757 0.78689915 0.7456176 0.13667323 0.31521615 0.4708015 0.42973083 0.92653644 0.5770901 0.7613255 0.8702085 0.11891526 0.18460836 0.78444034 0.030152746 0.23425955 0.38237143 0.66331613 0.815773 0.7664803 0.65504926 0.19727895 0.5119322 1.0502579 0.79400086 0.5944813 0.036943 0.8958292 0.73429215 0.6178673 0.16292259 0.11257619 0.23053001 0.47508138 1.0812681 0.920029 0.81806916 0.29667583 0.7428143 0.05791892 0.7143835 0.107815176 0.07016525 1.0230912 0.217077 0.22042143 1.0418007 0.700499 1.0538121 0.20529848 0.20507427 0.27039164 0.11306778 0.88069975 0.65891474 0.36385232 0.3211999 0.5376947 0.4065902 1.0670533
l26 0.45854872 0.44930398 0.8568114 0.298232 0.48609367 0.9607771 0.10420367 0.6673206 0.8810205 0.81262106 -0.006142177 0.86999905 0.94751817 0.3172944 0.3920371 0.2958873 0.35451254 1.0316046 0.13062578 0.8202378 0.7543583 0.14932197 -0.017258909 0.6820742 0.52629334 0.45848286 0.5580277 0.87764996 0.85066366 0.3782651 0.9315768 0.13289624 0.50478566 0.86200523 0.73902005 0.5376884 0.42833826 0.7254862 0.8860455 0.9185708 0.57605296 0.5667848 0.92324114 0.7413711 0.068519354 0.5081966 0.72975916 0.57083404 0.57898366 0.82063115 0.20797615 0.55432147 0.7065207 0.1660761 0.6677555 1.0040843 0.52356625 0.29868087 0.1915422 0.34102187 0.04830942 0.66584295 0.7067123 0.7407497
l27 0.7798621 0.24142292 0.5706286 0.43866247 0.4807388 0.78901786 0.18742512 0.6478249 0.32140297 0.7498915 0.8671839 0.26827002 0.93301237 0.73079705 -0.06758192 0.10071315 0.69235474 0.48585066 -0.0076200017 0.46388298 0.9728147 0.57241464 0.5181025 1.0409904 0.56736624 0.92533386 0.6060714 0.17368823 -0.053527094 0.73902047 0.1765625 0.7240269 0.6842169 0.23115048 0.99193114 0.44951308 0.15866105 0.15239438 0.32909167 0.81150633 0.7295851 0.23909344 0.90079755 0.73699397 0.9532979 0.4092662 0.2877431 0.70987374 0.84058976 0.31909966 0.9521808 0.4144367 0.816751 0.04547662 0.24925554 0.79155433 0.73872304 -0.028703336 0.46721804 0.50270426 0.28713548 0.4528943 0.114338085 0.29428253
l28 0.6350282 0.6796715 0.47309616 0.6667764 0.75081176 0.4857621 0.64829737 1.0578431 0.7880816 0.8601629 0.3444138 0.9020223 0.12864697 0.6040678 0.48394075 0.32325703 0.11556183 -0.07438072 0.5186041 0.5238503 0.85462254 0.002130987 0.49075517 0.3698301 0.9521007 0.6694454 0.43937814 0.550205 0.44213957 0.54073626 0.38144237 0.4584281 0.8051717 0.5731118 0.5783578 1.0308182 0.38657594 0.3809265 0.53009254 0.37324804 0.82385087 0.4124927 0.5833646 0.1855601 0.19973525 0.5751126 0.36631593 0.7357958 0.23193975 0.35372245 0.75712425 0.4923137 0.18060793 0.54953027 0.4368367 0.18677445 0.32884333 -0.09176408 0.6569987 0.8474695 0.519696 -0.008337476 0.29545492 0.7656377
l29 0.62686175 0.9104578 0.70197433 0.36483487 0.9654568 0.42663234 0.46448967 0.20575279 0.45443875 0.29184783 0.7222692 0.5283594 0.6789845 0.06794306 0.19088408 0.7417576 0.8267693 0.8835529 0.17483982 0.9243842 0.11808094 0.39850384 0.81124103 0.7347802 0.54541284 0.6364045 0.27648738 1.0037476 0.5655395 0.6314698 0.034571234 0.850938 0.11597994 1.0657389 0.654481 0.92185074 0.83014673 0.138969 0.73021114 0.8639578 0.41988552 0.027220983 0.92120975 0.9200278 0.29683146 0.675675 0.6639669 0.24420437 0.76926553 0.7815187 0.6419548 0.54564524 0.23372002 0.18608774 0.24119735 0.9440032 0.42829242 0.88169247 0.1264848 0.6843337 0.4235259 0.18986453 0.12028687 0.15505078
l30 0.8099981 0.22378556 0.7645525 0.4984401 0.29833046 0.6901971 0.7691603 0.17291775 0.8964444 0.81435764 0.31766096 0.6415626 0.16723876 0.75977516 -0.054155126 0.50063926 0.4155464 0.41811374 0.057905074 0.2883176 0.42665875 0.72179186 0.25266677 0.24838348 0.72860956 0.122755095 0.12685451 0.81924397 0.8304569 0.6088613 0.83156866 0.32055977 0.65712315 0.82295066 0.6274907 0.3937842 0.13532965 0.02934998 0.81261337 0.7033408 0.7919754 0.59381735 0.20986725 0.34986943 0.17272902 0.34026358 0.15855892 0.5037675 0.849484 0.73820114 0.6150312 0.5638427 0.7469046 0.14460003 0.52388024 0.3504256 0.6423258 0.30029753 0.42067647 0.16045679 0.9794818 0.2658275 0.30254132 0.90342456
l31 0.45981932 0.20271578 0.45928776 0.083404996 0.7300602 0.21143569 0.63808537 1.0161932 0.052892786 0.19914964 0.74230504 0.27328613 0.18224262 0.46235412 0.8467973 0.35197738 0.5096306 0.8929753 0.7213159 0.28550676 0.93724716 0.29911464 0.039759453 0.999268 0.30867672 0.13138363 0.83906126 0.6543404 0.7840893 0.23001577 0.07227198 0.9306491 0.10513884 0.87803704 1.0085477 0.2697692 0.21461026 0.36459827 0.7084845 0.72023237 0.8745502 0.43409646 0.9614098 0.7370793 0.9325551 0.6695835 0.4756052 1.0744475 0.11381996 0.41564193 0.46338904 0.9967034 0.6502558 0.14194383 0.96445817 0.1465048 0.84171546 0.19627783 0.23451364 0.08870492 0.39008644 0.6628394 0.79299146 0.23482144
l32 0.05130379 0.1660342 0.8321317 0.86693865 0.3981179 0.3398755 0.5779224 0.23085119 0.2994772 0.7631278 0.3781077 0.7649607 0.40380085 0.8194126 0.69021773 0.6973433 0.24222831 0.39230636 -0.07260908 0.13210596 0.2288534 0.26450458 -0.07186996 0.2950651 0.71337557 0.7651588 0.1845147 0.8744686 0.8929349 0.10422319 0.55052036 0.3468484 0.17710632 0.90064585 0.91353893 0.5136026 0.4347225 0.8332071 0.690261 0.8599728 0.67639714 0.37224716 0.4201183 0.2165883 0.23932944 0.42218003 0.951091 0.34199408 0.4504841 0.9776351 0.37376288 0.16723733 0.8853834 0.036923572 0.6629719 0.292466 0.13385732 0.8636444 0.59447306 0.3117867 0.23820843 0.8760501 0.28186196 0.35077032
l33 0.14169304 0.522854 0.4685731 0.16841885 0.47781166 0.97665197 0.5408896 0.5639128 0.51540977 0.37307638 0.8663284 1.0137442 0.66035813 0.29578763 0.34577477 0.008976841 0.24657653 0.43220544 0.18570222 0.81989694 0.39271006 0.266045 0.47433487 0.67540294 0.6676496 0.57210505 0.76533866 0.53768426 0.32745153 0.042477917 0.041631628 0.72493017 0.5632392 0.398504 0.30366388 0.45238313 0.8117551 0.3755804 0.1798208 0.88249624 0.4824627 0.80705434 0.6470034 0.5688416 0.35781494 0.39671645 0.9845835 0.6223568 1.0600054 0.64339393 0.23020573 0.8835813 0.09544032 0.067868456 0.23050009 0.91499615 0.6264621 0.38543317 0.1590076 0.10578622 0.7237601 -0.0014313082 0.2882035 0.5190854
l34 0.41646507 0.0490258 0.44849628 0.36157253 0.24789226 0.50965446 0.5032459 0.18328503 0.9635574 0.1831365 0.17102237 0.24254122 0.1679262 0.39041317 0.2596339 0.22204277 0.22269738 0.8354074 0.19920032 0.12238654 0.89165294 0.24524252 0.2556242 0.342555 0.1769399 0.20753115 0.55327564 0.5305928 0.10132669 0.06662133 0.27893046 0.7160968 0.73724574 0.5915049 0.7076049 0.6262339 0.8084724 0.31363142 0.1869483 0.07414583 0.8035147 0.22027314 0.45812392 0.2003489 0.07927837 0.6793542 1.0262524 0.5491564 0.57952 0.31811658 0.8737989 0.6299878 0.31737697 0.80453163 0.7497255 0.12567773 0.4635035 0.7415641 0.8604636 -0.060735654 0.14623846 0.3541595 0.27697745 0.9138125
l35 0.14547515 0.23856676 0.640466 0.25762197 0.82177633 0.8761259 0.16636229 0.4046443 0.9839107 0.13944362 0.77733177 0.2245 0.17217082 0.20647801 0.65339774 0.5616545 0.6162938 0.72204775 0.099694245 0.21356538 0.9876374 0.8046301 0.21214062 0.42964467 0.31389982 0.54778516 0.041987024 0.82770723 0.79888463 0.09246452 -0.008061182 0.8684179 0.81676465 1.0821679 0.6504959 0.3694519 0.18897527 -0.09966875 0.19445854 0.90184003 1.0761063 0.7457984 0.1762172 0.80714524 0.9629904 0.4085051 0.582687 0.7426087 1.1376878 0.22569706 1.0907078 0.5470773 0.7745084 0.09317097 0.28800032 0.44749343 0.7704475 0.8253381 0.43984607 -0.11418824 0.77157646 0.50308925 0.77545446 0.16012469
l36 0.6414289 0.66425174 0.68671095 0.7647616 0.8036416 0.9611487 0.70707506 0.6402254 0.14511068 0.7778704 0.330434 0.76791793 0.42013997 0.26392013 0.75465256 0.56016845 0.6156339 0.7842049 0.31086728 0.60659796 0.8125908 0.12235587 -0.079065934 0.7469082 0.68446314 0.34277493 0.7850785 0.8714656 0.5358138 0.2655105 0.54530126 0.039646298 0.6621462 0.6428279 0.5544031 0.49070382 0.13546444 0.52835596 0.7239484 0.5152296 0.69030344 0.18990469 0.21782088 0.7350102 0.10451362 1.0215433 0.20820665 0.68203694 1.107712 0.75038993 0.2030187 0.83362865 0.6022185 0.58735275 0.522533 0.6324786 0.2449177 0.38033953 0.2661248 0.22018941 0.23455848 0.46872514 0.33272153 0.45334396
l37 0.8155365 0.1644908 0.18279073 0.5328578 0.6299272 0.7624612 0.44100773 0.84463537 0.27211055 0.48190728 0.852902 0.9843741 1.1190459 -0.033435933 0.58865905 0.36751923 -0.063448906 0.34778127 0.9054081 0.64198005 0.17160322 0.81253564 0.5101177 0.4614589 0.46889842 0.055038437 0.6937311 0.40852824 0.5761244 0.1412988 0.51266694 0.55394053 -0.00405063 0.6410882 0.2904162 1.0652573 0.54978853 0.32971033 1.0752003 0.29954487 0.149388 0.88458914 0.37074372 0.22647558 0.9060156 0.6715773 0.45656243 0.16786912 0.31475988 0.7928432 0.2617493 0.39268476 0.2686185 0.9089173 0.8278035 0.4875146 0.15568116 -0.016506214 0.26243198 0.76252156 0.39750597 0.6420427 0.68987674 0.23421435
l38 0.18178695 0.38803044 0.70360976 0.54512316 0.18303747 0.5867521 0.65291005 0.7257306 0.6089778 0.20682934 0.3168404 0.53936106 0.42345455 0.7586628 0.2824183 0.6385875 0.5132885 0.03684109 0.7946615 0.28959072 1.0481 0.67772955 0.585258 0.65591586 0.5758297 0.1906491 0.07049323 0.52650726 0.91825473 0.390319 0.6915166 0.16229182 0.460215 0.5647481 0.69600725 0.76608837 0.9124231 0.40563223 0.7552203 0.27222303 0.70364213 0.8990921 0.47013307 0.34087718 0.43111554 0.4451626 0.8864691 0.2550945 0.61876065 0.37567857 0.6414379 0.82032347 0.38764042 0.0006469022 0.86521816 0.22660711 0.8859982 0.041020382 -0.020834751 0.04423479 0.29540634 0.4772441 0.7310591 1.0013255
l39 0.4100509 0.8730497 0.060135785 0.690433 0.51049036 0.8701442 0.657185 0.9426079 0.0969905 0.39135113 0.39421242 0.0037645306 0.58273786 0.172234 -0.07456647 0.92716306 0.09159517 0.042490434 0.76190805 0.42496273 0.67342794 0.5043003 0.3791627 0.96885276 0.5675279 0.881836 0.8157809 0.95518625 0.19507763 0.8436915 0.5190523 0.3501528 0.7971902 0.5827422 0.033015665 0.6555384 0.8392227 0.23456731 0.7361704 0.70898515 0.62436116 0.3156789 0.8131271 0.32055867 0.6335691 0.13931574 -0.01593774 0.92614615 1.0494554 0.5625676 0.32218638 0.6054851 0.9160046 0.6270126 0.117251776 0.560835 0.671451 0.8166745 0.22594377 0.5180829 0.41745362 0.43641442 0.6100969 0.6447435
l40 0.5330526 0.8017048 0.14440916 0.4630464 0.9955775 0.38556305 0.95917153 0.99551857 0.58794624 -0.050520476 0.8372039 0.29400817 0.72352207 0.4237697 0.7749724 0.5189298 0.585077 0.6827865 0.28464633 0.62813044 0.8592622 0.76962906 0.21312498 0.96156347 0.7355376 0.32249713 0.14728768 0.922999 0.077947155 0.43565127 0.24402188 0.57490337 0.7974685 0.8049681 0.35173103 0.90126014 0.21133463 0.7791591 0.16264376 0.80795556 0.6675242 0.2511533 0.22571845 0.6280533 0.81331736 0.1730167 0.17753832 0.85812193 0.5137407 0.5128076 0.18754384 0.5544192 0.5216707 0.45457125 0.70982975 0.9745502 0.5799753 0.8202904 0.016141104 0.2105928 -0.025364034 0.82967603 0.4566564 0.15653628
l41 0.26693502 0.1755656 0.43580255 0.4530464 0.39381915 0.7999346 0.93842196 0.2080837 0.18555018 0.875362 -0.084550664 0.47661257 0.8549904 0.008596928 0.79682803 0.79382735 0.27268815 0.83018136 0.53665507 0.20029745 0.598206 0.22801267 0.4657298 0.868392 0.71422327 0.77143073 0.32784998 0.42329243 0.36463213 0.19144472 0.5183723 0.31574053 -0.0012732318 0.60004115 0.1603167 0.6018213 0.8867214 0.72814846 0.8557352 0.67032146 0.8062515 0.53445 0.6922246 0.64096856 0.36761358 0.7442178 0.92946273 0.21433364 0.9901387 0.24189475 0.8281547 0.8468762 0.6501621 0.22540669 0.6411934 0.8244666 0.292312 0.20083919 0.50763535 0.3720999 0.34904668 0.11489894 0.6421639 0.64596164
l42 0.8614599 0.8799509 0.5394487 0.5164088 0.45743248 0.51907104 0.628022 0.33172083 0.23902783 0.15214857 0.41288885 0.5980793 0.51991254 0.25828183 0.1172055 0.18673705 0.9187987 0.93817323 0.5778364 0.92958665 0.5534188 0.6225184 0.89746666 0.65841234 0.89378476 0.0607594 0.35006976 0.6678624 0.19861259 0.6563049 0.9662906 0.4988797 0.41678452 0.6709745 0.16940302 0.2639032 0.3148199 0.6997845 0.4271752 0.56349665 0.7315924 0.047524493 0.66370195 0.45594403 0.8963064 0.81922626 0.20891617 0.11255219 0.17175385 0.87979144 0.5935321 1.128589 0.5363392 0.3427993 0.169083 0.8235948 0.5198822 0.7035854 0.57037765 0.47350278 0.7001208 0.17988491 0.8829873 0.9440626
l43 0.886311 0.1194127 0.6412875 0.66775674 1.0148637 0.007204601 0.5950046 0.14036228 0.96566284 0.33541277 -0.01508962 0.6370648 0.72431296 0.22159877 0.56950986 0.832246 0.54171336 0.7427252 0.6304285 0.79667133 0.7831601 0.7207173 0.8294869 0.60108817 0.16935791 0.35088122 0.0759154 0.26921874 0.915304 0.3831102 0.50073266 0.75310516 0.8098639 0.31459683 0.8909167 0.7826511 0.97743106 0.32368344 0.6038434 0.4231875 0.544261 0.76270777 1.0533975 0.28133315 0.45660594 0.49757665 0.6440586 0.87730384 0.84301454 0.58250856 0.6951446 0.49089143 0.22803006 0.77235353 0.5997447 0.06838005 0.8362163 0.28900596 0.51321983 0.5184659 0.7075093 -0.030408142 0.86792046 1.0427189
l44 0.6458667 0.8064999 0.5126102 0.35956192 0.6352393 0.081490494 1.0505062 0.5197871 0.81251574 0.6937931 0.69348717 0.35800028 0.73713666 0.34781554 0.8471785 0.21714021 0.3997305 0.17277391 0.90067595 0.18281844 0.5888891 0.15554877 0.5057385 0.8070257 0.20864809 0.25087142 0.84767884 0.47867265 0.18667345 0.2444536 0.87975574 0.39660528 0.10919063 0.8821906 0.57075775 0.98619354 0.120318145 0.68984985 0.6692553 0.41831654 0.567009 0.27699587 0.26975706 0.51138157 0.7872599 1.033846 0.53443736 0.7027063 0.19122982 0.40752095 1.0782993 0.5046421 0.9942308 0.19779123 0.5966224 0.46466148 0.8962276 0.1040456 0.6789691 0.75638336 0.8553037 0.9276818 0.32891205 0.8701415
l45 0.82768047 0.778746 0.3145257 0.7532223 0.31535137 0.2145349 0.26460895 0.90989757 0.60159826 0.13905285 0.40280798 0.44100302 0.31010383 0.734027 0.68199915 0.7337771 0.110101976 0.93539685 0.69297636 0.30918494 0.11754421 0.24201646 0.16774975 0.8186307 0.78311646 0.19375843 0.5472511 0.8844378 0.4364824 0.12264477 0.4828851 0.6224157 0.23794582 0.15195428 0.31426632 0.36398643 0.3219911 0.1609706 0.44178733 0.69376284 0.6027371 0.33883938 0.6752191 0.22300717 0.17743024 0.60014194 0.8537852 0.56518435 1.0319971 0.40532827 0.8589858 0.5920331 0.78884846 0.6331417 0.2931855 -0.008872795 0.0070906286 0.372394 0.63696307 0.31917754 0.8057535 0.57278967 0.15484475 0.41026086
l46 0.56629604 0.60573304 0.95740926 0.9916868 0.12007261 0.9536606 0.32349452 0.41276217 0.3679691 0.3801828 0.16062368 0.7626473 0.6340308 0.5211061 0.6720863 0.04104694 0.80859154 0.064465724 0.61300325 0.9958152 0.2188421 0.26549432 0.912479 0.6570037 0.3303152 0.2405672 0.40819982 0.30177444 0.025105992 0.46015736 0.38292626 0.83898884 0.1645061 0.4563425 0.641988 0.82784766 0.6984375 0.39041248 0.8494475 0.92282003 0.5713262 0.3941893 0.3400402 0.8633259 0.09880456 0.452047 0.058550615 0.7490979 0.5892202 0.41887835 0.80686486 0.26103747 0.44847098 0.5715015 0.19332913 0.8936188 0.3166336 0.035321034 0.59843844 0.19915599 0.43637997 0.1733973 0.52581495 0.45014137
l47 0.54922765 0.2794152 0.9092049 0.8853927 1.0361183 0.29823804 0.48375064 1.0602129 0.47844893 0.56793284 0.8636985 0.7473059 0.59570044 0.60724396 0.72545296 0.39010948 0.09164042 0.85807204 0.34481683 0.4442219 0.32975668 0.06689728 0.27934664 0.8540292 0.8280298 0.09209637 0.39628598 0.11057278 0.35039517 0.5386098 0.90472925 0.6961885 0.19445045 0.20396368 0.3809761 0.8370113 0.16153729 0.13938041 0.43573534 0.6836552 0.9299993 0.6049468 0.1761957 0.71938807 0.8540567 0.54505616 0.95107627 0.60799676 1.0403094 0.95216525 0.6595588 0.23772833 0.20549539 0.66676164 0.75143486 0.24715917 -0.037411314 0.68985873 0.28296617 0.031755727 0.26669216 0.42773896 0.2497703 0.8008586
l48 0.23561493 0.32402533 0.5030127 0.19625483 0.979441 0.8090791 0.63656396 0.9015453 0.16799073 -0.016204586 0.5717075 0.1176121 0.26729724 0.040710147 0.80707675 0.44503415 0.17269331 0.31908137 0.28698498 0.7830881 0.9323977 0.124695286 0.39465883 0.56267226 0.61514723 0.6627785 0.4899865 0.89536947 0.7688591 0.18185388 0.8405468 0.3339602 0.81999314 0.1843722 1.0310922 0.151063 0.859293 0.34279507 0.28567886 0.29924437 0.45358044 0.15428843 0.5976889 0.26550254 0.11445867 0.6822063 0.20249614 0.49441049 0.83418363 1.0040103 0.37830943 0.6268458 0.71234274 0.10633695 0.2167127 0.8377268 0.35493344 0.8586276 0.6626647 0.087976865 0.13338175 0.24461976 0.92408997 0.30341914
l49 0.4594994 0.041802555 0.856289 1.0536288 0.6623264 0.14834441 0.5231481 1.0683944 0.2666337 0.4592346 0.43651828 0.8127669 1.099378 0.35964072 0.44836822 0.84798 0.4688286 0.88782525 0.07281098 0.45330307 0.5265022 0.32258785 0.79195243 0.95704585 0.5754118 0.62913734 0.46021518 0.7519522 0.8178872 0.8175565 0.8579877 0.7793966 0.32116666 0.8731251 0.87063646 0.12178789 0.8659472 0.35762656 0.58151823 0.9396805 0.61529565 0.6281074 0.7954555 0.5877617 0.7241516 0.8579023 0.7658459 0.35285825 1.0635198 0.8964622 0.23567294 0.6018675 0.27235144 0.14992268 0.6637683 0.58432615 0.023728782 0.48324516 0.22506103 0.69060814 0.09790104 0.88195133 0.58435315 0.3953274
l50 0.53208864 0.36427307 0.31154174 0.11132785 1.0198548 0.42889264 0.38448492 0.8724679 0.07237736 0.3770865 0.026789494 0.62660974 0.32717773 0.73290133 0.42457768 0.30786848 0.7352195 0.9121629 0.6465224 0.47845516 1.0316296 0.92296785 0.20894094 0.85505366 0.49480945 0.10997071 0.82305443 0.9985442 0.5982265 0.27585718 0.75388044 0.2490618 0.22020164 0.83514374 0.282882 0.14256787 0.53905666 0.15971687 0.35719058 0.53773654 0.89259136 0.83086604 0.48134774 0.47279745 0.15779333 0.5218693 0.45599428 0.6495811 0.41583183 0.5050924 0.40097266 0.420013 0.70392793 0.64390284 0.22612329 0.76732016 0.124764994 0.13933459 0.25238806 0.52302825 0.3320104 0.23586221 -0.059249762 0.3982622
l51 0.5770688 0.057591114 0.09900027 0.7427065 0.13654844 0.80211604 0.6584456 0.80343723 0.40874207 0.5354954 0.69926476 0.44243398 0.1462269 0.34615552 0.036849383 0.91558826 0.5921684 0.5248929 0.6332324 0.6195816 1.0029702 0.5899349 0.2999538 1.0370947 0.3230994 0.8758881 0.67522085 0.8213445 0.34509796 0.69947153 0.25685275 0.17850971 0.3457914 0.5686644 0.577265 0.9980796 0.4793746 0.21413472 0.67581713 0.447506 1.0136093 0.29091883 0.9093999 -0.026491499 0.5856551 0.56603473 0.5972476 0.74415374 0.0815997 0.3129995 0.39612204 0.9789353 0.13034627 0.427399 0.60313755 0.43918782 0.61264884 0.78116167 0.30353865 0.81368023 0.117980525 0.88295406 0.9360876 0.9659654
l52 0.04080968 0.5230872 0.1930452 0.39674342 0.2423805 0.24178019 1.0567812 0.65667593 0.73472506 0.5263114 0.04170578 0.37750417 0.5249946 0.20277716 0.329753 0.52141505 0.4919676 0.5550322 0.8255612 0.24833375 0.36736012 0.4611168 0.22463068 0.93078935 0.61469334 0.13392897 0.5883039 0.7180898 0.32401922 0.6217272 0.7770008 0.36571622 0.15683196 0.26797 0.17280145 0.8784005 0.8545775 0.35522628 0.43322226 1.0274123 1.048676 0.92069 0.741386 0.5432746 0.73494476 0.79674506 0.86440766 0.15832508 0.44074917 0.08081377 0.4304731 0.3033813 0.6376764 0.3824898 0.7589569 0.4123563 0.8151244 -0.03532261 0.9311989 -0.03312039 0.5114948 0.30656093 0.39870316 0.28201288
l53 0.1442581 0.005962073 0.13078992 0.18083103 0.88198096 0.19194196 0.9981527 0.24662791 0.6361659 0.07771288 0.47422975 0.6051061 0.5827065 0.3793929 0.4853665 0.57260233 0.56762516 -0.01431524 0.84527946 0.88700885 0.397198 0.19870225 0.32208622 0.27632952 0.28508252 0.5468497 0.8453897 0.6883528 0.47524777 0.14366214 0.6086579 0.2959977 0.5505872 0.62064594 0.16815831 0.35733384 0.89363086 0.18489607 0.75982165 0.5591755 1.0083864 0.17763516 0.4373819 0.10866252 0.6625238 0.44192266 0.8108627 0.4675383 0.48997012 0.76172817 0.36123362 0.23496103 0.19781904 0.8834479 0.38629836 0.65024847 0.4216776 0.74500865 0.8626786 0.24319404 0.49800193 0.5661036 0.71796376 0.6990802
l54 0.3986138 0.6215836 0.8125911 0.769376 0.89330393 0.7879465 0.7570096 0.587892 0.64674383 0.52519697 0.91551816 0.817119 0.5521744 0.73912215 0.3679376 0.5906783 0.9008506 0.52234006 0.5751152 0.429813 0.4803388 0.5251436 0.046406034 0.12138751 0.16301306 0.05870465 0.5498972 0.23902908 0.67375594 0.69665223 0.601164 0.3089918 0.46612325 0.22471295 0.5656444 0.16329244 0.3712009 0.47630674 0.96511483 0.10968017 0.78519124 0.067593575 0.14256722 0.032197345 0.049332105 1.008796 0.45423192 0.26035765 0.8366536 0.7763117 0.31650743 0.60809624 0.4103088 0.29129332 0.83230567 0.31443232 0.14697433 0.024951493 0.049789347 0.4129914 0.8603699 0.08105321 0.8916659 0.5316006
l55 0.20974703 0.88152546 0.15440544 1.0612583 0.83810145 0.9260105 0.288854 0.542333 0.69324285 0.8494461 0.17891806 0.39805034 0.24610151 0.29003525 -0.007706629 0.37281442 0.5882738 0.8851055 0.71934605 0.27302602 0.5788479 0.23438832 0.6515313 0.8490925 0.15010251 0.7917717 0.36566198 0.96657497 0.6477347 0.17354816 0.4663548 0.8826746 0.28238457 0.6990634 0.29806653 0.829844 0.072737955 0.32683566 0.33456436 0.3741418 1.0543734 0.3212913 0.18829495 0.049437184 0.1774063 0.5200881 0.5640268 0.43102986 0.90172076 0.1174374 0.35373363 0.2767979 0.39484674 0.89116246 0.40069142 -0.0025346475 0.33835354 0.6569399 0.95345616 0.4841931 0.48262653 0.027829032 -0.0022474786 0.90746975
l56 -0.051667746 0.7885216 0.4802639 0.61492974 -0.039581873 0.14613958 1.0038141 0.16680597 1.0084147 0.06703468 0.8096704 0.15226379 0.32530206 0.2911362 0.19878241 0.50414485 -0.03889421 0.23333798 0.1497274 0.8860025 0.6414222 0.14790969 0.57388526 0.4710505 -0.048093826 0.6326865 0.85939634 0.7053912 1.0105531 0.7094567 0.7909139 0.18244062 0.7301043 0.8816396 0.21188727 0.6728241 0.90462554 0.7711375 0.044653952 0.42842624 0.3960009 0.48220685 0.5413805 0.106528856 0.0672298 0.5199354 0.87684697 0.4578208 0.44758648 0.32979232 0.58814234 0.7865149 0.5008602 0.27642608 0.61998826 0.27556756 0.11413475 0.74986744 0.30045444 -0.045245957 0.060373206 0.4809552 0.8461683 0.19952926
l57 0.46098763 0.15028659 -0.02397679 0.85912627 0.41999936 0.7356672 0.48652375 0.94003344 0.98938453 0.7648264 0.46866003 0.5632728 0.18648419 0.68582875 -0.059890974 0.18411005 0.5101533 0.73522526 0.69614285 0.31508842 0.43993938 0.51566404 0.02448883 0.8213878 0.68684524 0.27874032 0.9102951 0.78288436 -0.0266321 0.5748821 0.260842 0.20411363 0.24142534 0.609954 0.28628096 1.0686889 0.9553055 0.65956724 0.29725242 1.110459 0.43715107 0.3406607 0.48263153 0.4835339 0.55359876 0.17890906 0.057635546 0.68966484 0.29071283 0.60087085 1.1111975 0.6392107 0.981393 0.34168428 0.1546886 0.6524356 0.70283633 0.19751853 0.35619846 0.8378724 0.087593354 0.5394551 0.61758184 0.110376865
l58 0.7676779 0.7187006 0.7700981 0.5012544 0.52653897 0.95971775 0.26247016 0.3506666 0.098505646 0.13024233 0.3257624 0.732652 0.41908914 0.60084206 0.80595344 0.6063908 0.57930064 0.7643813 0.2883892 0.37911928 0.7680921 0.435826 0.07807361 0.41768414 0.2747609 0.44905752 0.3088633 0.261875 0.71871215 0.709241 0.21486847 0.5796107 0.028520895 1.0160817 0.96522796 0.92813796 0.22780691 0.65854853 0.8686424 0.068937235 0.6873452 0.5557439 0.11585311 0.21545406 0.80298245 0.1372556 0.12646343 0.44272077 0.09916461 1.0034074 0.5792751 0.6491899 0.77587163 0.34265617 0.8600022 0.51270926 0.42056155 0.29870573 0.62729985 0.12273097 0.28901777 0.27497065 -0.06804695 0.77244276
l59 0.4695282 0.31986696 0.06294535 0.43764478 0.92127705 0.6561157 0.95840085 0.70616597 0.6854821 0.567349 0.7376777 0.7897717 0.7127251 0.6647674 0.5788221 0.7137307 -0.013087463 0.9202515 0.28931972 0.29347748 0.8674187 0.68483275 0.3679243 0.19816974 0.23534234 0.34654516 0.08857338 0.35958293 0.43612152 0.6927854 0.4235026 0.51853126 0.882051 0.5929069 0.17919596 0.13111396 0.1300583 0.74156 0.17971718 0.72240925 0.99632937 0.36219576 0.26466334 0.26175737 0.8397461 0.66012484 0.84702003 0.58879906 0.58038336 0.10418959 0.59955376 0.20737034 0.92383724 0.075069964 0.54885143 0.30854857 0.22506855 0.21786486 0.23918675 -0.03267535 0.49510536 0.82709444 0.92996126 1.0066863
l60 0.38541073 0.22755863 0.3474262 0.72393537 0.3266297 0.82392037 0.92096144 0.24314673 0.71718955 0.3609037 -0.015095131 0.30189118 0.34078705 0.15921617 0.71614873 0.6932776 0.45937097 0.8381206 0.12962501 0.77132344 1.0412635 0.5020603 0.24235846 0.9909766 0.5229813 0.032118753 0.08793314 1.0024478 0.36246198 0.6394923 0.8649904 0.2560171 0.7294491 0.40363985 0.6243758 0.56875485 0.79983383 0.060634863 0.9800809 0.10794648 0.87528163 0.26967672 0.35548824 0.75616866 0.4525441 0.20279822 0.9604534 0.27732602 0.86061287 0.2218846 0.7320689 0.8220183 0.8407485 0.47154802 0.31653044 0.37733787 0.817707 0.49107307 0.054369777 0.45878336 0.88825727 0.66935503 0.67911994 0.19904064
l61 0.30315515 0.7038671 0.39367136 0.56849444 0.49279708 0.540222 1.0232915 0.2219738 0.57319176 0.8603479 0.38911197 0.3571667 0.79850125 0.68521845 0.2775547 0.7253034 0.31130183 0.22925244 0.5691283 0.22971995 0.3773561 0.34969586 0.66467243 0.2328809 0.7710028 0.779705 0.2542342 0.2619355 0.8680897 0.2170331 0.28936672 0.5824036 0.5762964 0.4706111 0.32052943 0.10152874 0.24543637 0.3080589 0.108193696 0.79315096 0.8439543 -0.07806937 0.7292801 0.30694205 0.9024962 0.7122215 0.63928753 1.1368566 0.76569706 0.55434114 0.81981623 0.82946366 0.01005757 0.44677097 0.79291475 1.086933 0.5075881 0.47712228 -0.044199258 0.1741853 0.38355076 0.22970371 0.9653477 0.8939306
l62 0.17617969 0.20678253 0.85631025 -0.01920127 0.35037208 0.27366576 0.58647263 0.6703963 0.8617741 0.33807352 0.01155445 0.8901829 0.6963711 0.92867327 -0.068918966 0.456281 -0.01837023 0.33834484 0.8267391 0.8796639 0.35566777 -0.01822514 0.78849155 0.77249146 0.36913887 0.23217547 0.077836215 0.26809537 0.8463514 0.29427382 0.004550169 0.76313704 0.43409282 0.55710775 0.70771945 0.63842314 0.83542746 -0.053322133 0.52756304 0.28454798 0.2388489 0.41102263 0.22668731 0.10732798 0.6535165 0.44691843 0.13058305 0.641267 0.37171546 0.8110539 0.48108774 0.502697 0.28877082 0.35901597 0.6860015 0.9617464 0.14188544 0.8393466 0.14851458 0.19359587 0.5663862 0.6425272 0.06511117 0.11550483
l63 0.7586946 0.50109947 0.6524472 0.8932588 0.59802186 0.6741388 0.9287925 1.0348594 0.58408153 0.5270931 0.16679867 0.772248 0.47010168 0.72557104 -0.027765771 0.42471266 0.38669556 0.37194896 0.6262232 0.11971349 0.33360153 0.32853892 0.3756292 0.8535088 0.7411415 0.784661 0.28166512 0.17743886 0.9727413 0.18547542 0.4341482 0.19159822 0.51271707 0.3150718 0.8316434 0.7891588 0.67530304 0.5067947 0.36306268 0.8906131 0.6759891 0.78132117 1.0814573 0.681272 0.43465257 0.40747163 0.39106154 0.7024891 0.24116017 1.0138502 0.5729696 0.7283686 0.33461493 0.40879893 0.89735264 0.2393645 0.7770022 0.91599506 0.11877456 0.48256597 0.42419374 0.49683556 0.5146701 0.8732515
l64 0.6768546 1.0125397 0.54370195 0.54209805 0.1002932 0.59355253 0.61102635 0.9774923 0.9927664 0.022181312 0.5883706 0.24022432 0.5053645 0.6289586 0.7398186 0.51936847 0.0044467933 0.028167048 0.25325066 0.26381895 0.444785 0.1240345 0.4918987 0.8947417 0.8600501 0.052800477 0.08513659 0.5003759 0.81304026 0.6150866 0.94893783 0.86379945 0.81677425 0.11799099 0.86785144 0.9444042 0.21071818 0.86343575 0.8277315 0.14619488 0.7076951 0.65611 1.0877317 0.21793565 0.883386 0.9151576 1.0114185 0.3380307 0.59219503 0.41413087 0.14926425 0.49394262 0.414758 0.6375719 0.87209153 0.027013738 0.2876747 0.824408 0.28848702 0.2799848 0.46224073 -0.021821707 0.6332971 0.87155133
l65 0.20176716 0.16943656 0.6804912 0.9348551 0.6574029 0.11458036 0.80807155 0.96922827 0.5849848 0.6776301 0.1742421 0.6028858 0.9916933 0.6918989 0.43911055 0.53868484 0.07313501 0.5102055 0.07217627 0.38153997 0.08980186 0.92411697 0.43392542 0.3798523 0.9067322 0.4013825 0.5905253 0.9270117 0.16954963 0.1722601 0.4630086 0.63321185 0.23515618 0.2998964 0.90675527 0.500484 1.032968 0.59969157 0.92916983 0.4958952 0.083751656 1.0533051 1.0411507 0.20265523 0.8330258 0.29142135 0.44581056 0.7615231 1.0494034 0.75630814 0.64874166 0.102424726 1.0200757 0.5003247 0.4860034 0.74388474 0.13721325 0.87807393 0.77332777 0.3541976 0.5172399 0.15191366 0.83969 0.71660656
l66 0.6737393 0.8111276 0.17008685 0.6712692 0.39609933 0.9760775 0.73992085 0.3623341 0.650038 0.8118631 -0.07072723 0.2830154 1.0212747 0.8239927 0.4894511 0.12499477 0.37529892 0.28130466 0.86375 0.4729175 0.07688148 0.75867295 0.50183195 0.94132245 0.4407658 0.17787969 0.005731248 0.54865235 0.34025446 0.6003856 0.73460656 0.54160136 0.7514649 0.14846586 0.81589776 0.85949445 0.547872 0.2588466 0.7096753 0.7193452 0.05539981 0.30684543 0.96691585 0.34483275 0.72331274 0.3196831 0.82538885 0.11654016 0.85034806 0.2799111 0.26803288 0.8342198 0.57856476 0.80482906 0.33410385 0.700325 0.25349987 0.3697514 0.09577005 0.5691717 0.6954229 0.71523714 0.57120425 0.5708036
l67 0.9040326 0.1324134 0.8846086 0.49960718 0.2404893 0.34033212 0.87768406 0.4862379 0.30033526 0.095556036 -0.04158 0.96676207 0.78449214 0.28270033 0.35991478 0.93986446 0.046183042 0.8726626 0.10824509 0.47513348 0.8534671 0.37725797 0.109054506 0.7637288 0.2755247 0.5977456 0.4054986 0.1675936 0.7401049 0.4794115 0.73472613 0.08866289 0.48467296 0.23961636 0.5286195 0.32008153 0.73053545 0.6292942 0.92338175 1.0390017 0.100195415 0.14174862 0.6727185 0.736766 0.7999458 0.53771955 0.49236003 0.7988529 0.15506464 0.77896917 0.6755851 0.15239422 0.5770997 0.6763579 0.23641768 0.64903617 0.67919594 0.37368387 0.16037418 0.86311346 0.12261569 0.1190552 0.13037494 0.91257524
l68 0.43162993 0.60082686 0.07310405 0.92329836 0.85635567 0.28171632 0.44725254 0.889278 0.9095171 0.15636592 0.5943231 0.118121915 0.7473281 0.36234957 0.10487359 0.62302727 0.76050884 0.097394824 0.8665054 0.50446874 0.71979505 0.1915439 0.029494742 0.4902731 0.34055254 0.3421705 0.34780693 0.5087662 0.8803132 0.3628486 0.6755903 0.7747733 0.20177397 0.45421693 0.39764017 0.6285699 0.786656 0.73442346 0.23899612 0.4404911 0.8262675 0.35219023 0.72355485 0.07724142 0.53836143 0.59249526 0.12630348 0.891164 0.4657118 0.27664277 0.6800145 0.8011998 0.40704566 0.5783619 0.17746349 0.6577162 0.76365715 0.9410662 0.42266366 0.5155484 0.54242176 0.80082613 0.21358007 0.08688237
l69 0.8987778 0.086889185 0.1489418 0.82103235 0.5468568 0.42093036 0.6815712 0.68405616 0.92863065 0.45442843 0.63511086 0.19849811 0.36698893 0.7190034 0.8283094 0.1068698 0.4136863 0.6374762 0.19230713 0.3652081 0.8653117 0.37891316 0.41247678 0.83205575 0.5148762 0.71000797 0.845469 0.8095442 0.53154874 0.29747674 0.6799435 0.46846977 0.18525761 0.93645424 0.38903326 0.6905394 0.48409715 0.4179524 0.76784843 0.7493209 0.3093613 0.85284287 0.91592133 0.29422507 0.50266784 0.54227054 0.7900577 0.39773387 0.14714003 0.96754295 0.2680066 0.80702764 0.811666 0.9318519 0.6651921 0.15489334 0.89014375 0.09522444 0.6518274 0.18900172 0.15480195 0.23080297 0.56564647 0.11019923
l70 0.6011286 0.83503133 0.6149928 0.7603304 0.6117018 0.27905524 1.0430447 0.31532872 0.9126019 0.87391376 0.49893257 0.30894023 0.925113 0.3819628 0.034272186 0.909745 0.7008039 0.6554522 0.060388584 0.6532845 0.7682142 0.8270384 0.109308675 0.052440945 0.8805765 0.3557929 0.578457 0.903181 0.78808117 0.89650726 0.8338046 0.9213293 0.055184834 0.8292205 0.61229265 0.69632244 0.3057821 0.23976688 0.84280646 0.7243256 0.33322152 0.75348395 0.25655556 0.034705956 0.15147068 0.6127053 0.20917794 1.0199323 1.0897845 0.87072283 0.7993149 0.12392277 0.7964261 0.37644628 0.98435146 0.19059454 0.34565905 0.6701476 0.62665707 0.48247558 0.1524297 0.36569685 0.25975415 0.6561456
l71 0.2613089 0.1437559 0.3675734 0.5906286 0.40080056 0.31057122 0.55967724 0.53755426 0.8463385 0.42643082 0.27018085 0.23436446 0.8514552 0.63785493 -0.040751472 0.6014549 0.038588602 0.32142088 0.9258458 0.20069213 0.6968253 0.64560825 0.79603785 0.12031195 0.7951246 0.05729025 0.8259948 0.4658398 0.29055822 0.1257809 0.72277963 0.25841364 0.61496025 0.910714 1.0660341 0.053658128 0.95687056 -0.10352589 0.48403218 0.16258912 0.18141705 0.8616309 0.79403645 0.6069009 0.22908358 0.3184281 0.5692839 0.9139627 0.28447834 0.9154532 0.79947174 0.8555424 0.5315299 0.06356994 0.33490103 0.15567026 0.12695535 0.4231777 0.4406507 0.67813927 0.48832366 0.46893582 0.14156064 0.20113844
l72 0.19511119 0.26398763 -0.06444873 0.42058507 0.11154199 0.31864163 0.95280766 0.38723695 0.6309404 0.43871832 0.58361804 0.76323813 0.22494914 0.6961414 0.73683965 0.16531773 0.6989794 0.5237625 0.15753296 0.59129727 0.86355007 0.7674678 0.48469847 0.8552817 0.7314725 0.3363394 0.17715469 0.25594172 0.7939318 0.30902278 0.24974307 0.35281602 0.59299445 0.94466954 0.27127135 0.7049702 0.8516105 0.37358096 0.46645954 0.643515 0.11298085 0.8384785 0.860133 0.12710759 0.91343105 0.6365921 0.42020884 0.4075107 0.68255824 0.2856473 0.85085285 0.12583436 0.73022187 0.35091674 0.9100071 0.83797777 0.25997564 0.20501903 0.15700662 0.41179854 0.44564766 0.023347456 0.43307883 0.833488
l73 0.14279087 0.33896354 0.5080514 0.3673297 0.6277122 0.37428916 0.7372221 0.21201368 0.77095413 0.59112453 0.18937708 0.51833695 0.717734 0.38015425 0.1698452 0.218516 0.4733538 0.8178971 0.7338664 0.60450083 0.91882414 0.6215719 0.14293447 0.12852804 1.0132686 0.06495395 0.24417743 0.8162483 0.31081313 0.27740574 0.68691957 0.60344726 0.16677551 0.49945226 0.55065644 0.26365757 0.76769185 0.4515359 0.94217134 0.81956244 0.8571454 0.94030046 0.87957865 0.91368055 0.8108368 0.9165094 0.34797272 0.2213442 0.6758962 0.34270364 0.56186664 0.6888975 0.21454686 0.18279418 0.79008055 0.02908062 0.67042285 0.648773 0.18154411 0.030586084 0.74228287 0.16257706 0.24363846 0.9745278
l74 0.8612292 0.24496637 0.4137606 0.9831466 0.35933036 0.7179682 0.8195487 0.88559335 0.56469405 0.111219004 0.88559353 0.22088493 0.82458234 0.81835735 0.38591623 0.5402337 0.4787612 0.38426173 0.37535974 0.8890503 0.26699153 0.38888642 0.8461779 0.9375469 0.08671765 0.20712848 0.018033706 0.44330767 0.9832264 0.76883024 0.13588758 0.28748137 0.73777455 0.52914625 0.38756073 0.32057494 0.21723205 -0.007908555 0.7788848 0.73025155 0.09323602 0.87217176 0.5209563 0.36193728 0.92321205 0.2771454 0.81868714 0.93394345 0.5482356 0.8083569 0.50276285 0.7695135 0.5469241 0.2754303 0.36722425 0.7400117 0.79951066 0.7056814 0.676167 0.63600314 0.195117 0.49393284 0.23974693 0.57821786
l75 0.6921067 0.21750477 0.032478668 0.6926529 0.35791826 0.12367321 0.39325643 0.16594653 0.7015621 0.26987502 0.17136765 0.4569977 0.057771575 0.8265218 0.024954196 0.8456458 0.502832 0.65965754 0.6507225 0.53120613 0.82821256 0.4759623 0.024137555 0.83712703 0.38293928 0.7904004 0.28015432 0.40101686 0.59772617 0.6479188 -0.06834886 0.7686508 0.7392046 0.63415325 0.51497227 0.5203279 0.8119414 0.45778352 0.7316857 0.89264756 0.95534813 0.55428106 0.38726503 0.8198669 0.653771 0.834225 0.12370969 1.1192763 0.5178222 0.7520119 0.57945955 0.3987752 0.64683753 0.49206647 0.26790744 0.5006906 0.6515896 0.21737874 0.75556093 -0.07211292 0.33788627 0.15021972 0.03601117 0.17700583
l76 0.52770084 0.62742794 0.10811117 1.0686146 0.3526679 0.4225854 0.21171609 0.90748 0.91317606 0.07354389 0.88140166 0.68799055 0.59706414 0.027643824 0.05191307 0.44563675 0.46854916 0.91571355 0.6905086 0.34251568 0.8275252 0.104520015 0.7185377 0.8308929 0.5186161 0.16607748 -0.014439958 0.7242822 0.6132284 0.27574462 0.36502504 0.17233442 0.82621044 0.51911473 0.34478852 0.32723874 0.95404977 0.40928566 0.56972915 1.0776687 0.41375342 0.11429437 0.5917798 0.8611488 0.6913262 0.17333779 0.34440708 0.74141 1.0429559 0.5020301 0.12688543 0.2932735 0.6550205 0.273155 0.14054069 0.94500786 0.0731402 0.598017 0.8822584 0.5361751 0.07906645 0.8905767 0.9207003 0.34409812
l77 0.44326213 0.16503392 0.29379225 0.30154103 0.34791175 0.2756911 0.62645465 0.78457326 0.20392181 0.07215108 0.6272706 0.583116 0.60293716 0.509737 0.7091501 0.101168334 0.58548874 -0.058661625 0.12069637 0.8895297 1.0806596 -0.046649914 0.30871227 0.5796962 0.26639047 0.80145824 0.15528595 0.8926334 0.3069006 0.32269245 0.4249825 0.98536247 0.2089498 0.5725316 0.7376039 0.661393 0.6322457 0.8401086 0.9561333 0.7226866 0.7376434 0.8120618 0.62190676 0.40052235 0.9806008 0.76885927 0.99043524 0.28964034 0.3417813 0.18206729 0.44673252 0.74744403 0.68344265 0.5072915 0.84736526 0.91150385 0.45154184 0.94987077 0.4348909 0.534929 0.34860095 0.8977064 0.73556894 0.38914672
l78 0.36217254 0.33027008 0.7877035 0.90586007 0.7187522 0.49655446 0.34825727 0.3743265 0.382751 0.32239246 0.10110251 0.06483075 0.6084837 0.18955356 0.29843402 0.75440156 0.01838742 0.6802946 0.07503677 0.74080455 0.90098953 0.22889931 0.09147671 0.9658771 0.022632424 0.68047416 0.61613595 0.6802299 0.7781667 0.8200766 0.17170136 0.33668366 0.20678298 0.43354514 0.7746022 0.9534225 0.802749 0.86640614 0.3508042 0.5872926 0.3732431 0.4571944 0.26937217 0.76321715 0.07716069 0.13017626 0.758504 0.17864312 0.39386576 0.08150755 0.94120526 0.29919556 0.9281589 0.29736412 0.27189672 0.268274 0.11014414 0.231279 0.29533067 0.34085473 0.90850407 0.5830465 0.07676806 0.45721057
l79 0.22109927 0.67300844 0.4892757 0.5211198 0.02310374 0.45899346 1.0556834 0.53957176 0.6346278 0.0005873835 0.19414774 0.37063596 0.78434104 0.7781381 0.22383077 0.1176976 0.18104441 0.9818806 0.41096562 0.9459352 0.63628536 0.95365345 0.69563025 0.07464622 0.7044501 0.9167274 0.20423591 0.6504613 0.97211117 0.52467245 0.46520314 0.18314229 0.6985644 0.8794921 0.6189024 0.7593777 0.42420137 0.547994 0.6978562 0.0613799 0.3396798 0.59323895 0.3567676 0.29298082 0.32053283 0.801897 0.45600882 0.9903775 0.84481597 0.9199069 1.018572 0.9612645 0.34370366 0.40059024 0.36600038 0.21925214 0.51544845 0.5580893 0.7054929 0.79866016 0.6246749 0.65982676 0.8726999 0.3010653
l80 0.88779956 0.84522665 0.20194513 0.13518803 0.16625574 0.22434948 0.25720015 0.87951976 0.43700197 0.8596577 0.3294357 0.75805604 0.47828633 0.57387143 0.34344438 0.8348064 0.5849607 0.1785244 0.34266564 0.60091656 0.947459 0.43125138 0.44322607 0.3529594 0.5780733 -0.023300122 0.39936796 0.386487 0.6300725 0.006751449 0.3367596 0.6124063 0.771915 0.9664353 0.7568854 0.22917616 0.561942 0.60256964 0.7816583 0.7897629 0.3214216 0.7992606 0.733265 0.14010517 0.9203912 0.13795522 0.36607945 0.26433605 0.77142185 0.23374824 0.39771476 0.364315 0.10913722 0.30501598 0.80321306 0.09367132 0.8159186 0.11137592 0.123800494 0.31169507 0.5670825 0.816745 0.7738071 0.31553197
l81 0.20937344 0.6853219 0.3884762 0.7553749 0.9685247 0.5420701 0.90765876 0.33015954 0.7634936 0.6562658 -0.039858375 0.73539937 0.9835316 0.81334734 0.22395624 0.11692953 0.6016445 0.5883545 0.72289336 0.76174706 1.0744569 0.3771169 -0.06198189 0.17214642 0.70343065 0.55146754 0.117687255 0.4334709 0.7386345 0.4794043 0.38719788 0.76185876 0.8164555 0.15881126 0.67726904 1.0122766 0.09948466 0.4305912 0.30989957 0.45380127 0.28880668 0.724351 0.575824 0.23545085 0.18119632 0.75885856 0.39147535 0.18874986 0.58346975 0.10586624 0.4123342 1.0452839 0.63960636 0.76080555 0.8951337 0.7666544 0.03346863 0.40916127 -0.030541638 0.7677533 0.5945901 0.7615948 0.7300058 0.68974584
l82 0.4884899 0.790812 0.0895345 0.11438324 0.494231 0.41600132 0.7932891 0.35230732 0.18519181 0.40748957 -0.064259075 0.29352546 0.4165995 0.22122636 0.052079305 0.6421729 -0.07820407 0.92307097 0.879528 0.3263293 0.25645176 0.73395246 0.41257715 0.094565056 0.57120615 0.69471616 0.337189 1.0182613 0.71140236 0.9215587 0.53092587 0.5624234 0.89116246 0.968095 0.27437767 0.3543002 0.8025961 0.2765161 0.6296432 0.90006065 0.6057061 0.65827096 0.4431787 0.013463193 0.94167167 0.23649494 0.6788028 0.7424011 1.0223744 0.44440013 0.16882354 0.37458673 0.2182448 0.11796034 0.17767206 0.17151123 0.027702743 0.066583715 0.70962363 0.027436234 0.99216115 0.27549654 0.42488968 0.19916871
l83 0.21674262 0.63413745 0.03961519 0.14781316 0.53873324 0.6598601 0.15899238 0.3121359 0.64132553 0.5774978 0.6210784 0.67525136 0.85097295 0.67295337 0.6419071 -0.023413269 0.38105515 0.3810031 0.35794458 0.67183733 0.99647796 0.88722813 0.09541904 0.6357157 0.6534975 0.858192 0.3044603 0.27034527 0.23837465 0.4473206 0.98839873 0.31784979 0.018679462 0.22328556 0.7173124 0.7785771 0.25669208 0.7479258 0.57934874 0.4664348 0.3612034 0.95154214 0.6241479 0.13673474 0.10205893 1.0714204 0.97665626 0.89136434 0.4853495 0.5597566 0.53653693 0.8923781 1.0606456 0.1142513 0.56420565 0.122803725 0.3177432 0.7737985 0.83189523 0.6664641 0.3928023 0.7496763 0.28228948 0.12054149
l84 0.3746487 0.8038029 0.20231023 0.6582723 0.4186107 0.124642916 0.62378937 0.5307928 0.3494244 0.6169743 0.27834308 0.067742676 0.122320384 0.5551277 0.5566164 0.4770914 -0.03945792 0.011452133 0.12532687 0.8505275 0.23036392 0.19553679 0.7029619 0.88192374 0.72658557 0.27394393 0.64198023 0.26661202 0.7478968 0.41446787 0.42146695 0.41218734 0.16473253 0.4774056 0.30220568 0.79584944 0.80627626 0.6058436 0.37468207 0.37550187 0.38283783 0.13109326 1.0141455 0.30087966 0.804489 0.7265408 0.34134144 0.39611712 0.4889916 0.07635287 0.7014776 0.8477087 0.8652625 0.63587284 0.5960581 0.4051733 0.3827622 0.62168294 0.047840018 0.6025755 0.89782834 0.2766214 0.5061565 1.0294646
l85 0.98298514 0.8461593 0.2718269 0.48533106 1.0641015 0.76239777 0.3962545 0.66592413 0.8222621 0.83147174 0.093328826 0.43003237 0.22718316 0.7034889 0.12029755 0.5915674 0.6260911 0.31110638 0.73842204 0.7805557 0.114108235 0.47406653 0.7478597 0.3433286 0.43291867 0.5125071 0.04512054 0.14337154 -0.01930799 0.067299075 0.6309085 0.084690645 0.344285 0.32764202 0.9104373 0.28465405 0.26643813 0.843458 0.64257276 0.93880284 0.75686544 0.5056906 0.6415604 0.8875715 0.04672063 0.53916466 0.73416686 0.42978647 0.8597284 0.79544556 0.71792173 0.18222292 0.4912204 0.13698049 0.13101102 0.899159 0.5167196 0.33097237 0.22468872 0.16561608 0.32649323 0.745929 0.075108424 0.31676877
l86 0.44588444 0.20656598 0.26105237 0.73200506 1.0071139 0.44679028 0.93258303 0.34758556 0.20893815 0.82355076 0.13865067 0.24000062 1.040523 0.027448904 0.167477 0.5718641 0.37033278 0.12440806 0.10605717 0.27939945 0.37342933 0.64879245 0.7703894 0.8890518 0.7946658 0.50394404 0.17095214 0.64023775 0.8378985 0.048571333 -0.020856086 0.5102317 0.43458652 0.0998092 0.96893466 0.7429612 0.10670387 0.46802443 0.82684 0.7000633 0.31099787 0.80381334 0.26723808 0.7997936 0.9047334 0.61871296 0.46024534 0.16232768 0.6977093 1.0339426 0.17506573 0.6829925 0.6539442 0.11739914 0.59039724 0.66266817 0.8461669 0.22371288 0.5095625 0.09510602 0.6718321 0.17162615 0.18228875 0.265748
l87 0.1756746 0.49729902 0.123120435 0.021533972 0.7867062 0.9988684 1.0075147 0.8779416 0.077038884 0.5946654 0.4060209 1.0203915 0.3108732 0.2358675 0.28061336 0.23463489 0.34358588 0.8387156 0.65206736 0.67891634 0.25052837 0.48290652 0.10103011 0.8823399 0.43409026 0.34027168 0.75892234 0.7396464 0.927461 -0.054189906 0.3026663 0.75967497 0.5171715 0.4985905 0.87754 0.10537438 0.12603837 0.10435074 0.11242204 0.82977825 0.5682389 0.49643457 1.050839 0.50205636 0.09823932 0.15047969 0.99247116 0.36849317 0.53624237 0.7167604 0.25570935 0.046909012 -0.031048931 -0.07210489 0.37269247 1.0724075 0.72930557 0.5348873 -0.06838339 0.65333414 1.0301958 0.71635795 0.65279657 0.5752333
l88 0.6945776 0.80900925 0.14737338 0.6500564 0.05360688 0.8813034 0.52013445 0.835459 0.5024993 0.13945203 0.9202356 0.31248593 0.024536807 0.9340861 0.081009865 0.7339853 0.24811666 0.4854921 0.09356746 0.7486406 0.9112687 0.42459399 0.03644411 0.8773213 0.1309371 0.0012486202 0.5323236 0.28894907 0.8536411 0.9506058 0.44910866 0.1679473 0.591247 0.87347686 0.61818415 0.80280113 0.34597296 0.98030937 0.06349493 0.31669703 0.034836013 0.9745303 0.3880418 0.23692296 0.6922539 0.82144356 0.4666074 0.46139514 0.66678554 0.63939244 0.6286465 0.81218576 0.3243495 0.19914211 0.6727041 0.25649753 0.56015617 0.47771376 0.53700703 0.11629397 0.46795237 -0.0019973211 0.6233691 0.527716
l89 0.78641397 0.748886 0.61277694 1.087282 0.93135285 0.3785602 1.0150865 0.88309044 0.30173826 0.3434914 0.7069626 0.78191584 0.15142776 0.31976777 0.84716684 0.33433408 0.83931357 0.7668819 0.18729538 0.42149514 0.60075694 0.3906415 -0.019185489 0.28420648 0.6458789 0.18711121 0.15795256 1.0037233 0.38689232 0.6577915 -0.019743057 -0.020779857 0.45009583 0.54632306 0.563873 0.37769336 0.6411943 0.7814994 0.28499568 0.95438737 0.5673405 0.89996946 0.54770726 0.36559534 0.7240813 0.60064226 0.6685491 0.36323422 0.94748664 0.4140544 0.4694954 0.16288626 0.72980434 0.4691065 0.9098659 0.06605394 0.5208276 0.489128 0.52714294 0.20499511 0.6107198 0.2264017 0.709923 0.55186594
l90 0.13250996 0.7055779 0.64386207 0.6341849 0.9708322 0.14045313 0.90757513 0.2056564 0.5041687 0.40111983 0.589841 0.49127087 0.46548912 0.061506428 0.46705982 0.3472367 0.28838456 0.2027331 0.37976393 0.39531878 0.69868976 0.3518502 0.2624705 0.8070077 0.5645557 0.6681948 0.13418837 0.4929884 0.081680626 0.22795874 0.21254528 0.7232595 0.8007393 1.0604104 1.0450114 0.8529537 0.7186838 0.9064915 0.24959305 0.91528773 0.20115465 0.8931468 0.8807275 0.66910243 1.0326197 0.17795596 0.65684557 0.24638914 0.5835111 0.950285 0.10380599 0.19476068 0.617996 0.31915963 0.5893029 0.9045526 0.8207985 0.46262786 0.27686432 0.8358233 0.12644991 0.08641527 0.4232719 0.92032415
l91 0.8967519 0.11999703 0.75420064 0.65315336 0.730032 0.48145658 0.7596253 0.4810506 -0.0033144683 0.8582737 0.7593673 0.8756512 0.9330275 0.27403003 0.38242543 0.79914963 0.68060505 0.14511207 0.7378463 1.0075213 0.6346059 0.52092177 0.21572089 0.96265715 0.2533693 0.801693 0.43728527 0.9941685 0.4335598 0.59482414 0.12044725 0.66113555 0.0912944 0.37844574 0.79329437 0.62322056 0.4288082 0.1344738 0.7223972 0.18328373 0.13230905 0.5900628 0.49794838 0.17637713 0.82712317 0.79667914 0.13116787 0.37636977 0.75694454 1.0097152 0.7230002 0.6623956 0.13858625 0.80378747 0.76053286 0.68050903 0.6615874 0.23804572 0.90015477 0.178794 0.8675362 0.18865672 0.76696527 0.89897853
l92 0.50029236 0.1404286 0.8017993 0.08006684 0.7696137 0.29024094 0.43565157 0.9781785 0.28651446 0.5126195 0.45929852 0.1356534 0.47202674 0.801036 0.1467023 0.9662762 0.08998925 0.42227462 0.5948088 0.55517024 0.96599704 0.30233237 0.54894984 0.27628195 0.45243266 0.3805117 0.94605196 0.84693813 0.5973433 0.5944629 0.050951537 0.06460039 0.37551028 0.96481395 0.9360168 0.79776996 0.25085607 0.75158787 0.17770718 0.46320006 0.31134877 0.43877622 0.7868075 0.07734097 0.25107065 0.95326066 0.67124265 0.34990066 0.9195835 0.5970302 0.85485005 1.0548766 0.7903114 0.9182372 0.40966684 0.49803144 0.8793483 0.80494106 0.17973419 0.4830659 0.10730393 0.49052542 0.5600816 0.67271537
l93 0.75953996 0.5438161 0.11288815 0.56690085 0.088500835 0.5845739 0.7624191 0.118190974 0.8581971 0.45051932 0.5613181 0.75600034 0.5012483 0.84344995 0.54962325 0.12920538 0.19448802 0.27119145 0.7140628 0.6566047 0.2266235 0.5555133 0.273471 0.5668629 0.196858 0.0060416358 0.71192104 0.7454245 0.38263324 0.737442 0.88577586 0.31521243 0.1427862 1.0731649 0.78026116 0.87667423 0.47418967 0.79213023 0.082317084 0.8331601 0.43264818 0.7353903 0.43385595 0.4399927 0.41365567 0.7754657 0.16335642 0.88600487 0.677539 0.5092217 0.5598769 0.1484737 0.2455516 0.578603 0.27402657 0.87754136 0.08149244 0.88585556 0.46635103 0.27935717 0.5011366 0.30362397 0.6212818 0.22423057
l94 0.52830493 0.35966843 -0.055239156 0.114584066 1.0246565 0.2159829 0.50479573 0.7274562 1.0274277 0.42377982 0.63014936 0.78183144 0.41283005 0.21390516 0.5982145 0.12669659 0.28728303 0.029494332 0.2630074 0.13454315 0.25750515 0.71420014 0.4309513 0.48157492 0.6799913 0.84381366 0.72971517 0.2792038 0.85023654 0.57725406 0.8216792 0.6773538 0.25104213 0.57837445 0.2890658 1.0338128 0.3786496 0.18390407 0.1092957 0.16517752 0.09461801 0.5478168 1.073771 0.45292687 0.88629156 0.48959294 0.10429564 0.6864593 0.39943188 0.3654013 0.4855673 0.35858014 0.77277184 0.25000724 0.5873025 0.7271233 0.49688175 0.48067543 0.14874215 0.040487114 0.3370561 0.6199231 0.39406002 0.37555942
l95 0.618831 0.9559717 0.8783285 0.8538016 0.5416463 0.556669 0.9920989 0.74481183 0.46333832 0.2836565 -0.013896255 0.5597913 0.84391433 0.092036635 0.6653784 0.36670882 0.26799038 0.26815662 0.1684702 0.20140278 0.9749206 0.8141436 0.570051 0.23487896 0.7205639 0.78568876 0.89911777 0.6140115 0.5431932 0.7122396 0.17715088 0.81150883 0.29213402 0.34380907 0.63196635 0.76639515 0.83367884 0.7631474 0.6245631 0.82447046 0.6218415 0.3145788 0.4489252 0.54556376 0.113583945 0.27056432 0.6694256 0.57747126 0.50421226 0.7414123 0.65606594 0.77337366 0.16871412 0.44275627 0.6566023 0.46506637 0.5057748 0.077084124 0.8456044 0.012486728 0.026904773 0.3976035 0.35538158 0.7474496
l96 0.14828733 0.9693672 0.1547519 0.29226863 0.29325745 0.6118854 1.023945 0.95996016 0.50186944 0.26396427 0.44813582 0.2815486 0.79244053 0.61309826 0.083977625 0.31350458 0.89933354 0.8412201 0.6436599 0.2290722 0.669232 0.29527113 -0.056321315 0.7188039 0.85598344 0.7542034 0.8944837 0.860158 0.26987505 0.042502083 0.36104736 0.9142123 0.67573553 0.9274651 0.82017714 0.21153371 0.512125 0.5349183 0.10354363 0.37852693 0.5367979 0.8941383 0.6079447 0.5977021 0.17450349 0.168897 0.0120521 1.0880555 0.6503624 0.86250055 0.9751517 0.5175429 0.6820761 0.39662614 0.66545105 0.63441813 0.0868959 0.16881785 0.21423072 0.44720426 0.36234003 0.39063436 0.18168364 0.36179328
l97 0.6270787 0.52283186 0.46069422 0.30501893 0.13493243 0.070558555 0.44718555 0.96612185 0.39413992 0.26422286 0.10143595 0.83254844 0.3781837 0.9152811 0.11133668 0.7494461 0.06114141 0.49551225 0.42395535 0.62017864 0.8466906 0.3450792 0.35087714 0.11971065 0.48841953 0.74309194 0.55588263 0.34144995 0.56575346 0.86806047 0.72180384 0.14163463 0.23099922 0.41146088 0.5315957 1.0129094 0.7980611 0.103223 0.33105633 0.36897534 0.6704127 0.071817264 0.6173223 0.7819629 0.37141186 1.0710919 0.48111406 0.1657462 0.7529936 0.9908246 0.9840975 0.36088347 0.82301986 0.74448127 0.3597709 0.2275904 0.2855329 0.49290687 0.357541 0.84793705 0.005401572 0.1773608 0.91410244 0.47006541
l98 0.5022364 0.6533853 0.58013684 0.8819658 0.090141274 0.16183873 1.0936481 0.41095838 0.6981131 0.040769935 0.49198285 0.3125781 0.20639351 0.58103144 0.7165282 -0.042955257 0.79204565 0.43161184 0.06882188 0.48714578 0.91521823 0.14064996 0.45705375 0.7721317 0.7579042 0.32720575 0.8750788 0.54146343 0.73129314 0.7748458 0.8678778 0.9438495 0.26549688 1.1273931 0.55245876 0.5072177 0.4352472 0.30335167 0.9110544 0.075338334 0.91799116 0.83660364 0.6240939 0.70676154 0.96182054 1.087505 0.07302518 0.2714877 0.6118217 0.36424035 0.72414356 0.56352365 0.52573836 0.32980332 0.1188175 0.31142396 0.6410465 0.5353519 0.634199 0.13746896 0.68334514 0.8116179 0.8089699 0.5657354
l99 0.5036264 0.45256317 0.22314207 0.44489408 0.5464913 0.9153737 0.69423 1.0444405 0.7390976 0.2825538 0.75563604 0.20283617 0.4629405 0.22376378 0.17287551 0.14951055 0.6539972 0.93303627 0.5229819 0.19214268 0.5304944 0.60342646 0.43935922 0.8993725 0.71679586 0.1085052 0.18552662 0.5295405 0.9597178 0.53671616 0.9355489 0.29670218 -0.011645038 0.64611644 1.0227685 0.4695023 0.588742 0.30901408 0.9470271 0.6310451 0.41601306 0.7392966 0.8616 0.39034745 0.55866927 0.9520584 0.27636763 0.33795187 0.18618415 0.6412475 0.8013745 0.26957566 0.026142761 0.30101523 0.35920104 0.18188702 0.6011994 0.82731897 0.46711892 0.8783029 0.75145084 0.89459336 0.5781795 0.4349074
l100 0.12496203 0.7368225 0.1315825 0.4043358 0.70358115 0.44118217 1.0630052 0.9001844 0.6749499 0.85719633 0.27621746 0.57518756 0.65410864 0.23432672 0.7862165 0.13339455 0.04018033 0.81428146 1.0043643 0.6361396 0.76286936 0.0424066 0.93176717 0.76281756 0.47211012 0.35430557 0.13084023 0.37493426 0.22862893 0.40781307 0.21458256 0.2847492 -0.021233635 0.21861742 0.45282257 0.83630615 0.20341814 0.6273077 1.0260226 0.0739883 0.6097622 0.9382749 0.17304322 0.87145466 0.8928678 0.11415653 0.24516547 0.41109383 0.12906286 0.7035669 0.7213299 0.56915617 0.6593334 0.18163548 0.71573246 0.08308521 0.93577075 0.44292653 0.64714813 0.010022268 0.073406555 0.8175763 -0.008840052 0.57246286
l101 0.3172917 0.6968402 0.82541883 0.54969436 1.0067091 0.5167052 0.24478212 0.7343752 0.51199853 0.8438284 0.9348699 0.49276188 0.59537685 0.14871275 0.14906311 0.69558585 0.05487171 0.27906942 0.0030537937 0.508258 0.75972533 0.025220841 0.8332756 0.42721027 0.81772125 0.051354997 0.37331426 0.26047525 0.23994668 0.9040779 0.6952381 0.6290715 0.6705431 0.69830525 0.32069167 0.96346796 0.15904208 0.47288573 0.8881242 0.310166 0.1815547 0.16837804 0.46204174 0.44890854 0.552428 0.8029015 0.89761883 0.92390645 0.8518973 0.9162662 0.9248016 0.64141697 0.58039993 0.44782528 0.63546026 0.79268545 0.48983818 0.3500129 -0.03224967 0.28457633 0.3500532 0.7648509 0.049870607 0.648127
l102 0.64787513 0.55710405 0.06923233 0.9685385 1.0237211 0.5282473 0.13728511 0.64952976 0.48913005 0.56977385 0.18942577 0.35145974 0.3929452 0.50617296 0.53679156 0.95592463 0.7937429 0.6476495 0.85519016 0.7460103 0.90186703 0.3296876 -0.029011104 0.27022353 0.2795317 0.14888187 0.75830126 0.87200606 0.32453516 0.15092456 0.68741107 0.48700655 0.102077276 0.34593952 0.54732066 0.38847256 0.405369 0.018091772 0.3740262 0.68534935 0.39963722 0.83368844 0.23688585 0.58272403 0.9606417 0.09886285 0.9189742 0.829076 1.0169994 0.5822362 0.9760567 0.9053134 0.42373028 0.8951221 0.7461179 0.11908404 -0.0651031 0.6591193 0.22068998 0.68311465 0.12509803 0.2982092 0.38196242 0.48753226
l103 0.86299205 0.6179335 0.14172544 0.79087126 0.17095214 0.9928603 0.9101507 1.0417179 0.18487696 0.4145283 0.6977086 0.67270726 0.73916405 0.87570274 0.65452343 0.0791145 0.5078283 0.76838404 0.8715438 0.41866165 0.8555515 0.8008968 0.4920704 0.38234234 0.43940273 0.48580456 -0.025031375 0.8461697 0.17557159 -0.003940555 0.73580533 0.73207015 0.80432004 0.27877513 0.72845745 0.37695345 0.48482165 0.6901914 0.7251574 0.5361477 0.85608786 0.83482844 0.316132 0.82907546 0.19214983 1.0556549 0.9123874 0.65963554 1.1070017 0.49133533 0.67159295 0.30239716 0.108484745 0.37650043 0.94603455 0.35972223 0.579746 0.84132856 0.26234955 -0.026223838 0.96354514 0.4023675 0.27569675 0.9894503
l104 0.2605823 0.36247757 0.12745039 0.25020334 0.5531994 0.86271816 0.39491427 0.84713876 0.41804713 0.73514163 0.20077896 0.6574004 0.9048209 0.854582 0.12045756 0.15286365 -0.025023699 0.44494447 0.94721246 0.19193518 0.35621372 0.4813455 0.93344426 0.3684523 0.62939674 0.6273469 0.57946646 0.54201543 0.33937812 0.00047057463 0.6984229 0.7649911 0.11248218 0.29320097 0.14085056 0.4088613 0.035064735 0.17535178 0.8509725 0.78019667 0.7945297 0.33600718 0.27287245 0.70004636 1.0058666 0.4754394 0.7221971 0.9471104 0.8694489 0.44849837 0.8444018 0.895051 0.37144327 0.7097309 0.74926734 0.6196235 0.8340176 0.4015998 0.7398423 0.33875757 0.11122041 0.5397806 0.18309307 0.46733546
l105 0.3644358 0.84401655 0.21539703 0.48680013 0.14850804 0.46368566 0.93024635 0.17109063 0.36436868 0.18933338 0.823953 0.692954 0.37398097 1.0011501 0.1459729 0.31505546 -0.110815644 0.6549623 1.0069323 0.80972385 0.514077 0.50642294 0.5782732 0.4741551 0.06782284 0.04319317 0.87288254 0.77036536 0.44858113 0.5580031 0.17682938 0.28731722 0.20541371 0.9075302 0.13342929 0.54724824 0.69838685 0.24731119 0.084755935 0.80562526 0.6682082 0.2679874 0.7651922 0.032521907 0.2228391 0.35224915 0.23336193 0.26135865 0.85849136 0.34176043 0.1920921 0.08788593 -0.009534547 0.062382888 0.48877996 0.3385718 0.23095022 0.8971423 0.23549081 0.24890348 0.902666 0.9627131 0.614447 0.5583015
l106 0.8250131 0.8060929 0.003097784 0.16091017 0.3583804 0.29091644 0.41858286 0.6206132 0.18290342 0.13258915 0.5326546 0.53240216 0.39858705 0.36431947 0.73802036 0.27665997 0.5764922 0.53615 0.84182036 0.06415419 0.70575196 0.294093 0.26859686 0.8706786 0.25695738 0.4491743 0.75396323 0.5029109 0.16986616 0.7437534 0.056112517 0.33174205 -0.052898005 0.2820263 0.4029057 0.59835196 0.46306598 0.06763263 0.43871704 0.3087939 0.8007911 0.0013433056 0.74963963 0.42952985 0.7273114 0.4612887 0.17368455 0.91518134 0.93591076 0.89886737 0.5189013 0.9052635 0.1724695 0.8463559 0.40936795 0.9017434 0.06922913 0.73077095 0.48700157 0.4538795 0.6104975 0.36420655 0.2864547 0.55478317
l107 0.5307971 0.62702805 0.39314812 0.87582177 0.8768258 0.13942185 0.91259605 0.15257512 0.32451567 0.85619134 0.53303075 0.0938823 0.08061584 0.120789096 0.33344775 0.22686902 0.07927433 0.3186793 0.72841656 0.47472504 0.9250932 0.4803606 -0.0070557687 0.6972019 0.5060923 0.65238214 0.09262169 0.40823445 0.72447926 -0.057899285 0.5058351 0.55149543 0.71949345 0.8776462 0.96890706 0.61903876 0.1545471 0.10996199 0.057807423 0.7236494 0.57362205 0.8425894 0.6597936 0.45989186 0.34381342 0.6501025 0.012546185 0.25722387 0.97642964 0.2140906 0.2707902 0.88088495 0.76386374 0.39681906 0.69174474 0.35420206 0.6421928 0.3513899 0.55633867 0.45235717 0.5209023 0.8916578 0.65769184 0.17464182
l108 0.7556253 0.39151984 0.7004898 0.59274787 0.67144334 0.43295428 1.056287 0.90443563 0.81921035 0.66048217 0.37727815 0.4367083 0.24803488 0.3798036 0.28241375 0.5157193 0.24753495 0.5188999 0.7823343 0.5325049 1.00019 0.2486847 0.4714009 0.79708076 0.22402297 0.5607582 0.84960216 0.8810291 0.8833071 0.5694357 0.24111477 0.6793374 0.5315637 0.40843356 0.9829691 0.90039223 0.2914106 0.21017966 0.13284205 0.45965758 0.4281121 0.019394355 0.56803465 0.8847947 0.71164227 0.5710951 0.51562667 0.76373327 0.5827262 0.47570166 0.729391 0.15864319 0.7257518 0.9625541 0.6389826 0.88068044 0.6795125 0.69176865 0.019161472 0.38607112 0.37622562 0.0887154 0.61623955 0.19584301
l109 0.9427288 0.7958826 0.23800196 0.13341917 0.12784031 0.83239007 0.9858827 0.81700826 0.45127445 0.3459677 0.659312 0.5678742 0.8927341 1.0143884 0.33538702 0.65133595 0.5255235 0.5511838 0.1544173 0.4130739 0.7264671 0.3647224 -0.014202521 0.82811546 0.8374566 0.4317403 0.5476862 0.86123973 0.43915495 0.4533065 0.641297 0.6398194 0.63846064 0.5498894 0.6208778 0.4681443 0.032304488 0.26822445 0.60990256 0.7650928 0.88371474 0.24903002 0.12702979 0.8094636 0.7658287 0.7019232 0.16993581 0.27997494 0.4370181 0.21801722 0.94898325 1.0196228 0.72890884 0.7501212 0.25987336 0.78518623 0.22375394 -0.013805321 0.18656182 0.12470317 0.22450982 0.17525168 0.71028364 0.22452314
l110 0.108336575 0.0708646 0.42076072 0.2733961 0.52050316 0.1608648 0.57162446 0.600964 0.54653686 0.41148463 0.6609752 0.2926866 1.0162681 0.25425524 0.52254945 0.32304266 0.6901801 0.34337068 0.3062151 0.6984793 0.31897184 0.68898135 0.63236487 0.6472239 0.31425735 0.27893537 0.6280952 0.66380703 0.97598094 0.15666844 0.6086234 0.88866246 0.70421267 0.47238004 0.98314875 0.37491104 0.23508468 0.34133255 0.12867036 0.50366074 0.6689632 0.74175364 0.4966878 0.4799768 0.08820511 0.9964429 0.25179553 0.5197953 1.0539471 0.68372655 0.9547394 0.59796536 0.010079647 0.8536207 0.25706175 0.44709527 0.13401476 -0.013953511 0.046842515 0.27890795 0.63525903 0.20412005 0.5630246 0.30750683
l111 0.67236966 0.7442425 0.45633233 0.71293074 0.61915004 0.48747006 1.0123026 0.80737036 0.45673594 0.54321873 0.62337935 0.2422319 0.5939478 0.84987706 0.020678135 0.27510974 0.5642528 0.23211832 0.7610627 0.7305398 0.4812605 0.6833111 0.8333148 0.053553715 0.39307648 0.30937782 0.11656367 0.254759 0.63874334 0.24440622 0.47590855 0.70788765 0.32114226 0.96170735 0.675761 0.1917552 0.94174325 0.47322804 0.40222332 0.379561 0.0085801715 0.43344548 0.08519893 0.25337887 0.6963628 0.815307 0.845562 0.43568566 0.7145792 0.901167 0.5386204 0.9779548 0.7551989 0.700192 0.638293 0.22110848 0.15877576 0.5586227 0.41569915 0.61814487 0.42644182 0.14880185 0.21608482 0.110106654
l112 0.58996266 0.7859064 0.5029094 0.21388097 0.97034585 0.12930699 0.54481834 0.47692734 0.8754982 0.070556976 0.4413341 0.43117175 0.8461035 0.93482465 0.8471511 0.17852816 0.16504864 0.24783933 0.72695935 0.71572137 0.9212806 -0.02672668 0.83711046 0.22195956 0.47177345 -0.00028213856 0.015882222 0.8044141 0.75264454 0.65577346 0.26954424 0.85381246 0.49129456 0.77489644 0.38623974 0.9946904 0.8873328 0.12924503 0.91713446 0.5012882 0.67961484 0.13212244 0.9623962 0.40363377 0.680542 0.44286767 0.68403435 0.6657167 0.8673206 0.24523076 1.0228972 0.12200009 0.9081288 0.85639733 0.28904936 0.75528806 0.29840827 0.7742224 0.820254 0.89564836 0.20605798 0.817546 0.79289293 0.8980971
l113 0.39592427 0.090927765 0.10756516 0.3793967 0.5535036 0.8390906 0.6314815 0.47086653 0.3638797 0.31866455 0.18635236 0.57970905 0.23476708 0.31421515 0.26412857 0.69224644 0.77369535 0.026299438 0.3809662 0.39828944 0.48643354 0.8721915 -0.040618725 0.3023054 0.6383429 0.7022492 0.72325414 0.9777519 0.52038103 0.3254601 0.05037898 0.35487273 0.2117807 0.6651341 0.28841493 0.5877842 0.8060164 0.6852459 0.48678234 0.70850956 0.6756459 0.31355265 0.98404765 0.07665177 0.73704576 0.5473352 0.79068506 0.49561235 0.73404515 0.45319423 0.8855305 0.0747922 0.5953643 0.79989076 0.87258357 0.6656933 0.35522327 0.113122135 0.8768787 0.2605765 0.73087716 0.4254868 0.7345468 0.15470225
l114 0.13070595 0.1505078 0.91041845 0.7107761 0.2033213 0.41400662 0.6581924 0.36907426 0.99650913 -0.03386758 -0.04874282 0.8757752 0.28885835 0.9231777 0.23913121 0.53032434 0.6232847 0.5633254 0.027527362 0.6849085 0.53432035 0.077818915 0.43012014 0.09093547 0.30831578 0.27003604 0.20959821 0.9532608 0.34523258 0.36933023 0.9468851 0.9085871 0.57382196 0.43059477 0.5369067 0.5975345 0.16129449 0.09420378 0.2402688 0.705682 0.5635761 0.80678415 0.8765553 0.80949783 0.42086273 0.7909939 0.37215778 0.28538162 0.9596137 0.47424492 0.5997053 0.9853493 0.53224105 0.24155812 0.022425601 0.67400753 0.49573326 0.15460336 0.72598624 0.7099644 0.6918571 0.6378037 0.43754184 0.8140511
l115 0.2361483 -0.011038218 0.24330483 0.59700215 0.39674562 0.26852092 0.89103377 0.6982778 0.8057829 0.09708517 0.5186735 0.518285 0.54019105 0.92473125 0.39555624 0.7680466 0.4320831 0.05392733 0.3248759 0.13132685 0.22659972 -0.07580508 0.53472203 0.8418378 0.21334831 0.55985874 0.57455486 0.94506556 0.6241264 0.35655043 0.17404716 0.9584291 0.73532283 0.48938894 0.20761439 1.0148782 0.8762389 0.6482971 0.41256747 0.9121125 0.31033474 0.8398696 0.921792 0.27342916 0.27122122 0.9944716 0.51830226 0.91208285 0.23017593 0.94580585 0.6922984 0.4321617 0.3241474 1.0598558 0.38314816 0.8653738 0.677827 0.61013997 0.58741575 0.75598776 0.38459823 0.024493843 0.12051146 0.8469937
l116 0.66712177 0.43071038 0.8516243 0.3209376 0.57269984 0.71047944 0.2597873 0.38163766 0.09350205 0.4009273 0.11518506 0.22937919 0.61532503 -0.007468177 0.25705674 0.77908087 -0.0054549393 0.059472047 0.80801886 0.15172368 0.7358685 0.3051316 0.38575792 0.45398065 0.7501724 0.4264823 0.058189772 0.7133128 0.32167673 0.7811938 0.6150392 0.77138704 0.33278158 0.41977993 0.6629547 0.5821564 0.54975355 0.00056390883 0.26630664 0.2873234 0.57110626 0.2762786 0.7449898 0.29665735 0.60360765 0.7334329 0.81069034 0.4036839 0.26574528 0.62246364 0.9451567 0.7180746 0.77827865 0.53171986 0.22916515 0.8693972 0.5016642 0.52841926 0.86349 0.17003596 0.2519958 0.28078482 0.52934533 0.76096904
l117 0.5460807 0.049591195 0.47672293 0.17077588 0.45541662 0.88613576 0.50369906 0.66163313 0.8411384 0.1499766 -0.022788633 0.8278797 0.40015882 0.11475886 0.03182268 0.35372168 0.2808284 0.7657095 0.44215757 0.45510253 0.8612184 0.13393666 0.03054353 0.36289522 0.43249965 0.83333135 0.22156592 0.58773744 0.780463 0.7777968 0.37083167 0.031429198 0.71565574 0.75224054 0.1158567 0.24149367 0.22888634 0.8757173 0.97811633 0.2764457 0.27605975 0.26794508 0.728929 0.01001484 0.21007665 0.12932554 0.25552905 0.67640775 0.1604586 0.2220371 0.4921752 0.3637191 0.4289359 1.0019189 0.36213905 0.9725701 0.46687442 0.16647409 0.07809744 0.71431154 0.18235241 0.5805333 0.6209715 1.0008446
l118 0.39449286 0.7489671 0.19792676 0.5363131 1.0038126 0.70743614 0.44598338 0.94503886 0.42646614 0.16345853 0.5531529 0.21946277 0.99212855 -0.04394478 0.15124479 0.99545664 0.6396493 0.10482827 0.49374676 0.63368464 0.3764888 0.74472356 0.18832383 0.7686969 0.5543035 0.37174377 0.6190052 0.278739 0.72975844 0.85934055 0.6665447 0.76490784 0.73349416 0.31599885 1.1059066 0.17126538 0.7265483 0.34499297 0.57842904 0.7298492 0.4114627 0.86610174 0.30638257 0.11918193 0.18436688 1.036537 0.86124504 0.7655595 0.5139417 0.2540581 0.71323365 0.47543013 0.74592423 0.38149256 0.23497747 0.5702234 0.5702583 -0.008185645 0.10070052 0.85935026 0.10397342 0.7060144 0.7901978 0.6990161
l119 0.9370225 0.8451239 -0.045486417 0.82513213 0.35997555 0.0786194 0.48400745 0.97480255 0.64583373 0.043910716 0.76748097 0.2503797 0.8829583 0.19422768 0.73629564 0.59136945 0.6768132 0.6200204 0.834717 0.9652511 0.37596524 0.7602227 0.22443779 0.4739464 0.6824035 0.879074 0.8757105 0.6709176 0.50391513 0.8763911 0.054093063 0.27812737 0.57365006 0.5579028 0.39513126 0.6109013 0.8444412 -0.051468533 0.98643327 0.86426836 0.5891168 0.028939681 0.97583133 0.88178134 0.4879307 0.97407836 0.71579635 0.1837052 0.4001606 0.31269705 0.3988582 0.5764438 0.29326183 0.85711247 0.95775414 0.69552594 0.06851164 -0.06420181 0.6890043 -0.090036415 0.21620066 0.46088672 0.8390706 0.7436771
l120 0.16160388 0.46685 0.18768723 0.43838203 0.2703695 0.35808882 0.53924084 0.47629777 0.664414 0.030112281 0.49594232 0.6028715 0.1374323 0.605707 0.3355257 0.31431192 0.36555928 0.9125563 0.09074862 0.12545541 0.30430135 0.111815475 -0.0025610377 0.73610216 0.56797665 0.43046147 0.19484787 0.26198772 0.2215109 0.57527757 -0.037861884 0.5587227 0.52609974 1.010614 0.48000443 0.8053408 0.44862887 0.83764404 0.60660666 0.6106168 0.24492367 0.28943235 0.67533153 0.6078605 0.3370239 0.9521835 0.21593413 0.95111096 0.5284023 0.6539177 0.5810584 0.21732207 0.106336504 0.89001876 0.5951312 0.23909254 0.581519 0.8075151 0.43499526 -0.035891548 0.6421959 0.8963534 0.22192498 0.96267766
l121 0.5707014 0.36564812 0.6023242 0.292887 0.46018168 0.8932507 0.8297917 0.9910053 0.45218152 0.7799958 0.109272 0.33620512 0.74795634 0.43769142 0.14606993 0.49001828 0.07741128 0.98763925 0.15292338 0.45881322 0.38923046 0.44236526 0.23211297 0.74248207 0.23968874 0.6901649 0.7907218 0.996882 0.6853788 0.33729887 0.58069044 0.33604127 0.22424194 0.41074076 0.41921133 0.42984724 0.3920605 0.4184592 0.24665669 0.13385592 0.15265633 0.092202015 0.30777383 0.07650542 0.16809902 0.14038189 0.5345736 0.60008144 0.62644213 0.7662354 0.32766402 1.0205951 0.32130218 0.7207615 0.6701693 0.31172588 0.8231363 0.1642 0.6432299 -0.028301133 0.5091113 0.15779315 0.7876689 0.67844164
l122 0.7730973 0.7432755 0.064844504 0.13754435 0.34515566 0.5695778 0.9214401 0.36065146 -0.007663568 0.47376585 0.03732697 0.29418263 0.8965124 0.91491437 0.5046055 0.6510595 0.57721806 -0.07469059 0.3490342 0.6131181 0.70156014 0.23362184 0.8313322 0.7950047 1.0030493 0.5503769 0.78690857 0.4091532 0.821175 0.097018555 0.5754157 0.59175277 0.17988285 0.2971746 0.045872685 0.67088246 0.7923176 0.36276814 0.6844985 0.70218176 0.9382282 0.23765673 0.27891645 0.144883 0.17159882 0.42887467 0.34998992 0.9274715 0.40941924 0.88884765 0.7583579 0.75523597 0.67601055 0.16163412 0.65349424 0.60786504 0.1900669 -0.061105244 0.09592011 0.02589219 0.7301373 0.72832453 0.36314532 0.26836777
l123 0.616043 0.15885568 0.82983196 0.16854988 1.0277818 0.28545743 0.37453806 0.50090444 0.18574078 0.47222808 -0.03626916 0.6230913 0.35192528 0.55589044 0.39570332 0.48810056 0.57229924 0.53414017 0.41280562 0.75292593 0.59155595 0.035071533 0.15622689 0.71814674 0.90056616 0.38519174 0.5926028 0.8738846 0.18254937 0.8881847 0.48223838 0.046455782 0.4753394 0.14575787 0.75023955 0.12650749 0.42932662 0.31424 0.3861975 0.5124676 0.66058 0.1317192 0.6125831 0.6119532 0.3263885 0.5771835 0.5355319 0.88334125 0.8710748 0.4425437 0.99594384 0.6089935 0.4397433 0.84900784 0.41092667 0.34020516 0.28426293 0.56230116 0.9106517 0.14864866 0.39872062 -0.016459614 0.5347187 0.11345746
l124 1.0188922 0.9498212 0.556455 0.97659105 0.8986476 0.4113717 0.20025216 0.56374437 0.89915067 0.31185535 0.40638712 0.042891733 0.8044789 0.7340265 -0.003155797 0.8938355 0.32416978 0.2840533 0.47632197 0.608837 0.30278504 0.45299995 0.5081733 0.8967187 0.18673925 0.25071344 0.23390824 0.8379765 0.2386479 0.80542165 0.44334036 0.538785 0.58967423 0.4306489 1.0363356 0.38158312 1.0120302 0.72142535 0.6130525 0.44905576 0.20811823 0.9161222 0.89434165 0.8806303 0.4465667 0.21283735 0.9499731 0.54104555 0.9672273 0.22260937 0.14679456 0.90114415 0.5562083 0.21029225 0.5917869 0.49203327 0.5735745 0.23733118 0.17490295 0.4426897 0.21118282 0.5271548 0.37990317 0.50828403
l125 0.7453144 0.25978 0.681224 0.18731599 0.5254738 0.59733325 0.76791763 0.44714376 0.37209132 0.4770955 0.46908626 0.4747909 0.17436011 0.56049913 0.6475664 0.79743534 0.5749766 0.008241059 0.8694814 0.6831799 0.026946137 0.5000151 0.7562743 0.9130952 0.06258365 0.43656892 0.35925284 0.41091555 0.4089509 0.490328 0.9569738 0.23023817 0.37609062 1.0600847 0.28135562 0.7068012 0.9019598 -0.032655694 0.50053513 0.85235286 0.1280917 0.749399 0.6219585 0.1025483 0.8066463 0.07054656 0.4423485 1.0322466 0.3311119 0.9022265 1.0312378 0.4003134 0.51414216 0.17549984 0.28373575 0.49047887 0.7925662 -0.007457967 0.18050522 0.03222788 0.6313839 0.698946 0.14225958 0.73424643
l126 0.40107322 0.25062442 0.21224189 0.9077216 0.19608855 0.44620132 0.16360457 0.9571612 0.71445143 0.65826774 0.17678022 0.29605317 0.22261006 0.6305635 -0.041701455 0.08686451 -0.0713552 0.6485455 0.55511934 0.6885283 0.81266487 0.587954 0.9116296 0.58235645 0.06455208 0.36053804 0.5056127 0.29016373 0.3346779 0.33846116 0.8295141 0.092452765 0.10934501 0.7950214 0.15769851 1.0549133 0.23762079 0.81888014 0.41125363 0.8587077 0.11006631 0.19275787 0.665036 0.7634277 0.6036592 1.0566454 0.5991205 0.18503925 0.33760855 0.72316164 0.1740242 0.83617723 0.24570793 0.7359507 0.44719458 0.9215207 0.6477694 0.5949053 0.8094171 0.25411516 0.10608671 0.8749173 0.6846555 0.17033799
l127 0.9258301 0.39845556 0.828916 0.26018077 0.1644364 0.9054864 0.26426122 0.10533462 0.84639895 0.76545954 0.12655148 0.8974842 0.956563 0.30113354 0.28306314 0.7563817 0.20794903 0.90307033 0.20585081 0.6666363 0.5769353 0.4239774 0.36980042 0.91985637 0.64233184 0.855798 0.79028374 0.99745715 0.09233243 0.26619703 0.9305029 0.69455975 -0.026949797 0.9599392 0.8725975 0.6169734 0.414347 0.5872978 0.90936023 0.41281056 0.19630118 0.93428755 0.5765655 0.26094022 0.68667376 0.50894225 0.6763089 0.6042485 0.32324767 0.93128645 0.6558759 0.22702898 0.97164387 0.35397005 0.67459834 0.95401186 0.47316164 0.30967286 0.3835715 -0.073595695 0.041063417 0.7473742 0.8237268 0.37933975
l128 0.09548665 0.125003 0.92995375 0.5897092 0.2987169 0.66265863 0.9833164 0.86501664 0.54179764 0.61942315 0.23708482 0.64072806 1.0085816 0.06746339 0.64617354 0.40037346 0.17032197 0.7375176 0.17399114 0.50573903 0.86027527 0.4398277 0.24888311 0.25907138 0.12135872 0.5914323 0.69397026 0.92221767 0.47925192 0.31946123 0.14641604 0.44845572 0.93452865 0.4739526 0.4229166 0.9479538 0.63891006 0.010911138 0.2815219 0.8597642 0.59481406 0.5975133 0.48019737 0.20996356 0.43970507 0.42985293 0.6642243 0.24501061 0.82010627 0.89785 1.0183109 0.2469769 0.7897511 0.35236517 0.9640422 0.43139365 0.3652919 0.10230935 1.0110793 0.785431 0.85734594 0.7222075 0.4981748 0.6329545
l129 0.8216273 0.22240488 0.5303133 0.29871902 0.86491746 0.2904197 0.5915635 1.046863 0.2263606 0.9138583 0.70042115 0.85459024 0.12066735 0.5108194 0.06349931 0.8345808 0.6054008 0.76865953 0.28534523 0.29802388 0.22646004 0.32739183 0.683157 0.9179724 -0.02992801 0.19400917 -0.06280085 0.796173 0.80090743 0.6905113 0.5213873 0.5016558 0.57014406 0.19039032 0.27316573 1.0279106 0.670418 0.22043921 0.5060827 0.35793298 0.5319414 0.067403205 1.0136192 0.4587851 0.5943265 0.45742497 0.88636583 0.57295394 0.55643654 0.79030645 0.8586947 0.395681 0.093670875 0.31068552 0.8416981 0.88288826 0.3586077 0.48173815 0.048754446 0.16868508 0.32936957 0.4006787 0.32089603 0.23627715
l130 0.38690773 0.77926606 0.6306721 0.6979288 0.7237486 0.35688198 0.42826462 0.7964568 0.61060184 0.5971696 0.69753325 0.6683539 0.69305605 -0.013103355 0.5608921 0.3348835 0.5276383 0.9063499 0.4542897 0.58296406 0.91636753 0.20947519 0.19690433 0.5704873 0.817757 0.4834173 -0.018104805 0.3023638 0.3532387 0.27549282 0.93176144 0.2579751 0.30384633 0.3540845 0.6963684 0.08455327 1.0110614 0.43804604 0.70385045 0.5603589 0.8392378 0.091117315 0.18713064 -0.03461932 0.13625586 0.9492222 0.36565995 0.14091484 0.6115633 0.19215883 0.172993 0.9123847 0.2698559 0.246505 0.975742 0.43166524 0.31106386 0.5191245 0.7692821 0.3273312 0.17700125 0.89651203 0.122055694 0.43816617
l131 0.8010948 0.0229348 0.7189772 0.20629156 0.5130698 0.49529088 0.85375303 0.7303299 0.60020936 0.7014468 0.98978204 0.06149372 0.27796856 0.21530308 0.5923925 0.1699408 0.3533716 0.10922718 0.2224869 0.6708335 0.90948135 0.06206256 0.23485613 0.5471927 -0.04802583 0.1924039 0.24754772 0.34401706 0.7887398 -0.004973977 0.11329199 0.49375919 0.87259907 0.6836695 0.9703848 0.6414819 0.17834046 0.5810362 0.6171253 0.5063653 0.15233827 0.6503628 0.4895294 0.36018744 0.44024155 1.0321739 0.67996967 0.17096683 0.34984156 1.0470799 0.33845535 0.93123084 0.48953274 0.53930104 0.3590956 0.7573324 0.29145846 0.34824815 0.65074867 0.096221484 0.14117911 0.36537626 0.7309017 0.57539463
l132 0.8437296 0.86901534 0.15281652 0.6141469 0.098685 0.6517619 0.53501356 0.8140011 0.092074454 0.027199343 0.668807 0.7719388 0.5821276 0.16007479 0.66141987 0.06449525 0.06745637 0.2562555 0.33571967 0.7975852 0.68185884 0.28378376 0.73294973 0.2788664 0.9440174 0.6188435 0.8527533 0.5060253 0.6038948 0.8568785 0.36446863 0.6201742 0.10525751 0.73148566 0.7968257 1.0026923 0.8449553 0.72457016 0.6949869 0.70972127 0.07333192 -0.05205113 0.11776795 0.4748448 0.80797684 0.8423132 -0.0052793906 1.0921018 0.98406 0.204598 0.5491696 0.85731673 -0.01908068 0.2801578 0.104651585 0.46891776 0.45748925 0.43261126 0.6240443 0.2758218 0.2708769 0.55188704 0.6880394 0.4264263
l133 0.33528304 0.22611606 -0.028340042 0.31337756 0.95826787 0.10270001 0.32818124 0.87626225 0.15222235 -0.058821905 0.52891827 0.5084946 0.25230134 0.6727505 0.29583988 0.29014614 0.50556445 0.18483727 0.86782765 0.4700251 0.44033113 0.66873175 0.6148103 0.60834223 0.13228095 0.5751185 0.10532886 0.782354 0.67845106 0.72776353 0.35345572 0.5760434 0.20561948 0.12794776 0.45177802 0.81317455 0.73865515 0.7353185 0.65536606 0.6793085 0.094709896 0.6955234 1.0601468 0.6786663 0.23768994 0.7073217 0.5395977 1.1092949 1.0065593 0.65952754 0.20851773 0.86451286 0.0022818474 0.80751395 0.51526827 0.9272413 0.07525169 0.62678736 0.21052417 0.50795674 0.61482877 0.81739074 0.9219057 0.23040234
l134 0.45724836 0.21603799 0.42545876 0.8024483 0.8394334 1.0438687 0.23225354 0.96096945 0.5862704 0.08888569 0.9053969 0.36333483 0.4821817 0.08052372 0.45458916 0.7679894 0.78896505 0.73456997 0.6021261 0.7664966 0.45943612 0.7543719 0.30153868 0.90802044 0.46009344 0.26057422 0.08392996 0.9831255 0.33432052 0.5430407 0.7727162 0.36377183 0.51619166 0.30037215 0.20999786 1.0082018 0.48689687 0.43565094 0.63223624 1.0489529 0.63443494 0.26312992 0.6206958 0.12583403 0.8310319 0.35287568 0.4704463 0.7727575 0.59875697 0.82349646 0.6088399 0.1370987 0.41077137 0.5419406 0.381787 0.9481764 0.7333972 0.20439044 0.7691553 0.52362895 0.45795244 0.7908908 0.5725245 0.91759074
l135 0.12699202 0.29568744 -0.02553055 0.2943175 0.772792 0.6643494 0.90000045 0.13659641 0.9739179 0.34717494 0.63776445 0.945753 0.11525457 0.10204633 0.17230743 0.8646915 -0.0071373032 0.28474337 0.61856675 0.50624365 0.77666354 0.6676277 0.29628494 0.576512 0.6974729 0.57061034 0.3536978 0.31899276 0.24850014 0.62251306 0.12312255 0.70472354 0.22212939 0.8215847 0.9699089 0.9541688 0.8576119 0.85842204 0.64556885 0.5565988 0.627048 0.78094524 0.72812504 0.27660593 0.5055338 0.30675393 0.22962892 0.45785683 0.65657663 0.16269435 0.25437543 0.44613758 0.046938896 0.94206613 0.14318752 0.4468335 0.14059256 0.24107894 0.7040415 0.5740304 0.86441094 0.3116739 0.19659208 0.7696052
l136 0.504719 0.7651124 0.59451324 0.7359669 0.07933905 0.11153267 0.98636466 0.43683982 0.17091256 0.7263676 0.19153517 0.49967894 0.23261781 0.0079588415 0.78183705 -0.07016291 0.5435668 0.6219268 0.63100904 0.5934574 0.7362494 0.32627645 0.054069057 0.5617748 0.59163284 0.029837847 0.82931006 0.17427704 0.16197279 0.70615184 0.8350202 0.9059057 0.30961698 1.0300225 0.17745979 0.7793551 0.16897203 0.7011132 0.08830175 0.24220106 0.34920958 0.8595174 0.7472427 0.25007206 0.64674 1.0837982 0.47363678 1.0673888 0.25798804 0.39902723 0.8431129 0.14361757 0.6055003 0.5120527 0.4510032 0.5225125 0.9428871 0.58779377 0.32447517 0.60753804 0.5259452 0.08854674 0.4320513 1.0644352
l137 0.38417137 0.49864414 0.024843153 1.0274407 0.93149424 0.8923622 0.9018433 0.66065955 0.8523546 0.63014126 0.22125655 0.73242253 0.1408622 0.60277694 0.01566478 0.7063467 0.22936438 0.9637711 0.73000747 0.28502342 0.25829518 0.8045054 0.1230251 0.10962394 0.77424836 0.64825255 0.42084408 0.6392797 0.17684308 0.052432083 0.86936295 0.16190715 0.70470667 0.19339207 0.2808123 0.45091453 0.16730548 0.10738 0.46915135 0.25536257 0.112130255 0.29728037 0.8052231 0.7225931 0.35051414 0.7652535 0.92385864 0.68486124 0.9045665 0.3968593 0.64954495 1.0506183 0.34299695 0.089816615 0.6305625 0.8921229 0.52533054 0.04545212 0.7753351 0.52368313 0.4291323 0.17454551 0.7331934 0.89247435
l138 0.091149926 0.56399924 0.62518275 0.97912407 0.7560509 0.061718673 0.2718659 0.21698947 0.11115481 -0.00895144 0.4137446 0.66212046 0.2889112 0.8692173 0.7168068 0.102367476 0.6930683 0.59244746 0.35151422 0.14825541 0.6241887 0.47085848 0.7711904 0.94230014 0.23036002 0.39114076 0.10973835 0.3504431 0.9333353 0.819109 0.2985642 0.08775819 0.9054999 0.9349566 0.7842231 0.30447686 0.32483098 0.7759567 0.45213678 0.09004503 0.12783122 0.7778418 0.495124 0.32140952 0.17073648 0.8442019 1.0628824 1.089094 0.8148977 0.24572428 0.9911862 0.3962039 0.70807123 0.79374725 0.7376767 0.11359565 0.6009748 0.5227528 0.22197454 0.17969142 0.7275413 0.6498431 0.4534459 0.5719051
l139 0.1085342 -0.052003007 0.30929652 0.26887324 0.9379329 0.29844898 0.6039927 0.89566106 0.23232378 0.18048848 0.23284106 0.6056581 0.5047589 0.014286379 0.3801025 0.8140608 0.27549893 0.55086166 0.074095406 0.6607524 0.11247017 0.28230676 0.37434113 0.8908184 0.4844093 0.96293396 0.08615163 0.7037386 0.00021341369 0.06907491 0.0932977 0.10740354 0.85813844 0.20992963 0.28481779 0.30268344 0.56308776 0.8260366 0.56834215 0.53141403 0.49235275 0.4971437 1.0330216 -0.0057694265 0.28855133 0.79085207 0.6620357 0.541272 0.30293643 0.6909525 0.15879272 0.6305758 0.8682911 0.4963326 0.106634416 0.5418965 0.6151884 0.2829452 0.54968435 0.25799745 1.0066402 0.9278396 0.07987413 0.8726464
l140 0.38993573 0.38149738 -0.03994387 0.22312583 0.12240924 0.89698243 0.8373609 0.6886177 0.59834504 0.061644398 0.77087957 0.75200176 0.8869661 0.31317514 0.6207807 0.7645061 0.47658065 0.0079202475 0.42347908 0.16295356 0.5018672 0.91402537 0.30092776 0.42879397 0.0787084 0.6101767 0.6349293 0.6157427 0.17796057 0.85986096 0.2783362 0.5635541 0.7603497 0.9483944 0.43221912 0.75590205 0.8564416 0.8893588 0.0772481 0.67643106 0.23196414 0.6809318 0.49342504 -0.022402585 0.7928124 0.6320005 0.458795 1.042973 0.52039087 0.40129995 0.28004628 0.14439224 0.33106634 0.2048767 1.0173225 0.79790604 0.14187405 0.5897439 -0.023487844 -0.04222222 0.6993915 0.62779593 -0.07061453 0.85556966
l141 0.37181884 0.26905644 0.31476122 1.058413 0.47764987 0.88627416 0.6874666 0.851497 0.41881147 0.33611578 0.8423939 0.57683134 0.96315634 0.09704489 0.65276545 0.0007156777 0.2900431 0.5453606 0.12214567 0.32190102 0.7870806 0.2522778 -0.06494054 0.66874814 0.25065547 0.3574541 0.7048135 1.0509304 0.7088766 0.7248981 0.7311034 0.7081885 -0.04662237 0.6730815 0.26651627 0.5730812 0.8124889 0.6632913 0.2891442 0.68180645 0.98215294 0.7368212 0.378576 0.3895408 0.486662 0.6753006 0.8295602 0.26823792 0.19499667 0.29376248 0.18384816 0.76221544 0.53414667 0.8471453 0.4066367 0.8607201 0.57939243 0.4535591 0.4685393 0.61369747 0.2579928 0.60800683 0.666301 0.5258549
l142 0.16483748 0.61758494 0.8136113 0.46500537 0.15354945 0.68194944 0.33097687 0.4996971 0.72351617 -0.055646084 0.08021441 0.22469264 0.39709088 0.3496754 0.6800535 0.5276805 0.34448627 0.39802334 0.46989825 0.95805067 0.24116026 0.31258866 0.27591896 0.22238691 0.5082931 0.71739763 0.61002034 0.91865724 0.89241755 0.35431358 0.90402 0.663442 0.238771 0.9309631 0.7359127 0.6542311 0.357265 0.55174243 0.18322963 0.8341221 0.14965463 0.1582784 0.4564975 0.0073367753 0.44736907 0.9919239 0.8774159 0.39203054 0.84283847 0.97511846 0.92556167 0.83351207 0.13349882 0.17665981 0.14694947 0.27374753 0.15803242 0.8508197 0.9836215 0.31843355 0.14550988 0.7725702 0.13858424 0.11164893
l143 0.9126428 0.40770566 0.04493087 0.9521823 0.40419227 0.86969787 0.6970244 0.71687084 0.33435926 0.19804037 0.81390387 0.33035228 0.6881805 0.8735739 0.3797461 0.06115917 0.8250674 0.47594965 0.41494426 0.6631651 1.0942903 0.24111319 0.80970454 1.0721285 0.6040266 0.76225036 0.16113727 0.34734234 0.6941953 0.7791577 0.14966178 0.88148767 0.590259 0.6631086 0.52191913 0.24535155 0.33699086 -0.061142895 0.8540496 1.0458755 0.7598545 0.028566448 0.6030871 0.59336466 0.30606067 0.4760774 0.90177095 0.5678231 0.19445285 0.15081994 0.19737163 0.42774394 0.79165184 0.5823791 0.75062126 0.1778944 0.54985684 0.62467647 0.517643 0.11952917 0.88628346 0.049007762 0.4123834 0.2693025
l144 0.58694935 0.07758602 -0.0451061 0.56897736 0.4263905 0.12099167 0.42594057 0.32367116 0.52502966 0.5037105 0.5855715 0.6571161 0.31261072 0.03359163 0.28697488 0.44288513 0.6569203 0.73724616 -0.0137344515 0.20124416 0.6146565 0.14786927 0.5671728 0.95046926 0.10995556 0.21431032 0.42549777 0.57323706 0.3420081 0.54733676 0.64660174 0.19920275 0.8204604 0.32953805 0.3112437 0.7286896 0.7626917 0.16493894 0.9081799 0.5800359 0.9168382 0.52054363 0.19149011 0.041349307 0.2707155 0.57716167 0.34390673 0.90130216 0.37619627 0.18825501 0.25128472 0.7166658 0.7708727 0.56290686 0.7428092 0.7403494 0.45784962 0.32038057 0.028002344 0.51080877 0.77829736 0.8658126 0.3855034 0.9373048
l145 0.7603132 0.10391553 0.17512198 0.6037102 1.0475441 0.7612714 0.7805344 0.25342065 0.38371152 0.2962247 0.22782345 0.17148407 0.6375435 -0.037316192 0.8090799 0.6925542 0.53497046 0.9318176 0.15726934 0.20371723 0.19683391 0.87727624 0.23463035 0.11525288 0.5832456 0.69224846 0.6425861 0.44791666 0.5403141 0.20194101 0.6313823 0.122171715 0.7732394 0.8198918 0.6898698 0.73805434 0.27680847 0.14101055 0.3512187 0.524132 0.91991967 0.7614064 1.0502459 0.34702572 0.77418566 0.28209 0.24988589 0.8046408 0.4795555 0.62123924 0.24198313 1.0554632 0.8959074 0.9148783 0.031099161 0.12939504 0.725329 -0.061206486 0.3968249 0.6952728 0.55959713 0.5019613 0.44467464 0.6064344
