1730	64
l0 0.45591858 0.4842175 0.41671225 0.7925051 0.53655154 0.8881656 0.06853812 0.75404406 0.05450925 0.56480896 0.10591488 0.08479207 0.068566106 0.60754836 0.74410623 0.34974763 0.4641043 0.5564843 0.042884544 0.8095358 0.20862907 0.35189083 0.43646926 0.8021793 0.37494504 0.59863955 0.18456556 0.5343066 0.40624797 0.68602806 0.70488167 0.16585901 0.9721629 0.6964061 0.5127481 0.7349252 0.43381864 0.4647679 0.20861849 0.5238417 0.46689358 0.20694594 0.20685114 0.10699762 0.7859944 0.37673682 0.9893671 0.039842945 0.41243315 0.59765095 0.39641836 0.84770685 0.66711 0.5557712 0.6801484 0.7680941 0.9724217 0.9122377 0.99712515 0.60744 0.15172197 0.5113438 0.4909 0.52911067
l1 0.35024533 0.4138467 0.2165861 0.75828254 0.13162771 0.27229097 0.4246544 0.20566961 0.3855952 0.673201 0.58142763 0.24342015 0.6702529 0.9819742 0.066999525 0.69386166 0.75490457 0.9638852 0.90246207 0.9886171 0.74502206 0.09381002 0.8544173 0.3211076 0.7643662 0.7198537 0.3284711 0.37130162 0.82648605 0.033670478 0.9739232 0.10542045 0.18252102 0.3278434 0.2754388 0.32256427 0.35392877 0.58432645 0.6221054 1.0006967 0.97886777 0.8620353 0.42410648 0.6802116 0.37443662 0.3737286 0.36815977 0.45621902 0.91690856 0.013338476 0.9815172 0.8021598 0.6940023 0.43678892 0.1352636 0.975831 0.182973 0.68833977 0.5362681 0.38961715 0.32744595 0.3463745 0.5655702 0.5993116
l2 0.8133918 0.9744965 0.22514884 0.13875593 0.12731056 0.6528078 0.8398698 0.24037702 0.6474972 0.0292426 0.83095974 0.9968661 0.5196184 0.49778134 0.33407253 0.9659001 0.32867867 0.38750663 0.29008412 0.8533386 0.33929047 0.98770535 0.28279355 0.36954877 0.398506 0.9017495 0.20876873 0.7123764 0.41400626 0.1947801 0.1892977 0.34344116 0.06884627 0.8498947 0.6823673 0.11277364 0.27012172 0.69969267 0.796263 0.49507636 0.83129865 0.50064206 0.9039298 0.25552246 0.9227769 0.84175915 0.1389555 0.6052616 0.9881609 0.303694 0.3246803 0.9896447 0.7071653 0.45818567 0.18414353 0.08617392 0.15099499 0.3493389 0.43359858 0.97421765 0.010477885 0.59335715 0.4003593 0.4210386
l3 0.27719253 0.43493503 0.086015135 0.6769906 0.0072834557 0.29848093 0.88463324 0.19962858 0.20827635 0.25072992 0.82868 0.46376526 0.7366379 0.9810304 0.53873086 0.07145174 0.30325082 0.028273068 0.50135404 0.08789451 0.71672064 0.41983816 0.4903255 0.86026514 0.5263535 0.877365 0.68019 0.18563944 0.8325775 0.12832925 0.82743436 0.20894867 0.45905498 0.10035332 0.5444016 0.18949452 0.27324745 0.01000277 0.9004154 0.04966778 0.52406466 0.30160394 0.5126564 0.22637731 0.06727664 0.78586966 0.085703075 0.059436038 0.015519125 0.93827903 0.409284 0.69052964 0.57246816 0.59733176 0.52721167 0.48710856 0.009875939 0.4012927 0.8101923 0.178905 0.04948477 0.06416198 0.6322097 0.59395933
l4 0.6103357 0.8434069 0.03918405 0.6685003 0.93670434 0.9725591 0.834064 0.5005081 0.24932298 0.5068476 0.030595977 0.73721814 0.8086564 0.25856626 0.8036269 0.008804162 0.3857044 0.54585147 0.119686686 0.054455034 0.23177488 0.9663028 0.41955456 0.11680375 0.5235807 0.94628817 0.5869548 0.21184576 0.865174 0.577217 0.5014837 0.75949675 0.12869786 0.59713125 0.9340434 0.8857711 0.7323119 0.67604524 0.016008409 0.49264994 0.91566443 0.20068513 0.7479853 0.9231547 0.8303966 0.06095467 0.18697973 0.9311021 0.87728024 0.029125046 0.011979343 0.012171152 0.17231403 0.18006559 0.035191964 0.42506868 0.962029 0.5807804 0.8354723 0.918123 0.954032 0.8297928 0.6286637 0.58078754
l5 0.77750057 0.33898652 0.4126506 0.5871705 0.35341138 0.7332437 0.41194448 0.272737 0.94624865 0.8183738 0.5533561 0.10794953 0.65032333 0.6541167 0.65686107 0.67062765 0.9520396 0.52168125 0.25713184 0.19496131 0.7726507 0.7507991 0.44073743 0.082548596 0.1736591 0.5864641 0.051589165 0.8159968 0.83337957 0.70410526 0.3430406 0.77507865 0.05995115 0.77999043 0.83348167 0.31612882 0.7036709 0.62707525 0.3157039 0.109359935 0.8917723 0.21550912 0.9345071 0.4686045 0.39253497 0.014725336 0.34957528 0.7633604 0.82851875 0.70174176 0.8673472 0.59457624 0.11339901 0.57105637 0.1842074 0.9024471 0.5982556 0.7758931 0.392119 0.30554432 0.15233855 0.48231182 0.67021894 0.18365332
l6 0.9689684 0.3164566 0.5951333 0.40525445 0.033433855 0.54909116 0.08522398 0.6676651 0.7593547 0.80288464 0.55687183 0.4259844 0.44079405 0.64184725 0.24088846 0.56056875 0.32402003 0.74532604 0.81169486 0.87279624 0.749416 0.035983965 0.74210656 0.29643005 0.13517855 0.7641106 0.30128625 0.815425 0.6890393 0.5002214 0.63582546 0.43209368 0.04359789 0.042053644 0.9552903 0.9498225 0.18349656 0.39880082 0.33215716 0.1415814 0.5682466 0.048353143 0.96893466 0.969752 0.81293267 0.49577785 0.46926466 0.8872052 0.83128554 0.8159947 0.8274859 0.078291066 0.30950034 0.6320019 0.034064505 0.30324462 0.7312147 0.9915668 0.72616637 0.10506708 0.1672477 0.117533796 0.44524807 0.20469141
l7 0.19574586 0.26622283 0.14294097 0.64690214 0.3009193 0.6733477 0.5396813 0.32325113 0.64565223 0.21703438 0.3507753 0.26663455 0.3992202 0.29080316 0.6788238 0.115995474 0.06567686 0.57423705 0.46509105 0.09811025 0.13733815 0.96551645 0.8365722 0.5174856 0.0852368 0.6753155 0.9332397 0.44867277 0.48460627 0.07470125 0.26900846 0.600001 0.17143023 0.013554117 0.07725295 0.13528691 0.47114956 0.5528315 0.31256154 0.78459275 0.8958993 0.9585377 0.25117195 0.5395617 0.56186026 0.38277102 0.935733 0.123772226 0.6094849 0.9957885 0.7415777 0.6005188 0.6380142 0.8970304 0.9332066 0.3106248 0.29117906 0.16038583 0.11103741 0.6550414 0.2578522 0.8419228 0.7097543 0.05458574
l8 0.4569256 0.31121257 0.04282823 0.17290421 0.91035235 0.6841774 0.6081959 0.3340151 0.46143425 0.24132572 0.5927065 0.87126064 0.26471695 0.56867087 0.71316034 0.24808016 0.35800642 0.51070106 0.9589076 0.71027696 0.05975739 0.967862 0.982685 0.36972243 0.033711933 0.16951577 0.3639184 0.2792244 0.87447643 0.45074412 0.85360855 0.06307489 0.0102415215 0.53618187 0.9352077 0.63038045 0.8784243 0.6872708 0.5317342 0.34095508 0.023688942 0.36510575 0.019050337 0.5511067 0.2268306 0.4032722 0.018696403 0.73199904 0.15913554 0.9060948 0.7471198 0.85942996 0.42493927 0.1896341 0.5662483 0.32064626 0.8328574 0.190781 0.6981117 0.7905083 0.25041968 0.17704265 0.3185433 0.5530399
l9 0.52145445 0.4799115 0.67512864 0.43253705 0.17252557 0.9993055 0.04571571 0.26099405 0.73994136 0.54686564 0.029373432 0.2680534 0.83873945 0.1591109 0.84861434 0.47196543 0.5963218 0.54532415 0.6032118 0.066146605 0.6756037 0.5094542 0.79224634 0.75630176 0.5278215 0.9855228 0.66020125 0.4772994 0.7651297 0.59068924 0.4302316 0.9968364 0.88899857 0.9347939 0.80259126 0.52217436 0.14194922 0.7528499 0.32476473 0.8701927 0.3100967 0.94220865 0.6226484 0.8023951 0.24325311 0.2942955 0.31254435 0.9768903 0.5975419 0.807861 0.3067024 0.312458 0.06055394 0.5210358 0.101744555 0.83579516 0.93242323 0.8971401 0.9399802 0.10015799 0.5041336 0.9444159 0.65283644 0.23793623
l10 0.30090976 0.48377603 0.90071154 0.24373828 0.4174279 0.22924832 0.80000764 0.32161838 0.091921955 0.91772544 0.11627367 0.08774143 0.41737905 0.4110408 0.1729326 0.18833283 0.39995316 0.40060055 0.9382958 0.048850868 0.8607393 0.35705322 0.3655443 0.2930982 0.13943622 0.060704205 0.3189176 0.7727968 0.055933382 0.6702163 0.9378532 0.4103668 0.66378164 0.24006277 0.19597423 0.50947833 0.8126423 0.8101484 0.9462567 0.9449813 0.05345198 0.49934334 0.023598948 0.9979988 0.61308694 0.5347232 0.014222823 0.11536941 0.026179599 0.6296851 0.7325331 0.7691487 0.8552549 0.25869265 0.08981957 0.40556028 0.23320563 0.565407 0.58332694 0.19942759 0.81157017 0.7784061 0.9521603 0.32034984
l11 0.011253733 0.6092019 0.7952467 0.039479427 0.684717 0.17064525 0.488021 0.6334962 0.8628539 0.11831124 0.26671365 0.8367778 0.6600958 0.9264477 0.4654156 0.088074 0.8725285 0.78103435 0.96584636 0.23302878 0.23134235 0.82417035 0.36112794 0.21144776 0.49294156 0.24544162 0.32218766 0.27295795 0.8875277 0.94207007 0.92861825 0.5148523 0.63260216 0.12322465 0.21013865 0.3861007 0.9618369 0.5602028 0.5836146 0.87868786 0.500174 0.69246215 0.3106976 0.27205768 0.2553707 0.5931696 0.11463562 0.45505673 0.9106133 0.35199562 0.23417088 0.22113593 0.3102396 0.808242 0.64935976 0.25009894 1.0019578 0.5752567 1.0083809 0.51227444 0.6910527 0.36024275 0.17035016 0.8744147
l12 0.8644575 0.20918743 0.6281737 0.6038145 0.7957574 0.0445616 0.6027628 0.31949526 0.22209203 0.20562221 0.2388204 0.53878254 0.45276478 0.027266808 0.5402324 0.5677077 0.73636836 0.09221792 0.5966207 0.7743215 0.27683604 0.17869215 0.09612128 0.52539384 0.9369891 0.35366637 0.30613446 0.59421533 0.8094538 0.108772896 0.7791066 0.697985 0.94750345 0.14855109 0.90343153 0.29199848 0.8436256 0.11339537 0.1106644 0.28632614 0.38360262 0.9410567 0.8614802 0.7915317 0.37547508 0.752995 0.17042492 0.68151295 0.7799629 0.061741076 0.7651684 0.22612685 0.12460155 0.66542953 0.24510874 0.4838628 0.13270076 0.7708347 0.35037792 0.38233176 0.13899808 0.22015475 0.24076182 0.5831121
l13 0.12644936 0.49839467 0.6903077 0.8808311 0.17189121 0.8806158 0.8751198 0.14439027 0.67800707 0.69822514 0.87395394 0.22534528 0.49152845 0.18206488 0.4236343 0.76191896 0.019998673 0.8235565 0.25012323 0.81622237 0.74133486 0.2883574 0.3266791 0.16390894 0.6867656 0.522023 0.33813483 0.7479879 0.47614267 0.71897894 0.5835047 0.907687 0.63491046 0.6675179 0.5896983 0.3784685 0.25701526 0.028028514 0.7081467 0.03485729 0.20915307 0.8473731 0.5827221 0.99257916 0.5240782 0.35306993 0.9680882 0.27580166 0.8503451 0.0116924485 0.4974875 0.31040293 0.0026248116 0.4866443 0.12670782 0.33266354 0.8583561 0.6366979 0.35760847 0.43153635 0.37552208 0.38679165 0.19986734 0.9961977
l14 0.463238 0.9907028 0.6309966 0.54647255 0.5744008 0.9670819 0.74129516 0.98074466 0.5613647 0.09867745 0.23532309 0.3957764 0.43268523 0.10395619 0.2530648 0.6251789 0.89877236 0.31475556 0.91314304 0.1662072 0.92256725 0.5355039 0.13639353 0.52028733 0.4172734 0.34207252 0.9570372 0.9308668 0.86858803 0.10120201 0.08809944 0.44649535 0.16940211 0.60770714 0.2776017 0.09945121 0.7807098 0.5661482 0.7920623 0.45361283 0.9578372 0.67152846 0.32189074 0.4301264 0.9739557 0.5311837 0.49777085 0.40829024 0.64576775 0.88386375 0.47145498 0.0045742956 0.632344 0.9179102 0.73747605 0.9810071 0.6184922 0.6007618 0.0043627014 0.39875755 0.85601914 0.030056791 0.24277203 0.4401346
l15 0.4848904 0.11682713 0.9201982 0.57207197 0.47282365 0.5184033 0.5208983 0.38928765 0.95052916 0.5238384 0.7837496 0.3481192 0.050917972 0.7511263 0.08748997 0.5927732 0.5279337 0.14968744 0.27817696 0.37202376 0.68849653 0.96294135 0.25507197 0.8116192 0.21115361 0.3469636 0.857448 0.44496715 0.67847973 0.20984478 0.47286624 0.22222355 0.90275156 0.26920635 0.9799339 0.9536759 0.8015389 0.056158517 0.028244074 0.71886706 0.095721304 0.58338344 0.24021706 0.7798659 0.3340656 0.6993906 0.5896927 0.068363436 0.25554433 0.26706812 0.47810584 0.37097865 0.054498605 0.7258239 0.62527865 0.8424655 0.65792936 0.065274216 0.39193365 0.008993794 0.64798373 0.813327 0.49675396 0.30031696
l16 0.454784 0.38970947 0.9585083 0.22259334 0.90415883 0.10920815 0.39811713 0.7109232 0.32123348 0.9691911 0.58790493 0.80067664 0.6017301 0.7251805 0.084302664 0.8662602 0.5301461 0.083402835 0.07400884 0.16322033 0.8475488 0.58574146 0.4073712 0.9150531 0.27807793 0.825278 0.108816355 0.44689494 0.31142506 0.12870815 0.5243835 0.76244146 0.088186644 0.6584753 0.8977977 0.7503651 0.15739489 0.47068042 0.6603285 0.9881669 0.51249284 0.64718586 0.038365833 0.40694916 0.2839414 0.52601045 0.13309798 0.21317747 0.53740716 0.19422086 0.63164794 0.29114154 0.7533789 0.25681105 0.048361734 0.4992979 0.24624239 0.17820212 0.71211535 0.014710606 0.358223 0.46886867 0.985381 0.023707237
l17 0.040192034 0.019748976 0.29393247 0.4177794 0.8160249 0.068950534 0.39890268 0.086049184 0.8896948 0.22003706 0.5181217 0.95883334 0.9845925 0.24625698 0.16952148 0.47181377 0.4956856 0.55199796 0.46126872 0.8435534 0.9496345 0.029133525 0.54729074 0.75012535 0.7172668 0.79424965 0.9629858 0.45341086 0.87203795 0.9391297 0.25558907 0.15930867 0.49150148 0.45724002 0.7092311 0.3312968 0.3356237 0.48725167 0.3985932 0.6392646 0.740953 0.7383095 0.921009 0.32851195 0.6746307 0.7915414 0.84113234 0.16231751 0.23683552 0.2919292 0.5680542 0.8710115 0.28454205 0.26942664 0.9027196 0.49782753 0.39751 0.92835546 0.51377374 0.89307374 0.86376643 0.7602666 0.46073183 0.09050781
l18 0.25068095 0.919117 0.6870492 0.6264779 0.08874549 0.6299054 0.9754345 0.35115424 0.5877128 0.27303582 0.6116484 0.45595342 0.43387753 0.82197464 0.7221561 0.091252565 0.15966943 0.09827848 0.6283648 0.9089303 0.83096033 0.20010573 0.028188469 0.6173164 0.9866679 0.35227537 0.36450636 0.9900056 0.0041438635 0.29038885 0.58357036 0.23045653 0.3056033 0.33589694 0.72332615 0.85090303 0.49774545 0.8979173 0.9743155 0.99702644 0.17692198 0.43339938 0.35775676 0.07739464 0.5181011 0.20667806 0.29718766 0.19278492 0.699494 0.46626276 0.35297927 0.617902 0.8361141 0.95816594 0.7866397 0.49338862 0.8032756 0.2895294 0.12770969 0.13144264 0.4485871 0.6810625 0.57582086 0.37443385
l19 0.63786757 0.6083706 0.5720671 0.48106912 0.7370859 0.4600495 0.47096586 0.24179822 0.5537024 0.44792107 0.9888366 0.6135779 0.81971097 0.83112955 0.15919429 0.15611963 0.37966502 0.3452778 0.54448277 0.37584376 0.13207449 0.7893108 0.41238233 0.73613214 0.2755609 0.7317581 0.21243209 0.6215272 0.19693255 0.6050635 0.49182287 0.70118195 0.549784 0.68846124 0.006557336 0.8373019 0.8971861 0.87047344 0.7339621 0.49537072 0.76114786 0.7534418 0.71716005 0.6058536 0.043888394 0.51468194 0.003512246 0.25345412 0.15178478 0.10705504 0.10240928 0.58031213 0.50662374 0.592809 0.2433948 0.56449836 0.122133605 0.32935467 0.99315715 0.64979416 0.9282136 0.3583692 0.42634112 0.8481717
l20 0.82468575 0.6248133 0.22332148 0.7477945 0.93352056 0.2554586 0.2306591 0.8786681 0.9219682 0.33470115 0.11793534 0.7266222 0.13055333 0.26448953 0.7472174 0.26873496 0.10054167 0.29017308 0.790737 0.26708427 0.7042455 0.5165633 0.45486826 0.43522072 0.9195803 0.8472475 0.19428189 0.37683392 0.09734514 0.19466986 0.8419203 0.22173847 0.07496364 0.1995028 0.027610697 0.328611 0.50017446 0.60517734 0.15660101 0.48392522 0.6855252 0.7721449 0.6029737 0.27015635 0.7562727 0.229702 0.80731595 0.53376806 0.6546019 0.9889612 0.49906 0.9244613 0.39325818 0.25091755 0.13901539 0.3528729 0.7299614 0.75741816 0.57387054 0.8520695 0.010769395 0.46593058 0.21552572 0.8917249
l21 0.5396975 0.20836277 0.95287585 0.4201187 0.9382194 0.51653 0.12385604 0.77952594 0.61116624 0.22558929 0.21591938 0.3599023 0.08354661 0.18714146 0.9556184 0.4828958 0.56857294 0.7583032 0.74640656 0.21442986 0.84073526 0.52754915 0.99635905 0.86514 0.011849692 0.99180746 0.17035945 0.637475 0.9079154 0.6754673 0.020897139 0.90134096 0.68707746 0.21297626 0.3679795 0.2613454 0.54027176 0.8860677 0.7611125 0.102128126 0.4742899 0.9687756 0.6617609 0.20279832 0.93220115 0.074200474 0.2920634 0.77534425 0.9962302 0.5368738 0.38246545 0.6828984 0.013903118 0.5046044 0.077215664 0.8586175 0.3050962 0.7430654 0.94400674 0.17825812 0.082169734 0.8734792 0.7119437 0.012622416
l22 0.7960958 0.7819345 0.30106503 0.034004584 0.38346422 0.19302347 0.4266189 0.1845142 0.74208826 0.9727216 0.76599073 0.4849541 0.5055002 0.779569 0.95188016 0.85195065 0.21821414 0.052010275 0.49411136 0.83955246 0.08787588 0.35034898 0.07649092 0.37334 0.8381545 0.39981797 0.6357329 0.48545772 0.49691254 0.9208693 0.21682629 0.033802707 0.703596 0.30451202 0.25788823 0.18107541 0.5377988 0.80350167 0.15786223 0.23192963 0.26173094 0.9567183 0.3852322 0.6405265 0.07502941 0.8552412 0.13184202 0.39518383 0.27005655 0.99299085 0.059856646 0.705792 0.76416594 0.90878576 0.7179568 0.5626241 0.29631513 0.24314797 0.8034763 0.6631222 0.33002442 0.8387607 0.047102127 0.061130427
l23 0.056442484 0.45437482 0.06526557 0.10465788 0.9654852 0.5125809 0.6398658 0.3388143 0.711584 0.7378913 0.22813773 0.35635695 0.019309118 0.33704796 0.67001003 0.54215676 0.24900785 0.5079295 0.3901533 0.5058692 0.6842841 0.78728455 0.5969132 0.08022474 0.008104796 0.51517045 0.36894196 0.23713274 0.74037266 0.5345965 0.64802766 0.1412152 0.44669896 0.20267986 0.593208 0.0166235 0.37786427 0.5355393 0.786444 0.5572223 0.38546714 0.19083016 0.028021576 0.97076565 0.2441061 0.68699193 0.19495708 0.2273315 0.6090168 0.74898803 0.45957753 0.29778633 0.55463356 0.47423363 0.56107736 0.80559224 0.8448652 0.7651414 0.046640303 0.29278862 0.09292588 0.81176585 0.5221478 0.7125466
l24 0.67367315 0.91945547 0.8776198 0.21708356 0.18195613 0.18334106 0.5021245 0.5066482 0.3250226 0.53275186 0.77956665 0.014604762 0.18916509 0.95080245 0.9046671 0.4644491 0.21027538 0.32030052 0.6420965 0.7935056 0.4270051 0.8594681 0.2881449 0.6451485 0.11807247 0.08452206 0.3293791 0.46012267 0.16252515 0.8041414 0.46343884 0.23997271 0.3818801 0.54338557 0.7930302 0.27601984 0.33775353 0.6649372 0.8613324 0.5085846 0.3338995 0.07084624 0.070989594 0.49040306 0.65954876 0.38490003 0.054357678 0.4856286 0.016369384 0.74631447 0.42889905 0.75773376 0.7425856 0.9556002 0.4225843 0.13305676 0.033148415 0.79886466 0.58108115 0.23895232 0.8800768 0.99861366 0.0118119065 0.6801215
l25 0.6609574 0.47371134 0.88009846 0.121646054 0.3608944 0.031347178 -0.0013174025 0.8394022 0.18650123 0.21075466 0.19861372 0.4333204 0.8640383 0.123835474 0.8449795 0.15016684 0.39507723 0.10786612 0.8364137 0.7813439 0.12996455 0.26243645 0.9472152 0.54981726 0.9273739 0.7138563 0.24181822 0.6368606 -0.0009693777 0.6208373 0.672945 0.48553416 0.06055143 0.8068398 0.9105847 0.9620537 0.5013338 0.8001103 0.6589905 0.92902434 0.15670347 0.6882799 0.8806696 0.37105235 0.15269014 0.9944389 0.8217519 0.7368554 0.5968448 0.60413605 0.9682732 0.048534792 0.17316587 0.25461924 0.038332693 0.1259649 0.46898156 0.33315438 0.55519104 0.79303294 0.6780377 0.19678758 0.86328584 0.5877333
l26 0.16507678 0.67712814 0.32185677 0.7448795 0.05738065 0.7692986 0.67862284 0.59644085 0.7450211 0.48441818 0.28441936 0.2615851 0.44806853 0.82028234 0.76728183 0.4716083 0.11240668 0.7938063 0.92029274 0.9430387 0.1695307 0.10863618 1.001831 0.49715912 0.47021523 0.30682242 0.4797355 0.89139885 0.03094071 0.80500907 0.7492793 0.012720523 0.6189276 0.3223556 0.98366195 0.79207414 0.9982492 0.32747284 0.37584135 0.41383716 0.4150001 0.38343483 0.5897907 0.9164243 0.28427398 0.595352 0.5671598 0.7911754 0.2372662 0.50476027 0.59376997 0.61834484 0.52184594 0.7537907 0.7092613 0.73515576 0.94120836 0.5021851 0.032244086 0.9808518 0.5537106 0.3649722 0.3938066 0.9964366
l27 0.86688864 0.9275881 0.42612094 0.367738 0.10013491 0.9122979 0.076547764 0.84994847 0.4958177 0.14877345 0.6039828 0.1060529 0.94291335 0.9125319 0.6681658 0.24270874 0.019543696 0.80429935 0.036714923 0.89872235 0.10407631 0.477587 0.6339564 0.70117563 0.53934264 0.35185724 0.44128242 0.6591506 0.717941 0.8054976 0.6468485 0.49565092 0.3542946 0.18689416 0.36818877 0.87215793 0.37744159 0.513567 0.38607046 0.62294835 0.07256751 0.5579132 0.28889084 0.8262253 0.67953926 0.63805604 0.8516718 0.262099 0.37503135 0.089156196 0.039167877 0.4821295 0.42268664 0.4262427 0.2958105 0.44321725 0.45645708 0.38432017 0.73731285 0.628321 0.74592036 0.4368134 0.025908018 0.94700223
l28 0.43222708 0.49850994 0.33984923 0.92291415 0.9005749 0.08080485 0.33374673 0.46926907 0.40036646 0.68060315 0.9474342 0.8079472 0.28616977 0.3545233 0.5599804 0.97054327 0.5786908 0.15323786 0.6758146 0.020376729 0.3839808 0.78629726 0.5350221 0.72769344 0.82211494 0.8763662 0.7549195 0.9858928 0.6108395 0.2677814 0.8144417 0.23479928 0.31414437 0.4103425 0.7192181 0.95205146 0.9768133 0.13118543 0.5073779 0.75097156 0.3893079 0.8473016 0.1576836 0.84864414 0.5685668 0.56775534 0.95987475 0.492452 0.9727334 0.923241 0.49866024 0.05492494 0.09665602 0.7907359 0.7849305 0.5187442 0.10618206 0.36485472 0.3036175 0.56731427 0.49492145 0.10546375 0.062570624 0.14005427
l29 0.7283159 0.3285274 0.18618844 0.71644866 0.19540194 0.1822563 0.56181055 0.6559064 0.7564021 0.55016977 0.9708384 0.37023357 0.1440487 0.45865715 0.29147565 0.46057722 0.6625378 0.2831836 0.34086177 0.45075852 0.7971472 0.36745414 0.45215905 0.45202118 0.31750867 0.03499606 0.38867402 0.354164 0.9934062 0.7161497 0.103731744 0.30593643 0.15111046 0.26105806 0.041729797 0.950779 0.45271796 0.7885937 0.45994574 0.49856132 0.17888135 0.75084966 0.22150138 0.20614186 0.086888574 0.7931287 0.3707801 0.9091143 0.5818015 0.10703582 0.045057632 0.83900493 0.08938366 0.44625765 0.30416924 0.4709718 0.69370735 0.6497311 0.5043162 0.7680366 0.1586262 0.7535494 0.20202747 0.86251384
l30 0.2856161 0.19121824 0.48108983 0.53655475 0.20789942 0.07686295 0.7410685 1.0003797 0.14032052 0.71666855 0.65355754 0.18239786 0.7270334 0.105593234 0.44649452 0.37459838 0.5064216 0.72623414 0.78412175 0.9392121 0.7086896 0.38350442 0.026060864 0.78619045 0.13887312 0.87206894 0.23209673 0.27197537 0.5651868 0.29753476 0.7128879 0.6616069 0.51939213 0.34226763 0.9794743 0.7390575 0.8151343 0.654389 0.27956024 0.6270818 0.38253617 0.48401347 0.2496222 0.47055173 0.857979 0.7173155 0.110261284 0.5637142 0.14514081 0.21945733 0.6344057 0.28831595 0.68800545 0.16785263 0.92457217 0.9909637 0.6016965 0.11683192 0.1284007 0.082832076 0.023265954 0.9943975 0.03145441 0.056104537
l31 0.6427957 0.024489881 0.36676472 0.58497936 0.72034174 0.035911337 0.46866348 0.403043 0.7728603 0.26634312 0.5325204 0.23129138 0.18082005 0.75545007 0.30752894 0.13378078 0.17232056 0.03885376 0.27667037 0.5607641 0.54497474 0.40217403 0.9672832 0.85728824 0.18467756 0.12861156 0.7985015 0.68587565 0.7923524 0.8377719 0.6028611 0.23693135 0.013084864 0.7819683 0.9374046 0.91658384 0.99505246 0.4048419 0.58706635 0.6349976 0.65431833 0.66401595 0.48145464 0.6417575 0.6671005 0.5648011 0.5054846 0.8900959 0.6672498 0.7321903 0.30820414 0.68185776 0.6181841 0.8731881 0.021194091 0.70030487 0.5373377 0.32188624 0.24000195 0.13630602 0.9691066 0.5791071 0.50073457 0.8160541
l32 0.8079792 0.29846522 0.36028206 0.40716094 0.96025413 0.89357924 0.78930444 0.838667 0.959658 0.13479698 0.23317444 0.13746995 0.64382106 0.6035824 0.65970385 0.4650827 0.31271294 0.1427227 0.95645344 0.55179304 0.44934624 0.4035852 0.53458303 0.38424033 0.7123307 0.81225425 0.22455786 0.67565966 0.7269289 0.124544606 0.012764333 0.46806127 0.05738549 0.3546276 0.019010004 0.90147805 0.6296352 0.52460945 0.89114815 0.5687361 0.7093704 0.19158073 0.02149855 0.46145803 0.34310412 0.9721389 0.3364462 0.44373164 0.4857073 0.57965374 0.3673303 0.72012407 0.2172292 0.25366732 0.4472512 0.0187046 0.009682494 0.54881513 0.5814635 0.6881535 0.15389815 0.028368488 0.7692247 0.18806772
l33 0.23187068 0.9319843 0.319781 0.4394333 0.86670995 0.71375585 0.61648387 0.43403506 0.26454613 0.0994827 0.82053345 0.6886508 0.5812526 0.45403808 0.66393185 0.45143571 0.4201651 0.39241296 0.62122756 0.7717147 0.5174129 0.2809811 0.5423594 0.3826003 0.08485349 0.55937636 0.26211783 0.36414567 0.8305365 0.8073174 0.94167364 0.50860304 0.92097026 0.4364052 0.5150519 0.8004468 0.6528648 0.87999105 0.5579817 0.89559597 0.77858716 0.35155004 0.0337237 0.94257563 0.9697344 0.6612039 0.7109955 0.030797146 0.7219823 0.7681089 0.64937496 0.19879189 0.050057497 0.096626095 0.3466888 0.34968874 0.28207687 0.77004457 0.21867687 0.68666345 0.9218574 0.2465782 0.85355556 0.2973218
l34 0.866628 0.47965705 0.98773336 0.09266245 0.5246271 0.84132665 0.54388916 0.77977353 0.06961867 0.21505307 0.4416283 0.9895937 0.31197566 0.82993 0.058363494 0.7818666 0.28292525 0.8201516 0.51608276 0.96093756 0.8238344 0.26045793 0.2915406 0.3145237 0.8014666 0.79362005 0.45699707 0.9105863 0.06677111 0.9522817 0.067781396 0.20010063 0.6127458 0.4508283 0.079111315 0.20815404 0.1419907 0.46234277 0.41749108 0.33472598 0.74602354 0.92661536 0.041676838 0.2549299 0.18967864 0.8208774 0.020449497 0.66430706 0.9774681 0.7359038 0.20647776 0.85374033 0.2247409 0.18371588 0.5376372 0.7793357 0.29678014 0.03850984 0.4796306 0.4565883 0.23641779 0.9690648 0.5299084 0.6096403
l35 0.3611144 0.8216239 0.38477537 0.24855435 0.89236665 0.22457795 0.7133459 0.6367732 0.16157755 0.9132398 0.46980843 0.12927577 0.18007043 0.5440635 0.038390264 0.9186691 0.5069141 0.79804844 0.6695289 0.26213437 0.37101188 0.4216936 0.04440708 0.1754084 0.063662946 0.14897706 0.123892374 0.36529836 0.8938439 0.3953022 0.47685814 0.43169805 0.74228615 0.5712216 0.22664973 0.97585386 0.6706719 0.050954614 0.44041345 0.3652195 0.19110736 0.49112874 0.39468428 0.09572783 0.14333798 0.25098675 0.24764879 0.32287806 0.26186764 0.4280603 0.3413969 0.35250485 0.5141458 0.09698009 0.47758576 0.38462982 0.27173507 0.7721653 0.17094286 0.74772996 0.08308364 0.49233586 0.61145824 0.40893286
l36 0.47459802 0.58506626 0.84332526 0.6701791 0.5781952 0.035372816 0.3806321 0.8557352 0.40374157 0.7019788 0.1509116 0.2979763 0.7727448 0.30118293 0.45291162 0.95037395 0.48234108 0.28463522 0.12877819 0.48642552 0.57205504 0.61243093 0.69131345 0.19851062 0.11414266 0.23992428 0.6699672 0.26291528 0.5325921 0.685855 0.29005232 0.215896 0.98476875 0.96867144 0.83170396 0.38829985 0.65032846 0.584358 0.6060443 0.4801009 0.03606438 0.7839048 0.77855474 0.4100516 0.7753762 0.3678231 0.23923218 0.8588636 0.642 0.70006615 0.7508454 0.57534283 0.90121865 0.28877884 0.5787788 0.67896336 0.5653104 0.60930026 0.36177182 0.7287157 0.68976116 0.5584819 0.9022693 0.6539587
l37 0.20188591 0.76807016 0.43533897 0.5901056 0.18683933 0.4617462 0.27272758 0.5279599 0.6262173 0.31735346 0.85777307 0.9829221 0.2840998 0.012000676 0.49080688 0.55608803 0.5277128 0.70966333 0.9800584 0.35139862 0.27739862 0.27349618 0.33808434 0.52171737 0.16327448 0.9750562 0.972235 0.9871907 0.27102268 0.9233307 0.32012144 0.86218613 0.1936352 0.020147525 0.9272719 0.4868657 0.67541295 0.058221456 0.4151523 0.3391905 0.06723283 0.81148946 0.7899184 0.51061964 0.7706331 0.7607659 0.3954055 0.20839092 0.33011043 0.8044529 0.14641891 0.6467053 0.81287783 0.5811122 0.7760753 0.006713934 0.048233923 0.33436352 0.9213416 0.509417 0.96319956 0.05845266 0.983801 0.8924428
l38 0.6244331 0.41153648 0.061673388 0.8462797 0.39933434 0.788492 0.68680704 0.07903528 0.37838408 0.59899306 0.89167076 0.029204965 0.34487987 0.39250585 0.5128635 0.25960016 0.33817083 0.008791013 0.77161914 0.23312199 0.16095917 0.05579079 0.6145321 0.5110203 0.868385 0.2681369 0.90668464 0.85401946 0.3838971 0.65675694 0.21237102 0.38259885 0.83846825 0.193077 0.6024285 0.30299827 0.9179158 0.40700117 0.43549472 0.43812087 0.71003217 0.65607375 0.17495978 0.37478948 0.81264836 0.5587446 0.22060604 0.14664695 0.07366162 0.50536054 0.5771454 0.5996281 0.9374182 0.9397261 0.36027628 0.28373954 0.58345234 0.07799447 0.19793266 0.8582041 0.3969852 0.65577084 0.05559826 0.19645813
l39 0.007036786 0.800218 0.21996196 0.484219 0.9673431 0.5528584 0.41147026 0.304263 0.4937987 0.5179084 0.8137726 0.42353377 0.595332 0.5364883 0.021980708 0.9616206 0.5159863 0.67091787 0.38388464 0.442352 0.50864726 0.41576028 0.64638877 0.7103311 0.555983 0.874863 0.39015284 0.22661258 0.8737384 0.84330016 0.6223402 0.64552873 0.016116017 0.95948046 0.87401634 0.15347347 0.07561669 0.54994845 0.39298996 0.4782592 0.3770277 0.61152637 0.059632007 0.91169876 0.84404606 0.7085686 0.5375314 0.6841133 0.7399491 0.7773581 0.37311307 0.45127714 0.43294984 0.44209474 1.0059432 0.078006975 0.6595443 0.067533985 0.5359756 0.35443708 0.5897032 0.8222044 0.080080286 0.2560479
l40 0.532272 0.9229646 0.023433281 0.03764981 0.7048158 0.96124524 0.830069 0.03616836 0.5425076 0.08219071 0.3538848 0.9333576 0.33051184 0.93562627 0.17115642 0.73405766 0.678733 0.3311076 0.8770621 0.86645603 0.4695591 0.1747626 0.9732987 0.4362362 0.8689458 0.6497218 0.52608097 0.36665446 0.16894434 0.7363176 0.7659717 0.31989777 0.9938037 0.40851748 0.41090083 0.10101261 0.40176767 0.89268047 0.5672058 0.55950654 0.43465644 0.5880533 0.6826825 0.112921104 0.7514001 0.809109 0.25727433 0.67513585 0.26971728 0.6751165 0.52160907 0.48069707 0.36060345 0.8140297 0.9613765 0.888211 0.808499 0.592458 0.7476437 0.9325936 0.00863644 0.41323388 0.78503877 0.2305379
l41 0.667513 0.17446473 0.460135 0.58519447 0.50819665 0.9825439 0.8419331 0.5116377 0.22951968 0.4341857 0.59870934 0.5297876 0.17787004 0.89520156 0.9222553 0.2259288 0.79871327 0.3094278 0.71166617 0.14624763 0.7706201 0.6096142 0.8213794 0.20781083 0.38541657 0.9209935 0.60256654 0.98090714 0.82200354 0.981837 0.5307584 0.8642587 0.64873695 0.98804027 0.7234649 0.689105 0.023535525 0.96254426 0.54954195 0.47792047 0.45099676 0.79438126 0.28537822 0.95483303 0.9403074 0.3936387 0.0941486 0.47237608 0.79516226 0.5353975 0.18037419 0.9996173 0.6117884 0.49328274 0.5727197 0.8516898 0.1501574 0.63329834 0.78082424 0.7058222 0.12217423 0.76384544 0.57905173 0.14121419
l42 0.9457796 0.16988754 0.3842472 0.019681303 0.30818614 0.36443898 0.37566638 0.04679821 0.37326476 0.5887887 0.31164867 0.15512963 0.7060366 0.4484291 0.6949939 0.049927942 0.96709263 0.21786062 0.26311845 0.6080427 0.19858435 0.28704205 0.4051427 0.104341604 0.8684677 0.566402 0.69357896 0.35364822 0.014255001 0.26591277 0.72176355 0.22819348 0.92165464 0.924279 0.23082995 0.42390567 0.06848009 0.032228615 0.7191258 0.9605533 0.6393371 0.053738095 0.4476014 0.06245051 0.7130809 0.1061225 0.9892956 0.8707364 0.12842853 0.64940095 0.44613358 0.2619677 0.18049774 0.90962267 0.9572471 0.49176568 0.0019683663 0.97018826 0.90439624 0.59327704 0.10126547 0.40482494 0.015370558 0.06556057
l43 0.09811912 0.23780303 0.57881594 0.59547883 0.5185681 0.27743882 0.7840899 0.42679286 0.7268998 0.37856612 0.90306747 0.7120151 0.48933792 0.03126195 0.7475583 0.41243714 0.6262071 0.36208007 0.87543947 0.073818594 0.9094313 0.8046707 0.1914086 0.5231694 0.6492963 0.7990543 0.03209588 0.540062 0.61306036 0.12597959 0.76471996 0.26203182 0.12595671 0.0018282209 0.29495007 0.6358332 0.9161355 0.7266651 0.82185894 0.06252018 0.5882063 0.51513857 0.72828716 0.93342906 0.5218242 0.58513844 0.07281165 0.07654152 0.7592822 0.91014737 0.14236072 0.29048985 0.55487245 0.25768307 0.2492723 0.6851019 0.34747815 0.9170039 0.055829942 0.35631925 0.18307936 0.5440476 0.8985465 0.65695417
l44 0.95571136 0.5781641 0.15913482 0.7801458 0.47251147 0.06709313 0.52052456 0.013830946 0.2526854 0.71759456 0.7328354 0.020917179 0.7505402 0.7435301 0.8009801 0.74441874 0.16226095 0.67980695 0.87956744 0.61822605 0.10336409 0.426285 0.54855716 0.56165826 0.921388 0.7023426 0.12325103 0.59378964 0.90746504 0.10450241 0.22812244 0.52331805 0.7987051 0.041481517 0.37310642 0.7550373 0.19290353 0.13938479 0.4096205 0.9831568 0.38352075 0.50533617 0.704819 0.901923 0.26080364 0.42252928 0.50626177 0.6701946 0.42597088 0.25432238 0.6882538 0.37057438 0.27788353 0.42131633 0.3190212 0.8884064 0.33021504 0.6987886 0.6187405 0.6161003 0.34027952 0.9215121 0.186122 0.7594527
l45 0.9598344 0.3112214 0.65071535 0.1779595 0.2004146 0.9202984 0.41087714 0.9010432 0.61208016 0.7822451 0.067468874 0.37671432 0.4896298 0.24703868 0.98442775 0.7124028 0.7078973 0.5382266 0.8217654 0.5475225 1.002741 0.50363237 0.67489076 0.85752356 0.7761161 0.27687892 0.07176018 0.29806885 0.205311 0.7762636 0.8085823 0.14188987 0.27537447 0.54055023 0.7354717 0.122791365 0.20082875 0.26093972 0.653729 0.037431955 0.32697007 0.9471304 0.22003971 0.9447624 0.8746837 0.8220486 0.4470867 0.7214084 0.83447623 0.40429035 0.09835571 0.7135537 0.20776168 0.540086 0.5920278 0.42566773 0.048894186 0.52766323 0.101098105 0.52564365 0.44759998 0.06475754 0.9638493 0.36878833
l46 0.9608798 0.42161 0.62183136 0.7959919 0.9004947 0.06965392 0.41164944 0.93709666 0.6399572 0.28299493 0.4510315 0.423988 0.97754794 0.47505042 0.061749846 0.8858578 0.95358974 0.005399663 0.09959021 0.3621317 0.36928654 0.09770516 0.5978087 0.20950128 0.16580577 0.7114578 0.22336851 0.94009286 0.36951843 0.72341454 0.031154903 0.74425787 0.6346349 0.4852081 0.52276164 0.79224765 0.62619674 0.0062458934 0.022675516 0.4111789 0.3209751 0.78954804 0.05436343 0.91769654 0.18208703 0.35397977 0.51867366 0.58356 0.28789043 0.6756426 0.6051697 0.33978248 0.8701219 0.52105397 0.5168183 0.027850619 0.8960988 0.2109591 0.017144006 0.26089337 0.09380175 0.44910783 0.7071592 0.53996295
l47 0.8877209 0.60567474 0.29146168 0.30013055 0.4861451 0.8015932 0.39195025 0.54827935 1.0053743 0.69169945 0.28586572 0.96439785 0.048360296 0.6631164 0.7013656 0.19188555 0.9861586 0.939793 0.9338168 0.4671828 0.39788958 0.37105474 0.2419036 0.069357775 0.7288913 0.5424248 0.22830327 0.36100268 0.4828386 0.6066489 0.23914213 0.89510083 0.94403523 0.018658957 0.8215831 0.07418023 0.21667236 0.18150777 0.30965728 0.49557135 0.39004838 0.15090732 0.18858063 0.33776766 0.93187606 0.8219813 0.77226543 0.6777191 0.60023594 0.33262533 0.23377295 0.6476706 0.21669242 0.08774645 0.005782856 0.40592578 0.8501214 0.21971422 0.36367887 0.9472204 0.22564773 0.32846886 0.51484305 0.17463484
l48 0.47184882 0.14288685 0.8491876 0.4959157 0.20411941 0.20651402 0.2879106 0.43493432 0.13398989 0.3602897 0.49557677 0.69352853 0.13954036 0.94323015 0.87018 0.5263719 0.59759235 0.7364408 0.7236451 0.39658922 0.8347003 0.9040163 0.55296797 0.52809215 0.14443786 0.543461 0.095994525 0.20801005 0.40794 0.048386764 0.03807277 0.34050426 0.80222374 0.61856383 0.42769843 0.8592657 0.17989728 0.9827436 0.9579068 0.76650035 0.15562145 0.31836092 0.8942315 0.21816908 0.5367477 0.90302634 0.7294498 0.46618024 0.36850467 0.19293803 0.25320104 0.3043784 0.8838316 0.6995192 0.33962917 0.012738495 0.7532063 0.7998722 0.4360937 0.088775136 0.22488727 0.14822792 0.76316607 0.7504004
l49 0.08686771 0.61701584 0.7970505 0.9024135 0.9826676 0.055905692 0.8283194 0.52902335 0.12045189 0.26941034 0.22443439 0.34657246 0.22764525 0.99915123 0.08626474 0.16592905 0.21481405 0.13054381 0.9283686 0.6018469 0.34913144 0.4827652 0.23142064 0.5849165 0.6780032 0.685973 0.58122534 0.36586806 0.5980598 0.39586595 0.25305337 0.07829062 0.8752203 0.05814053 0.31416366 0.38385737 0.1620748 0.24887092 0.53976876 0.32017997 0.71939594 0.01781708 0.8316309 0.91470164 0.41169482 0.9629711 0.92281485 0.4134562 0.21266145 0.75977296 0.3181912 0.7273853 0.99070895 0.58207226 0.4336328 0.9634958 0.25071907 0.67427033 0.61736304 0.6086396 0.7614604 0.20976001 0.4733319 0.43544537
l50 0.29776278 0.2760935 0.36732337 0.98614866 0.9970772 0.7662263 0.22357033 0.11381478 0.27973208 0.9528716 0.46471086 0.15210019 0.91436493 0.71101123 0.6433913 0.4673199 0.83835876 0.4297923 0.94450533 0.75375617 0.61866397 0.07299417 0.42021945 0.5611798 0.8280975 0.44129732 0.23043787 0.26755217 0.9770089 0.52813786 0.34563714 0.22078127 0.5295796 0.61015356 0.43799677 0.4787293 0.04574269 0.22370592 0.0999458 0.26990652 0.9132007 0.68062043 0.24144627 0.60176027 0.19637112 0.007406059 0.4691616 0.46425393 0.8120666 0.71122015 0.9609586 0.30868545 0.82834584 0.32259938 0.42132357 0.7730014 0.26006794 0.03926336 0.30835074 0.08172617 0.75235844 0.7742102 0.484335 0.8085051
l51 0.8508984 0.20156002 0.3517764 0.35070482 0.7280942 0.29361108 0.64002925 0.08354898 0.9400724 0.06988104 0.22605191 0.7662875 0.6005934 0.5423958 0.12456951 0.8129065 0.5236523 0.80375665 0.5210928 0.73914117 0.83219326 0.20633456 0.099746786 0.38604668 0.8966882 0.90375084 0.38172004 0.33540934 0.72702855 0.0038823076 0.88372004 0.3714414 0.7005275 0.38610515 0.8108569 0.45255417 0.5566675 0.21099305 0.67255574 0.5569644 0.464618 0.24728788 0.46299917 0.69395024 0.60326 0.21769778 0.39018875 0.110093094 0.037240688 0.45488366 0.53809476 0.91031325 0.7869837 0.6202868 0.4127738 0.5198909 0.52519983 0.0598862 0.7271821 0.98582023 0.88978344 0.073021896 0.028814346 0.6136884
l52 0.90326047 0.5631942 0.33831474 0.24556588 0.92110974 0.24403699 0.71416783 0.34147266 0.22281776 0.74808645 0.5876873 0.06805388 0.7089731 0.1323048 0.99362904 0.80889046 0.0989779 0.88150805 0.021754652 0.33434147 0.35034937 0.58306926 0.95154023 0.116203204 0.59328437 0.76474625 0.3759325 0.52661556 0.99470633 0.4480919 0.7907395 0.26187629 0.47900668 0.16069528 0.23345563 0.6120713 0.8940755 0.09842292 0.36977097 0.5357107 0.081556946 0.34487414 0.42910376 0.040513553 0.40102848 0.06517503 0.64617026 0.34709778 0.7204511 0.04884414 0.9353843 0.5220211 0.6730753 0.33965507 0.15238622 0.68778414 0.7203688 0.4786271 0.4506765 0.5192333 0.7108047 0.80966437 1.0043164 0.58621204
l53 0.62823236 0.35224828 0.7232425 0.8210005 0.6319464 0.9346821 0.19910759 0.89261764 0.073542975 0.14244004 0.59435093 0.6217258 0.6307349 0.049736407 0.19888425 0.73850006 0.4094966 0.20227908 0.51166826 0.022441944 0.96506983 0.88593775 0.80126005 0.97559273 0.9646947 0.7475363 0.1288369 0.9900844 0.5279586 0.22254023 0.33221552 0.053735808 0.43795666 0.18080021 0.5936796 0.87156975 0.31033576 0.89509594 0.21332794 0.6078675 0.9879209 0.70864636 0.052100547 0.5528047 0.44444308 0.36729822 0.22633174 0.9990802 0.63616115 0.116777435 0.76441115 0.74779963 0.45589003 0.79121184 0.27564135 0.76803124 0.32532087 0.23837426 0.39977923 0.43927544 0.6289698 0.5726681 0.24742708 0.0075485175
l54 0.9137416 0.60146385 0.15130755 0.25142097 0.6013737 0.24473439 0.7172205 0.9321706 0.8721279 0.26596636 0.5678008 0.5729328 0.3509435 0.62397474 0.8590455 0.549594 0.51176536 0.5175311 0.100824304 0.011189283 0.71725327 0.046842795 0.2626473 0.29582256 0.3928893 0.107218705 0.6271534 0.19500658 0.34907123 0.97395885 0.08887805 0.14874315 0.61991984 0.060994152 0.39492068 0.81279486 0.76896447 0.41712418 0.45375648 0.7594793 0.3162785 0.42026913 0.42180756 0.2898444 0.95033985 0.5782195 0.19065894 0.23865737 0.08550926 0.46840328 0.53054297 0.769583 0.9330601 0.6707346 0.16647336 0.36041802 0.15318921 0.6815815 0.062999375 0.8120483 0.4428968 0.08744679 0.9080064 0.6765424
l55 0.8772785 0.5123923 0.42147642 0.93072 0.07708516 0.39173424 0.66816163 0.048973937 0.1558964 0.2611663 0.7904188 0.3960282 0.8530206 0.3775633 0.123152226 0.16951753 0.90755284 0.49964648 0.1383002 0.916729 0.7486841 0.92894006 0.019344606 0.8969972 0.9726049 0.4622232 1.0036016 0.81533015 0.23365685 0.64485294 0.12972897 0.2572044 0.85789347 0.3311528 0.13154674 0.72064316 0.14942384 0.7598171 0.6953002 0.10320286 0.75909936 0.6462749 0.48530376 0.5357995 0.45918685 0.6289276 0.12484573 0.6023948 0.17009836 0.13577685 0.054593734 0.78214633 0.40224987 0.86952674 0.5047921 0.8449989 0.17508481 0.87964547 0.2952012 0.31568947 0.35716978 0.10785867 0.07613557 0.5767681
l56 0.19152261 0.6597496 0.47266525 0.49639198 0.95494205 0.3960144 0.03814556 0.51944035 0.75144345 0.83953196 0.96862096 0.97296077 0.51180124 0.6689244 0.718191 0.22700171 0.640492 0.2424409 0.25145632 0.15801291 0.13331942 0.8885675 0.24748173 0.42965826 0.353315 0.6517455 0.39951855 0.09349027 0.42787203 0.14860116 0.14004001 0.4429549 0.3343315 0.20592545 0.24845989 0.8939609 0.5520788 0.20328477 0.93132275 0.66989446 0.69176376 0.15592073 0.0495998 0.74142814 0.35889915 0.5936518 0.24671529 0.06477945 0.37860367 0.2314245 0.2442292 0.008288263 0.49750748 0.48294392 0.518832 0.70832074 0.73750323 0.25257462 0.08296002 0.7354288 0.6313065 0.23896444 0.14274694 0.6691347
l57 0.9640646 0.4066278 0.06201545 0.025494521 0.5374463 0.27002877 0.097848296 0.71601045 0.088116035 0.91430295 0.33688328 0.54855543 0.46750155 0.044043574 0.9277448 0.7142123 0.9135652 0.9370014 0.067321 0.8505311 0.6566512 0.7961913 0.8476354 0.121221416 0.3549852 0.049329087 0.14640306 0.6472316 0.8442334 0.4443097 0.39150944 0.86775756 0.14324126 0.487392 0.39913017 0.9685731 0.083406664 0.94720095 0.29334265 0.7339181 0.13776577 0.652887 0.12141046 0.09268661 0.035321664 0.8496355 0.5680097 0.18944126 0.5684492 0.066015236 0.55252385 0.6082508 0.46386105 0.93426794 0.61724955 0.10870791 0.2623454 0.13145593 0.49065638 0.47032073 0.20204867 0.46538708 0.3250726 0.6987768
l58 0.14231299 0.0823387 0.7767638 0.25707692 0.20732024 0.4209552 0.57651484 0.28528413 0.052357733 0.8079854 0.5798696 0.65100706 0.0044394275 0.9706269 0.29458734 0.570207 0.01304735 0.37815318 0.24007322 0.40475237 0.82611924 0.4886189 0.08897864 0.23125659 0.68425125 0.9707865 0.44869363 0.9409078 0.06928344 0.54051906 0.54587543 0.45337754 0.039892625 0.6848919 0.06297913 0.5101202 0.851095 0.45900434 0.5568114 0.08688692 0.11878729 0.17110859 0.17873089 0.11174977 0.62089735 0.07819237 0.5875497 0.5456312 0.54487216 0.37945554 0.9458625 0.72535133 0.5958009 0.69090605 0.21592107 0.02724794 0.97769445 0.4549503 0.6914512 0.505777 0.2946257 0.21980572 0.2474438 0.3153388
l59 0.13948351 0.9708257 0.18921876 0.096068725 0.49460927 0.640884 0.090184264 0.5466986 0.6659737 0.91338193 0.813995 0.49164438 0.0610779 0.740516 0.85459626 0.87469554 0.7860409 0.44216704 0.59924674 0.9172561 0.8903779 0.24244107 0.49593577 0.26866534 0.12949185 0.13136403 0.47224584 0.0317621 0.6341801 0.35986993 0.36144692 0.3290368 0.70226216 0.10782625 0.5730529 0.31225562 0.82406086 0.8226585 0.9815661 0.9057784 0.26553857 0.26705337 0.4363411 0.03995928 0.067964695 0.7186915 0.20758773 0.6790399 0.2946929 0.7947608 0.4835358 0.6941323 0.36927533 0.7053462 0.8255813 0.21904674 0.79612786 0.20390196 0.8531399 0.13304745 0.640269 0.89206886 0.9578258 0.38788432
l60 0.99802434 0.87831014 0.85328966 0.18880914 0.5231215 0.84295994 0.9549641 0.83210415 0.31932488 0.86222225 0.8946054 0.84624326 0.03320976 0.8967491 0.7604878 0.7148038 0.17308451 0.23142976 0.65826 0.2710122 0.5326867 0.6064845 0.8405847 0.9548547 0.58424515 0.7803957 0.21992347 0.34916374 0.15861666 0.9956796 0.043104105 0.053503465 0.74429834 0.5561985 0.6749812 0.13746056 0.25579846 0.9639444 0.6010161 0.69099164 0.7459728 0.521531 0.6587818 0.20102726 0.15963665 0.8863017 0.12413783 0.48949376 0.98947394 0.913618 0.7276733 0.8858232 0.8559932 0.8256933 0.19618084 0.65199035 0.8431657 0.23722918 0.9892004 0.9527124 0.10398963 0.39742315 0.55875057 0.18344429
l61 0.71090907 0.7732129 0.54275 0.9100681 0.54185057 0.83222383 0.5182855 0.173879 0.14289922 0.64765275 0.27571955 0.27721813 0.53479 0.39733866 0.77635115 0.44958428 0.92029166 0.93506867 0.26795468 0.95607924 0.9640185 0.8961789 0.54111713 0.7266908 0.76054955 0.6909791 0.1054046 0.88341516 0.7088657 0.8059472 0.973006 0.90800506 0.96063715 0.44518685 0.55188614 0.40232995 0.23904827 0.49441066 0.42118576 0.87971866 0.32419878 0.5412162 0.22943872 0.7082485 0.7570877 0.5500753 0.44161874 0.45451066 0.20200221 0.8733443 0.5384296 0.49970406 0.44854718 0.45423564 0.5860781 0.9594934 0.30791968 0.7634453 0.8047145 0.88369536 0.27443308 0.8623299 0.22733939 0.5458891
l62 0.4533505 0.16324812 0.6858114 0.3573319 0.06981164 0.35500413 0.8965548 0.601039 0.6658088 0.01325737 0.5126131 0.18088555 0.82038575 0.43424365 0.7499612 0.76584244 0.4477389 0.9067122 0.68189293 0.8051983 0.5063588 0.5029715 0.28312817 0.5729367 0.6095056 0.9442873 0.97871506 0.19137266 0.33993447 0.12124656 0.35325062 0.25719756 0.82223636 0.90058964 0.77054083 0.51193416 0.43102413 0.9208397 0.2705938 0.8669674 0.90353453 0.14987457 0.28395402 0.24996781 0.5207223 0.27204388 0.5138979 0.08525579 0.45152837 0.34293893 0.7224012 0.18293482 0.36261958 0.35573983 0.7070301 0.75437033 0.24353741 0.040742707 0.823601 0.2845141 0.32962263 0.083154626 0.32122225 0.92766416
l63 0.33830518 0.90258235 0.21711254 0.7836321 0.8578872 0.06286292 0.26466238 0.4686853 0.3242071 0.5392177 0.21460484 0.11964059 0.17347047 0.7111774 0.70981324 0.52903044 0.25935075 0.31449795 0.3261619 0.8438678 0.9267701 0.75697374 0.9871577 0.35389462 0.7463215 0.6552098 0.5187181 0.58777314 0.57293975 0.041083526 0.91066647 0.49039182 0.10247159 0.2963186 0.14312248 0.6772763 0.529616 0.012785549 0.04130782 0.7673565 0.8668198 0.42328817 0.6856678 0.99430496 0.7256216 0.8818597 0.94752836 0.7983407 0.45971832 0.4726029 0.96190226 0.49421766 0.17397328 0.07984648 0.88957465 0.5772204 0.7095494 0.38902292 0.46861833 0.31459102 0.04043771 0.84209156 0.37715527 0.3602946
l64 0.86271214 0.38708392 0.14661656 0.6553433 0.912483 0.013351389 0.95055336 0.010989772 0.5368471 0.88335097 0.47674364 0.79689354 0.8256841 0.69637847 0.084510066 0.31434876 0.8001092 0.7966973 0.9660279 0.43867812 0.8073266 0.13875197 0.51383746 0.8819867 0.44760287 0.42905265 0.040102012 0.283348 0.6063517 0.10003054 0.7552409 0.6300292 0.47118068 0.27267927 0.070703775 0.22853698 0.80242985 0.8737408 0.66009617 0.9605949 0.42228982 -0.00250033 0.009710393 0.61071014 0.8151516 0.20591244 0.37059736 0.49843013 0.873731 0.40000772 0.6369101 0.3400532 0.17195667 0.65181977 0.21916829 0.96669734 0.75573343 0.2417824 0.15177321 0.66204506 0.87876606 0.67172945 0.33239904 0.9057989
l65 0.85285187 0.044180088 0.96678627 0.3406368 0.7766056 0.06507481 0.40230355 0.10871721 0.10141944 0.57566935 0.65403104 0.6676393 0.51587963 0.19408126 0.4614603 0.22249174 0.0136998175 0.33684522 0.9846618 0.94630957 0.28642413 0.8127491 0.56149036 0.17357077 0.57513 0.18478002 0.0886674 0.74746686 0.28298017 0.7472797 0.24946123 0.6590799 0.57550603 0.72608006 0.42232364 0.9341746 0.80853873 0.85354245 0.84905237 0.61139345 0.50193125 0.5650026 0.21176915 0.6284127 0.38328576 0.9221616 0.98531854 0.01812849 0.62956893 0.13005199 0.07123309 0.3727719 0.11512428 0.793211 0.46820405 0.52075064 0.35184392 0.3804035 0.6194296 0.19161516 0.25474474 0.24575795 0.6989686 0.5849502
l66 0.7538534 0.9139978 0.2519976 0.019908464 0.69381404 0.7684901 0.3409642 0.73421997 0.09343966 0.067876205 0.68381274 0.23184791 0.009294278 0.57020074 0.58527595 0.7611359 0.64455676 0.25223213 0.44668186 0.5835345 0.28991935 0.14238708 0.4831892 0.6346145 0.24050035 0.026850482 0.24314868 0.49317315 0.5856314 0.98369247 0.257154 0.053702142 0.5370257 0.43421426 0.15965363 0.5395613 0.7792224 0.4916221 0.51049757 0.39061528 0.6904616 0.5555116 0.16300651 1.0055127 0.6840931 0.47195807 0.4835819 0.28250006 0.6642589 0.62187225 0.504209 0.42226672 0.39185902 0.23505545 0.14696968 0.27292585 0.56419367 0.33950305 0.57407457 0.6488949 0.536022 0.69707966 0.43212587 0.6135152
l67 0.91362065 0.68850374 0.64460087 0.6874779 0.75019777 0.41811094 0.8079886 0.62439156 0.61446744 0.39903086 0.5392831 0.80280495 0.10193024 0.56865335 0.6105201 0.40774927 0.3157331 0.514369 0.95104474 0.8458669 0.43587667 0.56219816 0.2961224 0.15015675 0.4926354 0.9265043 0.24926089 0.26962 0.20299315 0.52651435 0.5534788 0.3657319 0.15742426 0.18503483 0.76731586 0.37408683 0.3454563 0.7328938 0.28726777 0.6109383 0.78934455 0.6682823 0.16683768 0.4578332 0.5693794 0.84630096 0.43465403 0.01018547 0.0049920343 0.18412489 0.49394557 0.26057807 0.8027857 0.879477 0.4452155 0.9595432 0.096351534 0.50004065 0.89559525 0.22096066 0.88740295 0.009314766 0.316729 0.86286175
l68 0.15435526 0.73920166 0.6990025 0.25053778 0.27687883 0.077761285 0.72883004 0.9598267 0.33223805 0.35272765 0.9789325 0.55306005 0.5459066 0.39929524 0.37262252 0.39236537 0.7612111 0.7824702 0.7568263 0.47111565 0.08357651 0.9075297 0.4934068 0.7413514 0.9851181 0.96579045 0.6210929 0.8707186 0.11964501 0.6678068 0.17118949 0.24793535 0.7664943 0.18639143 0.34476838 0.091829255 0.017779982 0.12618099 0.5089155 0.58077615 0.820223 0.25338188 0.36710674 0.5132577 0.8732223 0.93881303 0.896214 0.330447 0.106096454 0.43167815 0.2881877 0.41813606 0.6881399 0.58158666 0.31740138 0.18318495 0.4648282 0.3357999 0.3538486 0.9722844 0.6379336 0.72150785 0.75691605 0.06902791
l69 0.62182397 0.19506598 0.41261262 0.38368982 0.72319114 0.69721586 0.95028627 0.19077319 0.22714025 0.29556057 0.10963604 0.34961343 0.04262477 0.100203246 0.7272821 0.33145908 0.8922743 0.5908982 0.9005552 0.07574581 0.47127676 0.828155 0.41942486 0.09590781 0.37678564 0.740654 0.72402006 0.34772286 0.7186247 0.58686227 0.70037216 0.6408513 0.56442714 0.1057152 0.61107415 0.36436138 0.15740329 0.6109591 0.03719299 0.5510579 0.21183816 0.65885717 0.4080215 0.32593527 0.9010144 0.18516788 0.45051202 0.7217346 0.4928043 0.32862565 0.7057327 0.8701585 0.09550426 0.60020775 0.9179848 0.7829159 0.55589247 0.6860885 0.43644673 0.9340566 0.14650507 0.64256 0.3258978 0.15232614
l70 0.6757188 0.5912812 0.8195668 0.9567117 0.20673215 0.25424182 0.6785176 0.16266896 0.12194715 0.42879945 0.6669771 0.94476885 0.7497773 0.9049543 0.88878846 0.917184 0.7733089 0.67559373 0.4431834 0.75907314 0.20494127 0.67385066 0.6042874 0.74519235 0.14567208 0.789065 0.23984934 0.21607885 0.23177952 0.5757631 0.3800366 0.30496797 0.40148425 0.52633405 0.73255104 0.17395963 0.9665737 0.5564932 0.30074725 0.67554563 0.36952457 0.8898414 0.9257445 0.36923224 0.3197169 0.9871741 0.079721235 0.060102068 0.45578295 0.85298574 0.5739333 0.9133918 0.8091456 0.50004417 0.14538527 0.8557263 0.12756985 0.71820474 0.04326654 0.93797505 0.4352588 0.3643308 0.7189709 0.8760539
l71 0.16068734 0.68014944 0.8357916 0.45855442 0.13649249 0.25522485 0.33091688 0.81296265 0.26432455 0.7478088 0.16880956 0.64127624 0.42198774 0.18215999 0.53661907 0.45291096 0.73324084 0.25365233 0.2088245 0.32990277 0.26820582 0.8491549 0.9409811 0.71244663 0.25770172 0.17148438 0.7611617 0.583723 0.78567386 0.8962379 0.88823694 0.5038238 0.39778197 0.45191574 0.4901828 0.79147154 0.47798583 0.70226866 0.5807274 0.8800449 0.77749765 0.29780602 0.41970763 0.8441851 0.20820546 0.5151199 0.7036647 0.87481445 0.4032615 0.63790625 0.84087056 0.2815044 0.49102595 0.5786504 0.017832115 0.98961735 0.2754162 0.14940779 0.26269564 0.7842838 0.8396133 0.9357786 0.1750611 0.40865037
l72 0.16832273 0.865942 0.9192768 0.71949446 0.62671965 0.97266215 0.6453396 0.21171542 0.8201754 0.81311876 0.04424777 0.5009098 0.8191286 0.78776 0.04228012 0.015707126 0.8800415 0.029866237 0.5145563 0.2156072 0.0846666 0.50071496 0.33103445 0.6590258 0.97013265 0.54822564 0.7060744 0.53864026 0.12042476 0.75186056 0.4886734 0.3389975 0.79945475 0.6450953 0.73016614 0.3132528 0.18829006 0.36173797 0.7705452 0.4195636 0.19545318 0.2595526 0.6675748 0.16381375 1.0041301 0.7510261 0.41230783 0.8785317 0.7870766 0.93369514 0.7045956 0.8039617 0.05567024 0.2253261 0.24219936 0.36365867 0.8697854 0.11788852 0.31963786 0.94373417 0.7190907 0.088796675 0.85022235 0.18933456
l73 0.32326344 0.98677045 0.31933764 0.30419546 0.09133493 0.44615212 0.13007212 0.45302987 0.28148526 0.9042211 0.09999187 0.18405998 0.72496223 0.4328373 0.5475522 0.56827295 0.68002933 0.4044663 0.65049565 0.6698895 0.37280735 0.9509261 0.23971048 0.31176642 0.9573037 0.3841053 0.8165632 0.86288613 0.9822743 0.87332463 0.8001867 0.1592265 0.049161006 0.6396011 0.50737065 0.9097536 0.38947454 0.33431402 0.35297 0.7094458 0.57482046 0.45186985 0.46150616 0.27352202 0.74706763 0.62935674 0.530668 0.42845803 0.80022204 0.8997579 0.4510083 0.736448 0.12059347 0.35636774 0.35053477 0.09215058 0.8152112 0.60712004 0.42081892 0.88741064 0.58970946 0.83703005 0.04705299 0.7399741
l74 0.764336 0.27859378 0.09115366 0.40597934 0.7995062 0.43152335 0.5452405 0.333427 0.3045033 0.75835824 0.040201202 0.5328937 0.25531584 0.9683457 0.64674294 0.78511786 0.8602716 0.53632134 0.9134541 0.54543537 0.8249606 0.19502369 0.96501464 0.45001718 0.6153167 0.013140171 0.35953945 0.18469393 0.030340085 0.2667875 0.7076244 0.1287047 0.82295144 0.32753518 0.90056247 0.787361 0.27355152 0.50235486 0.69281495 0.15566985 0.6933395 0.3549802 0.4824713 0.79663104 0.03420848 0.6566266 0.9490011 0.81163573 0.59986556 0.7371839 0.3189509 0.36109442 0.5111828 0.8253111 0.62972385 0.22903372 0.51163405 0.3113159 0.35818174 0.27140942 0.039696254 0.4088616 0.37354165 0.77978206
l75 0.7737979 0.811873 0.9968916 0.96150273 0.15904438 0.68428963 0.033401456 0.2473843 0.9099761 0.06554672 0.346385 0.053718865 0.7523147 0.9521311 0.17440741 0.9572281 0.28239393 0.5378132 0.8621188 0.5312882 0.1623602 0.60887086 0.004037234 0.96761143 0.40069237 0.12301042 0.62729496 0.87875915 0.04490546 0.62530595 0.14170562 0.7710839 0.4835308 0.24292286 0.5720114 0.4696712 0.29615468 0.23810832 0.9872906 0.5452122 0.6079088 0.83988297 0.14838849 0.7627364 0.6429189 0.3464647 0.2814495 0.34653622 0.8914986 0.4778758 0.83270025 0.7355529 0.0738719 0.06225254 0.3891817 0.41516975 0.18208668 0.33053398 0.20330428 0.46412796 0.77899384 0.19840743 0.73045665 0.2869879
l76 0.5334159 0.6632732 0.15305975 0.9741022 0.7834306 0.83705866 0.31829664 0.058927417 0.33098432 0.47093764 0.20862052 0.98988736 0.71703476 0.059679143 0.14166102 0.8468488 0.1458112 0.575226 0.38539347 0.3558009 0.23652716 0.6634231 0.116986685 0.9978228 0.2809777 0.15795442 0.014538176 0.6863842 0.4811179 0.9182022 0.9448125 0.3756604 0.3821556 0.9015869 0.0070710923 0.102033705 0.9388348 0.26970053 0.8656171 0.7252898 0.0073870807 0.28053245 0.9499253 0.053662155 0.10848385 0.6240858 0.97145563 0.4484936 0.9463932 0.8311452 0.31205493 0.72071207 0.67855513 0.8449424 0.12853928 0.6393788 0.8581603 0.25226098 0.11707414 0.1569672 0.42578954 0.8434956 0.582692 0.46923184
l77 0.65942454 0.94664156 0.61412525 0.3651386 0.035167236 0.209135 0.34567645 0.32897562 0.45642504 0.06324565 0.6600371 0.88516676 0.19029804 0.3973997 0.23578404 0.2936054 0.9458558 0.65992814 0.48202595 0.6293014 0.14960444 0.0064317514 0.40493557 0.5602037 0.090749726 0.49493295 0.69581085 0.19033052 0.11663909 0.3167514 0.59960234 0.28748003 0.22976683 0.30192524 0.37618163 0.1897898 0.43887419 0.16497453 0.9368421 0.4683231 0.697426 0.78744817 0.61821574 0.18224463 0.9917949 0.24652304 0.4836469 0.8191795 0.80029833 0.7192493 0.9619867 0.439851 0.33004317 0.7489971 0.33971003 0.10376249 0.6949716 0.26881963 0.36837453 0.6484787 0.787262 0.76516336 0.46915853 0.70120496
l78 0.62577915 0.59541434 0.99897176 0.353159 0.9249388 0.15858984 0.7645965 0.5495786 0.5880009 0.38575926 0.5002024 0.9121339 0.32752502 0.6359265 0.26924965 0.70724386 0.074605234 0.31367415 0.19201691 0.982581 0.2951406 0.6915401 0.5738535 0.55739874 0.024345724 0.28493336 0.102287605 0.48893636 0.40727448 0.42709425 0.09712451 0.6419599 0.5138955 0.7547478 0.0547087 0.76788574 0.8238853 0.4441112 0.27765605 0.67972755 0.18571702 0.40496022 0.9481047 0.390109 0.84418035 0.1348512 0.6938149 0.2490049 0.18152247 0.65496165 0.65641856 0.31232953 0.40288398 0.97883564 0.117581725 0.36904627 0.21541248 0.5953597 0.27265248 0.19376719 0.8500602 0.5278483 0.7038177 0.10913774
l79 0.4454841 0.46588206 0.838106 0.3569385 0.85874337 0.32401747 0.880793 0.7465753 0.96680605 0.7023913 0.42217708 0.55535954 0.8416872 0.90874386 0.56518507 0.8823427 0.28659928 0.052382447 0.6552413 0.52392334 0.68632364 0.3033802 0.028050924 0.104678914 0.23091346 0.24329774 0.7713496 0.9169165 0.22995335 0.90211713 0.10894071 0.39461893 0.4420321 0.3290488 0.2722271 0.83617383 0.4251744 0.8335911 0.39020762 0.87687004 0.7390864 0.48335284 0.6846531 0.03633586 0.22256742 0.82250726 0.108641125 0.44826144 0.39607924 0.26277816 0.24769971 0.7253448 0.60390174 0.11630979 0.061837107 0.11640315 0.44417948 0.6327421 0.93199986 0.6969748 0.4943671 0.5616835 0.91125005 0.9511632
l80 0.22339055 0.76204413 0.8838566 0.69637704 0.30175722 0.6065098 0.50290763 0.8628292 0.29981536 0.830949 0.5418274 0.7254884 0.5576589 0.85542095 0.4622353 0.024358304 0.50298506 0.80888027 0.5993646 0.010117971 0.6338094 0.64204717 0.75986886 0.93525726 0.76989675 0.7097013 0.94455546 0.8160129 0.47509214 0.20017205 0.8746587 0.86934036 0.41953152 0.4822841 0.4328488 0.3522898 0.63978213 0.093732096 0.26333228 0.4345544 0.048775166 0.4074693 0.22219667 0.73987335 0.23464379 0.9813537 0.83110803 0.29378352 0.6978122 0.83879757 0.92143077 0.8780615 0.9428045 0.7400908 0.8367892 0.059496135 0.25768557 0.96750176 0.8303014 0.5143896 0.29496634 0.77135617 0.48959196 0.051519394
l81 0.024572248 0.009459298 0.524303 0.43846574 0.044491325 0.37296167 0.39311653 0.49172336 0.33946472 0.91719717 0.24670966 0.3509389 0.22175398 0.778273 0.85297143 0.95137644 0.9633837 0.1268623 0.88946384 0.6918069 0.7567299 0.51733685 0.53376156 0.5822611 0.93037 1.0008256 0.101039164 0.8346785 0.25600255 0.3137547 0.62153363 0.8452975 0.5229697 0.9735658 0.13593571 0.7556554 0.9364984 0.23389773 0.5875564 0.6398948 0.8674601 0.76651376 0.882184 0.011936063 0.3089552 0.525049 0.7370494 0.12450332 0.46176082 0.38069382 0.040160716 0.43109936 0.63070357 0.36413574 0.049624935 0.2909305 0.7699259 0.47253752 0.86594903 0.85117567 0.9974008 0.8207658 0.38401425 0.34400356
l82 0.10017346 0.44826 0.5331819 0.05832876 0.20665659 0.22035299 0.7534443 0.21897009 0.12999056 0.91574126 0.35956368 0.51310796 0.09881886 0.92947626 0.5699042 0.33137602 0.105969906 0.99415016 0.8264372 0.93748444 0.7785493 0.054412864 0.16840184 0.528505 0.2415564 0.54801935 0.89394236 0.015627503 0.5647249 0.4183409 0.37315586 0.9036342 0.29192573 0.3636267 0.13773127 0.42199686 0.39456183 0.2565974 0.055887025 0.9718262 0.8926977 0.3756003 0.4695614 0.49797067 0.07329081 0.15759857 0.23591222 0.95387197 0.72660005 0.9345445 0.48619565 0.32118317 0.86308044 0.22816499 0.04566703 0.28818214 0.35906914 0.36676624 0.75400746 0.7969511 0.48777422 0.4466719 0.8417435 0.50333625
l83 0.27855626 0.120052814 0.99105066 0.17171957 0.5484747 0.47562456 0.387286 0.17265956 0.14548545 0.3677394 0.6428284 0.19676906 0.12814474 0.757795 0.43720302 0.021747595 0.5333313 0.9389055 0.5040441 0.53598726 0.2489002 0.26198456 1.0036706 0.25521222 0.31243035 0.7961539 0.6691392 0.88222575 0.41516 0.3329656 0.9810606 0.6353666 0.13759512 0.24711516 0.7359355 0.46008223 0.6005201 0.588361 0.06259131 0.38913053 0.51822793 0.06835871 0.7975347 0.13761307 0.6187153 0.7785767 0.27609512 0.5960748 0.9079962 0.20488773 0.35689738 0.07635865 0.8733965 0.7770301 0.908787 0.34717816 0.9476903 0.7185326 0.30109864 0.71846884 0.5639818 0.7332329 0.8501916 0.5999604
l84 0.31126565 0.8649098 0.48629776 0.197391 0.28919676 0.19172108 0.68348414 0.83291703 0.56202596 0.06279264 0.60886997 0.8338358 0.0962912 0.2487398 0.8114004 0.19919965 0.5755635 0.07668532 0.84706485 0.7224306 0.27492452 0.57129747 0.6824209 0.73330474 0.8493205 0.6190263 0.18831281 0.9746177 0.8504197 0.1799147 0.9865713 0.04817421 0.3319359 0.11464795 0.2741168 0.08532367 0.66124046 0.0290851 0.63862777 0.75529546 0.4925277 0.2112195 0.5463803 0.93357193 0.47540513 0.45369837 0.539102 0.7494406 0.89477414 0.7759828 0.77415925 0.29283085 0.016230915 0.37632796 0.29624775 0.7057282 0.35177833 0.5182326 0.51036024 0.349006 0.99116457 0.88132274 0.72459966 0.679196
l85 0.26962036 0.28035176 0.28448865 0.32545194 0.44929338 0.4368856 0.8516388 0.3071485 0.74113566 0.3580507 0.40908757 0.11428552 0.09097725 0.4024854 0.44740438 0.21723698 0.5542274 0.7272161 0.42956683 0.06910803 0.1568213 0.44205523 0.65846306 0.7813305 0.6761352 0.009563863 0.124803945 0.4378343 0.21317282 0.88645494 0.3482636 0.16807891 0.29752427 0.6718941 0.26519433 0.5039813 0.80717826 0.5552927 0.43115515 0.6527567 0.71462137 0.8343542 0.11556596 0.71793354 0.23976995 0.5973143 0.90384036 0.8491916 0.7498965 0.58514297 0.9427408 0.55912936 0.3669027 0.5250102 0.47355592 0.09907858 0.28339717 0.44896415 0.8781772 0.551015 0.42825478 0.93077475 0.526365 0.12790647
l86 0.072394446 0.13725562 0.9970625 0.89056015 0.9823512 0.8384711 0.12375403 0.89055717 0.21193932 0.5952065 0.23842695 0.20968921 0.71391714 0.16417257 0.316676 0.5178334 0.54841304 0.10009836 0.30822065 0.059591345 0.30607545 0.20609072 0.7565253 0.6235396 0.21895254 0.053501736 0.8277787 0.6253565 0.15848629 0.66751075 0.641191 0.67857695 0.5449033 0.4557954 0.5314958 0.8204383 0.22248426 0.041979063 0.082674034 0.79007673 0.47527263 0.5280524 0.44523603 0.040092222 0.35769328 0.7166644 0.05649786 0.1921439 0.0046650777 0.942064 0.38845956 0.5626694 0.7559833 0.7083403 0.061526638 0.47092012 0.37428698 0.66573817 0.7476377 0.42977718 0.55549014 0.58385646 0.12920415 0.5153517
l87 0.2417704 0.3841669 0.19140975 0.9619985 0.3293027 0.44769907 0.11564411 0.34634328 0.3299044 0.87920004 0.50776076 0.9007851 0.43249762 0.8684293 0.6979554 0.563849 0.60369784 0.8668226 0.17847316 0.021754248 0.2074009 0.61910826 0.98918414 0.25540185 0.73036164 0.4621762 0.64096344 0.50505674 0.37322396 0.31754088 0.20436959 0.7305613 0.5450573 0.048135497 0.78482234 0.5864558 0.25487217 0.19977212 0.5227607 0.04719717 0.03649012 0.012535562 0.8915447 0.64374876 0.3397727 0.07664581 0.016322821 0.93598074 0.6469493 0.068319544 0.4141204 0.32647237 0.10755994 0.800512 0.30001482 0.48729306 0.8565201 0.5840457 0.4932429 0.21310185 0.426093 0.3902738 0.40512598 0.00998338
l88 0.46236542 0.38243145 0.25555623 0.19023696 0.62730783 0.6575096 0.8974654 0.7745307 0.015015145 0.56134886 1.0031955 0.8639242 0.23016559 0.48677015 0.95346516 1.0032176 0.24168666 0.8002938 0.57259065 0.22102301 0.6254921 0.8208076 0.7811773 0.02886414 0.8658694 0.4964514 0.73445 0.6896681 0.75963825 0.09826136 0.7249052 0.4232018 0.6073759 0.42392844 0.059978623 0.14497276 0.19125843 0.9155835 0.15512593 0.48155972 0.14677362 0.26876506 0.7924253 0.10311679 0.105047636 0.07365428 0.09002964 0.53791803 0.7191688 0.57708585 0.47406942 0.81464154 0.46258754 0.49160445 0.32807976 0.12983574 0.6150693 0.64701456 0.08039138 0.53766805 0.36024 0.7164561 0.10501677 0.68588805
l89 0.9838099 0.9839992 0.63107294 0.7049775 0.41630092 0.5249137 0.023506947 0.5061258 0.67241234 0.15519112 0.76396513 0.5791279 0.6049399 1.0009066 0.5783577 0.40228793 0.43864313 0.52007943 0.7905265 0.32495347 0.9599199 0.074465096 0.5746565 0.7248361 0.1142609 0.75170916 0.3505861 0.99787843 0.89883465 0.048148096 0.6892865 0.79099834 0.123195715 0.32397658 0.1778518 0.2129786 0.40591416 0.12508066 0.9463154 0.38739702 0.21184291 0.7630252 0.779567 0.399136 0.33136302 0.28801876 0.20711507 0.22256367 0.07602173 0.080247186 0.9924643 0.18309905 0.054842994 0.22932613 0.08142742 0.6292464 0.55203915 0.09605308 0.20057827 0.1601344 0.70739925 0.4126574 0.3383466 0.37621087
l90 0.91197395 0.83163583 0.45344 0.57515806 0.22623406 0.25703996 0.4720297 0.77338153 0.49473518 0.24736491 0.6282481 0.43901816 0.72484004 0.11118581 0.07463281 0.6863446 0.31828827 0.011819141 0.6628318 0.6661056 0.47150952 0.07151115 0.47779548 0.28023443 0.027710127 0.5134839 0.1003983 0.8418537 0.01503326 0.4260232 0.31677586 0.9120903 0.43397272 0.8176321 0.37775356 0.03653143 0.027201526 0.12817058 0.55928683 0.19024621 0.06458341 0.67229766 0.63327324 0.5971993 0.6346488 0.6788752 0.7901661 0.042291895 0.70723605 0.9142032 0.6026311 0.7457885 0.08342519 0.58053404 0.9346052 0.44613042 0.73470116 0.2565842 0.49089617 0.31599072 0.591954 0.43787292 0.77614397 0.12813316
l91 0.73842406 0.19216411 0.818245 0.16798517 0.005557699 0.3333046 0.29604787 0.045813274 0.96025693 0.16589533 0.1822277 0.1408889 0.01042927 0.6199624 0.874738 0.7417954 0.77919465 0.50784373 0.1772813 0.39848414 0.935482 0.026885213 0.35965008 0.16712634 0.92354846 0.07552336 0.16098052 0.75039476 0.30546957 0.42122096 0.0864608 0.8965738 0.70650315 0.6409404 0.67198104 0.5116742 0.77405506 0.6314159 0.24363531 0.50675094 0.11196789 0.49283028 0.30453378 0.047451854 0.34717613 0.67366725 0.25178152 0.857893 0.5933749 0.5941284 0.16026351 0.87983084 0.40901104 0.83987737 0.5853791 0.9222452 0.7053892 0.9068228 0.6329803 0.9347401 0.5087005 0.42910632 0.20104688 0.9291357
l92 0.82923317 0.6884035 0.61011136 0.53406 0.7890836 0.49840805 0.054725923 0.072401546 0.045035865 0.6727381 0.9902579 0.57956886 0.69443583 0.016234417 0.3305003 0.018560873 0.043118224 0.12109069 0.53778696 0.19812374 0.659889 0.9758931 0.86289185 0.28538024 0.22999908 0.64348423 0.12903422 0.24763891 0.7411843 0.12516126 0.07956723 0.08884086 0.9577502 0.19972749 0.7033461 0.8389112 0.44575197 0.106896 0.9056142 0.14049742 0.682212 0.5350319 0.42891333 0.75271696 0.4373935 0.06794184 0.2799822 0.59148103 0.14250953 0.23301573 0.25222406 0.049155112 0.2419922 0.34984794 0.9015455 0.9853285 0.6578466 0.19961411 0.47097898 0.8897689 0.1303538 0.83788806 0.44644177 0.6935965
l93 0.21681687 0.9807651 0.5752027 1.0018245 0.32485825 0.16538516 0.12139766 0.39174345 0.72933835 0.8346132 0.23539501 0.8658107 0.2308418 0.90126973 0.51630074 0.029275162 0.21405128 0.55463314 0.034895416 0.39659718 0.75714344 0.4859222 0.8855041 0.15819554 0.04279164 0.54157084 0.3522555 0.116451606 0.6435012 0.45544913 0.36021948 0.67541385 0.49776256 0.38741344 0.20544262 0.14901467 0.008273158 0.3350954 1.0033286 0.72522175 0.66350716 0.3180361 0.4032448 0.2744953 0.7414088 0.7288965 0.52188385 0.11522131 0.6220458 0.15717606 0.9613909 0.35032323 0.52504534 0.88801706 0.48662084 0.4276867 0.89765483 0.08877838 0.84320366 0.24377035 0.49828142 0.073160306 0.79408294 0.27370867
l94 0.58759004 0.33327943 0.43792647 0.038560312 0.54731095 0.231369 0.1682064 0.24935816 0.21537484 0.81470186 0.66308 0.7831641 0.12675641 0.09822387 0.15816937 0.4053818 0.21186586 0.97984964 0.282743 0.39674428 0.061631978 0.80644614 0.6749398 0.29747102 0.3499614 1.0041751 0.29374158 0.2008916 0.679533 0.75359136 0.122505575 0.90970874 0.8111313 0.14236985 0.6639949 0.9924093 0.7672973 0.35668936 0.54697794 0.6190514 0.13717023 0.77804554 0.7404797 0.86716014 0.3655247 0.8250191 0.73300076 0.25007072 0.25511372 0.516369 0.4985237 0.89517796 0.36620376 0.74104166 0.12623802 0.1054168 0.6235759 1.0037591 0.8152184 0.78184736 0.78906584 0.71082306 0.44583622 0.40393075
l95 0.55743587 0.052204918 0.6037111 0.69527316 0.45755574 0.46490496 0.5681921 0.6421549 0.65423834 0.12714309 0.14289388 0.095326036 0.8768859 0.4896781 0.74087405 0.5020143 0.30491877 0.945541 0.6715512 0.49183682 0.37884748 0.04769458 0.0244605 0.9984011 0.3290519 0.8752104 0.26250073 0.19495368 0.6649706 0.09360822 0.2042424 0.5135463 0.73559165 0.4525569 0.44778678 0.027964799 0.96385396 0.4534089 0.91359377 0.24974893 0.3960205 0.5800433 0.15658672 0.08304499 0.8070748 0.20205331 0.13658153 0.40530467 0.6558267 0.22686471 0.88829464 0.7523701 0.6456888 0.78406 0.35877073 0.4661822 0.14143799 0.5379912 0.5307416 0.28437486 0.9995172 0.8778328 0.23607332 0.61261094
l96 0.6962233 0.45397505 0.48583165 0.431411 0.7177169 0.53332305 0.394886 0.19413882 0.600859 0.041583717 0.8340417 0.2323256 0.109833635 0.5173949 0.9053432 0.26782337 0.60585105 0.44675148 0.52535343 0.013648517 0.7644864 0.9570424 0.072438605 0.25542015 0.9003281 0.095632754 0.3929339 0.27376306 0.5267503 0.4734831 0.0655984 0.756861 0.026012793 0.4614436 0.87830454 0.21075837 0.89259064 0.4902841 0.32066697 0.76523054 0.41504732 0.93364954 0.25285026 0.23157994 0.8671672 0.30459473 0.2281255 0.084045164 0.5133326 0.6375038 0.74564487 0.42845258 0.024280753 0.10925514 0.5781268 0.8942116 0.9476574 0.63210946 0.44053993 0.7410727 0.64439106 0.3467676 0.8929531 0.5689394
l97 0.7483501 0.388386 0.6967241 0.93520725 0.41793713 0.23954958 0.18098141 0.52887416 0.5956362 0.59707767 0.5030022 0.18902396 0.9587067 0.77629334 0.45994642 0.27311882 0.9867606 0.2748775 0.11131012 0.24716006 0.018124186 0.49553442 0.1281153 0.5929462 0.5838323 0.5403068 0.5190499 0.512094 0.7525053 0.99646676 0.602057 0.2774048 0.20829369 0.57616365 0.39854303 0.82613146 0.17249535 0.30724004 0.2518989 0.06822784 0.497418 0.7276239 0.22663538 1.000712 0.1559771 0.3171728 0.25552922 0.33075014 0.42932898 0.47309422 0.96395147 0.3156956 0.97705305 0.2697064 0.4605299 0.38151726 0.27781498 0.48399472 0.9763194 0.28009328 0.17868325 0.0057056174 0.17652927 0.45475608
l98 0.7351697 0.5095346 0.308337 0.33346778 0.10096846 0.50047594 0.05361217 0.6466167 0.4434317 0.7341337 0.0957342 0.08183109 0.122107476 0.60052574 0.55216074 0.512159 0.32587802 0.27080497 0.13240585 0.9274799 0.9781914 0.35354853 0.70425874 0.38968042 0.87672424 0.79592276 0.59149355 0.554273 0.79756725 0.09129353 0.74582094 0.85342866 0.64729935 0.657198 0.019446746 0.27648997 0.44437858 0.831428 0.88490963 0.90597844 0.059452057 0.7068468 0.6217807 0.1555835 0.08189756 0.8694707 0.9058709 0.3329871 0.6656238 0.036136404 0.76214296 0.69097936 0.336089 0.21038058 0.10199967 0.6603434 0.3955913 0.7728544 0.24805944 0.78778446 0.20113283 0.57704467 0.9608623 0.5756138
l99 0.56188434 0.8208427 0.6349329 0.7209177 0.3823349 0.7524962 0.08680352 0.3026634 0.9535127 0.07058228 0.32852897 0.8631935 0.46535364 0.9189227 0.6131868 0.28405547 0.7712689 0.84914327 0.8074486 0.14283274 0.4113059 0.75971985 0.8198957 0.7379424 0.83715975 0.74765897 0.5732783 0.35135984 0.60869765 0.46523708 0.805215 0.54136324 0.4166837 0.46199864 0.54452497 0.7636832 0.24158941 0.10420082 0.81986505 0.8944738 0.069476806 0.035515375 0.07109227 0.4291935 0.73239076 0.09231242 0.87207437 0.61433387 0.33478943 0.41556945 0.67532194 0.055367112 0.61880255 0.18928032 0.31354824 0.48998073 0.7938205 0.24256395 0.31325576 0.27500117 0.2903012 0.9703722 0.3643016 0.5153588
l100 0.36932412 0.114063196 0.449682 0.29766455 0.65585935 0.8629288 0.2226759 0.03031284 0.09519371 0.50319105 0.8274314 0.76884246 0.7832511 0.11546667 0.5599412 0.6194211 0.09509236 0.9049108 0.608867 0.62199616 0.37897673 0.20589615 0.7819768 0.9400275 0.6623352 -0.0012504612 0.72527033 0.478317 0.5993074 0.7260912 0.49743876 0.6235345 0.34570333 0.66322565 0.92941386 0.04902792 0.9726808 0.6928117 0.24453482 0.20257978 0.0116207795 0.8197129 0.1982647 0.8636737 0.68384933 0.67865485 0.034845162 0.57085186 0.9903936 0.94890255 0.16114068 0.61739796 0.92464876 0.95507336 0.019060634 0.31819162 0.49122757 0.91784114 0.09646409 0.20366845 0.11723711 0.22587489 0.63873816 0.5161704
l101 0.18792883 0.15458989 0.8290519 0.6737916 0.4403135 0.026077708 0.9538935 0.11507323 0.43270603 0.57890856 0.45412636 0.7136745 0.38615334 0.8437956 0.58321255 0.6214248 0.79932684 0.2441837 0.07000557 0.78860444 0.92014116 0.5721028 0.423362 0.23993984 0.865689 0.93120384 0.6619229 0.25377387 0.34687957 0.30201215 0.56044674 0.6848362 0.7302931 0.8769649 0.47774476 0.31760648 0.08229543 0.3526923 0.737364 0.49292582 0.2050291 0.43935955 0.49444696 0.2666765 0.09053139 0.4792414 0.7317705 0.22416621 0.27888933 0.47836316 0.12965362 0.16560254 0.9842006 0.9662147 0.97004 0.020888094 0.20902024 0.7138709 0.2554209 0.4859573 0.78234947 0.23756059 0.39639562 0.4307931
l102 0.83116204 0.3840823 0.2736858 0.6070323 0.5081072 0.75342196 0.56041914 0.7700357 0.15998547 0.8951906 0.4316943 0.37615302 0.4773458 0.847864 0.9419303 0.7521253 0.37002727 0.16588886 0.27938986 0.90779537 0.0035789749 0.1941175 0.12685087 0.30868712 0.15575439 0.64199036 0.024204403 0.8901312 0.16201356 0.34412485 0.8462969 0.39817795 0.003812018 0.5740582 0.45905358 0.54396117 0.9207602 0.90768605 0.5516406 0.36486083 0.64838076 0.49271277 0.8443687 0.37719402 0.92658657 0.052369446 0.95109284 0.19383927 0.31742677 0.8532089 0.56240267 0.049412027 0.61063945 0.5897677 0.43027362 0.75648266 0.38320377 0.19240731 0.6453905 0.6664094 0.28163877 0.5039096 0.90083194 0.22695188
l103 0.85147214 0.21496262 0.38159743 0.90994745 0.31577754 0.07204162 0.09488833 0.7333068 -0.0007646127 0.24314365 0.55344486 0.11317369 0.0597022 0.18931292 0.31876925 0.46668595 0.2634226 0.10352243 0.7242376 0.86891395 0.27621967 0.25880545 0.6780623 0.31644243 0.78937083 0.9728258 0.59306455 0.7161951 0.71066606 0.47976944 0.038541548 0.77351385 0.65055466 0.53145444 0.2451328 0.8094074 0.9913411 0.49008065 0.08395832 0.22021565 0.7464682 0.87671167 0.26707968 0.35693127 0.74327344 0.08528961 0.039943486 0.5792449 0.076357976 0.29533917 0.01196699 0.8725508 0.43114954 0.37778342 0.2556782 0.4244921 0.8311942 0.82225114 0.2607666 0.75541407 0.5984299 0.86666125 0.10505485 0.58714634
l104 0.16017427 0.6455041 0.61413836 0.9352903 0.8300882 0.5270668 0.06381973 0.89415574 0.5614191 0.5752719 0.5025102 0.124291 0.26906085 0.22860557 0.9044897 0.028203327 0.011981849 0.88367575 0.12734461 0.94417393 0.5249327 0.39033252 0.74421155 0.14060096 0.67917234 0.9496576 0.29202145 0.24567449 0.16936788 0.21143807 0.73107785 0.17137495 0.64127845 0.6416267 0.8692777 0.5823252 0.78407824 0.622592 0.22953315 0.16693532 0.18139254 0.83085966 0.4909203 0.8143782 0.8273055 0.45233056 0.9188807 0.48332354 0.2970143 0.46267104 0.35118082 0.8961427 0.6037973 0.11654659 0.6332032 0.27306482 0.20343047 0.17083952 0.812393 0.71946853 0.57004356 0.2647123 0.23248373 0.88513535
l105 0.24414252 0.72450286 0.03791234 0.6654736 0.6829332 0.52640516 0.3176317 0.51002425 0.36611524 0.38716295 0.6208122 0.05144944 0.18201862 0.9437203 0.6173086 0.89343965 0.9408056 0.0508486 0.21259792 0.7366778 0.7476402 0.26977473 0.8343747 0.08971708 0.0738225 0.90403056 0.8608244 0.415815 0.84882426 0.30792385 0.40687445 0.77986115 0.4669451 0.6453845 0.66863394 0.70036536 0.39228308 0.27940565 0.18049563 0.53064483 0.2564743 0.93947786 0.8853174 0.16931766 0.66914135 0.54152066 0.22630936 0.9502514 0.06777758 0.31260434 0.4961796 0.829536 0.5006879 0.14783235 0.6411904 0.8310748 0.97463006 0.87421805 0.7232242 0.61801314 0.70635396 0.8719198 0.50992644 0.102915585
l106 0.78850985 0.13961801 0.41975084 0.19411752 0.12997143 0.83083206 0.4924181 0.8562607 0.004401657 0.7163092 0.1552659 0.92631394 0.008921495 0.9774013 0.08054887 0.9643572 0.3393809 0.8895699 0.39984408 0.44715843 0.85777324 0.836465 0.99519277 0.952064 0.9135924 0.8107155 0.72369224 0.13126068 0.29096872 0.6359938 0.6933856 0.5950799 0.73276865 0.81991047 0.30307022 0.47420123 0.28672227 0.7378151 0.38551202 0.94029975 0.025827058 0.26142424 0.014727525 0.9663355 0.95927995 0.06294842 0.7363532 0.22958463 0.6375179 0.42041457 0.02866326 0.80360246 0.661214 0.9811368 0.75233287 0.9747991 0.17865886 0.08283079 0.3617397 0.37469423 0.52257425 0.67483246 0.871071 0.79017776
l107 0.79300123 0.13225935 0.14813495 0.61573553 0.60508925 0.2869085 0.2224505 0.500566 0.37609753 0.64496243 0.43609253 0.40150034 0.029505117 0.54776955 0.644839 0.90673345 0.15269478 0.52432084 0.6858386 0.74944234 0.52640927 0.86199963 0.61948055 0.9986844 0.55072093 0.36300924 0.6070881 0.055984527 0.30744913 0.9931188 0.37057036 0.34720853 0.16763902 0.8801686 0.5068154 0.10211791 0.5935031 0.15551732 0.13704492 0.2375615 0.8734323 0.6869663 0.26707956 0.04659189 0.3862181 0.938525 0.95149344 0.90192616 0.401693 0.62746733 0.018797927 0.9157824 0.01876058 0.5672747 0.37097207 0.15717302 0.31686237 1.0084544 0.8082567 0.8366963 0.92867243 0.35904127 0.1549482 0.35166493
l108 0.7351937 0.290066 0.22090335 0.2918315 0.07258768 0.6133014 0.7907709 0.435341 0.048348103 0.14293943 0.66039443 0.3512643 0.1427416 0.45028284 0.3922112 0.56982595 0.9893002 0.5883718 0.9843279 0.49168527 0.14604312 0.43967292 0.7807866 0.7837129 0.7151217 0.18693992 0.19497362 0.10595446 0.2786014 0.09356817 0.66931605 0.4440884 0.803457 0.22537468 0.97278506 0.4783385 0.4343762 0.8532493 0.28196684 0.084998064 0.010321695 0.818763 0.68031114 0.21509448 0.06427716 0.97738576 0.054690637 0.22902292 0.006409626 0.86907667 0.23404913 0.74510765 0.12034655 1.0016398 0.9163371 0.9832084 0.90353477 0.3257088 0.7783122 0.66100246 0.14212878 0.5819778 0.7085658 0.12932244
l109 0.07363413 0.80646014 0.9269981 0.3210069 0.651485 0.97473544 0.97375757 0.122141495 0.41894 0.8471644 0.57365197 0.7433315 0.9741071 0.089527845 0.43177477 0.4751822 0.2764766 0.76448625 0.37454674 0.9485395 0.5585966 0.67619634 0.19218013 0.22608465 0.84130055 0.41290167 0.6639356 0.8914539 0.10972581 0.9774109 0.9446638 0.6113009 0.18491365 0.34294727 0.98422265 0.6518645 0.6470132 0.7868747 0.7802919 0.9111713 0.08755792 0.6818307 0.27177188 0.079571545 0.04497726 0.059220318 0.26778662 0.80965894 0.06334576 0.6241378 0.7141724 0.28483257 0.1892174 0.5542781 0.55706275 0.9666143 0.27436024 0.9754163 0.7106188 0.30460247 0.32198068 0.69095325 0.5265089 0.91998667
l110 0.9483734 0.9061163 0.3329793 0.87340057 0.91668063 0.5310294 0.0043446263 0.37095597 0.5089823 0.7788111 0.26553285 0.19763714 0.058795594 0.39347008 0.589188 0.10478714 0.042909995 0.15231074 0.66525966 0.4843516 0.5977905 0.70390517 0.11233418 0.5910995 0.5351984 0.8945718 0.12756987 0.81341237 0.808012 0.99016947 0.53991437 0.5006793 0.046069086 0.46474838 0.7489171 0.12511177 0.99103487 0.94889057 0.6977096 0.32429045 0.06124748 0.57757473 0.9114022 0.37267318 0.3197469 0.57380855 0.799884 0.92784715 0.67173314 0.20983838 0.35014778 0.7149337 0.58620113 0.3791488 0.05650796 0.5425531 0.27885053 0.061285216 0.21181917 0.1066401 0.88206565 0.6421385 0.5188991 0.8099891
l111 0.98420113 0.35220104 0.9664173 0.61300695 0.46490973 0.6299395 0.17554307 0.9317373 0.29844013 0.75678843 0.8034046 0.9892121 0.3220953 0.3626422 0.32390195 0.7624233 0.13497116 0.009109274 0.33176592 0.942209 0.3815468 0.58468056 0.5340563 0.057364956 0.2986683 0.18924937 0.18669705 0.25476503 1.001484 0.141853 0.8338725 0.38084283 0.61713415 0.43433797 0.26801804 0.79955775 0.9590743 0.35614455 0.4842963 0.10922401 0.15433821 0.5854394 0.5940293 0.45235178 0.897941 0.11910845 0.5202806 0.48699766 0.16994318 0.36951786 0.3528796 0.2186409 0.91039026 0.2302051 0.7881892 0.8183632 0.5982271 0.6442919 0.30029556 0.4257485 0.90186894 0.83739537 0.55501616 0.47901785
l112 0.8299164 0.1748551 0.94494104 0.036634233 0.27040905 0.7799003 0.22013474 0.7674753 0.20663075 0.34964213 0.80675364 0.34934488 0.88258976 0.5945777 0.9775946 0.23342052 0.29839972 0.51205724 0.5516498 0.4737357 0.8072769 0.32266292 0.5142011 0.16317125 0.23543768 0.392532 0.986618 0.6232165 0.61372215 0.2130736 0.27526602 0.96578944 0.8192875 0.97831583 0.789476 0.94675845 0.081237435 0.36341658 0.34800267 0.10961811 0.20915659 0.11873717 0.21875878 0.63502944 0.30746922 0.7041173 0.37376413 0.45757508 0.65047663 0.009746009 0.64772075 0.4787314 0.5530598 0.4344495 0.25302067 0.43198618 0.61607176 0.026181227 0.98248225 0.07218251 0.91213787 0.66834784 0.35639262 0.77316326
l113 0.6038078 0.07451254 0.3316908 0.16395836 0.7737452 0.2980951 0.75535613 0.23108235 0.49943325 0.974087 0.25331038 0.26790097 0.7159292 0.11204284 0.50299215 0.053282287 0.027129008 0.6639182 0.7388117 0.35076323 0.2775893 0.44005483 0.46326014 0.9203516 0.10780929 0.30502367 0.9733453 0.70277935 0.35896793 0.6436496 0.28843507 0.8242995 0.93086046 0.5356318 0.40955982 0.9349699 0.6392892 0.34134236 0.6534092 0.2687678 0.83674407 0.3862244 0.6685295 0.57648283 0.96875304 0.6494222 0.0740165 0.91948295 0.8464583 0.7907322 0.25205874 0.3397223 0.68896943 0.6237353 0.0323972 0.58443046 0.51655036 0.51762205 0.20386757 0.4620933 0.21321045 0.42050967 0.4650988 0.28643742
l114 0.99487364 0.95836467 0.79499006 0.6802369 0.0813594 0.8840627 0.6645223 0.62119657 0.47960964 0.3761273 0.59192103 0.13060863 0.7657445 0.81973904 0.71162534 0.079335205 0.1816791 0.47723603 0.11608616 0.94780505 0.118191816 0.21028668 0.913507 0.8158793 0.93308115 0.75560355 0.022639526 0.80154705 0.9657701 0.13092217 0.40759456 0.8093882 0.81444883 0.007913403 0.77440494 0.50288564 0.51391715 0.7765998 0.09345513 0.26342604 0.1400571 0.5785778 0.85840505 0.33451355 0.32963318 0.38823196 0.19725776 0.60526615 0.7012624 0.16798988 0.49204716 0.23935923 0.98230857 0.9591616 0.47075102 0.5408839 0.6141176 0.78590196 0.9867641 0.78843445 0.18245961 0.12043564 0.85263586 0.7611587
l115 0.38948503 0.26495788 0.8487679 0.20671058 0.27418223 0.5592421 0.77116996 0.93237877 0.37140083 0.43135995 0.53392535 0.15550181 0.12400942 0.40299326 0.44535893 0.89404535 0.2967387 0.37411457 0.91540176 0.29547694 0.499179 0.5617358 0.48371363 0.005623761 0.19876865 0.35841823 0.6173795 0.1686293 0.8292023 0.1601642 0.97046685 0.9202262 0.7318938 0.5188088 0.1993299 0.5750813 0.9844558 0.9080908 0.4121084 0.89410764 0.7454179 0.15769917 0.15385614 0.061604153 0.7523227 0.5239434 0.27467078 0.8484213 0.12650464 0.7442892 0.5921434 0.48634014 0.51383746 0.035267282 0.4912789 0.33692196 0.4540004 0.34923005 0.32553682 0.50483185 0.45201752 0.65212035 0.24783967 0.53272325
l116 0.5859364 0.8266239 0.10785074 0.38272902 0.5703776 0.7082173 0.33067688 0.9362963 0.6216891 0.34754592 0.71545047 0.8695752 0.17796469 0.93895394 0.6962993 0.2842034 0.16440652 0.18610612 0.5180142 0.2909739 0.630042 0.83363026 0.7805718 0.29971313 0.27338406 0.51938313 0.07841102 0.5554646 0.5855698 0.093737744 0.9123356 0.12410525 0.13444015 0.69061357 0.41303995 0.61982447 0.34840274 0.15263183 0.29336315 0.3634937 0.45226347 0.7898416 0.0768566 0.84273255 0.7840146 0.6321648 0.3588789 0.18468846 0.028101956 0.6305319 0.037080258 0.5980521 0.20413084 0.05140342 0.812072 0.11904139 0.4657634 0.21362516 0.8464252 0.9996915 0.15902485 0.8396136 0.5525571 0.8782842
l117 0.22930679 0.7413262 0.35805625 0.9337949 0.678967 0.44802332 0.38801646 0.22011691 0.12492338 0.48432663 0.925085 0.315419 0.021803051 0.9258192 0.31715116 0.061763998 0.051181767 0.78182197 0.8087767 0.9591982 0.23460585 0.4368067 0.80821365 0.39521602 0.7930262 0.5019279 0.6845652 0.2837552 0.7286764 0.1230643 0.5971533 0.70481527 0.47564203 0.47034484 0.4087337 0.20874722 0.86733526 0.14294726 0.9101247 0.9550923 0.5117125 0.02087663 0.6328375 0.16275029 0.585271 0.48440212 0.5673785 0.8397776 0.2800207 0.74798214 0.5717777 0.30945054 0.5656251 0.8295026 0.8357933 0.36923113 0.58582276 0.59741294 0.047001865 0.7034182 0.16111442 0.079988934 0.07500683 0.7052098
l118 0.28404024 0.10304663 0.6660979 0.35379943 0.81709546 0.31465128 0.19646196 0.55029607 0.9352035 0.37709293 0.7129504 0.9241532 0.67902976 0.17358224 0.369912 0.50719446 0.62806886 0.10116578 0.49803677 0.01923966 0.32467562 0.8591157 0.5238076 0.52569157 0.42183274 0.34759885 0.26132426 0.67066056 0.070741676 0.33578283 0.7867721 0.45267564 0.1403064 0.037143257 0.96202964 0.68310875 0.88876504 0.39765096 0.83268994 0.88444525 0.5975603 0.35238928 0.1270946 0.5458574 0.3699983 0.81990236 0.38288897 0.54036075 0.368565 0.0709102 0.7745788 0.64301527 0.3534449 0.94519013 0.55865437 0.8861734 0.63787735 0.7172486 0.14393046 0.5811721 0.18549863 0.9475615 0.75703824 0.5653929
l119 0.21515974 0.15918903 0.5162471 0.79937714 0.88023144 0.7351881 0.13167033 0.32023293 0.79447126 0.5495987 0.64329237 0.6223548 0.7433899 0.5585577 0.8134386 0.9667128 0.57140917 0.52859133 0.08731071 0.2965721 0.97340274 0.5295378 0.7295946 0.46542293 0.16785768 0.63183475 0.3151696 0.062204633 0.659718 0.5712717 0.1085644 0.90437424 0.98480093 0.6969015 0.81479466 0.91540414 0.5910708 0.8730364 0.40639332 0.5326782 0.17293775 0.98325086 0.45801842 0.44426662 0.90563554 0.39673007 0.33018047 0.43338287 0.46574473 0.2830799 0.3833369 0.59826005 0.9895216 0.6478027 0.4836887 0.55095196 0.7608704 0.94834864 0.85210663 0.3203248 0.089740895 0.13594314 0.6088773 0.8608557
l120 0.38069767 0.48084348 0.62140954 0.87567765 0.84948903 0.85937893 0.7759044 0.14067774 0.6477335 0.110367365 0.19225095 0.35540736 0.82031065 0.9198543 0.10031359 0.8737467 0.6061462 0.3622951 0.41458875 0.055257656 0.6214229 0.81557864 0.36697742 0.9926389 0.45383883 0.23586182 0.120011106 0.016526837 0.47876203 0.54331523 0.8084505 0.7876806 0.5867068 0.18311013 0.84623367 0.74704766 0.23948859 0.93242264 0.4745876 0.96020496 0.43956035 0.9635537 0.92568475 0.15792008 0.7348817 0.06534915 0.3379607 0.5482568 0.27958617 0.51085067 0.7037276 0.25940275 0.02286575 0.22148071 0.023956075 0.6798583 0.49350888 0.103389084 0.15672444 0.15218516 0.12505741 0.48007712 0.38092408 0.7666036
l121 0.5537349 0.102314875 0.833499 0.22719173 0.648477 0.19698179 0.51785177 0.39012405 0.15383416 0.031206818 0.55081826 0.29946777 0.9126673 0.2291449 0.7042251 0.5481824 0.38545096 0.2683073 0.23713891 0.4493482 0.7913109 0.23311032 0.052369744 0.04334193 0.02845791 0.7338916 0.44130412 0.5826364 0.6153541 0.42275646 0.8134145 0.6485276 0.25597963 0.07616209 0.9102886 0.7057888 0.63736326 0.1135763 0.2919051 0.9029698 0.7932806 0.49843448 0.97289973 0.600568 0.6190864 0.907622 0.18711787 0.7463837 0.28906897 0.3960214 0.25524902 0.5080767 0.56977963 0.41240188 0.708677 0.39600793 0.22956884 0.97033364 0.21477543 0.4558769 0.2200718 0.10548888 0.76129675 0.6663184
l122 0.40163955 0.96514463 0.89310867 0.48318678 0.9829155 0.9352659 0.46444613 0.7764483 0.46103293 0.8778051 0.5634487 0.011575275 0.22662795 0.6323946 0.29159266 0.7384385 0.97401386 0.11101311 0.575208 1.0034394 0.78280604 0.1850036 0.045067 0.31202227 0.76058805 0.8869186 0.8971152 0.90578926 0.5725616 0.73605126 0.081280276 0.8020818 0.015973793 0.74011064 0.5441468 0.6566873 0.6114828 0.7534756 0.65256953 0.49326473 0.3180954 0.6857391 0.43950862 0.59387904 0.25314736 0.5772588 0.7300661 0.8478731 0.8307123 0.78564537 0.8024822 0.20969301 0.29928386 0.8849984 0.5624347 0.73180854 0.32051086 0.23227529 0.43241608 0.050701275 0.8584878 0.32467356 0.93952334 0.35999274
l123 0.644534 0.68559235 0.76979923 0.04162034 0.51976246 0.11682388 0.5458701 0.6439981 0.6474649 0.8930502 0.9127093 0.5068558 0.8914992 0.4277668 0.8924363 0.24450065 0.71246004 0.495668 0.36148065 0.8655272 0.7413131 0.56385493 0.7520995 0.03111874 0.87762713 0.19627105 0.19125563 0.47585532 0.032755096 0.669529 0.83759797 0.60714275 0.8696063 0.20959868 0.86448526 0.60712296 0.6640796 0.1578633 0.32859504 0.41872385 0.449592 0.80239147 0.01966701 0.8946221 0.7976165 0.9710215 0.53220165 0.49894702 0.99991333 0.70589435 0.37719962 0.77171195 0.35359064 0.8806606 0.24398899 0.16660486 0.9981413 0.22678448 0.24069369 0.58067536 0.4008275 0.7775746 0.5536531 0.98939866
l124 0.8600099 0.5705124 0.39677185 0.8207938 0.7878512 0.6806282 0.6869199 0.6311364 0.017580232 0.7351872 0.6546788 0.07516829 0.44219163 0.65765 0.32251334 0.8908474 0.31413034 0.9872748 0.71911657 0.9964327 0.20311065 0.12233404 0.5060247 0.4261906 0.18029207 0.87330174 0.10050919 0.86847794 0.51322657 0.64814955 0.3558161 0.18607512 0.4080232 0.6276077 0.76870245 0.2392365 0.97780067 0.89881206 0.5941734 0.783835 0.8045691 0.82017267 0.73929715 0.26353925 0.83633715 0.67205423 0.29191747 0.01363842 0.34693477 0.603172 0.24853596 0.5747791 0.47646046 0.5073244 0.25132388 0.6063233 0.16907303 0.5346116 0.1687852 0.9972887 0.23152561 0.27298295 0.37081626 0.2761724
l125 0.24367929 0.08296748 0.7829791 0.5186219 0.30524254 0.6825508 0.44322228 0.33508548 0.5748563 0.32110795 0.65141267 0.9184745 0.22848487 0.11268524 0.89303935 0.5623964 0.081056476 0.7552239 0.22641924 0.98459023 0.6858296 0.032246567 0.22833952 0.7596071 0.55504435 0.6589009 0.84010524 0.3733984 0.07505646 0.8460616 0.26222295 0.4909357 0.21282263 0.9986344 0.84144706 0.09680932 0.8569462 0.8405767 0.9892312 0.22057287 0.9859589 0.7139407 0.9921117 0.6363892 0.6870409 0.30315834 0.006421826 0.42621905 0.79079 0.9519024 0.61703146 0.9882296 0.6258578 0.01754416 0.42151287 0.12175615 0.72474045 0.0067093135 0.9609787 0.48761305 0.52542114 0.9344969 0.07836479 0.0075362697
l126 0.46188024 0.8687606 0.94792074 0.8171518 0.805452 0.26323518 0.23298487 0.8618945 0.25635368 0.1134052 0.61272764 0.43694454 0.08790214 0.40241185 0.9904022 0.53426754 0.4492974 0.68036985 0.93874705 0.3807489 0.75956094 0.4081964 0.47979745 0.7371416 0.5452833 0.9453909 0.94904166 0.689031 0.18694134 0.008305471 0.62066203 0.017045477 0.40546742 0.11236748 0.94392186 0.9249056 0.34356546 0.3155028 0.19069785 0.4906584 0.6563594 0.009146915 0.43176568 0.020223262 0.95529664 0.42196858 0.2264908 0.81531173 0.9411499 0.95989865 0.9308757 0.26169732 0.48242337 0.95192444 0.75488645 0.7358395 0.079383776 0.66913587 0.7996685 0.7040439 0.031088935 0.20604369 0.5652699 0.60481685
l127 0.420801 0.89366853 0.9624696 0.27636045 0.87959963 0.6220338 0.12643133 0.8780181 0.7916599 0.20535403 0.09813661 1.0001593 0.6771693 0.015992496 0.20246051 0.9282327 0.82673556 0.42510492 0.860841 0.8396392 0.9785303 0.21762235 0.40048116 0.83158845 0.60669714 0.3207142 0.48331293 0.12496033 0.5951379 0.9061929 0.2194887 0.54975843 0.48551553 0.80398417 0.7002044 0.69394696 0.09417422 0.76693064 0.41662735 0.06954167 0.6742927 0.2934298 0.8321216 0.12909725 0.29658875 0.53831786 0.54409945 0.17131244 0.9253108 0.91770774 0.46674773 0.042757362 0.6260107 0.018324386 0.3494942 0.78091526 0.97917634 0.2763477 0.2435674 0.2966826 0.43333876 0.44028407 0.58501333 0.98753244
l128 0.73873174 0.7916166 0.8421582 0.8591343 0.6799624 0.2947886 0.22865656 0.3726593 0.042122852 0.6200166 0.050666943 0.07488763 0.69145393 0.8061798 0.7318258 0.77229196 0.9788278 0.71421117 0.20328827 0.48023105 0.80987275 0.318567 0.96326953 0.55791426 0.94239825 0.2332262 0.66223735 0.6437373 0.83793604 0.89130896 0.27371722 0.80065596 0.31327292 0.04414514 0.898321 0.16317126 0.82842433 0.35904342 0.09037319 0.35756522 0.75901085 0.3951379 0.7988313 0.814275 0.49563217 0.22392179 0.7804977 0.8960207 0.8739131 0.9396329 0.54324013 0.4019165 0.29650873 0.15892333 0.3916825 0.9142564 0.7433599 0.9523014 0.33816844 0.03664071 0.26672778 0.5579917 0.7589248 0.37117708
l129 0.42862806 0.20898582 0.573684 0.20570256 0.0398944 0.32036176 0.10410443 0.010365542 0.3305567 0.24723777 0.42696142 0.59351116 0.24629886 0.8396663 0.663697 0.7836678 0.15796539 0.1983779 0.93930316 0.8288414 0.45951837 0.32997087 0.4083133 0.33124295 0.67391336 0.16292645 0.16964002 0.17013973 0.88735443 0.99305576 0.61715484 0.8723887 0.25486863 0.99796003 0.35840967 0.7518535 0.5884846 0.27862164 0.6092569 0.7133379 0.56739 0.94138676 0.26839045 0.46686056 0.0640886 0.288776 0.51433456 0.2481653 0.5844509 0.091765374 0.64831764 0.44277364 0.4574105 0.88932866 0.23660335 0.44681418 0.47007775 0.6612715 0.19641699 0.9773065 0.24106637 0.44597188 0.6587601 0.10017885
l130 0.19944373 0.14326636 0.72640234 0.5956623 0.90969276 0.12057041 0.21608393 0.32545173 0.8964815 0.060353287 0.47264537 0.62208563 0.54429656 0.4083486 0.30030492 0.6942313 0.5981765 0.5480962 0.592308 0.46427795 0.093320034 0.64907986 0.76381004 0.18161857 0.9719317 0.78363305 0.21789439 0.82597494 0.84385014 0.22312616 0.10099118 0.72369075 0.8614734 0.062968954 0.06560168 0.04672738 0.4221411 0.18341541 0.49965376 0.43261442 0.68032557 0.37510198 0.12832806 0.27777004 0.18868245 0.56373966 0.7155396 0.2023583 0.28805226 0.38965625 0.27088997 0.88619596 0.17822652 0.48841912 0.10668034 0.4609271 0.73083305 0.80235505 0.533949 0.61132056 0.45195118 0.31236362 0.6416591 0.077498846
l131 0.36469948 0.66349155 0.6799661 0.0012837595 0.626764 0.5697906 0.7879377 0.93026763 0.35424328 0.30770227 0.72498834 0.9922757 0.9283836 0.0070439605 0.7559186 0.94395685 0.61216736 0.29602054 0.5074916 0.026276072 0.29816997 0.92290854 0.95213693 0.9576046 0.20264024 0.23858367 0.24848846 0.4373657 0.49390095 0.10391082 0.1519552 0.015014905 0.83503276 0.3704772 0.04195652 0.7269087 0.550253 0.065597475 0.562276 0.14743444 0.25885522 0.29115564 0.40054208 0.9182639 0.12636021 0.025807448 0.8418826 0.3187629 0.15647212 0.7853756 0.020573312 0.51117134 0.6626545 0.025306012 0.3501306 0.7551969 0.12115972 0.6701756 0.48049045 0.2340414 0.18928057 0.44428954 0.97793275 0.3427167
l132 0.45223525 0.4676287 0.64250135 0.43485883 0.18647325 0.7009453 0.7395832 0.9601285 0.606701 0.31698766 0.6407482 0.71446276 0.27751425 0.72524375 0.59099275 0.5016233 0.96599275 0.7355686 0.99091816 0.06460015 0.6842245 0.42493832 0.6108539 0.56291395 0.11874088 0.15007713 0.7156331 0.06829141 0.9073564 0.2664352 0.35314432 0.42168203 0.8096793 0.8712269 0.6851218 0.24990147 0.19012395 0.41335133 0.86773646 0.8590085 0.23923181 0.27353817 0.69792944 0.47283614 0.9596888 0.25110462 0.8129223 0.57014745 0.36761835 0.31302366 0.038395803 0.011144267 0.010273355 0.32093498 0.7894474 0.34483603 0.962735 0.32120973 0.79019594 0.7788278 0.50738543 0.5003536 0.5196598 0.93335074
l133 0.8183348 0.42755297 0.30800983 0.5500238 0.5570339 0.14474647 0.36822504 0.7708516 0.28819007 0.32169092 0.9294315 0.4770007 0.2690377 0.8696026 0.52349573 0.39947078 0.81533784 0.03869762 0.65903014 0.97593343 0.7349515 0.24608353 0.038731087 0.7341697 0.8493806 0.7838587 0.9886837 0.12190284 0.11076947 0.2035636 0.7854947 0.5638186 0.33889136 0.056225505 0.14823698 0.45046374 0.8502958 0.63713604 0.96739036 0.71326256 0.48993814 0.19649906 0.5454031 0.04979427 0.21788459 0.80601513 0.8870301 0.5693404 0.61557055 0.5066551 0.28184488 0.10018982 0.16744125 1.004853 0.25054452 0.8647968 0.19104019 0.9985379 0.4993587 0.85598415 0.9371171 0.6148543 0.57057136 0.2684694
l134 0.6909952 0.26077217 0.5855916 0.92602235 0.88159823 0.5267906 0.092626 0.20459545 0.27602726 0.08460009 0.22600116 0.27036944 0.9954267 0.30657977 0.9009014 0.65098923 0.50185317 0.9896847 0.18374762 0.08031618 0.44771633 0.73900074 0.20784287 0.19398206 0.48649976 0.380214 0.78254277 0.20084108 0.95397425 0.8275357 0.5711202 0.43985566 0.1360111 0.77999276 0.10546064 0.49215496 0.25395197 0.19867848 0.23795372 0.17256847 0.94422287 0.15514067 0.9519907 0.30473655 0.10483098 0.89384395 0.93831784 0.2779418 0.41511178 0.109938584 0.34948477 0.79228365 0.7091058 0.38099456 0.4004172 0.9709732 0.41293108 0.18449257 0.2394417 0.44902506 0.48530075 0.12712772 0.88125485 0.91953146
l135 0.8504807 0.14072128 0.115905315 0.26106936 0.31104964 0.82237893 0.53037363 0.30006465 0.5096165 0.67438555 0.7211664 0.90347886 0.96335095 0.3707416 0.34241402 0.6605988 0.83468777 0.6728115 0.8169718 0.6739485 0.93387884 0.4348536 0.3242519 0.15851776 0.5422136 0.38220403 0.23584689 0.51991564 0.8517516 0.32769534 0.7894644 0.63518965 0.06965019 0.9169971 0.029532079 0.7467892 0.46394217 0.967002 0.7320625 0.6724747 0.1372785 0.73255765 0.14794293 0.59759194 0.20589665 0.32473007 0.09860106 0.7003747 0.13872074 0.49488595 0.16731374 0.19362275 0.40302813 0.3030173 0.85261756 0.87125415 0.43146396 0.8963442 0.42492986 0.75193316 0.61227524 0.3676409 0.84775686 0.43160886
l136 0.6800345 0.11713396 0.058196794 0.97265553 0.22335303 0.7277752 0.6400492 0.49290982 0.29229414 0.5514747 0.035774488 0.8526802 0.47978815 0.13736822 0.23631892 0.09564264 0.9962479 0.9041756 0.11805073 0.9963579 0.77255327 0.015988823 0.48564914 0.60142964 0.55227137 0.7789276 0.47724125 0.8783541 0.7738943 0.32980943 0.52548116 0.46260175 0.056922436 0.85397637 0.06958109 0.13877557 0.06905024 0.336847 0.3701646 0.760238 0.3247125 0.53862023 0.33870906 0.8226488 0.6632695 0.1580806 0.9323409 0.5702254 0.22578037 0.56119573 0.20665155 0.44612312 0.65297246 0.4631072 0.7303762 0.3164565 0.27349052 0.96823454 0.68307614 0.57268536 0.5859505 0.6698443 0.0495796 0.14835392
l137 0.66537017 0.4196784 0.625747 0.7293129 0.5036183 0.55476916 0.03823184 0.26419166 0.93771416 0.38259214 0.8642195 0.55571115 0.6967478 0.28731817 0.5217262 0.2983453 0.34695205 0.4940188 0.99587536 0.62409407 0.40506807 0.19785471 0.19527508 0.7475746 0.18446746 0.53719014 0.15831995 0.80725366 0.85930854 0.48896846 0.4463087 0.17657241 0.5599376 0.9469037 0.3878209 0.78090477 0.07205874 0.7823871 0.88600844 0.39119786 0.24411593 0.99186414 0.13407356 0.50407463 0.5104105 0.12501912 0.62204504 0.25828803 0.24218844 0.6006985 0.92801577 0.43300992 0.47041145 0.42296863 0.80192375 0.9527651 0.6753789 0.25138578 0.8702795 0.19791776 0.36978915 0.019001571 0.8636284 0.8385775
l138 0.99661905 0.90449876 0.13086742 0.97409225 0.3563982 0.41226017 0.16990286 0.55290854 0.7451151 0.47708303 0.13126968 0.20147115 0.899751 0.0804077 0.83029693 0.083541855 0.70880044 0.55916685 0.5544305 0.87041247 0.7374414 0.39657366 0.11210685 0.36419672 0.41445872 0.71263474 0.18164024 0.47100994 0.76357895 0.10920699 0.66320986 0.96297014 0.6270142 0.60250694 0.27292204 0.5234149 0.9062059 0.70201725 0.4412626 0.4616509 0.23933582 0.039832763 0.56886667 0.90382135 0.73284996 0.4662307 0.8064141 0.98948854 0.029989082 0.62757283 0.018431863 0.58617216 0.8976657 0.69964975 0.47913316 0.16200684 0.7117768 0.7449432 0.5906081 0.14654547 0.42951813 0.14629865 0.6046922 0.3740346
l139 0.42130932 0.42042887 0.8769525 0.40763986 0.41523212 0.17653434 0.15329382 0.60138416 0.5853022 0.10552078 0.6116225 0.4339805 0.75302577 0.6289774 0.52696496 0.38175276 0.43343887 0.24529667 0.2852126 0.80987084 0.86508757 0.70352465 0.29316726 0.9921394 0.15808216 0.14460993 0.10161385 0.45863095 0.7385603 0.9417677 0.3981122 0.104101755 0.84664655 0.10749482 0.93920463 0.6639167 0.44068512 0.45792732 0.7749373 0.21370609 0.8592792 0.16943097 0.76994914 0.7303819 0.43801042 0.6406254 0.8408166 0.8551172 0.65771145 0.21329226 0.3868229 0.46931496 0.5171903 0.41752207 0.1323137 0.20391408 0.31859383 0.27630642 0.40785906 0.89852566 0.41746977 0.8740825 0.474565 0.20194405
l140 0.31453028 0.21674082 0.6045159 0.5060721 0.46885735 0.19815278 0.011725263 0.4168077 0.6608635 0.4541537 0.029605221 0.4730602 0.038463634 0.263785 0.28484118 0.7280835 0.38288635 0.9462724 0.044102717 0.56363636 0.8574129 0.7538117 0.6188219 0.68340135 0.26721403 0.66096354 0.19981365 0.5288484 0.029645994 0.8835194 0.0650933 0.017237913 0.043919753 0.20452751 0.47858986 0.18592368 0.22407122 0.71775943 0.63022393 0.10256393 0.27468154 0.027261326 0.4138267 0.60162723 0.5154421 0.6701066 0.27077058 0.21546777 0.41751248 0.93359905 0.4568554 0.5461098 0.8273461 0.3586131 0.6711911 0.93264157 0.3746745 0.11366219 0.81275356 0.54063183 0.659895 0.9063508 0.31975445 0.26546407
l141 0.9337176 0.44679242 0.55608433 0.2725516 0.34619495 0.9505161 0.7627489 0.8484389 0.25341403 0.5318289 0.61659855 0.21059752 0.13994718 0.34780023 0.42978832 0.13253939 0.09003934 0.06074053 0.91099733 0.08817263 0.40949965 0.64238346 0.4165896 0.7313443 0.008322001 0.40464246 0.6016443 0.9355479 0.4483738 0.6152027 0.9551337 0.4351989 0.38678998 0.7224846 0.8816519 0.573788 0.08444726 0.7973127 0.26834282 0.16972576 0.61996657 0.4121578 0.4334439 0.65561235 0.01939647 0.50590616 0.01760353 0.87439924 0.5019471 0.32103357 0.60172564 0.10315677 0.5175971 0.6214087 0.78816843 0.33092916 0.8176774 0.0027745962 0.7418229 0.9125961 0.106053255 0.6472947 0.40199193 0.33126178
l142 0.021303276 0.20059367 0.9986909 0.77214473 0.49937257 0.1769299 0.16716883 0.5740096 0.18152691 0.12002145 0.6331146 0.9137861 0.8848371 0.9211698 0.15490557 0.86444986 0.3353488 0.66990715 0.6390743 0.4671228 0.47804067 0.7673393 0.6103037 0.23428704 0.6529603 0.34693754 0.15681696 0.16145469 0.99755293 0.16898783 0.054205835 0.976198 0.66958153 0.8084663 0.7358964 0.93330044 0.09175331 0.035031203 0.8349182 0.47085685 0.6743889 0.95756346 0.705424 0.026550142 0.32806793 0.67142904 0.4914065 0.62170327 0.49622813 0.80740106 0.15684402 0.061636608 0.7432636 0.1142165 0.0099685555 0.7936349 0.9457739 0.8355115 0.43658283 0.75723475 0.9606545 0.36332726 0.41306028 0.15103714
l143 0.13485654 0.62304944 0.039759193 0.3687021 0.69453514 0.19516443 0.9140573 0.8993105 0.9486746 0.87860835 0.13948062 0.20029697 0.72801846 0.5734739 0.43152466 0.33261427 0.865943 0.53139985 0.320879 0.7788125 0.16998349 0.28878322 0.56379694 0.46142286 0.6328395 0.5318143 0.53126 0.24776393 0.64217544 0.71862835 0.13565622 0.33472002 0.8553298 0.58647394 0.28618523 0.51133347 0.26408437 0.19088517 0.2663125 0.2364355 0.31966704 0.764459 0.2325448 0.22524318 0.5510553 0.3856925 0.68832564 0.98863447 0.53027993 0.021723745 0.021247702 0.72397155 0.09026381 0.6376867 0.23894964 0.11985461 0.40302828 0.29251564 0.046082668 0.77312595 0.73538405 0.871393 0.100521654 0.4781531
l144 0.67986506 0.68552077 0.38375336 0.19108494 0.4271224 0.64716285 0.361245 0.56668276 0.25030652 0.9168932 0.7224349 0.76474583 0.4195648 0.9961735 0.94562626 0.059709787 0.80928 0.27497253 0.17398132 0.8392401 0.3066434 0.7770941 0.43352076 0.29154423 0.8641128 0.8600561 0.23081298 0.2549401 0.22258604 0.34438273 0.2666625 0.8039897 0.02936131 0.2196569 0.010018403 0.86876607 0.90466166 0.37577787 0.5585218 0.47543508 0.6417971 0.6353423 0.0030996588 0.99393743 0.8219808 0.078981996 0.15160309 0.42774865 0.1831824 0.5021911 0.85510135 0.40659547 0.11915626 0.9440629 0.9652968 0.46784598 0.4155662 0.6768111 0.12964131 0.8164042 0.78041476 0.6979698 0.7952942 0.6462841
l145 0.22923343 0.48122996 0.984884 0.0761426 0.56231624 0.36752048 0.84819156 0.058581844 0.90562624 0.33791775 0.701438 0.13266128 0.6986744 0.30097026 0.62762785 0.23681809 0.5731734 0.0075517017 0.7238064 0.6249764 0.74361706 0.20039718 0.40375924 0.9949552 0.17710568 0.7885622 0.78459424 0.52899593 -2.716472e-05 0.91043353 0.86033696 0.07027807 0.5794545 0.3638801 0.43006665 0.43321216 0.082522854 0.98700297 0.78471965 0.067170255 0.06756126 0.5389896 0.9944889 0.075452164 0.9918095 0.4263638 0.993258 0.5487614 0.5791304 0.39679855 0.39282423 0.2909354 0.59416664 0.5484652 0.74032813 0.2953017 0.015154882 0.2003113 0.09811971 0.13326299 0.43490148 0.99823296 0.30775046 0.024783276
