1730	128
l0 0.6679456 0.30548227 0.68007743 0.34012473 0.60496795 0.07635101 0.87756664 0.14487407 0.67683697 0.13941568 0.88043845 0.81835055 0.2742093 0.6531164 0.034817997 0.048428178 0.5787525 0.1292506 -0.015785448 0.8428774 0.24876466 0.5111074 0.8329686 0.5823027 0.8198127 0.70906913 0.46152577 0.14831626 0.13951214 0.82227063 0.5812838 0.2530195 0.8418598 0.9082915 0.67090327 0.46611315 0.7402118 0.21269841 0.16681437 0.3970802 0.91447985 0.8813481 0.92164177 0.64354926 0.028188396 0.96462387 0.6642262 0.030778171 0.060422454 0.747429 0.937789 0.303073 0.6154306 0.12423432 0.101413235 0.46482223 0.08763707 0.5931923 0.83848125 0.19288364 0.2571982 0.11678131 0.06645345 0.51956296 0.06211844 0.6428661 0.97637856 0.48728988 0.46304896 -0.048626933 0.10994682 0.62046695 0.44646385 0.79507154 0.24427147 0.3398987 0.4056314 0.44306225 0.88335025 0.10060677 0.63160855 0.94894564 0.30552796 0.046616677 0.20356932 0.6622037 0.32237777 0.3743669 0.7909405 0.06546611 1.0725923 0.08944239 0.44478622 1.0025737 0.75371957 0.6319536 0.57339936 0.6526344 0.5628877 0.2067886 0.60852504 0.58179224 0.13493037 0.2145676 0.27019382 0.85707515 0.8457144 0.91465944 0.55666864 0.47184756 0.21985675 0.9647435 0.3757517 0.2028903 0.3275927 0.8374969 0.70258385 0.3050067 0.36121872 0.9202332 0.74770325 0.24573809 0.5331723 0.5687013 0.6612877 -0.033469092 0.40446427 0.60718316
l1 0.35674912 0.6951677 0.14807002 0.31945914 0.11996204 0.74435115 0.100184284 0.08197539 0.07181974 0.9160195 0.87781125 0.09871633 0.22212179 0.29224867 0.47343537 0.79969096 0.11583727 1.0325737 0.7422117 0.37289104 0.3384435 0.60153055 0.6700013 0.12985662 0.019720702 0.83173454 0.5947717 0.40137544 0.1681305 0.24806121 0.91909504 0.28769878 0.10715615 0.069114864 0.67808133 0.93797153 0.32183444 0.22244607 0.5219651 0.719786 0.60351586 0.15092948 0.5247852 0.5955236 0.58119565 0.8018001 0.8325116 0.048636213 0.6540526 0.415345 0.7703805 0.25417256 0.85049653 0.07941567 0.400609 0.28341925 0.84924006 0.023491642 0.2673533 0.2102876 0.22586834 0.26649788 0.024641726 0.35379478 0.8107251 0.872458 0.7742934 0.031338498 0.12068555 0.9628181 0.118608594 0.25947028 0.88832897 0.48576933 0.23307747 0.12353564 0.046569187 0.36752248 0.21066423 1.0103161 0.20312747 0.048363995 0.7351198 0.91933036 0.8237335 0.4112451 0.8567738 0.36802924 0.4250658 0.20528597 0.35188422 0.7855736 0.6461153 1.0600466 0.99454945 0.421335 0.3139399 0.18043207 0.3284041 0.1862301 0.06830989 0.97411853 0.561444 0.53989756 0.6931834 0.08031466 0.6802905 0.50130147 0.20112348 0.46428815 0.9078544 0.8224799 0.9158629 0.85924304 0.2695112 0.6215588 0.4843093 0.122194804 0.23586549 0.77153903 0.18161334 0.613197 0.12979828 0.8693203 0.8728728 0.20075026 0.10622143 0.15047643
l2 0.46838918 0.23262885 0.28652528 0.120290026 0.36896184 0.034760535 0.53739893 0.3014841 0.7931023 0.5358046 0.24525404 0.15799814 0.6469444 0.44784275 -0.032305904 0.19285214 0.5126187 0.5875063 0.6984994 0.81371707 0.8157251 0.16837814 0.8467561 -0.03763835 0.20164983 0.7898393 0.24900946 0.4543214 0.7854193 0.020756727 0.870576 0.6861429 0.90970725 0.53927237 0.22767076 0.11241054 0.60766417 0.65753317 0.5843305 0.6502721 0.95105547 0.7278104 0.24450554 0.90845406 0.1347352 0.92811656 0.6795437 0.30754575 0.20333095 0.6421276 0.13342433 0.75098825 0.5425674 0.71662134 0.59174037 -0.014145769 0.9596534 0.5566246 0.4514103 0.33737814 0.37976572 0.92185104 0.1160622 0.8926013 0.80248076 0.23806578 0.5722862 0.35156152 0.5187655 0.5665182 0.53893846 0.2930734 0.77726483 0.958829 0.7292773 0.30171952 0.29674765 0.75515985 0.13193306 0.20868082 0.11033679 0.23426765 0.47224212 0.17399666 0.020085596 0.68015605 0.48560753 0.7318021 0.83068055 0.38398108 0.12060174 0.47892085 0.5664839 0.44027042 0.26205447 0.5583334 0.525177 0.0763833 0.39903966 0.12953548 0.9425912 0.25446182 0.1329286 0.83416873 0.12569313 0.9146268 0.31734097 0.08848414 0.5119983 0.13185284 0.39036658 0.67460555 -0.03742288 0.75145864 0.6250078 0.77641785 0.5444256 0.4046815 0.41255668 0.6639038 0.5226142 0.69555646 0.5741875 0.6617876 0.9491902 0.32280695 0.12542976 0.7898579
l3 1.0017409 0.8905709 0.7268698 0.9626024 0.59277403 0.82971746 0.39933658 0.2466384 0.08674975 0.60806257 0.39064595 0.62239164 0.9777735 0.100390345 0.8576256 0.0940005 0.89333403 0.84979856 0.07263425 0.15051681 0.33226684 0.8522352 0.62890714 0.60481846 0.20266077 0.6164865 0.57465225 0.7758303 0.64328194 0.35052702 0.2724079 0.042136744 0.99012023 0.5130576 0.37555984 0.06490413 0.93070173 0.1308945 0.111362256 0.79744303 0.7449314 0.4429516 0.354719 0.0118646715 0.34013504 0.29335144 0.91336083 0.70459926 0.08454476 0.43972865 0.34532127 0.2408795 0.29208276 0.7053963 0.20255883 0.08544117 0.062701784 0.61844444 0.5457888 0.44404316 0.26624987 0.4667014 0.7689274 0.39129436 0.42243084 0.12545781 0.2649452 0.74387515 0.66332984 -0.027989298 0.51823384 0.9415598 0.3303269 0.082707174 0.9819846 0.5256589 0.8511144 0.92721325 0.79425013 0.9621056 0.39521727 0.22381155 0.58502996 0.66703856 0.8409539 0.38736796 0.83854616 0.65106833 0.034507275 0.5440319 0.81970155 0.7379112 0.90178794 0.28090805 0.7363353 0.9676386 0.93599546 0.5306877 0.58323115 0.12253411 0.30831593 0.6149281 0.40379527 0.7682644 0.46585858 0.035088968 0.51088953 0.8097268 0.76957744 0.6436532 0.4525859 0.19897477 0.5291664 0.8444316 0.7395268 0.09358339 0.80869824 0.564947 0.3477384 0.7594556 0.26569876 0.62074894 0.8621769 0.55278677 0.6341524 0.138197 0.5151583 0.8032069
l4 0.98129296 0.27455208 0.62582225 0.2152329 0.8706584 0.5447235 0.3100743 0.57994276 0.15204899 0.95279825 0.9499518 0.37372524 0.87301105 0.5407895 0.21744145 0.7149801 0.7213051 0.9181661 0.006940938 0.47621748 0.49518883 0.671744 0.88970584 0.90835303 0.2806759 0.76776415 1.0306766 0.60043573 0.106322445 0.18347423 0.31594357 0.60135144 0.42224723 0.6540031 0.14417733 0.26349476 0.94410986 0.16872375 0.38062257 0.9701152 0.925246 0.4351215 0.4703227 0.91363776 0.62183446 0.8751322 0.84549975 0.9386061 0.30919647 0.4212387 0.3394385 0.131667 0.47822922 0.97005516 0.81100696 0.11546395 0.2715035 0.84917706 0.13066041 0.4834219 0.20949261 0.7826215 0.6138837 0.6323389 0.37154278 0.7555999 0.68587583 0.75477946 0.38398245 0.29705706 0.5560525 0.26967764 0.31110862 0.1326634 0.7383268 0.060358975 0.4030243 0.6310609 0.85403687 0.35181788 0.8517897 0.52475613 0.80553854 0.503395 0.4643211 0.28321058 0.976675 0.8018121 0.73811436 0.08021949 0.9577475 0.31352338 0.2951697 0.09702577 0.9305968 0.6334503 0.83768433 0.30332896 0.91221774 0.62484664 0.41431585 0.96973747 0.093702614 0.412183 0.09956212 0.121399455 0.2899308 0.123906836 0.871334 0.7834187 0.46950158 0.79909253 0.085903786 0.95774025 0.12805125 0.11923207 0.24966283 0.91813016 0.5092437 0.7777911 0.05293726 0.92292124 0.3852124 0.5810596 0.46679422 0.574511 0.117952794 0.057113815
l5 0.7896262 0.24306259 0.9265043 0.032166243 0.3916628 0.8844753 0.4518203 0.89440775 0.40809178 0.42037985 0.5060426 0.5896422 1.1061368 0.65970665 0.7783489 0.71380144 0.15426977 0.8614924 -0.05925299 0.51616985 0.89005554 0.40078077 0.5514395 0.6351939 0.75435513 0.5623421 0.67549527 0.43339136 0.6573267 0.8571368 0.9501271 0.7319477 0.35198453 0.55246836 1.049443 0.8097948 0.11485604 0.62209964 0.8792664 0.14299086 0.73696065 0.2309498 0.8434258 0.08792999 0.5331362 0.4840787 0.5834105 0.53129137 0.16487478 0.6734651 0.7763993 0.7687994 0.6328503 0.604098 0.71546316 0.8615743 0.43868068 0.7794196 0.5282765 0.19306646 0.94515055 0.23261292 0.12381668 0.24811469 0.29090375 0.08788214 0.9906074 0.91485727 0.7814343 0.90772045 0.18786652 0.048561428 0.90381145 0.173509 0.06462548 0.17624529 0.78941894 0.44757408 0.91158 0.24590087 0.21707654 0.59317875 0.22290337 0.93680155 0.46374163 0.8156848 1.0060244 0.5269745 0.4003176 0.1338621 0.6232925 0.8411374 0.27305254 0.9021725 0.7516606 0.64330995 1.0575289 0.36739928 0.26011905 0.6333343 0.30558467 0.0909944 0.09902303 0.6833735 0.7695394 0.43205148 0.030225575 0.2443323 0.119204305 0.23684518 0.33523074 0.4084294 0.5664179 0.30707717 0.7588374 0.6464588 0.298133 0.81086457 0.14589931 0.86829907 0.11102073 0.93488526 0.39067918 0.56708413 0.29292983 0.21571387 0.90504456 0.39186773
l6 0.3135862 0.4160083 0.40778503 0.21502449 0.21679719 0.6895819 0.44486323 0.43852887 0.7868902 0.9482371 0.8226683 0.11724422 0.98947823 0.8905538 0.4650355 0.29510444 0.45542845 0.10353484 0.029769354 -0.053835515 0.1771789 0.97749335 -0.041158605 0.50279015 0.96635216 0.33970115 0.93547904 0.27722302 0.2817856 0.29449412 0.11184966 0.7933006 0.99764246 0.99886477 0.5880094 0.31363633 -0.06123192 0.59761906 0.116100125 0.45271373 0.66016024 0.5700632 0.745964 0.82470876 0.2983001 0.25314954 0.7706491 0.87386703 0.77837545 0.94724685 0.3651487 0.5261188 0.2951827 0.2814569 -0.023226513 0.13140108 0.45181835 0.6360528 0.60966897 0.3283462 0.10981439 0.3669691 0.8728581 0.8443472 0.5612106 0.060978513 0.65122026 0.6435331 0.4781101 0.3335416 1.0040458 0.74849975 0.30319595 0.3995486 0.83343637 0.4246718 0.27715188 0.18697463 0.2588028 0.83432025 0.85526866 0.5102881 0.84984463 0.9478617 0.62873334 0.97591716 0.46048978 0.81007564 0.4836936 0.6528919 0.8519579 0.6602596 0.6233621 0.6826815 0.8720059 0.8109838 0.45817998 0.8116837 0.2581574 0.45596954 0.7205011 0.6485732 0.050273024 0.35578153 1.023154 0.21298216 0.5644327 0.09703069 0.7762123 0.5566736 0.3816814 0.6411698 0.6005171 0.65862507 0.7923114 0.882993 0.8400176 0.17635947 0.07772169 0.9163984 0.011130644 0.8041388 0.6474011 0.14310326 0.49456364 0.064590015 0.39418498 0.22001432
l7 0.108483426 0.9815794 0.91752505 0.1921127 0.5455923 0.24026114 0.3392167 0.14938423 0.06983696 0.64993256 0.84794855 0.6183885 0.63497525 0.97594804 0.41789415 0.09924789 0.5202973 0.6357019 0.035134543 0.8878443 0.7533208 0.26979297 0.057742767 0.18696693 0.36750954 0.26514006 0.65662664 0.63760203 0.7605753 0.13037033 0.05366541 0.27592617 0.1243802 0.3789786 0.41952473 0.63090146 0.5012459 0.8506784 0.78046554 0.35818172 0.77264935 0.68896556 0.9244175 0.5955307 0.2558757 0.6901749 0.83545375 0.022612264 0.46655384 0.14885879 0.3443489 0.2971908 0.14398894 0.65472096 0.85531735 0.4485373 0.8109309 0.37942806 0.9602864 0.22469054 0.70147294 0.26483893 0.6811657 0.20852444 0.18593661 0.5842979 0.62208796 0.8343286 1.0061688 0.65872324 1.027409 0.5530829 0.4399427 0.8268202 0.7168772 0.8236717 0.26407194 0.6398693 0.18390022 0.6389577 0.21364442 0.34652647 0.55935115 0.6356638 0.020717809 0.5048193 0.37672353 0.8797013 0.49354252 0.6500477 0.2977846 0.77755594 0.115222625 0.67842245 0.8502054 0.7308494 0.63130957 0.16254768 0.18403494 -0.005117023 0.17425615 0.544549 0.90618217 0.31402943 0.7455982 0.24452186 0.49969095 0.66767293 0.2896884 0.28096667 0.49645448 0.94407487 0.5911616 0.43285117 0.36117834 0.1168885 0.26950976 0.3838924 0.44462538 0.41103712 0.85389 0.99696773 0.47138014 0.13819842 0.39996088 0.012203858 0.2775906 0.2662459
l8 0.27195054 0.8209494 0.61106193 0.25327486 0.3190918 0.570712 0.8413803 0.64893633 0.76270425 0.24405101 0.47584236 0.6111158 0.91723603 0.037795514 0.77152675 0.5756209 0.06875369 0.2435088 0.31548217 0.45866847 0.5553658 0.13338205 0.6499781 0.4891128 0.22928275 0.80636644 0.35206607 0.8876956 0.22699578 0.15325208 0.4818487 0.2989957 0.65189755 1.0129285 0.78583264 0.5514781 0.53181344 0.8484152 0.4968961 0.36508718 0.26628494 0.20032921 0.42018694 0.2933253 0.4304775 0.66672057 -0.012098607 0.6478455 0.5783047 0.92092127 0.042939145 0.8978092 0.11088198 0.24127883 0.2967738 0.71233034 0.4342938 0.49373996 0.81780416 0.8987551 0.8320746 0.86279875 0.7025839 0.038237203 0.095404945 0.35210595 0.3572397 0.46041876 0.65634465 0.025108267 0.6404693 0.8612094 0.6756109 0.8188853 0.44031823 0.05590674 0.11985175 0.73910517 0.5801085 0.1367726 0.14246808 0.34476957 0.35180032 0.38268268 0.44501072 0.71473324 0.46158645 0.072424196 0.69102055 0.59275925 0.3493682 0.3338135 0.46040136 0.45480222 0.23146969 0.43745625 0.4966107 0.26282322 0.9712074 0.5701475 0.79367447 0.8583269 0.6377931 0.7034667 0.31369987 0.30872568 0.7108982 0.7304144 0.1130973 0.7823401 0.6839886 0.55630505 0.25255612 0.18744734 0.78229225 0.9437422 0.63460773 0.75273085 0.1834964 0.23850763 0.6996127 0.91298497 -0.0009301955 0.6772522 0.56626165 0.043895468 0.12382186 0.8624297
l9 0.69647557 0.36961254 0.8552898 0.26219153 0.8546583 0.6355959 0.27138367 0.7504972 0.14181799 0.269265 0.6104896 0.7862127 0.7664926 0.70847017 0.09876577 0.03548817 0.78504837 0.6536194 0.4581005 0.5896196 0.8394388 0.9368694 0.1683558 0.8536416 0.7925341 0.118522786 0.69891983 0.9678557 0.16422506 0.70142055 0.8631356 0.020876162 0.2874665 0.8276529 0.6319493 0.18240958 0.9026359 0.27096903 0.8618759 0.93697804 0.5164274 0.70873797 0.12992874 0.16775118 0.2788509 0.7826645 0.75563204 0.9389179 -0.014295462 0.46872622 0.98676395 0.61305434 0.62356085 0.66219556 0.6660261 0.7912512 0.13150716 0.6959744 0.17000201 0.22044358 0.5056872 0.72844756 0.39195275 0.016054634 0.49744248 0.4345126 0.16600488 0.6815354 0.5843066 0.7640585 0.74236333 0.54755294 0.9399721 0.99007004 0.062754855 0.32804495 0.6473776 0.048199274 0.85409 0.1890013 0.16735151 0.5031271 0.08177995 0.63743067 0.07820166 0.4717829 0.12633438 0.65050846 0.67514515 0.41707605 0.27172568 0.8774984 0.7323591 0.48748118 0.9628978 0.88422817 0.3618028 0.41931647 0.62567425 0.29029635 0.08229676 0.76113796 0.28262597 0.24584949 0.90085864 0.27904856 0.24315378 0.6149656 0.8673189 0.5511797 0.22393379 0.12054056 0.6105783 0.17070569 0.33690044 0.9203236 0.3729925 1.0077264 0.3985253 0.57492983 0.08622905 0.9054515 0.38533834 0.48866594 0.2602059 0.030359887 0.69789356 0.1712326
l10 0.9546763 0.91967136 0.3419965 0.4029292 0.7573409 0.11742529 0.06037212 0.95356977 0.9317911 0.48033935 1.0257257 0.39089254 0.6396761 0.5399963 0.9374082 0.37998784 0.6765866 0.5870381 0.6626387 0.79016435 0.3029585 0.453904 0.3106159 0.43173432 0.23145218 0.84629965 0.63197553 0.22287434 0.41986626 0.82641494 0.2733917 0.75680834 0.1794836 0.784986 0.39218548 0.28870308 -0.066441946 0.9126062 0.25960526 0.17334953 0.79476047 0.7329341 0.28025082 0.20148733 0.15544589 0.7890299 0.44446087 0.1289026 0.6378498 0.9703427 0.12800796 0.5170236 0.09319335 0.1363076 0.26126868 0.77324814 0.3193865 0.20404007 0.84055036 0.40255752 0.87083226 0.77183664 -0.024006536 0.2991063 0.680446 0.60311794 0.24410601 0.0786618 0.97989964 0.58683664 0.80680203 0.16970548 0.68719155 0.52783257 0.86264175 0.060476504 0.4495207 0.7152459 0.3369644 0.5288948 0.10148343 0.31744578 0.7422852 0.6608526 0.23938422 0.83139324 0.20172445 0.8901759 0.6205508 0.4927969 0.8232008 0.6361023 0.8683833 0.7704307 0.7267528 0.99065167 0.4392915 0.109014794 0.59305406 0.85567904 0.9770805 0.5055134 0.82199657 0.3273568 0.56872755 0.36366802 0.38339895 0.52602637 0.58368105 0.35021448 1.0014098 0.48635563 0.79434407 0.32615268 0.734746 0.9389349 0.6029248 0.52423984 0.81269425 0.9045267 0.1308002 0.056338895 -0.06276536 0.881451 0.80639166 0.62010556 0.10376687 0.6877993
l11 0.67695403 0.6750338 0.10398444 0.27146262 1.0504297 -0.000187836 0.84780663 0.6162513 0.41517347 0.8772559 0.7988543 0.67697436 0.33441144 0.67250735 0.44534135 0.89425975 0.7643354 0.755106 0.85058856 0.3074941 0.92518294 0.9795725 0.42312405 0.48246795 0.16464157 0.7484245 1.0052595 0.19036365 0.2738588 0.23061088 0.9933007 0.23707601 0.3043778 0.8692504 0.15018211 0.8333865 0.49168858 0.8362765 0.94273555 0.7980868 0.20234743 0.70027786 0.7346756 0.8470327 0.9126299 0.8679068 1.0081385 0.42093223 -0.0014758134 0.3241687 0.90160686 0.08659451 0.0045352355 0.32045236 0.44878194 0.2678741 0.3229393 0.81192046 0.016753148 0.2157576 -0.012741999 0.78466505 0.1969253 0.49406025 0.83303475 0.1618597 0.23834924 0.54777485 0.077442296 0.82032955 0.25504372 0.49439216 0.023814222 0.49274394 0.1822535 0.07817814 0.124156035 0.74074304 0.0363604 0.42339623 0.038298834 0.7957106 0.8859073 0.8264125 0.1555145 0.8490721 0.36958596 0.41518742 0.17334102 0.034513813 0.74919087 0.6248698 0.7812979 0.8518291 0.67575395 1.0033472 0.8406611 0.5648862 0.10637242 0.9578191 0.78688705 0.59543806 0.60638326 0.44611114 0.22757705 0.25815248 0.06717344 0.4465669 0.46800473 0.6589243 0.2251505 1.0851383 0.18624912 0.66767585 0.31419012 0.4075055 0.2737057 0.498829 0.86305207 0.7617507 0.8354707 0.33213446 -0.032778013 -0.00842091 0.6183326 0.7204786 0.35622224 0.996844
l12 0.9436482 0.6047833 0.7726607 0.74550897 0.21957715 0.27487785 0.7531491 0.24251904 0.083277 0.96385896 0.1850483 0.97130585 0.93986213 0.40182397 0.30388677 0.294387 0.53899175 0.39218047 0.11963185 0.64636153 0.2040319 0.74831474 0.888843 0.85261935 0.7441288 0.698788 0.14634146 0.7123123 0.28187764 0.7973427 0.99708575 0.28757137 0.70671284 0.80715287 0.99854875 0.6936795 0.031193905 0.7957668 0.5380996 0.10007567 0.86481863 0.48936084 0.084743895 0.43818265 -0.0152048515 0.053788766 0.031373095 0.54218036 0.5562621 0.0048415638 0.74178123 0.11420064 0.22993149 0.15071929 0.7084087 0.8006463 0.1496856 0.19133559 0.29862812 0.79798746 0.31039637 0.89648193 0.23997015 0.08622183 0.16437678 0.30350533 0.9652144 0.53076005 0.16138709 0.51495045 0.7706647 0.16390005 0.100079335 0.121764414 0.08284078 0.17085582 0.22587183 0.16240592 0.7167657 0.40293008 0.0018426 0.8211507 -0.036640644 0.69223684 0.79829645 0.18994997 0.14835466 0.65725124 0.2005423 0.7916824 0.1945345 1.0306396 0.62524503 0.94909763 0.7749615 0.45955828 0.13122015 0.08066729 0.106091544 0.4915691 0.9146567 0.9953032 0.7821954 0.637603 0.8371876 0.908311 0.038345337 0.16211624 0.7765912 0.6400712 0.7266413 0.712203 0.46457285 0.14780566 1.0240189 0.3568105 0.8188554 0.14883417 0.8080404 0.65828496 0.6832057 0.2131044 0.79943395 0.12803195 0.18027243 0.9108987 0.58337873 0.119171694
l13 0.6492762 0.3827905 0.48052287 0.73748815 0.7883435 0.59898037 0.8222587 0.5726075 0.5750625 0.24865891 0.5268556 0.10346833 0.93773323 0.37726206 0.7579502 0.6795746 0.7944993 0.11766086 0.74329656 0.22361583 0.5900803 0.57212895 0.56686974 0.5482082 0.34795597 0.6517956 0.45914745 0.55834365 0.83333325 0.46102682 0.77127594 0.08126726 0.8376806 0.66676974 0.74938947 0.76926166 0.044781867 1.0124925 0.35347974 0.17517127 0.8654172 1.0276139 0.9057622 0.45678532 -0.021842252 0.64498645 0.220559 0.782126 0.5806903 0.62618977 0.8243937 0.8028486 0.33224794 0.83272856 0.20762151 0.55229723 0.27173623 0.18942729 0.9849011 0.4632888 0.6873835 0.0038438698 0.8328389 0.80715424 0.7515237 0.5983215 0.32304943 -0.0055406014 0.32117054 0.89835787 0.7688419 0.79590607 0.72591347 0.91529536 0.75806653 0.055047285 0.053235117 0.5583376 0.071628116 0.65637785 0.29290134 0.51417255 0.30628237 0.11125189 0.7879001 0.0699936 0.8023072 0.52462083 0.9437605 0.50159025 0.2614557 0.4151708 0.5300838 0.5683743 0.82699275 0.76521987 0.5923836 0.337727 0.62934697 0.07927901 0.19465673 0.68151116 0.9095877 0.38999978 0.914348 0.8367517 0.6638857 0.90319884 0.9427527 0.4392601 0.6815539 1.0184853 0.7117866 0.5146447 0.6286606 0.9668185 0.5650012 0.7026416 0.78052455 0.83015454 0.82930315 0.25554603 0.35904312 0.1423765 0.3835 0.6238623 0.5797188 0.3026865
l14 0.77186847 0.43342808 0.9082653 0.3335287 0.29256037 0.30040103 0.053616006 0.13510542 0.07879711 0.6291268 0.4020142 0.47110134 0.8673885 0.6634053 0.16694681 0.02176619 0.5237042 0.9482359 0.092580475 0.112206705 1.0096709 0.805066 0.6157602 0.88275564 0.3317032 0.8515825 0.50571245 0.46182013 0.77031446 0.5252037 0.6016853 0.79869217 0.29304045 0.6234838 0.9850069 0.36659443 0.5914804 0.7295515 0.37136194 0.822107 0.57225406 0.75590456 0.15400116 0.4202434 0.89820933 0.9684162 0.3471001 0.6213363 0.77135205 0.8808231 0.38880843 0.6762235 0.24420951 0.77732706 0.9337446 0.44614884 0.5502427 0.2581691 0.26188558 0.4035144 0.5393925 0.211829 0.29120338 0.86238223 0.61510426 0.23190536 0.9127599 0.57572955 0.1922995 0.3269658 0.70286846 0.40298033 0.31508252 0.60040075 0.66368246 0.5446596 0.13006622 0.5908001 0.7613705 0.80983955 0.8825331 0.98485494 0.33264494 0.47068968 0.37391412 0.7257362 0.382209 0.9250543 0.15062815 0.23528323 0.3210594 0.16451807 0.4988488 0.72033906 0.88745683 0.7287596 0.7645914 0.99025136 0.92985857 0.17460257 0.28873968 0.7040487 0.9508514 0.8518783 0.40164822 0.282213 0.58269024 0.047837954 0.77556103 0.2433759 0.5409179 0.9906526 0.5562594 0.8388244 0.9506518 0.48833266 0.10256778 0.09624154 0.02008564 0.87846035 0.5137217 0.28958863 0.22588821 0.043546304 0.50770813 0.44012642 0.3418334 0.93025714
l15 1.0267198 0.52620995 0.8389196 0.7241549 0.9025152 0.44886297 0.072454296 0.22902115 0.40975928 0.6898588 0.6972841 0.44699118 0.1821122 0.18883385 0.90637094 0.18143545 0.52734065 0.28611073 0.33158422 0.42237943 0.9304325 0.8764706 0.45007482 0.57774055 0.24498476 0.83475107 0.72359717 0.32208732 0.81453174 0.7083541 0.50073975 0.37300605 0.17919987 0.0730199 0.84166324 1.0062774 0.33554238 0.27640668 0.29574978 0.34544212 0.58896536 0.88681406 0.7045662 0.15955906 0.5229456 0.8573222 0.29078424 0.13537318 0.73199433 0.46901077 0.5497548 0.6013651 0.7759234 0.82711565 0.8071742 0.68283546 0.70647377 0.049119573 0.024252517 0.14799249 0.19539432 0.8461635 0.3897758 0.2263737 0.078175895 0.37238312 0.72827786 0.6070625 0.59517246 0.3679116 0.9883563 0.8663438 0.6967752 0.31219798 0.39068154 0.41126505 0.5934297 0.14682576 0.51166415 0.77529234 0.6061016 0.74464464 0.5796502 0.9659745 0.14915337 0.4389389 0.8924757 0.19702232 0.6263152 0.15867008 0.25043565 0.7333415 0.6196726 0.5668138 0.55291545 0.6325968 0.7903876 0.017586078 0.4897329 0.7297585 0.49884284 0.57420385 0.34539178 0.4558053 0.11530665 0.0077215424 0.6245544 0.21638028 0.82061213 0.8397154 0.2873756 0.5770565 0.31576502 0.5437786 0.39430553 0.39338765 0.6215297 0.33547977 0.745885 0.9337784 0.7009164 0.61562115 -0.0018805966 0.15912533 0.83873147 0.7451597 0.55302197 0.06315114
l16 0.55112416 0.49934503 0.11004154 0.16553012 0.58350027 0.7701985 0.56545806 0.81136507 0.8521437 0.8042917 0.8422618 0.17335804 0.86998385 0.75340635 0.22389162 0.26759508 0.7018721 0.67195916 0.1130002 0.6707308 0.46437803 0.55270344 0.47073573 0.7699469 0.16544755 0.4477948 0.99427617 1.0232421 0.6364917 0.18652701 0.51351786 -0.00926145 0.15472509 0.6524479 0.1364568 0.80803657 0.022176886 0.23869212 0.022456432 0.7021396 0.32892507 0.9631915 0.9877283 0.6916812 0.87306535 1.0134311 0.2141726 0.27615312 0.017993832 0.31262374 0.35857296 0.09086599 0.3077809 0.590063 0.25197592 0.36634767 0.5815894 0.3625817 0.69280267 0.33946264 0.7567902 0.44934753 0.09343799 0.6691449 0.7071428 0.08560645 0.10244694 0.6657645 0.19133568 0.038912706 0.4608675 0.24264105 0.5719427 0.46062812 0.62986434 0.7315683 0.75920683 0.70767003 0.4257648 0.71283376 0.313715 0.11771932 -0.080113776 0.8500988 0.122825086 0.29272807 0.95142806 0.5193857 0.6889071 0.91052634 0.17585833 0.1754307 0.6236906 0.10093077 0.39319304 0.6094345 0.14541462 0.89245397 1.0125254 0.8110083 1.0185356 0.5246187 0.7034882 0.94091344 0.11112461 0.7655176 0.4711249 0.6188086 1.0191454 0.29792875 0.13307579 0.43509525 0.21511981 0.75430447 0.76616293 0.82292163 0.874442 0.360587 0.42236978 0.36266312 0.22917862 0.46158502 0.8136151 0.73560894 0.7846263 0.6921989 0.58409184 0.31022123
l17 0.7844218 0.51360357 1.0246917 0.91268206 0.5899461 -0.106379285 0.12541024 0.17286618 0.7523557 0.8888776 0.87628156 0.80722874 0.7412056 0.86592394 0.5719284 0.8114985 0.14447288 0.511067 0.45493624 0.41658995 0.58345765 0.6708272 0.41492715 0.8184701 0.6798109 0.9669514 0.41381735 0.15187952 1.014134 0.45304683 0.34717453 0.42212048 0.17583044 0.51140964 0.14116701 0.4073474 0.8363804 0.36673954 0.895986 0.18471946 0.85388416 0.21266344 0.48072016 0.22305952 0.48358437 0.47586444 0.98211557 0.6975767 0.9218002 0.51439005 0.10549253 0.59691775 0.38354865 0.39297014 0.14157641 0.7871277 0.5474727 0.5577592 0.77598715 0.5800099 0.8736164 0.18131985 0.6470794 0.16964413 0.9426073 0.98672307 0.43756 0.4053249 0.45529053 0.66480106 0.27657878 0.6071698 0.9423307 0.67042136 0.07301959 0.8893954 0.7778166 0.70083606 0.114938624 0.31125197 -0.008151781 0.18144728 0.81157845 0.73464715 0.1334201 0.42058596 0.80691755 -0.021353116 0.83239996 0.56188273 0.7741828 0.07579315 0.40370503 0.3969445 0.70755357 0.7669807 0.74676013 -0.009139024 0.91404593 0.24051192 0.541507 0.7616083 0.7672696 0.9274049 0.46141306 0.33105534 0.4950191 0.49218524 0.4338324 0.3804059 0.6337019 0.6283285 0.23070724 0.12682603 0.23335496 1.103881 -0.018049793 0.1744159 0.4034 0.37369645 0.8962172 0.2687365 0.66937524 0.67212284 0.21030003 0.5387369 0.14640665 0.45046464
l18 0.2669105 0.93934983 0.1366223 0.28515843 0.19951828 0.5495126 0.29256284 0.235361 0.6017835 0.19998378 0.39073986 0.86114407 0.23438977 0.091989405 0.82199687 0.76074183 0.17832194 0.25940886 0.24889956 0.8632313 0.47583762 0.8773301 0.603239 0.6815207 0.17726871 0.83521664 0.37175176 0.2687415 0.5707011 0.2129585 0.8558888 0.6074248 0.5325621 1.075909 0.79697496 0.8042889 0.0408909 0.37085885 0.6132025 0.22240232 0.44930467 0.9802426 0.05287689 0.119702905 0.7985179 0.6704755 0.88067776 0.77563095 0.7157803 0.6015514 0.17414835 0.8202066 0.24105047 0.39149952 0.8445636 0.5381006 0.12065016 0.7194839 0.69610006 0.7857532 0.59451604 0.5114163 0.17253318 0.83806545 0.90946156 0.3809189 0.8397474 0.66271013 0.61181587 0.6971448 0.9682558 0.17498162 0.54257196 0.85022265 0.4768951 0.24035183 0.8626774 0.6699341 0.060845762 0.52097934 0.1546429 0.81644994 0.75583994 0.685946 0.21418652 0.15082471 0.90800315 0.45113847 0.4827434 0.33726943 0.7087082 0.73904854 0.5958836 0.5387044 0.7168374 0.9615348 0.83816653 0.44570854 0.91949207 0.09773778 0.98443 0.11630468 0.81432056 0.50879467 0.9099603 0.5332462 0.42825082 0.8271035 0.3412407 0.7594331 0.8434384 1.0190233 0.30737492 0.59947985 0.8460676 0.6697375 0.5685218 0.15753965 0.7512857 0.9747079 0.18719219 0.58682513 0.08320908 0.17436056 0.7210511 0.044455796 0.8306115 0.23622784
l19 0.17642087 0.8215563 0.36624232 0.74001443 0.75083447 0.23050468 0.14962918 0.01528685 0.21021757 0.26485097 0.10346056 0.16540688 0.89854866 0.115239695 -0.037485644 0.4771013 0.66642904 0.47678003 0.14128295 0.7339577 0.7829883 0.06741544 0.0912511 0.4388414 0.70432466 0.38234004 0.8587711 0.54023266 0.13571414 0.48770103 0.8486156 0.35344782 0.017400002 0.8944715 0.9789413 0.2325851 0.3400649 0.69903743 0.65351343 0.8442737 0.8293762 0.11900947 0.313025 0.16252987 0.53841805 0.40764293 0.98473644 0.21379732 0.20248163 0.5021948 0.38733104 0.64255667 0.7701728 0.30237073 0.34209952 0.33032286 0.11998934 0.10435644 0.31496257 0.9017579 0.6444347 0.13209265 0.19561814 0.45884848 0.88667876 1.0146878 0.4190866 0.22320607 0.3844056 0.4990644 0.5258682 0.73020166 0.8327464 0.9533763 0.52738893 0.32022393 0.1683322 0.8256069 0.8254622 0.8046089 0.6923691 0.44175744 0.449138 0.38369322 0.74834245 0.2879635 0.3022712 0.8828385 0.8504274 0.9265469 0.5375225 0.82715535 0.60329676 0.5815281 0.8595009 0.77920985 0.03366861 0.322168 0.99789065 0.912734 0.46371272 0.35294724 0.5429667 0.05395306 0.7927353 0.07901226 0.60965353 0.9153094 0.82453436 0.7771978 0.8963036 0.6186553 0.5746082 0.8840766 0.16646475 0.6870658 0.3449763 0.032043714 0.41700158 0.6597694 0.23818594 0.58544123 0.62172353 0.7897428 0.55906755 0.43999493 0.1298425 0.21073885
l20 0.5526308 0.84520066 0.4179819 0.2593288 0.27422217 0.33779305 0.6116207 0.31533006 0.31111294 0.45938805 0.46411958 0.508489 0.65828174 0.8850799 0.91284865 0.55924344 0.36951426 0.17136382 0.30221167 -0.07935216 0.5255887 0.1842205 0.8712119 0.57616293 1.0258595 0.76443017 0.6828323 0.92886937 0.85698533 0.54222685 0.3509416 0.43123028 0.81372434 0.28889456 0.37878558 0.28012443 0.60543054 0.9859822 0.41179848 0.45933795 1.0390432 1.0764089 0.088374175 0.062858604 0.7796062 0.55993485 0.34345752 -0.0048779463 0.4911417 0.8381386 0.38127437 0.6470328 0.36248487 0.51322484 0.57483596 0.6586446 0.35714614 0.8321828 0.01837529 0.7427959 1.0590467 0.33879626 0.25860953 0.7319942 0.92612714 0.3688429 0.22043562 0.103146605 0.671648 0.080798045 0.7845414 0.53273916 0.37579808 0.5728154 0.17875119 0.8351645 0.7901223 0.5856176 0.09091592 0.25547317 0.15919442 0.9024077 0.4192503 0.9019039 0.92594224 0.07453567 0.31382507 0.7139567 0.69730854 0.11907251 0.49986508 0.37611043 -0.016863788 0.26968506 0.44412905 0.093302175 0.8038892 0.55991787 0.3175801 0.60591817 0.7098791 0.19257522 0.8858602 0.9205096 0.31179273 0.30604303 0.72147155 0.1730211 0.98240745 0.8842216 0.2731691 0.26913506 0.2887533 0.38796958 0.13050176 0.30938926 0.53553975 0.29265952 0.75394106 0.81403226 0.11620659 0.73482454 0.25790325 1.0458711 0.13326408 0.24323943 0.83572596 0.1523864
l21 0.4931751 0.42806756 0.6810319 0.817838 0.5832929 -0.0155178625 0.05897499 0.21449111 0.90612185 0.8750303 -0.025309011 0.65878826 0.95447284 0.4757792 0.72957855 0.5738845 0.74835104 0.51353145 0.35013756 -0.060039207 0.50008583 0.8167634 0.2640449 0.2883482 0.28693396 0.65700805 0.13293324 0.15551594 0.81136286 0.8031231 0.9373829 0.6215012 0.9077204 0.5607782 0.22933319 0.270478 0.4973922 0.4636191 0.25003058 0.24017823 0.14771792 1.0289344 0.77306515 0.17488718 0.5798499 0.7673505 0.24551913 0.29265326 0.80459476 0.50794536 0.06753432 0.9007374 0.5696124 0.16088551 0.61430484 0.27803773 0.69832844 0.69475794 0.044514872 0.7434402 0.27225313 -0.07881802 0.40608454 0.19164297 0.5065797 0.8232741 0.29093006 0.4467598 0.10258373 0.5630299 0.55733824 0.4057331 0.51452976 0.605611 0.50237644 0.4663141 0.3830289 0.5218181 0.4837995 0.85383856 0.32260618 0.22719236 0.27245528 0.603071 0.23291273 0.6780098 0.21261914 0.037748177 0.33631575 0.6670764 0.6468113 0.8865379 0.39875066 0.688427 0.3712091 0.31145912 0.33720538 0.6665118 0.19639924 0.46139508 0.42087224 0.90238243 0.7292499 0.32504573 0.35972482 0.18282597 0.29722285 -0.013153802 0.21726389 0.26033568 1.0046657 0.2787575 0.21874295 0.20714001 0.31495777 0.4028385 0.52803826 0.43472084 0.5614505 -0.018622551 0.49362624 0.23469004 0.73807776 0.597871 0.9327251 0.038293004 0.97599244 0.12032643
l22 0.34920788 0.83220875 0.27929923 0.9501523 0.69262 0.32041955 0.09920933 0.39135993 0.8282209 0.751086 0.8806291 0.49820405 0.14892384 0.13808326 0.90714186 0.6738783 0.6803081 0.6574977 0.84695905 0.29354808 0.030061863 0.4945952 0.39197898 0.9271273 0.5773018 0.13916464 0.66563946 0.64396125 0.49519706 0.09422566 0.44876733 0.29784822 0.38715923 0.13867465 0.6826388 0.19887818 0.3068279 0.80634105 0.8691618 0.7510764 0.4031851 0.9098149 0.078897096 0.43759114 0.0679123 0.4757899 0.2949971 0.69343287 0.26773447 0.69145495 0.042599875 -0.036484778 0.4702466 0.4964385 0.55955476 0.32776546 0.6550431 0.80168813 -0.06069734 0.16474903 0.74238044 0.9065519 0.11961078 0.71520466 0.6284166 0.117964424 0.24446905 0.15038401 0.89436096 0.40911478 0.79416525 0.75980264 0.51454264 0.12904347 0.65484416 0.39601126 0.70233923 0.5333321 0.82267016 0.5871801 0.8796827 0.71040857 0.12522887 0.4919973 0.85736364 0.49643034 0.15940784 0.20668761 0.42226216 0.17133315 0.5875098 0.6944482 0.59273267 0.54187685 1.0236428 0.19876894 0.9146017 0.46591932 0.9185483 0.79640275 0.56986177 0.476947 -0.016636524 0.8134758 0.36723983 0.034582213 0.8693006 0.09851253 0.85615766 0.10700126 0.836817 0.3010212 0.1673708 0.12640584 0.784401 1.0385277 0.7049575 0.563015 0.85103786 0.46034122 0.693266 0.53919286 0.3489732 0.7519953 0.5300741 0.02717816 0.16444865 0.31518894
l23 0.629989 0.7213522 0.72301865 0.35232702 0.3176334 0.4476687 0.9659913 0.74263716 0.18554622 0.5202723 0.84798324 0.48858818 0.25042444 0.46757105 0.9755057 0.42921034 0.64112204 0.81416243 0.15169495 0.31916195 0.032974467 0.35440767 0.13573438 0.30615214 0.6981571 0.8020476 0.27298832 0.91656417 0.7167542 0.6953803 0.7019615 0.34425268 0.9278172 0.98779315 0.80849 0.87295276 0.8109067 0.6769428 0.43566066 0.09064371 0.9007082 0.80346286 0.11476578 0.119831264 0.44706127 0.18923686 0.076630965 0.90384895 0.7455017 0.23409143 0.2809003 0.63706386 0.14387387 0.37304753 0.74410874 0.39429715 0.34152967 0.7421035 0.07708109 0.65880334 0.8743281 0.1388339 0.7957226 0.9302168 0.9376763 0.1381702 0.34438878 0.35844257 0.108594194 0.38843176 0.15897518 0.28350404 0.18406774 0.8269732 0.75518537 0.5250539 0.11530758 0.60712105 0.18316743 0.26101923 0.47717857 0.070435055 0.16411164 0.17176871 0.66830385 0.2376082 0.55338293 0.6304971 0.8205331 0.81351143 0.13174005 0.5381743 0.77918094 0.9974605 0.28020516 0.7366272 0.47685602 0.10061287 0.46249825 0.15479943 0.10129004 1.0329278 0.82225925 0.78050894 -0.008074057 0.7419301 0.5179643 0.12815738 0.8801858 0.9319792 0.81682 0.34649602 0.7236026 0.77858025 0.14669916 0.7816847 0.15115719 0.56327367 0.2864131 0.6210401 0.87583154 0.48228183 -0.10424059 0.52038 0.28607348 0.82153773 0.44957486 0.5257019
l24 0.80483425 0.20502648 0.4321079 0.9023482 0.93345785 0.33694768 0.5385372 0.6223054 0.9047528 0.66069114 0.43296194 0.31361747 0.24391818 0.5696589 0.625933 0.8578054 0.23953456 0.15178318 0.7394544 0.17856535 0.41331583 0.2198607 0.5605287 0.23968507 0.13105868 0.64727134 0.5368085 0.83223933 0.95995754 0.3044612 0.8293871 0.2254391 0.7530092 0.6037064 0.9872932 0.9590028 0.49964657 0.29328144 0.4840721 0.72033864 0.7058234 0.504782 0.4606271 0.90756005 0.62544906 0.8346571 0.49193782 0.59943974 0.13211595 1.0032953 0.5537322 0.49420485 0.8350114 0.8311116 0.8139203 0.7414251 0.7576629 0.40862364 0.05793988 0.3959804 0.6321126 0.13003828 0.037519675 0.41763923 0.66377085 0.555507 0.60663176 0.56526804 0.48908105 0.4016711 0.5314299 0.9531751 0.7665818 0.085654035 0.95592475 0.2930017 0.13091782 0.20563598 0.45154557 0.6691988 0.6339463 0.9883467 0.0043745954 0.5105893 0.3714781 0.966955 0.99056435 0.79482913 0.66974974 0.6528461 1.0224558 0.6301566 0.52622944 0.93958634 0.48260272 0.089892134 0.49035454 0.12669306 0.7976778 0.36550117 0.24059409 0.1023627 0.94359136 0.11245279 0.988021 0.2875084 0.2809887 0.4254344 0.3361431 0.32334203 0.22084798 0.3207133 0.5944404 1.0113647 0.20259236 0.4721597 0.7166746 0.081143804 0.16053484 0.39957127 -0.056563273 0.34396607 0.40130812 0.55521417 0.12496699 0.9451618 0.37320164 0.75896376
l25 0.18985781 0.8211827 0.3859565 0.79359525 0.42011926 0.7642687 0.9254541 0.9472462 0.65674233 0.5906851 0.73710245 0.68619704 0.34005174 0.1375682 0.59225446 0.74421597 -0.0315002 0.39742953 0.6374166 0.14232317 0.17897359 0.6537428 0.601942 0.3987478 0.031015258 0.16229455 0.27062225 1.0027643 0.1871482 0.1958468 0.17161943 0.86502916 0.96514225 0.645509 0.23152688 0.7793808 0.45209655 0.9473961 0.2785635 0.8130424 0.7390278 0.541973 0.38775522 0.89609706 0.6737866 0.35529152 0.44771597 0.10982962 0.29713157 0.71678257 0.49452692 0.2535881 0.63408935 0.19744319 0.16524488 0.5692356 1.0097842 0.25293967 0.28590184 0.6528766 -0.004846043 0.37625986 0.593891 0.22479783 0.54710126 0.20762333 0.3069867 0.70194346 0.7593147 0.7392117 0.5205795 1.01961 0.7604267 0.53895825 0.7379374 0.26790687 0.33922553 0.032260846 0.86677575 0.18322678 0.91221035 0.34679985 0.464776 0.2116544 0.5178384 0.16126032 0.28748256 0.3956468 0.39919373 0.537644 0.28639105 0.9231047 0.6212068 0.83597213 0.42338338 0.27126956 0.5329846 0.60046005 0.15085234 0.5362915 0.38591024 0.28777406 0.7434491 0.089840986 0.74615264 0.06472552 -0.07473987 0.18056293 0.7676482 1.0441396 0.45592663 0.8311966 0.12404049 0.57578146 0.66296625 0.7650735 0.25471565 0.3358472 0.20970568 0.40085968 0.37388286 0.58952403 0.5874805 0.9517831 0.90477425 0.48196432 0.8816339 0.25223234
l26 0.7970572 0.24403568 0.5308701 0.74772877 0.24660267 0.677144 0.9584138 0.43745837 0.233289 0.78573424 1.0064331 0.7799718 0.42874658 0.97245634 0.43486196 0.5988139 0.79506505 0.75240463 0.45823786 0.18819264 0.7042141 1.0215304 0.3605617 0.2816812 0.84083027 0.6717042 0.34476304 1.003351 0.123542 0.25500283 0.23158588 0.8199467 0.12612884 0.5620001 0.56584835 0.46172413 0.7538278 0.4103727 0.6552167 0.6328887 0.4637482 0.6560278 0.48368382 0.40727517 0.111027874 0.97765946 0.9140463 0.77714336 0.2602824 0.21766976 0.07697941 0.692156 0.7076771 0.106963076 0.7888088 0.32179284 0.96357626 0.92505544 0.33451328 0.16129097 0.78934175 0.78726095 0.7055336 0.41772476 0.29389504 0.6810517 0.7354791 0.07284812 0.99072146 0.5657001 0.9354238 0.6569971 1.0131874 0.89176977 0.2812516 0.9253248 0.6211986 0.35398084 0.7135168 0.746725 0.3985029 0.6046003 0.07836723 0.23212244 0.57476115 0.24781956 0.7053372 0.4223044 0.20934212 0.75551784 0.37709057 0.8385508 0.42714122 0.68373114 0.71054053 0.5431571 0.36034366 0.24277696 0.39001462 0.2900753 0.14867906 0.12180272 0.73454124 0.25617704 0.5811852 0.6525611 0.28627235 0.36294627 0.7164827 0.7937142 0.74582326 0.0812813 0.16273884 0.64359856 0.2114943 0.9792642 0.33333582 0.7769292 0.0032050987 0.09236569 0.22452168 0.30090266 0.36628678 0.054841463 0.69049174 0.4974357 0.33828324 0.03880348
l27 0.49507278 0.22873417 0.37495404 0.7289277 0.5810792 0.5934229 0.27765736 0.77229756 0.03122999 0.41544542 0.4933385 0.75272113 0.7665241 0.17660421 0.60493106 0.31167167 0.81013286 0.87788206 0.22564657 0.21774416 0.62773144 0.9723455 0.50421125 0.88360023 0.37706733 0.2871139 0.75448495 0.59777683 0.2138934 0.33633715 0.6191363 0.1173479 0.68601024 0.7180151 0.27821293 0.19623311 0.38823417 0.6513796 0.6088241 0.15199201 0.3781767 0.34559292 0.63599145 0.5007752 0.55923325 0.30017522 0.060245123 0.07287359 -0.034426104 0.5682496 0.45547205 0.8128537 0.7306666 0.11405574 0.15420826 0.04584029 0.2312466 0.9890106 -0.02623034 0.78941125 0.22782657 0.17817767 0.6332027 0.256553 0.8056041 1.001274 0.1535052 -0.0029654037 0.992393 0.8305404 0.13304804 0.43706337 0.7903273 0.940403 0.42610374 0.6629148 0.9085939 0.0028413818 0.7246836 0.8580087 0.21919906 0.3738755 0.7148153 0.18456243 0.44565162 0.2339451 0.33050644 0.69407314 0.3473309 0.57651126 0.39435875 0.9730561 0.30169287 0.2735782 0.88394135 0.5073548 0.14697273 0.23168917 0.3076519 0.2581608 0.09492071 0.5718184 0.9605709 0.4708158 0.8222778 0.14108005 0.5168445 0.5554229 0.311198 0.6823289 0.21101902 0.38189298 0.24285866 0.14369111 0.27706048 0.31157833 0.03544082 0.12922901 0.17236617 0.4572254 0.5151923 0.29864293 0.3046792 0.42721277 0.09395556 0.32739908 0.6318412 0.5253375
l28 0.6016257 0.2941803 0.4263475 0.20752203 0.36804563 -0.09042413 -0.03345202 0.6059685 0.8933242 0.9589966 0.6243462 0.9636324 0.31498942 0.57068074 0.33937627 0.80031884 0.4114837 0.5712297 0.84918725 0.18505341 0.87646985 0.81084615 0.09405727 0.075773746 0.706341 0.40903243 1.0594555 0.35767922 0.8978893 0.039519113 0.6810757 0.18037346 0.13955359 0.09495215 0.8505293 0.5628114 0.22011001 0.43686447 0.4936688 0.31169465 0.15602756 0.5164365 1.0005544 0.6214752 0.18582612 0.87351024 0.66438854 0.25224417 -0.105716035 0.72619486 0.10153911 0.8443749 -0.052407164 0.59110415 0.2503049 -0.12195707 0.21554749 0.66960174 0.5765061 0.88670677 0.0945978 0.22085352 0.37451383 0.4576518 0.25192308 0.39733654 0.18528019 0.812668 0.4862328 0.032110184 0.27646148 0.50311756 1.0175943 0.8126185 0.16645798 0.6262458 0.34221086 0.80953825 0.35037515 0.16957673 0.42975944 0.5143906 0.55942774 0.75697094 0.5647367 0.846077 0.85639787 0.27182505 0.4538141 0.80745256 0.92127746 0.72673684 0.70546395 0.719993 0.8892537 0.91792256 0.66419214 0.31325713 0.09704834 0.18161409 0.12929316 0.3773317 0.6157552 0.32204422 0.4377265 0.89656556 0.10873973 0.98689455 0.5310017 0.4169089 0.8045536 1.0039052 0.83816993 0.66354007 0.8126572 0.29532602 0.6809057 0.4195022 0.2812318 0.9337019 0.5830271 0.8495608 0.5300668 0.89048845 0.26337197 0.44550616 0.6364427 0.14465566
l29 0.97435814 0.1049955 0.5840027 0.14738078 0.90226626 0.1810103 0.6141334 0.94504565 0.5176723 0.5326835 0.12811665 0.97901475 0.40990052 0.16065912 0.19841123 0.67275894 0.16788971 -0.007922363 0.51620406 0.9478295 0.21774013 1.0100678 0.2329307 0.26646334 0.818233 0.07007795 0.36148676 0.6824967 0.4461953 0.6608653 0.24882151 0.45024905 0.15303817 0.6860434 0.6651863 0.933522 0.53782475 0.6848749 0.7246916 0.5851191 0.70394385 0.91057855 0.7479451 0.28012452 0.45186532 0.69407594 0.5864498 0.3250655 0.21014541 0.51714283 0.24921815 0.32604647 0.2562347 0.504964 0.8677815 0.66015416 0.44830164 0.43432572 0.49598444 0.42847008 0.30270952 0.17178032 0.42972264 0.06577059 0.29162836 0.11926167 0.4788945 0.035053622 0.6055281 0.1701892 0.19879682 0.84560865 0.70476896 0.26102388 0.05249169 0.5239231 0.41590494 0.6470395 0.5633081 0.7858151 0.23338747 0.89208114 0.43050307 0.45405516 0.13720882 0.591937 0.30422086 0.50724727 0.6149241 0.9162313 0.21925418 0.3592396 0.6198603 0.6757942 0.76403505 0.7699475 0.55051446 0.0839713 0.37079924 0.33769047 0.10222815 0.85093653 0.17928396 0.599728 0.69823503 0.7042534 0.8888318 0.9986896 0.7287448 0.6478579 0.643562 0.08255464 0.35694268 0.88674194 0.3404468 0.27866572 0.44784182 0.2318958 0.54391366 0.43768156 0.342455 1.014214 0.32586065 0.7130813 0.78081554 0.43114367 0.03509887 0.25637147
l30 0.15860932 0.40528774 0.5559437 0.39806372 0.7683444 0.032759175 0.82903945 0.4600591 0.826517 0.9360721 0.42977226 0.46763402 0.27729148 0.7062491 0.8977129 0.6862328 0.7866602 0.31891185 0.5988931 0.17131206 0.8856424 0.42278346 -0.027268017 0.06276557 0.25897908 0.34769553 0.77933013 0.6130494 0.05672258 -0.065771006 0.6475602 0.48540714 0.7284777 0.6361782 0.31767616 0.28177553 0.24935457 0.7055375 0.20435302 0.26085624 0.12705116 0.28313515 0.33540902 0.17846173 0.2597781 0.45283058 0.22794604 0.5598477 0.64359313 0.05713013 0.40756613 0.44133425 0.24676652 0.65925074 0.19622676 0.25234032 0.2251484 0.8135889 0.8786664 0.47643328 0.5394545 0.025093317 0.618502 0.018954009 0.67668045 0.9889326 0.5804452 0.17487773 0.31524178 0.19241466 0.1611503 0.13132054 0.53660136 0.5130647 0.5489199 0.45916536 0.70981365 0.0689901 0.616893 1.120398 0.86114144 0.4990391 -0.009751383 0.2580648 0.3752962 0.2081443 0.4452573 0.40919995 0.439412 0.3937253 0.7039155 0.8839477 0.37628618 0.6647333 0.68204916 0.6554787 0.37932315 0.5513382 0.30579776 0.3693566 0.65184116 0.59133023 0.9371737 0.29330862 0.43507499 0.025302323 0.69925493 0.7175695 0.11178925 0.45344293 0.5314626 0.7767379 0.7456178 0.29149818 0.14072621 0.7024511 0.025233908 1.0350121 0.22754453 -0.015358911 0.6554698 0.68453556 0.8656239 0.54108876 0.27898207 0.3138483 0.07552645 0.4685747
l31 0.5934118 0.9098795 0.7310175 0.719228 0.85252 0.84309137 0.6982986 0.38310057 0.7794958 0.4580448 0.7583484 0.35391223 0.15376207 0.54991615 0.77363485 0.05117069 0.45467216 0.8394075 0.6190006 0.38346508 0.41894338 0.16152394 0.14767395 0.7832064 0.23759563 0.5651943 0.71600425 0.23729604 0.6278901 0.57979566 0.28700888 0.56685835 0.6603915 0.089291506 0.13633612 0.25591785 0.59427977 0.5726096 0.57737404 0.24736637 0.49105635 0.7320055 0.12744185 0.25766653 0.4971226 0.4010043 0.6457718 -0.03942816 0.37954482 0.13324448 0.6307883 0.36938688 0.09673448 0.42231384 0.1181318 -0.08429711 0.31857267 0.6184936 0.081220545 0.38171706 0.27979064 0.71710855 -0.07880836 0.2530093 0.25400656 0.59167564 0.23759814 0.84562504 0.9766364 0.35351235 0.91182864 0.48782703 0.3550634 0.6984737 0.35326263 0.15620361 0.536699 0.58376545 0.27203795 0.74116087 0.031302843 0.60328186 0.70381826 0.92413 0.42917287 0.02324976 0.54363394 0.7387569 0.21450733 0.31266457 0.23596051 0.19493382 0.65137756 0.54760545 0.27643716 0.9756654 0.6791621 0.72342026 0.8956957 0.034279015 0.517053 0.7328745 0.7213815 0.88507485 0.4235852 0.07950353 0.93691105 0.7865908 0.29537687 0.08281967 0.878238 0.23266236 0.46940207 0.21577111 0.17401114 0.780097 -0.04178801 0.29370296 0.3604496 0.43755862 0.038219746 0.8805793 0.59604144 1.0109314 0.6195473 0.76154965 0.84834236 1.0269722
l32 0.95291984 0.33699152 0.656651 0.50087714 0.787298 0.14449333 0.80090547 0.087781824 0.4486748 0.9087483 1.0157537 0.43186525 0.675497 -0.0092356475 0.16292372 0.8055317 0.42453763 0.5024706 0.45117515 -0.03434764 0.27516237 0.30590317 0.8740596 0.014165095 0.5187176 0.92925245 0.396179 0.6630091 0.33630994 0.76807773 0.7101973 0.18817455 0.54954296 0.26761234 0.48047778 0.43633494 0.5547656 0.260806 0.8298348 0.13470496 0.12715057 0.29363436 0.2767233 0.38395226 0.20170389 0.610928 0.88949454 0.86201185 0.44913295 0.84800124 0.5645475 0.087762356 0.27747756 0.3248506 0.14192495 -0.015442813 0.10672119 0.80739427 0.26386458 0.16644809 0.01813742 0.51495343 0.27612898 0.8252466 0.2733754 0.59677845 0.33059373 0.3760279 0.4914702 0.013262268 0.70403624 0.9058875 0.13102365 0.73573095 0.08559844 0.8861331 0.5142085 0.07273529 0.61399984 0.81150645 0.03578888 0.42723674 0.10838248 0.9971638 0.5652355 0.4505402 0.85885566 0.21660268 0.8826579 0.78427714 0.3729251 0.54017466 0.32948875 0.5145549 0.2548551 0.37471366 0.6149676 0.79937154 0.11451151 0.72618335 0.2985506 0.6586867 0.77527887 0.6306739 0.8228305 0.14329211 0.79519755 0.26374254 0.9411175 0.44595885 0.7061065 1.0061487 0.5587475 0.5477517 0.029816883 0.09289302 0.37754807 0.26097128 0.9726305 0.27993825 0.38135275 0.30754533 0.4441625 0.45306748 0.87663716 0.58733904 0.78096014 0.81440973
l33 0.5689787 0.3699318 0.8968892 0.54202676 0.575515 0.7942698 0.84280366 0.6895392 0.8076833 0.1759372 0.5485784 1.0797739 0.3013114 0.62604016 0.75062996 0.8929389 0.022051327 0.03318461 0.22126746 0.79830754 -0.03955315 0.58035326 -0.025810739 0.5402731 0.04336726 0.7628927 0.8971848 0.87527955 0.8159492 0.89336115 0.90978366 0.043733746 0.15704444 0.33021975 0.8575648 0.7536764 0.06891701 0.16677496 0.5978717 0.17498049 0.1345362 0.973857 0.7433073 0.03330205 0.25234792 0.3736589 0.29649577 0.40465495 -0.03404554 0.1763336 -0.009758756 0.56124556 0.26613122 0.31347886 0.18953879 0.30662236 0.21078792 0.13073292 0.9151191 0.27511117 0.6707675 0.04340387 0.5358547 0.76456714 0.4412153 0.75070846 0.21327057 0.14192618 0.6286019 -0.036837228 0.42166826 1.0129324 0.70463556 0.44391575 0.15816668 0.34652558 0.95023966 0.8974108 0.352048 0.1855655 0.65050364 0.7590437 0.72852504 0.59022236 0.13528839 0.5409041 0.9723364 0.6073557 0.08036691 0.26156405 0.9402066 0.7915959 0.12161365 0.83474994 0.98400974 0.3402927 0.12758623 0.8066163 0.29414472 0.34373957 0.92682785 0.8767295 0.7053474 0.64621836 0.46897715 -0.04204655 0.7570166 0.6734435 0.40053123 0.7061256 0.9141506 0.26149726 0.9089019 0.06662703 0.41710332 0.083156765 0.76687014 0.18926054 0.7893968 0.045646813 0.27918616 0.6679657 0.703059 0.8726781 1.0030224 0.25866845 0.6158849 0.36750343
l34 0.77499866 0.75164187 0.18113549 0.5371922 0.015167319 0.67409855 0.41028842 0.8031156 0.4487819 0.43052 0.2937183 0.011837895 0.91528666 0.6856892 0.57154834 0.62868124 0.733851 0.26713845 0.1613745 0.358993 0.71872383 1.0349963 0.41181496 0.43976283 0.29434428 0.47954836 0.56274927 0.94276285 0.9456955 0.64819455 0.360744 -0.033212867 0.6626398 0.9545737 0.19726196 0.38667482 0.7980301 0.9191906 0.58255017 0.24129048 1.0341197 0.51621276 0.9431842 0.58207905 0.6196021 1.0213565 0.74178356 0.8957079 0.85710764 0.629197 0.85373914 0.5357175 0.5078028 0.13098375 -0.07268928 0.6548046 0.15780693 0.61197346 0.77643126 0.1570674 0.51020026 0.73036027 0.8361362 0.028693417 0.47169036 0.077628724 0.91829985 0.48415747 0.6094852 0.1095967 0.038195945 0.7609865 0.95219 0.92162085 0.9827841 0.40069082 0.26311088 0.34745374 0.39988777 0.86439174 0.8236942 1.0145364 0.76925766 0.19313878 0.5494095 0.41867414 0.17340086 0.39658207 0.7924193 0.28296128 0.70902056 0.25514233 0.27635455 0.86203635 0.5005392 0.12212069 0.7304232 0.68646467 0.54785204 0.76498145 0.92614156 1.0833246 0.13304025 0.3892331 0.16958243 0.2957477 0.45124608 0.4357205 0.45417926 0.05809703 0.950074 0.6252158 0.79315877 0.16668658 0.6324989 0.7240065 0.008036069 0.7361426 0.22396807 0.8789836 0.22162108 0.36215293 0.6337342 0.89806944 0.7998274 0.9048041 0.69983906 0.39036593
l35 0.9900023 0.33927694 0.6452645 0.47446015 0.121972635 0.48674348 0.76767737 0.28050157 0.60271466 0.29989922 0.80399823 0.60539603 0.45684153 0.46074077 0.8699003 0.37496465 0.8432115 0.33404362 0.77668864 0.7488563 0.3539725 0.26453084 -0.072253145 0.4493691 0.24005255 0.8696104 0.26009333 0.4949884 0.5561379 0.6688228 0.5997338 0.54148036 1.0133138 0.7428646 0.0692308 0.15556443 0.42017853 0.23001947 0.68419045 0.11723654 0.8508177 0.6684349 0.31797498 0.35632497 0.16629423 0.13672383 0.1478044 0.27119792 0.020377776 0.78613645 0.48704663 0.55322915 0.63826144 0.8778121 0.040955372 0.52666724 0.8134912 0.5811699 0.75419074 0.10124827 1.0245414 0.21975066 0.5678343 0.27123764 0.18946621 0.67561406 0.673127 0.5096844 0.8693878 0.041944522 0.62768364 0.8605473 0.1434793 0.167666 0.40717962 0.12097094 0.7847418 0.7234004 -0.0046294034 0.71346194 0.71864676 0.55051416 0.51268953 0.41137907 0.9511866 0.5784562 0.66426986 0.14611658 -0.014759072 0.27715993 0.130601 0.555076 0.13498744 0.6736271 0.48119143 0.40497017 0.29584092 0.80648345 0.7396712 0.64918643 0.28488246 0.7415697 0.22451557 0.6902593 0.19418743 0.30869797 0.3841571 0.12541823 0.65361756 0.3582393 0.28963012 0.9568413 0.17794892 0.6476836 0.96950763 0.54098314 0.6804664 1.0586553 0.8564549 0.07758855 0.8699735 0.30074057 0.36909336 0.15289871 1.0048885 0.31314144 0.37208477 0.6854419
l36 0.29076642 0.6222 0.7672485 0.33135876 0.68893385 0.55527705 0.119641855 0.27051905 0.3812286 0.85780144 0.62246627 0.8341724 0.87567854 0.29144695 0.62285554 0.98732185 0.20831884 0.09447683 0.18368383 0.8621262 0.8837127 0.7250184 0.78024244 0.4302933 0.25111464 0.5024539 0.98162466 0.3693632 0.96101034 0.012393688 0.37359297 0.56971407 0.23793665 0.7051409 0.815454 0.9445738 0.85767 0.73007643 0.43839747 0.65982074 0.99127024 0.68144506 0.7198126 0.22425748 0.6787795 0.4122578 0.040656958 0.7865748 0.027516305 0.40724185 0.582672 0.1453396 0.23311828 0.42105913 0.17462766 0.3293184 0.6980993 0.11326094 0.6064523 -0.0005178936 0.3638866 0.21670663 0.69479394 0.30167136 0.32764336 0.110501535 0.7213413 -0.06389223 0.59260696 -0.01434439 0.38444853 1.0221989 0.8813331 0.23284018 0.89171517 0.854866 0.97888297 0.41255134 0.64011765 0.9449822 0.532647 0.4653854 0.31346732 0.5298275 0.99343 0.53998077 0.767721 0.3742247 0.63580245 0.18023193 0.5618369 0.061057184 0.37766567 0.14418347 0.8999893 0.33544984 0.6823286 0.6664917 0.9214056 0.5240635 0.38033092 0.70328736 0.6356347 0.5834084 0.048804715 0.7481602 0.4424222 0.6336483 0.29234654 0.60289407 0.883 0.95052177 0.15653406 0.20965233 0.40591824 0.3992489 0.20450124 0.5915502 0.12463856 0.39583874 0.08246026 0.82596064 0.6694203 0.84178686 0.19183755 1.0026197 0.67662364 0.26530293
l37 0.98921275 0.53533125 0.69293165 0.59274733 0.7397462 0.68837667 0.52554375 0.48575327 0.25382882 0.39055306 0.91035986 1.0396525 0.96809876 0.8970713 0.5713717 0.6983203 0.42002794 0.25260007 0.29346398 0.4767156 0.865165 0.7602977 0.89342344 0.87688726 0.0871114 0.3830871 0.92416126 0.10975103 0.8510424 0.5142192 0.61368775 0.6227096 0.25674793 0.3726833 0.13647145 0.20495935 0.03316337 0.99657756 0.30796954 0.81344754 0.5143873 0.35660195 0.41726932 0.13571456 -0.028532652 0.3543416 0.7422889 0.6486867 0.41595215 0.15622737 0.5448264 0.41857955 0.21074186 0.9746277 0.5518141 0.77812374 0.47952738 0.31800354 0.5748101 0.534457 0.48999313 0.38870087 0.7556569 0.06301167 0.90432876 0.76516473 0.3608594 0.33986518 0.17213292 0.73376536 0.5216743 0.8725397 0.5131351 0.13085164 0.7816758 0.33201775 0.18489644 0.7870678 0.80374706 0.14662175 0.09209542 0.62364936 0.10437192 0.9705769 0.568745 0.64713246 0.07775756 0.31233838 0.8999044 0.33434117 0.08134968 0.9536595 0.27653027 0.42245215 0.09550529 0.92608863 0.5972624 0.35865062 0.18173403 -0.02030623 0.56034166 0.7446197 0.12046081 0.6934243 0.5933045 0.58196014 0.6775634 0.53308076 0.465543 0.73404306 0.57937807 0.3573203 0.5905404 0.14226124 0.936145 0.5270608 0.27541536 0.9889812 0.7420856 0.70302 0.24950354 0.95737106 0.13151163 0.039304204 0.8285807 0.74105024 0.56108904 0.5608165
l38 0.19656703 0.6344689 0.30403078 0.6341366 0.90932477 0.33907083 0.82101226 -0.008891286 0.32880762 0.8725758 0.37235868 0.12687159 0.16417612 0.9538327 0.07249767 0.64271504 0.840999 0.09597933 0.8817493 0.41120327 0.25298405 0.27901512 0.3727093 0.6841226 0.3343735 0.8717081 0.94758844 0.59333 0.5642729 0.054896332 0.05819131 0.06011648 0.43659937 0.6678932 0.26770929 0.7700485 0.3910747 0.48722708 0.9190183 0.8936052 0.31972888 0.9517872 0.95377076 0.24255572 0.25140566 0.46298295 0.74393386 -0.008874839 0.05951064 0.47123578 0.14365512 0.60328126 0.6943206 0.18565653 0.685726 0.34137893 0.84084356 0.9912121 0.050905477 0.79466075 0.41555998 0.26317808 0.8290454 0.604317 0.9288678 0.94857025 0.6786484 0.19009481 0.30796278 0.35544673 0.21448818 0.84533966 0.6711959 0.1532042 0.721626 0.7826313 0.44859585 0.91041404 0.7420665 0.22471844 0.8237777 0.34211752 -0.022280807 0.71092993 0.05828204 0.20662484 0.29962817 0.83880985 0.14477578 -0.014921264 0.641944 0.43600723 0.1775035 0.6988509 0.23229489 0.3268371 0.33158997 0.0137412455 0.38712332 0.7060543 0.75045043 0.8493531 0.45188662 0.4592875 0.8064476 0.69680643 0.50011915 0.7789521 0.13923943 0.15412784 0.49884206 0.7876709 0.7615427 0.5497096 0.8578392 0.5071862 0.9297567 0.8758717 0.11129831 0.17614153 0.3600523 0.95366037 0.5714499 0.6280558 0.47485733 0.9751201 0.41351256 0.20809782
l39 0.22338118 -0.020855699 0.5073764 0.093965635 0.73083436 0.3989598 0.41054156 0.25425142 0.7050336 0.21478678 0.7600978 0.26679754 0.4759602 0.9763149 0.19412659 0.6953674 0.5971738 0.118643105 0.122096725 0.7892208 0.130468 0.5985723 0.19982274 0.057970677 0.4474339 0.28724197 0.81230307 0.036426682 0.5088046 0.70938665 0.29041377 0.45051667 0.9468835 0.67037404 0.49338147 0.7713282 0.048714403 0.88958734 0.8942125 0.18430744 0.6870619 0.24360488 0.14521596 0.78742355 0.54093826 0.5346078 0.62646794 0.42937404 0.24278563 0.36308917 0.4881183 0.31631157 0.32552454 0.24072413 0.051090486 0.16195895 0.7453726 0.51465404 0.78108 0.67561233 0.24277808 0.8385787 0.7294409 0.7424766 0.30138558 0.4083992 0.99318564 0.31667763 0.057243604 0.64419246 0.9564869 0.28775823 0.6324574 0.82263577 0.73417985 0.6627271 0.16226473 0.75266385 0.91282386 0.81415 0.5751473 0.7142182 0.33675006 0.7171388 0.29004776 0.80745226 0.6793454 0.16761419 -0.030163333 0.09235551 0.5894891 0.57274556 0.2656492 0.5398542 0.48179114 0.48251677 0.63485855 0.01245772 0.2980373 0.31206656 0.68163794 0.5072525 0.50296646 0.92612207 0.95232123 0.26746935 0.79807204 0.110399365 0.34750804 0.17366692 0.9191445 0.9896292 0.89362156 0.8739346 0.10519884 0.94129765 0.5235364 0.7118165 0.8440535 0.48027974 0.35997406 0.68612516 0.108235806 0.2663877 0.6677833 0.1605676 0.24210033 0.8887935
l40 0.45124555 0.38423488 0.91667694 1.0429124 0.7425355 0.680683 0.2641877 0.38379812 0.45558637 0.14543246 0.49147433 0.04691918 0.4522654 0.7546176 0.3330886 0.82587564 0.1877777 0.5930869 0.29895574 0.760742 0.2128238 0.25986344 0.19176096 0.2809664 0.82333976 0.11588297 0.25757015 0.84652907 0.52641016 0.1013534 0.5918894 0.37151688 0.70936084 0.61985964 0.29251078 0.11394508 -0.09879952 0.6688151 0.60528815 0.45188478 0.13612272 0.43693435 0.9042476 0.5908117 0.008917318 0.22593121 0.6154768 0.46278602 0.34301126 0.60528755 0.42640597 0.6954526 0.2386555 1.0103915 0.6586795 0.36200297 0.3950146 0.7736371 0.1082119 0.78212327 0.08689887 0.5282241 0.3156624 0.6508291 0.49098712 0.9551544 0.9639138 0.70282704 0.3803934 0.5600374 0.12587613 0.37168753 0.55638736 0.20533927 0.15180159 0.48882103 0.0014816384 0.10333087 0.79090077 0.25622496 0.7818408 0.78158665 -0.061600965 0.16845764 0.49319592 0.38021743 0.90854985 0.80031985 0.05431378 0.7792089 0.44601297 0.74750286 0.8952191 0.7888639 0.5516226 0.27475518 0.31890422 0.7738339 0.23137274 0.40811545 0.17776649 0.28302324 0.29640245 0.84498763 0.17110115 0.8499641 0.17143588 0.9167581 0.29359183 0.26281443 0.41734824 0.39713055 0.36892894 0.63208437 0.8730728 0.9369471 0.06509809 0.8217302 0.86097294 0.5282688 0.17407463 0.29014435 0.55514616 0.4704858 0.7155584 0.31774518 0.872727 0.108224854
l41 0.26920894 0.081324205 0.2746598 0.05638034 0.43206292 0.50031066 0.5318284 0.3562909 0.64102316 1.0023413 0.8721863 0.36301485 1.0200074 0.54106647 0.54574764 -0.02773262 0.36971712 0.8978811 0.041318107 0.055753756 0.3789639 0.36349216 0.25974742 0.2581054 0.36991328 0.35531962 0.10253684 0.9306685 0.52842724 0.2735471 0.44051296 0.21619222 0.8506923 0.7717797 0.30346826 0.6564925 0.9257276 0.3708642 0.6047215 0.93193 0.9346008 1.0520915 0.17912444 0.32314244 0.5764118 0.5788357 0.1064314 0.709304 0.18294749 0.9431971 0.80227715 0.12851825 0.11267547 0.59698534 0.13966532 0.5435491 0.6166407 0.04247764 0.40861502 0.58960813 0.84518635 0.04353156 0.6726732 0.2236447 0.05053925 0.03671652 0.11550888 0.11045884 0.8758351 0.42375335 0.6713212 0.62112665 0.8684594 0.5020552 1.0089527 0.85125107 0.29750955 0.42725253 0.33414802 0.76697254 0.22771202 0.29772282 0.336566 0.7680724 0.7461205 0.28364223 0.0283058 0.86114186 0.71239746 0.80343866 0.4682197 0.9332616 0.77110827 0.5137367 0.2967817 0.75733507 0.5761971 0.8801716 0.18638441 1.0119842 0.74467444 0.68286365 0.52280813 0.7767982 0.37621713 0.5580208 0.75361156 0.34395635 0.98868686 0.70860845 0.097662635 0.71298254 0.64366555 0.6689836 0.22383013 0.45483088 0.72049737 0.18329467 0.3884954 0.35796013 0.22303984 0.31137428 0.03035108 0.35770005 0.6732301 0.14174591 0.39720488 0.52791643
l42 0.89279795 0.19146366 0.19169635 0.27951476 0.1818923 0.47585323 0.38921422 0.47066462 0.6217056 0.67439234 0.8994941 0.66272026 0.9694309 0.20282516 0.66621625 0.26507744 0.61896706 0.5455735 0.027880523 0.7098582 0.07594408 0.12298543 0.43866953 0.250721 0.70672673 0.3459457 0.64962804 0.51100975 0.5243084 0.67780584 0.4632252 0.5338801 0.79086083 0.40380186 0.31346133 0.43454918 0.50316113 0.326353 0.9223082 0.7838415 0.5391888 0.94098043 0.73452294 0.8233299 0.27549893 0.45963305 0.89573693 0.85480356 0.3718009 0.65637594 0.019427352 0.97829735 0.9842099 0.40279287 0.5098601 0.9131098 0.48514375 0.8913766 0.48979232 0.7699318 0.37008482 0.3111989 0.2031206 0.1517099 0.68071455 0.08566762 0.70580477 0.9029973 0.67236876 0.27912048 0.37016314 0.40951526 0.63630134 0.5129166 0.7844678 0.3749381 0.48115435 0.50020176 0.74403775 0.16903472 0.3937902 0.6016911 0.6319418 0.39096248 0.73694795 0.71656704 0.736959 0.05894505 0.6015347 0.8466602 0.69972134 0.20221348 0.20357774 0.3901794 0.68994117 0.76722413 0.8465346 -0.032329667 0.7946512 0.96462977 0.5850236 0.50089973 0.24777399 0.6139881 0.23849328 0.42374384 0.9332623 0.86203897 0.8057285 0.4941946 0.9320728 1.0298414 0.41403437 0.9431828 0.8646131 0.8667939 0.7519357 0.92041236 0.55775094 0.15533432 0.16129771 0.64414567 0.4796472 0.5323789 0.5580526 0.8124128 0.4623554 0.2204249
l43 0.9220411 0.27983245 0.8700307 0.7012762 0.22712997 0.35768852 0.010589474 0.9596768 0.3242383 0.33154303 0.24223642 0.77831936 0.7007868 0.87910056 0.7410888 0.3910027 0.29397097 0.8535512 0.36345363 0.5828124 0.3930363 0.5036031 0.4163406 0.47187853 0.16572978 0.75386435 0.81699497 0.6489225 0.9333876 -0.032949097 0.7237749 0.29327396 0.3748693 0.86033154 0.32778242 0.95922244 0.1375 0.30564696 0.59143585 0.4053477 0.07622478 1.0025932 0.52246 0.6828401 0.31632656 0.31873548 0.43672776 0.7635902 0.35903007 0.34406778 0.5771425 0.50077546 0.19257578 0.24367881 0.28451246 0.243932 0.118907884 0.18947284 0.7399759 0.12654193 0.38433522 0.5182626 0.57315403 0.3144392 0.7072076 0.06998982 0.29956132 0.6217945 0.88846624 0.83566755 0.3574686 0.6537784 1.0322409 0.54390246 0.47993335 0.7737155 0.48459092 -0.0038774072 0.10848016 0.39450738 0.78877217 0.24787134 0.733816 0.4621147 0.96862817 0.6399939 0.8678992 0.13491002 0.77817345 0.9005109 0.81244487 0.05536426 0.58853173 0.5503692 0.62639236 0.5845316 0.53562975 0.19584244 0.2868243 0.80867904 0.5535442 0.96064943 0.54568106 0.77828777 0.7135255 0.74979186 0.042858094 0.20853834 0.53712744 0.12939031 0.5847629 0.9428384 0.36589095 0.35470662 0.57446975 0.14587906 0.45941558 0.25312063 0.047535416 0.73413324 0.3087124 0.5341771 0.91523343 0.8138512 0.80885106 1.0315099 0.12096088 0.887379
l44 0.70885247 0.5181352 0.9849561 0.9310082 0.68381995 0.2899779 0.23264791 0.6112424 0.6361309 0.40689802 0.2479543 0.7928629 0.2252666 0.39853713 0.75985736 0.6984971 0.15929271 0.21641561 0.44179395 0.25806636 0.23635596 0.41136235 0.17192338 0.86360484 0.37197384 0.60287523 0.38665318 0.2734617 0.61661905 0.13644964 0.6606677 0.17243835 0.7706048 0.08931078 0.06711352 0.5378722 0.42078796 0.594314 0.06533716 0.73215926 0.3805642 0.3641176 0.14543517 0.3009566 0.4819095 0.6732646 0.65994453 0.82119507 0.54949564 0.0908588 0.82582694 0.7340998 0.9177763 0.0740691 0.86200243 0.8206682 0.20498127 0.50768155 0.022234522 0.1526136 0.6966612 0.13917306 0.78033197 0.5878249 0.4743198 0.6360978 0.967819 0.8091878 0.19021767 0.5337208 0.7957682 0.7111866 0.36977506 0.97772443 0.872009 0.20451722 0.79280204 0.5040793 0.27442735 0.5740108 0.3192892 0.47780767 0.010460353 0.22950098 0.50011665 0.5953976 0.81524444 0.18104327 0.52137494 0.5952215 0.2520559 0.97617704 0.65950114 0.9956865 0.7026205 0.24913603 0.09673132 0.31225967 0.5841081 0.36043128 0.30728573 0.2594696 0.3581655 0.33736625 0.1226689 0.8096739 0.3522632 0.15397912 0.558029 0.42302078 0.7733758 0.6160902 0.049490716 0.11984599 0.35839978 0.31803626 0.25017622 0.09136594 0.8076725 0.38160577 0.18184601 0.6840424 0.55408406 0.76823974 0.92151785 0.558233 0.76925796 0.17067848
l45 0.8652076 0.46858487 0.11859793 0.101651825 0.8147625 0.57851195 0.13038836 0.84208655 0.25007087 0.5136872 0.5907304 0.41732076 0.9213832 0.058471005 0.18876885 0.9033185 0.54454356 0.15159589 0.24466433 0.76794034 0.08709502 0.82731235 0.115179144 0.8845512 0.49717164 0.20459503 0.13193856 0.120807804 0.40990737 0.32888797 0.8635306 0.6272264 0.19544978 0.35075277 0.7379484 0.5221239 0.6952309 0.73934346 0.1729883 1.0742918 0.737904 0.519861 0.73256534 0.24207923 0.55793107 0.5864129 1.0024741 0.91479576 0.9211418 0.7646074 0.51705587 0.24850692 0.055640496 0.73814124 0.52602357 0.4348389 0.6218864 0.23437236 0.5967957 0.7911277 0.287182 -0.024298085 0.387377 0.24267125 0.4432984 0.43701893 0.2078673 0.55336076 0.90537906 0.9377161 0.17644407 0.23444891 0.5959053 0.11576872 1.0101389 0.6685086 0.2834342 -0.026278859 0.2821811 0.5809746 0.24908033 0.5327451 0.7387545 0.49199438 0.876235 0.19844237 0.120488234 0.6148653 0.79560834 0.4075323 0.3138762 0.5154552 0.7327645 0.8906404 0.7474452 0.79208696 0.45384216 -0.029590895 0.12249192 0.5639952 0.84598446 0.81469935 0.89979106 0.07834849 1.0270705 0.61207616 0.5868612 0.26561472 0.22478041 0.34225067 0.67790747 0.8424155 0.025962502 0.3557577 0.5838805 0.30732018 0.37059927 0.7568855 0.81273174 0.96452624 0.10428828 0.74854213 0.3467109 0.48242772 0.2733715 0.7742483 0.8326819 0.6211257
l46 0.41773596 0.38043517 0.62253314 0.12192223 0.7018782 0.9423138 0.9547011 0.64111704 0.48085922 0.98495674 0.8687121 0.5121968 0.8552998 0.4983809 0.6762826 0.01928907 0.749626 0.07186849 -0.048959624 0.6220324 0.22635369 0.22999349 0.38407212 0.7377441 0.92811215 0.9557585 0.22437486 0.17464085 0.6506372 0.45643774 0.38596663 0.030757584 0.31759846 0.37434098 0.35737726 0.1424795 0.08435059 0.65228224 0.21580556 0.67649937 0.321718 0.8373724 0.04708134 0.20193307 0.062132724 0.6717705 0.60927093 0.9011362 0.19612859 0.16850531 0.20982534 0.41552362 0.26203492 0.47689137 0.74465716 0.2944301 0.1387809 0.08349995 0.08412862 0.19104053 0.84995425 0.519562 0.75957686 0.67850286 0.07743769 0.39307448 0.72675663 0.7587023 0.80451643 0.7659881 0.30459714 0.22701395 0.4138157 0.21876292 0.54237455 0.5434748 0.4677666 0.14545031 0.15496606 0.80093384 0.18778366 0.66444623 0.8241388 0.44061697 0.56910837 0.9073452 0.4987778 0.11284657 0.1315056 0.030874584 0.2000874 0.051783163 0.8443713 0.63294196 0.559857 0.10590612 0.18308428 0.08843504 0.9269742 0.9958054 0.49110827 0.5674021 0.73383665 1.006509 0.74249834 0.3672887 0.12206472 0.7696488 0.46260402 0.088492624 0.93931824 0.85839516 0.5976695 0.332821 0.8442824 0.53188956 0.95430636 0.08403456 0.3149457 0.49474365 0.035382677 0.20800553 0.16028643 0.32364342 0.9040653 0.06428832 0.869163 0.57629174
l47 0.8689737 0.39301682 0.9313858 0.25880566 0.644294 0.237304 0.28070694 0.11917148 0.29504883 0.84915537 0.8144629 0.75007635 0.2551237 0.43332565 0.53827685 0.33444998 0.8174548 0.56553036 0.15043344 0.71671253 0.3965993 0.20015042 0.14398436 0.321867 0.76566994 0.5151152 0.5719962 0.11857058 0.51893675 0.012698352 0.7153147 0.41022918 0.5090094 0.94326603 0.74293524 0.99507284 0.40474278 0.22306392 0.15340804 0.42743474 0.31102127 1.0252808 0.5259134 0.1518134 0.37474668 0.60203564 0.32589749 0.9594684 0.05087931 0.89298666 0.3127703 0.9301782 0.5589918 0.5322444 0.65147686 0.24036157 0.8978905 0.85259044 0.21856974 0.60067 0.0772406 0.15792228 0.7255894 0.42003244 0.48101908 0.74647003 0.5672795 0.4907998 0.7512683 0.90174925 0.8015231 0.7484892 0.16854326 0.81246173 0.59685624 0.7939251 0.64906204 0.5848694 0.768622 0.6431004 0.11083733 0.0053172284 0.91246134 0.11650264 0.48572215 0.90060335 0.5414174 0.091217384 0.98123926 0.6801259 0.7159131 0.2571848 0.5752837 0.30095628 0.60376436 0.14567235 1.013436 0.28070787 0.11800975 0.3267741 0.78351593 0.90775406 0.35427722 0.68982124 0.61199343 0.82264787 0.0159429 0.94582576 0.13494445 1.0303103 0.30214942 0.37765488 0.47873303 0.8043998 0.760897 0.82831675 0.05860218 0.5359989 0.41107562 0.29993668 -0.029158447 0.5254559 0.114107795 0.18220109 0.5139722 0.7417076 0.82299286 0.3245214
l48 0.19358502 0.37105858 0.26737478 0.2655877 0.9935819 0.8662939 0.015419897 0.85362864 0.49730235 0.08709028 0.7032046 0.17046882 0.6456438 0.5940154 -0.043040898 0.19287854 0.07212743 0.39797646 0.1810985 0.6312638 0.27195847 0.9501788 0.6823518 0.62502664 0.93176174 0.5399953 0.38127145 0.31325805 0.3296773 -0.048835896 0.89709455 0.5000198 0.28080127 0.22997658 -0.03492538 0.83802927 0.844261 0.5539055 0.3585618 0.19842353 0.42453647 0.6316394 0.59221816 0.60846907 0.7887303 0.46568817 0.34760916 0.15974817 0.5329532 0.670063 0.6141202 0.28653657 0.37640643 0.18053201 0.17204691 0.2549154 0.28361604 0.85997766 0.37568304 0.18784347 0.74917835 0.7903878 0.14484628 0.94159317 0.5525475 0.5033968 0.6473578 0.77977103 0.5822249 0.81640345 0.17850457 1.0722183 0.4940679 0.23662557 0.73753434 0.1376487 0.40069556 0.29727444 0.47707626 0.30677247 0.5237621 0.208568 -0.10454511 0.2716771 0.3987389 0.9128873 0.8054898 -0.08006218 0.9463728 0.6367254 0.52397406 0.33906242 0.88410515 0.8891935 0.5054799 0.15986013 0.4488708 0.70978874 0.9101309 0.32686955 0.21751922 0.3101665 0.38235527 0.93272805 0.49085113 0.7659295 0.15887588 0.7211284 0.80111945 0.33133173 0.17399004 0.33145463 0.22890978 0.81004405 0.11161056 0.18249802 0.7853808 0.8161507 0.17302781 0.246294 0.024498353 0.71112627 0.72042114 0.32079977 0.6319624 0.49101007 1.0209634 0.34929347
l49 0.2667353 0.4298964 0.18218556 0.15393203 0.39168817 0.24035223 0.15911649 0.16750695 0.38409045 0.56725603 0.34787747 0.5163252 0.9434683 0.61210763 0.14943396 0.37961438 0.45207897 0.95891273 0.6997065 0.60154897 0.01824952 0.13252717 0.065213755 0.3774516 0.86324203 0.054082915 0.5603312 0.9602549 0.07735049 0.005680122 0.90752757 0.079319045 0.8712668 0.17809147 0.93765426 0.6624742 0.5525467 0.7100624 0.22914366 0.7364637 0.15293892 1.0821692 0.14001884 0.4222203 0.5436495 0.058039147 0.79649615 0.22492316 0.07239017 0.27737957 0.6613843 0.5941686 0.08886535 0.28550646 0.37730727 0.76217794 0.714212 0.23322123 0.97403264 0.05077868 0.9917065 0.74517155 0.029685915 0.20992674 0.51369166 0.0026801543 0.46645117 0.10072768 0.5801944 0.18213299 0.48053223 0.42615554 0.16168214 0.57340205 0.2696086 0.03894907 0.94266844 0.35572818 0.76284486 0.48787528 0.32285634 0.48581043 0.15375477 0.38658437 0.06271575 0.914855 0.5456858 0.81209236 0.3636876 0.36697033 0.12384839 0.10688743 0.8586879 0.4617167 0.6614803 0.64878327 0.67258304 0.27852365 0.44152164 0.82613254 0.7613291 0.36903322 0.6780253 0.23732351 0.9093041 0.41798902 0.148771 0.25325942 0.2600929 0.5392936 0.9445814 0.24240863 0.10416809 0.99141675 0.22204386 0.1795706 0.82748264 0.4931785 0.8921269 0.24011987 0.5860247 0.53405654 -0.02377404 0.3405501 0.7234447 0.9531049 0.90819275 0.43239486
l50 0.5255941 0.44183943 1.0589348 0.3205043 0.91607755 0.33145165 0.6155955 0.35946348 0.7274561 0.26186025 0.38613036 0.4594293 0.6337396 0.8136085 0.30216968 0.36112496 0.72062856 0.41233066 0.5741187 0.23554492 0.6560183 0.5093448 0.5189286 0.8944934 0.5278448 0.21999659 0.22360194 1.0475862 0.61382216 -0.018374873 0.92254436 0.6927908 0.43645847 0.8143858 0.5222905 0.634595 0.35347018 0.46670833 0.3053941 0.42647737 0.32442525 0.99208283 0.2673051 0.73177016 0.13303377 0.2903283 0.4187558 0.6057099 0.50228286 0.44658616 0.09633051 0.13530163 0.26919204 1.0216576 0.041421752 0.13041325 0.75631756 0.7215648 0.10377462 0.3341017 0.07017695 -0.028841458 -0.048568066 0.895362 0.5566108 0.93636703 0.14551468 0.4453263 0.7008502 0.35059327 0.13183588 0.8509609 0.37570548 0.33180758 0.34711894 0.9113381 0.12457123 0.94444525 0.8997795 0.55384445 0.26600397 0.68096614 0.5707489 0.55434614 0.40750277 0.6015142 0.65084636 0.4214868 0.8660115 0.54300696 0.40622297 0.6124326 0.07472032 0.91521394 0.749496 0.308842 0.77199936 0.7364987 0.7825204 0.7202 0.658009 0.39597738 0.4996766 0.22735798 0.16129085 0.6819597 0.6214907 0.1556382 0.4613496 0.32942706 0.8963503 0.51711607 0.6052208 0.57651335 0.21031974 0.6936879 0.55388516 0.26184726 0.60039294 0.16225755 0.8287526 0.28283662 0.46245977 0.36567 0.9806556 0.6899398 0.19433379 0.71647984
l51 0.75721157 0.9464652 0.07723323 0.17994793 0.14515497 0.6444203 0.020153416 0.865625 0.9180762 0.2824162 0.24254143 0.4899928 0.11695416 0.85015893 0.7279695 0.28160203 0.8362533 0.73230696 0.539519 0.13402127 0.3393521 0.50054306 0.2168662 0.36365464 0.62976784 0.36248687 0.98765945 0.41482213 0.22962074 0.8682392 0.09179886 0.2885466 0.8877825 0.1542846 0.04372712 0.47072685 0.08960236 0.17018658 0.6071899 0.67042464 1.0338459 0.17996702 0.4807234 0.46220565 0.8375077 0.29112616 -0.0053247586 0.0061657256 0.8286792 -0.02625452 0.46910962 -0.00753305 0.5437311 0.8936178 -0.04941487 0.6370507 0.58966696 0.21582977 0.050243516 0.6833086 0.8835933 0.008550409 -0.020630592 0.5904491 0.16476533 0.6328376 0.6967201 0.31209934 0.272895 0.50033355 0.30330375 0.264504 0.44921213 1.0089543 0.3348316 0.8928693 0.50006956 0.14796427 0.43609756 0.32099056 0.83393395 0.69281125 0.3699224 0.4893547 0.61157584 0.9813035 0.32061967 0.8041087 0.30400476 0.9331892 0.63892424 0.44743502 0.4073065 0.24912056 0.9700538 0.20089239 0.75328714 0.7305047 0.14715485 0.8186092 0.6346559 0.9300314 0.9408298 0.18999538 0.68004984 0.8746842 0.45809284 0.4200833 0.7976707 0.26587176 0.74586713 0.92557317 0.14753766 0.851975 0.8623117 0.2564483 0.38714105 0.2709404 0.1584334 0.40624672 0.26474863 0.83523077 0.2169029 0.2750189 0.50154173 0.046224434 0.10959164 0.99401474
l52 0.30090672 0.3718993 0.8560506 0.3792991 0.8254746 0.8277074 0.104347974 0.5345019 0.6749935 0.12832779 0.812403 0.8005605 0.6124001 0.45264503 0.85220313 0.25353655 0.1619988 0.2540248 0.42805895 0.27955553 0.3989391 0.16406108 0.5642948 0.8685234 0.6659942 0.13577175 0.78216517 0.73434186 0.28295028 0.2055798 0.71810704 0.74260676 0.6097503 0.2185993 0.57702136 0.583597 0.6258225 0.10207674 0.64708966 0.2393737 0.858865 0.26225907 0.5052305 0.5397079 0.44435224 1.0079917 0.5199092 0.34268376 0.84385955 0.5940887 0.36698002 0.08195922 0.60183036 0.94003814 0.86476475 0.8700659 0.064130284 0.9687366 0.3445542 0.007267289 0.34933853 0.7256812 0.878955 0.01851098 0.5089099 0.51982105 0.2215996 0.4814985 0.8222147 0.43415496 0.7815868 0.5023938 0.18689749 0.38128063 0.9257534 0.73342556 -0.014329477 0.63415945 0.67350614 0.73722833 0.83429664 0.79540735 0.17543417 0.78648067 0.20403573 0.33212718 1.0198003 0.10756549 0.89292806 0.38764793 0.9347984 0.43925324 0.6762449 0.14757708 0.9464307 0.88549644 0.23334803 0.76916593 1.0641294 0.5300524 0.65484625 0.95900565 0.41641825 0.47848943 0.7847213 -0.064146094 0.6698705 0.3192843 0.5099636 0.5451374 0.7039885 0.40576053 0.53176177 0.6527499 0.89558166 0.43136168 0.11035709 0.6617838 0.5999404 0.07703326 0.68878245 0.78732204 0.49995202 0.79689306 0.3367723 0.5356559 0.10447185 0.89838964
l53 0.55008197 0.47593895 0.96441746 0.98811275 0.44033906 0.6781495 0.14162643 0.24258904 0.67661065 0.14628276 0.20421246 0.67607105 0.65982884 0.96989155 -0.010282742 0.8274694 0.6637452 0.678382 0.04898344 0.54733807 0.8478132 0.17490989 0.6345037 0.03016345 0.7400848 0.35725117 0.31691584 0.47501898 0.4460468 0.39175326 0.65683657 -0.002727698 0.31706882 0.40498593 0.6807009 0.30844158 0.35830352 0.4771599 0.095125325 0.7258063 0.41123316 0.8279779 0.2510353 0.5389942 0.87783575 0.28266558 0.50315505 0.04319216 0.5561082 0.8260971 0.769708 0.28432515 0.3379708 0.16232525 0.68936354 0.7978037 0.3844999 0.51158065 0.35540405 0.51446295 0.51914924 0.23738387 0.72355986 0.6219833 0.71850926 0.4211912 0.22958395 -0.055024426 0.887544 0.35944283 0.53756136 0.9442522 0.594107 0.53334403 0.23580262 0.9935162 0.78980076 0.32638627 0.10235754 0.43398094 0.32643124 0.75790614 0.32945275 0.71650475 0.5275891 0.92415357 0.7666433 0.15109292 0.73452586 0.15042359 0.1678985 0.74431735 0.5612989 0.26347157 0.39728656 0.057387825 0.3173598 0.5922584 0.88961214 0.44357848 0.049345735 0.25818458 0.662722 0.37752998 0.30776045 0.092759535 0.5288509 0.15599361 0.9817565 0.67440397 0.8598134 0.47633883 0.14210162 0.47011608 0.66380596 0.87179327 0.99135625 0.8605324 0.13711289 0.6079662 0.50998706 0.5564497 0.014787857 0.55577594 0.38456887 0.5987837 0.74388677 0.6582935
l54 0.19164327 0.90771186 0.6810889 0.5312717 0.8278738 0.79171395 0.6351002 0.3665238 0.7266412 0.39965042 0.77137864 0.50457054 0.9968087 0.4261745 0.37731108 0.05730951 0.246571 0.75642663 0.49724182 0.23411815 0.4655965 0.4781163 0.6206945 0.03298448 0.31186032 0.7317929 0.9026267 0.6018916 0.17629278 0.76224846 0.05369728 0.09206437 0.68536735 0.99555135 0.83297 0.352647 0.94895154 0.34002757 0.1343061 0.5370006 0.8060058 0.9322119 0.6891739 -0.024977792 0.5406874 0.5175169 0.45622012 0.22821762 -0.073422864 0.24658558 0.7468182 0.21719496 -0.041730527 0.23311618 0.6198146 0.2854533 0.9056745 0.7005084 -0.01315221 0.07696579 0.50197554 0.7911505 0.07513408 -0.04147134 0.10378368 0.26806226 0.53969264 0.8452676 0.70318633 -0.0016228673 0.17929786 0.26214013 1.0724072 0.7022621 0.20096901 0.2086883 0.60244125 0.29632643 0.5733609 0.6690409 0.113500595 0.8452935 0.21758698 0.967368 0.5159937 0.63508606 1.0174862 0.3302664 0.042306136 0.50298566 0.09604518 0.5716163 0.21254073 0.59479195 0.26424965 0.8149703 0.39485574 0.28509924 0.32412913 0.9726931 0.64359117 0.17760982 0.3318286 0.8943954 0.3914105 0.354762 0.7427256 0.8124118 0.28336456 0.7623142 0.027391562 0.7354103 0.86173797 0.31060565 0.41945696 0.07352254 -0.02990213 0.2876546 0.3248167 0.67693007 0.90823996 0.3673301 0.45023367 0.9673373 0.15613814 0.5167775 0.60845673 0.5081077
l55 0.26518917 0.58585805 0.27154508 0.96143204 0.58469635 0.04040944 0.83089125 0.97316885 0.53223073 0.42892194 0.3679347 0.8390469 0.70988655 0.28941932 0.12749161 0.6838265 0.6972474 0.42530483 0.7211674 0.15529765 0.396551 0.2541078 -0.113529965 0.116354436 1.0536056 0.4995571 0.26700145 0.12275002 0.9878778 0.14642811 0.5656856 0.77968276 0.24179056 0.97433215 0.8695154 0.34520525 0.1780957 0.3179725 0.45050162 0.84407574 0.29573345 0.99691474 0.51983744 0.777487 0.86333007 0.29891002 0.8672997 0.66416156 0.5381914 0.80162615 0.5358678 0.88788104 0.074381225 0.7123914 0.4452092 0.44510493 0.31447822 0.6466975 -0.013084387 0.6038245 0.31040356 0.35775888 0.71427655 0.22303955 0.5324478 0.9236909 0.7137304 0.6147822 0.29742235 0.05843175 0.032140166 0.37680689 0.5335641 0.6128632 1.0572902 0.30627337 0.49881113 0.15519321 0.71867925 0.11417376 0.6919385 0.539497 0.05784799 0.32976243 0.353614 0.40669468 0.3940343 0.6337786 0.19255011 0.077350065 0.6201228 0.32817498 0.825711 0.34734258 0.72680676 0.6614937 0.3994391 0.81355435 0.019950965 0.47077382 0.9337267 0.55091584 0.40434766 0.9473652 0.07885348 0.5909681 0.74205 0.9283373 0.28266114 0.77679783 0.53916454 0.77032524 0.7146297 0.81429076 0.7412051 0.12823275 0.6519096 1.0231893 0.0020045023 0.38458255 0.7680126 0.15811944 0.48355052 0.31653023 0.73787105 0.69314545 0.7214109 0.87707204
l56 0.48352715 0.3899616 0.4236848 0.96153295 0.09259901 0.5059792 0.85351384 0.8535151 0.25766614 0.37357196 0.29788923 0.3069596 0.8533816 -0.030336475 0.39962712 0.33069998 0.68601817 0.06808902 0.32529232 0.5549508 -0.031579193 0.62462753 0.86572737 0.70553803 0.43732175 0.53219575 1.0889497 0.9558175 0.32302472 0.49982822 0.4333825 0.77224064 0.6193937 1.0685302 0.50025576 0.6226044 0.426844 0.44839096 0.58975357 1.0611073 0.12153794 0.31382433 0.26566377 0.44004384 0.55393195 0.6219653 0.0090406975 0.59022653 0.54170686 0.6989474 0.13575454 0.029564904 0.4909125 0.3005606 0.038399052 0.7000875 0.25884792 0.22361973 0.40040517 0.29603907 0.26295632 0.39776945 0.68227667 0.2975692 0.7635242 0.67524487 1.0180569 0.27074736 0.23615931 0.46259454 0.3129329 0.084837995 0.7735465 1.0653017 0.7914875 0.23874551 0.62286866 0.1308756 0.88306284 0.992475 0.7883964 0.13564028 0.8514771 0.36305565 0.2136414 0.5327171 0.4964799 0.46995357 0.07988904 0.8270511 0.020101117 0.62730265 0.0072248536 0.66723007 1.0814704 0.7136563 0.97694844 0.7229647 0.18908447 0.29355654 0.6999254 0.51236457 0.95745915 0.20172895 0.697618 0.07524772 0.9472241 0.3045165 0.91903067 0.19674675 0.80771327 0.3453672 0.5926751 0.5119166 0.7731068 0.36080208 0.7843714 0.5846753 0.5118485 0.19085924 0.5883437 1.0122839 0.8328625 0.34885177 0.44154236 0.19230561 0.33544624 0.32451305
l57 0.35369915 0.8178332 0.26533568 0.4504785 0.8595254 0.751919 -0.0020233006 0.6757598 0.7298845 0.68234175 0.9272702 0.66455 0.16299608 0.6985599 0.9761155 1.0133127 -0.062288854 0.55718046 0.5046626 0.5751875 0.8325797 0.8711697 0.629449 0.24655081 0.7001935 0.62821674 1.033853 0.26000854 0.34846336 0.041011453 0.27641818 0.5657423 0.38687634 0.65131927 0.54726005 0.9381595 0.04214853 0.7011614 0.5206702 0.60197675 0.6065031 0.8365864 0.22526428 0.50342554 0.56855816 0.8249264 0.83006966 0.8280731 0.14065656 0.102043375 0.9423807 0.45130727 0.4558938 1.0116721 0.6475799 0.35778877 0.8029622 0.1406812 0.8139138 0.16403913 0.27326453 0.44911057 0.6450274 0.10920712 0.118363485 0.9379346 0.42220822 0.12278895 0.46824023 0.8577401 0.65132356 0.24952307 0.4015776 0.5901967 0.94073105 0.7036907 0.56902134 0.57838 0.20064902 0.05301201 0.71852803 0.34036225 -0.10652913 1.0714327 0.43088794 0.4305166 0.32008737 -0.037861366 0.35649133 0.74720114 0.9849639 0.84272176 0.71834236 0.85283375 0.68211347 0.8256647 0.44052875 0.32093695 0.35262805 0.9071318 1.0689626 0.17120011 0.20490026 0.43594277 0.43505853 0.48920897 0.21811073 0.21198192 0.1223401 0.15871131 0.62248456 0.901039 -0.09540131 0.13914417 0.64100033 0.11920013 0.5289799 1.0736173 0.5348582 0.5523769 0.8822401 0.22812043 0.18337987 0.26903573 0.354608 0.6395619 0.88231546 0.35396433
l58 0.93162304 0.68567467 0.18909347 0.8561136 0.2296114 0.68534774 0.4845162 0.85629725 0.42511037 0.61901736 0.35625145 0.9603618 0.79433656 0.80517834 0.42899978 0.09277085 0.46816185 0.27355883 0.84763056 0.40413502 0.56830245 0.6837464 0.35232428 0.61681455 1.0213653 0.74525464 0.13772887 0.8962308 0.07127191 0.6552727 0.73050606 0.6573992 0.42336017 0.37952977 0.73628527 0.66639477 0.6882207 0.48703918 0.45263863 0.7352521 0.9172632 0.8763974 0.23409264 0.83992887 0.92495334 0.15200205 0.6129105 0.59725565 0.034910414 0.3259811 0.54924566 0.41893232 0.19433942 0.8844191 0.4972871 0.81616443 0.3470807 0.5398792 0.50494885 0.23711286 0.7629463 0.27866843 0.5495938 0.32147247 0.9370449 0.039455783 0.75802827 0.7053862 0.23133947 0.4772242 0.07825497 0.7046976 0.95503473 0.3178408 0.8425364 0.014515871 0.63009095 0.7354221 0.6087905 0.9260291 0.096612625 0.1851072 0.12097175 0.71595865 0.7339112 0.82842153 0.36920914 0.93875265 0.09437415 0.81974334 0.055797555 0.47491747 0.6809477 0.97165954 0.5688274 0.61017543 0.059081703 0.55987024 0.26364732 0.875858 0.17895956 0.99139565 0.87620294 0.09305844 0.75140435 -0.013226699 0.53206635 0.16645506 0.9758231 1.0445284 0.23620461 0.6699373 0.5048114 0.3349952 0.20600192 0.9348161 0.042398505 0.84647137 0.75044376 0.6466316 0.9123467 0.4833871 0.22039062 0.7892757 0.52568233 0.011576106 0.77289796 0.8638564
l59 0.30096245 0.114497826 0.86699724 0.39765108 0.27582267 0.66938055 0.35058126 0.47715297 0.76635665 0.3031859 0.23260124 0.38071924 0.6686668 0.16334565 -0.09258328 0.8801174 0.71447164 0.468645 0.5747434 0.31199437 0.31612033 0.8503939 0.59793645 0.44580215 0.34444532 0.91265106 1.035986 0.34745863 0.27188218 0.75232553 0.07802502 0.44532776 0.079209484 0.965207 0.033429645 0.77611 0.6135724 0.33345085 0.3581714 0.6707686 0.740982 0.3853137 0.18235016 0.11433842 0.29926786 1.0080507 0.49184477 0.5076551 0.08090668 0.024149371 0.7939356 0.3714925 0.84842664 0.2707373 0.09877725 0.70678777 0.51162714 0.847247 0.7365387 0.82100344 0.30681765 0.4434931 0.62005955 -0.006344783 0.12086579 0.64537275 0.79647475 0.6130369 0.547521 0.42677006 0.44686797 0.119956985 0.87168336 0.14693981 0.16737129 0.34391227 0.74143314 0.861585 0.75973815 0.5324029 0.15725188 0.4529437 0.44346935 0.79427266 0.14105947 0.5656485 0.5349265 0.41074532 1.0107775 0.8678613 0.8459314 0.77518916 0.94546986 1.1138473 0.5950108 0.12372688 0.52301615 0.53698725 0.39193833 0.4703517 0.49312487 0.78565425 0.53623545 0.48091674 0.5336151 0.69772935 0.70608723 0.20243339 0.7149502 0.04626356 0.86235994 0.23047529 0.020711487 0.308001 0.34841856 1.037946 0.50510246 0.62298214 0.38260835 0.7667727 0.4616307 0.18432808 0.44976154 0.3073891 0.41752103 0.8663464 0.65620387 0.8657452
l60 0.64509636 1.0273054 0.3654535 0.8454217 0.5515686 0.38845018 0.10469365 0.6530658 0.0009763654 0.7636469 0.22995852 1.0028415 0.67796564 0.86840934 0.14513375 -0.041296083 -0.025768017 0.89391595 0.48657748 0.3714021 -0.02455515 0.58281344 0.56272274 0.23780517 0.11106379 0.60064316 0.5606747 0.79013103 0.23439449 -0.0064129005 0.44294935 0.63761353 0.6188397 0.9267985 0.05847519 0.040056698 0.74576205 0.31025144 0.50890076 0.25748307 0.13777915 0.77952605 0.08671036 0.34734452 0.10696552 0.7962623 0.22805274 0.82387984 0.904641 0.6493683 0.1947981 0.6004806 0.3929528 0.3259088 0.4995605 0.73236525 0.054716077 0.40586963 0.9082708 0.89386636 0.8780396 0.6703902 0.19886766 0.033721644 0.7768835 0.09133383 0.24199383 0.39058548 0.8649888 0.21513225 0.57191676 0.65723807 0.60143965 0.29796818 0.59029996 0.7589399 0.24793755 0.24246359 0.51618266 0.562483 0.64913046 0.9893483 0.30876583 0.8783726 0.6293259 0.1274968 0.3397438 -0.007123733 0.77975845 0.56598234 0.7914786 0.16619053 0.54893446 0.24369556 0.6971854 0.2826179 0.24992651 0.3195406 0.20222837 0.33853295 0.07202695 0.8607667 0.9013361 0.93061674 0.83391285 0.46844396 0.7045843 0.8503539 0.1739295 0.759837 1.005878 0.5804334 0.6409352 0.6465736 0.28908804 0.5428585 0.14569445 0.78988206 0.34349588 0.09248742 0.6384614 0.26163182 0.06243265 0.68242675 1.0253087 0.15283878 0.8775178 0.15307778
l61 0.87397516 0.21734785 0.24450009 0.29929954 0.26590854 0.5278715 0.23916493 0.41095042 0.90719247 0.58255905 0.6191294 0.44960287 0.2221867 0.43963575 0.15819764 0.81479245 0.032737877 0.42130053 0.45382923 0.7494325 0.30243894 0.68487597 0.3297685 0.902909 0.14089538 0.95954376 0.6590495 0.10783625 0.45231837 0.22939482 0.75836617 0.13463308 0.6103366 0.29811433 0.30918872 0.414127 0.5978167 0.803528 0.4610549 0.8329202 0.17494206 0.9462086 0.35877374 0.4027699 0.17420089 0.940443 0.094584696 0.028632704 0.6304576 0.98269737 0.5660109 0.63385797 -0.099087425 0.49883235 0.63935 0.8913754 0.6878707 0.38663393 0.6818857 0.048447847 0.8119596 0.24657373 0.19050579 0.609646 0.6771551 0.3471774 0.71095556 -0.10792805 0.58986306 0.7780938 0.7976096 0.32343107 0.4788951 0.93384165 0.5476513 0.52717924 0.34923413 0.06049502 0.26923442 0.8444356 0.08577853 0.5723221 0.06709111 0.96396923 0.26586044 0.74783605 0.58102816 0.58979404 0.76816 -0.08173749 0.05928755 0.4664032 0.6211245 0.7950587 0.14936718 0.60966533 0.6696646 -0.035852816 0.727226 0.8595779 0.060885318 1.0233123 0.4846289 0.9687214 0.23519783 0.56971866 0.4195891 0.5421181 0.83393466 0.75407875 0.7628534 0.45267725 0.9407288 0.7398672 0.49037212 0.24254195 0.80962676 0.8284494 0.5884049 0.47565234 0.8492597 0.779872 0.58902574 0.7561419 0.31575218 0.01706104 0.39590716 0.41493303
l62 0.14845292 0.32856408 0.81554955 0.5351403 0.9484727 0.46309674 0.32137492 0.6651824 0.2485299 0.6113747 0.76146185 0.12944947 0.6892681 0.26139352 0.054245763 0.6380068 0.5066738 0.3487845 0.7833406 0.14255378 0.81775403 0.28726536 0.031572655 0.42350742 0.17689341 0.9555385 0.93577695 0.27322856 0.8556983 0.7080656 0.38011554 0.047939006 0.57228184 0.7530812 0.63929963 0.4434655 0.6749751 0.09818827 0.6873486 0.22953232 0.94600576 0.57379824 0.81226164 0.63705695 0.6207036 0.8829043 0.3669723 -0.01153943 0.8318909 0.44884625 0.8095351 0.8230476 0.13939382 0.63970184 0.21743068 0.2859539 0.6475363 0.9908885 0.2601098 0.235306 1.0789 0.3515127 0.38518336 0.13151415 0.7425334 0.6274321 0.60711324 0.50123966 0.816213 -0.028955813 0.057800636 0.5941388 0.2022485 0.6266546 0.28129742 0.9562624 0.5236312 0.7133258 0.21600051 0.9144426 0.8351938 0.86025923 0.85090905 0.31050652 0.7832207 0.23460338 0.07990661 1.0408335 0.6903202 0.45828682 -0.04435141 0.42698905 0.49712873 0.9821552 0.6102072 0.795171 0.85287744 -0.055865046 0.96990407 0.042350236 0.13481367 0.74937993 0.52782756 0.80998844 0.1388366 -0.07304485 0.22354084 0.040429648 0.9045748 0.42250246 0.46810392 0.0643506 0.3764766 0.37881252 0.3647339 0.48591706 0.4163916 0.58842176 0.38194293 0.5822738 0.22569019 0.8269558 0.10901366 0.33421516 0.10739791 0.5346359 0.8258978 0.37571225
l63 0.98053646 0.664946 0.67810595 0.56816906 0.8402692 0.16941625 0.33803537 0.30477697 0.24047855 0.50933367 0.70562583 0.1806659 0.31256303 0.3953607 0.08945115 1.0012705 0.9495637 0.13239811 0.6184033 0.16661546 0.5346793 0.11310919 0.6683345 0.05141956 0.09695376 0.40985507 0.2656322 1.0091811 0.25738305 0.31646916 0.9268503 -0.11087157 0.92547286 0.27067515 0.8494568 0.5582798 0.19158176 0.8094612 0.27972373 0.6303087 0.2918116 0.8110528 0.9848828 0.21158358 0.53808516 0.40818152 0.65992665 0.083587654 0.40255997 0.7205049 0.5434059 0.34646782 0.5699174 0.36533123 0.910899 0.13751721 0.6400371 0.80454826 0.8361181 0.54635954 0.5980168 0.5811764 0.24677819 0.37135184 0.787371 0.5824794 0.6743427 0.431292 0.13177222 0.1228388 0.9516517 0.4202001 0.33246022 0.82732415 1.0421134 0.43699515 0.23575461 0.068808384 0.51087075 0.53412676 0.27750775 0.8748551 0.7351943 0.79261106 0.600936 0.09406224 0.9740513 0.751098 0.45025292 0.06880393 0.19440995 0.44202384 0.07766361 0.75128686 0.15034096 0.20386322 0.7633566 0.32594228 0.6746668 0.67314154 0.55817765 0.1588426 0.33326668 0.68296283 0.71960676 0.2543998 0.5396921 0.51988935 0.5571394 0.9031957 0.2281231 0.73836136 -0.029864108 0.3829584 0.53873 0.17225187 0.61064017 0.67463136 0.15933049 0.7678697 0.46273935 0.5133201 0.09857769 0.65840125 0.96613073 0.44986263 0.8122433 0.55478555
l64 0.5276823 0.8597936 0.24754757 0.92231774 0.045648005 0.43300188 0.91980153 0.6392216 0.50361997 1.010378 0.45992377 0.4029363 0.8245409 0.52563244 0.84712046 -0.06776498 -0.05941964 0.9918463 0.68893796 0.6363439 0.32770807 0.43629125 0.14319727 0.41615486 0.8035068 0.24018691 0.3870226 0.7364208 0.7170092 0.0080756005 0.5203867 0.47959322 0.18645574 1.0183302 -0.022709174 0.13769619 0.56108195 1.0351267 0.5503131 0.46532637 0.09638544 0.86163926 0.12637925 0.4321439 0.4410788 0.13107766 0.7750636 0.9103159 0.7867458 0.36547875 0.6724168 0.64562124 0.7346383 0.47087175 -0.065049246 0.3581547 0.2202233 0.9804847 0.072107695 0.8469326 0.17753646 0.85109055 0.7857466 0.7943226 0.07943479 1.0217807 0.20410672 0.25452584 0.5129043 0.51303947 0.60553455 0.69851035 0.5002548 0.8780533 0.65773326 0.62725437 0.21634367 0.84113985 0.13529266 0.5917477 0.536535 0.21301858 0.6695926 0.9448975 0.0023349782 0.51934326 0.7790235 0.5763699 0.62541044 0.0763316 0.34065518 0.25443983 0.698989 0.20952149 0.17580739 0.2503674 0.12978953 0.45173755 0.3126571 -0.010470794 0.35193735 0.23924796 0.9205669 0.48991325 0.16081718 -0.023068944 0.80450356 0.7753341 0.50585043 0.7591395 0.8514904 0.37078485 0.2666955 0.36478722 0.88725287 0.2623869 0.3321826 0.48103568 0.61345786 0.82774955 -0.008673879 0.45205545 0.75830096 0.33396336 0.3267787 0.094712615 0.355648 1.0311862
l65 0.7514374 0.64284486 0.67304736 0.63008595 0.7235775 0.6693818 0.41272047 0.7560589 0.51761603 0.9031896 0.6427196 0.35223305 0.37337995 0.25015205 0.6058176 0.33659768 0.25407836 0.23140982 0.72850865 0.16519783 0.53864276 1.0709021 0.70872056 0.23818547 0.87318736 0.75533694 0.34618527 0.7070801 0.18229944 0.8015839 0.7941426 0.7051046 0.24907774 0.95395046 0.7055048 0.60949934 0.041903555 0.30244917 0.1129639 0.49821034 0.2444056 0.6233476 0.3885136 0.31916505 0.47765854 0.6108169 0.17298983 0.4515742 0.72408164 0.6102782 0.056964174 0.09462481 0.5497828 0.16446584 0.21948253 0.4663429 0.46198276 0.31739393 0.41113216 0.11367667 0.3991399 0.3961926 0.32277873 0.44086725 0.9422076 0.6310384 0.18025453 0.3214835 0.30476847 0.061211735 0.50135 0.38573337 0.41058338 0.80880463 0.8522322 0.02966029 0.8025402 0.8725762 0.55750036 0.5087142 0.6133943 0.8310013 0.81128854 0.16205534 0.279523 0.84984404 0.26419505 0.90108687 0.32427067 0.4205561 0.6815266 0.85992557 0.04705117 0.8595174 0.66274726 1.0331106 0.13635254 0.53729475 1.0522841 0.8583094 0.51368964 0.13478522 0.41594535 0.34043494 0.89483327 0.37284628 0.7245871 0.26583245 0.949149 0.91532767 0.36835647 0.46574023 0.569581 0.2292882 0.24482153 0.110359974 -0.0051711504 0.3676412 0.69355714 0.82587206 0.7719752 0.57224214 -0.11503815 0.75595737 0.9444008 0.53611475 0.12770244 0.5846627
l66 0.61728853 0.8600085 0.5938627 0.51033187 0.8326523 0.7383963 0.2044004 0.16220944 0.057157088 0.47244263 0.8981503 0.4944599 0.63789916 0.3914778 0.89547503 0.44491598 0.5326675 0.8801544 0.36894622 0.5658518 0.8745512 0.59200394 0.7575713 0.90373987 0.64241874 0.6538305 1.0374022 0.28955725 0.9579239 0.8668649 0.77117944 0.14495952 0.6252933 0.8169443 0.42081016 0.1216836 0.41661525 0.18389815 0.17386957 0.64375347 0.9866487 0.9634954 0.64069074 0.8879455 0.91094387 0.35005847 0.5328775 0.40986714 0.8549244 0.7631136 0.10954638 0.77586925 0.18231799 0.11951518 0.90881586 0.45696792 0.92616826 0.4945874 0.12249521 0.6534499 0.366597 0.23822793 0.093321875 0.5475532 0.18473776 0.06946021 0.683158 0.7887999 0.16877192 -0.035596497 0.10169455 0.65017337 0.865559 0.76098984 0.34960574 0.26890117 0.41084653 0.25786057 -0.06107103 1.0097117 0.21793166 0.5255912 0.0774221 0.034489818 0.2924712 0.27411872 0.52296394 0.35872325 0.09909993 0.65632313 0.43338412 0.6504406 0.8280234 0.94012934 0.24593477 0.56129366 0.6293519 0.49256042 0.39233944 0.015793046 0.18824162 0.5219797 0.8429683 0.2559418 1.0385145 0.8730344 0.2571543 -0.0017908644 0.123866364 0.60269445 0.15611553 0.2336966 0.42469722 0.25047457 0.8915194 0.9648244 0.6520524 0.57196 0.3943714 0.5041469 0.1995718 0.19050872 0.46046865 0.20449954 0.69940466 0.6250814 0.34737387 0.5816769
l67 0.33609957 0.41039634 0.48319855 0.6700414 0.76066434 0.34645122 0.7273799 0.26977184 0.5808805 0.9541896 0.28011015 0.3917811 0.85634124 0.91985655 0.3020254 0.2303423 0.85216063 -0.0114065735 0.70114094 0.4188754 0.48630685 0.5914146 0.43733796 0.77930284 1.0111772 0.8481019 0.6192295 0.23862177 0.21759509 0.8255448 0.7441944 0.45689008 0.45006442 0.9293798 0.9213743 0.58837223 0.13354081 0.06792166 0.28190422 0.59605527 0.662888 0.20119536 0.37731037 0.91015166 0.18079904 0.0765529 0.77522665 -0.050502237 0.06365141 0.6636686 0.8418067 0.093668364 0.17961161 0.25646296 0.9341397 0.15412931 0.32590446 0.102366894 0.27636716 0.7163639 0.30995098 0.8917609 -0.00057417987 0.67753035 0.3504639 0.32101604 0.7918092 0.070499204 0.5666408 0.24454473 0.898022 0.09552147 0.8112817 0.25008667 0.5857969 0.25476816 0.20672648 0.09543717 0.9034315 0.45979097 0.21548812 0.6402789 0.8342314 0.31955564 0.8988697 0.09897975 0.13930422 0.029139506 0.8564406 0.38605884 0.79425615 0.5400269 0.87668395 0.64015645 0.118551604 0.43169716 0.8659181 0.36278754 0.57254744 0.15360071 0.86929995 0.67752796 0.86509573 0.48793775 0.17806976 0.81726134 0.16633013 0.91124433 0.81055593 0.311306 0.9460892 0.90115863 0.7472033 0.37576455 0.32293698 0.60830843 0.68833154 0.86523235 0.449022 1.0436882 0.92910343 0.58731264 0.25004792 0.96816987 0.9162979 0.312496 0.88909304 0.8431926
l68 0.94191 0.44273755 0.8902909 0.55827 0.54764026 0.45999122 0.46259004 0.66463673 0.8682267 0.34980506 0.9022072 0.7176033 0.43931448 0.89553255 0.17449991 0.3487724 0.5974911 0.6161967 0.52401495 0.47504824 0.045515932 0.65912724 0.919081 0.73059124 0.29315883 0.94581527 0.10859338 1.0042304 0.8008199 0.48516658 0.20619181 0.5206148 0.8842907 0.2872514 0.9364706 0.10423671 0.80774134 0.6621844 0.6763066 0.98170435 0.7223289 0.50755996 0.94963187 0.040939216 0.41832438 0.51879734 0.236643 0.51107293 0.54661894 -0.009604552 0.16312857 0.09095967 0.2014271 0.82978356 0.020142678 0.105910994 0.29997155 0.511323 0.06359167 0.65692604 0.35508412 0.53509945 -0.015800653 0.54708487 0.92875755 0.70085114 0.54345727 0.069608316 0.92109895 0.3401872 0.19363552 0.24126369 0.21336938 0.86835986 0.2492205 0.07068833 0.92068213 0.76752573 0.684493 0.18837593 0.115249984 0.4278518 0.1610352 0.12681796 0.89557046 0.85385907 0.63753617 0.33509436 0.10875566 0.59960216 0.69703645 0.4476337 0.41422874 0.110830344 0.07695008 1.021885 0.17686883 0.6623279 0.6757052 0.6364064 0.7774792 0.34650147 0.29024997 0.39228356 0.23533617 0.23578589 0.40445486 0.12886715 0.9675623 0.080045305 0.29627556 0.3267617 0.12014921 0.8302981 0.06780016 0.06520034 0.12671062 0.09002783 0.039538123 0.2420554 0.30876338 0.2115828 -0.010104956 0.22685538 0.75253314 0.3248071 0.8722711 0.54314554
l69 0.8374807 0.049925324 0.41831717 0.32877466 0.24290879 0.5997717 0.7524609 0.30969435 0.55899966 0.537284 0.5868588 0.24800737 0.62255234 0.542579 0.094346724 0.5860046 0.20083359 0.47091872 0.65741056 0.012999793 0.45087928 0.6871693 0.7481711 0.115689434 0.5431078 0.7493573 0.12272427 0.7507711 0.37047157 0.3171279 0.88444 -0.026094198 0.0447451 0.7602921 0.21072851 0.251015 0.38480085 0.5397252 0.63379526 0.82334906 0.7863011 1.0364432 0.80000025 0.5735244 0.44737232 0.65584093 0.46932858 0.12773815 0.42436555 0.110485055 0.9326917 0.48136455 0.20661843 0.8330429 0.41431162 0.65770495 0.91793007 0.39753953 0.4778069 0.19144063 0.34168315 0.52620447 0.3542757 0.4666844 0.30346152 0.8452301 0.18348968 0.61636114 0.55956477 0.5192301 0.28976852 0.8056063 0.7641612 0.8926142 0.7816685 0.86847305 0.7100068 0.7014684 0.5597411 0.36529022 0.5217335 0.7486523 0.213738 -0.01177671 0.7205709 0.71916723 0.19119394 0.42580047 0.24126561 -0.0021650176 0.6993557 0.87326497 0.91575265 0.20019509 0.14977781 0.11973441 0.17830674 0.45323333 0.380764 0.90673673 0.37949845 0.3765401 0.742736 0.21331471 0.96838546 0.07045535 0.19281155 0.67374104 0.78271073 0.70307595 0.28020713 0.9718456 0.54236984 0.3747439 0.5129273 0.65607715 0.7020672 0.959044 0.41216522 0.8700813 0.5492782 0.5302004 0.290968 0.53346956 0.9228434 0.4039674 0.8149422 0.7343101
l70 1.0397357 0.60125124 0.17534283 0.6586973 0.5773469 0.58971924 0.91245764 0.740711 0.31820893 0.41426614 0.6037768 0.5611324 0.6031502 0.7582278 0.3346175 0.7485706 0.2997624 -0.010388315 0.30262387 0.13846403 0.60896003 0.6232962 0.2585765 0.32153946 0.3715989 0.7161261 0.24869946 0.12230864 0.18727215 0.57673264 0.33397925 0.6921 0.339638 1.024338 0.47332802 0.79957736 0.3311077 0.698935 0.4113876 0.2430656 0.2693045 0.6763777 0.7063652 0.7012132 0.107305 0.34298575 0.53333056 0.68349504 0.5016627 0.063670635 0.40530467 0.3501747 0.7010866 0.31104243 0.43220714 0.23877527 0.8406408 1.0202439 0.055082012 0.08477906 0.718649 0.7767626 0.13389845 -0.083846904 0.18878649 0.07736277 0.44243607 -0.07920038 0.46827033 0.08143941 0.98799706 0.49175173 0.6697134 1.0134012 0.756731 0.28709266 0.7869364 0.69442916 0.9390258 0.9630243 0.11355969 0.6013238 0.6441661 0.15571143 0.27174988 0.67694104 0.86734045 0.52653444 0.5143975 0.5786797 0.81743026 0.4640889 0.13281685 0.23818089 0.6594503 0.80958545 0.9547986 0.7159378 0.29427359 0.1594492 0.8221099 0.35377005 0.9473261 0.23652674 0.7496877 0.688283 0.011198654 0.44877523 0.7692878 0.20463179 0.6155339 0.52005994 0.7107044 0.5437247 0.031201415 0.4152705 0.7424601 0.742807 0.41014358 0.28765956 0.14215432 0.40427512 -0.06540314 0.35052016 0.23417725 0.8278641 0.53571725 0.34399915
l71 0.16068238 0.591116 0.1314404 0.90197885 0.38374695 0.74776405 0.49146524 0.22983588 0.06449774 0.92060876 0.30357412 0.6507953 0.5628512 0.3659813 0.28352773 0.22711895 0.7828463 0.14129598 -0.0145082185 0.30279765 0.34090152 0.67704993 0.51288134 0.6123241 0.6354259 0.80018944 0.4390272 0.99892116 0.1060784 0.40203407 0.7689096 0.016291758 0.10143942 0.6651446 0.244708 0.6792295 0.08893255 0.5771846 0.87835026 0.630514 0.5999293 0.86305124 0.69206595 0.62909234 0.16159791 0.5914289 0.799666 0.8709893 0.8948627 0.7616267 0.54970735 0.9277996 0.4576717 1.0230564 0.29997137 0.17825857 0.069930874 0.5376063 0.7589349 0.23256369 0.81530696 0.51894945 0.30796394 0.88080066 0.27962324 0.6983695 0.41156593 0.06007853 0.42457235 0.123673804 0.50756776 0.98007274 0.57907546 0.17124109 0.11603288 0.5896366 0.78328294 0.9022661 0.7768067 0.47453415 0.43718812 0.7385876 0.68800306 0.98576415 0.0999719 0.47442144 0.90341103 0.16604264 0.18903424 0.94437796 0.5492026 0.25914016 0.5163971 0.73457354 0.1468637 0.68039256 0.78059745 0.43666157 0.45116284 0.15073825 0.065428056 0.51931506 0.9629025 0.067849025 0.5904144 0.35212693 1.0119846 -0.027849903 0.81027293 0.38054717 0.31549814 0.8649344 0.8668519 0.7916272 0.5531428 0.4155423 0.5751752 0.7095171 0.5562419 0.36630794 0.86868155 1.014474 0.40089935 0.7368077 0.5882303 0.015750024 0.97704434 0.54502475
l72 0.10355978 0.7406664 0.75783175 0.13561939 -0.03669981 0.8630504 0.60475415 0.16520417 0.66166246 0.8687624 0.4683996 0.7640295 0.4485472 0.20548497 0.5447378 0.18297057 0.17193086 0.48843235 0.73141295 0.7801506 0.23459172 1.0265554 0.30919713 0.11498498 0.86783713 0.0966021 0.5663541 0.45734254 0.48652375 0.7191209 0.91978365 0.80681866 0.62692416 0.4104286 0.8081638 0.97514063 0.64423376 0.58081496 0.7714701 0.7650808 0.82104856 1.0491295 0.714046 0.3062443 -0.016954325 0.9484092 0.22885898 0.7163784 0.54707766 0.500843 0.7905468 0.38769206 0.385527 0.14581129 0.15964758 0.10973066 0.90719575 0.9652893 0.55277884 0.7027482 0.7191591 0.15615085 0.27843437 0.63322055 0.191322 0.5262691 0.9190963 0.17012803 0.16982116 0.15862156 0.9125711 0.2840793 0.5197484 0.8210299 0.82845604 0.74256694 0.7921211 0.9562534 0.3227486 0.44957122 0.7897505 0.84814 0.83698297 0.735429 0.6758911 -0.012287503 0.6719219 0.6579808 0.8397259 0.5615279 1.0181866 0.6606096 0.7510796 0.4740507 0.44724196 0.5179909 0.26077193 0.17011456 0.80683553 0.31545952 0.19917756 1.0203675 0.122690596 0.30076987 0.4291374 0.27407983 0.66827303 0.20818992 0.79474807 0.43965057 0.25408497 0.9846734 0.16045603 0.1863232 0.43132403 0.9813352 0.015045399 0.080988295 0.5969846 0.39829075 0.2042763 0.7545696 -0.11593087 0.9607058 0.25231978 0.7404311 0.79624975 0.6734766
