1730	128
l0 0.6530182 0.2827927 0.15140237 0.26980686 0.5303223 0.1788007 0.39736733 0.7365387 -0.0018432476 0.37539333 0.0122364545 0.18814701 0.19648734 0.9528125 0.021046497 0.7112512 0.61665523 0.1623295 0.36868078 0.9739456 0.7455298 0.49279937 0.43676504 0.5577175 0.34517476 0.87000316 0.535486 0.36369896 0.39309993 0.01950208 0.08710821 0.030032331 0.23375942 0.8379902 0.25572902 0.5404677 0.64447445 0.69683355 0.095352545 0.80888265 0.2190476 0.22775954 0.36634353 0.8072528 0.5236831 0.27327716 0.70221066 0.5593618 0.11031579 0.057403363 0.10617364 0.21398087 0.4616642 0.34315243 0.5443227 0.95819706 0.059865452 0.4382039 0.678354 0.27121156 0.70296633 0.7787871 0.9094638 0.80096877 0.20962827 0.24666208 0.19329907 0.1347445 0.55663985 0.5311493 0.55498576 0.28976732 0.57798237 0.37600768 0.35760424 0.43636265 0.5870782 0.18984948 0.6115477 0.3597294 0.9463533 0.27927366 0.6368624 0.3384324 0.693816 0.15298398 0.7828311 0.9921494 0.32486704 0.10227078 0.41000214 0.0038820484 0.15263648 0.504623 0.92735934 0.06846474 0.004376772 0.7892956 0.8742016 0.41759408 0.7995768 0.7772851 0.5233113 0.8614418 0.1600612 0.58034045 0.49831143 0.995313 0.66714317 0.47923982 0.64287835 0.32657036 0.89907837 0.15514092 0.541481 0.60590017 0.07105377 0.26532206 0.8787891 0.89268917 0.6350971 0.605103 0.5239996 0.96147233 0.36337143 0.39987245 0.09167666 0.5159801
l1 0.6925346 0.27451295 0.6447099 0.13280742 0.045148656 0.102611795 0.85313267 0.84003556 0.41766784 0.96903765 0.17737101 0.96569717 0.759739 0.8504986 0.5461382 0.08195945 0.44108173 0.7887181 0.47119516 0.72375244 0.519698 0.21551916 0.61500716 0.9593195 0.074862234 0.84479487 0.8370835 0.56420755 0.51443774 0.79943204 0.3373994 0.8542981 0.37740642 0.57138884 0.03330925 0.5306409 0.6860845 0.20483515 0.13302861 0.8786821 0.9044907 0.47195858 0.5854873 0.055621583 0.018165505 0.26938963 0.4769684 0.48850697 0.6343 0.7252558 0.058992304 0.65466034 0.8179434 0.6015012 0.20593613 0.47032306 0.072069764 0.08336078 0.18790537 0.9460023 0.42365083 0.68358815 0.2600316 0.30606538 0.72360736 0.7009425 0.59102553 0.48276028 0.06543344 0.392977 0.5035948 0.53166366 0.55074036 0.97803354 0.48711014 0.9370518 0.62691563 0.24482116 0.58185023 0.37208632 0.45513475 0.5187643 0.65303403 0.5783335 0.7933478 0.62271535 0.03496189 0.005148771 0.7445217 0.6450377 0.28631142 0.46178702 0.53825283 0.27864233 0.2913077 0.08364459 0.14236507 0.03758624 0.13097693 0.38056874 0.047111385 0.19812712 0.5002017 0.53126854 0.22771865 0.28728732 0.9660288 0.854917 0.2116667 0.8632939 0.6727592 0.53144807 0.86713535 0.3714607 0.18666427 0.7627015 0.29636747 0.16756965 0.7297197 0.003681734 0.48652583 0.78454745 0.2367148 0.103949755 0.95849544 0.23499146 0.38724497 0.88956094
l2 0.51638114 0.7339062 0.57944703 0.07296619 0.16567937 0.1856603 0.8723609 0.6853485 0.77605903 0.17340963 0.49505168 0.7002825 0.88004225 0.5469896 0.7691502 0.13104631 0.074351326 0.7403088 0.6346485 0.7013775 0.5163495 0.42798984 0.9994914 0.7744472 0.6411302 0.9153571 0.5264614 0.8815495 0.47016257 0.31441084 0.71837074 0.6523103 0.42634654 0.047030985 0.4297806 0.15863863 0.23151664 0.8204274 0.16175026 0.2179843 0.44567224 0.06844828 0.9217893 0.95457715 0.44247904 0.5798255 0.5413017 0.32419053 0.28029287 0.30352694 0.07526527 0.7074407 0.04498274 0.6427628 0.50873333 0.20665956 0.30650783 0.74522597 0.6950362 0.9373925 0.39806888 0.9005307 0.81296915 0.21324827 0.024139883 0.1148532 0.86878103 0.45250395 0.51993984 0.8942729 0.23500511 0.8882708 0.39192882 0.43821427 0.9544966 0.13925359 0.8864371 0.35226342 0.6169361 0.78954405 0.97957873 0.35228536 0.76925635 0.7016523 0.40129378 0.18660574 0.6343365 0.31076825 0.13691705 0.75951487 0.24463555 0.58324367 0.950385 0.9647154 0.91483045 0.16317105 0.8273541 0.80961066 0.9316922 0.15617119 0.28142634 0.4233227 0.86346936 0.17039399 0.004420123 0.011546681 0.6190066 0.1036504 0.13493815 0.020002564 0.4181229 0.5263474 0.48599455 0.117906265 0.78749335 0.5582109 0.98230124 0.37031636 0.84336466 0.61457616 0.36392894 0.5450864 0.19111228 0.8432208 0.08304207 0.7131703 0.5030999 0.37097135
l3 0.48235384 0.24270642 0.6336447 0.07834909 0.3554537 0.1790057 0.6063522 0.13980877 0.46067148 0.039916065 0.35137686 0.85159296 0.5696436 0.31322476 0.48930174 0.06872239 0.7466057 0.9007662 0.4408971 0.040261567 0.17433369 0.47117952 0.53125745 0.47880095 0.7064748 0.093030594 0.4761311 0.42775849 0.3075122 0.9858762 0.33084747 0.81857854 0.83784235 0.37110385 0.6713143 0.3739969 0.35059234 0.70486844 0.25392327 0.84377694 0.25200614 0.5013457 0.06747266 0.84430134 0.1955182 0.8781832 0.060347304 0.9715312 0.14695099 0.24567594 0.043045107 0.9007021 0.370973 0.48247427 0.76367116 0.69192857 0.41946533 0.50920963 0.995893 0.4365217 0.71880865 0.88791907 0.07826827 0.8201444 0.9583099 0.42491695 0.89835507 0.28000358 0.10487749 0.8934679 0.59455043 0.52208495 0.7657527 0.40639472 0.3392796 0.28657687 0.919866 0.86125493 0.24620283 0.16747418 0.64840245 0.7108569 0.40350226 0.32893023 0.9342387 0.33376694 0.5335149 0.20863195 0.74486434 0.86015934 0.5959535 0.88408786 0.39826208 0.3234226 0.57024544 0.74427116 0.012805258 0.7242023 0.23522423 0.8894964 0.9657348 0.5728675 0.7997598 0.7370818 0.60869247 0.3162324 0.99410033 0.052550893 0.54516906 0.96291834 0.3422049 0.86073655 0.6094951 0.9689267 0.9128493 0.3406613 0.9266125 0.08203886 0.87877995 0.5037158 0.056595936 0.46148297 0.9615991 0.3571581 0.3899638 0.2793758 0.352407 0.908572
l4 0.685268 0.9185576 0.91367745 0.8697704 0.051325064 0.56803113 0.33995405 0.58674604 0.09172669 0.023082944 0.044901982 0.6827933 0.7513174 0.28373325 0.5881901 0.07423559 0.1242779 0.39423475 0.5282335 0.21250689 0.5440302 0.13233511 0.95325595 0.77068746 0.39355674 0.81140375 0.68010414 0.40780765 0.6029518 0.8225471 0.7156839 0.3714262 0.65265995 0.5303067 0.64160466 0.74158716 0.422897 0.7230838 0.34716454 0.03620125 0.37062612 0.6770935 0.86893475 0.95049965 0.11238573 0.64944386 0.6470798 0.07140253 0.5841018 0.008692761 0.49382338 0.50760967 0.8656732 0.96329874 0.013901196 0.97202396 0.31233537 0.9747462 0.9903742 0.5687692 0.7913276 0.4320282 0.16341288 0.6534571 0.8208042 0.8776317 0.29725382 0.12035279 0.7020095 0.8024781 0.2635796 0.031813618 0.35165945 0.54638875 0.13151282 0.15519002 0.5068844 0.9446201 0.5479637 0.75598496 0.12179067 0.022773473 0.11716024 0.29113275 0.022759149 0.6022246 0.4794693 0.9270262 0.47804427 0.8858948 0.42622358 0.81644684 0.38483995 0.96494013 0.15186249 0.77866244 0.3266546 0.034813084 0.3400135 0.6423048 0.304732 0.9344621 0.78402585 0.5489206 0.33197138 0.014429215 0.7255529 0.13259149 0.7636276 0.82137537 0.006007931 0.88602567 0.72272956 0.39211252 0.13269426 0.47917816 0.74211746 0.84478205 0.1174172 0.6340057 0.008461671 0.91565627 0.567707 0.8942786 0.7325092 0.6400118 0.7108433 0.72450876
l5 0.16667396 0.9072511 0.36743018 0.23340076 0.22968069 0.022227965 0.56718975 0.9423426 0.67466825 0.4748666 0.49440667 0.6052348 0.5994213 0.35120115 0.656963 0.5166437 0.7063104 0.5841452 0.33767873 0.72120154 0.46953094 0.04568016 0.96871626 0.21614477 0.7933235 0.5070745 0.9526721 0.9095929 0.49682888 0.26737094 0.40867016 0.20096043 0.9316443 0.083116785 0.4735119 0.5775642 0.35560474 0.022553427 0.99418813 0.5754943 0.35333803 0.7901755 0.77934146 0.02897716 0.2733702 0.6089063 0.30397627 0.50435704 0.5018315 0.15264803 0.60924006 0.79535115 0.09058075 0.45750895 0.40048257 0.32130498 0.29800597 0.33940563 0.74028355 0.47964865 0.4742727 0.8638406 0.5491346 0.8064377 0.6789693 0.064467855 0.18446869 0.11813561 0.3871292 0.061456896 0.99218833 0.30535734 0.6739824 0.15424392 0.18255341 0.22730342 0.70739275 0.6518497 0.8970188 0.7585627 0.59512293 0.4573298 0.3936451 0.43997878 0.34857377 0.932853 0.12726879 0.49629655 0.045935858 0.046181217 0.23813058 0.6143917 0.7631043 0.15049599 0.13046056 0.6834227 0.3380137 0.8071162 0.32457513 0.46352163 0.59885526 0.47955856 0.38804936 0.05132116 0.9159741 0.49854395 0.052424364 0.31260914 0.3488144 0.64198965 0.1685225 0.67814827 0.8669297 0.015719067 0.021119777 0.2215137 0.8333078 0.6010602 0.2569959 0.9678725 0.5884186 0.29943132 0.019404704 0.42997414 0.96466434 0.23725234 0.046674766 0.32124695
l6 0.33517557 0.20242006 0.9134873 0.97700703 0.90918213 0.14069287 0.53046125 0.5019341 0.2926216 0.58583575 0.75276375 0.12972043 0.5350987 0.060441513 0.6003383 0.96617186 0.16760233 0.9309294 0.4976848 0.6913452 0.026348345 0.45443103 0.6341328 0.57665056 0.61077243 0.5095294 0.5061725 0.4796802 0.16903675 0.6292949 0.41557598 0.10160901 0.7550104 0.25599328 0.24251541 0.6828474 0.70614576 0.59409696 0.110145874 0.6059966 0.5216167 0.2722405 0.85446614 0.89488673 0.37108368 0.91302246 0.6932716 0.7570346 0.4682321 0.28424826 0.49627554 0.3193678 0.56672835 0.43264276 0.94626313 0.08562421 0.88208663 0.4504704 0.259403 0.075371824 0.067660466 0.012446217 0.61400557 0.2987101 0.6003045 0.5012409 0.8902473 0.008854757 0.87064594 0.31241012 0.64546686 0.25077865 0.13947788 0.6561803 0.18499617 0.27306867 0.47900888 0.9931329 0.20640129 0.10377167 0.68267053 0.95225304 0.33694306 0.932838 0.8892798 0.70880395 0.80928636 0.5408719 0.2733378 0.8669185 0.30107877 0.8984867 0.957442 0.9685249 0.8988942 0.69637275 0.723645 0.65925926 0.27010274 0.64388585 0.61510897 0.8015115 0.33565113 0.4108351 0.019508727 0.9464654 0.08252297 0.011302911 0.38465562 0.90102327 0.32163528 0.58189166 0.30374297 0.86329854 0.69341695 0.79978466 0.38478592 0.54168886 0.89918286 0.033029035 0.34375384 0.040353894 0.3230268 0.2518459 0.13550186 0.08561213 0.7174488 0.90246826
l7 0.9266963 0.6033813 0.15165366 0.46293616 0.59128463 0.3618831 0.061926905 0.9825238 0.63699627 0.86549854 0.9156805 0.2592752 0.5625962 0.31253195 0.040453468 0.65335184 0.5135086 0.35609707 0.76732117 0.32405645 0.77289385 0.77833843 0.2164387 0.42741567 0.8749583 0.45414773 0.83936226 0.9208216 0.8049053 0.58277607 0.45714748 0.8384716 0.83339643 0.067921 0.9437355 0.9985328 0.69454265 0.3062158 0.5958463 0.112625964 0.54837865 0.66212666 0.14699323 0.08465794 0.18819676 0.1602822 0.9062612 0.48048547 0.91467226 0.3353933 0.8253191 0.17129727 0.02058401 0.9259254 0.021931918 0.13421834 0.8717309 0.84086365 0.02664104 0.6788792 0.7283196 0.6402566 0.5154725 0.54673064 0.7432458 0.89348906 0.8701063 0.7689871 0.5229702 0.67156786 0.9368726 0.21404037 0.29685017 0.07395697 0.34192652 0.22761975 0.85287917 0.12916957 0.15204845 0.8735333 0.027342161 0.02475618 0.008260044 0.1733573 0.66961014 0.59832394 0.18227491 0.61402845 0.59345996 0.0071867635 0.4987788 0.19118088 0.48495674 0.06861923 0.0345626 0.8597116 0.50554824 0.6490109 0.18914874 0.48972592 0.75195026 0.7543489 0.036831062 0.07062547 0.15372756 0.4611974 0.8031753 0.23577471 0.8255374 0.75687236 0.036132555 0.6054473 0.52922547 0.83435655 0.5543077 0.290392 0.5985699 0.7663203 0.38851595 0.94087446 0.029346569 0.30501357 0.98430395 0.8845273 0.9349259 0.21005821 0.8164175 0.6949888
l8 0.45594686 0.50029325 0.13453609 0.34927487 0.62287015 0.21385278 0.28401452 0.9049489 0.014501286 0.98215276 0.9140719 0.1871495 0.0063852738 0.16830859 0.9441013 0.90899915 0.89170176 0.45387805 0.5389778 0.15968992 0.79951996 0.51075995 0.6234255 0.36702234 0.2067518 0.05144922 0.16409011 0.8233742 0.372961 0.62131697 0.035063863 0.3965389 0.5724545 0.18978885 0.36570877 0.7991028 0.2286774 0.070976645 0.48000646 0.83261377 0.37261552 0.2631101 0.9967843 0.70793945 0.19724685 0.40922678 0.062211562 0.8236783 0.36356407 0.8506274 0.058715075 0.2093166 0.0066580083 0.5907289 0.6662214 0.09249829 0.95972097 0.41758856 0.61479425 0.16435942 0.4138283 0.1391283 0.5599392 0.3478424 0.24913512 0.22052848 0.34663564 0.4646529 0.6439269 0.39467934 0.46854877 0.5018998 0.13014477 0.1984881 0.8689044 0.5542976 0.9524667 0.715839 0.3418091 0.4538496 0.60023135 0.56353337 0.2054358 0.025697015 0.49824777 0.44922024 0.25647783 0.9464114 0.25698346 0.5074992 0.48711 0.9216588 0.7786988 0.83105826 0.04472179 0.068141505 0.11612712 0.37849873 0.40642902 0.43144384 0.1772748 0.64832425 0.22149342 0.7440742 0.7834325 0.6274581 0.31483045 0.9960474 0.8500119 0.7680194 0.9934336 0.2246177 0.12629172 0.30874127 0.32424998 0.856936 0.10249087 0.31077817 0.3720019 0.41345525 0.71404034 0.7593239 0.80942035 0.7224694 0.44797996 0.608357 0.77384716 0.2080562
l9 0.423604 0.24935134 0.033535305 0.06782989 1.0081139 0.94202137 0.93442017 0.017289508 0.45512208 0.4362375 0.22891055 0.42776898 0.7017087 0.64571303 0.9497604 0.03479453 0.1714658 0.4932435 0.08765057 0.36020184 0.21620817 0.13950415 0.5758834 0.9457841 0.11634558 0.33375347 0.38440093 0.21237655 0.11171439 0.26942393 0.10000175 0.13671021 0.14216842 0.1896325 0.58571625 0.12786701 0.8263259 0.97467905 0.24411184 0.8744302 0.6515836 0.25583825 0.59218526 0.619263 0.51473224 0.9198093 0.35476047 0.37436447 0.34450525 0.53551966 0.014057447 0.318371 0.020107133 0.4733063 0.73459816 0.9640301 0.58201 0.98752695 0.08631493 0.60629296 0.8839685 0.095259756 0.11362046 0.94510037 0.11649694 0.20240647 0.40992978 0.3847234 0.47453308 0.027172303 0.66755277 0.5933463 0.05789871 0.3331953 0.033091817 0.5843151 0.23684168 0.749067 0.94272697 0.34504855 0.34067482 0.17608368 0.9645132 0.016379893 0.2900698 0.53123057 0.7607687 0.6224743 0.66559047 0.3787594 0.949869 0.92178744 0.4858016 0.2511951 0.63129085 0.62870294 0.39712802 0.42285118 0.070076436 0.3798031 0.45488024 0.91110754 0.53122103 0.05987518 0.61472404 0.11671889 0.7723731 0.47941718 0.44079357 0.05172383 0.522609 0.22693852 0.909 0.34742478 0.8393774 0.2515227 0.010733442 0.38543034 0.54316366 0.9152527 0.22785583 0.7893677 0.15950763 0.6637156 0.08790158 0.049031924 0.06915928 0.18265234
l10 0.4519262 0.083904184 0.70111245 0.4661498 0.39730337 0.41280544 0.26168025 0.9312909 0.15324828 0.49823722 0.7759201 0.64564097 0.07815889 0.8865129 0.4146777 0.02965626 0.780854 0.53290355 0.99672294 0.3628176 0.8880559 0.594009 0.67726195 0.94337046 0.4173828 0.89024055 0.099352 0.45771673 0.5676605 0.33146846 0.34621477 0.99840397 0.73155355 0.19666237 0.3180686 0.99810845 0.3096883 0.64938515 0.013574237 0.55875725 0.11673776 0.5741643 0.45450592 0.43267104 0.9573791 0.91281253 0.67700946 0.37132546 0.7838595 0.5582452 0.26070157 0.20636946 0.13742486 0.86177456 0.16152729 0.063164294 0.46750227 0.5702064 0.38568553 0.18397951 0.10094953 0.366962 0.3468077 0.40627843 0.5771114 0.67345065 0.34875587 0.9230532 0.60332346 0.45949498 0.6724836 0.20410752 0.6462868 0.6525049 0.7629492 0.5687066 0.72243553 0.91698277 0.49064913 0.056692995 0.28399852 0.16880691 0.14562018 0.9123546 0.53853095 0.76774627 0.40417477 0.264918 0.6472255 0.14551847 0.15431075 0.76100045 0.5674936 0.059550546 0.6523721 0.119233206 0.46234736 0.2849625 0.12573698 0.9567074 0.91976 0.6290596 0.5433651 0.85257226 0.5300471 0.5947406 0.5604436 0.4720877 0.7282305 0.78430444 0.6454924 0.34699586 0.8197832 0.95625967 0.94861215 0.8439339 0.2393415 0.09371524 0.5163282 0.9339409 0.9778114 0.8420761 0.29367477 0.25328457 0.662931 0.26414073 0.30363154 0.06657766
l11 0.4576389 0.79252696 0.9308164 0.78412 0.4788804 0.3645717 0.6137879 0.7413452 0.5976377 0.6503716 0.34899455 0.049840588 0.34938768 0.19717962 0.48123989 0.045621634 0.9607116 0.38654947 0.5888804 0.16645111 0.43523234 0.21818599 0.5027232 0.521881 0.042827588 0.6658388 0.86972725 0.3211167 0.40076396 0.33903274 0.15933849 0.55241823 0.35381082 0.08899642 0.8817741 0.9840511 0.5529778 0.6768597 0.56228155 0.10388387 0.027076952 0.29170024 0.40056777 0.4060867 0.52408695 0.51395905 0.93355626 0.11976445 0.7906672 0.05492678 0.29989463 0.39369935 0.14781187 0.6098938 0.2887057 0.16505335 0.031496294 0.9862502 0.53983134 0.27064627 0.45620722 0.14040546 0.28867832 0.086129844 0.77613777 0.8118478 0.39617413 0.47476628 0.2390281 0.9481936 0.32738802 0.98657894 0.15212765 0.24204707 0.59165925 0.83211803 0.4779052 0.667168 0.50973135 0.7568569 0.4278827 0.45932198 0.56740695 0.22232538 0.66760755 0.63718057 0.4410239 0.13333009 0.85250914 0.66626596 0.2115437 0.85493886 0.32080448 0.77232015 0.12121123 0.5538401 0.123327635 0.74388 0.73889047 0.8744679 0.9298078 0.6905038 0.7373316 0.72906905 0.8376776 0.22869205 0.5400856 0.22170797 0.33163267 0.8269792 0.88893247 0.3618246 0.9876031 0.64819044 0.23003873 0.86301625 0.27662414 0.41222042 0.84571815 0.13309582 0.27775633 0.3959835 0.9851404 0.762298 1.0081567 0.3069927 0.2498797 0.08795193
l12 0.45365664 0.546148 0.7208886 0.10209987 0.9185934 0.2512575 0.35759178 0.9611962 0.59600073 0.29507354 0.49718875 0.62433964 0.21702269 0.9181427 0.7546782 0.7425519 0.24439819 0.34734538 0.7034529 0.4194077 0.15606782 0.69580173 0.7458845 0.3522735 0.90502584 0.9544539 0.16550086 0.74966323 0.68538415 0.6416 0.09162131 0.7623913 0.6071446 0.7344378 0.96595895 0.56398314 0.3670101 0.47356972 0.70609367 0.19126569 0.49263018 0.87513924 0.23810901 0.7244488 1.0010446 0.9395399 0.8085986 0.27628028 0.39761466 0.20855027 0.56076425 0.5756447 0.60867196 0.67042965 0.36857522 0.15748817 0.6080493 0.8326304 0.35908148 0.6012427 0.38575053 0.2513437 0.3863872 0.12423437 0.45238698 0.5918644 0.7531766 0.9315563 0.8525494 0.25376186 0.893469 0.9708535 0.49738017 0.54721904 0.86176777 0.93618494 0.27667612 0.24461946 0.1424204 0.14443284 0.6465692 0.60475826 0.23464586 0.8501569 0.05155822 0.12008456 0.5951653 0.24355534 0.6481241 0.6261766 0.13072436 0.96733534 0.9459556 0.1208747 0.22905621 0.2674072 0.56941307 0.09922467 0.026811665 0.9709973 0.42320272 0.8987775 0.97103065 0.8188926 0.030779304 0.19369604 0.84038025 0.8337632 0.69403595 0.2792724 0.048945926 0.6093257 0.17968012 0.014184979 0.035672303 0.5891705 0.17514808 0.24008837 0.15119997 0.27563772 0.7399251 0.13517186 0.3754744 0.85265076 0.78415257 0.8868852 0.635751 0.93700105
l13 0.6306631 0.3527022 0.738037 0.19419576 0.94814867 0.6260356 0.8555023 0.20189402 0.8771871 0.67980796 0.6360611 0.47052196 0.05734315 0.0597153 0.24486595 0.024627952 0.94544697 0.58304805 0.34882095 0.07387902 0.16075435 0.3903148 0.864622 0.92073673 0.4496196 0.18874009 0.08343401 0.8743674 0.47303852 0.87578875 0.764203 0.48469585 0.79891217 0.48575968 0.3021849 0.28467956 0.9825399 0.50882816 0.8119587 0.13503818 0.17377876 0.6314972 0.6637659 0.22297347 0.92763865 0.5119146 0.6292367 1.0042039 0.4897385 0.9786365 0.084307574 0.13821873 0.11179976 0.4713499 0.13592008 0.6033363 0.25434655 0.62329257 0.49871734 0.98078734 0.5573223 0.7491479 0.9073721 0.0817576 0.8229798 0.22818604 0.26847985 0.63975966 0.020960947 0.66072077 0.7754522 0.2618815 0.1638712 0.8136094 0.8908522 0.5706913 0.6157636 0.3168659 0.18384424 0.1747624 0.2851822 0.482856 0.27191967 0.15682115 0.16732204 0.9684565 0.6615522 0.33164597 0.83816594 0.53185034 0.3259933 0.09791812 0.14296135 0.14680745 0.0625737 0.037890345 0.7584367 0.9245846 0.19029406 0.36080164 0.8018615 0.45339108 0.08376211 0.14183657 0.4853583 0.5307459 0.8938293 0.10180402 0.8262633 0.54700154 0.7075513 0.43257484 0.9184816 0.79655486 0.67208564 0.83625174 0.28228176 0.47954902 0.049883626 0.32629627 0.22311865 0.2130351 0.48375586 0.9985678 0.25911775 0.15518343 0.79312587 0.5567253
l14 0.9781994 0.23752423 0.9008936 0.20413007 0.22731057 0.012463217 0.5701479 0.46677917 0.4200674 0.43228716 0.124272175 0.022754652 0.96650636 0.17675646 0.3252605 0.25668216 0.310531 0.584554 0.30010906 0.1449945 0.550002 0.047026705 0.9371248 0.46600634 0.19160025 0.055603616 0.848565 0.96467066 0.1153353 0.23678395 0.3900524 0.7117785 0.8378415 0.55261225 0.5114804 0.13359165 0.11276733 0.14878567 0.6912345 0.33904758 0.081917875 0.5130951 0.406617 0.054869283 0.87932825 0.30043152 0.08836316 0.68396616 0.91749734 0.8027841 0.9309866 0.10223948 0.8396109 0.8933758 0.8941053 0.09270769 0.5260449 0.59740627 0.6672572 0.29288435 0.33049786 0.03336106 0.1881049 0.8898703 0.74264026 0.9974208 0.36071467 0.7765427 0.21062206 0.019427918 0.8135934 0.13202149 0.079173245 0.007785354 0.330571 0.784962 0.8356225 0.9846966 0.587986 0.43030185 0.92034537 0.4810643 0.7714795 0.45011917 0.18627271 0.7582566 0.83568853 0.67259157 0.77237403 0.18713282 0.84815013 0.8918401 0.65312654 0.81273913 0.31220916 0.31006458 0.3568184 0.12967247 0.34983233 0.31802607 0.2825948 0.254386 0.77097845 0.451074 0.35171542 0.63004273 0.666877 0.23602113 0.8102699 0.048248485 0.80526656 0.43473396 0.315729 0.81319433 0.925472 0.76448673 0.42903742 0.9869151 0.7892779 0.57441485 0.77608365 0.8893513 0.5923009 0.6184041 0.7610859 0.63478124 0.33216083 0.44278583
l15 0.07350119 0.11248698 0.58105624 0.47791556 0.14861625 0.1030251 0.31025884 0.50488997 0.3642184 0.44089872 0.23869072 0.07702184 0.6280617 0.29283598 0.03499413 0.8233797 0.40373927 0.9180479 0.0563513 0.24541266 0.7602844 0.66392756 0.40021676 0.95039815 0.79426146 0.13510397 0.169446 0.0940037 0.6324044 0.6364925 0.13898781 0.42392403 0.46287295 0.42775634 0.56734824 0.41698843 0.53974795 0.582686 0.56356376 0.93116814 0.77694494 0.89675295 0.6387483 0.9353754 0.65192413 0.32825738 0.08255676 0.10102459 0.48835063 0.03163518 0.64048976 0.3026991 0.4006313 0.3837197 0.19601576 0.41028318 0.4460989 0.45724782 0.11859169 0.8163312 0.29574132 0.8346769 0.36670426 0.7075177 0.90060973 0.84812385 0.46462208 0.68244565 0.5162244 0.43730745 0.16585064 0.5240131 0.3149229 0.06598659 0.30599013 0.43808642 0.89196944 0.7222888 0.52107704 0.5777551 0.24044274 0.6970571 0.78271943 0.34648192 0.14309146 0.094052754 0.8142 0.23824085 0.8963667 0.45406944 0.34318712 0.3809711 0.12540613 0.9783888 0.8025183 0.20867983 0.6231727 0.24279898 0.3114381 0.5656904 0.9924773 0.43866464 0.25638822 0.8188757 0.4342476 0.38292018 0.6378669 0.084374495 0.20926349 0.17093612 0.1479226 0.41494772 0.7112729 0.06402153 0.81274956 0.5444468 0.121483445 0.30746576 0.52973485 0.5818651 0.8007158 0.8629756 0.28152657 0.3798043 0.9740111 0.24916703 0.5088488 0.20825116
l16 0.44533113 0.9592869 0.28388017 0.6865244 0.10941047 0.022657163 0.08551084 0.10996599 0.04527538 0.07891909 0.1331708 0.21901585 0.102884345 0.26128107 0.9167101 0.4708311 0.27368298 0.71903306 0.41631806 0.2938285 0.82572305 0.43179062 0.6442051 0.31632575 0.20610365 0.9079764 0.38828066 0.42812437 0.3642207 0.7582496 0.19446352 0.049506634 0.47123498 0.8643832 0.84473073 0.06696939 0.052159835 0.4204977 0.99394244 0.0125869205 0.20197292 0.38147995 0.79083747 0.110097304 0.70412564 0.56411105 0.5046844 0.2363915 0.9832454 0.19808121 0.4629204 0.19879185 0.6187609 0.94837695 0.2771925 0.82811695 0.96025497 0.21288797 0.119733304 0.9242874 0.4932504 0.99920976 0.833298 0.21632072 0.741845 0.16365163 0.23788211 0.06700737 0.23997502 0.28194946 0.59221977 0.9683161 0.31056666 0.10837415 0.57115084 0.77159655 0.026353631 0.26036894 0.20160264 0.662512 0.96555954 0.94514775 0.96245927 0.545975 0.008544752 0.20983844 0.28485733 0.2824099 0.85933477 0.16445106 0.45134726 0.57054394 0.58202356 0.8963589 0.37527132 0.32978347 0.96859294 0.7331795 0.43825898 0.80997866 0.013125593 0.27787557 0.20970243 0.509379 0.9331126 0.5303616 0.19123009 0.7186604 0.582051 0.47459662 0.80936664 0.14882213 0.7733324 0.70471025 0.92986435 0.8000222 0.23058356 0.09975002 0.5678059 0.21360599 0.4236141 0.32010397 0.60949636 0.52689767 0.43430462 0.77932894 0.24956886 0.4347886
l17 0.49409837 0.26792967 0.20448405 0.94410855 0.050527357 0.49521378 0.42981166 0.4147845 0.9568351 0.3397279 0.73339695 0.55202067 0.73595583 0.8310361 0.53317547 0.8249859 0.5007956 0.106204964 0.5519862 0.46786356 0.7570709 0.33109027 0.7213613 0.8355818 0.26214856 0.55217934 0.2525563 0.17623164 0.8723724 0.7263483 0.67096204 0.3318109 0.9450972 0.79915655 0.7482952 0.6127082 0.40208918 0.58156925 0.40876967 0.6115647 0.7261574 0.36580655 0.55111426 0.22985534 0.26245466 0.5102033 0.12839188 0.75982696 0.94487214 0.20535547 0.044171073 0.991721 0.73376656 0.10824904 0.18275504 0.116260715 0.49153677 0.7296466 0.37968078 0.5914526 0.7051505 0.19413662 0.24935725 0.037016224 0.109471284 0.7018227 0.66245216 0.031297345 0.8021589 0.20986648 0.040585663 0.28872824 0.69368434 0.7081722 0.20178765 0.052273553 0.7915877 0.23558724 0.9884693 0.27405012 0.115302905 0.1384093 0.2780415 0.06235296 0.33315942 0.78007454 0.45846394 0.21580133 0.5159616 0.10339182 0.84023714 0.45872837 0.3452978 0.61324704 0.90615004 0.43758282 0.51869345 0.08779034 0.8971993 0.9548892 0.4885065 0.39912283 0.73412204 0.2031484 0.16761895 0.27499825 0.9773755 -0.00016249988 0.06455716 0.16578265 0.24073017 0.04752643 0.7243281 0.4259234 0.15711302 0.47144502 0.07819954 0.39324105 0.7667284 0.3527336 0.8164104 0.60485464 0.88027996 0.008174456 0.71899366 0.45003504 0.95604414 0.033710476
l18 0.8655532 0.6855205 0.30992058 0.48197347 0.7505882 0.44642937 0.186967 0.57641566 0.2965861 0.2374909 0.40238473 0.3659662 0.91100883 0.48236096 0.6790229 0.8411401 0.6177395 0.82115364 0.3115291 0.5365234 0.54780424 0.06832216 0.93906045 0.9510952 0.89131755 0.60155547 0.55261004 0.019608097 0.5574412 0.09644981 0.97849965 0.5704392 0.8105602 0.460746 0.375998 0.4719858 0.18568708 0.93863034 0.96612054 0.16045722 0.015446595 0.7481953 0.12743141 0.6684433 0.1096106 0.37391207 0.5976708 0.19821765 0.4048306 0.575462 0.37038794 0.9200041 0.08087729 0.6408953 0.673224 0.59096485 0.20358789 0.14209773 0.47971407 0.8507821 0.46504068 0.042731162 0.9216284 0.50022763 0.8672247 0.07735047 0.37806633 0.045384694 0.20797409 0.70828295 0.6894109 0.72796994 0.37777585 0.13145846 0.8554205 0.9195237 0.11663329 0.9180625 0.08370703 0.98357815 0.6309042 0.09388216 0.4264763 0.45533854 0.88636506 0.13390328 0.3052646 0.9734523 0.94741076 0.1731586 0.28772852 0.7412399 0.077285774 0.5685738 0.91060126 0.6014549 0.61358225 0.9225923 0.082355544 0.6165408 0.003561668 0.022838298 0.30587238 0.8768342 0.7786872 0.04084652 0.28416568 0.32469815 0.59563667 0.40630448 0.8916899 0.321598 0.59617347 0.85340506 0.85632724 0.051964745 0.6685354 0.32569587 0.3677338 0.33281076 0.92551947 0.33491 0.73564714 0.34098208 0.6060734 0.103606746 0.2538943 0.6962103
l19 0.8009642 0.38102993 0.016831301 0.71798885 0.5834891 0.6525532 0.1482026 0.7676311 0.34407616 0.9116526 0.72222716 0.27418697 0.41776854 0.5718227 0.46679056 0.28309703 0.7650211 0.16317953 0.7021267 0.04956892 0.17312048 0.2099737 0.82593185 0.7419786 0.24452469 0.08984914 0.6993789 0.6862188 0.29498503 0.8629912 0.6525595 0.59427863 0.06889742 0.19190596 0.5920281 0.47258806 0.2964986 0.2512577 0.93073714 0.14844862 0.72386825 0.21685264 0.64219 0.998239 0.74753505 0.80200857 0.11478069 0.93976176 0.22818795 0.75645727 0.6643997 0.2901044 0.82967097 0.07487731 0.118881896 0.41336676 0.0054380368 0.47515577 0.6225999 0.5150776 0.12986921 0.9336887 0.8920504 0.3052589 0.5224999 0.60856545 0.61803365 0.6248894 0.2307916 0.8166532 0.20681834 0.9920484 0.99572307 0.700994 0.8373969 0.69759494 0.88456047 0.10165959 0.9469287 0.4033817 0.23395817 0.93545526 0.25845346 0.59016484 0.5037072 0.3487952 0.6305641 0.3043021 0.08370522 0.29556662 0.043095842 0.98827565 0.37525696 0.027842887 0.67872316 0.059300087 0.6971939 0.6847566 0.27031794 0.50906515 0.1732558 0.15683174 0.22730565 0.30620256 0.66525173 0.21259534 0.23645595 0.78586394 0.9982746 0.91373074 0.30665028 0.54336745 0.9786843 0.45385724 0.71263117 0.9508495 0.94696337 0.7938513 0.9406479 0.20834696 0.040442046 0.7694197 0.8157845 0.7897798 0.21580972 0.90293396 0.9811547 0.535123
l20 0.7036632 0.7450934 0.045175314 0.55288064 0.28518066 0.24356514 0.7538772 0.35187045 0.02705441 0.67196316 0.46455944 0.87788284 0.15212399 0.45107603 0.39773968 0.6429758 0.77835876 0.42719835 0.9807756 0.83435285 0.8009849 0.28455055 0.76777345 0.80290383 0.10455808 0.5634526 0.15475017 0.6587009 0.41490638 0.5422847 0.79636633 0.26875538 0.8941151 0.69006056 0.061731353 0.97785366 0.9455682 0.65745103 0.10915649 0.9451927 0.44271648 0.5602069 0.8755668 0.8156066 0.5957176 0.75376266 0.6542486 0.7273427 0.044163566 0.83874726 0.12069362 0.27854484 0.05765206 0.040237118 0.4724676 0.63126194 0.103634685 0.82797045 0.31053418 0.59534323 0.6665383 0.40551132 0.62869656 0.15474051 0.8173642 0.89428186 0.5503765 0.6412861 0.38523462 0.26945657 0.69558555 0.89424586 0.058073036 0.34365672 0.6487247 0.47128442 0.6197143 0.96793413 0.5934706 0.8325329 0.16762245 0.34617633 0.83822507 0.8904224 0.23878448 0.8865599 0.54700166 0.8176719 0.6100239 0.14920765 0.32589364 0.6020856 0.14004752 0.7273781 0.9523076 0.058314346 0.77251536 0.102387704 0.6718882 0.317566 0.027262388 0.061141472 0.7540828 0.91324854 0.5607663 0.35637614 0.3747307 0.031054335 0.49205908 0.90988344 0.49892783 0.49070057 0.11680436 0.09241995 0.5901836 0.5904215 0.39139467 0.47415078 0.05550885 0.5222971 0.8547877 0.7241271 0.38609013 0.017507087 0.5316435 0.24337715 0.897341 0.28971425
l21 0.8743506 0.52126676 0.08282513 0.17976603 0.3811556 0.76143324 0.9527839 0.4197651 0.5916827 0.24058095 0.5306477 0.87299395 0.089973524 0.24345179 0.08212967 0.21335548 0.68089086 0.59540486 0.13973993 0.23639318 0.23677017 0.77647555 0.5250598 0.8503664 0.79467565 0.52418905 0.78482205 0.03839616 0.0026688322 0.15946208 0.091827385 0.055313926 0.19933869 0.17116728 0.96116877 0.37663192 0.022933023 0.13057101 0.12466815 0.40606934 0.13061891 0.6655331 0.44922993 0.7606836 0.3050402 0.95781136 0.027333362 0.27509496 0.19133939 0.58350205 0.58902997 0.19592519 0.4897507 0.23630711 0.2455341 0.1453073 0.12802185 0.031031962 0.15732391 0.07659809 0.31769884 0.09356071 0.517133 0.37662125 0.08914021 0.82379866 0.12163451 0.4306913 0.8129053 0.022256033 0.5613477 0.8377755 0.020568673 0.07966758 0.6739507 0.5968739 0.9475838 0.05834661 0.4239997 0.7536141 0.7203965 0.32164782 0.46670675 0.25527132 0.94377154 0.8518846 0.15045685 0.32725957 0.22283876 0.49258018 0.5771684 0.75865275 0.5235914 0.15188381 0.9114007 0.6440723 0.88442826 0.7358542 0.8783121 0.27276537 0.13281001 0.4412903 0.80747896 0.31335497 0.5176469 0.9091321 0.7926082 0.52673644 0.98214155 0.93857807 0.7412664 0.2970176 0.46018967 0.64574057 0.9743732 0.7470302 0.75187457 0.72408044 0.651102 0.5414472 0.109403096 0.8106329 0.57060766 0.31809664 0.49482384 0.39021882 0.51183903 0.5706145
l22 0.2996195 0.004205205 0.5073381 0.32581648 0.81442475 0.18352094 0.023250254 0.6727248 0.9856197 0.22250363 0.8609259 0.8877788 0.53266376 0.8849825 0.19006118 0.2348872 0.36536562 0.37525788 0.8607955 0.021312214 0.6883278 0.75667495 0.6911015 0.9916538 0.86717445 0.6678806 0.2250811 0.85164803 0.10241175 0.7742948 0.993592 0.43939194 0.031054767 0.92897844 0.20707111 0.8021441 0.36639142 0.979875 0.63663065 0.66459566 0.30614245 0.41778392 0.5090248 0.60916334 -0.0009724569 0.33383942 0.46507022 0.097236276 0.24974334 0.38531584 0.2381262 0.9980232 0.39242628 0.7827543 0.33113524 0.08428373 0.8136709 0.91282177 0.83314604 0.45275992 0.71787024 0.85996276 0.54047954 0.4773742 0.75164104 0.09415109 0.50028014 0.036639653 0.27346757 0.7294495 0.690037 0.8227053 0.051330164 0.44642094 0.4480671 0.64292 0.67398083 0.76471925 0.45659932 0.09226301 0.27695447 0.20777167 0.88324517 0.24063772 0.8587504 0.74008226 0.9412714 0.6910231 0.3275471 0.23227942 0.5651682 0.22833407 0.9737775 0.32828176 0.17071876 0.16415529 0.24054074 0.50748557 0.21771622 0.34764662 0.84440774 0.7110849 0.6065798 0.1761795 0.62161213 0.840406 0.5509502 0.4406121 0.8138444 0.44387805 0.7603558 0.7529754 0.49364093 0.47311333 0.7949152 0.7633159 0.3264682 0.3018356 0.9560879 0.599915 0.838223 0.36208183 0.5757761 0.8574751 0.6800473 0.3790001 0.47467148 0.6376236
l23 0.56497735 0.8841032 0.38360772 0.5394505 0.8857163 0.5405574 0.042981684 0.2162286 0.34717068 0.25234345 0.3931228 0.18698792 0.76169366 0.7586895 0.19007935 0.46485826 0.5893185 0.6634031 0.872755 0.74382794 0.078257695 0.572558 0.31158713 0.8275893 0.27958342 0.0038992604 0.865886 0.1785484 0.6530152 0.011677714 0.8300923 0.35787165 0.77451986 0.47711 0.3072632 0.029098408 0.16340695 0.5571648 0.3713259 0.5540674 0.13472198 0.3921775 0.13718417 0.93113595 0.39979205 0.47980717 0.66170716 0.03146383 0.030771228 0.58706206 0.047530062 0.934242 0.77910537 0.6139233 0.7186696 0.8294069 0.41226682 0.012761133 0.7939279 0.5575366 0.91381127 0.25963628 0.31301218 0.539133 0.8471316 0.7047563 0.2899941 0.33282575 0.2619483 0.88187975 0.6033737 0.42053607 0.85509956 0.38588148 0.20539588 0.26334584 0.31129098 0.19438675 0.47764015 0.9565814 0.32301453 0.46707734 0.1728813 0.6259402 0.26288456 0.98395467 0.30651325 0.8822724 0.048605695 0.7933259 0.5630235 0.24127652 0.14422049 0.08641588 0.84706336 0.3519892 0.79427373 0.7214443 0.17614931 0.97634345 0.37898073 0.8189208 0.592239 0.5332441 0.24594814 0.23602031 0.443516 0.6652607 0.19725993 0.85220355 0.29894862 0.34822184 0.40017334 0.84329075 0.11490214 0.60064507 0.84750146 0.48360112 0.69941175 0.15575038 0.7226663 0.15576155 0.4964772 0.5444034 0.4391751 0.72705066 0.35765582 0.6430115
l24 0.71843654 0.86129516 0.9528353 0.7158833 0.22471522 0.629136 0.17033419 1.0022297 0.51753205 0.8036252 0.13197094 0.44897744 0.45935434 0.08107814 0.25300953 0.18080005 0.6435384 0.1006695 0.73748225 0.70897675 0.4687502 0.5202977 0.21706572 0.26215503 0.07386257 0.6580432 0.9116316 0.35346192 0.6545447 0.8053969 0.25598338 0.9435964 0.046322357 0.4073441 0.46962726 0.66518515 0.6591196 0.6161884 0.83849615 0.11888082 0.865594 0.81751925 0.7291393 0.86255634 0.50186366 0.1912501 0.5679207 0.84601444 0.09245943 0.28602192 0.4006613 0.9207511 0.856918 0.035178125 0.82987255 0.07165879 0.60711706 0.8770789 0.034273874 0.10212011 0.9839129 0.43925333 0.77596366 0.7615769 0.55600864 0.21496618 0.4234453 0.9593307 0.40431383 0.102323346 0.36182442 0.43435046 0.74833083 0.7552067 0.025963487 0.92474943 0.77393925 0.8286015 0.8287539 0.7758643 0.16297406 0.5871973 0.8171221 0.39715442 0.03572488 0.72510636 0.17816256 0.71591806 0.14515969 0.22968914 0.53372294 0.57667404 0.8055888 0.7762688 0.4207718 0.808568 0.2951936 0.69316715 0.048447058 0.32063878 0.22222176 0.98275113 0.90817064 0.06863341 0.49029818 0.5785064 0.6172293 0.9625204 0.74739057 0.46924248 0.6618882 0.1598726 0.6088977 0.1380612 0.13665012 0.15513588 0.7465691 0.11917477 0.7756146 0.16707471 0.8139798 0.42970648 0.8306467 0.5634679 0.25920606 0.11183881 0.10680707 0.6047319
l25 0.9870288 0.4100095 0.5289783 0.13146287 0.3845423 0.9864075 0.5882465 0.559416 0.65467024 0.75870985 0.84824145 0.038616646 0.48153883 0.9515668 0.6802944 0.72069776 0.3695804 0.94751877 0.9943252 0.60321313 0.018301688 0.93329865 0.027237955 0.85060775 0.7073785 0.11721676 0.7220261 0.719356 0.8800491 0.34342864 0.6699832 0.2721199 0.016492324 0.0341388 0.27135468 0.3962884 0.4003023 0.05639821 0.7044141 0.56430155 0.70669717 0.2232441 0.11564444 0.37600675 0.86960894 0.07573089 0.78411114 0.6209417 0.3092369 0.49839947 0.04674594 0.5055055 0.37540868 0.23696291 0.11591125 0.022053253 0.037606545 0.89550066 0.08328111 0.6987158 0.8569999 0.22922099 0.57361954 0.25194907 0.14608817 0.795778 0.28883812 0.10506778 0.31706017 0.054286826 0.25112268 0.93612546 0.023905214 0.9032002 0.9487592 0.62679434 0.48749518 0.79724 0.4333043 0.42596525 0.4260046 0.8090354 0.016848475 0.06790985 0.22787896 0.8958861 0.06765483 0.57198983 0.16314633 0.38022715 0.4990872 0.17901796 0.090194196 0.79406804 0.574911 0.36183298 0.3043353 0.34541747 0.35461813 0.45476493 0.78735954 0.29451066 0.4894204 0.71130836 0.3165766 0.18263145 0.72629684 0.02854087 0.44006187 0.50552124 0.8785709 0.78861684 0.15621766 0.9699641 0.5462034 0.3351868 0.63076687 0.5185655 0.014713146 0.16665971 0.34687158 0.7530184 0.104200006 0.34594214 0.8702595 0.09932116 0.41377774 0.5451479
l26 0.54982114 0.13214211 0.45765963 0.2567223 0.99004257 0.60127026 0.89807814 0.2956322 0.9759231 0.09725519 0.98118997 0.23208183 0.87734026 0.95720994 0.75305605 0.7792522 0.009486453 0.8046964 0.2530704 0.71839774 0.58355206 0.01335544 0.8897441 0.6397368 0.56474143 0.09746926 0.6508064 0.67525953 0.11124679 0.6945809 0.7293967 0.8629905 0.8348602 0.3638261 0.8760757 0.7351825 0.5384901 0.10373951 0.99689424 0.8309248 0.5181972 0.9413416 0.46205217 0.30887365 0.27496666 0.54541945 0.78429914 0.85638016 0.3853486 0.19598997 0.7767263 0.9129645 0.9296037 0.36209992 0.88598984 0.9913995 0.6976007 0.89650816 0.7396431 0.3002293 0.15473963 0.59459025 0.09103055 0.23183146 0.31408197 0.013765733 0.81124514 0.63731366 0.39683574 0.7022456 0.83387405 0.21001746 0.023058087 0.81148535 0.31844807 0.16749114 0.6171043 0.09275681 0.62645936 0.9463914 0.80739516 0.7884875 0.21753636 0.70739263 0.30627704 0.28151 0.64675534 0.09418848 0.3107731 0.92718863 0.08768204 0.3214584 0.7854581 0.4828203 0.72649664 0.28789112 0.9709626 0.45499697 0.6053455 0.10854606 0.7554608 0.0998617 0.31627703 0.69418955 0.26431653 0.72072166 0.7770283 0.18600982 0.731274 0.36405483 0.35949305 0.65983635 0.2726764 0.06937408 0.47447234 0.80397654 0.8876693 0.15670869 0.46938473 0.4326702 0.9881668 0.8312507 0.26850095 0.21325512 0.005675425 0.95078313 0.72106135 0.0866067
l27 0.7683718 0.8763213 0.96831495 0.7306083 0.85677236 0.69138503 0.44334012 0.86147785 0.21323754 0.78319186 0.08657846 0.23874421 0.52031255 0.27001297 0.93017536 0.9464864 0.70758337 0.64856887 0.63821226 0.60058993 0.80048585 0.59226406 0.8117595 0.41303018 0.6058826 0.3291974 0.3679676 0.83270663 0.42256173 0.3684337 0.5913513 0.6545497 0.36310604 0.82026243 0.5392134 0.47895738 0.7601184 0.16866048 0.096739545 0.72839767 0.6820213 0.3583411 0.87276006 0.57254285 0.5612263 0.38508555 0.10417512 0.9608464 0.20854159 0.4249569 0.06928922 0.5400458 0.45006204 0.3973877 0.21212211 0.82948875 0.074111894 0.41042534 0.37463805 0.60033965 0.0504648 0.25758263 0.09925152 0.76925504 0.06712893 0.18320432 0.8658968 0.07068381 0.35382447 0.15758912 0.9236218 0.01332248 0.15331331 0.33439878 0.34693122 0.48500776 0.4766411 0.8534979 0.2298462 0.61849344 0.10636824 0.52934724 0.4709082 0.44652352 0.08501322 0.56451327 0.43236756 0.47106704 0.6555426 0.144568 0.29597023 0.3479208 0.11568489 0.8081728 0.5647867 0.16442265 0.61772406 0.30192718 0.36737156 0.41111046 0.81999105 0.69154835 0.82264245 0.84861934 0.8347044 0.5402023 0.6831517 0.5935051 0.0719426 0.6931146 0.61767256 0.9942549 0.89647514 0.87413454 0.8034999 0.27505586 0.5679654 0.23062296 0.3449884 0.43943447 0.6508087 0.7124768 0.03617361 0.84708107 0.4580411 0.8079981 0.42277864 0.2528872
l28 0.6098982 0.8287373 0.8338462 0.43837297 0.8029161 0.77551866 0.9960371 0.3079188 0.8088089 0.63021415 0.50644207 0.93225676 0.97524965 0.589516 0.25643536 0.68060994 0.88011885 0.2311812 0.2586841 0.16222282 0.7709194 0.34712127 0.3398517 0.88840586 0.76808476 0.67989516 0.19676454 0.5659265 0.57984036 0.6650645 0.8041852 0.83572704 0.71005285 0.9108464 0.7749286 0.90863657 0.39125872 0.5603062 0.6879668 0.25954834 0.6443647 0.9378867 0.11696595 0.6343041 0.49779448 0.62314343 0.609885 0.34817785 0.37851667 0.84957516 0.57834655 0.5513007 0.8049323 0.08409545 0.009619552 0.6674382 0.009665727 0.3460111 0.3150658 0.16878095 0.16394447 0.13200116 0.7911054 0.4422857 0.36344132 0.91703874 0.08880466 0.24281822 0.458138 0.075925276 0.2821832 0.360325 0.46349025 0.04098896 0.3162022 0.06845775 0.09838101 0.68441296 0.8064783 0.29891732 0.2241967 0.8801509 0.85486615 1.0039808 0.7734284 0.61248225 0.7029965 0.24622571 0.5005384 0.52494955 0.31309903 0.6177539 0.78305197 0.14371015 0.112747915 0.2998621 0.7258544 0.3948045 0.47598645 0.14260079 0.29060754 0.9135534 0.9855879 0.29723382 0.11379826 0.31660697 0.046568397 0.5662193 0.102941155 0.9042454 0.78067297 0.15278178 0.53984076 0.49716952 0.9221658 0.59818417 0.8148238 0.4274285 0.5753046 0.3976825 0.75362504 0.80198395 0.96368426 0.120365776 0.031956114 0.18867503 0.19378136 0.56227255
l29 0.5910189 0.54029316 0.41197455 0.83160526 0.65472317 0.1308828 0.86324966 0.95691293 0.30733004 0.09908882 0.8986961 0.85499656 0.7918091 0.35672262 0.33894953 0.35875452 0.14997496 0.2515047 0.78658193 0.14515814 0.6384882 0.86718357 0.5020952 0.7769987 0.11813705 0.62040895 0.62306076 0.56304497 0.227474 0.34845325 0.7777213 0.93491566 0.32099414 0.8792799 0.5108716 0.23648064 0.23725164 0.95919114 0.07309534 0.269718 0.55762833 0.39829502 0.01249049 0.99647504 0.9970225 0.3322785 0.46551138 0.28651103 0.8285704 0.52738273 0.5564898 0.75517553 0.97894454 0.40347132 0.79392505 0.95709974 0.22934589 0.6177184 0.14535844 0.39605567 0.8260625 0.15941648 0.39850512 0.82846946 0.43293476 0.7966165 0.91161466 0.7031821 0.4447479 0.5287888 0.11549558 0.5928146 0.33351544 0.37497163 0.965761 0.51853 0.4065968 0.008239595 0.31318706 0.13987806 0.48430115 0.7868841 0.8535044 0.043797944 0.036649507 0.6286504 0.1763652 0.1319235 0.012858909 0.4706831 0.5759554 0.8505561 0.53318536 0.2862661 0.71069777 0.14874797 0.26536617 0.550158 0.12635465 0.9544844 0.12132274 0.907073 0.9273772 1.0060174 0.07630637 0.5588716 0.9392844 0.8471484 0.93063515 0.5776647 0.097992584 0.6381524 0.073505886 0.439999 0.43765783 0.35396457 0.94247234 0.23651221 0.7456317 0.90276337 0.5045337 0.65841514 0.71634734 0.43930373 0.23849516 0.47773615 0.7109 0.9866427
l30 0.10372265 0.7228203 0.98049337 0.5804363 0.4988742 0.75914526 0.20376354 0.4960772 0.3859338 0.24116232 0.7529454 0.04014606 0.85234404 0.8741229 0.17691916 0.25420374 0.7762595 0.5451367 0.8020065 0.46263325 0.8355867 0.80835146 0.25504076 0.2587504 0.5652709 0.22276157 0.14111707 0.5710484 0.76465917 0.6492978 0.12068853 0.34863612 0.7610449 0.37042767 0.029358352 0.18938129 0.38382474 0.5666926 0.8818397 0.107529216 0.10566164 0.84363717 0.8796667 0.8884304 0.5482924 0.7504357 0.23615043 0.41411853 0.6353316 0.44773236 0.83436316 0.77617186 0.6978468 0.04124507 0.41522786 0.55105996 0.990053 0.5315317 0.74127334 0.9828944 0.63377684 0.4150048 0.3201854 0.23463286 0.5549747 0.71379614 0.96524906 0.91140556 0.8151544 0.0668487 0.88684565 0.9761058 0.49836344 0.45603052 0.06879809 0.6459093 0.39158076 0.86950725 0.06079355 0.06366151 0.33558288 0.9066007 0.7854079 0.12948164 0.41857326 0.60679936 0.22516301 0.7764122 0.76961863 0.6071117 0.3761875 0.9274179 0.74917 0.014867904 0.8001794 0.12081017 0.8543769 0.70326066 0.29243568 0.19544859 0.37229237 0.7404422 0.036710944 0.5586349 0.71563286 0.70007634 0.02280108 0.36307138 0.6704812 0.7338181 0.9452767 0.6851606 0.18596022 0.11216304 0.85575724 0.9237446 0.8259009 0.8589719 0.015853107 0.38137007 0.10877833 0.9141014 0.7624153 0.26661605 0.037899334 0.6197554 0.1540819 0.10807886
l31 0.344114 0.8215308 0.25612697 0.7479585 0.20391421 0.53388774 0.46571338 0.6303083 0.35967228 0.1271672 0.83071667 0.10171835 0.020513214 0.33999255 0.3570668 0.7920611 0.38639724 0.39951816 0.27944794 0.6639098 0.2570647 0.89590406 0.6605886 0.039001264 0.8460528 0.7673573 0.33224562 0.65030265 0.011347402 0.3491825 0.76069593 0.65698737 0.6133905 0.8455336 0.7682668 0.34331542 0.17494293 0.24011952 0.14197801 0.30686098 0.7560333 0.7522975 0.71608865 0.23935615 0.22831017 0.70419335 0.39315152 0.4296432 0.27210584 0.085812874 0.38457182 0.42348737 0.91523355 0.5919882 0.7774173 0.5936879 0.7743552 0.5959664 0.25436512 0.9307895 0.7320512 0.53631705 0.30265656 0.34188497 0.28414926 0.7334338 -0.00130481 0.10029308 0.5713935 0.9212098 0.025559148 0.92904854 0.92502314 0.6758313 0.44954607 0.6848946 0.11282566 0.30694115 0.4417492 0.8214792 0.7798798 0.27125594 0.33358014 0.123604804 0.89021426 0.49836543 0.33066878 0.22056487 0.7075177 0.3708552 0.29757538 0.6497759 0.29083562 0.5867385 0.21808586 0.45415372 0.2318323 0.8644169 0.02185531 0.4442589 0.8716058 0.79751647 0.8375093 0.80697435 0.23962377 0.63110083 0.9584396 0.81407326 0.07575858 0.21124965 0.9431068 0.7563428 0.9325445 0.9755987 0.2320258 0.5493724 0.4734384 0.6410673 0.07810715 0.123199865 0.67465276 0.027207607 0.6035341 0.050551467 0.92817175 0.6908254 0.41671467 0.11515998
l32 0.28176716 0.52412623 0.25596163 0.6681249 0.67202723 0.72746474 0.8846431 0.93056685 0.46017754 0.70825416 0.26819748 0.64982414 0.49471867 0.40179837 0.4711006 0.82386786 0.865998 0.64698553 0.85594356 0.4094275 0.20370252 0.3654601 0.85796595 0.98664546 0.22075813 0.21317036 0.29107517 0.8282156 0.6330766 0.28130603 0.48450363 0.8840375 0.07346882 0.55609685 0.9193904 0.7131319 0.16384062 0.31680652 0.037111796 0.6612435 0.92247236 0.6602283 0.36227986 0.33137468 0.40261397 0.96537995 0.4923201 0.50236183 0.7272282 0.23424943 0.7634041 0.585859 0.67255527 0.44425693 0.59818786 0.6893404 0.7390772 0.32361197 0.9891336 0.49386632 0.18164298 0.34940585 0.8036594 0.8623761 0.53566265 0.35760552 0.17059615 0.46501833 0.08657931 0.46206594 0.6620347 0.9046297 0.06930909 0.9711277 0.48340702 0.07720797 0.10474078 0.17604408 0.51381755 0.6018375 0.44784066 0.5997998 0.27632025 0.83918005 0.4734796 0.95472986 0.23411143 0.59336704 0.76699144 0.69156754 0.58268595 0.7724159 0.06368804 0.6983222 0.77399343 0.69304353 0.7593682 0.13502027 0.51034373 0.47639608 0.66716063 0.5851527 0.8898357 0.4123785 0.7625001 0.20197448 -0.0010800842 0.086806014 0.016950155 0.5264834 0.3004102 0.005930698 0.47369432 0.90097165 0.75478345 0.3927788 0.48522466 0.74477583 0.50473106 0.64651394 0.6130944 0.05414789 0.02199427 0.9145629 0.4846428 0.9379864 0.6645998 0.887841
l33 0.57226443 0.5705809 0.1795481 0.33924803 0.710781 0.19968097 0.26213512 0.39497808 0.25395477 0.23859586 0.7943515 0.78250533 0.2428787 0.79887056 0.367724 0.7195379 0.35966828 0.48671862 0.8750674 0.15081981 0.69231516 0.28219104 0.24451225 0.9219169 0.63468134 0.86559266 0.14132814 0.8426284 0.37934488 0.76185983 0.9810004 0.6370655 0.038485233 0.1320958 0.89797986 0.83705366 0.10600946 0.7827199 0.41970032 0.9414775 0.020870464 0.68141425 0.7926096 0.09294243 0.7613714 0.036508963 0.21024576 0.033506 0.09930596 0.48432145 0.5851352 0.11768296 0.52811223 0.09792016 0.38598177 0.4396285 0.9256633 0.8685839 0.39755982 0.547489 1.0009856 0.65982014 0.62365603 0.8465906 0.50038576 0.46608162 1.0011191 0.48583427 0.6834415 0.3190629 0.5540785 0.47975105 0.009912938 0.6555253 0.40962505 0.49786556 0.5848096 0.7394974 0.5415166 0.83602947 0.76705176 0.04110295 0.4432853 0.7611597 0.67629015 0.92148244 0.60800123 0.6681148 0.6884928 0.6020865 0.960385 0.05402544 0.31138447 0.420902 0.10073617 0.64744085 0.8902897 0.39772028 0.3070461 0.0662531 0.38032028 0.8145816 0.9773138 0.97041196 0.16661255 0.9965447 0.5296882 0.029711802 0.39228338 0.82616067 0.33474 0.28566134 0.5343457 0.22804211 0.0002693034 0.9739115 0.71631813 0.8674296 0.01756191 0.033885498 0.99275607 0.58917195 0.7804063 0.23951907 0.7016687 0.24554002 0.4480966 0.70731515
l34 0.73485583 0.3448817 0.76893187 0.54855895 0.101904705 0.62063533 0.37200013 0.35190195 0.72758913 0.05610886 0.56339884 0.104495585 0.80619985 0.38056278 0.85838974 0.7601262 0.30494088 0.99500376 0.36734158 0.34206995 0.9775192 0.22910243 0.44493476 0.3752312 0.40113994 0.028036915 0.78214264 0.030278761 0.39163667 0.21630797 0.14979374 0.62637883 0.88274896 0.19174825 0.53382444 0.65369403 0.36987767 0.8250123 0.19625299 0.17243263 0.39931354 0.59849167 0.85648525 0.9068178 0.9125092 0.9529321 0.14692503 0.65710604 0.21963596 0.35563937 0.21499212 0.48862618 0.7147757 0.8519291 0.41851833 0.2516085 0.8443405 0.5529278 0.645544 0.49472517 0.59344673 0.06589643 0.2613883 0.8699361 0.71834034 0.2687247 0.6381592 0.02018325 0.62435645 0.4803678 0.117378324 0.46768376 0.10178531 0.7731294 0.2597652 0.5879695 0.44033265 0.09587699 0.8649452 0.12696937 0.57648647 0.35942677 0.009626056 0.79777735 0.03708436 0.77002263 0.25599825 0.26161596 0.69243634 0.7922861 0.2815673 0.49827373 0.9406994 0.39132208 0.9409002 0.51944417 0.36923715 0.47728404 0.056272127 0.20546937 0.43612003 0.3045355 0.9311033 0.45064917 0.28719822 0.62518305 0.3735042 0.45850834 0.11854339 0.9354892 0.4857191 0.30069065 0.96535695 0.2745188 0.5520649 0.2992222 0.30651337 0.3226714 0.46838698 0.23027475 0.5401419 0.35997573 0.9256008 0.5017295 0.41997012 0.8957822 0.62150854 0.48883763
l35 0.5673394 0.95864266 0.021761583 0.8121618 0.16231243 0.43379205 0.6372681 0.9006267 0.07602564 0.4701259 0.11084851 0.1180531 0.913695 0.20662513 0.5151826 0.48008808 0.10916903 0.42581418 0.20087215 0.49240154 0.93167275 0.7578632 0.6039965 0.40645108 0.9791877 0.6013958 0.8116347 0.9343379 0.06409743 0.98260564 0.13699035 0.036335893 0.19333148 0.12654838 0.077173546 0.04263832 0.92269194 0.25382933 0.4833948 0.8645479 0.90561396 0.6966164 0.8906312 0.06497517 0.9575283 0.4718167 0.0594855 0.57398784 0.020084808 0.14197798 0.8102628 0.7599292 0.76957804 0.09121286 0.67494434 0.43188226 0.35024154 0.89029396 0.068948664 0.57694435 0.48214576 0.6725781 0.72174335 0.9859156 0.26195517 0.16235617 0.7906345 0.32421488 0.9944631 0.5097441 0.54301316 0.32989123 0.68312603 0.550276 0.77176464 0.14407414 0.5045568 0.14011504 0.48918587 0.9046254 0.5114341 0.8025671 0.22721346 0.80075073 0.89301246 0.35670492 0.01391143 0.72066796 0.83527946 0.32380384 0.17601062 0.11076744 0.91111135 0.20373265 0.10842621 0.12693965 0.11658075 0.6031598 0.24823199 0.6023283 0.026684148 0.30498046 0.42324486 0.23406902 0.24106969 0.80916905 0.945979 0.87734306 0.2785987 0.64776266 0.5078874 0.21130762 0.6921877 0.030177547 0.95122766 0.59044844 0.7168722 0.86859965 0.098656364 0.7416922 0.7827878 0.8459302 0.58258337 0.32020646 0.2659609 0.29932556 0.65896255 0.90318674
l36 0.4322726 0.18711716 0.5218191 0.07987211 0.25588545 0.47579587 0.5332286 0.36536956 0.6151973 0.3645153 0.23388135 0.28553528 0.66856056 0.4336547 0.33535028 0.32660428 0.9426027 0.5192067 0.8364714 0.050107617 0.45625466 0.36264232 0.24546605 0.29023427 0.08075589 0.7902953 0.9814123 0.2893079 0.585585 0.4343663 0.33611313 0.14922674 0.13623059 0.56717545 0.027199227 0.93425304 0.76608163 0.28653505 0.5348403 0.3586875 0.6637124 0.71975476 0.059721943 0.2200636 0.15250751 0.16777156 0.60686356 0.5437561 0.77167726 0.042151716 0.10154068 0.3272738 0.64303297 0.7715191 0.066133745 0.51492053 0.28233698 0.727575 0.12600501 0.13845974 0.13908544 0.7148432 0.28058183 0.4015816 0.5013638 0.18094598 0.20948677 0.6540983 0.64632916 0.78344274 0.830232 0.34376982 0.3099175 0.23621558 0.83496153 0.44381723 0.51939964 0.5207165 0.7334243 0.022968238 0.8226298 0.7128676 0.3524462 0.099988826 0.39655015 0.75247896 0.255362 0.03360768 0.025620013 0.28872126 0.80934227 0.59471464 0.444126 0.71503806 0.4566973 0.19195886 0.48830652 0.077614084 0.8007276 0.3869907 0.22732179 0.17650853 0.9933639 0.9064146 0.32245135 0.61688507 0.1281193 0.32901677 0.910771 0.70839614 0.9068199 0.7438703 0.08037836 0.69306445 0.99246365 0.4744643 0.3104081 0.49055037 0.14167547 0.7809051 0.30465984 0.41081834 0.4188065 0.60921824 0.33180794 0.048757784 0.8195451 0.0016426776
l37 0.88994044 0.34012857 0.75768274 0.31727007 0.6399766 0.9015004 0.5634379 0.70798326 0.3023814 0.8027434 0.36694366 0.14356753 0.89323914 0.9468594 0.81242317 0.63043404 0.064096324 0.39657828 0.98750776 0.20987746 0.51835865 0.14689608 0.39899334 0.24367565 0.84960806 0.6353608 0.7607687 0.8757104 0.21324079 0.997962 0.61421776 0.0654825 0.9743885 0.38307515 0.57306 0.16127898 0.19018526 0.62697864 0.048479144 0.65210253 0.48107874 0.7182999 0.35760352 0.925572 0.92193514 0.24035324 0.61565375 0.26316065 0.21703635 0.9035251 0.5830674 0.09004818 0.73006946 0.7437728 0.75934166 0.1814971 0.81147665 0.16464461 0.33631387 0.52973795 0.7296975 0.3310079 0.8040187 0.40514633 0.15011266 0.2193897 0.0513389 0.09922406 0.5270885 0.44874457 0.62481385 0.110394865 0.7299444 0.12974563 0.2877427 0.10704983 0.35414603 0.8995728 0.779056 0.9015371 0.72612876 0.33389246 0.3632452 0.8917934 0.40219778 0.06469677 0.022246473 0.9594276 0.020169048 0.8152626 0.60101753 0.9673687 0.4608159 0.1532945 0.7715539 0.85162205 0.05900472 0.42092744 0.27569482 0.9909728 0.18452325 0.23132305 0.13931186 0.20362774 0.5905486 0.7843124 0.11068303 0.95692337 0.33919194 0.73232144 0.10637097 0.13169484 0.92934924 0.62973654 0.5826154 0.9423248 0.02798708 0.8814526 0.4386419 0.7759072 0.5910445 0.48663786 0.21494542 0.48897165 0.40968204 0.44979286 0.74732906 0.9168658
l38 0.09282407 0.033166464 0.9724758 0.4592573 0.8719104 0.9455316 1.0009614 0.40429798 0.47504002 0.17382671 0.9956049 0.9093269 0.82864267 0.7438099 0.492716 0.2323023 0.65213203 0.35967016 0.18798673 0.37086484 0.32480398 0.3916114 0.43639532 0.8156458 0.7654565 0.8210408 0.3348086 0.9492303 0.5095392 0.66116333 0.17265673 0.73841727 0.33199057 0.44720855 0.014743009 0.9623141 0.76818395 0.52854407 0.9125397 0.13921721 0.6211341 0.8104318 0.57710725 0.10769107 0.23246771 0.15321374 0.047742315 0.32174206 0.98364556 0.049986452 0.91609037 0.6663439 0.52076346 0.16758564 0.7527496 0.98029166 0.38148788 0.6171401 0.12925793 0.83740526 0.336266 0.72044945 0.26926485 0.5446855 0.58495796 0.91431224 0.35656136 0.99457186 0.14158659 0.82629055 0.19854553 0.9939455 0.9546528 0.68751633 0.31648138 0.7120757 0.934808 0.21243389 0.20103195 0.35260838 0.26658252 0.90524983 0.32915467 0.567123 0.79953986 0.39889738 0.9433482 0.034136586 0.36868954 0.905748 0.099263996 0.50703955 0.24892898 0.30910558 0.23013487 0.33486155 0.43528134 0.50335294 0.94338685 0.5942008 0.58860815 0.36407718 0.35951793 0.12656118 0.3258776 0.7522958 0.7045321 0.3468726 0.020602837 0.65829474 0.9225554 0.92423844 0.34338626 0.39349413 0.19653226 0.047863733 0.58517474 0.61463124 0.4031478 0.27573773 0.7377363 0.99361306 0.88193554 0.8557446 0.16776113 0.2894564 0.20947127 0.36430383
l39 0.7873848 0.8266873 0.37678558 0.2723099 0.34041652 0.9515369 0.19470459 0.37504697 0.19701257 0.4949221 0.5925491 0.4206257 0.93951494 0.80004525 0.6024193 0.46382928 0.6996932 0.5587289 0.8952961 0.9764664 0.11831582 0.35265338 0.70162016 0.1168923 0.44390276 0.6821116 0.6960547 0.4836021 0.80234766 0.8200147 0.51312804 0.7914984 0.5795056 0.80733013 0.57471395 0.36907378 0.44574633 0.51799726 0.620494 0.84825957 0.9272552 0.6098921 0.7185564 0.38510594 0.3844278 0.08858669 0.10380282 0.35260707 0.30143374 0.8360366 0.6998596 0.48404196 0.4319889 0.57480466 0.6042573 0.0112801995 0.029200708 0.89843875 0.13353463 0.8159733 0.2647962 0.22484106 0.6955749 0.7883297 0.14893433 0.10074188 0.15248743 0.1496278 0.49457806 0.54454416 0.5801616 0.62777555 0.03096604 0.9769716 0.12968619 0.8567759 0.68856645 0.94073313 0.3817961 0.41359046 0.84129447 0.9202103 0.96495914 0.69529533 0.8939784 0.11629406 0.119101636 0.19476913 0.22658226 0.029875359 0.47160804 0.54749984 0.84725094 0.82306194 0.29850134 0.35063377 0.84029627 0.097333364 0.9842425 0.48129874 0.17477703 0.5461355 0.92138803 0.8404583 0.8602537 0.61259836 0.7613302 0.30788916 0.044597317 0.3335878 0.762909 0.4096972 0.3441409 0.8510013 0.9375956 0.68748623 0.21515001 0.38662857 0.24273407 0.35906854 0.9900949 0.6075531 0.6738946 0.95701104 0.058250435 0.5951243 0.32200772 0.937948
l40 0.046900168 0.27933338 0.47362518 0.96475 0.23977758 0.646271 0.51235694 0.8726724 0.49352303 0.18262184 0.7068864 0.02775023 0.2298066 0.7699216 0.44599497 0.31363058 0.4398135 0.12292808 0.48913726 0.26860955 0.10294172 0.9088065 -0.0017052676 0.51153827 0.72104007 0.6808813 0.7242406 0.6713655 0.7860271 0.10719445 0.05028165 0.6716567 0.6190488 0.8969203 0.74284124 0.9997755 0.90094453 0.49238715 0.14238891 0.20602745 0.362572 0.77080756 0.477835 0.2252065 0.29800767 0.8713482 0.92195934 0.76105565 0.46829358 0.4284797 0.77204263 0.22747032 0.827267 0.9158577 0.51414984 0.39241025 0.91904557 0.48256174 0.32476178 0.466271 0.6439365 0.972159 0.03584559 0.359125 0.24432679 0.24799614 0.68846786 0.88373816 0.76014477 0.770885 0.22307362 0.005080156 0.55422693 0.63604647 0.50728506 0.1321685 0.6619547 0.6320522 0.7005827 0.79687834 0.94682366 0.86931753 0.75785357 0.8866574 0.3845263 0.4614295 0.72861916 0.77573967 0.51175004 0.44390422 0.5644579 0.7323692 0.7528744 0.42860717 0.3091278 0.08725267 0.779837 0.8913582 0.438418 0.8912767 0.22082928 0.7303512 0.9095808 0.34365824 0.70499235 0.58883464 0.91987425 0.8220474 0.70464754 0.06915988 0.71403575 0.5282844 0.7965717 0.60023624 0.4185105 0.62908 0.06771289 0.97376823 0.35908368 0.5773624 0.15825985 0.16377755 0.97547275 0.6875606 0.37171656 0.21375756 0.90085983 0.83493036
l41 0.0082324995 0.19889107 0.0503647 0.45989615 0.6472112 0.4942336 0.9240206 0.10607799 0.41302106 0.6117264 0.2647348 0.51419127 0.44926694 0.8542784 0.95261055 0.07302101 0.30571386 0.7414825 0.03835784 0.92255485 0.6606991 0.96348256 0.32264894 0.85869735 0.40873033 0.97723395 0.21779312 0.2040067 0.858034 0.05347728 0.7388093 0.6526197 0.4858309 0.7920251 0.3767975 0.8489853 0.42520887 0.31443396 0.48870292 0.9107243 0.66255903 0.44444895 0.29105815 0.70719904 0.8926624 0.43966103 0.6395833 0.58466876 0.18070588 0.85226643 0.8073631 0.5990549 0.4866829 0.004795853 0.7618785 0.45034817 0.02571488 0.6882001 0.33331278 0.5448992 0.831578 0.5354181 0.48698395 0.25843814 0.59924483 0.9014946 0.310014 0.68395215 0.31479654 0.75194466 0.73665893 0.0953821 0.79417 0.86439085 0.5608021 0.63125014 0.77104694 0.7312913 0.38113484 0.25300464 0.09540121 0.9650837 0.7970027 0.57877356 0.05122511 0.9230151 0.94844484 0.496892 0.7099392 0.095326275 0.39427438 0.20355453 0.7691235 0.3664754 0.508544 0.8371208 0.16956557 0.96708685 0.121105075 0.091771625 0.46617246 0.11411723 0.98838717 0.8706474 0.011903829 0.51359206 0.6959973 0.84339786 0.77008086 0.96617746 0.24279897 0.27388665 0.010651995 0.9191089 0.028944457 0.9394945 0.18091024 0.8144191 0.6192623 0.65998906 0.13475515 0.40038875 0.6784708 0.66753703 0.8544646 0.65989965 0.6370016 0.93356925
l42 0.17321804 0.5832648 0.46030715 0.6533749 0.80482274 0.69826525 0.9266865 0.6327626 0.47531763 0.80372626 0.668491 0.74494994 0.20562921 0.56436664 0.16468316 0.9259884 0.42477226 0.72647077 0.67150766 0.74480635 0.022427043 0.1715532 0.28517848 0.53511196 0.74024403 0.40886337 0.8479368 0.1696909 0.19845848 0.80861765 0.77007556 0.7780809 0.660141 0.7458302 0.07125479 0.8479505 0.32607093 0.14299054 0.19323891 0.3783767 0.99465597 0.32748294 0.62469685 0.9645523 0.35083574 0.4749084 0.80184954 0.70517623 0.3716844 0.7202733 0.09879417 0.49071312 0.8583985 0.5689646 0.8726009 0.50049376 0.33334997 0.11988461 0.81875855 0.45354417 0.8560718 0.20337225 0.6935008 0.27865413 0.7128155 0.6845093 0.9403743 0.58201706 0.94898444 0.49859506 0.635591 0.8215257 0.58827657 0.06830879 0.549719 0.72708696 0.9096129 0.6939428 0.9872 0.26073992 0.8236228 0.8467565 0.96486145 0.307093 0.022244675 0.8117621 0.98061943 0.17694838 0.59410584 0.19256976 0.69983214 0.46921965 0.9338048 0.9031603 0.63762796 0.08720823 0.253548 0.5068458 0.4270156 0.45967147 0.96464545 0.8730717 0.89868474 0.025854101 0.3072129 0.46148884 0.8982154 0.6417886 0.4722123 0.9897089 0.115486115 0.37285316 0.20955765 0.30658928 0.47031197 0.09250412 0.92819756 0.9950451 0.9433632 0.9497465 0.56864995 0.4291153 0.6466737 0.5768083 0.23496775 0.042465232 0.078491025 0.6478471
l43 0.1624775 0.98386365 0.6459016 0.8893017 0.6213437 0.77963054 0.03950638 0.05119013 0.444852 0.8503946 0.29659668 0.042013653 0.15958096 0.71621513 0.57999134 0.11873858 0.51296043 0.14778075 0.9589522 0.81506795 0.9098628 0.071529806 0.11161382 0.45338804 0.94039136 0.08142428 0.1679052 0.075504005 0.1442375 0.23177022 0.5643238 0.026067035 0.36490983 0.6242 0.54476255 0.6750616 1.0031018 0.98773354 0.6602387 0.45250243 0.48278517 0.17893842 0.97090834 0.6078457 0.50268877 0.25194794 0.6993896 0.99864006 0.8491566 0.27847657 0.61672187 0.21787713 0.5593388 0.61179537 0.692521 0.15978523 0.47754043 0.9690633 0.464823 0.11767042 0.0016289201 0.18699875 0.9188983 0.0662562 0.1958455 0.09122851 0.5295116 0.31336987 0.9125341 0.52449846 0.92537326 0.13827735 0.95131195 0.8390602 0.34807816 0.8852881 0.6844881 0.48835057 0.23396213 0.42204872 0.5278276 0.76007676 0.9906613 0.32653973 0.4736836 0.7766184 0.29642048 0.30477288 0.83523 0.90658134 0.62401736 0.5548484 0.85136503 0.9407259 0.0779272 0.18292916 0.24040376 0.81647307 0.39359352 0.096309684 0.90162146 0.2445549 0.052003045 0.09885714 0.96678334 0.30423042 0.099375956 0.7167039 0.44263914 0.23497076 0.16934845 0.30794588 0.9526463 0.010576904 0.8289908 0.15382625 0.34374934 0.6654625 0.6517628 0.600573 0.20986463 0.010834972 0.88187265 0.80024505 0.91206586 0.8748969 0.2880383 0.14897738
l44 0.27493316 0.7963637 0.15828249 0.6226188 0.3403678 0.8834709 0.97677565 0.56150395 0.06716089 0.8950893 0.8674814 0.9797121 0.48622635 0.73252106 0.6872953 0.75162894 0.3278874 0.27231714 0.9382617 0.9368722 0.86766315 0.49901453 0.30299532 0.62880933 0.87311804 0.46339452 0.30320448 0.42278478 0.48845237 0.8568929 0.093564965 0.86572725 0.78938 0.18343271 0.5113645 0.13953392 0.17155857 0.9352381 0.0020795362 0.78532934 0.09651238 0.31199202 0.52593786 0.80300206 0.6141391 0.55085593 0.20258757 0.4854672 0.74933225 0.62726676 0.8679488 0.06506728 0.8595414 0.9837788 0.39731723 0.929568 0.7279044 0.98199356 0.6421092 0.20822206 0.513136 0.96973324 0.5470354 0.6216635 0.95429164 0.70481014 0.341649 0.14932635 0.18072091 0.71698123 0.035819154 0.4217224 0.26178434 0.9017017 0.49432793 0.17855327 0.8166794 0.5661077 0.3659357 0.7412693 0.51741177 0.4325383 0.7767818 0.032442357 0.3474864 0.79955864 0.83072287 0.011536821 0.75654954 0.12042173 0.7560483 0.3400667 0.5560304 0.8821223 0.5407127 0.29191446 0.5927926 0.78370225 0.751167 0.22407496 0.6654701 0.71796954 0.37665796 0.1499424 0.64663166 0.91385573 0.18871696 0.85083383 0.9216507 0.03716553 0.4386315 0.4584749 0.71643925 0.59682596 0.2752857 0.0337699 0.045343325 0.11261139 0.5134221 0.916959 0.8746268 0.78875303 0.60559005 0.0013533046 0.6359922 0.56863266 0.4486918 0.84185106
l45 0.47007945 0.605582 0.47591466 0.20318738 0.8879084 0.9299004 0.0056700637 0.61693156 0.85806805 0.9578173 0.123740375 0.98637366 0.3830633 0.44545123 0.60370827 0.5823306 0.7700806 0.6579868 0.25784978 0.9792259 0.49089628 0.78826743 0.004684302 0.41306168 0.6803658 0.09423036 0.77049214 0.1260893 0.056252632 0.64791876 0.20985201 0.34803987 0.30201572 0.6040249 0.43642953 0.74492276 0.34853923 0.7170202 0.23348507 0.75783074 0.17617725 0.13095304 0.2597254 0.32424992 0.35305026 0.18808329 0.22619331 0.3983717 0.5084963 0.62599266 0.4303243 0.87445134 0.38452622 0.2862493 0.06408778 0.9434328 0.32000327 0.6537491 0.08371207 0.046706133 0.59544253 0.30483484 0.8888187 0.76382464 0.43131894 0.2825573 0.38789126 0.80858386 0.5219648 0.8051591 0.26070994 0.7733672 0.49640617 0.9071719 0.46284804 0.045093484 0.5681159 0.40921488 0.024569213 0.9475343 0.52299947 0.31808382 0.9704663 0.10013651 0.41833872 0.9350242 0.08808517 0.82316285 0.3638609 0.7900982 0.82463497 0.84912115 0.3087769 0.025605675 0.7732124 0.8212139 0.53060806 0.7240051 0.6055024 0.93270296 0.4404851 0.9459902 0.9234006 0.9444833 0.7686582 0.32031885 0.7542365 0.49780154 0.8293553 0.80913043 0.3041326 0.3164922 0.44135758 0.3959934 0.2695258 0.96369225 0.47880256 0.6926702 0.7251122 0.81740206 0.7811217 0.21182543 0.05404373 0.9928616 0.6273935 0.15338153 0.08856095 0.052839853
l46 0.22146925 0.57260567 0.51653236 0.7820156 0.22966763 0.46308175 0.055141956 0.7175083 0.3518567 0.8722554 0.73332995 0.7483362 0.9137306 0.9970904 0.69175494 0.9876222 0.26260963 0.47164628 0.40676075 0.6384836 0.90428793 0.4468228 0.7456884 0.4605093 0.10094875 0.47972888 0.7082699 0.06810667 0.7773806 0.5655253 0.6440853 0.06070807 0.5286944 0.60362726 0.45653328 0.30432478 0.15239048 0.17986235 0.8777819 0.76821786 0.33457452 0.96842605 0.18846188 0.4355169 0.5723221 0.59125423 0.0028072805 0.5397397 0.55559665 0.6820123 0.5614146 0.5285392 0.043893687 0.75093937 0.59322894 0.28927043 0.73947537 0.4628957 0.8131598 0.93102014 0.12827404 0.3714395 0.07354587 0.95285225 0.1186554 0.38872883 0.15232046 0.01872786 0.8340432 0.59019256 0.90753025 0.59199154 0.6949913 0.22614822 0.40252483 0.18835361 0.97216845 0.53575075 0.15960072 0.008713556 0.19204351 0.80424255 0.0066432105 0.5013267 0.5779013 0.15924895 0.044476274 0.19187246 0.9898661 0.7869087 0.19256346 0.45743617 0.95892656 0.71899426 0.17356063 0.21570723 0.37684005 0.64124376 0.25292316 0.055815093 0.71820056 0.44220632 0.5395559 0.938921 0.0698992 0.10463479 0.2639908 0.62384343 0.12265573 0.3098431 0.06475505 0.6636813 0.27673253 0.27264804 0.53874093 0.22116068 0.61461926 0.04026986 0.9754332 0.6892423 0.8175222 0.22269557 0.4378858 0.26660252 0.82018065 0.5348709 0.10604197 0.45632216
l47 0.9492241 0.71901876 0.8727665 0.3845439 0.49460644 0.6225729 0.045387764 0.18948284 0.08471627 0.25859782 0.19304305 0.23694667 0.65356123 0.91343594 0.86894876 0.08431742 0.32019803 0.08093602 0.9786513 0.40586486 0.4051887 0.24673057 0.29387385 0.7241614 0.21104741 0.10068848 0.83815384 0.786076 0.23543788 0.09477494 0.26603505 0.7599665 0.6615222 0.47819763 0.79999655 0.15769088 0.362339 0.27110457 0.13224089 0.28643504 0.96916074 0.6784493 0.72658986 0.39329684 0.4455244 0.48559433 0.23229042 0.73776233 0.23687297 0.9393829 0.68233657 0.8599871 0.8448714 0.0013559404 0.29617694 0.8115208 0.1820582 0.11268284 0.2663194 0.6073871 0.36672187 0.58323336 0.17634661 0.40800914 0.8063804 0.6092651 0.40259162 0.8925682 0.29470938 0.12247903 0.38645524 0.14115693 0.27107424 0.068576425 0.6643045 0.9904245 0.8890195 0.9687121 0.83244747 0.44934145 0.67400974 0.73705184 0.40534717 0.8429 0.93241376 0.065544106 0.60768586 0.48026505 0.39156875 0.9403269 0.58474284 0.34310305 0.0039082314 0.16653268 0.29129493 0.24251507 0.87948626 0.13507476 0.8067689 0.60965693 0.5400668 0.11512632 0.05071931 0.16207671 0.44423744 0.86318505 0.42426246 0.584882 0.29948676 0.91672575 0.101375796 0.2593142 0.9631185 0.5227501 0.852853 0.098537385 0.005306391 0.48059955 0.6241416 0.61001265 0.19575232 0.082730286 0.6563201 0.42098653 0.8022952 0.93067807 0.49132067 0.28514636
l48 0.7713131 0.98321646 0.5687591 0.6414368 0.23041266 0.45348975 0.70943886 0.813303 0.62594175 0.098852575 0.43208793 0.40904188 0.24018991 0.3249961 0.8839211 0.5943318 0.9194442 0.8955987 0.4865552 0.6897201 0.9035941 0.24668978 0.34186548 0.3435984 0.55980086 0.3089635 0.042676896 0.9236027 0.2607492 0.0612195 0.8490346 0.95578784 0.7976424 0.8562902 0.8182042 0.75207156 0.57586616 0.8948181 0.93133366 0.83163846 0.031102864 0.4924824 0.8577391 0.7021869 0.9368462 0.554675 0.4987938 0.4869441 0.15900913 0.96215945 0.66382 0.9927965 0.65979594 0.015253705 0.47456667 0.49285412 0.6400622 0.007587431 0.6449873 0.32078725 0.6850914 0.35615385 0.1116722 0.24059077 0.5014704 0.31362653 0.33803347 0.9249975 0.26840994 0.2804449 0.1615179 0.19255179 0.28502607 0.008945674 0.7658845 0.61703813 0.24506587 0.34994346 0.64259434 0.33080477 0.92199767 0.5083323 0.5724801 0.02940441 0.5915096 0.6986974 0.1544627 0.9008676 0.6132703 0.19433573 0.56137013 0.53986484 0.015748147 0.049936984 0.2740595 0.4887202 0.36075768 0.17558046 0.02520944 0.7374579 0.5217315 0.6187923 0.98213243 0.17111038 0.520003 0.9811788 0.52714396 0.081803426 0.11222783 0.6703325 0.7340194 0.49957287 0.76271063 0.41300166 0.23429887 0.3358981 0.17305975 0.54115516 0.778855 0.39698353 0.71267223 0.10888455 0.66184294 0.17742977 0.69207233 0.04858666 0.5936618 0.43071622
l49 0.75157803 0.8275821 0.71523565 0.15168376 0.5349476 0.65761334 0.8334661 0.35082155 0.21205764 0.8001835 0.51002043 0.22818418 0.4381743 0.19690877 0.5924429 0.5511657 0.6924144 0.023231857 0.38681242 0.60050964 0.50569177 0.8537051 0.67499477 0.828612 0.34901643 0.9583712 0.673558 0.010396972 0.46676445 0.29214787 0.51617324 0.31176245 0.11468556 0.43021873 0.8680082 0.116578534 0.7057997 0.7685942 0.31798285 0.26353642 0.8934406 0.28475907 0.04889075 0.031428605 0.08972562 0.5825577 0.8381394 0.95937085 0.60100424 0.77552915 0.06677918 0.92262024 0.7974543 0.98973984 0.20228833 0.1272835 0.14429986 0.53094995 0.28411284 0.39282364 0.5636413 0.86271924 0.25749707 0.19793515 0.54557353 0.9955887 0.66423124 0.016204543 0.6763062 0.19811879 0.14384146 0.2213909 0.4282138 0.7482862 0.4613758 0.27344194 0.5056455 0.186842 0.34030882 0.85949963 0.8401201 0.036714334 0.14560072 0.2943799 0.8508894 0.5051985 0.7370141 0.2413873 0.8103293 0.07232196 0.8383738 0.8261439 0.26521277 0.133126 0.9683171 0.12579761 0.24965478 0.05717038 0.73076665 0.667876 0.17988391 0.19916293 0.027002688 0.91311425 0.12691955 0.25217465 0.89732397 0.29892427 0.22824253 0.026358498 0.57368827 0.072609015 0.67688507 0.16787677 0.3924787 0.058324154 0.50974107 0.31865236 0.21961406 0.7776182 0.8496643 0.6470532 0.5660938 0.9642148 0.30841014 0.2372277 0.2492909 0.913617
l50 0.7363785 0.26926768 0.4937242 0.4868916 0.20452704 0.288235 0.5505004 0.1592885 0.38085717 0.23029727 0.76937276 0.7967266 0.13060305 0.3548744 0.8935147 0.66239136 0.9031962 0.349697 0.25991288 0.13561016 0.70461196 0.3120317 0.9417514 0.57852626 0.93228143 0.118497536 0.62596035 0.9495879 0.2150774 0.38452914 0.9340312 0.8876089 0.61975306 0.5058495 0.016382784 0.072772525 0.17301033 0.91517067 0.5816567 0.442551 0.6730934 0.6908697 0.049813367 0.110573 0.3568264 0.6342156 0.554369 0.6036331 0.894151 0.12203378 0.23671786 0.12869868 0.46241182 0.038473934 0.9122228 0.5602948 0.14809854 0.4524843 0.5859095 0.47785974 0.12323368 0.57563883 0.68751496 0.712839 0.6165437 0.9552137 0.86446387 0.5042151 0.004909097 0.7370085 0.42679983 0.08005766 0.9833563 0.049409285 0.43444476 0.5399681 0.08929356 0.39586455 0.5623337 0.634942 0.1954876 0.5336885 0.5239877 0.43269062 0.6376299 0.51429725 0.9499498 0.97684354 0.20224287 0.397295 0.47697723 0.9215814 0.2201805 0.5320723 0.7900483 0.98107904 0.4260559 0.43643034 0.41223168 0.017667092 0.24161185 0.76097566 0.43626696 0.8797553 0.64224786 0.6497377 0.8702293 0.17397313 0.5265462 0.44574627 0.052803174 0.6268065 0.11102544 0.28065282 0.16674149 0.90467817 0.9751217 0.25548998 0.9327004 0.14791426 0.9322192 0.27503487 0.7937527 0.9099896 0.7139883 0.83168256 0.62254626 0.10137204
l51 0.53051835 0.091736205 0.4677195 0.1795089 0.21951023 0.764448 0.93295825 0.9859503 0.22472163 0.68331105 0.00988057 0.14254539 0.618843 0.22842011 0.8179848 0.34442762 0.56303525 0.5397052 0.8331966 0.6200341 0.5364309 0.083729565 0.55323964 0.51293993 0.04824494 0.84156454 0.048474114 0.47362876 0.79898804 0.03790373 0.7890342 0.5528458 0.9928477 0.25375542 0.052881405 0.23577572 0.9577034 0.4029835 0.75517267 0.25724414 0.74972117 0.011880594 0.17478777 0.49188787 0.9336002 0.8782779 0.206921 0.02310835 0.6276101 0.3943654 0.563156 0.83511287 0.09595303 0.6050855 0.062496524 0.09542476 0.28199503 0.6640247 0.3190531 0.78802896 0.19552316 0.6130174 0.45158318 0.29888675 0.5321052 0.8718596 0.9748091 0.9834729 0.06289551 0.64006686 0.49444693 0.71871275 0.17822964 0.33297616 0.40003502 0.8240016 0.34830126 0.5196436 0.016490895 0.66835576 0.04322862 0.07930551 0.3097277 0.7730465 0.6301467 0.51084846 0.77782637 0.9809622 0.75252366 0.37110636 0.33070984 0.2684079 0.40549532 0.008149451 0.024801333 0.52708924 0.8478433 0.8012062 0.4524773 0.057380117 0.21823277 0.035196364 0.64426816 0.54414046 0.750574 0.6323525 0.44409728 0.8203735 0.5634612 0.9001639 0.33897594 0.90854156 0.8087937 0.5330659 0.35892534 0.35493466 0.8083628 0.3478954 0.57163554 0.112500854 0.68530065 0.29068288 0.28266874 0.72069895 0.73491836 0.6416177 0.5083743 0.6300094
l52 0.132114 0.9160631 0.46715254 0.75500906 0.62567663 0.5975877 0.20718151 0.7772991 0.17163412 0.11470523 0.49668872 0.33994904 0.84786326 0.91515356 0.2591654 0.23366225 0.68119055 0.58823866 0.35550478 0.8006727 0.09177859 0.82756793 0.19603051 0.07474325 0.062371083 0.77736676 0.32422692 0.30711573 0.4858031 0.21296382 0.018234067 0.5801869 0.41117504 0.7827596 0.74114937 0.49796343 0.911094 0.85806495 0.41929623 0.5260021 0.3015024 0.955662 0.28465807 0.65433687 0.21782556 0.98351765 0.63880587 0.09152289 0.5356349 0.33992988 0.24958554 0.27829856 0.8231818 0.17332909 0.4944253 0.34067163 0.82599556 0.69749844 0.6501955 0.26922342 0.24532332 0.09604241 0.45078483 0.64440155 0.7614662 0.11977592 0.28638175 0.501223 0.6705634 0.3367163 0.66993266 0.22249325 0.45182505 0.45422632 0.4514768 0.5490102 0.7816498 0.2226013 0.17331585 0.91997176 0.54127234 0.5675616 0.78827906 0.2743382 0.405024 0.41973045 0.060140904 0.3064836 0.46227825 0.49641806 0.9111781 0.6364961 0.7408323 0.97724885 0.09794044 0.101405226 0.13811329 0.6574253 0.07163121 0.14801231 0.18998212 0.024400016 0.60956657 0.35703653 0.22213678 0.5698975 0.36452782 0.20233072 0.027441278 0.732638 0.049112737 0.77692276 0.3464706 0.23601682 0.62235075 0.73194206 0.033798654 0.0029219622 0.41564465 0.28570363 0.6224466 0.6437005 0.124558434 0.29890758 0.12651294 0.015252727 0.8612778 0.07613603
l53 0.8029598 0.4716867 0.084494606 0.39263886 0.32435465 0.8925723 0.10592905 0.14838657 0.46198732 0.31221846 0.8257093 0.78601325 0.7659806 0.8983239 0.63165885 0.5502564 0.32895806 0.101806805 0.8737677 0.27668473 0.4893673 0.7867834 0.24853122 0.4602909 0.65057105 0.9938134 0.15089908 0.48734623 0.57156897 0.8779502 0.8182104 0.39284652 0.46322578 0.6902595 0.5380031 0.5382516 0.9122769 0.1539677 0.6617302 0.21873629 0.19673736 0.6687379 0.36114576 0.56698495 0.3619455 0.66771513 0.58611196 0.7047811 0.47120294 0.25442928 0.67110866 0.47093856 0.038382143 0.41029534 0.26521263 0.21290016 0.057615865 0.36382994 0.20277175 0.3194961 0.7636532 0.049052488 0.48209974 0.476187 0.35031372 0.059368033 0.6067396 0.5002169 0.5949102 0.22837089 0.2297473 0.64312357 0.2768677 0.75206196 0.16013855 0.037177328 0.23855309 0.99110913 0.6456685 0.3622946 0.51405174 0.4977304 0.25938177 0.059399266 0.87830013 0.049769457 0.66653043 0.40912268 0.19008945 0.78329176 0.85561454 0.501957 0.01707919 0.3247756 0.60099524 0.18945798 0.39146063 0.24748097 0.5206996 0.40688074 0.386368 0.3693257 0.6451403 0.511687 0.10600286 0.8562745 0.84032905 0.36202976 0.8504669 0.9580376 0.7800523 0.3199183 0.9065282 0.15105644 0.7830603 0.051824197 0.51207536 0.13361546 0.33307362 0.16727866 0.054769702 0.2788446 0.62853205 0.025316428 0.520072 0.697814 0.1382496 0.1138706
l54 0.42021123 0.027573237 0.6775762 0.42974794 0.0106065655 0.8985585 0.33186752 0.0033949197 0.7539768 0.6768607 0.41057965 0.92184955 0.7891412 0.5184397 0.5689769 0.5288497 0.8719391 0.059921496 0.6410797 0.7317196 0.86222607 0.06471471 0.7495938 0.1279105 0.32130894 0.8564129 0.9173612 0.2538354 0.7061779 0.22974725 0.77209646 0.9913609 0.9913882 0.90336025 0.31742135 0.21963912 0.7397347 0.96391016 0.99825346 0.074309714 0.850457 0.109368384 0.62134117 0.21398643 0.88246864 0.59233403 0.26003292 0.9182551 0.7693017 0.52764344 0.58779496 0.69785136 0.5206871 0.20569715 0.26971334 0.4708778 0.74874425 0.1862645 0.8688977 0.8771447 0.46043074 0.80706495 0.28200966 0.27589217 0.5550527 0.30042097 0.6153274 0.77539104 0.806179 0.03622204 0.19135486 0.55134237 0.079416275 0.09942214 0.27370155 0.29633498 0.02520665 0.59312207 0.27223542 0.6891261 0.18308862 0.69947654 0.345327 0.5449307 0.905294 0.62018627 0.7744726 0.43611366 0.88383526 0.70592046 0.8172464 1.0014578 0.6163405 0.16743973 0.93009573 0.022107271 0.24012448 0.34713224 0.8625233 0.23099785 0.3612174 0.43539533 0.21488994 0.5561894 0.7868657 0.1065123 0.5562823 0.104061075 0.20865805 0.13446818 0.80132335 0.35986546 0.650818 0.6356816 0.77409583 0.4046064 0.76650774 0.060953397 0.044009704 0.24436624 0.43532917 0.03691161 0.43095797 0.07930758 0.61249375 0.7345329 0.040313184 0.21496134
l55 0.94787544 0.895628 0.6498698 0.40637848 0.78354776 0.1285372 0.6671705 0.32696804 0.121434934 0.7089947 0.7425806 0.25784096 0.29742 0.21215294 0.775037 0.96951944 0.2907731 0.0065155975 0.47934926 0.1404896 0.7228321 0.65627354 0.019890528 0.9643957 0.91006494 0.5226412 0.22925122 0.8135221 0.9224116 0.18368545 0.9467391 0.6815676 0.39662144 0.263456 0.7657116 0.9866034 0.58096105 0.4731482 0.68345445 0.37847733 0.6070905 0.6343416 0.17112021 0.9582949 0.34327325 0.71354306 0.36329782 0.6478093 0.64945537 0.023298562 0.07766803 0.26470497 0.39847282 0.60279685 0.63134205 0.4417073 0.29318666 0.16055505 0.85030174 0.9484428 0.012046522 0.25636184 0.42780304 0.7445515 0.6373093 0.14223403 0.6746455 0.91767323 0.7884479 0.37972784 0.9418373 0.12645574 0.60692996 0.8533609 0.025419805 0.054110788 0.42858997 0.69734555 0.594051 0.15958142 0.56070614 0.64931494 0.012806724 0.8458587 0.5215854 0.7779877 0.71670514 0.05456696 0.41336295 0.08324159 0.9469289 0.23311503 0.51456124 0.7584205 0.5659086 0.3162759 0.3071783 0.12400144 0.90958726 0.75807613 0.4688852 0.5531787 0.6258892 0.5471509 0.88504297 0.071401924 0.118859865 0.5269582 0.55046797 0.3000519 0.28658554 0.6660581 0.85476536 0.27504635 0.7546251 0.15006296 0.7987451 0.6406949 0.9560577 0.71467435 0.5013624 0.80932224 0.23315059 0.6275945 0.8539994 0.7664313 0.16747224 0.02432706
l56 0.43698907 0.30925834 0.4382393 0.4758828 0.05346697 0.10036288 0.93629646 0.7874794 0.008895657 0.9392996 0.60073936 0.08770031 0.15688685 0.9606517 0.5855327 0.3078498 0.35217577 0.21324013 0.30539176 0.991905 0.6575754 0.30879572 0.53121483 0.24474503 0.22784117 0.11410052 0.34262574 0.14102717 0.57608205 0.6393145 0.71389604 0.9426339 0.34371135 0.9243845 0.0660436 0.58078575 0.7640365 0.34797308 0.13574079 0.53783834 0.951355 0.6944686 0.6986696 0.0857787 0.8464279 0.04967666 0.14632761 0.07431703 0.2615481 0.14531861 0.24986608 0.14591205 0.37204978 0.7739881 0.46515408 0.1385981 0.48987883 0.83546704 0.67948925 0.5099283 0.27392313 0.19526435 0.5328879 0.6380906 0.50350857 0.15991992 0.9901739 0.6086351 0.35224885 0.46091878 0.3432473 0.55209655 0.15818627 0.40025064 0.41601592 0.6343965 0.6800259 0.8722967 0.15276372 0.81033796 0.24997224 0.72049886 0.8198049 0.5563144 0.34032133 0.96697766 0.21446243 0.44504675 0.4106049 0.32923904 0.51969916 0.029263442 0.7943471 0.059587706 0.55356574 0.40337703 0.9229946 0.4146742 0.19332315 0.61131805 0.013904739 0.19877374 0.07540452 0.24492377 0.09468591 0.2535222 0.120394684 0.6985157 0.4091944 0.5665317 0.7297119 0.55329293 0.5905446 0.07806843 0.19432414 0.14537662 0.38480732 0.28438938 0.53587836 0.75048125 0.091384456 0.36743492 0.6458073 0.875657 0.6886141 0.6158394 0.4477395 0.83810896
l57 0.6887869 0.35258535 0.96861535 0.7936276 0.79854095 0.91606545 0.72049123 0.8702164 0.71952474 0.043051757 0.544608 0.34323382 0.6787992 0.5185637 0.82467884 0.6046194 0.7253815 0.9863193 0.8506658 0.90966547 0.96712226 0.09498302 0.60575426 0.49694633 0.4971614 0.5939974 0.70348936 0.70568556 0.9905392 0.14684384 0.5233868 0.54312783 0.029136455 0.46034384 0.9825822 0.47481456 0.2533547 0.8082171 0.95866424 0.16736846 0.12307437 0.13138354 0.8722753 0.6575477 0.69274646 0.37986535 0.08576697 0.12560706 0.77507174 0.69503886 0.0835956 0.5724598 0.047051366 0.95430726 0.3104527 0.39147875 0.96598583 0.6042539 0.29340494 0.72554916 0.028889405 0.010402859 0.49619907 0.038852155 0.4418543 0.31090143 0.74575007 0.16515185 0.9030283 0.78369343 0.9962624 0.034470674 0.8786701 0.31821528 0.08924274 0.98100394 0.32137322 0.7271284 0.8187648 0.320419 0.45239788 0.97133535 0.36485273 0.9597354 0.8507207 0.6586445 0.40512675 0.488714 0.2906241 0.486729 0.5098081 0.8008217 0.7523312 0.47984007 0.87732613 0.40640715 0.67039764 0.14162791 0.3433696 0.8152466 0.88565 0.86044633 0.73868674 0.4390157 0.33434272 0.95509034 0.2688926 0.09016574 0.78855115 0.804826 0.5696322 0.86778307 0.48679292 0.09465805 0.5807055 0.4174865 0.6636932 0.11524571 0.77533245 -0.0007356532 0.9847876 0.93569565 0.69022036 0.19248275 0.8466144 0.63603824 0.16307297 0.4051572
l58 0.16831236 0.43304798 0.34500733 0.0600205 0.70374733 0.4053665 0.010543499 0.061183985 0.45410818 0.20227541 0.018780436 0.66687095 0.7829148 0.6476954 0.94795144 0.9743844 0.9870429 0.9378592 0.9327949 0.76885504 0.9092608 0.7922168 0.59753686 0.48935467 0.536277 0.8490089 0.084512174 0.6656208 0.31810313 0.8848409 0.047063928 0.18417479 0.8234506 0.71961683 0.58285165 0.3688639 0.16006106 0.15898319 0.04272268 0.8326531 0.34861675 0.3847724 0.71854174 0.51048535 0.039389305 0.42375144 0.079070516 0.85223615 0.7054215 0.78713506 0.6287435 0.60542125 0.5642103 0.91340464 0.7421651 0.73465663 0.29519555 0.25495902 0.28444237 0.60510576 0.3548206 0.3545612 0.46160272 0.34475803 0.16170675 0.3863304 0.08038514 0.9248339 0.709994 0.044251878 0.9756813 0.606155 0.77455986 0.5377968 0.9830257 0.87881297 0.74393284 0.9617681 0.68287295 0.1147774 0.56999385 0.041255966 0.76211596 0.38120973 0.92560226 0.08826915 0.1461509 0.11208002 0.2472103 0.6801561 0.70672476 0.6648356 0.5304553 0.51428473 0.8687623 0.59271777 0.5990163 0.2380523 0.8874323 0.377509 0.3922856 0.058330785 0.59656364 0.8285528 0.3554445 0.26871184 0.3669794 0.5510332 0.5397951 0.9014873 0.94592535 0.08885349 0.30197448 0.9709321 0.24363102 0.5670528 0.4814974 0.7899812 0.23254119 0.9185986 0.7911156 0.34264436 0.85690516 0.06135707 0.29137763 0.72458416 0.14750774 0.24276951
l59 0.11492555 0.33868292 0.49064255 0.20278084 0.29545093 0.8051992 0.41774923 0.015166132 0.33632946 0.2222462 0.66428983 0.888177 0.9598033 0.30580637 0.23555331 0.72721696 0.35026556 0.20947316 0.28461197 0.76661956 0.6248896 0.856789 0.051325507 0.47649896 0.63162327 0.4170167 0.015600132 0.94153106 0.50443876 0.9480662 0.37332952 0.48387527 0.91822976 0.80394006 0.28879833 0.62672305 0.13276593 0.31747133 0.98827934 0.5814458 0.25877908 0.9824785 0.8527997 0.29090637 0.60430694 0.5563255 0.5363443 0.16477469 0.4429823 0.20155393 0.38626355 0.82546353 0.75876397 0.03348878 0.2778437 0.29124236 0.311683 0.62738484 0.88867885 0.44375125 0.1850017 0.45097214 0.21198522 0.24151562 0.9205477 0.31531012 0.029453712 0.84660184 0.0747253 0.60753834 0.53762424 0.13177143 0.21392892 0.92467535 0.3085875 0.8455389 0.33821183 0.25400698 0.52630776 0.49752313 0.07654364 0.331078 0.7187441 0.1775391 0.5414665 0.6928289 0.38374996 0.36340767 0.273414 0.11273952 0.4045713 0.4135859 0.21570599 0.47499865 0.807847 0.75967515 0.33130628 0.1635211 0.83562076 0.9198769 0.06409739 0.8438321 0.1982292 0.3145404 0.30491877 0.4506602 0.11158379 0.59320474 0.8200099 0.24336432 0.98930174 0.86259365 0.065730244 0.33683053 0.61295265 0.24499547 0.6944124 0.94119316 0.39486906 0.55221355 0.17975317 0.88866717 0.5602733 0.084911585 0.7309349 0.011331118 0.8030434 0.013741942
l60 0.54497397 0.74023056 0.9294727 0.78252393 0.35321668 0.77475667 0.8020632 0.37670007 0.3443748 0.69874847 0.54150754 0.3545996 0.51703787 0.908898 0.3171278 0.77256227 0.41684058 0.6878748 0.9317683 0.85120904 0.07665086 0.46189415 0.37701258 0.516222 0.37906328 0.9950671 0.6067929 0.16476397 0.8572876 0.291486 0.9482619 0.09733041 0.43148115 0.9986321 0.2915271 0.36114508 0.058570787 0.70362926 0.49121353 0.9673831 0.45387316 0.049787547 0.15275857 0.95790493 0.5110778 0.9657059 0.49011743 0.4128302 0.020349283 0.2813739 0.54380316 0.610727 0.3069459 0.56196386 0.87156373 0.5019117 0.5562554 0.063499674 0.39679566 0.69339335 0.18902446 0.8521614 0.4404361 0.64103913 0.8124398 0.019858403 0.21021564 0.5401514 0.7065483 0.76752007 0.8622712 0.5908485 0.12074871 0.7151423 0.1823169 0.23031579 0.81580985 0.15782738 0.46715954 0.92799485 0.3700445 0.14316243 0.8415197 0.5516203 0.6584063 0.7172694 0.43163267 0.7006789 0.4259565 0.3838886 0.7720409 0.17487407 0.5403779 0.7278965 0.7939522 0.6203633 0.6787812 0.6968128 0.40379077 0.84502137 0.38240877 0.46987298 0.6946474 0.33602348 0.19592105 0.20901947 0.25147057 0.5239201 0.45525455 0.037041713 0.020752221 0.019020563 0.8198254 0.28002888 0.15246917 0.6210987 0.5443012 0.5981599 0.793442 0.36562744 0.7965723 0.023749258 0.19736959 0.6811985 0.33455172 0.48283708 0.99368167 0.29706585
l61 0.19744326 0.22202526 0.587921 0.35407707 0.5930049 0.34031686 0.86969644 0.58353883 0.3231025 0.7955056 0.6702469 0.32802862 0.13232884 0.6139617 0.41695887 0.8735732 0.47723866 0.9381706 0.3839405 0.4419678 0.62509215 0.83623296 0.1634608 0.8696037 0.37235293 0.0687599 0.7415043 0.7819568 0.22761612 0.076940686 0.8670075 0.97897065 0.21750212 0.43225905 0.7559922 0.62993973 0.4526854 0.2537234 0.4815195 0.28813317 0.40512112 0.10240336 0.3735258 0.09501769 0.64231503 0.7152879 0.5410445 0.08247052 0.18071496 0.88380295 0.9862568 0.8626624 0.35550395 0.049901508 0.60275006 0.100750506 0.94393104 0.1754802 0.04023897 0.6740931 0.8095312 0.7386167 0.11080705 0.062107433 0.4731643 0.36997607 0.037513852 0.22643319 0.39555052 0.4492206 0.11982486 0.899026 0.045413285 0.32331142 0.20296979 0.14296465 0.5145807 0.6563427 0.7588679 0.5115918 0.7145288 0.75136733 0.4515297 0.18925355 0.7299031 0.85944605 0.14012158 0.84730786 0.8232944 0.08524083 0.70292157 0.3861842 0.96698666 0.9045341 0.07775318 0.6364042 0.88821787 0.4543664 0.88695866 0.45159185 0.90170765 0.21354412 0.49284425 0.8530532 0.604153 0.3696167 0.027274584 0.009826429 0.30914557 0.4621486 0.12427299 0.5036795 0.8479802 0.5368914 0.66384685 0.05946523 0.9899356 0.1520262 0.18876694 0.6670338 0.03152169 0.16071495 0.3330935 0.46505156 0.41811308 0.11889931 0.05057873 0.43202963
l62 0.4562453 0.562129 0.69416916 0.20857595 0.7070644 0.47465295 0.95933676 0.4479027 0.82291114 0.89474696 0.7976736 0.24873613 0.1295636 0.85191894 0.43472892 0.0888119 0.47467154 0.51228803 0.3467418 0.27903023 0.9013295 0.41517022 0.5707258 0.7477566 0.95187724 0.62723154 0.13057636 0.766022 0.52955204 0.7456153 0.82687867 0.40637168 0.45418665 0.22506218 0.35252658 0.110772476 0.19332252 0.5753968 0.04547887 0.24298424 0.9930693 0.11250463 0.808362 0.99409914 0.5573901 0.82599026 0.7761772 0.7243566 0.7379164 0.32768515 0.9132123 0.3651413 0.30074012 0.5632258 0.33979768 0.7738171 0.9713369 0.813271 0.39446405 0.3142714 0.1794335 0.7297809 0.6375799 0.7947774 0.07064682 0.88699275 0.92699903 0.8836523 0.7204963 0.9417696 0.19962607 0.974034 0.8416624 0.37918818 0.82968575 0.7198477 0.7744691 0.31590042 0.17896283 0.46998546 0.74661756 0.10425497 1.0045458 0.9465632 0.39800695 0.35677287 0.032538574 0.888111 0.7398511 0.33408308 0.57597965 0.25452718 0.6759696 1.0036559 0.6137991 0.7315207 0.093377136 0.40540478 0.12976435 0.06701017 0.15386768 0.9540435 0.026624663 0.48506346 0.5784916 0.16548647 0.23856713 0.50502753 0.17011328 0.8885301 0.38183254 0.77603465 0.43293214 0.41599962 0.75842524 0.7630498 0.8243159 0.630579 0.5164885 0.3790118 0.34893504 0.5375636 0.29431942 0.47926036 0.44684863 0.073653944 0.78735054 0.84124064
l63 0.7998985 0.33946297 0.1659043 0.15997446 0.7777034 0.12724853 0.6927217 0.39201334 0.73883885 0.021628113 0.9644634 0.35750762 0.11717038 0.2283732 0.86846614 0.40972087 0.81914365 0.40975243 0.5315214 0.8578332 0.466046 0.8135196 0.32143024 0.77523273 0.027614675 0.48695892 0.019957244 0.42869142 0.7423519 0.09223417 0.6074024 0.48393968 0.19863988 0.095292635 0.6464311 0.14485875 0.18010162 0.7621917 0.82502234 0.58983946 0.89705443 0.24030508 0.17599466 0.5407949 0.5780204 0.597849 0.50239205 0.04237658 0.39691362 0.70181984 0.4313176 0.5849505 0.5941848 0.6142523 0.77607816 0.9793006 0.61474055 0.26320553 0.94185734 0.3035602 0.335135 0.9743684 0.09134366 0.06262936 0.8536246 0.1419548 0.4256684 0.9324694 0.59552014 0.55347395 -8.598836e-06 0.7994079 0.37680104 0.9767401 0.6127185 0.86432093 0.4388969 0.44324785 0.48643643 0.12649553 0.581715 0.11696031 0.6062575 0.081621714 0.11484283 0.3608445 0.20928676 0.4832651 0.065258995 0.16728354 0.3027892 0.7913293 0.6935573 0.26917434 0.22792093 0.2892821 0.25183055 0.5832253 0.47638282 0.7917794 0.6022079 0.30446792 0.25349736 0.7845385 0.24975576 0.37417272 0.98883796 0.17114434 0.9111036 0.9840196 0.6501691 0.38979563 0.7974179 0.3921151 0.6604128 0.10916995 0.34087074 0.45218274 0.31945014 0.21820526 0.51770717 0.8795234 0.5047709 0.6320108 0.3854863 0.5026604 0.82692266 0.3221383
l64 0.9902782 0.51712775 0.93719554 0.37448582 0.24623607 0.09823769 0.8035833 0.17506255 0.97107714 0.5886201 0.30163813 0.6013658 0.54580164 0.44571838 0.782434 0.7539737 0.4106788 0.32415518 0.24453355 0.5296029 0.90650296 0.00832771 0.096592054 0.8925368 0.10627679 0.35163233 0.4445535 0.52981025 0.14930838 0.091959804 0.9540245 0.11326111 0.40208897 0.36181903 0.4860243 0.5597003 0.48564145 0.8722139 0.5526518 0.64577824 0.84817713 0.5545595 0.34808117 0.12195736 0.26888698 0.52178615 0.18217058 0.99353117 0.80545956 0.41667542 0.91366744 0.47660556 0.69742197 0.9724258 0.8889811 0.18818882 0.009823167 0.83242404 0.5646046 0.21487527 0.4472028 0.46188444 0.7546996 0.76178586 0.4019881 0.21700145 0.31087223 0.82873124 0.95573384 0.31836608 0.5124678 0.8556469 0.64981055 0.69880795 0.0038558282 0.4860398 0.6491243 0.20646448 0.79266375 0.6994803 0.08867195 0.9726542 0.67882895 0.02895758 0.7924299 0.30349305 0.099892005 0.48473257 0.15918125 0.43707144 0.92369133 0.82274127 0.9336854 0.14578211 0.4652378 0.93205845 0.97003186 0.5908231 0.18931621 0.9359493 0.1990277 0.59982276 0.7801464 0.37236473 0.34500155 0.5521173 0.73683923 0.9623628 0.15055622 0.14298847 0.7545112 0.63874716 0.58900815 0.72992045 0.77197903 0.008683443 0.7363982 0.3642638 0.5848729 0.46746236 0.21087776 0.84761274 0.49633086 0.3733145 0.6057234 0.94106305 0.032989565 0.82186735
l65 0.4638391 0.4073687 0.3658832 0.19135578 0.414476 0.038343914 0.98912805 0.19980295 0.682426 0.80923074 0.07277211 0.76531315 0.7126199 0.43858296 0.40805689 0.16820098 0.69396645 0.35806513 0.33922037 0.79062253 0.91812044 0.53522915 0.6916117 0.44671246 0.55084217 0.004129781 0.709029 0.27967277 0.8823999 0.9627602 0.49165425 0.70787144 0.10578901 0.8091555 0.4685245 0.9942123 0.6749894 0.10985876 0.55353683 0.542022 0.34691095 0.4384516 0.48315743 0.46619174 0.30089885 0.8799322 0.6403513 0.96071017 0.9126741 0.53764725 0.34661812 0.8995617 0.48525366 0.6855072 0.54799575 0.32346812 0.18130204 0.30549493 0.6337998 0.4656086 0.81111574 0.16156583 0.56505996 0.60156804 0.72960234 0.9938135 0.28737304 0.37744156 0.968847 0.64094776 0.65427583 0.9503557 0.07448769 0.8315371 0.9328266 0.6342032 0.9759847 0.78884506 0.24262005 0.73333013 0.9586278 0.8006619 0.738549 0.1581311 0.7582811 0.90835387 0.7172614 0.36800504 0.90319705 0.6187835 0.17738418 0.19982263 0.7296283 0.010294914 0.7596487 0.29597947 0.21582057 0.33501148 0.4786503 0.9064541 0.8961416 0.634821 0.14518791 0.7293198 0.31042182 0.26049837 0.26707554 0.32940018 0.6341694 0.78363574 0.15231219 0.34920576 0.9155635 0.6356838 0.018214418 0.22985497 0.5741618 0.18221426 0.78862697 0.41364515 0.5009589 0.90884095 0.7947831 0.012424032 0.06303724 0.12758845 0.1872309 0.11227165
l66 0.6059693 0.29955637 0.7320405 0.60557574 0.27353758 0.18358009 0.66263425 0.7506956 0.6703662 0.018306235 0.94949406 0.9098628 0.7776442 0.17560396 0.8908758 0.7566935 0.48160556 0.8069194 0.9851426 0.07606557 0.46229059 0.3649569 0.8417039 0.10609611 0.63834506 0.1799786 0.57316345 0.61516476 0.79801553 0.6992598 0.72048587 0.34854668 0.37874246 0.18534063 0.23432435 0.25637317 0.8733274 0.92964196 0.7406632 0.9391451 0.3083206 0.59933233 0.019739488 0.27470195 0.10909083 0.1922281 0.38862008 0.83310753 0.4449498 0.8129823 0.14706746 0.6073973 0.83351034 0.06447494 0.9920632 0.029338202 0.21013202 0.04556898 0.61057734 0.23625657 0.74843705 0.4939954 0.19741547 0.27687016 0.09996405 0.66300976 0.20439138 0.9066871 0.08515168 0.8634629 0.71693295 0.10647168 0.32703412 0.5740492 0.1777599 0.6094458 0.3354482 0.891933 0.29202756 0.8218402 0.84122187 0.12407349 0.8508935 0.23248304 0.925566 0.36429626 0.708712 0.075237446 0.65969497 0.97114116 0.12241124 0.9101043 0.15570475 0.12724055 0.9167413 0.39827263 0.27955648 0.36448273 0.91317654 0.6968721 0.290701 0.5258779 0.5106962 0.5379864 0.77918696 0.85871005 0.5931554 0.19390807 0.96585625 0.61055326 0.2186533 0.72455287 0.88489807 0.92536724 0.21312463 0.54230446 0.8952768 0.59740806 0.26048806 0.43714547 0.762452 0.4302864 0.052302532 0.9282959 0.77516925 0.26788655 0.82422143 0.53505427
l67 0.3210591 0.8907807 0.012856721 0.30421212 0.23651613 0.8311537 0.6307637 0.1912858 0.058076613 0.36449572 0.96429855 0.20704098 0.47575685 0.7879731 0.38656282 0.86628497 0.018834889 0.13556609 0.30709714 0.63932157 0.5803339 0.2419402 0.86825657 0.7460614 0.26300853 0.64129674 0.91806567 0.49038342 0.075285204 0.7094986 0.24973466 0.23746596 0.90332144 0.83834654 0.73331404 0.38303852 0.09083375 0.95313585 0.15503342 0.15361701 0.044808224 0.9405782 0.42398545 0.8756659 0.14012708 0.39242366 0.96974766 0.08026618 0.1062491 0.91398424 0.32405317 0.54804224 0.048159987 0.06721284 0.17702782 0.24333934 0.06113326 0.10301923 0.5292175 0.86664134 0.33094227 0.8837581 0.7209166 0.71086574 0.61287165 0.08578185 0.579675 0.62784404 0.45953816 0.16222301 0.327957 0.03770281 0.03700945 0.083299674 0.23721956 0.9917058 0.36266217 0.97067493 0.9775508 0.45318058 0.19630644 0.21731627 0.72860795 0.022068882 0.85943377 0.71008754 0.1071218 0.72312534 0.6879802 0.9470026 0.3646673 0.19137333 0.22938669 0.2741648 0.97322315 0.6942516 0.6008404 0.22550023 0.49056125 0.91430265 0.46837956 0.52927893 0.8529249 0.44344604 0.0090814 0.4088049 0.46860623 0.49364883 0.4549034 0.8109695 0.5549374 0.12466219 0.33186376 0.20607042 0.836415 0.005409081 0.65710604 0.78982675 0.8086571 0.3652502 0.65340203 0.79592943 0.5394811 0.7056128 0.25043857 0.5571139 0.8582182 0.36078727
l68 0.40716118 0.30695945 0.48763156 0.028893473 0.30876645 0.5982909 0.9725792 0.43798295 0.34954545 0.45712522 0.36828774 0.73889446 0.5233801 0.36260602 0.5595609 0.38465732 0.4353763 0.08190176 0.6712531 0.031207925 0.09270646 0.8529884 0.77322286 0.5011614 0.10145914 0.18729582 0.62535125 0.11715081 0.9033846 0.0145424185 0.99761486 0.11420779 0.44830266 0.78923625 0.5233388 0.27330494 0.04395189 1.002724 0.029460343 0.24150947 0.58617586 0.09531034 0.63421845 0.46125278 0.9705049 0.7353373 0.3009035 0.6584411 0.053146433 0.7899238 0.8937844 0.7836194 0.9021013 0.34559003 0.9000408 0.23688023 0.6675151 0.32239196 0.70999783 0.54821163 0.081796095 0.116414465 0.48971307 0.061203673 0.27741754 0.7544722 0.22191864 0.6138035 0.9302675 0.7172999 0.7004148 0.6598827 0.84988624 0.60672694 0.43814433 1.0038007 0.21675506 0.24141629 0.011142871 0.5457113 0.03485981 0.967808 0.035309993 0.52059895 0.0058461037 0.30393368 0.5206037 0.13930444 0.41403097 0.8684904 0.95438343 0.3244469 0.7010489 0.40040874 0.93089324 0.36848962 0.48772743 0.9731746 0.7309556 0.020445239 0.7995217 0.42938843 0.76508427 0.36289236 0.21466045 0.20485692 0.33276328 0.98228943 0.7043389 0.52054214 0.36648315 0.7374664 0.597081 0.09500478 0.3421535 0.15231204 0.6352586 0.81282425 0.4920943 0.6605597 0.8636455 0.6225146 0.67456377 0.58545715 0.62797683 0.5339977 0.17866774 0.06147758
l69 0.63470876 0.5983748 0.5680612 0.8150662 0.5290309 0.35524195 0.8033279 0.7868494 0.9377196 0.35296217 0.38176343 0.47873122 0.6347885 0.30545264 0.14359012 0.25678903 0.5059728 0.6646859 0.959799 0.9247979 0.22605239 0.37198576 0.40258783 0.3032049 0.69312036 0.050486635 0.43148208 0.5227784 0.22722544 0.14000101 0.6008808 0.6258044 0.2790389 0.23981416 0.8060381 0.96885663 0.39547953 0.6689324 0.10527872 0.61346287 0.15932754 0.3614196 0.60671484 0.12915513 0.4169089 0.29621044 0.49331984 0.66381365 0.8462205 0.11553378 0.8927787 0.8482894 0.5021969 0.6076547 0.033137985 0.84010106 0.43008882 0.13862835 0.8587028 0.92966676 0.35164645 0.062300097 0.87964624 0.74920464 0.54437727 0.9558814 0.68775606 0.46339962 0.09249287 0.7038761 0.014174993 0.48719117 0.3420456 0.5050342 0.4796181 0.48597282 0.94774884 0.41544753 0.06933676 0.25386134 0.8128214 0.8152432 0.7708957 0.24050356 0.5525798 0.93800044 0.55879647 0.7559523 0.9185779 0.5468536 0.12156919 0.18596143 0.57806975 0.24033375 0.16306868 0.18546309 0.48439363 0.40945598 0.33826962 0.553686 0.44431564 0.62222373 0.27401492 0.4355063 0.7860047 0.6606747 0.5192719 0.098614156 0.5133776 0.9819706 0.34362632 0.48611674 0.9326365 0.9272136 0.48788387 0.126882 0.99206203 0.610826 0.83917034 0.7632539 0.6735107 0.13828191 0.6620425 0.49646485 0.5591316 0.80388975 0.5069969 0.30259034
l70 0.51708215 0.15622722 0.63426393 0.9229586 0.899965 0.5015421 0.52645123 0.2864474 0.9262685 0.16661713 0.58603734 0.601703 0.81418127 0.46002614 0.60487115 0.6442882 0.6498066 0.6934455 0.51846683 0.12887628 0.45138562 0.7754609 0.7083103 0.4816278 0.020312266 0.9853549 0.6640724 0.8633789 0.17162281 0.8073598 0.60852075 0.9186168 0.029442199 0.54555845 0.11788622 0.6061378 0.21280703 0.13673054 0.5651399 0.285351 0.32021198 0.25683638 0.7970795 0.055789266 0.06060183 0.6755669 0.10511203 0.63174486 0.20389391 0.38658306 0.20556258 0.31646308 0.7051076 0.038985927 0.86669 0.7226143 0.31715462 0.6213991 0.94805807 0.552541 0.6585489 0.63180536 0.63523716 0.26919985 0.67742085 0.43670726 0.42107138 0.79102284 0.2425408 0.7767473 0.889289 0.024056843 0.45320395 0.787509 0.75797486 0.07548915 0.79419804 0.4747853 0.47919765 0.014974471 0.64783305 0.03325016 0.7393494 0.5707379 0.9803666 0.98629344 0.73301 0.68248236 0.7764259 0.20344064 0.8124412 0.34103543 0.44082445 0.96838564 0.09869472 0.27618673 0.69853884 0.6294124 0.14967461 0.084539935 0.89057964 0.61526155 0.24879026 0.023554849 0.9263098 0.88828415 0.04656979 0.44655517 0.85825914 0.060504545 0.9301606 0.008354649 0.25697613 0.7572969 0.77427995 0.39256626 0.050931945 0.7169745 0.6524498 0.5797416 0.9412269 0.4120835 0.44651052 0.07149213 0.25247544 0.12420584 0.3561837 0.5688018
l71 0.58029616 0.31657484 0.30650982 0.88971406 0.8213188 0.34203368 0.029634248 0.36129805 0.89989513 0.0035967734 0.7979249 0.83271194 0.83871347 0.922595 0.3618253 0.32107112 0.56786907 0.45755106 0.19859569 0.118846625 0.76166236 0.79219055 0.17583102 0.11095659 0.0090690525 0.19111317 0.2832011 0.8538038 0.7554161 0.06285956 0.61010975 0.49700886 0.6242365 0.6644024 0.82802016 0.7677839 0.6739181 0.15413709 0.6236608 0.7960761 0.29263625 0.8319701 0.816216 0.72624266 0.2245959 0.13365225 0.28185648 0.10484661 0.8864821 0.5076328 0.6914902 0.1166587 0.71730775 0.4802932 0.27030632 0.35376656 0.49035782 0.60240453 0.2861939 0.7953674 0.74441105 0.5196548 0.28113684 0.9247122 0.33364823 0.08970336 0.7022803 0.3354236 0.15914367 0.37825522 0.9887642 0.22878346 0.27806473 0.6555005 0.6138492 0.8695088 0.9421464 0.10215586 0.21296816 0.6099843 0.7103453 0.37367436 0.5571746 0.7199058 0.1392057 0.4156273 0.69035757 0.6738133 0.3158641 0.6924713 0.7073813 0.34218958 0.13837773 0.28321055 0.6516184 0.20259035 0.7492133 0.6776194 0.50354797 0.12504777 0.42270982 0.9157868 0.043920178 0.22046167 0.16967715 0.6596133 0.3204039 0.26579106 0.06028496 0.5254832 0.16280535 0.84207135 0.8132655 0.6981369 0.3170086 0.992901 0.40669093 0.57213926 0.8736801 0.25427398 0.28603026 0.11898855 0.17075148 0.017422708 0.8400344 0.36978537 0.6408916 0.42563015
l72 0.16765991 0.7673448 0.7220061 0.6965464 0.32819635 0.61837345 0.706385 0.7734704 0.45717934 0.30317283 0.4747329 0.9381525 0.15612805 0.04276462 0.7712863 0.64446366 0.35657427 0.41967675 0.061197337 0.28967583 0.54450655 0.69568425 0.2701582 0.7259568 0.16162103 0.9581674 0.3933191 0.6604088 0.38766715 0.29104295 0.69558966 0.05345306 0.52689636 0.9348766 0.46446642 0.8152943 0.115919806 0.7090696 0.19347642 0.4067365 0.20553485 0.72547907 0.2606292 0.31992626 0.64575887 0.25892082 0.7797984 0.89215094 0.6619824 0.34736207 0.266314 0.75762784 0.81999266 0.53611904 0.37341344 0.25042465 0.5011513 0.20342298 0.24757326 0.25277022 0.5171578 0.93305665 0.8507391 0.667323 0.7124793 0.995332 0.08293302 0.9746605 0.9322659 0.048207056 0.703085 0.21283211 0.66903174 0.9530574 0.468996 0.9494862 0.2102369 0.98385555 0.1923961 0.28162864 0.5904392 0.026886279 0.45873332 0.5699558 0.8170443 0.04916195 0.29338196 0.10437854 0.8886381 0.93419915 0.2678096 0.41782632 0.9163917 0.59756875 0.39102474 0.58607095 0.640437 0.62098837 0.72320265 0.9913702 0.023199817 0.3590946 0.97258687 0.09287934 0.2887834 0.49603766 0.44456515 0.4131868 0.9869734 0.31689352 0.7996968 0.41865245 0.5522973 0.19858788 0.20704979 0.051221333 0.29319426 0.11862375 0.81088907 0.3044389 0.8903569 0.5077599 0.027348991 0.65832084 0.8600604 0.1539191 0.46183294 0.57010216
