1730	128
l0 0.598111 0.08242782 0.45791212 0.3968253 0.8921677 0.39911655 0.46035135 0.22399914 0.65960807 0.4518601 0.18596186 0.33508718 0.92643464 0.9113229 1.0759475 0.0028936933 0.5791047 0.50943124 0.19063242 0.2927818 0.32489708 -0.04719395 0.491862 0.4885365 0.7822677 0.6851097 0.6910153 0.1807798 0.48643926 0.46402824 0.12900515 0.48050287 0.5383075 0.3257944 0.7609487 0.6208342 0.96059895 0.33982944 0.8859894 0.37390622 0.13161221 0.9114407 0.26869842 0.84052837 0.21470828 0.40403152 0.41474852 0.077535525 0.22122602 0.74016315 0.8835378 0.77941257 0.28300226 0.5110634 0.8807257 0.32151505 0.7283794 0.31334144 0.7327712 0.89038837 0.8721107 0.56042266 0.29747754 0.48349082 0.8688074 0.5317331 1.0070438 0.8831355 0.28277105 0.40536156 0.49782515 0.45853606 0.78508514 0.20990218 0.23516425 0.28563398 0.8443457 0.61257386 0.030445782 0.6277752 0.9271315 0.15670583 0.2710536 0.86603373 0.46611607 0.4720358 0.43230808 0.771146 0.78428906 -0.012455324 0.7295857 0.40900546 0.7802292 0.006611923 0.685079 1.080562 0.65319645 0.2911592 0.2922548 0.90957224 0.6740317 0.7029058 0.24233888 0.22895849 0.30495444 0.09972041 0.4882836 0.73216486 0.9234196 0.29346412 0.24795729 0.68557936 0.11690736 0.46925494 0.13722193 0.7648976 0.085072294 0.25521263 0.6476024 0.76659817 0.068343654 0.33851004 0.16819084 0.56895155 0.22191617 0.673366 0.07915039 0.12666719
l1 0.36242035 0.8078318 0.42522496 0.2612229 0.71919686 0.5984964 0.47964233 0.43089148 0.41645056 0.41191018 0.5754407 0.2561499 0.11653432 0.26380995 0.5433721 0.6061355 0.69488996 0.53459233 0.3267307 0.9380264 0.13703994 0.65266687 0.79090226 0.6608883 0.8243051 1.0042018 0.43208575 0.09850648 0.9663283 0.9384761 1.0025388 0.50839955 0.9635043 0.47382253 0.3034709 0.80568993 0.6271754 0.5894511 0.92840123 0.08842747 0.243184 0.19177371 0.5475808 0.6062692 0.8191546 0.7738778 0.7756171 0.5628963 0.4122063 0.61431056 0.51042897 0.1516878 0.7419032 0.058956504 0.43896922 0.88134384 0.31673184 0.35104623 0.51964927 0.24703884 0.08073897 0.9114107 0.7248709 0.8385455 0.5845495 0.943848 0.696915 0.5572431 0.8403686 -0.009377564 0.92382175 0.47854176 0.63878304 0.51697546 -0.11329512 0.62717897 0.7152032 0.85957956 0.44347325 0.04925094 0.78538966 0.097320646 0.3965088 0.28961736 0.8385376 0.4246398 0.60752845 0.12690938 0.7440475 0.6486142 0.24901637 0.6149247 0.7085852 0.7416028 0.9641308 0.19000752 0.2511069 0.25444615 0.32011586 0.7939217 0.46724874 0.78444636 0.15670007 0.40590248 0.8620022 0.5421622 0.111711405 0.13628128 0.86269623 0.40936926 0.7547298 0.13165422 0.36689064 0.4594967 0.61507595 0.5396055 0.44799885 0.45999956 -0.021382524 0.1971272 0.7110474 0.62580717 0.7791722 0.5577588 0.3631298 0.27830306 0.8744047 0.7808524
l2 0.6136962 0.23088178 0.37017095 0.2573338 0.3909881 0.630741 0.16130847 0.46404967 0.5175565 0.45308015 0.9520453 0.23625916 0.32687524 0.7207532 0.8919374 0.69429654 0.19661218 0.71627957 0.084427975 0.5564329 0.11266594 0.7341764 0.7886993 0.6392145 0.55551106 0.95446813 0.17828064 0.2987229 0.9588429 0.62932026 0.37146986 0.9076817 0.30246857 0.62643373 0.2126501 0.68611556 0.48729682 0.17609866 0.838683 0.4434105 0.23151726 0.18387155 0.43451583 0.7752533 0.33088082 0.43925634 0.48622653 0.61497533 0.72804517 0.75655425 0.8519356 0.9425006 0.9462714 0.6450999 0.2167004 0.42197865 0.2958528 0.11506709 0.60421574 0.6474983 0.5529368 0.21947128 0.6147538 0.067727126 0.28913864 0.4945542 0.18012019 0.27213332 0.90706575 0.3066787 0.19553451 0.41743144 0.33549455 0.798457 0.80861974 0.070471965 0.93932354 0.8647527 0.07993797 0.76323557 0.4542493 0.046137042 0.009434606 0.49341285 1.0317168 0.5378642 0.9494186 0.2133265 0.07459242 0.19449426 0.3625891 0.76979125 0.9078197 0.22685535 0.12874718 0.9333428 0.0360195 0.5692293 0.5832147 0.27045333 0.52269393 0.8056999 0.21085836 0.9243379 0.33517098 0.719849 0.7707691 0.98862725 0.44564712 0.31233492 0.6735024 0.18599078 0.4508648 0.24147913 0.6914982 -0.035701223 0.44011045 0.7070295 0.33342403 0.8858557 0.109483704 0.5062279 0.2793903 0.39354527 1.0225579 -0.003516581 0.54305965 0.8279599
l3 0.52586186 0.87667596 0.25094217 0.818044 0.82105786 0.0027551893 0.8441742 0.66226816 0.45121855 0.8318586 0.74237984 0.5287433 0.87846714 0.7038549 0.13913134 0.8795566 0.601981 1.0036244 0.7819715 0.84582126 0.17556418 0.8274053 0.46327877 0.272878 0.26982197 0.98058444 0.65061766 0.33028737 0.15547429 0.3710907 -0.017614314 0.8568212 0.20951025 0.19426517 0.9112534 0.20658892 0.789546 1.0133616 0.69102037 0.9341972 0.23413359 0.20206942 0.2204576 0.46673986 0.6649275 0.04220232 0.3379173 0.034524247 0.8668326 0.8989073 0.23751637 0.14269048 1.0512053 0.9270895 0.9542936 0.50541216 0.47201422 0.69392776 0.9061103 0.30441487 0.07492404 -0.006952123 1.0013015 0.7341506 0.8373272 0.92816174 0.50680375 0.48171085 0.80850434 0.16340564 0.79298604 0.6353648 0.18765728 0.77473575 0.014714582 0.5546393 0.2951543 0.27811176 0.26916254 0.2552471 0.109953165 0.68467814 0.10086894 0.89917666 0.13161807 0.6694275 0.17006885 0.4159311 0.2892833 0.48867947 0.61309737 0.58455753 0.19643761 0.58330154 0.4536071 0.5360067 0.37980673 0.4665174 -0.019738909 0.45769078 0.55282736 0.21084845 0.0867875 0.44471166 0.17659278 0.8661208 0.6137931 0.4508827 0.6781265 0.34371597 0.3377562 0.6657944 0.3495595 0.6349901 0.6034881 0.91281 0.24306077 0.11025706 0.6502893 0.21503133 0.046275675 0.56328887 0.0779789 0.42084092 0.7764218 0.69090974 0.36562943 0.32198307
l4 0.56109005 0.42918614 0.9273952 0.4607548 0.57993025 0.46390975 0.53551567 0.21008457 0.33600792 1.0062263 0.98708296 0.74050653 0.69273084 0.8974392 0.4589587 0.59371585 0.6950845 0.20631155 0.5527034 0.058987193 0.100677334 0.31733692 0.42609966 0.40699345 0.802158 0.70784384 0.410147 0.1594596 0.33794156 0.15347114 0.69432783 0.78994536 0.5827995 0.38959834 0.4550482 0.75619745 0.70456094 0.9931632 0.7761196 0.6682529 0.10712531 0.6122086 0.87595516 0.5953057 0.54396504 0.48510608 0.8333573 0.0058191065 0.35709026 0.047963418 0.07262515 0.3808594 0.9707717 0.5477642 0.79557174 0.6205029 0.083663575 0.57825994 0.6428476 0.36067152 0.7991225 0.48255417 0.40672728 0.53932106 0.7210377 -0.035449084 0.90633357 0.25939047 0.41869417 0.21462551 0.8554776 0.7400521 0.21826528 0.7531834 -0.037447527 0.22429952 0.558887 0.086003385 0.09683054 0.3828634 0.4382807 0.9634541 0.62250066 0.22952157 0.46732405 1.0339738 0.93645793 0.8067735 0.41911075 0.65298617 0.81825835 0.1458383 0.40091264 0.67778486 0.54182297 0.93970144 0.78481185 0.22391929 -0.028589232 0.5062519 0.14769582 0.17161337 0.39930934 0.75232214 0.84456134 0.55069727 0.6662948 0.65058875 0.19176924 0.70727116 0.54281133 0.3623882 0.21007244 0.9515292 0.9269141 0.5783942 0.5532323 0.28821918 0.6303374 0.9238369 0.15742354 0.18825066 0.674166 0.2891356 0.07085271 0.61201686 0.5525134 0.85311186
l5 0.55891114 0.3050851 0.14473557 0.086301476 0.75949514 0.17220329 0.94928885 0.7620157 0.5039303 0.24594852 0.8257286 0.46161082 0.42697394 0.8263292 0.35529965 0.5945009 0.16361995 0.21286085 0.7924564 0.35660926 0.6338946 0.73803097 0.40353662 0.97790074 0.04379527 0.17712592 0.6344768 0.2482906 0.16509928 0.52785677 0.52899814 0.5213677 0.9493824 0.86467177 0.4509999 1.0532845 0.65529823 0.70653075 0.10864395 0.50118726 0.72529334 0.46030542 0.8076302 0.8451646 0.24583133 0.7860118 0.73451376 0.8007589 0.29548156 0.37372568 0.4555949 0.342215 0.69615215 0.943303 0.23992683 0.6098015 -0.055407908 0.6529039 0.62068546 0.8116836 0.9537528 0.70218253 0.66251874 0.07424264 0.88765925 0.85802525 0.5906153 0.6370491 0.122468054 0.7190757 0.2817197 0.25076827 0.37477028 0.3252631 0.23150603 0.7305094 0.7341699 0.8778121 0.81263304 0.43113706 0.79847825 0.79229814 0.8058234 0.13779695 0.16617905 0.060770698 0.6365675 0.1627655 0.48779732 -0.03579124 0.37834555 0.81155795 0.5549008 0.21307167 0.8252324 0.3420823 0.24090017 0.90862125 0.53514344 0.31723607 0.33055997 0.8950373 0.19500057 0.301081 0.5320368 0.9870808 0.11430939 0.4161613 0.3153912 0.818885 0.21924774 0.8580364 0.07089134 0.8320706 0.5960531 0.831824 0.9922271 0.15139122 0.22809835 0.4063788 0.6797732 0.67830926 0.8666087 0.23170191 0.43442765 0.45240268 0.3007637 0.4315051
l6 0.19200583 0.37020585 0.9099893 0.175592 0.5700031 0.29830927 0.38155484 0.97485805 0.65977204 0.97306865 0.2422417 0.1345852 0.13834393 0.2854605 0.4857285 0.15114278 0.6414843 0.90547144 0.14936689 0.5189038 0.38148308 0.16006304 0.8306796 0.31862164 0.9140212 0.8362866 0.9282584 0.57047385 0.9259633 -0.017069371 0.59702826 0.4590255 -0.002220509 0.19521993 0.045140333 0.7786484 0.7203431 0.43299398 0.46994704 0.17410436 0.24742956 0.017324023 0.2104718 0.6225281 1.0633522 0.576429 0.30789113 0.36817083 0.5937361 0.4234549 0.7545701 0.22895366 0.76634663 0.4766557 0.79027504 0.048746347 0.12150982 0.5117561 0.25332084 0.40248668 0.9634109 0.6046865 0.45382172 0.10462942 0.3008299 0.6105524 0.80667055 0.5603739 0.14894372 0.8318384 0.13849084 0.16204426 0.941798 0.5484248 0.7310012 0.8020179 1.0247091 0.20783012 0.1669402 0.025531592 1.0552584 0.6943691 0.26876232 0.5977653 0.08730874 0.6488874 0.47958857 0.706396 0.2877488 0.7071061 0.62951446 1.0247113 0.21549734 -0.051245186 0.9577779 0.7362582 0.6936687 0.3965746 0.5134154 0.19851391 0.40261692 0.61909705 0.121508226 0.6288063 0.1791598 0.23364146 0.54959786 0.7798567 0.30975777 0.5321124 0.26418665 0.22654204 0.016744187 0.7114987 0.41058567 0.111558884 0.19157375 0.687915 0.66054356 0.6608662 0.70093447 0.90060925 0.323268 0.35067803 0.49399897 0.7181118 -0.004467513 0.58473134
l7 0.33244932 0.69816935 0.5583995 0.5049077 0.25193563 0.6357644 0.22881298 0.54392517 0.276727 0.42432052 0.9061227 0.7681277 0.30785054 0.71172607 1.1431679 0.86156064 -0.011610372 0.7360833 0.17092124 0.87678903 0.5516458 0.58150595 0.1915819 0.47120604 0.8981134 0.7641313 0.61700076 0.8619786 0.8735106 0.43600598 0.2193508 0.42716134 0.8427949 0.89553577 0.6871372 0.4525165 1.0033883 0.24432063 0.30980557 0.83496386 0.89470166 0.67991227 0.4767744 0.8188186 0.6712888 0.4773776 0.1690094 0.7610762 0.7879002 0.44374904 0.89638007 0.04108976 0.63416827 0.21393666 0.27832258 0.17578061 0.26178104 0.6716591 0.6081862 0.28664333 0.5005373 0.11044279 0.4727521 0.8085441 0.8637791 0.3010216 0.70276713 0.16274714 0.41173148 0.45067802 0.3030023 0.40734437 0.9316357 0.82817614 0.054951143 0.39792633 0.76757836 0.90411 0.2763485 0.7832963 0.72995937 0.6753608 0.37299156 0.5369182 0.38772136 0.7796148 0.91596216 0.94131696 0.3586432 0.25603962 0.5032202 0.29780564 0.0145237185 0.8002985 0.46643165 0.73012847 0.7150941 1.0574067 0.20103593 0.29889652 0.36518693 0.5866245 0.89963293 0.15864868 0.41467866 0.48531774 0.25934365 0.29300943 0.9380197 0.97706753 0.51878947 0.18207642 0.31603026 0.89281344 0.982635 0.3925094 0.14559332 0.86827016 0.649847 0.7355943 0.31653938 0.7483579 0.05002008 0.91258746 0.6421029 0.8214075 0.9214391 0.424994
l8 0.09073565 0.87157977 0.29440156 0.2453106 0.6749594 0.7087848 0.6401482 0.7271403 0.9791114 0.23473091 0.51570344 0.11919795 0.69495183 0.42720422 0.517276 0.7942376 0.38350385 0.70993793 0.89785033 0.5967954 0.8786792 0.077468134 0.6114059 0.45419347 0.2919212 0.58162415 0.4935416 0.50127804 0.2525018 0.60216975 0.68589735 0.5670323 0.6288322 0.7947124 0.7689838 0.34852993 0.8106772 0.8609345 0.75943625 0.7905 0.79010355 0.5075557 0.56957215 0.65513915 0.37503132 0.6082319 1.1065713 0.111173905 0.6676792 0.40877852 0.56287134 0.9391428 0.58641046 0.5897748 0.6889254 0.7059484 0.4084882 0.4915949 0.5940203 0.88886875 0.41720495 0.27081499 0.46211472 0.4840095 0.1660097 0.07427547 0.13276383 0.83066607 0.63996065 0.15636931 1.025593 0.3813087 0.8697029 0.3222197 0.41168788 0.5996719 0.53376836 0.17324582 0.09147426 0.38944423 0.85203105 0.59318143 1.0223155 0.4244798 0.3636956 0.77090746 0.3780404 0.19876043 0.98651576 0.66376567 0.7863166 0.08308773 0.80029744 0.43402028 0.67276144 0.11109143 0.7281164 0.73222613 -0.0063055535 0.19156213 0.5144906 0.56684655 0.62326694 0.33813205 0.46807176 0.6448516 0.67322946 0.17084377 0.14703149 0.5991204 0.09142142 0.7634608 0.99424493 0.11331544 0.54406554 0.8530435 0.5335995 0.94043845 0.039892524 0.29651555 0.4147335 0.22708617 0.15396535 0.6274303 0.7084295 0.7055781 0.40146708 0.43130392
l9 0.44549057 0.9086923 0.06561766 0.5449971 0.46982715 0.19025144 0.65803397 0.9093648 0.48617187 0.38964215 0.29686967 0.25295964 0.48644966 0.74197924 0.36752477 0.87909603 -0.024490988 0.82547706 -0.0054233866 0.48828387 0.37868723 0.32086158 0.81291854 0.16583607 0.44227952 0.45591474 0.97229403 0.2971834 0.46919698 0.157429 0.5540519 0.11889929 0.11748538 0.1216285 0.45649213 0.30223775 0.1762088 0.75496423 0.12063139 0.5223509 0.79612046 0.23296694 0.8311892 0.36940086 0.74554014 0.68377066 0.86396384 0.24638215 0.40324125 0.31058064 0.30516598 0.28131652 0.68914866 0.04176803 0.80147815 0.39362684 0.7633161 0.16624086 1.0099964 0.44283283 0.24793564 0.861163 0.041666158 0.88052243 0.8953517 0.62909347 0.98400193 0.8542415 0.112219796 0.6052086 1.0159725 0.47834447 0.3502868 0.92074186 0.80515426 0.78065026 0.1322128 0.860886 0.8237667 0.07469518 0.39279658 0.84642166 0.6536851 0.9533927 0.09356266 0.25527963 0.70320976 0.84197176 0.72966504 0.07753226 0.6870268 0.9137476 0.6817301 0.31999442 0.6076947 0.77767086 0.4549558 0.6781819 0.44125804 0.40829808 0.4202009 0.0982572 0.15849042 0.554532 0.18309703 0.8023521 0.97099125 0.1343525 0.53415877 0.13315822 0.67633665 0.57547617 0.4573688 0.92552567 0.35196263 0.45565367 0.46324453 0.19622514 0.7858809 0.57789105 -0.01312944 0.27904102 0.44145074 0.33100608 0.1676366 0.40206838 0.621358 0.01503478
l10 0.46387252 0.7755791 0.1887235 0.5090138 0.10994758 0.12317746 -0.04331294 0.10230793 0.31343207 0.49206343 0.08603183 0.41756704 0.37624756 0.6672295 0.6445925 0.0014182588 -0.038631164 0.75478965 0.503463 0.72072226 0.731435 0.38230005 0.31568986 0.4849194 0.7269746 0.81157964 0.9640787 0.4364619 0.3471603 0.6009344 0.83071667 0.26650542 0.8937863 1.003766 0.11728636 0.26151493 0.2646436 0.15039147 0.5153443 0.14637166 0.26169163 0.09505035 0.14381334 0.9924951 0.6412783 0.10858023 0.6545578 0.2399494 0.9211833 0.41590756 0.122869216 0.15234137 0.57591105 0.7614417 0.4599737 0.3373027 0.15411042 0.8861825 0.17255288 0.6070238 0.29691562 0.02242611 0.8189286 -0.12752564 1.0742697 0.12969866 0.52599144 0.9028845 0.8574914 0.050579708 0.22878584 0.5646213 0.3781565 0.73320776 0.2179584 0.41592288 0.31930628 0.89797366 0.92187124 0.17684618 0.62591213 0.60768414 0.6243368 0.6227109 0.31889242 0.6812726 0.13489707 0.63378435 0.18426651 0.9651872 0.71751755 0.37669235 -0.13072065 0.9888927 0.59570307 0.16158669 0.34215325 0.23050243 0.51986355 0.76992565 -0.00088989694 0.5533967 0.47867033 0.7026971 0.41351545 0.18779445 0.680862 0.31202486 0.84940577 0.5726508 0.021489527 0.55555695 0.07648885 -0.0039604455 0.5321212 0.92734486 0.95754004 0.891462 0.7497776 0.70998883 0.39955568 0.5156473 0.29273492 0.782686 0.22576468 0.0910119 0.85648674 0.38914123
l11 0.4161922 0.08572008 0.599729 0.3331427 0.9862898 0.105382435 -0.014836581 0.16887946 0.14565012 1.0588698 0.6118333 0.18206778 0.52963 0.23257075 1.1313226 0.36954954 0.09622485 0.22759104 0.36400875 0.13370447 0.9614107 0.8548127 0.5337669 0.3843252 0.009084639 0.42735046 0.7496373 0.33218023 0.10639569 0.6035679 0.69829327 0.7951014 0.6852628 0.92135787 0.798899 0.93484825 0.6874925 0.5987609 0.5968043 0.2849997 0.40286112 0.77678823 0.52620953 0.9592482 0.355651 0.16709398 0.9859226 0.21402487 0.87342155 0.6098045 0.7773301 0.40546468 0.7017461 0.36409765 0.5491195 0.62037665 0.46387288 0.0924236 0.6067709 0.4627016 0.9371879 0.6853021 0.806836 0.27786022 0.41660017 0.8941474 0.3716023 0.3401181 0.40261543 0.5920543 0.13411489 0.6590537 0.93613136 0.9119926 0.82843447 0.82025754 0.4349375 0.31053203 0.4714145 0.21502593 0.4643543 0.37509453 0.31356004 0.59815496 0.96080506 0.25961155 1.0598015 0.14352524 0.5745523 0.8436938 0.08739583 0.28284255 0.09952188 0.25842816 0.3686555 0.8932454 0.49619734 0.59249943 0.3861183 0.22288176 0.46537897 0.63372064 0.7238229 0.21661542 0.36842284 0.3415336 0.2706823 1.0797518 0.6371228 0.6610745 0.6355561 0.3923084 0.44370925 1.0303675 0.527608 0.09284925 0.6427177 0.5330169 0.5352787 0.78732806 0.088071674 0.5012328 0.01013108 0.48632672 0.34880015 0.6355259 0.05534113 0.112035945
l12 0.15766513 0.83052194 0.70767015 0.43518022 0.26551712 0.57030326 0.22902979 0.32144088 1.0185267 1.0792775 0.4082574 0.40492445 0.45591477 0.81127596 0.87906516 0.7100098 0.22444357 0.16845989 0.43646315 0.67277473 0.1995375 0.7051904 0.71166205 0.826468 0.21459173 0.3898346 0.6857888 0.80052924 0.4111867 0.06583074 0.6071397 0.59907794 0.13451017 0.8206665 0.07101644 0.08384982 0.30665466 0.5246693 0.94137156 1.0303322 0.16485563 0.17609935 0.33702794 0.44057652 0.38262 0.9340286 1.0149817 0.28370243 0.33377308 0.6084335 0.6744568 0.23977102 0.9077619 0.02908549 0.2153736 0.2739987 0.15687981 0.32524875 0.72744167 0.23469837 0.72304815 0.53454167 0.7849045 0.17739743 0.5681023 0.13512395 0.2994301 0.34601298 0.79758483 0.22955221 0.24455191 0.4083224 0.9464139 0.6950616 0.7178365 0.632998 0.26788214 0.22219998 0.03622783 0.72814393 0.22005299 0.9028054 0.5462005 0.6177502 0.40904558 0.72664785 0.4474636 0.16131477 0.16348426 0.61829144 0.9074409 0.54846346 0.81604797 0.6850021 0.8909837 0.7260395 0.5214292 1.0812578 -0.041302983 0.867948 0.6353452 0.08608319 0.67500347 0.08777424 0.94349587 0.31013423 0.6442743 0.34542668 0.74962413 0.75995874 0.29458737 0.91762066 0.7540154 0.50904024 0.5180705 0.61605483 0.30468902 0.39244986 0.63909215 0.748234 -0.021881826 0.40998068 0.4240582 0.23892096 0.540658 0.2947835 0.7370746 0.33251446
l13 0.38280648 0.8302713 0.56504726 0.40382338 0.7290142 0.024506947 0.77893233 0.092596665 0.7770548 0.25209573 0.5656162 0.24166502 0.64310706 0.334426 0.5699436 0.06456984 0.7703474 0.29976064 0.56875104 0.86666626 0.2139121 0.78138113 0.8657887 0.24389493 0.3846315 0.56228936 1.0199769 0.46451727 0.60810256 0.040032383 0.43000323 0.2888376 0.9063676 0.43526167 0.7151022 0.24451034 0.9925423 0.14754328 0.098124936 0.3534105 0.22414443 0.51081717 0.7596095 0.08026637 0.9548447 0.18100756 0.5202208 0.41490644 0.4733704 0.14862622 0.8090309 0.428174 0.39107984 0.45584774 0.6151257 0.7511222 0.24420427 0.84603757 0.83048666 0.10608967 0.263443 0.8718376 0.35534784 0.1375412 0.12856223 0.63524663 0.8972735 0.48001733 0.5935319 0.38808876 0.086572856 0.37028068 1.0010134 0.73341715 0.37270984 0.49962214 0.16581216 0.3494669 0.07695842 0.8861317 0.48176488 0.4127409 0.1636806 0.27864257 0.2666105 1.0689397 0.6936131 0.66246694 0.7518236 0.13865545 0.53464556 0.29828912 0.48478767 0.20442429 0.10124932 0.98093444 0.66059554 0.5588152 0.440054 0.78897774 0.74505734 0.44575253 0.68964475 0.5707707 0.31741676 0.7015828 0.86252403 0.48326042 0.91593117 0.5677629 0.21014804 0.9573159 0.12943351 0.2908424 0.1562598 0.17106059 0.4475604 0.96237916 -0.027814623 0.8072214 0.45214608 0.5715791 0.8404282 0.8524074 0.3870806 0.08216271 0.7777517 0.3537112
l14 0.5597389 0.3891559 0.3447467 0.10588198 0.49729484 0.27421218 0.3834297 0.6699124 0.87613124 0.8819755 0.6638844 0.9294738 0.19739418 0.42917687 0.97556406 0.103234716 0.30726045 0.4008331 0.2761039 0.37432402 0.64933044 0.6023705 0.17348078 0.34905317 0.959746 0.939969 0.16794907 0.6153594 0.9727427 0.11823411 0.3124377 0.30671096 0.7772397 0.9340076 0.5885846 0.44817927 0.8032759 0.88953054 0.6090405 0.25339875 0.033360723 0.84126276 0.42641336 0.4756044 0.8371041 0.67875284 0.50426495 0.8309647 0.4272721 0.14066727 0.66195196 0.3154497 0.4539715 0.7264636 0.57717544 0.071507 0.4458389 0.16143446 0.5434352 0.69290125 0.1784609 0.21916978 0.4520463 0.22361195 0.96570283 0.47391903 0.18028691 0.86714756 0.98982257 0.69093436 0.88374907 0.43237704 0.55533314 0.45779923 0.46509635 0.80255777 0.6590779 0.6171268 0.6757971 0.22129972 0.32030553 0.26752964 0.3363335 0.6947449 0.36193758 0.5058149 0.24728557 0.39746538 0.66100246 0.6618197 0.0034472712 0.61689484 0.4299682 0.32018003 0.86238486 0.509956 0.22463088 0.112464055 0.8160666 0.8496703 0.42456084 0.5016415 0.8205725 0.22421414 0.2871328 0.7113091 0.55984396 0.6395653 0.16491696 0.123774275 0.6600443 0.90576416 0.4204701 0.97476256 0.91497076 0.35339028 0.9233782 0.19031502 -0.030239496 0.37234262 0.08413291 0.56343424 0.16245268 0.7075175 1.0111078 0.675671 0.20199347 0.5570122
l15 0.6795124 0.5726755 0.64023685 0.71945757 0.5348088 0.7038292 0.23676805 0.102387935 0.27257872 0.97818714 0.480667 0.17221306 0.095772214 0.31075796 0.39909717 0.095538124 0.8173317 0.8473874 0.08829182 0.7983853 0.24603184 0.5124686 0.8450864 0.20766409 0.20335115 0.2596534 0.49486938 0.7181513 0.44840103 0.33344615 0.42039883 0.4587269 0.64660686 0.14003004 0.9962247 0.47453737 0.12631091 0.88892716 -0.067676336 0.91470927 0.08071481 0.70134246 1.0291146 0.9520807 0.66722524 0.8110061 0.374148 0.8740308 0.33575308 0.82688534 0.22337405 0.27189454 0.8726437 0.27439314 0.48988342 0.8711402 0.8644239 1.0402914 0.13340051 0.15041715 0.823145 0.81068414 0.13132519 0.21221721 0.4684355 0.326079 0.7740684 0.79745585 1.0427955 0.82396287 0.083093494 0.4014062 0.95320654 0.36002228 -0.07818207 0.83849627 0.517371 0.9853198 0.64500034 0.9581609 0.83124536 0.48401067 0.55762845 0.49729428 0.32843187 0.92854583 0.12594593 0.89131045 0.36709034 -0.011573876 -0.029214999 0.2719709 0.022241145 0.7048432 0.20869893 0.5795741 0.3875645 0.9109612 0.2850768 0.085623965 0.530593 0.5506525 0.5195346 0.2536564 0.74914646 0.5555327 0.9799885 0.30426612 0.43714896 0.18909858 0.8256576 0.55631113 0.26328737 0.5663909 0.67263603 0.6116422 0.9711946 0.32807183 0.047690246 0.7592517 0.41612116 1.0454851 0.034885347 0.23134343 0.56021756 0.09391569 0.518839 0.68165207
l16 0.28680065 0.18612704 0.036383387 0.14081271 0.79590416 0.23520507 0.64700747 0.33679748 0.25812507 0.68226045 0.11434968 0.7430556 0.5074805 0.26061016 0.73148227 0.48070708 0.6004449 0.37674963 0.3760883 0.278883 0.3909211 0.20600854 -0.016461628 0.61701113 0.88678503 0.17409201 0.22665475 0.2594129 0.98249656 0.8732044 0.3021592 0.04578852 0.7267327 0.1635894 0.74358535 0.3007541 0.06364681 0.80071276 0.3528249 0.3728514 0.5972507 0.6510302 0.7123154 0.30167273 0.13713102 0.9270458 0.23070695 0.9126451 0.40095392 0.07696399 0.5745096 0.16509223 0.13293463 0.17980406 0.747414 0.04525851 0.06553257 0.33190435 0.6313279 0.5268383 0.8037683 0.1183905 0.77967995 0.98388267 0.17033425 0.39650124 0.39841726 0.46356475 0.79327744 0.35261634 0.47095594 0.29576576 0.31292245 0.7116542 0.5388737 0.27410787 0.47564897 0.9245044 0.8534255 0.2548355 0.20860398 0.7501614 0.45443398 0.61491936 0.6986011 0.65489596 0.44480658 0.38316873 0.6970515 -0.08860894 0.03675905 0.4920655 0.45125505 0.8823245 0.56732166 0.8465823 0.20575774 0.8077292 0.40797928 0.33644468 0.7886668 0.8135617 0.8100841 0.46256146 1.0482138 0.98413074 0.84141195 0.47209653 0.36997533 0.21651027 0.6824025 0.96454144 0.40742236 0.7093763 0.25587487 0.37613714 0.31380606 0.34393072 0.0104861865 0.5776977 0.17438644 0.41980815 0.2608402 0.12810338 0.43008444 0.5793137 0.06878845 0.08938454
l17 0.7992606 0.4804738 0.029815068 0.32087013 0.37157264 0.19278637 0.27497903 0.322278 0.3054784 0.29126802 0.16167456 0.5835546 0.36216545 0.7146248 0.9681413 0.86956006 0.6840515 0.11500841 0.09032782 0.36440375 0.3526491 0.77755034 0.2588557 0.9678239 0.078391 1.0279702 0.5110806 0.4643444 0.64490145 -0.012586373 0.66935617 0.9161276 0.6893662 0.83501035 0.8654683 0.4521691 0.77492845 0.703666 0.84731483 1.093472 0.06934812 -0.057982337 0.19061095 0.32466832 0.35545176 0.39282906 0.7858622 0.30514112 0.050359666 0.7796483 0.03654993 0.08641863 0.43568698 0.33484828 0.10228557 0.45678252 0.28375566 0.65272874 0.6967465 0.37260965 0.4513362 0.44128183 0.31405303 0.27266464 0.7940065 0.5880112 0.63717395 0.6163251 0.18008895 0.058948748 0.11051605 1.0823138 0.48369884 0.26268852 0.23228976 -0.011677226 0.70617527 0.107067056 0.5342777 0.10661822 0.60079056 1.0447097 0.7906843 0.9417884 0.3062805 0.88729215 0.06032578 0.33319232 0.6366924 0.29454893 0.18849851 0.80188113 0.72201496 0.6732008 1.1055282 0.12736595 0.08242833 0.62511 0.7868766 0.7383154 0.59519863 0.8064075 0.019931853 0.07532875 1.0122039 0.4498465 0.50296384 0.38163134 0.144641 0.20698625 0.35113585 0.31984544 0.29953897 0.56892467 0.16277495 0.56133074 0.94797856 0.44741654 0.6126525 0.71507686 0.7384672 0.73293656 0.93495697 0.40511137 0.40886497 0.6651066 0.44602025 0.64906955
l18 0.42244032 0.22620031 0.44661087 0.5537378 0.4795675 0.8669137 0.31491852 0.8812803 0.2508973 0.85273993 0.938424 0.8538201 0.3120835 0.22908647 0.42898095 0.58267736 0.80337304 0.20239411 0.13855127 0.08998083 0.3030816 0.7595946 0.84355885 0.47879988 0.0322066 0.40637448 1.0216532 0.8529807 0.31625825 0.5871706 1.0260298 0.64113945 0.9118676 0.79887396 0.6612205 0.9090374 0.41935658 0.689128 0.87297046 0.13783334 0.32522932 0.49941465 0.3236701 0.4704338 0.65165514 0.33340722 0.27129373 0.36639246 0.5680436 0.22690448 0.15015185 0.6383659 0.18793485 0.15682966 0.0041729785 0.44683105 0.49944735 1.0684041 0.15265895 0.12172869 0.31937453 0.47381335 0.32308948 0.68912405 0.6302157 0.64363366 0.23210348 0.29200295 0.27779773 -0.01737262 0.5290186 0.21045245 0.7215274 0.1313156 0.3665509 0.03649982 0.50948477 0.81158644 0.81053746 0.36644033 0.8927656 0.3429095 0.8843172 0.113958195 0.32890722 0.1505563 0.8443695 0.7896613 0.97847074 -0.050011456 0.57908076 0.69946927 0.52888304 0.55453336 0.3172267 0.6963211 0.45643815 0.5657551 0.3649791 0.5670197 0.84273815 0.93193203 0.73576355 0.90288717 0.808801 0.9331167 0.10389776 1.0473162 0.5510373 0.5847282 0.14692411 0.43239036 0.5264844 0.9404692 0.25802916 0.06816356 0.5482736 0.72007567 0.2649423 0.9776747 -0.009570136 0.34690934 0.9911631 0.36804911 0.2089717 0.12498066 0.89512765 0.79646075
l19 0.38049966 0.3186786 0.903513 -0.026695462 0.20673054 0.953902 0.59771127 0.09716965 0.94100153 0.52730066 0.18284816 0.39013523 0.22336252 0.096932516 0.545826 0.26052037 0.09888896 0.8425048 0.860175 0.4312577 0.627632 0.26884538 0.90961236 0.73548937 0.37500888 0.9842313 0.507414 0.6048139 0.69336927 0.3404444 0.8507092 0.424263 0.7788323 0.17925094 0.7805079 0.37721628 0.49488926 0.91581553 0.47476605 0.3713978 0.5880366 -0.016081652 0.40314338 0.7129047 0.6070734 0.2588571 0.8561945 0.6579883 0.5375805 0.61340696 0.865648 0.55646694 0.46144864 0.52204186 0.34099454 0.39337236 0.75334585 0.32838586 0.51500857 0.3140171 0.62916994 0.90103656 0.8759447 0.69172865 0.8180668 0.9268792 0.27109936 0.32471007 0.9005831 0.14919926 0.18886285 0.124807894 0.4228847 0.16672331 0.4501693 0.1936824 0.47683486 0.81468886 0.031209305 0.15223175 1.0141873 0.1530465 0.57512015 0.6678659 1.040242 1.0030602 0.7031359 0.6031684 0.2524929 0.26207238 0.5581396 0.2937288 0.46118113 0.64595413 0.34556156 0.0997026 0.4854846 0.048126865 0.6700442 0.8437321 0.8035463 0.15888767 0.75055355 0.76043516 0.43394366 0.6390954 0.9524928 0.7727202 0.8747424 0.61955005 0.19745412 1.0516301 0.18380903 0.4279114 0.5285013 0.07515843 0.36779305 0.7457927 0.27921754 0.2834073 0.3313415 1.0479244 0.7718567 0.17282668 0.2969939 0.42522746 0.3626344 0.102313735
l20 0.33970866 0.31556523 0.68704057 0.38741726 0.48080686 0.97916096 0.9213229 0.5091406 0.71004075 0.11440882 0.87300414 1.0332594 0.15669887 0.35563046 0.57552713 0.16289894 0.31660002 0.918273 0.9245748 0.830917 0.5965318 0.7064411 0.18719421 0.43374458 0.51179904 0.9267602 0.9656779 0.8348664 0.8779709 0.19325544 0.90234965 0.026052203 0.62090594 0.35474214 1.0201817 0.40761104 0.6097822 0.25418922 -0.019838188 0.45840362 0.7796428 0.13181537 0.5773157 0.2042568 0.75284237 0.5359747 0.76933134 0.46946913 0.21130867 0.069135204 0.9285212 0.481569 0.3123343 0.002767662 0.09438392 0.63102305 0.04329336 0.17950417 0.108192526 0.80018467 0.047055375 0.6143535 0.505243 0.036920026 0.78195083 0.8279652 0.3426638 0.9827279 0.6138144 0.7907571 0.3923491 0.8538496 0.2682341 0.55232674 -0.021792328 0.8024572 0.67368513 0.7803389 0.8124767 0.19190238 0.30679107 0.3115671 0.37922338 0.15826711 0.6887452 0.733628 0.17429695 0.38703296 0.56294984 0.60271835 0.16073792 0.7755543 -0.038260806 0.5989223 0.13190484 0.23250543 0.91644156 1.0129595 0.95136017 0.14486028 0.5784839 0.94859403 0.9486735 0.383593 0.97884864 0.5890026 0.6034518 0.34705937 0.6531545 0.23854055 0.28963342 -0.02233437 0.52721024 0.22558744 0.18386003 0.03909562 0.47359762 0.8112267 0.2999405 0.63438296 0.6179428 0.731263 0.009974814 0.10833534 0.6021279 0.39717546 0.33285654 0.838629
l21 0.1880294 0.6401058 0.8044955 0.7245648 0.7043331 0.18251343 0.40648434 0.5980103 0.6550696 0.85875404 0.25455508 0.78712404 0.3537033 0.19623473 0.548022 0.49318776 0.6406793 0.3584254 0.20760795 0.7791273 0.1250075 0.3789774 0.8206112 0.9777802 0.052094914 0.32948837 0.39534327 0.89922374 0.7183315 0.67210567 0.22291614 0.49072966 0.67172074 0.58115745 0.8703509 0.4972413 0.858025 0.05538048 0.30486986 0.5899522 0.83132213 0.7427194 0.8085515 0.7271007 0.95732725 0.7349388 0.75119704 0.86817557 0.5390474 0.72224593 0.41168773 0.13156076 0.5749847 0.108392365 -0.025072714 0.20608333 0.28998792 0.34064594 0.9731891 0.5550121 0.3349703 0.5563999 0.71473575 0.25249738 0.4916874 0.48075837 0.36897904 0.71564263 0.76231706 0.680738 0.67524916 0.25238806 0.4262588 0.7911104 0.54036635 0.34778085 1.0804735 0.57392883 0.59082144 0.932272 0.732021 1.0425088 0.99168164 0.47559202 0.5669712 0.4666287 0.86463135 0.6518956 0.12709217 0.65928996 0.7378512 0.081096165 0.32170418 0.34651226 0.9145381 0.6717941 0.8255942 0.6574926 0.3794144 0.0257459 0.3189001 1.004154 0.8240271 0.77741885 0.18069363 0.82302666 0.91085094 0.8564867 0.54548067 0.89683396 0.59267783 0.1444009 0.40586367 0.79036504 0.055246126 0.16128898 0.25034273 0.20731439 0.38594538 0.055845603 0.3379274 0.33412272 -0.049401227 0.07268878 0.6520165 0.14801674 0.5078979 0.61305684
l22 0.60558254 0.4681268 0.74300265 0.8851545 0.81635815 0.9555683 0.15922521 0.1660624 0.88992256 0.98421496 0.22469544 0.5851864 0.12097276 0.5429542 0.8964285 0.8624893 0.34123406 0.45965365 0.5551435 0.35829726 0.21431433 0.6298958 0.406883 0.55710506 0.64140385 0.72423995 0.68921214 0.7837701 0.07190208 0.41898915 0.65623564 0.8999411 0.457735 1.0659946 0.3360452 0.38079238 0.49444765 0.24233478 0.90747637 0.46923408 0.2895133 0.7997535 0.837163 0.6584172 0.71538067 0.7193636 0.25066978 0.23234972 0.54449564 0.5974245 0.10803064 -0.07376281 0.6361444 0.45048258 0.5556176 0.8469583 0.1471561 0.13437171 0.29552102 0.17136863 0.019488808 0.12028969 0.24485037 0.6639273 0.89148873 0.8261361 0.29127926 0.2663957 0.41190842 1.0116932 0.059322335 0.36259884 0.1890046 0.8679163 -0.14376742 0.7878373 0.54670674 0.4831853 0.44390553 0.28782314 0.39326167 0.81723243 0.45308372 0.3533829 0.16425961 0.9230519 0.46393386 0.48582706 0.75039786 0.8561697 0.1630558 0.5280292 -0.027765162 0.3624267 0.655415 0.20569564 0.5697888 0.51271546 0.29278222 0.09945901 0.78791606 0.877972 0.30790955 0.7448553 0.84659857 0.30022672 0.6201433 0.057468545 0.7685725 0.7767304 0.15043814 0.8121639 0.54758036 0.84079957 0.82651037 0.39033538 0.38854688 0.8697506 -0.070735656 0.0685141 0.25217256 0.22299752 0.02406961 0.33103773 0.5710079 0.7102627 0.10093897 0.8429725
l23 0.69189984 0.08760786 0.54480934 0.6674124 0.24756937 0.7838299 0.1100879 0.77568233 0.4279057 0.8064657 0.37965226 0.95547724 0.5029625 0.8403578 0.9291417 0.49081445 0.027473763 0.527186 0.26750988 0.5186368 0.6072363 0.75931364 0.3959157 0.9767331 0.11206491 0.3153311 0.8567272 0.93470174 0.13226816 0.41881767 0.8628351 0.8513585 0.087689154 0.4994578 0.6474747 0.22318059 0.9110428 0.9987395 0.07361944 0.51811427 0.33560446 0.468368 0.2841365 0.34855887 0.50311524 0.5361993 0.17504211 0.54085916 0.14230438 0.28953385 0.91037124 0.71083266 0.089934014 -0.008083353 0.04814139 0.041435484 0.84111917 0.67637736 0.50344014 0.29352662 0.4983449 0.28766522 0.32160214 0.24879618 0.44547227 0.39822093 0.41408384 0.21414731 0.32302126 0.10221325 0.78606486 0.73539406 0.5070705 0.3775129 0.7021852 0.5555585 0.99680674 0.3975363 0.3576772 0.10760191 0.48723832 0.34709746 0.51466656 0.68948114 0.33996692 0.3749853 0.8285404 0.35279405 0.7704681 0.8118227 0.8494423 1.0089341 -0.020085499 0.42684737 0.0332206 0.37042442 0.17924292 0.91018456 0.25159734 0.91725135 0.66277987 0.87535495 0.9295765 0.38325343 0.8210007 0.05427616 0.83591986 0.9754917 -0.023316408 0.39876398 0.6034404 0.9785706 0.16923693 0.99604106 0.115301974 0.31315017 0.34501058 0.0342409 0.51683927 0.4881342 0.4943849 0.6937972 0.30393025 0.3451457 0.48604596 0.03133446 0.32092735 0.7600157
l24 0.7351396 0.5999413 0.32155052 -0.034729492 0.96183103 0.8873103 1.0030267 0.24390411 0.20934486 0.28695428 0.10554623 0.8765477 0.367768 0.44668695 1.0535388 0.30976087 0.36816117 0.6307726 0.23443024 0.24283513 0.87838376 0.90434796 0.92707396 0.8462764 0.1719749 0.7333314 0.77112514 1.0247688 0.2955975 0.5857212 0.85312635 0.5542706 0.78273064 0.53437644 0.19492748 0.9286623 0.7927928 0.16540691 0.20768681 0.29533347 0.09756634 0.02954614 0.9316164 0.9663783 0.1406392 0.77811855 0.8208684 0.7060223 0.83390427 0.36138833 0.82159144 0.15916616 0.4874422 0.26309112 0.0898687 0.45034236 0.30642176 0.8296571 0.581763 0.24947593 0.37238514 0.79657626 0.43976215 0.37843934 0.8539516 1.0027944 0.55633557 0.8356518 0.7648046 0.12713774 0.6976779 0.94052106 0.9427731 0.12456659 0.58919793 0.09672154 0.3205354 0.78392255 0.09967697 0.3901442 0.16773401 0.67715687 1.0002064 0.494723 0.87454224 0.35201237 0.29789203 0.8163443 0.9165493 0.20399599 0.37875226 0.5833606 0.050900176 0.20615049 0.38591003 0.96813875 0.6639486 1.0372405 0.59979826 0.85224843 0.6018602 0.7742529 0.3851007 0.62300164 0.33674625 0.6269891 0.7810177 0.5193075 0.32754996 0.46544114 0.8934848 0.20547108 -0.032236326 0.5756886 0.77918684 -0.018010277 0.5642448 0.13104284 0.77665824 0.82540077 0.9128636 0.11671252 0.62995815 0.8688548 0.248442 0.51637095 -0.07967283 0.17524841
l25 0.51255745 0.862074 0.28772774 0.29053065 0.6198277 0.52247816 0.24602352 0.716861 0.8726661 0.16067505 0.57583475 0.459756 0.29143366 0.9574854 0.674535 0.83311665 0.7012926 0.34703872 0.10719254 0.47431618 0.8615954 0.8725165 0.8344648 0.24112776 0.13243826 0.11473591 0.5809889 0.6830241 0.4903051 0.1245379 0.54286236 0.022914056 0.039604586 0.8484421 0.41286975 0.9176653 0.34282285 0.8577071 0.60598177 0.33622506 0.8210303 0.0152141405 0.4927098 0.13615778 0.6519824 0.83945864 0.63378876 0.3205624 0.07185308 0.1312279 0.6229088 0.1542006 1.0053347 0.7875341 0.5205891 0.02568256 0.5453362 0.93514895 0.34737462 0.9476289 0.48279074 0.7015156 0.80431217 0.7563891 0.811425 0.06558154 0.59047663 0.53553784 0.52699196 -0.033371005 0.19655177 0.9216184 0.84062815 0.96704745 0.145815 0.8202544 0.5127837 0.2775981 0.5344424 0.38862008 0.9282046 0.78450835 0.14655353 0.2915488 0.3090566 0.29304922 0.9997981 0.9078895 0.085944735 0.25245932 0.7413199 0.86047995 0.09728148 0.29671285 0.9337213 0.48546675 0.80768836 0.8178552 0.15852149 0.37249666 0.4173605 0.37662277 0.7015716 0.6901093 0.72258884 0.5079105 0.48297757 0.7296406 0.5608195 0.3277677 0.9381724 0.4940548 0.25427952 0.7808247 0.18446833 0.29475453 0.31315708 0.6803911 0.61944604 0.25809956 0.47468385 0.8902601 0.11027738 0.023515375 0.10023122 0.8547677 0.45198676 0.79116946
l26 0.7641461 0.7079646 0.8287278 0.31570926 0.79047257 0.49386346 0.55849063 0.9455513 0.78822327 0.18761648 0.6301822 0.71506447 1.0410572 1.0558192 0.54614794 0.33921996 0.58482313 0.80903345 0.052668244 0.84565264 0.49924076 0.36998585 -0.006507693 0.49087688 0.18816869 0.88677925 0.12234935 0.6951828 0.9468048 0.33589163 0.44880238 0.37103245 0.35122296 0.3006168 0.92510724 0.52338254 0.59411436 0.7549272 0.5459107 0.6604973 0.5544102 0.73498183 0.40854594 0.15900646 0.9546583 0.80790114 1.1018523 0.2407535 0.89791125 0.0030812672 0.2564911 0.6296552 0.4120524 0.17674303 0.52775764 0.04258763 0.5019407 0.41250792 0.79748476 0.93548876 0.3294481 0.5138062 0.17983785 0.5395592 0.35444257 0.4788832 0.52004683 0.11156206 0.3348667 0.23935814 0.74135035 0.91570705 0.6098252 0.3656679 0.33038923 0.5314858 0.61243296 0.33785433 0.8529268 0.40441802 1.0728903 0.19032845 0.68436575 0.39259434 0.5738749 0.36179858 0.11638805 0.043952942 0.2234886 0.78044945 0.01661023 0.23024376 0.64802223 0.3625559 0.8605063 0.29919347 0.4487966 0.6233594 0.3033328 0.15714583 0.61767936 0.8200811 0.736829 0.79961175 0.6369791 0.20913826 0.66916686 1.0480878 0.28322712 0.29222202 0.8968668 0.54137903 0.79332036 0.20912312 0.8226582 0.13907327 0.71403444 0.96883607 0.67327374 0.8215207 0.80435234 0.7645515 0.46823016 0.55848265 0.69578356 0.4240964 0.84798527 0.059427176
l27 0.5840066 0.38910356 0.9689215 0.05418649 0.8959901 0.53786457 -0.0135585265 0.52678096 0.22953296 0.76593894 0.72966725 0.1464867 0.15567163 0.22190319 0.873315 0.40151405 0.7585743 0.3879086 0.07091039 0.8843765 0.62497085 0.14752688 0.14923157 0.45664498 0.48559463 0.35162023 0.2325896 0.13901952 0.09200703 0.3324732 0.64173627 0.11258018 0.8332269 1.0194595 0.0052400827 0.030223789 0.6975987 0.6625674 0.60530114 0.20583476 0.81136215 0.71407115 0.6856029 0.90281653 0.6840751 0.36096737 0.3055464 0.3546874 0.2699909 0.5207985 0.4644269 0.70237464 0.4786225 0.58665735 0.49408323 0.15366808 0.7660699 0.41776326 0.8048583 1.0628417 0.49367464 0.5456124 0.14365587 0.8579254 0.39555416 0.09127824 0.49257645 0.8490217 0.4594973 0.9349309 0.51462954 0.797856 0.4057358 0.5624017 0.766477 0.8485073 0.89186555 0.3353233 0.11927608 0.007889221 0.80611795 0.92545074 0.8705152 0.59766203 0.98249525 0.9650139 0.33203527 0.40892205 0.24820444 0.41704547 -0.08314692 0.56048703 0.58507067 0.8583958 0.18435128 0.83486277 0.5939935 0.23754396 0.3206715 0.061682653 0.39562735 0.7544333 0.07392065 0.17184475 0.49190253 0.7844431 0.76954055 0.80016977 1.0652966 0.4180348 0.4670653 0.5401678 0.8693674 0.92586535 0.38859212 0.8065516 0.584562 0.6308616 0.20241714 0.10294992 0.13783976 0.49781045 0.46735784 0.23273258 0.63177377 0.560565 -0.010565815 0.7532847
l28 0.85834646 0.46685785 0.45631582 0.81806624 0.8240204 0.68168753 0.18076456 0.38594142 0.40824836 0.26095787 0.08269459 0.27470392 -0.057803158 0.33947116 0.44083795 0.15844741 -0.050522402 1.0388105 0.5657747 0.6010798 0.6686622 0.4697002 0.72834516 0.87719965 0.47565654 0.24686764 0.6700663 0.28233224 0.81256866 0.15617077 0.060539756 -0.047202345 0.36383763 0.50835514 0.55721176 0.7602414 0.859075 0.45900154 0.691694 0.46202198 0.23359255 0.3179024 0.910978 0.2295552 0.9275768 0.44150436 0.22965214 0.83691674 0.6137397 0.28171036 0.90417224 0.49940726 0.22169079 -0.009099813 0.7559875 0.3843357 1.0347899 0.62354946 0.46205777 0.9400963 0.2699611 0.7743962 0.94588524 0.33361584 0.86656237 0.45194697 0.57494015 0.77777475 0.28525376 0.77900445 0.68937147 0.48032165 0.9260607 0.31732106 0.2881341 0.30420345 0.32043874 0.7971658 0.79839355 0.8154683 0.53759634 0.63761103 0.14692053 0.5290762 0.88702756 0.94000846 0.6078585 0.40839848 1.040683 0.40564123 0.004243205 0.643627 0.47986177 0.69241875 0.37032473 1.0155766 0.14577143 0.7620246 0.7681037 -0.04458139 0.116823904 0.7574265 0.31136024 0.21806036 0.20388085 0.07962304 0.28362137 0.99437493 0.45042914 -0.07872433 0.415217 0.15463692 0.026080968 -0.09044786 0.26932684 0.17854002 0.13103333 0.15745912 0.34525654 -0.05584958 0.5277801 0.4466486 0.4864329 -0.067793675 0.17080925 0.79966646 -0.0053438474 0.23179406
l29 0.67932105 0.62710243 0.95966023 0.9273193 0.86642444 0.15356833 0.504742 0.3193173 0.5277794 0.07984694 0.2522468 0.52167207 0.4407536 1.0276408 0.5194619 0.63026124 0.14433558 0.359131 0.78972465 0.32246032 0.16390055 0.26894793 0.8647374 0.5901064 0.52579087 0.88536304 0.34310544 0.9712884 0.2656955 0.09339709 0.41551042 0.337784 0.85394126 0.496135 0.8802674 0.42048666 0.31852862 0.2074031 0.388351 0.3952612 0.57559085 0.7949227 0.8139933 0.82760674 0.948139 0.70775557 0.8429238 0.70680714 0.12246455 0.46441996 0.69018596 0.16514473 0.97238314 0.08154419 0.45526394 0.8620278 0.22766283 0.5840036 0.41946432 0.22590788 0.4185419 0.45501578 0.16403213 0.86168325 0.6134227 0.36670512 0.53514665 0.7785889 0.41680026 0.34210724 0.53507394 -0.036458474 0.14405692 0.554476 0.05512552 0.9984517 0.23025057 0.8679071 0.48427305 0.5222077 0.16831382 0.55526197 0.36854553 0.32473195 0.49708134 0.833102 0.43257076 1.1065586 0.44456732 0.54906875 0.27118796 0.19348705 0.23215015 0.70366114 0.40338042 0.4382891 0.41382372 0.119314216 0.68358445 0.8764158 0.1744795 0.85977286 0.6144916 0.27019304 0.61245817 0.69691676 0.2834135 0.3413402 0.046537288 0.1764046 -0.0045783594 0.33085302 0.4770944 0.48120263 0.67623246 0.6858355 0.8578255 0.51850855 0.35947526 0.5099754 0.72894746 0.8709876 0.602154 0.79189694 0.4776529 0.32767025 0.013513871 0.5385974
l30 0.2444831 0.6337551 0.44996288 0.4626942 0.71926665 0.053308517 0.53900194 0.60118407 0.76468164 0.6895597 0.94669753 0.54784274 0.70708513 0.33617494 0.4554365 0.6338943 0.0884565 0.82617366 0.63862395 0.1657201 0.1429121 0.07992287 0.85439765 0.70271236 0.62187624 0.1755901 0.3840443 0.56839645 0.008723609 0.5378289 1.0398078 0.16409239 0.65545714 0.91466904 1.0163419 0.34669024 0.8446785 0.15809527 0.8736622 0.8811957 0.37127024 0.49201235 0.82263243 0.962426 0.8720012 0.43745098 0.51496464 0.17871618 0.36009935 0.45171085 0.9040479 0.6644334 0.88904196 0.3006145 0.7494838 0.19217835 0.03814228 0.80218136 0.54455024 0.23878914 0.16784857 0.7282169 0.2180142 0.9639461 0.74709564 0.94326884 -0.081205584 0.1808985 0.4094131 0.08112573 0.65077686 0.35503826 0.1394179 0.42348802 0.39741752 0.34874886 0.26215452 0.32390663 0.24354964 0.2259559 0.40708098 0.2961483 0.9478081 0.93845254 0.28463948 0.10378361 0.60799044 0.36401075 0.10131244 0.43025902 0.36472496 0.61149055 0.6231646 0.8702058 0.17649944 0.6359864 0.23970394 0.5936126 0.27543116 0.31601548 0.042676758 0.37673947 0.6344633 0.14880958 0.16602437 0.92185724 0.32932308 0.7437045 0.19356902 0.26262996 0.24866052 0.26685202 0.75733566 0.6186298 0.11090599 0.07657207 0.37341264 0.6285117 0.6856996 0.6886873 -0.07827501 0.38995025 0.5167076 0.7932156 0.70451367 -0.032608192 0.65564483 0.23981269
l31 0.24680421 0.44019985 0.18718356 0.8254614 0.96272516 0.42541537 0.12440174 0.13235475 0.29462975 0.31082022 0.11180321 0.54516387 0.033194877 0.56526685 0.17986181 0.73243773 0.7561007 0.29305574 0.83308524 0.8997494 0.1236451 0.17087549 0.20315681 0.315993 0.485466 0.94047546 0.556316 0.9960438 0.11059552 0.76834667 0.4170623 0.3943803 0.30654487 0.9879366 0.20448728 0.8747559 0.79417735 0.5938313 0.5203096 0.12095059 0.058854744 0.9006197 0.8604441 0.327544 0.7201118 0.4650484 0.6788993 0.38686258 0.3821444 0.8232076 0.5592293 0.28617328 0.54948837 -0.059602212 0.6377801 0.9647403 0.016959481 0.7277082 0.24848896 0.10503551 0.4697736 0.6923134 0.256113 0.22905883 0.30143628 0.16143276 0.21592228 0.8206867 0.74177337 0.12693712 0.13885766 0.38790387 0.933042 0.8749318 0.4108324 0.7626424 0.3495219 0.21291281 0.25731015 -0.012351385 0.9217225 0.08456816 0.24225813 0.8282137 0.32779825 0.9973634 0.6435906 0.16191751 0.24905089 0.19782405 0.17008734 0.2789001 0.2081816 0.74210525 0.08474281 0.40198433 0.5578164 0.092386976 0.7148655 0.38312283 0.19782127 0.5492639 0.43436855 0.99053055 0.8683745 0.056322683 0.83629495 0.8513087 0.017757801 0.940433 0.15325937 0.57492733 0.8988636 0.4777361 0.2913347 0.36718804 0.48353532 0.07558472 0.40740925 0.04166677 0.69500256 0.38544354 0.80516446 0.039124113 0.88893056 0.31703827 0.35931492 -0.004587941
l32 0.2445961 0.15131085 0.85890245 0.16556771 0.32122144 0.37951627 0.03822991 0.9023646 0.41999248 0.3672769 0.11760333 0.39251643 0.21002369 0.81867504 0.5093897 0.07220535 0.75942326 0.69344246 0.0907103 0.053400125 0.68627465 0.26519945 0.87706137 1.0603217 0.40852806 0.37908307 0.5626261 0.41735783 0.62007546 0.47630936 0.40297702 -0.027797349 0.14799532 0.719881 0.3065133 0.5766015 0.5475916 1.0985483 0.7318072 0.9849052 0.41620767 0.39681107 0.96788245 0.95179117 0.47701666 0.19202696 0.83378017 0.7172334 0.03138332 0.5724365 0.18523176 0.1280701 0.29494655 0.53066295 0.3550171 0.11040921 0.13612998 0.62153417 0.23058839 0.20182194 0.75049806 0.44581783 0.129896 0.6337932 0.81030095 0.123143725 0.74494123 0.991765 0.6878458 0.5144215 0.6804587 0.42590997 0.49302503 0.63007563 0.28134066 0.92635787 0.97864664 0.09592925 0.6754464 0.78996754 0.23053372 0.5125546 0.731388 0.60476404 0.12593132 0.5504715 0.23961557 1.044461 0.28875458 0.6568422 0.79393256 0.5372558 0.39549696 0.81382793 0.18358548 1.0309986 -0.0063937693 0.77695906 0.899096 0.046491694 0.17806076 0.67869073 0.6843041 0.7122893 0.5072805 0.785338 0.51632 0.8934977 0.09118673 0.31132367 0.6638102 0.13382667 0.69532496 0.852316 0.1093689 0.87615293 0.4885594 0.4746735 0.79343617 0.70505553 0.44635993 0.342928 0.055255894 0.14584108 0.4014353 0.5666497 0.46864197 0.34871477
l33 0.5588359 0.7009914 0.7955462 0.8137497 0.19900307 0.4237687 0.33332613 0.3261397 0.21028897 0.25348404 0.0629216 0.5681971 0.57646567 0.7386376 0.9329268 0.07385375 0.33498576 0.5822717 0.4803644 0.31539217 0.46290964 0.57399434 0.6625955 0.72413313 0.19285603 0.9333095 0.6118639 0.15391767 0.5479017 0.7917994 -0.00036801051 0.06900889 0.2128669 0.9541253 0.5197111 0.32322952 0.1924799 0.8667288 0.5915275 0.9845844 0.6808142 0.8602121 0.6866551 0.50922257 0.42409986 0.9245075 0.6979978 0.6981682 0.9226577 0.8717711 0.45546207 0.18884028 0.59231836 0.37166366 -0.001291809 0.78656405 -0.029480081 0.8059087 0.74315506 0.6373592 0.31686702 0.6956213 0.7991524 0.115538 0.23047109 0.25966576 0.92059404 0.58891964 0.3754931 0.55313885 0.13865368 0.6067332 0.94643307 0.81976664 -0.11925905 0.5315669 0.95024717 0.8240829 0.6615249 0.3381463 0.6692743 0.09893961 0.7499883 0.5925265 0.1578669 0.8479828 0.6811964 0.74963385 0.7982008 0.8216683 0.27939445 0.21514717 0.07418914 0.41174898 0.0702888 0.1162306 0.8836658 0.17732649 0.6976949 0.48016185 0.29492226 0.7816734 0.6586924 0.7401532 0.8585244 0.601851 1.0428545 0.58564323 -0.042266913 0.75336 0.873274 0.72453046 0.62010247 0.20992693 0.5245752 0.05818279 0.14663057 0.49743402 -0.057648078 0.29602095 0.017245537 0.53349555 0.41242337 0.30327004 0.32900637 0.42730513 0.7406607 0.07518916
l34 0.1782385 0.06335334 0.5594654 0.3934404 0.02365839 0.23572591 1.0477179 0.8850738 0.7519781 0.5063268 0.11136941 0.33400652 0.06969615 0.30498353 0.10221471 0.39094925 0.43600383 0.78477556 0.219329 0.88684183 0.7244374 0.73706806 0.07282657 0.30338785 0.10810845 0.43145508 0.8988066 0.7158725 0.6338799 0.73143303 0.89441615 0.44634128 0.7015085 0.36900026 0.36997762 0.91538936 0.4494996 0.93953264 0.41243187 0.33490142 0.62388545 0.15216096 0.22008556 0.2623267 0.24014476 0.4004477 0.24149264 0.35114592 0.34184596 0.25735158 1.0024037 0.23549852 0.14457506 0.31548503 0.6386259 0.22674674 0.40758398 -0.056155723 0.79472613 0.70183545 0.65952766 0.6932631 0.46996254 0.6121897 0.6887254 0.7527346 0.4471664 0.5619862 0.06827309 0.2667324 0.22651875 0.98955214 0.31673443 0.83567137 0.79746455 0.38017032 0.63348997 0.85757196 0.2892155 0.7087149 -0.0011581492 0.21215926 0.18104729 0.19579676 0.9539572 0.8861644 0.34117374 0.29009563 0.8650079 0.2899436 0.048641052 0.8174998 0.583114 0.1601904 0.17794234 0.29942456 0.42898235 0.57897586 0.24323113 0.6519767 0.21680352 0.109052435 0.44027984 0.4797672 0.64843136 0.9596408 0.17339168 0.07767582 0.69185764 0.46653754 0.79949474 0.3202669 0.21740764 0.7237149 0.79628456 0.32637075 1.0007613 -0.038835973 0.025499834 0.20184207 0.09943266 0.81380135 0.26094747 0.5011605 0.1352413 0.29121274 0.5735558 0.69992316
l35 0.24138139 0.8861705 0.5378598 0.58839005 0.8266984 0.4155205 0.6813729 0.13993602 0.8789614 0.58942205 0.7755648 0.8281811 0.6517817 0.12516807 0.14941086 0.04859921 0.34546757 0.16774021 0.19870031 0.67767787 0.19614251 0.2018925 0.021383965 0.94158345 0.41343728 0.937761 0.5629877 0.79766893 0.694183 0.8120863 0.7325543 0.24206075 0.20934866 0.4094566 0.2164333 0.6457831 0.37642682 0.24506286 0.8466624 0.5232102 0.19515197 0.36834976 0.16723002 0.93231183 0.89497304 0.63528025 0.5521646 0.654007 0.9618163 0.9235568 0.41046047 0.6009307 1.0018593 0.10398537 0.49562633 0.15012541 0.37773937 0.775915 0.66176236 0.36292282 0.73550624 0.89416045 0.9186894 0.008395876 0.3421721 0.4798372 0.11441709 0.55370253 0.49470904 0.6525047 0.42703843 0.41314045 0.6867233 0.4667253 0.68149835 0.28195193 0.15032075 0.9497495 0.8281581 0.15683873 0.08449378 0.22536342 0.8636865 0.23961401 0.37867492 1.0409224 0.2842951 0.47936782 0.16749336 0.43057123 0.7704197 0.26877856 -0.04531894 0.62052226 0.74644583 0.6057169 0.6527909 0.7566017 0.64977235 0.38917208 0.7260317 0.20851606 0.94090265 0.33420676 0.2787457 0.1727432 0.5533174 0.6866369 0.29057315 0.17283884 0.4224024 0.022968577 0.46479553 0.22808935 0.19776465 0.27232376 0.83694696 0.6835716 0.537017 0.41648862 0.037296668 0.66496414 0.48041958 0.62254417 0.5990771 0.14724016 0.25228205 0.51817524
l36 0.20033203 0.16449669 0.8660535 0.42947623 0.82332706 0.3071318 0.10980222 0.8851076 0.4513121 1.0515707 0.53787446 0.7224196 0.005446617 0.3701151 0.16007245 0.41404745 0.28473353 0.11473657 0.2645681 0.114256516 0.79764026 0.82797366 0.5596107 0.5749598 0.70614743 0.12297642 0.27277204 0.11183231 0.15644209 0.8684323 0.8228234 0.20952195 0.050691098 0.48105404 0.8325662 0.8993604 0.88277495 0.41311836 0.76108253 0.82680535 1.0308486 0.82090086 0.5592542 0.7872902 0.692781 0.96239144 0.85639936 0.598937 0.017108679 0.95159024 0.9113246 0.18870158 0.6411611 0.7208626 0.67306215 0.058739882 0.028328411 0.76687497 0.29467997 0.8953314 0.012299627 0.5764923 0.19617504 -0.016003486 0.47398546 0.94074196 0.84596395 0.26821238 0.6367907 0.6838412 0.22935392 0.74984807 0.6060161 0.5216485 0.23897888 0.4914612 0.35475582 0.15344742 -0.032949954 0.14066449 0.23074973 0.823929 0.6630188 0.5949803 0.12628895 0.82312405 0.68078375 0.888893 0.3476168 0.18486902 0.6119028 0.3572348 0.7771809 0.05758188 0.8003864 0.8158823 0.43087775 0.38668892 0.36596164 0.44364968 0.6066922 0.18914784 0.32991803 0.087861665 0.4562785 0.14549781 0.9494071 0.5859263 0.19156972 0.095271684 0.24424453 0.4904996 0.13623354 0.004822664 0.7017325 0.36651573 0.7381745 0.3827801 0.6081337 0.46566144 0.14906336 0.68274623 0.24655166 0.10952676 0.1701884 0.8925468 -0.011894242 -0.056648415
l37 0.42789355 0.16588601 0.00056135794 0.6794746 0.5914154 0.26568246 0.79527557 1.0683218 0.39285657 0.57339865 0.5236891 0.64174354 1.0204474 0.28390393 0.68236965 0.14233848 0.27858135 0.42253232 0.5396797 0.22688252 0.37660003 0.72330874 0.3598189 0.7610578 0.929411 0.59610707 0.65064436 0.54280174 0.6680651 0.8910882 0.9014839 0.91475654 -0.025868636 0.29191542 0.8200089 0.95558095 0.17016357 0.7978287 0.5567051 0.33059448 0.64017105 0.1774712 0.47771472 0.14671904 0.122065656 0.982232 0.8613796 0.15480968 0.7229787 0.73190993 0.940559 0.564164 0.613853 0.5366882 0.0360472 0.0940656 0.18398246 0.82101285 0.17745861 0.7576227 0.6634569 0.41646272 0.66298723 0.28702852 0.09353349 0.5841965 0.70764434 0.36430368 0.7798245 0.72618055 0.52959603 1.0272483 0.13758746 0.46751127 0.30645153 0.74996346 0.6592539 0.31391707 -0.015533589 0.6722614 0.8624023 0.60203725 0.14605407 0.016601387 0.37241182 0.5742648 0.94395226 0.409604 0.34106216 0.6570442 0.8530127 0.91209054 0.8604833 0.47622156 0.10727488 0.6861527 0.4063087 0.34337446 0.24658978 -0.042435892 0.23882501 1.0537617 0.889761 0.11568209 0.84424716 1.000578 0.49774727 0.685963 0.3316978 0.18458687 0.04110681 0.24738893 0.79564124 0.846877 0.52450293 0.14848192 0.7575053 0.25595072 0.025934583 0.798298 0.3230775 0.3727079 0.6168199 0.29014885 0.84456664 0.53207594 0.25193837 0.41584933
l38 0.4452705 0.5378531 0.36521107 0.90263194 1.022551 0.3693389 0.2555707 0.39016414 0.4662153 0.80559844 0.2503159 0.17609182 0.2898697 0.4718859 0.54134357 0.23683642 1.0031022 0.21358514 0.39039573 0.55427516 0.55729496 0.2042427 0.78733337 0.16854632 0.2779092 0.38773617 0.310815 0.7900869 -0.010836423 0.8980822 0.3787075 0.6326387 0.7454869 0.21967362 0.833498 0.11316146 0.40964383 0.70777124 0.13049191 0.1895227 0.22548155 0.6374423 0.27586913 0.88086605 0.8345394 0.4914351 0.70940244 0.25270107 0.037118915 0.14076643 0.10431245 0.03225802 0.11827952 0.708973 0.36145046 0.5805312 0.20215578 0.10181183 0.9453156 0.65660244 0.23520687 0.52059036 0.3770136 0.1997857 0.99989545 0.62395793 0.13275108 0.6666414 0.31104875 0.42740253 0.21825282 0.070117086 0.956186 0.15760306 0.25000486 0.28694206 0.13862123 0.48933282 -0.012014361 0.5136289 0.11255115 0.14581962 0.16333352 0.12689617 0.35055214 0.9519356 0.18195193 0.61960477 0.7028453 0.076157704 0.48440433 0.7576028 0.04090298 0.7406049 0.052883856 0.20656164 0.059050895 0.935582 0.7603517 0.90730536 0.10260009 0.6384194 0.8864412 0.69585437 0.31202367 0.15617001 0.65959436 0.98879176 0.58451235 0.20808937 0.20168827 0.45053494 0.46363676 0.1124149 0.72575146 0.42368352 0.5470612 0.4972462 0.23714705 0.24760902 0.20667651 0.790817 -0.0041440804 0.7206204 0.26773837 0.7782037 0.2582976 0.0956085
l39 0.5933882 0.06366354 1.0040418 -0.12941258 0.7478476 0.71438384 0.8130082 0.94222385 0.9904511 0.51242745 0.9431959 0.82483286 0.4598591 0.5284488 0.21674201 0.5569242 0.85550755 0.20282483 0.20652784 0.7714594 0.3518062 0.7276371 0.7394404 0.15007424 0.67236775 0.3335972 0.2761308 0.6691593 0.05642343 0.40561193 0.8923347 -0.06648724 0.6295593 0.5838684 0.089917995 0.43613768 0.76678526 0.7691317 0.6953622 0.84703434 0.92129606 0.5098405 0.45643145 0.68588835 0.40407023 0.86258703 0.87411153 0.03619152 0.6498608 0.9293302 0.8127526 0.3267758 0.88080716 0.57082415 1.052645 0.44203803 0.8239878 0.6411686 0.70174426 0.90946525 0.3586451 0.8582556 0.83598137 0.32895547 0.07397527 0.7783505 0.6338527 0.68908316 0.21919827 0.1385428 0.44672778 0.6377196 0.34058356 0.1546998 0.7649665 0.4165123 0.91643405 0.65934193 0.8329925 0.8104947 0.6595513 0.041795973 0.2837706 0.8518043 0.3827492 0.6693018 0.5417206 0.38858017 0.19355032 0.261575 0.38408667 0.667991 0.36061606 0.75509816 0.61165565 0.8958494 0.27144969 0.6435823 -0.08461011 0.83386743 0.11577946 0.8569918 0.79049385 0.87427634 0.3588912 0.22810932 0.62279284 0.84053844 0.56897384 0.78761613 0.11175822 0.43229756 0.8848773 0.3108682 0.5081361 0.09824626 0.36252925 0.49484828 0.31561452 0.22710772 0.33855012 0.5936659 0.576856 0.8261697 0.9734012 -0.014653143 0.23740186 0.27978605
l40 0.06735802 0.057033792 0.66873574 0.03114297 0.7782383 0.8761149 0.09627421 0.7333793 0.45862132 0.143467 0.23549889 0.3901118 0.49553 1.0071394 0.91858554 0.43574247 0.15913631 0.5491593 0.35247993 0.8876337 0.077926464 0.23943135 0.39351344 0.25241432 0.58879656 0.562462 0.6454174 0.5182228 0.7557561 0.42303285 0.34914002 0.5565839 0.110083014 0.65684795 0.6198417 0.016672855 0.6959209 0.9413837 0.35055062 0.442706 0.61166644 0.23583718 0.99147743 0.8639348 0.5711409 0.52276915 0.13300803 0.7469643 0.74580115 0.94296485 0.40419456 0.56616354 0.78132665 0.866158 0.98743385 0.817503 0.41423514 1.0557196 0.9948175 0.41022342 0.7835435 -0.05937562 0.59058917 0.77547604 0.5910432 0.59639114 0.46339822 0.5100429 0.124770276 0.28990647 0.12869288 0.8274507 0.34634668 0.15326755 0.5491823 0.7870676 0.5885007 0.5590088 0.14085679 0.09412498 0.81347877 0.7141107 0.86549515 0.1426205 0.54180974 0.7474587 0.91685224 0.6041234 0.55433095 -0.011492742 0.54685277 0.7193338 0.80697846 0.41350394 0.6470728 0.113097735 0.65625304 0.5577666 0.8997082 0.3534171 0.11739855 0.85087436 0.9194468 0.8337463 0.13020502 0.86835724 0.4685819 0.3029969 0.44158745 0.6691993 0.4364491 0.9042801 0.4373337 0.23874284 1.0813379 0.8749672 0.7119074 0.6148129 0.3120304 0.45892256 0.46497336 0.18612072 0.6655358 0.22368476 0.10276283 0.89191335 0.54576236 0.4828361
l41 0.42335403 0.28719693 0.24810436 0.88961315 0.958881 0.018177904 0.7699718 0.5939457 0.96896285 0.7861231 0.4141401 0.87687814 0.041200902 0.9225348 0.359925 0.5531421 0.7285805 0.82904816 0.3439422 0.70367473 0.56567836 0.9287009 0.796603 0.4899682 0.7548313 0.387187 0.92620724 0.9562097 0.055377826 0.23941673 0.2892688 0.22468793 0.50833327 0.22121052 0.43240175 0.73916113 0.61635804 0.9499325 0.89237875 0.5712644 0.34183624 0.51864713 0.064240724 0.89362097 0.2894412 0.8905718 0.4891096 0.63549674 0.23412772 0.70467645 0.53455645 0.78707993 0.3393954 0.96101636 0.26172572 0.16098493 0.10826151 0.51317424 0.35602245 0.8146353 0.6446633 0.40525723 0.9427544 0.3296993 0.6923081 0.11036332 0.29244307 0.88414365 0.12685497 0.82223386 0.8630539 0.19277436 1.008911 0.40430793 -0.0007878898 0.26402068 0.27602828 0.82031465 0.1843677 0.34925675 0.5975361 0.12468092 0.43856508 0.8679955 0.9659516 0.093971096 0.72799677 0.48095 0.7704556 0.025312778 0.927144 0.87496734 0.7592916 0.19343336 0.9023006 0.71415675 0.5401659 0.40144953 0.32453507 0.9850517 0.6601698 0.4124608 0.26350424 0.6435622 0.68267685 0.9116114 0.73902774 0.13554676 0.45974812 0.68190026 0.57957983 0.5256196 0.226486 0.55390745 0.36583576 0.026521312 0.44434735 0.8124357 0.17505676 0.93389183 0.28245598 0.28930336 0.84143084 0.19493526 0.43285695 0.7379529 0.7824454 0.7748509
l42 0.05943167 0.554964 0.85550076 0.046497654 0.4245465 0.75770354 0.71403706 0.7009001 0.2153845 0.55346364 0.6153395 0.14112686 0.5997484 0.8540223 0.9746832 0.36315864 0.14958976 0.11679755 0.33420825 0.433052 0.3337238 0.4591802 0.012771467 0.13261178 0.51149285 0.78099924 0.16315609 0.43472582 0.13928464 0.3506187 0.36587632 0.73578846 0.90777224 0.73126096 0.80155534 0.033484798 0.70749515 0.5210221 0.4607445 0.79185 0.13360076 0.64694923 0.7677364 0.53244334 0.9121982 0.25686654 0.6639942 0.72784936 0.61457 0.5445931 0.15983278 0.2175569 0.3451158 0.2956798 0.82359457 0.40723825 0.00010159352 0.10117715 0.015729198 0.63066 0.29259259 0.57468116 0.04245202 0.49696362 0.50750697 0.798316 0.95723736 0.67168593 0.44334176 0.44851586 0.15686472 0.14552684 0.2485277 0.18271616 -0.087788634 0.28940356 0.71623963 0.8918522 0.48969802 0.45812193 0.8371866 1.0704137 0.5404304 0.89972377 0.15641908 0.7517759 0.34064922 0.7569067 0.74267095 0.05449677 0.20490777 0.49879137 0.2655834 0.28305686 1.0051675 0.961663 -0.028027933 0.94891626 0.5892277 0.8422583 0.49577606 0.40534276 0.93194145 0.9068137 0.7172708 0.059431236 0.9297815 0.6549127 0.44807366 0.8891197 0.6412479 0.355492 0.5687859 0.7459394 0.25904197 0.31832507 0.29870173 0.16068321 0.636558 0.63727653 0.90514964 1.1121796 0.8166095 0.75592905 0.8601383 0.69108266 0.3887432 0.45971015
l43 0.6604483 0.60689235 0.94236654 0.3507363 0.5554466 0.5926338 0.70556986 0.9572902 0.80157006 0.28322446 1.0246934 0.56323415 0.7598539 0.09559198 0.8815327 0.15550244 0.10210333 0.46949205 0.23421352 0.6835043 0.59206116 0.5619985 0.4935241 1.0673854 0.9688895 0.57554525 0.9748754 0.63801676 0.12084476 0.52159005 0.062036272 0.7527958 0.49735743 0.55829024 0.76322 0.7397044 0.8925116 0.5054548 0.4280695 0.19062158 0.96514195 0.43315843 0.8540907 0.92971224 0.8746506 0.6821469 0.9186977 0.49587327 0.3324663 0.4887107 0.51985896 0.8483578 1.0401658 0.17097 0.8417392 0.68382865 0.19944473 0.36326814 1.0418935 0.3060816 0.32556435 0.5626288 0.75492245 0.37898603 0.7305184 0.20608254 0.120647036 0.13811588 0.88232946 0.61837995 0.063688286 0.78718644 0.32369548 0.6853368 0.7985541 0.635351 0.22206457 1.0603294 0.46195513 0.00042771592 0.4852526 0.28408375 0.64496523 0.11491233 0.26621726 0.76331234 0.80888855 0.6704967 0.012050427 0.8122177 0.46607864 0.14596991 0.022239123 0.13421579 0.10177639 0.41318098 0.33724016 0.41665754 0.25685492 0.37805185 0.04764604 0.36814794 0.71314865 0.7018653 0.44786388 0.58100474 0.13547654 0.1788873 0.58282095 0.26950556 0.30168152 0.14749627 0.21848021 0.5352656 0.11218677 0.74378806 0.12178941 0.4885352 0.3944697 0.49368036 0.7878235 0.7749905 0.8753742 0.9002131 0.21741045 0.80057657 0.78796136 0.2688743
l44 0.010351398 0.5915007 0.20831521 0.7375165 0.8889391 0.40043107 0.34159994 0.4458101 0.15563837 0.34773642 0.8335551 0.63082033 0.23337066 0.21510622 0.9608997 0.50152516 -0.0063180346 0.21967463 0.16354983 0.7703024 0.754835 0.827742 -0.09368554 0.9633538 0.08955296 0.08826174 0.19441512 0.94588876 0.95038146 0.88179874 0.5145703 0.88887393 0.47510624 0.3196444 0.08394207 0.6138177 0.82524025 0.93198735 0.37676296 0.22157396 0.37183604 0.68156475 -0.025718465 0.16450576 0.6629184 0.89269596 0.2584985 0.27258515 0.8489517 0.15163578 0.055827554 0.15431799 0.600751 -0.096935615 0.5565252 0.66605335 0.010661512 -0.09804205 0.6837019 0.24924399 0.55493915 0.5130986 0.27655184 0.7517854 0.6168329 -0.016509747 0.9390135 0.28582993 0.52573895 0.7809293 0.21177901 0.88206595 0.39424843 0.88151735 0.58995223 0.27332747 0.53577137 1.0598038 -0.06850171 0.46268317 0.70838326 0.01667279 0.44683194 0.6025449 0.4934365 0.2813936 1.0295894 0.6174714 0.8142666 0.5075949 0.020380452 0.52101463 0.8538527 0.04944681 0.96207416 0.73270285 0.5360336 0.97764975 0.25474906 0.9208647 0.80112493 0.13103403 0.46878698 0.71352106 0.2942419 0.21267444 0.71492165 0.8590848 0.69284385 0.003672605 0.61551404 0.030479655 0.22834015 0.73504287 0.5913571 0.29611075 0.5525469 0.6247872 0.45228654 0.40457284 0.21993293 0.62998134 0.20862417 0.08222092 0.2887651 0.8369291 0.42117462 0.6651488
l45 0.48594022 0.76117694 0.18021588 0.5940363 0.65922594 0.4588226 0.095561236 0.713811 0.5150396 0.62443435 0.65743923 0.12925647 1.0369222 0.30471706 1.0842947 0.5684478 0.7256747 0.64375216 0.7722341 0.999166 0.16231993 0.1816635 0.015205023 0.39789084 0.5895535 0.6397394 0.9750444 0.1946888 0.4695772 0.04764543 0.37297788 0.7760147 0.5809308 0.4970334 0.3298397 0.18911445 0.8900009 0.5468646 0.063244045 0.76143605 0.023407385 0.7917625 0.42156604 0.063656084 0.43386558 0.89610195 1.0385873 0.53447104 0.99696463 0.1151679 0.5595273 0.51666933 0.8597487 0.5781319 0.73725176 0.7267734 0.38125783 0.85760546 0.25650004 0.44155943 0.756816 0.8948714 0.6237716 0.07004794 0.9328696 0.8010486 0.22188424 0.97241044 0.9148768 0.118432984 0.8561986 0.81469154 0.5662612 0.6887219 0.24952212 0.77376515 0.91644675 0.8793188 0.16738118 0.11979458 0.3012927 0.6308044 0.9131283 0.6393371 0.16656196 0.5749438 0.11790908 0.44048285 0.10544642 -0.053096246 0.9130014 0.93018085 0.17442472 0.8159656 0.7293666 0.6629825 0.33064637 0.6167129 0.15354365 0.75295264 0.5623108 0.2841896 0.6830963 0.80258495 0.83632714 0.69008493 0.7782746 0.05341921 0.30033627 0.7320469 0.6463944 0.8206277 0.7104262 0.14230645 0.8742369 0.8563462 0.9114892 0.4860075 0.6531846 0.6290843 0.30759978 0.8589057 0.7034257 0.46999893 0.048497148 0.11798038 0.2240403 0.84436494
l46 0.47647315 0.5760538 0.01637967 0.05446672 0.5617537 0.6435723 0.18878268 0.35005358 0.63369435 0.17114964 0.8948435 0.50920445 0.5115291 0.47368407 0.62434167 0.8559762 0.21499866 1.0744722 0.19255105 0.15705752 0.660129 0.1653294 0.73124593 0.6735384 0.38920045 0.20064768 0.34963527 0.31654736 0.4929557 0.6642003 0.6472297 0.14662501 0.3975679 0.6822734 0.3027312 0.6538298 0.6448376 1.0664163 0.82317114 0.78318435 0.34147096 0.52884334 0.34698486 0.4124093 0.20973879 0.84626955 0.45225492 0.5353986 0.033499397 0.71543235 0.92514175 0.059789196 0.3468481 0.14994286 0.6380961 0.3824936 0.074916616 0.6054671 0.35900563 0.7179503 0.4959567 0.09604306 0.732071 0.45866728 0.42041844 0.8281532 0.4400224 0.78711927 0.4074261 0.66294515 0.9729761 0.7736594 0.7975678 0.633674 0.42039382 0.55217487 0.32821283 0.78776497 0.79384965 0.332871 0.64469975 0.22585362 0.13016744 0.066679515 0.7332699 0.995478 0.90140045 1.0367986 0.24352038 0.47567296 0.7011402 0.47913405 0.7459699 -0.022556555 0.4044114 0.13166001 0.25375968 0.15951641 -0.012930819 0.74366885 0.60569465 0.29901278 0.060887687 0.42194062 0.95175946 0.23281005 0.3560939 0.17905092 0.3037559 0.22898884 0.46837172 0.94658095 0.32393408 0.3607056 0.6525195 0.6212072 1.086861 0.5268752 0.6304304 0.81471753 -0.040219553 0.41778502 0.7895284 0.3994727 0.49614033 0.32786193 0.024796551 0.08774431
l47 0.2688865 0.046116643 0.75270766 0.4333828 0.5444938 0.22272173 0.2813848 0.7644563 0.3104413 0.21713164 0.5621269 0.2683241 0.65450877 0.11410089 0.90003294 0.92441523 0.5141869 0.9112263 0.84541243 0.31721902 0.5644187 0.67350996 0.32639194 0.98332 0.4485304 0.29290703 0.49926004 0.94128823 0.17731285 0.79027575 0.0987694 0.12555769 0.8830421 0.56272614 1.0166193 0.8806372 0.38772786 0.5300788 0.49022424 0.082800545 0.22541483 0.44195113 0.26207125 0.61215544 0.8874478 0.4386727 0.4913442 0.10540087 0.9908699 0.6907309 0.83615375 0.0132019175 0.9938227 0.30588385 0.51934046 0.016711166 0.530496 0.3308141 0.17188683 0.7007374 1.0592053 0.32787082 0.30023193 0.3651916 0.7090464 0.6718012 0.49591282 0.9408483 0.19728632 0.34390017 0.54329854 0.6934877 0.7838876 0.16712378 0.2275003 0.5841339 0.48178244 0.4434845 0.62940055 0.5748114 0.32852593 0.48893198 0.35659418 0.21743493 0.7131376 0.093929894 0.23706725 0.46109635 0.20502299 0.16215628 0.4325655 0.9801957 0.6226592 0.71692497 0.21495168 0.6105667 0.111629754 0.5358548 0.7230084 0.42913538 0.72376704 0.66766244 0.16175914 0.9078241 0.6888142 0.8097045 0.68733907 0.7250295 0.75943434 0.0870521 0.6756119 0.2828318 0.2388667 0.46606082 0.32933557 0.82238877 0.6729958 0.47510484 0.12946981 0.521162 0.025342686 1.0364025 0.6309713 0.6689642 0.681158 0.85006267 0.17288113 0.26614496
l48 0.5109481 0.49778944 0.4851777 0.8219569 0.08920343 0.5361783 0.32599184 0.39708832 0.38762292 0.42284012 0.45346493 0.15070231 0.22568636 0.8587723 0.10981279 0.15147124 0.075461276 0.8872973 0.87930685 0.92475945 0.10710051 0.30307567 0.43370512 0.49528062 0.25968271 0.49790657 0.28763136 0.4309485 1.0549021 0.32963103 0.23246773 0.9748167 0.031054053 0.63149726 0.9069676 0.554188 0.9681641 0.26174572 0.17228678 0.96921515 0.6427052 0.45909825 0.101407096 0.41303766 0.47805586 0.08168907 1.0658776 0.6229316 0.57324046 0.7384774 0.6668756 0.8369381 0.20863302 0.6254745 0.40630105 0.29692706 0.2606873 0.38818902 0.6792784 0.20606203 0.8855635 0.06419875 0.5833879 0.8300811 0.09267185 0.8697054 0.13516049 0.70172334 0.02654787 0.16741079 0.85050905 1.0195662 1.0030069 0.46144614 0.7060002 -0.012358175 0.9978817 0.36189753 0.11427977 0.58454376 0.7677221 0.5584928 0.50219136 0.13618025 0.58309484 0.961533 0.2946655 0.0348284 0.53470284 0.049964122 0.7840126 0.87849206 0.1931252 0.2649897 0.88834184 0.90873355 0.7598066 0.17809685 0.95256704 0.5200495 -0.031767275 0.5830485 0.2623352 0.10452898 0.26660094 0.20442145 0.22323658 1.0476141 0.55463254 0.37490782 0.8322639 0.64419496 0.3931748 0.21182428 0.6048081 0.4971881 0.662155 0.30713016 0.44765884 0.70460767 0.7362387 0.89249164 0.16478874 0.8947829 0.74300057 0.38384783 0.2993332 0.13094854
l49 0.30427274 0.49641937 0.21176696 0.014238088 0.8882651 0.60245895 0.40279678 0.50468147 1.0624046 1.0244488 0.42985004 0.13224015 0.076140806 0.4589869 0.5839801 0.5540741 0.6342405 0.19474499 0.3840924 0.7975823 0.59888476 0.6213346 0.35423166 1.0599597 0.96396065 0.46276528 0.6976184 0.5955358 0.7545271 0.82746524 0.94002134 0.94433874 0.27361256 0.8348875 0.46395838 0.38037458 0.93672657 0.28581595 0.61639476 0.5357417 0.69358224 0.19716986 0.85373694 0.81243074 0.8251567 0.69578826 0.15089898 0.59290457 0.8033535 0.32063562 0.77231276 0.87593395 0.31289202 0.6013058 0.68692696 0.8477634 -0.012174286 0.82609147 0.13233125 0.9539742 0.97098356 0.66820943 0.6352077 0.934702 0.047960397 0.5738963 0.73934764 0.53757197 0.8023379 0.9258847 0.6146786 0.35829562 0.7106392 0.19262284 0.5799473 0.6824493 0.8776899 0.8582179 0.034110054 0.8407657 0.82184446 0.7762153 0.03415479 0.3727165 1.0592606 0.7009585 0.90175104 0.29662132 0.22605528 0.36696604 -0.03399079 0.7282774 0.5969113 0.9461366 0.7925456 0.90042347 0.25392863 0.15851957 0.020442065 0.28049323 0.7872651 0.18827662 0.31461844 0.27333778 0.8393311 0.6154328 0.084500745 0.49569517 0.9811877 0.13867147 0.65772885 0.82930875 0.78798985 1.030791 0.48246634 0.080030926 0.6870905 0.2820877 -0.0713619 0.8602752 0.39370182 0.15818672 0.3172635 0.5786771 0.42075783 0.013516756 0.8928918 0.6485474
l50 0.11074686 0.41102144 0.84025186 0.17150752 0.47780126 0.5330219 0.6890388 0.47456306 0.49413073 0.9350952 0.70433694 0.17098615 1.0172153 0.5692083 0.76475435 0.4647964 0.43143687 0.83134097 0.46901226 0.24577089 0.29970813 0.55410963 0.6691255 0.24797 0.37864545 0.48106968 0.92069334 0.6414342 0.6117927 0.0027188396 0.6526482 0.33360854 0.2561333 0.5753041 0.89615965 0.112360686 0.8164882 0.62872154 0.5094828 0.26880565 0.23555472 0.4745512 0.5809168 0.018474996 1.0817754 0.0683094 0.9991989 0.65675205 0.91690195 0.69124204 0.6726287 0.85336983 0.53152424 0.716647 0.65513736 0.83581746 -0.12734064 0.10174519 0.718948 0.58776194 0.19570018 0.16622742 0.26155585 0.8034987 0.5174754 0.259441 0.92204833 0.85989296 0.27173045 0.4908302 0.5815302 0.8596662 0.45951524 0.27079943 0.4184425 0.8504059 0.20655231 0.07384572 0.6347719 0.18018949 0.97980064 0.4749286 0.1437523 0.5608451 0.59437513 0.9907802 0.7055654 0.26100767 0.3530648 0.8503845 0.13217287 0.48772863 0.1959958 0.72195846 0.84373254 0.54935443 0.30457544 0.88025945 0.1562117 0.714052 0.7378447 0.17793165 0.8703389 0.5736004 0.7827793 0.05536107 0.27018666 0.78009593 0.15749668 0.71680135 0.91868687 0.4359239 0.4854147 0.3916238 0.16448453 0.4263434 0.2892337 0.2895273 0.7554032 0.9635782 0.51269966 0.65273577 0.431284 0.9898362 0.8882996 0.4295145 0.7527157 -0.097903185
l51 0.619223 0.17034425 0.1743266 0.8061599 0.74966156 0.25658703 0.481487 0.50109065 0.47516283 0.25189027 0.39060423 0.93974996 0.41534138 0.49727258 0.4733558 0.620071 0.13369732 0.92939764 0.45418692 0.020513793 0.2725823 0.59950906 0.892757 0.6163051 0.43216348 0.76289076 0.14553122 0.73931324 0.8270572 0.39288127 0.33678412 0.84113073 0.25478908 0.6724008 0.19565442 -0.019828118 0.84636074 0.13750687 0.5413666 1.0795543 0.34467292 0.053678647 0.35852852 0.851482 0.5854935 0.05615483 0.342535 0.40087593 0.019858206 0.50115067 0.57721597 0.7599027 1.0044513 0.01496951 0.8953651 0.8386805 -0.039343085 0.13552788 0.14470682 0.39147234 0.36356196 0.058479767 0.790022 0.57980084 0.804608 0.066400915 0.4875811 0.879581 0.38927153 0.4258991 0.3831873 0.26136497 0.13919358 0.848474 0.01486391 0.0820562 0.18125752 0.39537644 0.91578245 0.6576407 0.7710765 0.64737844 0.19780344 0.6433831 0.7625133 0.8882056 0.42451698 0.32178062 0.85436887 0.6410429 0.8126677 0.071012564 0.83689076 0.06250277 0.9133129 0.28774053 0.19657588 0.15795738 0.89600015 0.6821083 0.038710985 0.3681318 0.7525101 0.83673507 0.4601612 0.3155151 0.08130079 0.30185762 0.21911196 0.37891552 0.5757971 0.27254394 0.4862587 0.30843985 0.33280575 0.3292818 0.14585228 0.8515243 0.41335183 0.7080234 0.5681933 0.109610304 0.2845017 0.047694407 0.8782248 0.27290103 0.44205502 0.4655625
l52 0.509672 0.14397103 0.5294595 0.65155125 0.28246522 0.92305696 0.797344 0.7069774 0.8775593 0.94121397 0.07492425 0.5066793 0.39871624 0.6235657 1.0648485 0.8599961 0.60968053 0.3916329 0.32605943 0.05713922 0.30820137 0.3008966 0.21929333 0.6142874 0.85055876 0.6870416 0.7325413 0.8885914 0.6708273 0.35452512 0.30240512 0.04775205 0.63163435 0.24090703 0.82512194 0.29770485 0.38003716 0.79880834 0.14137124 0.43417603 0.39319205 0.7038212 0.8576236 0.36193785 1.0216233 0.49669334 0.6396878 0.33310375 0.1780191 0.5874548 0.7372794 -0.010013034 0.506667 0.7556684 0.321149 0.8705055 -0.026613818 0.24169132 0.59484786 0.0058389585 0.53225607 0.40078974 0.18779847 1.0202408 0.36221153 0.72888076 0.59973675 0.8631945 0.09219503 0.6617006 0.20326972 0.20479152 0.95704705 0.113285996 0.086144805 0.4494169 0.35258135 0.46498057 0.26176545 0.25181243 0.76981395 0.78484255 0.92403567 0.5402441 0.26268423 0.18931581 0.17092006 0.8676151 0.14082476 0.69649875 0.8539031 0.77906674 0.6061165 0.86356676 0.79214525 0.9592001 0.8364911 0.2553783 0.136962 0.725658 0.6457918 0.36590347 0.69565916 0.51406115 0.74364036 0.27720806 0.7163141 0.3764271 0.35488352 0.6210632 0.19871248 0.30135852 0.55710196 0.26791245 0.680782 0.6416258 0.7676077 0.66232634 0.43732166 0.6038386 0.007458645 0.17545666 0.052895155 0.60177976 0.06748094 0.41554853 1.0031357 0.43948865
l53 0.42127082 0.5447785 0.47947073 0.48840785 0.6257038 0.73331404 0.35907623 0.16623609 0.32084468 0.8746584 0.35330608 0.33014604 -0.061287213 0.21088487 0.22205684 0.4174639 0.3118554 0.7053925 -0.09713296 -0.006366092 0.40930733 0.63761663 0.62237346 0.92624396 0.91258645 1.088247 1.000556 0.37916332 0.5907508 0.4164225 0.52998 0.63256174 0.21244471 0.27235687 -0.06566604 0.36775285 0.7451062 0.004342107 0.6538208 0.6990802 0.17621282 0.34036288 0.49617365 0.7816853 0.40743116 0.1709272 0.41277274 0.45819908 0.19750766 0.6512065 0.2105255 0.6964362 0.56138176 -0.055317324 0.3274214 0.56122446 0.4031505 0.57503194 0.57140344 0.9499829 0.6406252 0.3708361 0.8894216 0.11570356 0.1557912 0.67537737 0.8770167 -0.008241338 0.60024035 0.46504185 0.04182137 0.29983532 0.97134185 0.4148024 0.5519029 0.95557356 0.16640201 0.8853622 0.5457267 0.7439862 0.97102284 0.1807341 0.36481348 0.6045882 0.8187726 0.48001736 0.21417728 0.40222478 0.44374081 0.6889868 0.9172466 0.23492521 0.828365 0.4481009 0.4831314 0.8317342 0.7859283 0.85586834 0.7471635 0.2813359 -0.0057315426 0.38435706 0.49701968 0.38805687 0.6708981 0.13076109 0.7953617 0.32248306 0.88566774 0.4393023 0.06438976 0.29038754 0.116466336 0.15831298 0.0730315 0.42109618 0.48312187 0.6578881 0.38836783 0.7659034 0.04116507 0.7901464 0.5970156 0.4727307 0.4059271 0.19461189 0.117500335 -0.05968857
l54 0.46764427 0.29951185 0.56031775 0.064305276 0.92423755 0.1706645 0.7239443 0.043741886 0.33652982 0.34026855 0.4543511 0.65958637 0.54764086 0.3189036 0.28487208 0.30267248 0.89080036 0.30616578 0.2710544 0.30629385 0.37493786 0.17747751 0.97646284 0.96313536 0.79646814 0.3234656 0.004476896 0.215618 0.29639763 0.20713161 0.34865844 0.8873575 0.19864035 0.45293507 0.53028464 0.88788843 0.5566399 0.59867555 0.6344962 1.05616 0.41060832 0.36451665 0.29271132 0.7998237 0.067336 0.125234 0.45073825 0.94520795 0.45917442 0.18835677 0.9298012 0.047353953 0.63139975 0.19250093 0.33539099 0.2086261 0.25433657 0.51323736 0.54563904 0.49735445 0.9849455 0.73692733 0.50176245 0.26990023 0.5389833 0.33942434 0.53554434 0.017410189 0.32078618 0.80247134 0.28125125 0.7897277 0.8027535 0.14895764 0.47857803 0.0018555259 0.33757937 1.0168561 0.05704186 0.61836153 0.5095205 0.59827286 0.48967907 0.82154155 0.38602123 0.15727963 0.17463596 0.7710734 0.773444 0.30835024 0.698829 0.7737973 0.07622462 0.12258976 0.30927676 0.7905819 0.2951417 0.68841076 0.020711772 0.10786957 0.68170035 0.7123374 0.8844662 0.701758 0.26476812 0.029627286 0.5118242 0.9307645 0.348111 0.89330167 0.55785626 0.14992996 -0.12795326 0.2152878 0.09504505 1.0154232 0.21319373 0.09375077 0.15348262 0.44988513 0.5408695 0.8690601 0.39942086 0.4945798 0.65469426 0.09940062 0.26957676 0.41424352
l55 0.6101244 0.015642323 0.3037529 0.6899867 0.20876549 0.14132333 0.55933625 0.5971578 0.8463535 0.29511258 0.79368114 0.6634633 0.29184753 0.5153495 0.27463543 0.70948476 -0.09919351 0.8761073 0.6862123 0.79180163 0.9136044 0.30679014 0.87949353 0.5190205 0.25284737 0.65169704 0.24318887 0.36451548 0.6250734 0.17472272 0.24775109 0.7366432 0.33830187 0.2673823 0.22630607 0.7385569 0.7401334 0.7701894 0.19366321 0.8719513 0.7836722 0.11668111 0.8936728 0.87816286 0.8555755 0.48634174 0.17213945 0.36278078 0.43558958 0.11420104 0.655256 0.22692093 0.3949279 0.63331807 0.9395189 0.5291638 0.12179523 0.6127636 0.06159889 0.7447042 0.20222288 0.5584613 0.21037365 0.59307617 0.93574625 0.40176395 0.15568845 0.52231336 1.0002235 0.3695665 0.75614804 0.59294814 0.96622413 0.08565013 0.2950987 0.51743644 0.7484586 0.559772 0.50131583 0.41863066 0.66708094 0.13655056 0.4790832 0.31532672 0.89671075 0.46359113 0.3692373 0.9367991 0.3509384 0.18349536 0.43611822 0.78306097 0.26960212 0.3529367 0.8856336 0.38727877 0.19386713 0.9496286 0.1482143 0.4862721 0.6321294 0.256284 0.87280136 0.052995622 0.99638754 0.18036772 0.31981108 0.2268114 0.7898014 0.61325675 0.94614226 0.8261674 0.44650188 0.798672 1.0293684 0.6396501 0.17594153 0.08062443 0.52035606 0.3971108 0.6321901 0.91725713 0.34494862 0.6910363 0.006347278 0.13183893 0.4707252 0.1009302
l56 0.31161737 0.045149807 0.16123354 0.08242148 0.9605761 1.0290279 0.16198413 0.35621884 0.1159429 0.7311284 0.3784084 0.3883665 -0.08286818 0.44081515 0.6066066 0.7773365 0.55566406 0.8864406 0.731326 0.86130595 0.5510127 0.9160838 0.05957665 0.5029877 0.07237355 0.7906607 0.59924865 0.6878953 -0.05219377 0.89460635 0.67829686 0.63893497 0.027349817 0.067880996 0.5528562 0.32863912 1.0559267 0.21016315 0.11069302 0.86748135 0.5753083 0.4011016 0.12013427 0.6603658 0.81463647 0.17325561 0.32851565 1.0753572 0.67875886 0.8217088 0.14602979 0.029128736 0.7075714 0.032794498 0.9623892 0.20077655 0.26579684 0.40044272 0.74997264 0.40772286 -0.034544326 0.9846906 0.7972727 0.6021297 0.6694033 0.30827174 0.711285 0.18750522 0.75030756 0.61017364 0.90111405 0.8325538 0.48081937 0.7220169 0.804773 0.32563758 0.31655288 0.68145573 0.48584047 0.79071605 0.4500631 0.3225444 0.13573207 -0.015505446 0.38659477 0.5387894 0.093048595 0.77625525 1.0214884 0.7027518 0.21889657 0.3763858 0.08609144 0.40691093 0.73769605 0.26290956 0.24131665 0.8718628 0.8940327 0.16707188 0.23086604 0.48893875 0.7276847 1.0439066 0.7864191 0.2527565 0.9099015 0.6538363 0.18595484 0.03436656 0.7268362 -0.05159252 0.7275889 0.9097662 0.81486833 0.630659 0.221868 0.24887799 0.23500486 0.3529493 0.8620748 0.8663998 0.30655986 0.7391145 0.54042864 0.8726892 0.6732071 0.07983486
l57 0.31442374 0.70160323 1.0415876 0.040793214 0.41141486 0.17101456 0.73092747 0.90871596 1.079371 0.37028402 0.6053268 0.729453 0.6312464 0.8780814 0.25412413 0.7048713 0.86645705 0.19516496 0.29197812 0.19251436 0.30653852 0.054857507 0.8592427 0.22182043 0.7108152 0.7825765 0.9364778 0.40645334 0.41424516 0.74184465 0.7222851 0.52731955 0.9470439 0.9849167 0.5735304 0.5193509 0.43194738 0.64295745 0.6324385 0.7778716 1.0416102 0.9458967 0.12940772 0.7397901 0.36571816 0.8779759 0.82067055 0.72423375 0.38253385 0.36662495 0.20773968 0.2438235 0.94549334 0.911243 0.51589394 0.53624475 0.7281016 0.98903865 0.46945837 0.43056238 0.62948394 0.528003 0.8916261 0.067315474 0.97989017 0.913865 0.34856692 0.79353523 0.25085473 0.09703037 0.433056 0.46784306 0.12062927 0.30865833 0.04584233 0.8466089 0.87147075 0.49876076 0.18032902 0.09154098 0.103232466 0.2672092 0.7840813 -0.11072597 0.46406206 0.32958052 -0.0146885775 0.33334407 0.8616967 0.8698251 0.6907495 0.82110137 0.5594263 0.800962 0.06809457 0.51735204 0.21957102 1.065265 0.81720424 0.34406158 0.06455188 0.5666381 0.10957017 0.5253442 0.07084631 0.5416942 0.16315919 0.55991584 0.88993526 0.3371465 0.7341838 0.6994037 0.9826828 0.5181452 0.7140017 0.56895304 0.8693079 0.73403376 -0.083577074 0.7837066 0.72563404 0.8607204 0.3118224 0.05775517 0.86019653 0.7012011 0.6876935 -0.06334396
l58 0.271053 0.96857935 0.5573391 0.0585428 1.0247017 0.08315012 0.30924997 0.89925265 0.41447705 0.0883263 0.85783845 0.0034308776 0.98818654 0.30778664 0.9974317 0.80023235 -0.056093674 0.7487078 0.8955772 0.049968764 -0.0019118226 0.11241399 0.6779824 0.4677274 0.5350528 1.0181879 0.10690809 0.29915425 0.7912982 0.2200766 0.13140406 0.8476806 0.7280713 0.11112653 0.81510174 0.69347507 0.22718874 0.48710877 0.38884753 0.5467722 0.93197423 0.059371177 0.25588846 0.20500821 0.23557408 0.49590293 0.9119352 1.0190958 0.6130672 -0.09424672 0.66525656 0.619182 0.5392247 0.5628874 0.4864321 0.62161976 0.3511699 0.39148498 0.0977475 0.64810807 0.75354713 0.91604215 0.666398 0.29127634 0.31420794 0.06880883 0.4584178 0.85270834 0.6425268 0.11070687 0.38210532 0.36928898 0.5770634 0.8852056 0.5336771 0.5321498 0.031822044 0.32808068 -0.0607537 0.7021203 0.6192081 0.7872658 0.83399135 0.9257289 1.0035478 0.19389264 0.8168512 1.0146208 0.5421016 0.06578209 0.063402906 0.056469068 0.31558523 0.44612852 0.27278358 0.16940123 0.55547833 0.9343424 0.3298779 0.54811573 0.20364971 0.65876645 -0.009627098 0.5490737 0.8578869 1.0543765 0.18519798 0.23270124 0.95622957 0.7488161 0.11244599 0.911945 0.5390319 0.1381753 0.52869785 0.82542795 0.072316624 0.14102216 0.53253263 0.18611915 0.030696219 0.8530305 0.10079843 0.2251768 0.6523608 0.70634526 0.34112883 0.85852754
l59 0.77713275 0.18344453 0.2762186 0.51817334 0.42861056 0.261212 0.31136733 1.0867354 0.37964505 0.86110103 0.41938302 0.12663554 0.37377116 0.41230154 0.39322376 0.31910488 -0.053165685 0.13773707 -0.013208997 0.24612272 0.6852522 -0.004511248 0.85477144 1.028598 0.4534728 0.6340164 0.25555602 0.9972172 -0.055895776 1.0102702 0.7129656 0.31271738 0.8312893 0.38831866 0.6840647 0.27982754 0.8377221 0.31588018 0.65320104 0.43315455 0.40556246 0.17339446 0.24973224 0.7587137 0.3688837 0.7064432 0.44720778 0.7470707 0.44032958 0.113930956 -0.021650197 0.55020326 0.538684 0.4816226 0.5050916 0.19541417 0.026419224 0.21474251 0.8112872 0.20421886 0.27992472 0.9095486 0.25086114 0.3269656 0.53226334 0.42996204 0.8510465 0.13585342 0.829895 0.32456765 0.5906446 0.9178226 0.21440645 0.7117446 0.30962276 0.49890757 0.24827392 0.36271387 -0.07254055 0.0035206883 0.44538411 0.43045408 0.7169411 0.72088146 0.94355345 0.4193133 0.62544787 0.5930922 0.13424854 0.15809312 0.5726058 1.0070691 0.6032157 0.7018344 0.213908 0.4326086 0.2067566 0.10302044 0.89738226 0.13929082 0.12345948 0.21815602 0.8974086 0.9452099 0.58513665 0.5864724 0.4923036 0.18689865 0.8071881 0.2216905 0.59983075 0.3249552 0.4608569 0.43267736 0.6707163 0.20365624 0.18745391 0.6438602 0.2500283 -0.019673295 0.39135438 0.7671493 0.55782115 0.16318445 0.6358015 0.3375193 0.92679036 0.0652033
l60 0.4444325 0.036722414 0.68941545 0.639454 0.354365 0.4609824 0.74949014 0.8957669 0.95155793 0.90724003 0.26886597 0.5187839 1.022246 0.16801307 0.4591295 0.22571206 0.42595875 0.41928557 0.5334481 0.07265702 0.6202985 0.1295358 0.21651705 1.0499469 0.47503364 0.5963739 0.10317658 0.68582165 0.46279603 1.0006927 0.0853006 0.9379396 0.58312374 0.63740796 0.7428421 0.563472 0.73337394 0.45540243 0.4152519 0.23310716 0.19370562 0.59832656 0.74982065 0.77841884 0.83374494 0.89688283 1.057646 0.6577395 0.70452315 0.03331213 0.6973712 0.68221635 0.3400392 0.18906464 0.73118496 0.7796638 0.65354955 0.56268346 0.5381377 0.6399105 0.40744004 0.18757308 0.105813794 0.6587721 0.13898525 0.8381645 0.41699633 0.30157968 0.8827352 0.7321724 0.04729372 0.4128987 0.110745706 0.2629438 0.22765653 0.69808215 0.6181317 0.5671115 0.86500925 0.61325985 0.63026685 0.5069789 0.38792706 1.0649894 0.99379444 0.59775376 0.25928128 0.5659147 0.9647361 -0.066191204 0.4036849 0.464425 0.24174885 0.54005325 0.6433901 0.44542906 0.87504405 0.20192564 0.057909265 0.7991065 0.6647883 0.87649965 0.29566526 0.30612043 0.3713017 0.9302716 0.9449059 0.6246719 0.35841465 0.13284266 0.6847641 0.46779457 0.06585346 0.45585907 0.014803444 0.26961035 0.43754554 0.0070892186 0.63766265 0.021909678 0.32370344 0.39178872 0.7426532 0.2889599 0.23177643 0.6214103 0.06429687 0.43573782
l61 0.8828498 0.33971047 1.102243 0.23145339 0.5148906 0.36608592 0.6268211 0.54487723 0.71112764 0.74378157 0.59295243 1.0566701 0.23235762 0.3741853 0.89128643 0.8066216 0.5374765 0.7654668 0.5182298 0.07893205 0.52792656 0.13832164 0.5998089 0.11209073 0.120397806 0.4421728 0.0719267 0.5757244 0.38942298 0.28277987 0.39787996 0.76630306 0.89595795 0.43887863 0.8645462 0.4886543 0.9094477 0.38531727 0.41514596 0.5077295 0.104607426 0.97269213 0.6566655 0.65479076 0.8292261 0.3561814 0.45474374 0.17818566 0.39382735 0.4422028 0.22729702 0.2933982 0.38770643 0.5095255 0.25333947 1.0004116 0.8922717 0.9233721 0.45005772 0.5548678 0.18330228 0.9111188 0.8570794 0.3017972 0.37666175 0.8115363 0.29005334 0.70709825 0.28008416 0.7543434 0.2876344 0.054941423 0.96761507 0.97362286 0.22117183 0.045848824 0.82628584 0.079403564 0.66923356 -0.035593588 0.1333526 0.55397725 0.7206579 0.1363517 0.66748583 0.36293143 0.71937275 0.79203534 0.2549282 0.48671392 0.15883584 0.7632948 0.27202705 0.27980357 0.7332163 0.27107534 0.26465026 0.270226 0.818906 0.16431253 -0.015944097 0.44835445 0.47162306 0.47782868 0.19175588 0.5604153 0.55772436 0.8206762 0.51139426 0.23700519 0.94658625 -0.08244495 0.46111876 0.07510715 0.47677952 1.0803397 0.03581448 0.20851643 0.342092 0.17587456 0.47531164 -0.10139609 0.8168353 0.27427104 0.42525882 0.44957128 0.27064607 0.45189697
l62 0.06298531 0.80657065 0.8225428 0.662792 0.3371943 0.23695143 0.636766 0.16089678 0.66219646 0.2568559 0.648006 0.3967515 0.49042296 0.1295055 0.63100696 0.8859077 0.86324537 0.9250911 0.51894003 0.898572 0.72872233 0.86072105 0.07802754 0.5189829 0.38911164 0.7789995 0.7513013 0.76696944 0.06915438 0.5588921 0.0013902811 0.28966895 0.059665635 0.54472953 -0.017982982 0.014239467 0.7515822 0.6061193 0.1225865 0.17874567 0.07181136 0.96969473 0.7235556 0.73553634 1.0425762 0.41285118 0.96500087 0.21107534 0.7053857 0.69496566 0.8742556 0.15409456 0.9629116 -0.11159878 0.29817468 0.9970988 0.83453816 0.52219784 0.16073553 0.68041545 0.8139151 0.36755377 0.18943734 1.0242872 0.58467364 0.11416795 0.9505739 0.6106774 0.051173564 0.8886049 0.5909946 0.47567093 0.5842371 0.36938313 -0.09877679 0.22591661 0.7478901 0.48138258 0.47650823 0.22125335 0.063372865 0.39634767 0.68563545 0.34257808 0.7057981 0.17515537 0.2510268 0.19010513 0.7735664 0.8303071 0.30086002 0.84029424 0.8711692 0.94703937 0.3902064 0.35814744 0.84917736 0.31009167 0.12066673 0.0831615 0.45763886 0.8786322 0.8614867 0.5939719 0.3210106 0.51479524 0.78515965 0.26000345 0.473293 0.18166515 0.08361985 0.6876426 0.730717 0.9371785 0.34524673 0.766008 0.28028414 0.18014456 -0.055609863 0.48855877 0.32778218 0.13902915 0.21485977 0.35133776 0.83388376 0.85215276 0.8189354 0.24899484
l63 0.9230358 0.35267577 1.0542504 0.2026772 0.6871479 0.3283416 0.34504527 0.580404 1.0247304 0.53680307 0.23668203 0.8352877 0.7299217 0.66360414 0.13122027 -0.03257685 0.49806347 0.5372681 0.06836585 0.012376747 0.4912353 0.04307204 0.11490127 0.92743075 0.16844967 0.95395243 0.9682974 0.1989944 0.45947295 0.048968013 0.7682122 0.769548 0.84067214 0.77254915 0.8546347 0.10102695 0.86911863 0.74893975 0.25535026 0.56127185 0.7262443 0.4457303 0.36868602 1.0648835 0.580639 0.8304086 0.4271915 0.5555348 0.7373052 0.95091105 0.42394122 0.21170013 0.7141795 0.63148177 0.23619522 0.383941 0.37718287 0.16731326 1.0018421 0.36173797 0.6849376 0.7539429 0.3465767 0.16544108 1.0441434 0.68781596 0.4795989 0.868769 0.5676575 0.50991887 0.32586694 0.33271194 0.94325453 0.28436577 0.44872585 0.06135105 0.23648381 0.3828329 0.46939296 0.4877001 0.21840775 0.77097106 0.380653 0.80108136 0.7094227 0.65745646 0.23407587 0.9549023 0.72219056 0.5264052 0.72624373 0.76586574 0.34915644 0.26947078 0.8129696 0.9586111 0.8799498 0.15889637 0.8628659 0.9481069 0.6056477 0.6644265 0.50595695 0.94295853 0.2512672 0.59233594 0.056272835 0.46419346 0.85703707 0.30501392 0.60059357 0.67837 1.0094005 0.04795749 0.27572972 0.78289306 0.68116283 1.0631974 0.8976311 0.7926605 -0.025326569 0.5876576 0.43345535 0.3523145 0.19076113 0.10153319 0.7242863 0.7704575
l64 -0.03348316 0.46098906 0.8827951 -0.0019865388 0.81825185 0.6549796 0.08077217 0.43026543 0.99040157 0.29291156 0.57409763 0.13515477 1.027578 0.3184073 0.12692705 1.0308976 0.45020604 0.17772579 0.29554662 0.54049903 0.38936588 0.45814392 0.40818998 0.77874297 0.36120975 0.581187 0.23331407 0.9312883 0.735509 0.6411008 0.2953295 0.29455292 0.6842038 0.69818896 0.83888 0.30353048 0.86718696 0.34071067 0.18816014 1.0231595 0.82933986 0.46215805 0.36545002 0.46305224 0.09168306 0.7162845 0.80680066 0.92149526 0.1872931 0.2216601 0.06853567 0.9002284 0.3390545 0.6064168 0.4571938 0.3945416 0.51001436 0.04841326 0.37976146 0.53044605 0.03914763 0.3683438 0.497317 0.7591755 -0.039135154 0.7304224 0.90566784 0.52382576 0.8872075 0.5470428 0.48195583 0.16848737 0.31767756 0.35580415 0.23576075 0.6297539 0.59810305 0.6983383 0.18231116 0.63091743 0.89881945 0.6236221 0.06605344 0.94096625 0.3091386 0.8749173 0.16612136 0.6118194 0.2711996 -0.07553271 0.5571494 0.15936424 0.56422365 0.34821907 0.31671408 0.9519348 0.7569437 0.30277658 0.45192412 -0.015492902 0.6039552 0.30317792 0.54550016 0.87972677 0.063029096 0.35662404 0.34888873 0.5831553 0.93969804 0.5459502 0.12176759 0.107234776 0.6800868 0.9923441 0.44156107 0.8105903 0.33674484 0.07073606 0.49738082 0.20194478 0.2244406 0.06240278 0.52635056 0.84231144 0.13519154 0.10540283 0.4377363 0.5969153
l65 0.8489807 0.5601893 0.23960023 0.3405825 0.49239403 0.48464528 -0.031781826 0.30517885 0.3316835 0.43111712 0.7633419 0.14405234 0.19116312 0.705204 0.9656541 0.17898227 0.6453425 0.99504894 0.81501216 0.5841157 0.48930553 0.89796746 0.19831967 0.33456507 0.32312867 1.0154564 0.52286565 0.5021081 0.5591709 0.22728798 0.6749402 0.78095114 0.88844186 1.01736 0.6065349 0.91213477 0.6230422 0.26930028 0.0040340764 0.7659542 0.83437717 0.1982225 0.23899753 0.7321319 0.76435626 0.5662814 0.9270355 0.21563347 0.7837665 0.15935905 0.35792804 0.39388978 0.64587766 0.24673073 0.21852523 0.7839186 0.049880758 0.33477825 0.54104745 0.4580997 0.64472795 0.6669764 0.73782516 0.35381094 0.9087335 0.6022227 0.43037727 -0.016909486 0.37122795 0.93047947 0.6583804 0.8554075 0.6819353 0.21732084 0.58213603 -0.036450487 0.91847384 0.13826132 0.55273086 0.061058726 0.75979143 0.7932832 0.5943742 0.7718941 0.25301293 0.4862293 1.0323167 0.8043222 0.3042465 0.8739166 0.4570639 1.0511363 0.49471483 0.39588284 0.24892178 0.52003574 0.17794295 0.862328 -0.005373878 0.3603375 0.38425764 0.37518764 0.6494358 0.35663623 0.91535777 0.09965406 0.11374574 0.28394175 0.5343405 0.2687133 0.1275218 0.7552187 0.3920253 0.6892766 0.8159443 0.12772371 0.95874494 0.63038325 0.19249818 0.8457792 0.6263394 0.49696377 1.0512066 0.3912334 0.95761967 0.4200771 0.22256193 0.6516023
l66 0.49156445 0.38834187 0.43142572 0.2184065 0.13109958 0.65741605 0.25137392 0.25867465 0.6676214 0.2401575 0.93793094 0.16690558 0.79677296 0.0931659 0.3764123 0.6220509 0.4371537 0.85308367 0.47344047 0.504676 0.12145432 0.33975446 0.24506253 0.43946776 0.09019109 0.608837 0.5273401 0.7949758 0.26234463 0.36969563 0.8252491 0.2745994 0.5527711 0.30613256 0.3925637 0.14736466 0.55284333 0.44252282 0.89508426 0.4389751 -0.024818992 0.636 0.8030255 0.70001596 1.0198961 0.62590516 0.9720164 0.78890646 0.4539779 0.41710916 0.055874385 0.21231627 0.6710675 0.28547412 0.60773796 0.9371597 0.6985482 0.9044549 0.8562226 0.41143703 1.0266396 0.6239687 0.9112475 0.05342986 0.4048517 0.82198465 0.7107919 0.1785032 0.8993607 0.26907003 0.648528 0.97757924 0.8815874 0.12627019 0.19750226 0.8051423 0.9312731 0.8603277 0.41978097 0.2525131 0.8500511 0.19964822 0.75353354 0.11128719 0.19793355 1.0295231 0.28962365 0.56990826 0.7079394 0.86019176 0.1483902 0.6361055 0.6919847 0.6377045 0.18215288 0.109743044 0.2486125 0.29351032 0.83632207 0.03386969 0.027999692 0.052128322 0.44103184 0.7543605 0.92748386 0.19481356 0.48179552 1.0018262 0.4219411 0.664935 0.89499927 0.8222433 0.41115123 1.0550762 0.096368454 0.11481369 0.93910545 0.72576827 0.5272275 0.5691145 0.31131807 0.42469904 0.7471833 0.425439 0.3372795 0.56275815 0.998485 0.095385276
l67 0.5258819 0.61194664 0.31207213 0.07039974 0.791507 0.12784016 0.7006801 0.8267518 0.9751638 0.90388554 0.06474019 0.21823238 0.039421838 0.51178735 0.5385295 0.8535138 0.51844364 0.36267492 0.3277014 0.289558 0.23802534 0.52186525 0.6755199 1.0121295 0.25023285 0.65514666 0.3013538 0.7650783 0.03094922 0.82652766 0.10163794 0.8402625 0.69397205 1.013115 0.13312513 -0.0036752005 0.26527274 0.40002364 0.8669573 0.54525983 0.49852255 0.7788011 0.89396226 0.7306553 1.0066179 0.2030609 1.0603421 0.8468756 0.7580648 0.665854 0.26816308 0.42519397 0.28909308 0.5495595 0.46103385 0.21928136 0.6623557 0.39216265 0.4641086 0.61905193 0.3736663 0.54859686 0.80325556 0.19233318 0.6808343 0.22397535 0.6591069 0.5574921 0.20250511 0.31405118 0.69158906 0.47030318 0.549996 0.05174474 0.5491643 0.74695915 0.51953053 0.97029567 0.73451984 0.15966557 0.24575002 0.8810682 0.31271347 0.6189158 0.7514925 0.25945288 0.32736185 0.19605806 0.67746675 0.40819433 0.73508644 0.85196424 0.4279378 0.47236583 0.8043881 0.11671808 0.12676795 0.16823003 0.8565389 0.8953303 0.35459158 0.29565433 0.6328831 0.28805053 0.6030754 0.4830069 0.35422853 0.9883828 0.76326066 -0.022408294 0.236116 0.04638749 0.23443253 0.16921432 0.08679628 0.06802378 0.27794993 0.8997072 0.42323676 0.51105154 0.74782187 0.3400948 0.21098143 0.48983696 0.47975084 0.060418304 0.17016323 0.14855792
l68 0.025870588 0.52880555 0.48545542 0.7755573 0.5515748 0.89569753 0.7756224 0.88191056 0.59040993 0.80837405 0.10098366 0.80605847 0.7920522 0.75174385 0.611899 0.32806075 0.13193743 0.5077959 0.85138714 0.45797783 0.11572681 0.27161208 0.28043348 0.91802806 0.20429918 0.83553976 0.07331444 0.7721007 0.8579323 0.56683725 0.14168005 0.5841325 0.21660765 0.36275533 0.41953072 0.749639 0.6410494 0.20016138 0.5301226 0.73363495 0.5098225 0.34968248 0.7746216 0.49712917 0.87592083 0.4269066 0.17801858 0.8253767 0.6767942 0.27523008 0.9607419 0.58117086 0.8647737 0.7360112 0.42787206 0.8070008 0.70820636 0.62039286 0.65807414 0.90870744 0.50500315 0.44580954 0.7002309 0.48963752 0.3065665 0.6631791 0.6545276 0.56756127 0.083519004 0.5971882 0.8722295 0.6310917 0.969294 0.018126426 -0.07151091 0.554917 0.2979054 0.071480654 0.62104833 0.25198868 1.049798 0.99525326 0.37734005 0.8199487 0.47014013 0.79497325 0.5618816 0.35808253 0.43518203 0.063001014 0.20349774 0.190153 0.46161848 0.15568955 0.5456435 0.32198805 0.7194314 0.5182113 0.9634857 0.7459027 0.3033752 0.054795258 0.3309669 0.2486033 0.7640733 0.576502 0.16098301 0.58528256 0.71956366 0.56495506 0.72943944 0.58186054 0.44843292 1.0344923 0.50755906 0.7639413 0.46067327 0.28589392 0.37013093 0.35310075 0.5593848 0.5477899 0.103593715 0.9450243 0.9442908 0.51499885 0.82194364 0.035747822
l69 0.85146123 0.8081027 0.68870664 -0.051748876 0.86004406 0.23226118 0.168005 0.97280294 0.47147596 0.44212738 0.6039215 0.8969323 1.0377388 0.37347803 0.62533265 0.7776789 0.6988513 0.39373812 0.08883737 0.60359627 0.611988 0.010272752 0.75964475 0.25441438 0.88797134 0.45027882 0.75564736 0.6087753 0.7839561 0.18221281 0.09363191 0.54250556 0.85978234 0.44652247 0.7355006 0.27263513 0.09195299 0.39263248 0.56710905 1.0388178 0.52943903 0.3424499 0.38336363 0.6687384 0.31323555 0.723391 0.7636783 0.68963695 0.8757518 0.7163094 0.7454506 0.43521392 0.1748712 0.03794365 0.08872681 0.57530624 0.3594851 0.2154052 0.35061023 0.40360576 0.70273805 -0.035851546 0.53389496 0.35423186 0.68465984 0.8695706 0.96071243 0.30837205 0.2848556 0.050333653 0.4839572 0.8080654 0.8236682 0.041111164 -0.16269833 0.28148246 0.9466572 0.12923366 0.57678 0.4384142 0.32594612 0.8824199 0.59948045 0.83338237 0.15157196 0.91534305 0.08362019 0.87081414 0.87675333 0.56620634 0.11520966 0.7302297 0.5187109 0.23845813 0.54773813 0.41166908 0.6140311 0.80600905 0.01532418 0.4079792 0.37820646 0.373925 0.82567334 0.17123835 0.13828588 0.71548414 0.39130756 0.5751081 0.9887916 0.5398711 -0.038644563 0.23814136 0.4891389 0.6664593 0.4253128 0.7216836 0.64482474 0.22990239 0.58377093 0.3118016 -0.041535657 0.84124136 0.63529307 0.8917519 0.15950699 0.7960908 0.677604 0.20873651
l70 0.5888456 0.49688894 0.5744076 0.70000535 0.23613563 0.720602 0.46023065 0.6034901 0.33196238 0.6885557 0.8978646 0.9432589 0.33516002 0.6880979 0.195561 0.21745552 0.011895652 0.16493228 0.78176713 0.42389968 0.80327487 0.88524824 0.13852221 0.73482627 0.5375668 0.34807265 0.9814323 0.6285656 0.74824774 0.7478354 -0.0009162824 0.2650366 0.61932355 0.95230275 0.5717627 0.4943169 0.32036257 0.51730806 -0.012039506 0.2925424 0.9370426 0.2239641 0.26171398 0.24806301 0.39149496 0.95414424 0.55216897 0.37474975 0.575349 0.43872467 0.40204194 0.7020815 0.70524687 0.87702084 0.60296905 0.38460234 0.2015325 0.66138357 0.50562376 0.8070444 0.3632468 0.12872928 0.43232712 0.8175709 0.39321008 0.5652425 0.2981391 0.2057997 0.29017806 0.833575 0.52901167 0.6514518 0.53112257 0.40139997 0.26801997 0.791562 0.57609314 0.92069423 0.06160041 -0.0018408283 0.23003738 0.087808356 0.1422823 0.9507105 0.03482405 0.6337076 0.5341658 0.710428 1.0443951 0.6978099 0.5552698 0.58461845 0.6672677 0.34305406 0.6506805 0.6257552 0.7856844 0.4010633 0.6728792 -0.0028461257 -0.07684782 0.5470116 0.19112867 0.5362835 0.2419076 0.8900991 0.94308555 0.39613843 0.3719213 0.12866236 0.12755089 0.59544486 0.48927587 0.8711409 0.34755516 0.7591154 0.5864194 0.63471454 0.7487598 -0.011702657 0.63684785 0.2916516 0.37320116 0.49903363 0.5989983 -0.06139592 0.6808439 0.4053644
l71 0.22808632 0.65768194 0.0353963 0.61440104 0.6003008 0.513604 -0.020692725 0.7994919 0.47633994 0.8338248 0.7602857 -0.05095194 0.7590229 0.9474498 1.0614085 0.761337 0.8492246 0.19137944 0.48476157 0.6327208 0.2962885 0.76651645 0.5758517 0.40395132 0.5150166 1.0346843 0.4514896 0.8272855 0.8609645 0.8935714 0.019134175 0.45689887 0.70002407 0.95708764 0.87454104 0.12595958 0.333994 0.3678375 0.49340934 0.6338761 1.0548161 0.73360294 0.5938637 0.43277025 0.75426215 0.8894013 0.39097437 0.30916685 0.34411517 0.26645207 0.29178694 0.10256398 0.47734892 0.21621044 0.71818703 0.9016422 0.41841564 -0.046870064 0.3340702 0.13725048 0.47199446 0.3417932 -0.021715343 0.7018755 0.042355545 0.9330713 0.57426304 0.25193414 0.77190965 0.92311114 0.7331009 0.4952614 0.8822952 0.74338686 0.65829706 0.17349415 0.21168514 0.33556247 0.63764054 0.5816553 0.70541674 0.44413772 0.324268 0.7061279 0.2937779 0.8253709 0.3138496 0.5208393 0.74420947 0.55424213 0.32602286 0.20550977 0.453441 0.9899433 0.11877464 0.5342402 0.4435121 0.7787745 0.46022883 0.07392818 0.19117923 1.0590236 0.7599397 0.2367805 0.62371314 1.0503709 0.3451883 0.35637712 0.14957356 0.33481896 0.6244735 0.9150937 0.42392373 0.65189904 0.11935255 0.50769114 0.5363336 -0.010896193 -0.08394967 0.43532994 0.6926601 0.85958296 0.9835921 0.4941184 1.0617554 0.71608096 0.6470715 0.5681755
l72 0.19547634 0.6467537 0.99021024 0.1455306 0.87783545 0.18885733 0.13962984 0.2735055 0.673085 0.8631294 0.74766934 0.21474934 0.16086721 0.10473632 0.7723007 0.4142966 0.39386985 0.14470416 0.48093462 0.9511097 0.3670331 0.11721638 0.43960452 0.7575319 0.45895684 0.2508265 0.9013972 0.950284 0.5514446 0.45645303 0.28445593 0.20725276 0.80760294 0.55110234 0.15439142 0.64813185 0.5696609 0.00026758472 0.37544805 0.7775576 0.743773 0.5077013 0.59875757 0.097022556 0.27566174 0.3402703 0.71559113 0.13646618 0.6445209 0.38719988 0.9393233 0.69249547 0.8627869 0.48037073 0.43575788 0.52742714 0.54220366 0.53305006 0.11753632 0.4172337 0.6000465 0.17173941 0.1589315 0.64327335 0.39614353 0.41783676 0.81627625 0.20653795 0.7032947 0.21769407 0.5998532 0.15667996 0.87000316 0.5775444 0.08370792 0.17619134 0.91061836 0.087154225 0.38516343 0.36837587 0.7503842 0.6801814 0.8069127 0.2205489 0.30097318 0.4387666 0.29189888 0.76088023 0.51625276 0.607847 0.8164149 0.18874402 0.49724972 0.9882993 0.19603911 0.1796164 0.9755677 0.5490793 0.28718 0.5364265 0.28234637 0.9641137 0.49291188 0.11037319 0.8894501 0.42368156 0.63375145 0.58890253 0.007990826 0.4143533 0.14387734 0.74131596 0.2891859 0.07065422 0.9441263 0.22539711 0.9580691 0.25110844 0.8693341 0.14904684 0.41903526 0.1629309 0.8745619 0.19305032 0.8508489 0.37701717 0.5655011 0.18722133
