1730	128
l0 0.059444875 0.5887248 0.0407313 0.23448084 0.13089834 0.6504409 0.16664952 0.27965906 0.7521633 0.9868516 0.41597554 0.18375899 0.08243262 0.63943577 0.38091168 0.24639265 0.63597316 0.9732028 0.25529575 0.0020931547 0.10583781 0.6419759 0.10407792 0.8646664 0.68310374 0.3116042 0.72400934 0.4049676 0.24862735 0.34274495 0.5409382 0.110406615 0.7588832 0.5809308 0.25640804 0.8444169 0.7066915 0.44853273 0.03361157 0.81630266 0.5243574 0.36180094 0.964483 0.93741125 0.6010642 0.4761072 0.4232469 0.60237056 0.1124082 0.08786076 0.2942236 0.122759834 0.6805737 0.55215406 0.29917458 0.14661895 0.07056522 0.888932 0.1898042 0.49281698 0.80715203 0.1357665 0.669093 0.467482 0.30794513 0.34352943 0.092021756 0.9889123 0.57554615 0.7949835 0.66843164 0.63894624 0.66814756 0.3723798 0.6555328 0.8227583 0.4052339 0.66607034 0.5534221 0.9899278 0.8488159 0.76390046 0.38014054 0.56417495 0.6559848 0.9820963 0.2442055 0.13062246 0.27795845 0.009830514 0.4185913 -0.001700431 0.1847172 0.6357623 0.9329422 0.647796 0.4971419 0.5506055 0.76336944 0.66101146 0.12398266 0.5224192 0.29052618 0.3844069 0.006899284 0.50783044 0.38853258 0.6036958 0.42373353 0.42700014 0.65032154 0.9251365 0.21975306 0.108543396 0.42959195 0.76709616 0.32070932 0.623713 0.9918581 0.46923435 0.046444125 0.54581463 0.80862516 0.9951182 0.07291976 0.06013571 0.6258684 0.23196787
l1 0.06914748 0.21311 0.083114296 0.82676905 0.43527305 0.27735442 0.18309091 0.6036149 0.113190286 0.37063244 0.6642929 0.113088235 0.913602 0.97779655 0.64349663 0.2299742 0.6893191 0.44341618 0.15708862 0.7474979 0.6860081 0.2615527 0.8145759 0.5991008 0.656295 0.26421726 0.9689591 0.29006538 0.82282716 0.7209898 0.8983283 0.4626756 0.55459905 0.6690366 0.09802553 0.108992025 0.8595941 0.049322397 0.67112255 0.011692334 0.27108836 0.21212758 0.5476201 0.6221546 0.91115606 0.65982133 0.83864295 0.6172749 0.3118668 0.7356664 0.004876271 0.25498185 0.3175334 0.24009879 0.4201226 0.11957434 0.84545183 0.17882665 0.55168486 0.35660577 0.9777646 0.5683639 0.13599773 0.6024514 0.35845825 0.6462415 0.5359362 0.6461024 0.69132745 0.51170874 0.25691095 0.918665 0.6258268 0.43632248 0.09668618 0.13351342 0.10587482 0.67431206 0.6968972 0.45527327 0.9304068 0.30183488 0.16840732 0.6179569 0.57028216 0.4400016 0.80024344 0.70152336 0.80782825 0.25662383 0.6775729 0.33448985 0.9033336 0.6811256 0.58207834 0.087269 0.16370422 0.7239741 0.5308712 0.69446146 0.55576175 0.28691298 0.27556896 0.5003217 0.97307646 0.76498157 0.14056031 0.29497796 0.3687025 0.107611895 0.21741474 0.8097226 0.8668557 0.10535999 0.3712565 0.5853826 0.15951106 0.090459965 0.31290606 0.7268958 0.48906374 0.9743094 0.8877836 0.8501107 0.17619313 0.5252406 0.8545948 0.16216345
l2 0.88283885 0.34585345 0.31898248 0.59016925 0.6219655 0.9586648 0.5952736 0.17739214 0.7314517 0.13304146 0.38081512 0.26770413 0.40585616 0.95510846 0.49841926 0.31127292 0.94961965 0.9150623 0.47649944 0.74479973 0.92802304 0.21501379 0.8781516 0.64251786 0.58329713 0.033662703 0.5726222 0.93394625 0.4723945 0.4363312 0.6877301 0.3324969 0.47252297 0.018253447 0.4531614 0.49835688 0.5915831 0.96781904 0.7005042 0.7722376 0.8880795 0.028045028 0.8503998 0.99081695 0.302259 0.68018603 0.5524994 0.72938764 0.23261258 0.24846867 0.7540098 0.2182155 0.086589046 0.76335573 0.6483481 0.47794247 0.5215749 0.77207804 0.8107949 0.6357081 0.71033025 0.73909384 0.06304313 0.3211945 0.04077809 0.31391594 0.74302304 0.7058861 0.17491892 0.57373554 0.6236297 0.64391124 0.7183333 0.95701486 0.76214564 0.6721407 0.5603578 0.98701924 0.9253644 0.7370709 0.6840583 0.18331741 0.3144029 0.16003624 0.42928073 0.85244185 0.54816 0.8869581 0.22312081 0.8338408 0.71081364 0.39385238 0.8610138 0.17946559 0.8657203 0.14258756 0.9642669 0.3334135 0.24530649 0.3705117 0.76916474 0.862271 0.18598631 0.83304054 0.8963333 0.7094463 0.8194558 0.33757034 0.25995165 0.8424315 0.72727084 0.5794802 0.9529864 0.32966238 0.97447014 0.11105075 0.20539641 0.9772634 0.7380427 0.3262715 0.034238867 0.32472476 0.47893927 0.029532336 0.3778584 0.9815536 0.72823805 0.8057366
l3 0.09032672 0.86242396 0.6700792 0.008276171 0.6009569 0.8079264 0.7674622 0.040925078 0.4328061 0.53853977 0.22122136 0.5229266 0.530699 0.96296316 0.7639963 0.22380039 0.8364719 0.91130036 0.67483103 0.6213504 0.12042095 0.7069727 0.74741536 0.82614684 0.6033209 -0.00147207 0.6219048 0.36629784 0.7861984 0.36613175 0.47912118 0.43621615 0.67225987 0.30148154 0.3286592 0.5303381 0.115379445 0.32868356 0.26652136 0.6699861 0.592323 0.30564666 0.8414425 0.1174524 0.8343699 0.56810373 0.2969306 0.2198311 0.9279559 0.6309899 0.21669792 0.17633335 0.9926117 0.4345647 0.79954326 0.10872026 0.20596704 0.7248904 0.9827755 0.43501094 0.40402314 0.04501827 0.014753098 0.020656599 0.42935297 0.74105096 0.6679654 0.10204558 0.7976538 0.38601503 0.84748983 0.38573083 0.38045603 0.8386844 0.7672636 0.76313174 0.7360136 0.35541937 0.8586532 0.35981688 0.31224155 0.38795018 0.40697852 0.20946299 0.24619131 0.96144253 0.056524176 0.61253417 0.58900326 0.73425883 0.87296563 0.3089295 0.18690458 0.22178988 0.5093186 0.58717567 0.5735615 0.85364485 0.52124655 0.9525541 0.58716524 0.49144474 0.30309084 0.5747518 0.36374065 0.8329718 0.948038 0.22226335 0.68493944 0.592068 0.23372489 0.44055122 0.88473105 0.37936527 0.29391426 0.62634206 0.14837238 0.027133074 0.5783519 0.5158023 0.15097594 0.7864822 0.8692108 0.6202871 0.4444881 0.4959953 0.92344767 0.5276427
l4 0.051935263 0.5023221 0.32359388 0.8486368 0.7991903 0.30438638 0.6042996 0.50386405 0.974015 0.2889717 0.88016146 0.45972562 0.63392544 0.1266456 0.077206835 0.992215 0.75351197 0.83838284 0.485264 0.57422984 0.72838914 0.94043726 0.38092786 0.16211253 0.807545 0.12661643 0.25922796 0.94361323 0.45291582 0.30419326 0.7230677 0.024249779 0.23424083 0.38897556 0.7997856 0.605959 0.05538741 0.2535678 0.4393901 0.6290655 0.69261545 0.7513061 0.36122003 0.85253257 0.7615596 0.16947299 0.85860753 0.78215057 0.46438783 0.23173521 0.28741503 0.43004784 0.60557115 0.6515699 0.3543935 0.93075097 0.42728573 0.10668122 0.13693984 0.9110651 0.3220938 0.23062095 0.9449999 0.38895872 0.27159017 0.42847547 0.18174115 0.006470132 0.04061633 0.78665656 0.057281595 0.27865446 0.31230715 0.2109893 0.7817227 0.36916232 0.024774041 0.242117 0.10053404 0.04401927 0.7649279 0.92365646 0.038975205 0.47821766 0.6425695 0.7647462 0.80572844 0.269101 0.88975626 0.4209056 0.090004265 0.792999 0.42484397 0.92678994 0.37570465 0.08084476 0.18645926 0.6845072 0.5323131 0.9784973 0.5421769 0.3460209 0.46991605 0.22364858 0.8950515 0.7202967 0.655176 0.7170502 0.8031967 0.8941218 0.26385736 0.852005 0.8522813 0.92286766 0.5100897 0.86314577 0.07990187 0.7181367 0.48201677 0.38511613 0.43353355 0.35930404 0.7306614 0.3985331 0.09249527 0.6283724 0.025454182 0.31678796
l5 0.8395519 0.17750047 0.05919555 0.37762052 0.8941621 0.084279776 0.22281143 0.43901947 0.8092944 0.7809426 0.44706026 0.19091651 0.20845583 0.9286222 0.8013467 0.44470212 0.6102413 0.0035034136 0.29796317 0.6631188 0.246951 0.42088312 0.81900895 0.13835414 0.260775 0.28131574 0.25401154 0.9194359 0.6576381 0.30443573 0.5286887 0.30480507 0.4683013 0.5586349 0.896236 0.30499282 0.83074003 0.22213392 0.39126608 0.5605769 0.62556803 0.5600193 0.08901289 0.305875 0.38546634 0.3664202 0.22956558 0.08319298 0.8564096 0.28721705 0.48711488 0.16905482 0.11277444 0.3446029 0.05611946 0.9256648 0.801129 0.8622796 0.77320427 0.5767403 -0.0059870393 0.27113914 0.96367973 0.8251217 0.33626232 0.47538352 0.97557044 0.5367112 0.6135029 0.37153646 0.7977089 0.50703144 0.944708 0.50865555 0.31125355 0.9459401 0.7268638 0.7354078 0.5925108 0.36709505 0.9725129 0.6579523 0.24677476 0.011604685 0.19119292 0.71860296 0.32369652 0.02581225 0.42661417 0.06614709 0.3798618 0.7750316 0.2816459 0.39630502 0.78696036 0.025574364 0.31912592 0.30959755 0.7643183 0.013854878 0.87730885 0.6723893 0.45996988 0.15643568 0.56424165 0.68669784 0.17330344 -0.0059821242 0.6472575 0.7041547 0.98843324 0.57890236 0.97547364 0.48955017 0.37658134 0.86723363 0.8131427 0.07862325 0.2536728 0.052578416 0.30077168 0.84691054 0.38798252 0.15713352 0.62473214 0.18832195 0.3119621 0.34684083
l6 0.37912732 0.27099323 0.41537693 0.93330616 0.23673384 0.074299745 0.71484196 0.40791914 0.8615963 0.69304746 0.07624528 0.4103693 0.56771034 0.7916921 0.05873206 0.044281043 0.37944078 0.12932919 0.19610363 0.33947796 0.25479144 0.49935773 0.4357215 0.14858097 0.05941098 0.55192095 0.4046927 0.15145774 0.8365157 0.926465 0.34665197 0.65006685 0.799014 0.08087126 0.8585344 0.6525973 0.7010051 0.56049955 0.9087654 0.95246196 0.9677428 0.89827406 0.37194684 0.64223105 0.20405538 0.3569321 0.81263983 0.7359116 0.66405207 0.3620876 0.78247577 0.18281996 0.92552507 0.45435137 0.29606074 0.32300314 0.17005107 -0.0024016318 0.0708886 0.6392232 0.39477602 0.7561445 0.8484248 0.3040033 0.87042487 0.49574593 0.58736646 0.59422976 0.40890142 0.63967556 0.75160116 0.00013549074 0.19041988 0.20582068 0.22917376 0.076285325 0.39250115 0.21829578 0.0881269 0.85378087 0.25363547 0.9334241 0.41949406 0.06296085 0.6588943 0.8148677 0.46435946 0.062348407 0.40921602 0.30352038 0.024121616 0.42548186 0.8850241 0.33918804 0.17484161 0.16696033 0.045810793 0.43539035 0.43036982 0.38531762 0.35469002 0.2860401 0.7715024 0.9684564 0.5940695 0.8292513 0.39670834 0.31981534 0.28743333 0.63150096 0.7325963 0.07360144 0.9840558 0.024595672 0.5928786 0.92312837 0.9262111 0.17981486 0.55620694 0.21936624 0.87261057 0.4472189 0.2836512 0.6540475 0.86660624 0.1338337 0.55560195 0.716187
l7 0.9005922 0.3267413 0.7476874 0.29129335 0.40057322 0.9818281 0.44503874 0.6718072 0.44497037 0.52854943 0.5939888 0.9969236 0.07169545 0.45381963 0.7970266 0.56373775 0.19755504 0.75727904 0.36794472 0.8842154 0.5098695 0.72109175 0.45020178 0.9979227 0.9839834 0.45643893 0.080602966 0.51959133 0.2897778 0.19533643 0.14513159 0.575022 0.7108095 0.20178974 0.4835791 0.5925923 0.08571403 0.5336178 0.6403844 0.26946002 0.5222711 0.61714673 0.6714722 0.79716194 0.5399897 0.6449563 0.91743505 0.6058644 0.6127419 0.6632255 0.17102768 0.7381036 0.005811419 0.29892984 0.6938804 0.25392467 0.6238365 0.85525864 0.13842794 0.20927796 0.19219714 0.18501529 0.2501473 0.38948098 0.09247345 0.94870085 0.8926728 0.49258962 0.6478503 0.19488044 0.6926372 0.58858246 0.52707297 0.7606155 0.005384642 0.50104374 0.94480354 0.50875676 0.46898803 0.044698983 0.99998724 0.36306337 0.9645569 0.354515 0.7689231 0.0064286445 0.9509849 0.6537945 0.28774726 0.8582979 0.020096572 0.67120534 0.007871925 0.2147066 0.7447538 0.26811737 0.9612055 0.7694563 0.88775086 0.8834109 0.9068498 0.60392684 0.5290293 0.88798666 0.59152615 0.78142196 0.3377938 0.77336216 0.5994651 0.7802911 0.17628194 0.73938406 0.19775388 0.9230867 0.58153987 0.49973062 0.8995662 0.710459 0.5543846 0.76410735 0.7396456 0.99089 0.44043404 0.0929073 0.24812655 0.7136128 -0.00026378353 0.5904534
l8 0.3747517 0.11929772 0.050212756 0.61764956 0.73347694 0.5349027 0.7912437 0.5182203 0.55750257 0.47897106 0.5948187 0.6243258 0.19488624 0.44129425 0.56721205 0.07818834 0.3642679 0.8235931 0.80294883 0.25240868 0.40673745 0.63284194 0.50934434 0.469928 0.0033928652 0.2254086 0.74420464 0.7605551 0.26910758 0.8255534 0.56909674 0.22331803 0.59361994 0.99088776 0.87573576 0.97832733 0.7324652 0.78161395 0.6126527 0.1316075 0.5016498 0.42433116 0.27968776 0.94638515 0.32012117 0.4938283 0.91523373 0.78307974 0.18888763 0.52984256 0.8136111 0.39258972 0.7723945 0.06384243 0.279871 0.9621613 0.5186667 0.2465916 0.23772582 0.8214159 0.025298525 0.86271125 0.53790367 0.7537715 0.29872265 0.5315039 0.9387803 0.061390355 0.2810113 0.5160396 0.06338912 0.35281262 0.9214262 0.4408157 0.3797079 0.7718301 0.22814055 0.110766 0.9047973 0.12457547 0.6359113 0.8856155 0.3509442 0.184032 0.41091222 0.2207016 0.2066369 0.31528026 0.31447518 0.19199972 0.82551926 0.7124458 0.45278496 0.07312525 0.6529887 0.042178802 0.70015603 0.5725346 0.09242603 0.45278123 0.04598208 0.2749878 0.5380098 0.77945 0.8117033 0.31449202 0.53598654 0.9564613 0.030435544 0.6253511 0.9041297 0.6414316 0.3829152 0.673312 0.1281007 0.12977156 0.757785 0.36914483 0.73856944 0.13528663 0.26657858 0.01225812 0.6291502 0.8741637 0.05780286 0.9741955 0.39339605 0.30309466
l9 0.4186261 0.15461059 0.573343 0.13679625 0.5714902 0.99124885 0.33255416 0.17084719 0.23996882 0.26207978 0.19784857 0.66571456 0.19484049 0.8876714 0.40689418 0.43296212 0.80730635 0.5747443 0.9238871 0.7028024 0.5189783 0.23851797 0.3690789 0.88071877 0.6290454 0.10107442 0.039482225 0.86422366 0.49952173 0.21823186 0.4554886 0.80810076 0.4686677 0.3364742 0.14321359 0.8130356 0.83158904 0.37239957 0.7763201 0.16356881 0.9393219 0.0103499545 0.886095 0.44138187 0.10575404 0.36748603 0.35049224 0.69058144 0.33734563 0.13074721 0.027415004 0.4747595 0.06211689 0.55035836 0.40612626 0.30536678 0.05999288 0.7291215 0.79559267 0.019416748 0.38071522 0.37331384 0.16500653 0.57184094 0.8988895 0.4610858 0.26654878 0.6995103 0.14867948 0.5503366 0.32478 0.50258833 0.97866225 0.19484623 0.4984767 0.99087316 0.25628006 0.48647103 0.29362744 0.9095296 0.32896477 0.6759717 0.22901368 0.39734513 0.93713427 0.96213084 0.22226386 0.98609406 0.13681799 0.21238036 0.3575722 0.26827338 0.6180575 0.7912866 0.89728004 0.021916324 0.3048643 0.39827526 0.43371427 0.7998511 0.48733354 0.64197844 0.28659436 0.96373993 0.15404193 0.6689493 0.5690188 0.4188258 0.18539241 0.9777151 0.17813978 0.38805208 0.6153217 0.777135 0.053246237 0.49176347 0.08800287 0.30905977 0.43654203 0.33718058 0.8782375 0.9292381 0.3652048 0.1355183 0.29167154 0.60825235 0.37947014 0.3531999
l10 0.8548629 0.70927215 0.2284743 0.7322449 0.7310584 0.6561553 0.8419349 0.17341661 0.5285802 0.62075216 0.98351544 0.2125624 0.7132074 0.3138319 0.026782852 0.2245215 0.28980103 0.7640206 0.43951744 0.75690734 0.7062535 0.4240353 0.622056 0.60987294 0.019325532 0.21141067 0.5600979 0.036333572 0.045709193 0.31473473 0.42709118 0.78063095 0.23825096 0.47643325 0.51609397 0.8538323 0.02011479 0.7886541 0.68881845 0.59849006 0.37898517 0.80005616 0.31958994 0.76836896 0.615336 0.3443053 0.21102181 0.8606807 0.47903404 0.27332106 0.8049407 0.076347575 0.60877514 0.92198175 0.9960298 0.4121561 0.21401882 0.96682405 0.35567394 0.8219027 0.75720495 0.7998792 1.005679 0.12666224 0.3779073 0.33758914 0.60334045 0.07590903 0.86706764 0.855543 0.16220225 0.1453575 0.69085306 0.22931203 0.4413972 0.025733273 0.48905772 0.16305599 0.7255971 0.33525422 0.313117 0.4462807 0.36946577 0.43166235 0.080728695 0.48514006 0.8579782 0.18577814 0.8220781 0.5058698 0.21422692 0.8771091 0.6433671 0.41432494 0.1556439 0.5953377 0.18951334 0.7262706 0.45510197 0.84781396 0.8952553 0.71753824 0.7927427 0.6978539 0.38136435 0.8372959 0.80931544 0.75035006 0.28126228 0.09640909 0.9447032 0.6631427 0.33672908 0.8038303 0.11586076 0.9428739 0.69515795 0.4289354 0.30978546 0.16837218 0.4222182 0.6531019 0.56658405 0.7739208 0.41618726 0.016681785 0.90006894 0.5103211
l11 0.63537735 0.23856121 0.24710509 0.26699224 0.9771299 0.5885017 0.062882416 0.76478267 0.37419963 0.48076868 0.80410606 0.9328611 0.15439162 0.84495777 0.8604534 0.67944443 0.086950995 0.03238464 0.80558753 0.9275121 0.39565787 0.65537626 0.31456408 0.15669096 0.6455208 0.5361966 0.11681954 0.30992553 0.31770703 0.9904574 0.5076129 0.5060527 0.7465824 0.99834955 0.46233532 0.5951671 0.38143715 0.46192512 0.58234453 0.90525335 0.54485524 0.76631254 0.71180147 0.021614274 0.12242744 0.45458722 0.24249746 0.7097426 0.15208328 0.79256207 0.678917 0.27258667 0.03312935 0.9571156 0.43787733 0.62121713 0.92547524 0.693631 0.20911187 0.45423743 0.9552555 0.7349313 0.5003268 0.17804137 0.49186593 0.72629386 0.77109283 0.7478936 0.5347119 0.19130784 0.13987507 0.3339489 0.48852718 0.96130794 0.43729445 0.058118463 0.025123447 0.65927553 0.2903173 0.3819666 0.86171657 0.5758369 0.9179315 0.31646687 0.99794406 0.5011512 0.88425153 0.77992 0.8965704 0.022645002 0.0065661273 0.28610325 0.10027748 0.90577924 0.46109384 0.60747904 0.71334 0.47252366 0.36987033 0.092259765 0.7341075 0.0130061535 0.68710613 0.07781828 0.3089272 0.032249317 0.97491574 0.24628927 0.29270494 0.5835921 0.447183 0.44295368 0.73088443 0.8516605 0.91815865 0.11730832 0.39353538 0.058696784 0.497711 0.83204323 0.8886688 0.22494097 0.68586916 0.7674646 0.34087932 0.7735877 0.14248453 0.9327216
l12 0.7702163 0.12926522 0.6808563 0.06969136 0.89850754 0.14906642 0.14412192 0.27741265 0.8292881 0.87005275 0.9638579 0.7160798 0.47407866 0.90114677 0.87282485 0.3894488 0.20925887 0.4594493 0.8838864 0.820039 0.47267494 0.2032098 0.17816858 0.72978395 0.36045086 0.122524336 0.15953223 0.50370926 0.96040714 0.09266856 0.18216468 0.14819625 0.9811723 0.3449397 0.24779776 0.9165934 0.004327639 0.34766418 0.19154072 0.7942941 0.6007436 0.38958552 0.116582796 0.47041455 0.10218884 0.41185609 0.43288255 0.612497 0.64599943 0.3469261 0.28373408 0.036169965 0.7845466 0.41085443 0.63042176 0.34759572 0.115536116 0.87992555 0.6864792 0.32069215 0.20846282 0.63763374 0.9532617 0.19560565 0.17690653 0.5387992 0.4595718 0.3427362 0.5890189 0.7776464 0.9261668 0.59113723 0.29929727 0.23774932 0.9201578 0.926191 0.26917785 0.8567301 0.92902917 0.9030027 0.74102503 0.5617086 0.6140701 0.9168866 0.17113739 0.07710107 0.8940462 0.56494397 0.21838675 0.23137476 0.29681695 0.55196935 0.40644455 0.59354067 0.33815986 0.22318399 0.10059693 0.47823268 0.5644433 0.77188474 0.8657319 0.07730798 0.020780725 0.24256426 0.7997364 0.9402946 0.8950145 0.20864284 0.85478574 0.97092336 0.922098 0.39350402 0.84916794 0.016826086 0.6652178 0.27336916 0.4639756 0.041894786 0.8618908 0.7217016 0.9788127 0.9334156 0.20808272 0.3635216 0.2272233 0.5126388 0.06609768 0.4009829
l13 0.8301277 0.7526047 0.815058 0.14110455 0.0855262 0.5542997 0.11887135 0.6228984 0.3788144 0.019125642 0.29723543 0.10712684 0.4532574 0.66536355 0.43074244 0.62424594 0.379586 0.56764215 0.66360295 0.15010512 0.8709959 0.4687752 0.09800599 0.026216732 0.7806036 0.6091211 0.58294743 0.22372113 0.5133923 0.8871596 0.6442039 0.5841587 0.03323151 0.27682558 0.91482466 0.6519266 0.65452945 0.6401126 0.7195368 0.758978 0.06105764 0.38181973 0.91086966 0.55300736 0.71481454 0.8012078 0.6456103 0.0160933 0.22503196 0.9429317 0.6725864 0.6438921 0.35328504 0.38913217 0.0034356436 0.6289677 0.09870891 0.27803373 0.49418822 0.88167757 0.8399836 0.25074488 0.94633484 0.47242504 0.3899916 0.23173073 0.9728887 0.43797296 0.9197064 0.075053684 0.8644608 0.4767772 0.7971095 0.67131823 0.32849008 0.40916854 0.6181497 0.0578367 0.95410377 0.10418336 0.26763386 0.29672605 0.12180617 0.011695462 0.6547968 0.03783799 0.5962411 0.30034256 0.3326696 0.444858 0.59287304 0.060516573 0.59249973 0.2515899 0.93977976 0.5784865 0.78702956 0.028563635 0.21157025 0.19960785 0.20177262 0.7490118 0.6181034 0.7507658 0.94379336 0.8572023 0.09481168 0.95145273 0.53985304 0.08178621 0.969539 0.5511326 0.8550335 0.5734152 0.45205122 0.34810618 0.912748 0.10960741 0.5432146 0.6064189 0.918575 0.30533084 0.16326581 0.90483224 0.36163226 0.7780403 0.25008568 0.643272
l14 0.51662636 0.31839132 0.3360389 0.7896118 0.65313196 0.5696365 0.81374246 0.97117424 0.37626576 0.71651435 0.4236197 0.23122737 0.8651011 0.6149761 0.58906543 0.22093676 0.3142683 0.053627253 0.24373172 0.69804794 0.70708805 0.60555965 0.8798685 0.8267818 0.030303255 0.3968867 0.105064414 0.41423726 0.42422363 0.66969824 0.40258166 0.65338147 0.7002456 0.19496872 0.9935356 0.15089366 0.03872564 0.021040224 0.24067374 0.12966928 0.88635814 0.87605035 0.9353466 0.54464036 0.35047546 0.81649673 0.6391231 0.6567989 0.85123014 0.8197564 0.06616741 0.580582 0.04871726 0.75061023 0.78507197 0.7821113 0.46029347 -0.0011472749 0.8046497 0.79087996 0.115872085 0.111731105 0.22569644 0.21267506 0.6800086 0.8915237 0.5992465 0.41230986 0.57671314 0.20474716 0.5954343 0.70578337 0.6882911 0.043720208 0.7195124 0.49916592 0.24191763 0.45339867 0.9698722 0.7119994 0.69757676 0.13830684 0.96943265 0.86252517 0.69620335 0.28079942 0.33481815 0.6135689 0.9228296 0.38480088 0.57321304 0.47417605 0.6988515 0.2577766 0.3059158 0.41211465 0.10275986 0.59250426 0.686373 0.50074536 0.88223547 0.0103346305 0.54387194 0.45073912 0.971747 0.42417803 0.257307 0.28668487 0.7607165 0.15099445 0.6806589 0.93844324 0.40036744 0.5282829 0.9930503 0.27704525 0.29949594 0.71811604 0.5907285 0.49544343 0.9564121 0.40403903 0.8833884 0.70017624 0.25481755 0.07661328 0.80478334 0.87662745
l15 0.09606563 0.76715106 0.34902683 0.27177534 0.83749145 0.22662058 0.4772981 0.8823992 0.5234991 0.72714174 0.07935845 0.21258555 0.34435317 0.8069972 0.3259241 0.90650827 0.62517077 0.8807462 0.23081498 0.8520577 0.7889486 0.41082862 0.40675026 0.41980222 0.22205861 0.86968446 0.11014647 0.20867254 0.51516473 0.5421162 0.29498568 0.93308824 0.065881744 0.038023002 0.34476048 0.6100551 0.5310665 0.14567293 0.41640013 0.6771083 0.41936645 0.45279393 0.80033034 0.9439913 0.15426688 0.34083003 0.8028865 0.14823188 0.9309803 0.46669117 0.3617817 0.97925043 0.0029134625 0.2705366 0.6223231 0.41835746 0.59596646 0.43942934 0.15375763 0.91635627 0.88521296 0.9454968 0.9274511 0.45588094 0.707449 0.20542537 0.9334117 0.9186698 0.20891002 0.1796765 0.9285503 0.45923293 0.06381752 0.8631424 0.13315418 0.30738395 0.5774846 0.80415595 0.8480666 0.1564961 0.1334551 0.90972835 0.9846666 0.2850828 0.938375 0.6479683 0.3742662 0.6950631 0.9015674 0.6133213 0.3235798 0.7853764 0.031007525 0.7904029 0.033407126 0.12740657 0.7819235 0.9959616 0.24873029 0.68298304 0.85738254 0.47689795 0.96988326 0.36183843 0.87251306 0.68090284 0.12375013 0.39896655 0.17291406 0.051731765 0.61010987 0.41402522 0.14956537 0.7788884 0.0021674305 0.33141258 0.6723364 0.9282889 0.36073175 0.12515916 0.72756666 0.38265213 0.17255028 0.2275221 0.17425619 0.8712457 0.18371013 0.14821336
l16 0.93437535 0.236463 0.48096734 0.14839916 0.27396595 0.35769275 0.9222773 0.12807637 0.69275004 0.9663174 0.28183043 0.49535665 0.71879923 0.8898883 0.49359235 0.06543535 0.041086428 0.949758 0.649959 0.037901267 0.84117967 0.26742446 0.45236033 0.5826258 0.22542071 0.76209563 0.7032579 0.50587225 0.2898019 0.038695376 0.7015208 0.70244116 0.640549 0.85527134 0.15583698 0.7092047 0.28843454 0.27762562 0.43724492 0.9194355 0.07739595 0.29578504 0.6886566 0.8818674 0.33691898 0.5661377 0.6641669 0.050583813 0.6417275 0.56967086 0.3962039 0.8449205 0.48839107 0.6901782 0.8338047 0.28837922 0.56613356 0.9880008 0.15227218 0.44465283 0.50740796 0.035184935 0.91956025 0.8851732 0.35456282 0.8007021 0.16696714 0.9853944 0.31988657 0.65562505 0.8428091 0.4129025 0.0045654606 0.67949146 0.92153704 0.46560478 0.361959 0.055255584 0.6020572 0.90336984 0.6642311 0.0077046794 0.38500646 0.024233213 0.61531276 0.42356393 0.5741248 0.38764378 0.65666795 0.9903913 0.3940018 0.89321774 0.7250672 0.031967036 0.48897406 0.16711065 -0.002317822 0.8020002 0.0917379 0.9916752 0.8867972 0.27189502 0.3221298 0.7123751 0.12267843 -0.005168491 0.6640406 0.7841231 0.65187037 0.11573495 0.8375671 0.3350238 0.70286125 0.77870107 0.12232557 0.12555018 0.1728506 0.30717686 0.3016429 0.2486386 0.54326135 0.038657542 0.5620435 0.7280455 0.7765938 0.7540108 0.85205036 0.8247926
l17 0.41437274 0.1434164 0.14152378 0.5594482 0.04890148 0.57167596 0.39910036 0.40013134 0.44903564 0.8334236 0.5665329 0.38896573 0.020460557 0.6397467 0.8644394 0.24152565 0.25462806 0.014508511 0.94449174 0.9154525 0.22323644 0.49550134 0.47171974 0.02554994 0.89578253 0.026579143 0.49871656 0.78777707 0.49906397 0.80404556 0.9690633 0.83475715 0.36885804 0.67259765 0.768265 0.113527834 0.9574088 0.2568389 0.6205012 0.2774968 0.5232081 0.578719 0.92716473 0.028253749 0.6358113 0.46183458 0.9632507 0.73542964 0.82972616 0.52330387 0.07985337 0.07631597 0.041376475 0.94539493 0.07142814 0.2608067 0.07873837 0.9097339 0.11220814 0.18675 0.7025252 0.227093 0.7814492 0.5707267 0.7025817 0.48749852 0.18599877 0.83195233 0.64444196 0.56535596 0.12317166 0.5540129 0.85574365 0.041011073 0.8410798 0.10935528 0.66866547 0.5391528 0.9955012 0.98198473 0.54390526 0.814912 0.47077778 0.9193513 0.71616715 0.3012863 0.090818055 0.96691227 0.52574867 0.64017415 0.64613116 0.39557463 0.38924468 0.9728852 0.66500425 0.91798973 0.5652601 0.546878 0.46890503 0.1817086 0.90059304 0.13734138 0.62624675 0.782945 0.36813217 0.32324305 0.54907256 0.5801075 0.113936976 0.534954 1.0028031 0.5793798 0.3040482 0.95422584 0.2590329 0.12311943 0.7381974 0.5291464 0.5547263 0.6110641 0.027551036 0.9423768 0.3806586 0.42908564 0.9521232 0.7739029 0.3167928 0.81941146
l18 0.4767522 0.31064445 0.15466507 0.97298187 0.022173608 0.16850865 0.19568266 0.9252772 0.3978118 0.63910824 0.2517433 0.46924597 0.16005123 0.12265113 0.83789325 0.17344965 0.3515006 0.038629867 0.7294688 0.5766071 0.045198623 0.65451705 0.5292219 0.531924 0.59111917 0.16903563 0.74813837 0.9316026 0.28387815 0.030014666 0.39917767 0.8763971 0.21250427 0.008303828 0.6620229 0.51619613 0.62486774 0.8682589 0.5408314 0.82729053 0.19232155 0.1302206 0.68596035 0.8305005 0.6515709 0.20955218 0.077735715 0.37503693 0.73366123 0.12922159 0.31643713 0.5503876 0.8988181 0.678007 0.618945 0.9480913 0.3990168 0.154307 0.81924766 0.48216286 0.33844095 0.039227623 0.15498196 0.9516537 0.96231854 0.31956625 0.2445299 0.26949617 0.043322932 0.36033672 0.9251589 0.99095327 0.7684058 0.27999878 0.46416616 0.33322597 0.3052253 0.062484488 0.21154435 0.19166358 0.56696147 0.8185206 0.07972476 0.40303952 0.7305146 0.3055071 0.6868697 0.17077078 0.0013511289 0.11196338 0.16820298 0.07315029 0.022077518 0.018719401 0.11709553 0.5287947 0.5342432 0.2272438 0.6828719 0.4296737 0.63437885 0.95207626 0.55336845 0.35692772 0.5393389 0.35908595 0.58538973 0.03541329 0.22856185 0.56911886 0.78040963 0.71931523 0.04018778 0.71296704 0.12213538 0.28467387 0.4789231 0.60850614 0.6019527 0.9666571 0.99493945 0.7819909 0.45514205 0.7957194 0.98965734 0.7332626 0.34549478 0.22646527
l19 0.3578985 0.025435071 0.8203864 0.0411266 0.76045966 0.09849214 0.2613002 0.594979 0.5495281 0.21912768 0.80556893 0.71893543 0.29939413 0.81437665 0.057150505 0.25968897 0.16095005 0.71940976 0.08773375 0.826573 0.643379 0.11903956 0.7774231 0.2299722 0.5938582 0.079872474 0.73023766 0.75208414 0.91733414 0.25031772 0.6816689 0.6185021 0.058016766 0.15824716 0.7482326 0.5587976 0.67211777 0.7585838 0.82827264 0.4334752 0.2824359 0.43598935 0.49448374 0.38440943 0.07355945 0.46714824 0.57769495 0.7662538 0.9005085 0.62399447 0.1001542 0.7271698 0.48212713 0.87326616 0.9857433 0.48446888 0.18536793 0.353514 0.550722 0.67144036 0.14344706 0.30302408 0.94169915 0.32031 0.56256133 0.4118393 0.90360665 0.41713077 0.31890276 0.08847233 0.14001578 0.8203417 0.65554523 0.98167413 0.7288147 0.21887703 0.43860537 0.9058967 0.6064836 0.23842184 0.97005045 0.40108296 0.8475862 0.021771044 0.60627717 0.78547925 0.2006976 0.55462396 0.32811472 0.487214 0.14706779 0.29103854 0.57910717 0.23672195 0.65192276 0.3195186 0.53285855 0.88059837 0.28077102 0.7837362 0.7464548 0.06771899 0.27366436 0.21167365 0.47541 0.87632436 0.5716461 0.44620153 0.7794091 0.62380654 0.81673133 0.08369902 0.66773164 0.25240466 0.66005033 0.16740671 0.7406178 0.75591004 0.6113905 0.019616175 0.47241738 0.3891354 0.21823625 0.51093245 0.96498924 0.6368935 0.38504413 0.8898157
l20 0.4108432 0.18514903 0.17097954 0.8469442 0.18101954 0.5131775 0.9724424 0.5340456 0.023540119 0.64844 0.23183359 0.9516357 0.2398983 0.9577806 0.69860566 0.21982633 0.68546635 0.19314316 0.99422437 0.45166457 0.8764256 0.40619642 0.7200772 0.58837014 0.83883166 0.24429105 0.13739224 0.36483157 0.5178192 0.48653996 0.8842548 0.20961696 0.1625947 0.85360706 0.81141996 0.051034633 0.61041325 0.8585881 0.80400795 0.17334075 0.44551453 0.20579158 0.91129696 0.17561264 0.9075252 0.44360146 0.8877213 0.510474 0.332361 0.6189937 0.015612385 0.8211475 0.51353544 0.934725 0.09133636 0.14750217 0.87288266 0.17492379 0.3260626 0.086376406 0.6577832 0.77671355 0.31166658 0.12007038 0.97895885 0.35053968 0.21635738 0.6835956 0.6194106 0.65191567 0.44838667 0.45970044 0.9313431 0.47875544 0.70987964 0.59379935 0.023999846 0.7197412 0.55478966 0.44693536 0.35898593 0.9555398 0.8797722 0.18839501 0.28157988 0.43853965 0.002830187 0.9640585 0.04127661 0.52498895 0.112109914 0.7817178 0.41516325 0.2662275 0.48607475 0.72055966 0.43147227 0.93393975 0.8404709 0.58385944 0.5512709 0.63309896 0.030192327 0.73355186 0.2966134 0.65084684 0.60042405 0.49322805 0.30768362 0.33156452 0.6921954 0.8744064 0.0541522 0.7224632 0.3288708 0.5979221 0.96102226 0.049492877 0.5597239 0.21491878 0.42946157 0.3681299 0.582884 0.08685598 0.39889094 0.22078192 0.20201436 0.124946855
l21 0.53815633 0.4836439 0.18539666 0.78035945 0.4339282 0.75708723 0.66801035 0.65025884 0.5186642 0.8725927 0.5076435 0.13747221 0.47391924 0.006135031 0.8401004 0.2174986 0.100974865 0.9792453 0.12585177 0.7873586 0.007560245 0.10656519 0.30789006 0.23786153 0.7225612 0.34429055 0.4762713 0.10022214 0.47988504 0.73298335 0.13604027 0.41526586 0.6318642 0.992821 0.107806906 0.27094755 0.6694144 0.8157475 0.32548204 0.9948834 0.22852741 0.019212754 0.07838595 0.35161296 0.094616264 0.66545165 0.35285583 0.7421921 0.24367328 0.76377535 0.9861363 0.29332006 0.17802471 0.4437654 0.4423334 0.7469586 0.70213765 0.604724 0.5104473 0.6296465 0.5213433 0.22121829 0.8568246 0.2756555 0.34085026 0.00063794665 0.16185366 0.61671835 0.69305336 0.5867417 0.718252 0.86490756 0.69121206 0.7096811 0.23081464 0.1083742 0.5284608 0.25942966 0.44570348 0.7759605 0.044847395 0.31607458 0.790667 0.09833037 0.38803664 0.6921646 0.8596858 0.89208764 0.8984208 0.4219146 0.84719515 0.58992136 0.7716049 0.82860464 0.8619432 0.5348241 0.5611663 0.09389224 0.13071857 0.75685656 0.69472456 0.7940131 0.81577957 0.75699794 0.24432087 0.24101442 0.8729353 0.28876776 0.5097762 0.9181636 0.4130822 0.63446254 0.2780724 0.0116569605 0.37999076 0.23460823 0.78490716 0.6856682 0.7736413 0.30834892 0.78583914 0.6950744 0.7674727 0.026897041 0.03306414 0.48674193 0.65551347 0.90745133
l22 0.33898664 0.070882045 0.05621875 0.25541568 0.10726161 0.40728512 0.65408593 0.5813715 0.93231934 0.6755158 0.84038496 0.0016941332 0.17497133 0.31658056 0.0470228 0.055395372 0.26529485 0.018241532 0.69213086 0.90264106 0.16028836 0.730004 0.83802027 0.47867802 0.32918206 0.9614897 0.6756368 0.7681251 0.8310004 0.33296785 0.47129244 0.2078484 0.16451898 0.69038594 0.8591365 0.7180082 0.21261923 0.8677168 0.06308545 0.866969 0.15175405 0.8289028 0.94778854 0.91359764 0.64718956 0.46061918 0.4275435 0.779286 0.27904475 0.03937569 0.09123229 0.2780774 0.63993466 0.7457114 0.26008373 0.34079108 0.46115118 0.77404314 0.5586151 0.38989192 0.9554288 0.78402674 0.29952288 0.2581337 0.45920867 0.54731923 0.94026124 0.5045086 0.90762895 0.02129944 0.10617926 0.86242294 0.89421386 0.8603947 0.43422294 0.9743766 0.12473979 0.22435881 0.9269309 0.8924136 0.8501585 0.13278079 0.95257413 0.22046316 0.92181844 0.58569175 0.109179 0.2748946 0.33209968 0.37417322 0.18411298 0.3380916 0.38587093 0.1989753 0.8362577 0.007375324 0.17366344 0.29202247 0.7413643 0.34366813 0.66176176 0.14865905 0.3895021 0.4284909 0.15597561 0.83060527 0.17704366 0.09124245 0.7943785 0.16282761 0.21748199 0.827558 0.12270464 0.9450472 0.927118 0.91148496 0.84258753 0.3831536 0.5396783 0.23800358 0.7286575 0.7098779 0.4625873 0.25506344 0.7926918 0.4336222 0.88662803 0.7577601
l23 0.22787851 0.37499267 0.38681856 0.5781965 0.042492244 0.31052062 0.92249596 0.5182663 0.02777897 0.21597056 0.7373752 0.66957283 0.85702145 0.02860087 0.7627533 0.97708476 0.4046624 0.049840573 0.41762635 0.111316174 0.5601488 0.6625843 0.8922946 0.6888388 0.17160499 0.94775736 0.83023 0.62772673 0.97821003 0.07166213 0.411739 0.40635765 0.5087858 0.20243578 0.14917487 0.8727417 0.07478035 0.17548525 0.28437674 0.47810593 0.76389533 0.1465065 0.0660644 0.5742679 0.96964175 0.7861202 0.54111856 0.69159794 0.2543928 0.4146295 0.12429012 0.22456369 0.42312223 0.46373668 0.040639263 0.48693877 0.1841509 0.9198519 0.298874 0.1556821 0.8706693 0.21153733 0.7379996 0.3031267 0.12569657 0.70070225 0.028773444 0.46630374 0.4986492 0.40645608 0.7210142 0.8613983 0.13547367 0.043615673 0.9483969 0.77216744 0.4263781 0.69576275 0.54516494 0.7260996 0.16337731 0.3246616 0.88121337 0.33082938 0.52928567 0.55898476 0.4742555 0.5337654 0.19620441 0.9723904 0.94455415 0.9862729 0.3772887 0.32546234 0.450795 0.5298511 0.6498697 0.9403922 0.64636713 0.40940753 0.862106 0.81994057 0.023451582 0.7420316 0.48049146 0.8458282 0.90697145 0.8092484 0.6524729 0.85001975 0.42146638 0.6428776 0.47263065 0.8434522 0.6469436 0.7316705 0.97636116 0.94890904 0.43485266 0.45755732 0.16476308 0.055716977 0.64531046 0.87211543 0.8255312 0.2976567 0.28257337 0.48238978
l24 0.28975317 0.38072315 0.2722641 0.3785585 0.7727117 0.66269857 0.039845087 0.57757056 0.3722509 0.71981865 0.5072039 0.83914113 0.6417606 0.93755037 0.63131046 0.3136927 0.66737443 0.92536086 0.32759407 0.6596104 0.61064535 0.9275982 0.6090494 0.26715046 0.38262498 0.61971605 0.548877 0.2112288 0.39443466 0.001776039 0.25845885 0.12313321 0.70234436 0.68442005 0.918875 0.77564484 0.80932766 0.12813756 0.7461748 0.084423654 0.95874065 0.65291274 0.43720257 0.8475291 0.14260443 0.37312934 0.609624 0.4185173 0.2880768 0.075037606 0.35324624 0.12445467 0.17842254 0.7056632 0.028168812 0.14547399 0.974565 0.13822575 0.40622798 0.2994742 0.74031556 0.8163183 0.055746797 0.8092575 0.41440317 0.56044805 0.8130472 0.37884462 0.79399884 0.3081181 0.62804914 0.034288555 0.6818724 0.09034375 0.43227974 0.40263554 0.18663697 0.21051462 0.79164773 0.50731456 0.9276737 0.1083512 0.73562676 0.5634738 0.7469349 0.98626333 0.19650805 0.19832276 0.49423334 0.014512436 0.7642901 0.72632957 0.604841 0.64577764 0.8127155 0.50968003 0.23273796 0.83984524 0.10019078 0.918107 0.35537216 0.3792276 0.11588966 0.38239628 0.51602113 0.3290076 0.99072134 0.23908752 0.273869 0.7659289 0.12624958 0.2282598 0.7743012 0.4174073 0.53310674 0.7874021 0.74524546 0.033525094 0.8230818 0.9969875 0.7309626 0.986932 0.5822279 0.95499605 0.5896172 0.38469136 0.6618775 0.58514905
l25 0.7517326 0.35283902 0.045977652 0.44845608 0.7592419 0.7626662 0.52636987 0.4083432 0.42453748 0.25466043 0.7526017 0.7778664 0.2614785 0.43255842 0.9451777 0.71988696 0.3552141 0.8558572 0.25875464 0.5433642 0.558301 0.580526 0.73994607 0.096216284 0.33742657 0.050011277 0.6678813 0.2234841 0.11542476 0.4438247 0.41675702 0.3728609 0.43104216 0.47202107 0.314918 0.9720297 0.50770086 0.50004524 0.89658207 0.4454345 0.9726507 0.11312244 0.56932455 0.2045576 0.53608525 0.8163839 0.8596106 0.48410463 0.8660337 0.2607103 0.9730998 0.13309456 0.4618106 0.70661384 0.5719327 0.053477533 0.1928068 0.58912957 0.24514195 0.19575237 0.12121632 0.8701467 0.9991007 0.68102825 0.9533646 0.9636008 0.30803442 0.61991453 0.44843903 0.9386222 0.32177588 0.5137317 0.5892575 0.13394105 0.12396592 0.47891593 0.457789 0.7628237 0.58511394 0.00899911 0.5380782 0.6682198 0.751211 0.8811563 0.044956088 0.72432536 0.9081454 0.8671484 0.43349114 0.8027113 0.02670172 0.7040171 0.8466714 0.497702 0.69417197 0.48023558 0.8031457 0.9577175 0.52808887 0.24587673 0.8281778 0.5065685 0.6082411 0.456191 0.08746788 0.6358109 0.6736485 0.22335759 0.42804167 0.82103413 0.74470013 0.6497893 0.17398067 0.18023401 0.29715258 0.6262803 0.6121405 0.6652171 0.20403633 0.51267725 0.78342396 0.110288404 0.8262123 0.40862143 0.2659802 0.7667222 0.4917929 0.70475817
l26 0.82543415 0.63647884 0.05423687 0.9046898 0.3094032 0.6686065 0.31533468 -0.0015896703 0.75131106 0.5606655 0.20745875 0.5569421 0.66450936 0.48928055 0.7895653 0.40645215 0.5018253 0.39856493 0.12720466 0.5964944 0.28776845 0.11445816 0.17485698 0.8272561 0.7709448 0.026388768 0.107070394 0.9185706 0.60462356 0.8987397 0.078926824 0.72050065 0.82709646 0.45114088 0.22151153 0.77074903 0.57619005 0.8658298 0.28813803 0.58440125 0.6354824 0.6656448 0.34075615 0.6726757 0.73185915 0.7276934 0.15763034 0.4251019 0.89347714 0.87135744 0.017126286 0.80333465 0.61826646 0.20258734 0.82607967 0.48853803 0.4391467 0.67765635 0.044568192 0.80860424 0.2701545 0.64164835 0.039433386 0.9795037 0.6283713 0.9763309 0.34509668 0.8589687 0.602493 0.8086463 0.33796188 0.34195465 0.78794783 0.5384364 0.92030317 0.30138066 0.27935737 0.44860518 0.18572791 0.48402962 0.25413975 0.11553639 0.08550934 0.7751605 0.020074174 0.09938283 0.93616575 0.4828906 0.5658868 0.58041686 0.62521553 0.54059786 0.63226646 0.9619636 0.017179446 0.6658132 0.22689006 0.28395396 0.7977891 0.119174786 0.363753 0.58059084 0.40884617 0.19843876 0.6629266 0.09917131 0.9080255 0.8956916 0.33291516 0.79884714 0.065337405 0.7949721 0.8701802 0.12927428 0.6107019 0.81038725 0.8822896 0.35498983 0.76112264 0.6940727 0.73694706 0.31413615 0.14018495 0.88872105 0.39534014 0.22497083 0.75373447 0.5045611
l27 0.56207114 0.8883192 0.8913011 0.915049 0.9714579 0.8383571 0.40632296 0.30860057 0.38175845 0.47906455 0.79915714 0.09025116 0.9217678 0.25277418 0.13314876 0.20119286 0.5134707 0.47076702 0.19317742 0.95189786 0.28162077 0.25139907 0.9078002 0.5710692 0.38612795 0.93476903 0.6519021 0.61687547 0.060606815 0.78318655 0.28047672 0.1117756 0.019816108 0.015799437 0.81778806 0.6029871 0.5431656 0.21871889 0.14234775 0.52145994 0.7656773 0.43751985 0.7420737 0.53598064 0.19081073 0.5280712 0.7317681 0.32835114 0.68905944 0.72866344 0.4256021 0.23704927 0.17320894 0.9302901 0.9211998 0.81178296 0.8411955 0.77766883 0.7136192 0.12905014 0.4199234 0.928109 0.8866414 0.41075724 0.52172595 0.8272242 0.7962152 0.54963565 0.59279126 0.48465484 0.5109137 0.9812099 0.96714735 0.2551169 0.826819 0.035514392 0.3820271 0.56714344 0.6283893 0.6880602 0.5186994 0.7490059 0.85181814 0.7691701 0.14127523 0.27171156 0.68355227 0.23906396 0.37159136 0.5144698 0.1615517 0.40368518 0.42006928 0.7188907 0.61800814 0.48780742 0.32368684 0.2524958 0.73417664 0.5920599 0.83439595 0.11921826 0.6077163 0.78782827 0.5136467 0.4703069 0.5655865 0.8913436 0.23567352 0.69864017 0.6840981 0.08810619 0.6038952 0.20870914 0.058194812 0.9163762 0.6030956 0.627002 0.4950639 0.9096809 0.54818034 0.1373928 0.5444991 0.47287855 0.91421646 0.071106195 0.06750574 0.58489704
l28 0.39914665 0.8211971 0.70786375 0.9419644 0.048173357 0.41615537 0.09474532 0.5589874 0.21633872 0.6237183 0.63958806 0.9278707 0.72797626 0.015036668 0.7842341 0.8911553 0.42046633 0.2914365 0.15737565 0.72763044 0.11243681 0.9783526 0.9662999 0.8536717 0.059615724 0.2769301 0.31831923 0.6187897 0.129365 0.9173507 0.22086652 0.23955508 0.3603892 0.07717538 0.9152226 0.2350221 0.11002911 0.22901818 0.097769015 0.5325542 0.0475981 0.093720116 0.6271852 0.5468292 0.7674309 0.31167635 0.9121136 0.15761864 0.73887986 0.70788634 0.64005756 0.9395489 0.77719456 0.007840566 0.47209975 0.4875715 0.7587632 0.9866575 0.40411574 0.28695747 0.6940178 0.82962596 0.83112156 0.11613149 0.6251436 0.6035614 0.70758516 0.9052835 0.35606912 0.51765174 0.96013904 0.938874 0.9884531 0.9609196 0.124344 0.25760671 0.061480317 0.28112313 0.03423984 0.02780641 0.5298865 0.22652319 0.15091453 0.06407484 0.97539383 0.039112657 0.2515123 0.040005412 0.13603072 0.5586236 0.72937214 0.78800005 0.37185562 0.5753298 0.47989056 0.17021139 0.70860547 0.7251309 0.111493625 0.7906812 0.12733677 0.678154 0.3788749 0.36305916 0.61811507 0.12435915 0.8590164 0.30110428 0.41607845 0.10579636 0.9981839 0.15758704 0.080199145 0.47889313 0.7309007 0.49172333 0.10318398 0.8327889 0.7200101 0.37105438 0.39226037 0.80736786 0.35991406 0.084613666 0.10688247 0.31075191 0.055718016 0.29111186
l29 0.29866454 0.20518099 0.1412635 0.4719014 0.3313179 0.68482137 0.5522037 0.07493208 0.32211924 0.35274282 0.6612833 0.6828754 0.60299253 0.37560064 0.74955416 0.890683 0.4559756 0.83044255 0.8376462 0.068688534 0.1624649 0.23697497 0.9346902 0.8402571 0.43192464 0.06578046 0.5833739 0.04844591 0.41685635 0.05516618 0.8782279 0.063778274 0.19723815 0.43895745 0.7468404 0.5927153 0.51354295 0.18785633 0.89442676 0.546386 0.17321892 0.1347693 0.4418066 0.1203291 0.9389218 0.1678769 0.4669099 0.12809086 0.78463125 0.387148 0.05141679 0.1863683 0.69810396 0.92596096 0.22518812 0.56526417 0.662749 0.79091823 0.74955815 0.63063943 0.61727005 0.3588182 0.4124437 0.39985585 0.68088895 0.53132176 0.2359262 0.07409256 0.42794737 0.49436456 0.16725563 0.5954974 0.95909053 0.068465956 0.67240596 0.96508485 0.18323311 0.9674773 0.97802854 0.2917976 0.9085781 0.101918 0.18512937 0.84961593 0.28775942 0.08377675 0.2575084 0.6524232 0.2263556 0.39841834 0.9863408 0.45768183 0.34637237 0.18655948 0.2321391 0.33146974 0.9050837 0.57242876 0.43484333 0.95500815 0.23121625 0.9375613 0.36212656 0.43300095 0.38785693 0.6148963 0.99936 0.1013484 0.31853652 0.9495288 0.1613091 0.23817416 0.34347752 0.42106456 0.6257882 0.031231735 0.83002424 0.13323602 0.6232488 0.5028527 0.3601202 0.4196213 0.3060704 0.24513942 0.2780978 0.9873187 0.96257067 0.5390028
l30 0.6707531 0.78672975 0.46853104 0.67985463 0.3435789 0.41947937 0.38870722 0.98551303 0.13447466 0.45418745 0.5068584 0.23791228 0.75045043 0.98058033 0.17137523 0.9903076 0.29970062 0.28105286 0.7389194 0.20418863 0.5598164 0.20990865 0.44818866 0.75119555 0.9133238 0.52177155 0.96089226 0.9249885 0.8801137 0.22731923 0.14424641 0.6999626 0.7397954 0.6221254 0.7020477 0.82524294 0.81855327 0.55794275 0.8314148 0.117630735 0.19541109 0.05905908 0.6637757 0.85268515 0.1073332 0.04690659 0.46688733 0.642766 0.7845821 0.19221498 0.68752897 0.9767368 0.7390141 0.67132795 0.071121804 0.006211952 0.06058926 0.81286126 0.49603698 0.10658912 0.14485596 0.4650742 0.35499987 0.9804332 0.1100646 0.47171137 0.64889485 0.80511606 0.16168776 0.74278176 0.13845381 0.9417983 0.34827945 0.9681124 0.946746 0.7109392 0.19263068 0.38956627 0.40243495 0.6855179 0.9301011 0.6006749 0.92836225 0.44053137 0.677845 0.6960895 0.12048071 0.9379149 0.766576 0.7056813 0.4510951 0.7498474 0.96060926 0.45448786 0.34912536 0.17465693 0.6151612 0.31518745 0.54493624 0.873842 0.9817942 0.45912987 0.50565594 0.04387302 0.030063935 0.48970133 0.049745847 0.041098088 0.62960064 0.09929153 0.9803804 0.683454 0.45844024 0.54917717 0.7749021 0.6435202 0.69147056 0.5853274 0.68870217 0.03616782 0.7154501 0.67928493 0.32476476 0.41790947 0.8191532 0.99767184 0.47583446 0.79484695
l31 0.7179195 0.22834834 0.9737144 0.96633136 0.41308147 0.29137185 0.5402169 0.7015325 0.63275963 0.03925844 0.97128135 0.13941033 0.748547 0.59212923 0.26029003 0.83691216 0.6265795 0.8989046 0.19591494 0.47177124 0.46095943 0.15493287 0.23960575 0.01382902 0.38232818 0.5155772 0.99025327 0.036032837 0.94241315 0.87656516 0.9363806 0.6446746 0.7820838 0.93667036 0.41193774 0.7156285 0.8385505 0.018412415 0.91825914 0.06052316 0.7093055 0.049740456 0.86064 0.10876419 0.16473655 0.8000153 0.23730162 0.8752982 0.037454333 0.70872414 0.841803 0.6380051 0.5832851 0.29184505 0.2521657 0.6305545 0.11901269 0.6379134 0.9065467 0.5491435 -0.0014287536 0.9246673 0.19769254 0.0021981753 0.48137143 0.7668824 0.85657096 0.16962755 0.56328744 0.00484346 0.95977277 0.023341578 0.061976057 0.83156407 0.57556903 0.76781476 0.5391258 0.025835836 0.9084495 0.8148569 0.07057295 0.29595017 0.40782532 0.7700424 0.3642223 0.76542366 0.5046981 0.35980746 0.50551134 0.6767476 0.07771376 0.5856125 0.56772876 0.14065908 0.4430108 0.6416657 0.4288575 0.27166063 0.12935498 0.79424757 0.19450745 0.74811274 0.69569117 0.63732797 0.39738277 0.1259867 0.504964 0.28887102 0.88615584 0.40763715 0.08203722 0.9358116 0.85908556 0.5149478 0.25890186 0.2967696 0.3995549 0.40595868 0.5211496 0.41232806 0.3915175 0.7771838 0.59003454 0.090115845 0.05775457 0.54305035 0.56541973 0.9623425
l32 0.80357075 0.1683879 0.07338261 0.8366243 0.9257732 0.5057387 0.30818883 0.30284965 0.6594728 0.96899754 0.9496551 0.7358424 0.31925544 0.7851257 0.78836906 0.93036664 0.23164673 0.68761855 0.62279904 0.1336615 -0.000366447 0.40720043 0.49246585 0.3746155 0.73994 0.82842875 0.23024544 0.11790727 0.8965129 0.84235305 0.67591894 0.8198132 0.28720278 0.86683553 0.321477 0.7329196 0.45095068 0.94150317 0.3904887 0.7605424 0.4711934 0.6010476 0.41697398 0.43341857 0.17985302 0.7909024 0.85625476 0.8270977 0.86176413 0.33089754 0.5299096 0.49935403 0.19615608 0.6892204 0.9185684 0.68627954 0.25431985 0.5386078 0.4294047 0.72144175 0.41068026 0.29332417 0.31884703 0.4459057 0.27450866 0.6228048 0.6056934 0.9818354 0.22300144 0.58650917 0.09633431 0.22427997 0.5817942 0.6812839 0.9319941 0.10555606 0.17237626 0.18759207 0.97298044 0.066878706 0.788198 0.55698204 0.70062226 0.91726047 0.45771983 0.80167174 0.89672524 0.89142305 0.4521455 0.27166617 0.95694005 0.39387232 0.7726778 0.91354007 0.31547382 0.024110796 0.07432798 0.39164215 0.51498055 0.8262922 0.24001095 0.34267896 0.24887365 0.0019141816 0.20196225 0.14589478 0.16932935 0.4125277 0.9464321 0.22516137 0.42935586 0.91733927 0.32392803 0.42378858 0.3175328 0.30173022 0.5490467 0.52317816 0.4994484 0.10149157 0.7734004 0.7482705 0.5424136 0.19151613 0.35408142 0.08175633 0.686715 0.77827543
l33 0.6113412 0.9504987 0.54174274 0.15875174 0.31677014 0.4254797 0.6505718 0.19213682 0.23562476 0.1709614 0.043185323 0.2747337 0.8915358 0.2914519 0.6795223 0.48598444 0.3856538 0.4633065 0.84608644 0.95373744 0.17311287 0.66502845 0.672209 0.023804095 0.5758012 0.9541079 0.24770305 0.8894728 0.66037834 0.5615434 0.91079986 0.9768095 0.8822224 0.76109886 0.76340175 0.88315153 0.05169095 0.7652495 0.932742 0.39692461 0.2931096 0.7471316 0.57659626 0.56756604 0.9080776 0.48051608 0.7496944 0.6460359 0.93542683 0.96533215 0.9187486 0.34452486 0.09059728 0.56599796 0.9522586 0.36186823 0.7958929 0.7220947 0.662986 0.33794624 0.7122219 0.77812433 0.32055593 0.3634508 0.31252813 0.69636434 0.040864542 0.44528887 0.6447463 0.5256348 0.24491923 0.38334998 0.9441787 0.21653093 0.5514608 0.9190208 0.31978577 0.7544898 0.064348206 0.2722586 0.019042954 0.7634039 0.37580428 0.35235095 0.15194541 0.40271777 0.40476802 0.9096401 0.45783952 0.91968596 0.21845411 0.57858443 0.45189402 0.7709289 0.32094735 0.6074055 0.37587965 0.2328168 0.6352054 0.98777694 0.0674995 0.7731187 0.82691103 0.51042634 0.012138313 0.60255253 0.6324971 0.109445065 0.46887544 0.7221256 0.9045948 0.6266692 0.70786166 0.023223748 0.58895475 0.57494015 0.4571024 0.6033455 0.89382744 0.30935317 0.74815 0.97625375 0.21683049 0.418888 0.20927428 0.06622639 0.8441089 0.36777994
l34 0.086035885 0.054294657 0.51250196 0.6137399 0.80810845 0.33104467 0.69107825 0.032935943 0.9066871 0.666188 0.50756246 0.06986797 0.7935129 0.6418114 0.094379805 0.22091259 0.9878464 0.3447457 0.5244444 0.72127545 0.5723461 0.6926363 0.60224897 0.75422996 0.627377 0.15730202 0.16253991 0.63822466 0.84474486 0.6470284 0.2445266 0.71172976 0.43450972 0.68256736 0.759405 0.8055742 0.54996014 0.42711574 0.35278416 0.49356648 0.24157341 0.7394007 0.77788854 0.83375627 0.5949067 0.8496523 0.097118065 0.26645848 0.5496094 0.6706184 0.6127092 0.36027437 0.07990417 0.039419055 0.10528592 0.031495642 0.10815717 0.5397992 0.33735594 0.33403027 0.8940926 0.89444125 0.97821164 0.55894184 0.5443979 0.6491657 0.8887293 0.33712125 0.395705 0.3561368 0.57449436 0.064176805 0.8058579 0.45147592 0.6318757 0.63360614 0.2645303 0.20963132 0.42490858 0.80253196 0.59338564 0.7680861 0.17759044 0.32855234 0.29494536 0.9735347 0.21087763 0.71557176 0.7866456 0.53700083 0.24032907 0.094781265 0.13068137 0.53108615 0.18448508 0.4918446 0.408739 0.022829408 0.26122254 0.5468771 0.38981488 0.5493861 0.2686017 0.4461344 0.5281781 0.27368653 0.41762432 0.45128202 0.9273922 0.003732326 0.31892517 0.3650325 0.81628907 0.826349 0.7929011 0.67816174 0.28279847 0.14082272 0.81680536 0.32952392 0.48421028 0.79163355 0.849809 0.06823845 0.11787121 0.7476936 0.8436555 0.42254314
l35 0.35216194 0.58655477 0.7184609 0.2198281 0.80700576 0.33105984 0.0011490626 0.07231494 0.07950098 0.7316107 0.09128665 0.4944833 0.5048035 0.5235796 0.18083005 0.87340355 0.9673953 0.36078143 0.7369642 0.5370991 0.13376299 0.05477909 0.32511538 0.70061505 0.8139764 0.71126264 0.09237721 0.2857826 0.1490352 0.5532821 0.6127536 0.6321913 0.43119302 0.48010796 0.15024775 0.74752283 0.20495489 0.6565 0.7678102 0.30175278 0.90931547 0.93015045 0.75394064 0.5351824 0.14397487 0.09749021 0.90481496 0.39337373 0.26127887 0.17028216 0.39120188 0.6592999 0.38878113 0.10897208 0.34977913 0.81181544 0.7057205 0.9174032 0.016561253 0.9471575 0.9864009 0.7966137 0.9317628 0.535161 0.69327843 0.14971887 0.84258807 0.6570538 0.1753068 0.5636652 0.27368677 0.76034135 0.07042078 0.07908961 0.99461716 0.32263148 0.8527875 0.56368107 0.6159021 0.7847475 0.8605216 0.25696933 0.26631704 0.5608382 0.34978628 0.76070184 0.18948695 0.7441679 0.018051254 0.8074502 0.79746187 0.41897678 0.55664414 0.1014646 0.8903008 0.026132379 0.08303923 0.84176856 0.8445028 0.32131323 0.58750623 0.8989427 0.71546006 0.15809864 0.6092049 0.59561986 0.23356861 0.25887316 0.7079888 0.2632356 0.2322801 0.20859921 0.83750075 0.9016369 0.16386887 0.2974748 0.73700637 0.26410437 0.44555998 0.8163274 0.6073741 0.69395876 0.30877823 0.17162682 0.3827094 0.42401925 0.81518644 0.36642748
l36 0.6941637 0.19078824 0.03771766 0.7439282 0.3914453 0.15315963 0.053538598 0.51683587 0.76266885 0.6621386 0.9291805 0.8264712 0.68823373 0.54267067 0.8702598 0.4442639 0.47534055 0.39684057 0.6033252 0.568555 0.46028814 0.24957727 0.8700611 0.22484954 0.674116 0.94735914 0.9321304 0.6494721 0.06616261 0.15505043 0.6754328 0.14111438 0.33823323 0.42726865 0.6401428 0.76204866 0.41294146 0.48174518 0.3630726 0.3451 0.84713227 0.66626763 0.53971386 0.5363619 0.10865089 0.9679737 0.75428575 0.36065385 0.118309096 0.9130294 0.35377425 0.52958465 0.3069878 0.7050621 0.45891425 0.77764106 0.4069516 0.18183714 0.15293759 0.5100279 0.47551414 0.15251046 0.15378936 0.4703289 0.4238388 0.16037712 0.36720118 0.8578258 0.6376769 0.79018277 0.6765361 0.15816903 0.12525474 0.67124724 0.072649926 0.5276387 0.6609025 0.60412323 0.7750912 0.19767107 0.81405646 0.3727451 0.87745625 0.7483773 0.19673221 0.32614082 0.18745555 0.19828878 0.7691735 0.4396851 0.48276943 0.5789925 0.65368146 0.73007315 0.2904746 0.43258497 0.68484306 0.00665458 0.74073696 0.513417 0.94876176 0.441345 0.98563474 0.17885315 0.6727757 0.55672824 0.20601158 0.7923855 0.9024093 0.9339575 0.03223185 0.39105242 0.31409377 0.1336559 0.6895423 0.31737408 0.017780786 0.46319547 0.08454984 0.373208 0.8160986 0.8198665 0.46285188 0.58668894 0.9740338 0.9879191 0.18194191 0.68504786
l37 0.74479467 0.64976066 -0.0027534454 0.120437026 0.90374285 0.57441753 0.16732185 0.7438942 0.17796947 0.93059397 0.06011417 0.50273436 0.6369658 0.499045 0.7104314 0.30512178 0.67901057 0.40112472 0.6234536 0.53754693 0.86663246 0.268921 0.95237726 0.45399183 0.46962202 0.5369519 0.2955459 0.303635 0.8341729 0.3893921 0.8023889 0.65216094 0.735603 0.7377298 0.26745963 0.7445343 0.50701535 0.785476 0.72606796 0.32312784 0.24833119 0.5295851 0.7206606 0.6452162 0.70793146 0.3051333 0.83611906 0.080211945 0.3765289 0.76872 0.17545378 0.14858289 0.89018786 0.12202813 0.7335155 0.242848 0.14582887 0.11274803 0.42729223 0.75313383 0.63722295 0.26918882 0.10688634 0.69586843 0.27421552 0.3285716 0.008335346 0.0069001825 0.4613621 0.03467276 0.81122375 0.247163 0.13614728 0.13776265 0.15534088 0.7622892 0.47098485 0.81256235 0.6813791 0.7400517 0.84157956 0.6674262 0.557645 0.2253122 0.50474304 0.5767073 0.013101177 0.3278027 0.48554993 0.86151326 0.4692144 0.029058356 0.26941746 0.5699521 0.9198065 0.6356755 0.05130493 0.37028003 0.99062485 0.5981147 0.9063007 0.29509464 0.6451661 0.049135815 0.3519615 0.0937067 0.054297183 0.047065165 0.12144321 0.79377764 0.033577 0.123394296 0.71224326 0.01327546 0.3148869 0.9023262 0.1238429 0.7397988 0.13826504 0.4481356 0.52044076 0.26118246 0.071528025 0.088831745 0.3749187 0.27719373 0.099399954 0.6258596
l38 0.7022736 0.035821557 0.9304403 0.33328804 0.42364344 0.45881557 0.09415732 0.48000956 0.35458997 0.5043615 0.4078896 0.16094308 0.65931463 0.028020946 0.6832705 0.31488046 0.38390878 0.6812356 0.708636 0.6601302 0.9136562 0.7483227 0.91876584 0.5933597 0.8851321 0.66540533 0.23308721 0.9278204 0.12180597 0.7112276 0.779477 0.7591561 0.5062535 0.59768486 0.45139334 0.81171703 0.05348322 0.85472393 0.43379554 0.8275858 0.8638892 0.41215205 0.74276257 0.9195206 0.16769175 0.17711549 0.83653915 0.11514681 0.60037035 0.3042634 0.038841836 0.13537697 0.18327563 0.3972383 0.6907862 0.43533114 0.87726855 0.35264093 0.19417001 0.30492634 0.26041406 0.84139687 0.10610813 0.09693508 0.017003426 0.8170814 0.95143706 0.8574634 0.48378816 0.6098777 0.41267192 0.54977036 0.035386164 0.17458545 0.9165862 0.41268423 0.76060665 0.4991133 0.41256875 0.7262327 0.41681072 0.5852279 0.41036314 0.87540615 0.64655346 0.17621109 0.51234514 0.8465951 0.48380896 0.047708817 0.78894365 0.5022651 0.7310161 0.5597413 0.22199734 0.1044707 0.11110999 0.5287177 0.41440362 0.28673366 0.054064874 0.23815146 0.32875243 0.5091004 0.5430666 0.6956103 0.037599813 0.2801694 0.9713377 0.06501415 0.37608913 0.78254235 0.106714 0.0966901 0.94845927 0.44199225 0.26081127 0.77858216 0.23672287 0.37098673 0.49219257 0.8552374 0.9611686 0.62059945 0.41260475 0.96759063 0.15546763 0.18087406
l39 0.3118089 0.29725146 0.89436924 0.7706378 0.50385654 0.59226376 0.065498605 0.45469388 0.46842486 0.5100968 0.0071518477 0.49252433 0.077166736 0.86722684 0.87996787 0.82940626 0.9735135 0.364122 0.9674502 0.67419606 0.16486198 0.74178225 0.21963361 0.2199105 0.047288194 0.5731436 0.9166133 0.5843635 0.7470152 0.10860755 0.47950518 0.98819 0.9925947 0.3249733 0.6440648 0.016219564 0.30745158 0.33611867 0.40324697 0.20543504 0.4647112 0.71247447 0.3684851 0.5212858 0.4755241 0.69808495 0.093409225 0.1529004 0.32630137 0.9018339 0.091025636 0.94603246 0.3147722 0.57069165 0.99293 0.5312418 0.2818444 0.93250316 0.8074765 0.08320595 0.6254702 -0.0026529212 0.3133499 0.8863308 0.82859784 0.3142779 0.28614473 0.7447421 0.7856308 0.046623196 0.18248056 0.43858027 0.15829545 0.6220744 0.98521346 0.50214356 0.9249511 0.6693879 0.8467789 0.9194077 0.74019057 0.7939179 0.9973626 0.8987387 0.17238869 0.9922802 0.8541862 0.27760717 0.80239826 0.17138138 0.57660705 0.26440635 0.2965699 0.96592873 0.82770354 0.2298179 0.89390963 0.009162865 0.2165255 0.039643757 0.6065825 0.16709596 0.058419943 0.7838353 0.9535714 0.904041 0.97644037 0.38364646 0.8505187 0.5469028 0.5382853 0.6157361 0.005692362 0.79224604 0.9302656 0.24811232 0.019408874 0.95327663 0.49200103 0.6065852 0.51492053 0.008975928 0.85630447 0.6527204 0.31150007 0.03076975 0.052422922 0.8214614
l40 0.6884209 0.9889519 0.29497385 0.9097289 0.91041774 0.0043471237 0.5911029 0.5509783 0.22206645 0.39297682 0.30995592 0.14908025 0.7012313 0.5241481 0.8513071 0.0012399729 0.4254423 0.005064474 0.6404937 0.49356124 0.09632121 0.244094 0.5386428 0.24774392 0.29656148 0.8127507 0.43247262 0.59661466 0.112907566 0.6292327 0.76312256 0.7713231 0.67604697 0.31146717 0.23593238 0.6283718 0.762203 0.81505924 0.3070535 0.045151092 0.77929556 0.6126629 0.26562464 0.8779892 0.2523533 0.16888747 0.8413452 0.55933917 0.47500977 0.7870889 0.7552701 0.959305 0.46136984 0.3601544 0.7525936 0.80711854 0.0014467114 0.068566255 0.12798592 0.63179284 0.62385374 0.91734374 0.88072926 0.23356643 0.9030154 0.57576716 0.36882842 0.48823494 0.72840744 0.7054993 0.82271874 0.12422506 0.44129032 0.26040944 0.645432 -0.004638039 0.15395689 0.6591496 0.62188447 0.37118727 0.9343704 0.2435663 0.7826127 0.1755247 0.22773935 0.13372695 0.21460973 0.2744316 0.14566188 0.7793663 0.85017383 0.9387339 0.7904468 0.07074994 0.93591374 0.17004612 0.3741304 0.57851017 0.16822036 0.97074413 0.54027057 0.53453404 0.18305795 0.6175901 0.85807776 0.16234167 0.39290634 0.8954651 0.8667691 0.25371665 0.365163 0.97690123 0.92496985 0.83720034 0.367854 0.5903701 0.9115195 0.96200466 0.5733784 0.42905736 0.40366387 0.6871109 0.35817358 0.52396005 0.81950015 0.56702447 0.21344703 0.5969648
l41 0.6360569 0.98496217 0.921601 0.54896426 0.58455807 0.37530136 0.36366397 0.9301526 0.21069188 0.54389745 0.9333619 0.7696997 0.95881927 0.3254435 0.61846906 0.22336757 0.16020264 0.25131142 0.90788954 0.806414 0.88803744 0.44176 0.65782166 0.2849261 0.22942914 0.31573355 0.8160446 0.47617093 0.04509634 0.5930095 0.84239674 0.9283114 0.77518433 0.44835818 0.41306722 0.19590013 0.5689589 0.053652793 0.5658715 0.08521305 0.69807637 0.90921754 0.06964409 0.3568941 0.031108756 0.6363121 0.0886064 0.02221179 0.46864632 0.06649733 0.6188631 0.32051998 0.0446727 0.47422478 0.22586484 0.8641953 0.39755407 0.49498484 0.072698176 0.5271978 0.038432755 0.92859507 0.11474663 0.98180807 0.7032097 0.34554467 0.06901965 0.13117078 0.59165734 0.30962628 0.8202629 0.3887612 0.88221127 0.07009991 0.37753832 0.42279592 0.814724 0.6635185 0.8690136 0.15550996 0.18699966 0.4027951 0.75772893 0.70103323 0.20778152 0.857069 0.041525695 0.9851614 0.03351883 0.46173856 0.73620886 0.46391156 0.3258835 0.088470146 0.038203556 0.6564631 0.11730489 0.539088 0.9969334 0.43849462 0.47638783 0.30815598 0.118346736 0.9311065 0.85779953 0.8490011 0.9181717 0.84530807 0.35030365 0.82840014 0.9434791 0.61357343 0.26282746 0.7313048 0.10931739 0.47681117 0.9318067 0.23442225 0.5899323 0.44966078 0.319773 0.37547693 0.20501967 0.117227204 0.64730406 0.83786863 0.76176924 0.7246166
l42 0.4740568 0.66291255 0.22992365 0.4720713 0.3188298 0.1582894 0.1722152 0.079954036 0.54370487 0.539419 0.5523748 0.9526398 0.9204518 0.21591313 0.22828008 0.50723267 0.77999973 0.969582 0.24202256 0.5560071 0.2680864 0.4176857 0.73737615 0.050695814 0.49258518 0.6338561 0.2160342 0.41207463 0.2969019 0.6961767 0.09786801 0.55282044 0.82577455 0.71847034 0.7938012 0.8304934 0.75437266 0.61532336 0.49165663 0.72124237 0.058005366 0.72502315 0.7814447 0.6210029 0.30986455 0.41041252 0.8707079 0.08499794 0.69054717 0.45784786 0.8861507 0.871781 0.021123564 0.8055451 0.09220853 0.98223734 0.058672786 0.7543451 0.20712586 0.4679208 0.08222616 0.32020992 0.7265998 0.92635876 0.79524976 0.87273985 0.4942798 0.3061348 0.1413489 0.30253148 0.9227829 0.72553504 0.037232395 0.8385974 0.5620669 0.17797025 0.8511677 0.19674179 0.26834393 0.64051425 0.022718547 0.4104841 0.6637218 0.25377572 0.52026355 0.8603901 0.78218675 0.60953945 0.4141198 0.12657751 0.63188046 0.49577597 0.5156729 0.120605916 0.32469893 0.055719696 0.71546763 0.15794924 0.6097133 0.04159567 0.36536252 0.8989097 0.59540737 0.5095145 0.90720063 0.9383661 0.8555962 0.2962261 0.81460285 0.55576575 0.15922555 0.721942 0.32139707 0.015719105 0.07222081 0.27719435 0.33258918 0.5973457 0.07074825 0.16494122 0.14491257 0.983279 0.3947024 0.1279897 0.6294084 0.4280095 0.10513215 0.331233
l43 0.83348185 0.9467469 0.53307456 0.526417 0.49696174 0.28531834 0.5257583 0.10925729 0.5296302 0.93942237 0.9649456 0.05442086 0.3071572 0.28792095 0.39935642 0.022352321 0.5905075 0.5667725 0.20659117 0.569771 0.13533068 0.361582 0.019748775 0.26406667 0.6425696 0.8788458 0.86243445 0.96107876 0.402907 0.8220773 0.053612687 0.34016573 0.32417217 0.71871024 0.15318906 0.9078675 0.8712415 0.58922154 0.32436258 0.04903805 0.05461029 0.33181652 0.18502796 0.14297059 0.51745784 0.2493434 0.40203324 0.3452803 0.7656691 0.055116665 0.9071013 0.7860511 0.07101014 0.53963804 0.5866781 0.7165322 0.045114078 0.8421222 0.8220908 0.22942278 0.54026306 0.40888873 0.58333164 0.08385174 0.52545977 0.34502378 0.4452131 0.279825 0.90002394 0.8287674 0.83150375 0.4385593 0.94101787 0.40666243 0.7623008 0.8659871 0.21042074 0.97124255 0.48446077 0.88797295 0.59029526 0.9498833 0.66474104 0.45948443 0.86427855 0.0951061 0.97730225 0.7166645 0.8013891 0.0020564448 0.27561235 0.7677555 0.36231327 0.11254647 0.4376835 0.17767364 0.9501706 0.14649813 0.007387924 0.79913104 0.110559285 0.6364107 0.68460995 0.6356687 0.39593184 0.4789043 0.36543202 0.12691054 0.3657792 0.94635576 0.45518562 0.36888558 0.09572551 0.98563576 0.76928747 0.13554496 0.9865819 0.016256966 0.022091972 0.96138155 0.8660632 0.41848505 0.042777173 0.84685916 0.022665098 0.5157935 0.715163 0.57923204
l44 0.570622 0.42570922 0.16206056 0.7336729 0.17672619 0.7005466 0.9525946 0.27640736 0.8589243 0.70895994 0.31709847 0.91676605 0.8060722 0.97043896 0.40678015 0.15177982 0.41586646 0.651088 0.3022842 0.70709985 0.5731527 0.17683251 0.63958025 0.82635516 0.48069578 0.6531503 0.60635304 0.36164674 0.9108839 0.32809857 0.03365409 0.46208358 0.25321692 0.9212842 0.8593493 0.24714164 0.54507035 0.014612508 0.6333272 0.29776186 0.72699624 0.7492791 0.19426645 0.9809104 0.1584615 0.78599113 0.33900055 0.7224341 0.86956555 0.2835346 0.39378724 0.4187984 0.9591667 0.6329701 0.26771897 0.25258082 0.82142025 0.11131948 0.13724828 0.74318016 0.12237031 0.65469766 0.55746025 0.7747062 0.2672282 0.92110926 0.6788302 0.9656356 0.9883524 0.4503285 0.63515955 0.6510261 0.79200757 0.41121447 0.077595815 0.19046332 0.8148024 0.86512035 0.5315505 0.17185664 0.059650686 0.50436234 0.3512522 0.708206 0.18004076 0.67163336 0.51863176 0.9707202 0.6018261 0.7617637 0.92551786 0.4221275 0.13733211 0.07195671 0.43236706 0.5385145 0.6161284 0.7479868 0.6883931 0.7648362 0.5059929 0.8249721 0.058018617 0.111659266 0.7002546 0.3447044 0.013805505 0.13437176 0.24532689 0.059689026 0.40998954 0.8576258 0.56047314 0.86494136 0.8461678 0.28637248 0.22611116 0.24429715 0.1624387 0.97830474 0.8198453 0.5184729 0.7486317 0.8359069 0.06875098 0.3805021 0.081015386 0.81274116
l45 0.713885 0.40210882 0.346502 0.5889092 0.5324611 0.087011516 0.6283876 0.77279365 0.504974 0.335725 0.2530091 0.11801431 0.834064 0.3002873 0.17617454 0.28913504 0.19787346 0.4867439 0.7739507 0.9523297 0.31912124 0.33503217 0.9159205 0.3293214 0.86599904 0.5374386 0.63129634 0.33252153 0.51555514 0.7371639 0.5852318 0.2697221 0.4723103 0.25606105 0.98231745 0.830052 0.65717334 0.39286855 0.85958 0.52141154 0.3379886 0.39795983 0.3901338 0.53983134 0.38669583 0.9046131 0.007648246 0.31195226 0.5088577 0.18264675 0.49028513 0.8364313 0.13020268 0.7092393 0.34800172 0.5110746 0.814888 0.284293 0.9326461 0.969677 0.4442242 0.6062569 0.5852992 0.7317971 0.15254858 0.56086826 0.4206 0.3653534 0.21342129 0.32449427 0.8632698 0.96427333 0.030995298 0.6482111 0.9810913 0.49426627 0.2820745 0.17783797 0.32741895 0.77724236 0.9400224 0.66859305 0.8803449 0.28085995 0.7538958 0.5982623 0.9167945 0.7301201 0.92002463 0.052044418 0.6346354 0.3789349 0.1990201 0.35212263 0.4815339 0.22497557 0.6439583 0.20617613 0.5754001 0.32724157 0.511692 0.47473755 0.28779587 0.9955499 0.025724875 0.6667854 0.6144715 0.1578099 0.5521568 0.83376986 0.43470296 0.39080352 0.9362935 0.31107357 0.1273409 0.8705893 0.34598053 0.8274549 0.930451 0.21699157 0.42547685 0.40027496 0.8717834 0.7341633 0.2000691 0.5057531 0.1950328 0.83467156
l46 0.46585885 0.009103053 0.726049 0.8417752 0.09553473 0.49603015 0.072179526 0.13795091 0.68257105 0.31141034 0.037886746 0.4784052 0.52998984 0.7118795 0.75648224 0.19245449 0.8175536 0.837612 0.5585559 0.18490122 0.71328014 0.6914527 0.08376632 0.977203 0.009486908 0.2605918 0.10444812 0.2108489 0.9576857 0.8021735 0.43631142 0.37939996 0.9099698 0.86336756 0.9338741 0.76169795 0.38466832 0.030446703 0.44870403 0.5583742 0.40797284 0.70616424 0.88352287 0.039660793 0.62402093 0.20185074 0.20819141 0.7196762 0.97102195 0.76235664 0.26758355 0.9696063 0.94045377 0.21767786 0.2980824 0.43704897 0.5262285 0.02839919 0.0849084 0.30991295 0.47324494 0.9037175 0.55091685 0.2971354 0.23395002 0.83345455 0.03827616 0.07260276 0.9047997 0.93368447 0.26851577 0.46784294 0.5962237 0.07175201 0.9119508 0.09992688 0.2721098 0.094550006 0.76379 0.74976486 0.9011462 0.10536434 0.20905894 0.64770454 0.7295207 0.5286049 0.13867122 0.030269023 0.57047534 0.5472353 0.5725214 0.8607862 0.54874533 0.6835951 0.3183299 0.5599006 0.9973657 0.18732412 0.7039618 0.76038396 0.6051578 0.98974365 0.2124851 0.01936041 0.91921973 0.96121705 0.113218635 0.39996058 0.84205884 0.49673736 0.50336313 0.3602613 0.17529514 0.40491608 0.11189585 0.48381054 0.95255685 0.24670495 0.29657134 0.74810165 0.17975244 0.20345774 0.08452927 0.5615831 0.54545575 0.08178865 0.23626956 0.54637724
l47 0.3916772 0.20139065 0.6464261 0.46720147 0.13724725 0.8645154 0.43940684 0.80582273 0.63000107 0.9831578 0.08604339 0.38109207 0.7826687 0.9402651 0.77164173 0.5522788 0.64605635 0.92790467 0.72284114 0.9243402 0.038513966 0.7897164 0.9237763 0.5083008 0.8719999 0.1759388 0.92185307 0.14096019 0.6645822 0.77891344 0.5810286 0.27431875 0.17067334 0.034127433 0.8197784 0.9651764 0.5443478 0.12600519 0.14997031 0.6134045 0.3495407 0.10064414 0.24454582 0.06718604 0.5371315 0.6560561 0.4209834 0.15689388 0.307526 0.7527737 0.27324733 0.6934419 0.9021818 0.38882354 0.9008044 0.42318135 0.2657702 0.9479864 0.6777754 0.06819579 0.39028367 0.33114392 0.79382163 0.47075006 0.33600473 0.2343705 0.8416268 0.06368608 0.5844375 0.36369604 0.028272673 0.1481296 0.3574787 0.77736384 0.04366033 0.70017254 0.48366743 0.32095322 0.77098227 0.41271067 0.7870069 0.078244366 0.97434455 0.11466609 0.062123284 0.5778556 0.45077184 0.2543544 0.933994 0.009779203 0.31465057 0.06378941 0.11721584 0.22225842 0.122782536 0.7808895 0.46141604 0.25529033 0.48014078 0.50325793 0.13967961 0.3633866 0.5306013 0.073574424 0.23089017 0.51933223 0.18905883 0.25706533 0.430253 0.22565491 0.38037738 0.8665399 0.98774517 0.28539133 0.5970207 0.11444515 0.7101647 0.05165406 0.026589112 0.718699 0.27504134 0.3016075 0.5361322 0.57576513 0.4247767 0.6946332 0.42667243 0.5895232
l48 0.09352059 0.58955413 0.9757592 0.7707372 0.04775632 0.000116913616 0.6230861 0.109099165 0.21967103 0.027086958 0.30553657 0.48450002 0.35588714 0.4591534 0.69080997 0.8776508 0.09130168 0.90542525 0.4912731 0.10657848 0.5516295 0.8582364 0.5549998 0.07648591 0.80732733 0.74229527 0.13943376 0.5871603 0.7810282 0.3416772 0.6133727 0.29924163 0.71431816 -0.0012979938 0.8132225 0.92906755 0.3067281 0.8316299 0.7959685 0.48168865 0.7291392 0.97976124 0.05892064 0.06922803 0.95485646 0.8264071 0.6914951 0.9610652 0.6475187 0.6599183 0.26087773 0.04694207 0.44298545 0.8660167 0.64724857 0.6464674 0.4938957 0.53249985 0.9426439 0.28449175 0.30942774 0.29272017 0.2817485 0.12614875 0.044132035 0.73410374 0.69339687 0.91728956 0.3280001 0.17171319 0.78091264 0.990511 0.74990237 0.6346068 0.65559864 0.6100479 0.9015216 0.8740298 0.73119223 0.6871994 0.43838772 0.73195237 0.24837011 0.93895215 0.84754246 0.4207803 0.43661365 0.3827836 0.30008313 0.6720108 -0.0030224815 0.22985771 0.40127894 0.15369463 0.24709179 0.9365968 0.5508324 0.3471703 0.021954847 0.6400411 0.5575227 0.49805456 0.9750855 0.6898014 0.6355495 0.97941256 0.1358315 0.981854 0.39998895 0.0115857115 0.049728103 0.0784627 0.32336754 0.07040913 0.053418625 0.18924358 0.102118775 0.596898 0.7082691 0.8129067 0.17642966 0.24265124 0.39325318 0.9744122 0.4315428 0.19837242 0.49274325 0.39473015
l49 0.93996894 0.9603004 0.20411631 0.8646772 0.93235767 0.29028672 0.27420753 0.4095815 0.26082945 0.04460914 0.23019725 0.75358844 0.12450146 0.21929276 0.14041936 0.1978831 0.09166118 0.7376744 0.9557471 0.027910171 0.052012723 0.30835718 0.36323464 0.022380255 0.88132536 0.8108561 -0.002112645 0.19018015 0.28186888 0.8259826 0.80803263 0.26659876 0.6512573 0.012484683 0.6339663 0.46557266 0.1962628 0.6933402 0.32375646 0.077268295 0.42770228 0.83964753 0.25599638 0.25256157 0.37188402 0.7734026 0.54411906 0.45306805 0.6376744 0.76534545 0.3163386 0.7089556 0.017380783 0.80564547 0.03286336 0.5302524 0.62713015 0.29962736 0.19591786 0.86662394 0.79612017 0.026722033 0.84417653 0.6660916 0.06542935 0.51989055 0.9884996 0.03406924 0.41553333 0.42197105 0.6027119 0.6469733 0.49264926 0.3484898 0.545415 0.33366168 0.35396478 0.4700335 0.30117816 0.8124019 0.93385017 -0.003645589 0.07379992 0.38874796 0.8346427 0.7477312 0.3749951 0.50491834 0.08330782 0.33670303 0.2128554 0.7891251 0.5005179 0.5923617 0.7964134 0.6197942 0.90946704 0.9259798 0.030615332 0.7512971 0.8529429 0.7347317 0.30693322 0.6351061 0.54549223 0.32575315 0.30176917 0.16266115 0.8654715 0.8810565 0.53482395 0.09816592 -0.0011956611 0.8926264 0.34324792 0.108450785 0.3018551 0.3593476 0.9215861 0.13575885 0.85369503 0.1148239 0.96639174 0.38951617 0.73499334 0.4596439 0.44072658 0.7855265
l50 0.22593756 0.80363506 0.46005762 0.28164947 0.1306663 0.71864104 0.83062196 0.46414322 0.03068511 0.97995645 0.050114322 0.8075979 0.93739134 0.21409723 0.70899576 0.86560154 0.25061977 0.6906113 0.062329926 0.2909164 0.32712865 0.67744803 0.030137435 0.6804568 0.5248265 0.29155177 0.5415841 0.5411113 0.1253221 0.89992994 0.38008815 0.8702583 0.3122374 0.53576165 0.6645722 0.5438008 0.79179776 0.054232836 0.6187739 0.55271745 0.14761086 0.7548315 0.8502106 0.9311825 0.27296287 0.4705424 0.6124103 0.85648084 0.16000175 0.40616906 0.56742114 0.31817463 0.60558254 0.8816066 0.93084943 0.7503963 0.22384559 0.91323626 0.5328916 0.8842431 0.5563587 0.33010998 0.7283103 0.38100263 0.26230145 0.36711013 0.21688513 0.4520456 0.082774356 0.74690026 0.615943 0.06780243 0.9199135 0.69344306 0.30725747 0.2987765 0.5682287 0.8966149 0.6986667 0.40052256 0.47455186 0.5365414 0.71448183 0.61448663 0.7856237 0.053163834 0.6620845 0.071952 0.05527072 0.16440661 0.29389828 0.28320602 0.73051786 0.1615551 0.8112388 0.06842733 0.7900616 0.7929928 0.31390834 0.13436931 0.79446137 0.197285 0.05645166 0.7028402 0.26579997 0.62715644 0.7416983 0.8359402 0.98258466 0.33965442 0.44702798 0.6085523 0.74379647 0.17309938 0.98239356 0.81289315 0.31393388 0.27617395 0.9188293 0.1848912 0.8940757 0.04585134 0.75821835 0.5598093 0.78370017 0.12260166 0.31446034 0.313421
l51 0.095027275 0.9297129 0.7307617 0.93056965 0.5820123 0.11087735 0.94536066 0.25774992 0.98751664 0.34555787 0.053834386 0.5036364 0.56813836 0.3968027 0.50346065 0.75195533 0.7311541 0.66326165 0.8343265 0.43813464 0.4869037 0.4627622 0.031653214 0.1864812 0.65922534 0.6643562 0.2407206 0.5467059 0.9220643 0.96734846 0.4803621 0.3026383 0.46831697 0.16752172 0.10548788 0.5305794 0.11378434 0.9331146 0.4472642 0.49064466 0.49200356 0.95421296 0.7125476 0.34715036 0.93230987 0.14202264 0.39616913 0.76676095 0.29645342 0.8484899 0.25365344 0.31074643 0.19844507 0.09038161 0.7839012 0.42419252 0.572549 0.8380533 0.005374884 0.7625864 0.89188933 0.7572497 0.77839077 0.24659032 0.19298701 0.942813 0.08269057 0.16460446 0.6147086 0.52089345 0.711141 0.47682667 0.20083694 0.6197383 0.775147 0.4171511 0.06816981 0.239629 0.1026369 0.5623241 0.12979901 0.15744978 0.59432924 0.18501206 0.44971862 0.6495296 0.47855726 0.88314974 0.31425226 0.8127854 0.99274 0.95697176 0.35392508 0.39155626 0.6635019 0.5983714 0.6655616 0.18293723 0.3672012 0.7959835 0.84836984 0.62183094 0.8465695 0.23369749 0.1580243 0.58784604 0.320675 0.54474795 0.3521245 0.19135112 0.87399083 0.23484777 0.4475348 0.7394562 0.55063856 0.6286544 0.07247433 0.2059659 0.6584057 0.48045042 0.24898192 0.41199654 0.39519793 0.18833224 0.7787186 0.6911578 0.006576845 0.82658345
l52 0.54399127 0.92675877 0.4951433 0.8115642 0.4160801 0.55759037 0.21717915 0.34217122 0.7346832 0.24549037 0.6929141 0.5216676 0.9777569 0.26002404 0.7044425 0.14930664 0.60010767 0.89114994 0.63392806 0.1600547 0.870085 0.8779137 0.48046336 0.15545534 0.62136835 0.44642857 0.5623875 0.7738967 0.37989154 0.41967094 0.1629601 0.73193926 0.55784804 0.1749419 0.34780604 0.3522537 0.2822117 0.88989717 0.45837143 0.8731899 0.6238558 0.47609708 0.52610195 0.01849337 0.23682404 0.3083186 0.37038058 0.91073525 0.017916702 0.11367656 0.98637974 0.061879385 0.39962175 0.77104414 0.5217663 0.8028647 0.39125618 0.6343081 0.92409724 0.7021206 0.44193953 0.8907441 0.9186194 0.16804172 0.37580428 0.1815798 0.98573065 0.31779173 0.71873504 0.48448864 0.94975454 0.7932146 0.06315915 0.856502 0.4454817 0.91395456 0.0029519433 0.7557474 0.5152414 0.34536475 0.701399 -0.0033443999 0.26614785 0.30231923 0.608222 0.9320546 0.09044432 0.62205493 0.45602795 0.75409347 0.39819694 0.3839303 0.90516895 0.8246997 0.81852365 0.27880028 0.5887247 0.2579901 0.740585 0.4778981 0.13593051 0.55484384 0.7431536 0.20731682 0.20801657 0.3130459 0.31310827 0.9651084 -0.001986812 0.9579364 0.6884027 0.6075925 0.48753443 0.62966424 0.43249074 0.33820623 0.0154067855 0.60719603 0.7439514 0.7016582 -0.00478117 0.40861952 0.028459202 0.3338502 0.08734027 0.9139082 0.05842224 0.53228664
l53 0.90593314 0.11272048 0.75571716 0.59850633 0.016739886 0.29010352 0.80799794 0.99886644 0.021408243 0.9888197 0.7913821 0.9185618 0.21553642 0.13099319 0.0035773027 0.53395975 0.35470212 0.7309695 0.96705794 0.71343786 0.59229577 0.91984284 0.97826797 0.13132763 0.38961214 0.33028048 0.014695659 0.8062834 0.005120295 0.79065424 0.74225974 0.55315113 0.8899234 0.34488398 0.8301876 0.6500562 0.49125078 0.77265775 0.927698 0.015936362 0.05397086 0.029776907 0.98097825 0.84385085 0.31228483 0.33783606 0.9402 0.23106988 0.23493859 0.4633208 0.0837888 0.272797 0.25031698 0.80751085 0.8121833 0.8304346 0.2700532 0.25897923 0.051853 0.67877716 0.38752803 0.09409799 0.60756 0.031733103 0.11225697 0.93970966 0.015847748 0.82103807 0.09646582 0.73358285 0.4118068 0.40326017 0.8906503 0.6721594 0.6622851 0.024379155 0.8373853 0.9727882 0.038273323 0.45909408 0.29375547 0.2513395 0.48607323 0.454923 0.035651743 0.095702864 0.36628687 0.7926948 0.5918204 0.5454597 0.87817055 0.19031073 0.096651934 0.63278824 0.91378045 0.34793562 0.14411145 0.28516197 0.28853938 0.36633784 0.26596072 0.473755 0.1019359 0.3225055 0.27299577 0.20065077 0.5438314 0.14242038 0.35563797 0.70142835 0.53317755 0.10113091 0.6660245 0.53626275 0.44230354 0.29590333 0.24362613 0.5710034 0.8205196 0.2402708 0.22294182 0.12938744 0.23047973 0.33651516 0.26122287 0.010913943 0.32871848 0.3186382
l54 0.42574826 0.7505644 0.16997585 0.23223095 0.885141 0.35675305 0.16382338 0.68479776 0.66344136 0.91122204 0.5081616 0.009550649 0.66300267 0.85492045 0.60845804 0.5991105 0.3603822 0.7862534 0.4410545 0.4811462 0.4658957 0.31072646 0.19792719 0.91954684 0.6408668 0.46634948 0.88754725 0.74604523 0.5088331 0.18658862 0.39821428 0.4018239 0.69142973 0.6302337 0.25198147 0.8602098 0.07143063 0.8158888 0.4351156 0.6881048 0.83781457 0.6464377 0.7454035 0.6996013 0.3314454 0.31855792 0.8744631 0.52291065 0.58255166 0.9589868 0.77567285 0.5193082 0.9614667 0.49818665 0.8801177 0.9288527 0.01390787 0.094609775 0.48473376 0.27637956 0.89098203 0.51367915 0.34635025 0.9229958 0.52431494 0.8683715 0.90231615 0.6623342 0.1680505 -0.0042621535 0.55460906 0.8064567 0.95248216 0.904223 0.95543915 0.18010965 0.011125132 0.046228655 0.46364474 0.9171298 0.8201277 0.14764087 0.12012895 0.7136111 0.9250843 0.40320978 0.5681784 0.41316786 0.10157706 0.26373163 0.52163756 0.7054703 0.04901086 0.70628136 0.28159732 0.95123893 0.8274245 0.39723706 0.63445556 0.5589561 0.594294 0.64335954 0.9615387 0.81488776 0.9565004 0.0076863663 0.22607814 0.9422472 0.734735 0.15514801 0.08263042 0.23925486 0.3544266 0.13809848 0.3415638 0.47474846 0.57633483 0.82040405 0.4691127 0.77375025 0.66974026 0.9131179 -0.0028829686 0.77332234 0.91846436 0.8378893 0.03067975 0.018178703
l55 0.70798194 0.13326646 0.6509604 0.6866404 0.048891257 0.28493023 0.85492027 0.30057997 0.4282792 0.005633987 0.9444048 0.53276306 0.77879065 0.86782527 0.5175378 0.87685037 0.30760473 0.7585719 0.25057834 0.7528613 0.53864294 0.49817312 0.7900741 0.45122716 0.8334827 0.0578393 0.22545059 0.85262436 0.90023196 0.3260986 0.25809687 0.41653484 0.61496633 0.0040917397 0.46532455 0.87312716 0.71661055 0.77494705 0.73452675 0.47015986 0.48977175 0.607672 0.7871556 0.54791135 0.8147074 0.3394123 0.66787905 0.46985853 0.7893835 0.012619714 0.26254565 0.08214401 0.29507974 0.5716961 0.51817214 0.85178584 0.04752272 0.51176286 0.9140386 0.9497984 0.7404818 0.7950834 0.26917696 0.656946 0.48371238 0.7352773 0.98904496 0.27182734 0.20216992 0.40911117 0.5355871 0.04770635 0.61748266 0.33437836 0.5401246 0.48988822 0.7154444 0.30970272 0.4140186 0.7274294 0.058044247 0.24470936 0.3661525 0.4984972 0.3001079 0.38395244 0.8470861 0.38639027 0.25639752 0.6079417 0.7983197 0.6357738 0.89399683 0.42514226 0.77931327 0.9153214 0.39633352 0.945672 0.15079899 0.76075786 0.3628073 0.8977183 0.3817321 0.29313964 0.51647115 0.027223513 0.6779841 0.37191406 0.7885522 0.46152037 0.066805504 0.71410644 0.8845164 0.037841767 0.7166166 0.16712737 0.6280336 0.17220949 0.8925709 0.9544244 0.003941395 0.7365707 0.22344647 0.6089209 0.3551344 0.14449763 0.42167333 0.4901828
l56 0.7829428 0.6097872 0.90663743 0.1195394 0.5737382 0.27841187 0.27508035 0.8935156 0.89586836 0.12676698 0.81236607 0.7999434 0.62525666 0.21327025 0.14346607 0.17029642 0.9682546 0.43329847 0.99119043 0.9920877 0.5246843 0.81250083 0.5717463 0.9125189 0.8132881 0.054853562 0.33790237 0.33031705 0.4702007 0.32677725 0.40685087 0.19976743 0.5758927 0.8345452 0.75928396 0.026581924 0.81265956 0.7671761 0.026160425 0.22900341 0.9112904 0.29385376 0.10948947 0.15319735 0.37843055 0.17246225 0.52747 0.6856016 0.10525632 0.5052859 0.9814746 0.83052677 0.77943873 0.43541226 0.95434386 0.4716011 0.8714853 0.29610813 0.8227971 0.31594735 0.81194985 0.07786249 0.53977925 0.12605734 0.35133204 0.15784462 0.47355515 0.48579928 0.8070291 0.98497534 0.593153 0.90098256 0.0147309415 0.6111331 0.7349514 0.253587 0.88879114 0.8825406 0.64007765 0.6736096 0.5485664 0.6512884 0.20580448 0.24895306 0.27023476 0.6690524 0.5260205 0.55020916 0.18129513 0.48428416 0.33474255 0.8854832 0.8973152 0.24391797 0.70091265 0.48213807 0.25575015 0.16558068 0.84673846 0.11597225 0.47278926 0.18126279 0.1041922 0.19868182 0.36274168 0.6648549 0.96471316 0.5838745 0.15758236 0.44696495 0.3657376 0.42510128 0.31496117 0.7724845 0.29737496 0.22390673 0.17634432 0.7412048 0.99854404 0.6335746 0.64524454 0.68863904 0.8904805 0.9298736 0.94614935 0.31997368 0.12047243 0.9577856
l57 0.28546238 0.92209136 0.60731024 0.22327244 0.8006495 0.064313225 0.5926386 0.791784 0.1707597 0.5626749 0.23663782 0.6989635 0.26509154 0.45031986 0.59337765 0.5215706 0.40547818 0.7233531 0.7882609 0.042745892 0.85356927 0.16057183 0.33361843 0.612598 0.99422675 0.49121717 0.54399604 0.9593724 0.28990883 0.7432809 0.015022741 0.608714 0.040595286 0.49704194 0.01518289 0.28212345 0.18508989 0.025879757 0.6255665 0.5555649 0.17227693 0.40740225 0.3454093 0.8272578 0.8763284 0.5277366 0.4138289 0.7831407 0.047589976 0.46209493 0.58061117 0.5510291 0.08453181 0.59615517 0.23784366 0.7988853 0.53758144 0.8045813 0.17874324 0.8474107 0.6350909 0.19177958 0.45450988 0.64268506 0.28082523 0.56903785 0.8777673 0.017329335 0.6706251 0.67416006 0.06470012 0.59896713 0.36614287 0.67788327 0.6539809 0.05399078 0.3094103 0.29483163 0.6089818 0.9929632 0.54386634 0.5243061 0.6052282 0.06737441 0.9206881 0.5002616 0.9466502 0.57223684 0.64585704 0.19422413 0.09457272 0.71675646 0.9242241 0.78084284 0.43518603 0.7852059 0.3927269 0.26229978 0.68134964 0.60380083 0.56532013 0.8652468 0.9123654 0.9562823 0.22498065 0.722048 0.18133366 0.722922 0.5796976 0.60726064 0.36818543 0.9243133 0.76969767 0.14149886 0.79537225 0.31153727 0.4727631 0.1403999 0.2290853 0.42137584 0.009400478 0.37308416 0.13930605 0.3159656 0.55919677 0.17316064 0.64214045 0.96862006
l58 0.809265 0.5484298 0.8329193 0.2831172 0.7871587 0.49634618 0.017730424 0.14363296 0.50288725 0.11276724 0.07465263 0.21908547 0.3477247 0.5268439 0.1160403 0.6203845 0.20167996 0.6049597 0.5250023 0.3906314 0.88038576 0.435004 0.7282484 0.5652957 0.90239006 0.7665972 0.110913195 0.40750596 0.07405902 0.60588145 0.6409098 0.55114156 0.6797355 0.88606215 0.10543254 0.60476285 0.5915471 0.6886481 0.29633963 0.8816904 0.25143716 0.29479572 0.49916327 0.35056454 0.8936555 0.5183939 0.576501 0.4834358 0.2480262 0.45159602 0.79117155 0.33098906 0.16924402 0.6914697 0.91176546 0.89311373 0.021097992 0.65360487 0.38715535 0.62206477 0.26210192 0.73879385 0.11832935 0.43114623 0.95898634 0.19811857 0.8742106 0.62832385 0.09385083 0.40204012 0.49860656 0.50419265 0.89495057 0.27831316 0.7147615 0.07183055 0.9033654 0.89885503 0.8118941 0.84342486 0.48145163 0.61741537 0.74765617 0.10384261 0.5905551 0.27795893 0.46750668 0.04519209 0.42631012 0.82124877 0.48015836 0.83290994 0.29801166 0.24986254 0.17780975 0.8935114 0.93290275 0.662952 0.62693363 0.93973863 0.050581045 0.05988907 0.922198 0.05080457 0.83309555 0.9513861 0.35983413 0.8372626 0.6119452 0.35311428 0.81467295 0.79830945 0.15337555 0.12640288 0.807819 0.87002087 0.52891636 0.53919375 0.15674242 0.83749807 0.8674168 0.16495547 0.15644644 0.6770856 0.26690117 0.871569 0.66756773 0.862084
l59 0.5469447 0.07769448 0.9713394 0.9538804 0.7133725 0.357337 0.31813413 0.84101063 0.98779005 0.09393176 0.79434234 0.79399025 0.13541207 0.7301352 0.36594814 0.5651995 0.7087971 0.05287227 0.46454865 0.42407688 0.112423554 0.8414739 0.027456053 0.07862083 0.20374152 0.9708606 0.59455085 0.7165499 0.8121356 0.19065973 0.6977097 0.80024785 0.6578851 0.019737339 0.80014455 0.8611137 0.7204692 0.51396614 0.0815372 0.84236586 0.3810371 0.8573042 0.5012237 0.7285125 0.7982271 0.9808791 0.643748 0.42612064 0.12750046 0.89831233 0.20702657 0.76034856 0.26367602 0.7722989 0.7155971 0.7526573 0.275596 0.09036951 0.46235198 0.62512916 0.96645755 0.5764941 0.5503962 0.6951254 0.81986505 0.36590505 0.5926476 0.018847607 0.2861547 0.21932831 0.39085856 0.78558147 0.8717603 0.16286825 0.2416513 0.19328418 0.015276528 0.23803435 0.57585377 0.85187066 0.36373574 0.29701996 0.013087502 0.2104634 0.7412275 0.19268052 0.43646252 0.7329938 0.63722163 0.43121508 0.80300796 0.6443078 0.31675535 0.8335 0.74135643 0.6448779 0.79651827 0.50303346 0.13917355 0.3186086 0.48462525 0.02085933 0.8143163 0.54607445 0.7956747 0.3907294 0.2694837 0.08142338 0.07414028 0.6332151 0.7559394 0.18436743 0.5532853 0.014565238 0.68504393 0.5321905 0.40278167 0.09246651 0.2505835 0.78059363 0.06678857 0.7462655 0.99863994 0.40816534 0.5253444 0.40032527 0.6721965 0.12281388
l60 0.060044803 0.0269647 0.32823873 0.84065056 0.9873579 0.72212595 0.33084595 0.52071977 0.56225926 0.55776423 0.48403084 0.65526015 0.9258758 0.93864095 0.72631735 0.8942271 0.10286347 0.9832687 0.16232435 0.2577797 0.89816636 0.18952534 0.8991263 0.34459764 0.5740083 0.7454339 0.7301687 0.9542758 0.77651757 0.5440563 0.22136293 0.70013016 0.3406628 0.09352634 0.93544126 0.54287356 0.65764415 0.31857693 0.6784163 0.44805494 0.19557199 0.8795229 0.85849804 0.06167657 0.6373363 0.012524023 0.40355092 0.06697963 0.4440186 0.99544346 0.5764144 0.48453248 0.45227528 0.582477 0.9524669 0.6261504 0.95825297 0.9090458 0.050066162 0.50124484 0.3130101 0.9426375 0.042454496 0.3277451 0.1517093 0.5047742 0.5580396 0.982333 0.121519074 0.47150084 0.540875 0.27717397 0.32358763 0.52163565 0.11965763 0.44429427 0.82993495 0.93242574 0.021918694 0.366085 0.60534537 0.5214695 0.7687968 0.3430272 0.8429933 0.035408076 0.22315039 0.4788095 0.9952501 0.225981 0.3344258 0.77866215 0.8044407 0.89416295 0.17386825 0.74209446 0.49514157 0.99885523 0.48297116 0.33092302 0.04452781 0.15943062 0.1789566 0.94092655 0.74035174 0.69842124 0.8108836 0.2833336 0.9106787 0.91063875 0.2807942 0.008648409 0.667247 0.06347424 0.13252881 0.6408596 0.17469877 0.8146631 0.99470127 0.7021656 0.2566353 0.85212195 0.70255774 0.17133492 0.18958922 0.94152385 0.9059697 0.72501737
l61 0.46742928 0.7157625 0.18279588 0.90520597 0.15023825 0.68172634 0.8596711 0.2556776 0.9667535 0.5398038 0.30223984 0.6466193 0.7384732 0.25558916 0.026149053 0.21177042 0.77228874 0.7161942 0.5996011 0.48551294 0.8870043 0.39819393 0.53762025 0.8745553 0.36523902 0.8184805 0.12507962 0.12745196 0.31892326 0.42424485 0.104432285 0.9106718 0.77743345 0.63895696 0.6516134 0.83399236 0.46755952 0.71527135 0.030368358 0.32324836 0.81158817 0.57287323 0.2269395 0.99436885 0.55588484 0.16779943 0.27389956 0.5842867 0.9578782 0.9153625 0.4612736 0.58157706 0.39165297 0.68720734 0.9317489 0.86895096 0.14165118 0.05548045 0.36899614 0.86976826 0.39670825 0.46814215 0.85434973 0.06837948 0.86908543 0.20172265 0.90595657 0.03377984 0.4778615 0.40224358 0.90968424 0.9594386 0.61279696 0.73532385 0.14909959 0.17311846 0.25315788 0.7877759 0.43548027 0.95199275 0.86946106 0.7587233 0.30802143 0.80127704 0.3242393 0.08180863 0.33386856 0.30572364 0.09452845 0.37584835 0.9888217 0.7589439 0.38500673 0.5212241 0.14286445 0.34338802 0.43213505 0.21584366 0.5132878 0.80871147 0.2451431 0.9416649 0.71675676 0.04652996 0.38574672 0.10190213 0.5559741 0.27884328 0.12949574 0.9348487 0.07075771 0.91684055 0.9168034 0.8327632 0.91492265 0.5450396 0.46290794 0.4604962 0.38637474 0.17390962 0.9378441 0.13249761 0.21248578 0.33051157 0.38279203 0.44307908 0.8879482 0.1984246
l62 0.096355595 0.31651533 0.6324623 0.4176045 0.08016486 0.34387088 0.470948 0.34930292 0.38478974 0.012910241 0.37210178 0.6949249 0.10934506 0.33014598 0.2569861 0.326158 0.90344316 0.7153623 0.55443144 0.888722 0.7335301 0.055404935 0.54748255 0.525781 0.8477992 0.6643159 0.25263017 0.6586564 0.5816913 0.95322025 0.5878039 0.68485487 0.12763046 0.025215957 0.9231527 0.98232377 0.22565602 0.65455043 0.18837045 0.672338 0.20558365 0.74034077 0.16580832 0.57170415 0.79199994 0.30911815 0.5880147 0.62563366 0.25486052 0.7483406 0.24327537 0.5280911 0.5964001 0.5480828 0.71296126 0.7693181 0.6066126 0.38273898 0.97461015 0.6017205 0.9737702 0.3101403 0.5419279 0.9511056 0.17289251 0.23367631 0.37643963 0.93530184 0.48951828 0.11289778 0.68117964 0.4405135 0.87088513 0.7547998 0.0114620365 0.41606852 0.69267845 0.5871827 0.17608163 0.20358154 0.4799317 0.039834373 0.54603153 0.46495098 0.043265466 0.13256031 0.587472 0.93820524 0.12493318 0.6470711 0.92511344 0.82931715 0.40144795 0.6442516 0.75327903 0.6027425 0.8215874 0.7151552 0.15801506 0.20919892 0.07232253 0.14681047 0.84713596 0.0035861128 0.9437057 0.107981704 0.829182 0.5871653 0.5909314 0.18026577 0.27255735 0.96432394 0.048158985 0.9115234 0.659699 0.82381594 0.20241895 0.82148606 0.8607026 0.793907 0.43698937 0.20447321 0.23563029 0.13685128 0.010279914 0.17902945 0.6708355 0.33893928
l63 0.0835063 0.3305667 0.026112229 0.5692321 0.56872356 0.13564332 0.030704716 0.56075 0.55972266 0.11285613 0.94815654 0.8535033 0.19566068 0.9057563 0.1122789 0.42308807 0.54593366 0.30141205 0.26701885 0.108031034 0.9564702 0.2342657 0.22407004 0.5956732 0.89638156 0.874069 0.76755756 0.6078499 0.69500566 0.853561 0.3793235 0.057576153 0.8260838 0.5763123 0.49331716 0.5538751 0.6330057 0.7624225 0.54806685 0.7998282 0.21795261 0.31984356 0.5799938 0.5915796 0.7414388 0.9307783 0.24977744 0.85079587 0.36402407 0.02834792 0.75521535 0.9918704 0.7359175 0.25608754 0.71426624 0.9949389 0.5745921 0.82384336 0.52142733 0.40391475 0.18178456 0.25730458 0.21971141 0.792132 0.15656263 0.8200855 0.29432377 0.6936471 0.8078201 0.22162852 0.7305841 0.94250923 0.722589 0.24297352 0.96179795 0.8177889 0.60591453 0.25346822 0.29956946 0.4299718 0.36375794 0.41764703 0.4475017 0.94646907 0.107214764 0.3790724 0.19593675 0.5003866 0.61479557 0.673693 0.5260474 0.10760021 0.37732294 0.014531011 0.04158965 0.19526687 0.53846747 0.4854058 0.47107926 0.87519956 0.83470553 0.9281051 0.7736767 0.59191144 0.08342546 0.8085091 0.52625126 0.76371926 0.16885652 0.69422823 0.28971025 0.3108157 0.6435809 0.7227868 0.08523375 0.050490353 0.990799 0.995003 0.3995538 0.92029554 0.5040494 0.97270936 0.46217144 0.9851917 0.14972556 0.7418861 0.5014915 0.29151282
l64 0.32721916 0.79535633 0.593252 0.87388337 0.23719351 0.9936607 0.20557913 0.57790625 0.19650652 0.22590724 0.22314358 0.8714025 0.86335164 0.945902 0.2431761 0.64965403 0.21666934 0.32191247 0.30135494 0.9185814 0.18189701 0.81561595 0.39167324 0.35579282 0.05663946 0.084670775 0.87924135 0.7525559 0.37269336 0.95161897 0.38764375 0.6597814 0.6553848 0.49000332 0.4703011 0.009479111 0.26924974 0.9883674 0.754094 0.7269261 0.80231893 0.98699814 0.56618506 0.15138507 0.8821403 0.905219 0.13671297 0.64057755 0.08908139 0.8854747 0.5460301 0.85819584 0.75655615 0.5664316 0.40774876 0.6720652 0.47374403 0.88631207 0.8429659 0.063251585 0.24050742 0.3828342 0.30852196 0.7643961 0.56330776 0.18407905 0.48481622 0.32950777 0.8175949 0.3670033 0.9494612 0.19014327 0.90558535 0.4491664 0.52853715 0.93974996 0.18985537 0.3312267 0.6716456 0.7371544 0.91338223 0.4553488 0.6280523 0.837524 0.55363953 0.46759653 0.047082555 0.39986345 0.06483946 0.689686 0.94425195 0.5012924 0.7181434 0.66357267 0.25098407 0.17672051 0.27496788 0.94194525 0.2882334 0.51335955 0.6371421 0.3828218 0.76140356 0.9773268 0.5128065 0.0829299 0.3469686 0.07154313 0.32634857 0.3483312 0.34790742 0.11907564 0.988413 0.106453255 0.73412615 0.62798387 0.21728575 0.4712152 0.79868424 0.18652998 0.34203258 0.08041635 0.86351585 0.012187247 0.31932306 0.23225203 0.3495832 0.24619846
l65 0.09651121 0.8886398 0.18211187 0.5491575 0.35227057 0.3352873 0.37550566 0.31327325 0.7646408 0.8277629 0.5680929 0.31754404 0.33637625 0.72105515 0.64299476 0.77940565 0.9199571 0.972924 0.14188673 0.8046962 0.7139699 0.954311 0.26437718 0.65706474 0.47532496 0.2672249 0.13964471 0.4227393 0.6922688 0.015168139 0.43224564 -0.0016769688 0.13281776 0.6674998 0.32881618 0.614855 0.17323665 0.44632116 0.7582381 0.9103583 0.003670599 0.7004284 0.37777093 0.46552092 0.11157672 0.57737225 0.2008184 0.04069085 0.09995104 0.9347536 0.6855847 0.28456864 0.46984255 0.4975108 0.7568888 0.48369876 0.28993213 0.38350037 0.4394147 0.89911157 0.33881444 0.1690199 0.6977048 0.09713617 0.53148365 0.955401 0.44432792 0.7077117 0.92899376 0.08631873 0.6293944 0.028372586 0.81755155 0.68549305 0.4419973 0.21971437 0.63168573 0.4175041 0.6508937 0.83988196 0.8052206 0.3961158 0.1237227 0.35523832 0.57482624 0.9543458 0.88371426 0.9671986 0.23791252 0.28701112 0.059223678 0.9377285 0.13515763 0.8644663 0.9319602 0.5343534 0.90893114 0.27207485 0.8366671 0.2152334 0.4016507 0.22198749 0.056005437 0.047699407 0.6601855 0.0628708 0.8934542 0.46012953 0.7638308 0.046197653 0.94328564 0.9057248 0.68021864 0.45055446 0.62375075 0.9582579 0.99326414 0.23457234 0.9986323 0.3086105 0.90934896 0.13393934 0.70870787 0.37336951 0.28557587 0.15307908 0.29964367 0.94028676
l66 0.7562982 0.8949587 0.7290211 0.4488773 0.025046844 0.8825618 0.7023755 0.6195321 0.12195045 0.58041364 0.9206812 0.41605052 0.55838513 0.2503894 0.93020755 0.55888003 0.25979736 0.3436267 0.658961 0.41620705 0.76131356 0.047669936 0.91521674 0.78076625 0.7369689 0.101556174 0.05463435 0.20272428 0.98725265 0.70415765 0.63695985 0.15231422 0.4543126 0.038184516 0.9434232 0.14595397 0.5830637 0.9227333 0.093716495 0.93630344 0.5840848 0.027312947 0.5995153 0.872688 0.49897686 0.29192406 0.59010625 0.20608717 0.66723716 0.016901921 0.17479752 0.56130385 0.3283302 0.21436237 0.45481718 0.20450905 0.809523 0.9634622 0.40501294 0.70310336 0.45300063 0.072665095 0.74108094 0.036293805 0.7097601 0.99141955 0.67426276 0.07293116 0.104410626 0.9874215 0.06999911 0.74116904 0.5563109 0.5842647 0.4982059 0.95297784 0.5317685 0.43364686 0.58559346 0.7208745 0.97663486 0.9847944 0.60020465 0.3062473 0.8940357 0.7058777 0.3361604 0.15273024 0.7699563 0.44726726 0.7268385 0.6293981 0.034249622 0.01779607 0.63317007 0.64042795 0.68561333 0.07364042 0.83228934 0.09748982 0.5666843 0.5917844 0.09583744 0.8644562 0.7661356 0.6036881 0.3202664 0.7279604 0.98234445 0.7988267 0.7711651 0.008440572 0.18476297 0.9097357 0.39899656 0.8783204 0.6421952 0.69394416 0.4524938 0.29801804 0.036262468 0.32828432 0.91781497 0.72598696 0.06588708 0.47410256 0.27518287 0.24598564
l67 0.34279856 0.16057114 0.8622026 0.2313799 0.3723562 0.4309557 0.0962751 0.45055565 0.33325 0.31153563 0.804054 0.7964142 0.3641262 0.705983 0.44920835 0.8718409 0.42907462 0.1718838 0.5244257 0.8826767 0.1426368 0.77065486 0.270185 0.70093304 0.029595057 0.33867797 0.7241757 0.7789196 0.42066264 0.8826377 0.12782718 0.3849975 0.6797849 0.58887535 0.7644272 0.3827075 0.43914664 0.6058315 0.4364268 0.007245626 0.44206163 0.9480267 0.9518602 0.53532434 0.07516949 0.33043003 0.84730667 0.78434646 0.22515675 0.53125346 0.44917005 0.07256096 0.7812546 0.4168727 0.8299984 0.58505297 0.44660792 0.21069638 0.31467512 0.4782998 0.1838472 0.36055866 0.89491343 0.6452091 0.665556 0.11278636 0.41586947 0.9582385 0.1707434 0.7430197 0.54644156 0.7070624 0.30526644 0.5213817 0.2648141 0.72301185 0.7146953 0.64375955 0.28879684 0.9194312 0.40132084 0.36891276 0.75570035 0.82366246 0.6722929 0.8891277 0.24921684 0.7258937 0.3938481 0.57584214 0.65609974 0.5760044 0.28571972 0.54589695 0.9193621 0.56152534 0.1564432 0.65280807 0.20249753 0.9008339 0.79768324 0.40284422 0.4555414 0.75630647 0.557102 0.56271356 0.47781292 0.88912374 0.1955889 0.12550569 0.42302576 0.53077084 0.42112458 0.9139922 0.0054339333 0.14220673 0.9540213 0.016255837 0.8483896 0.3372522 0.30608094 0.48442355 0.19173075 0.2189845 0.06675116 0.8422625 0.7905866 0.6462681
l68 0.13372733 0.37229732 0.802414 0.87362474 0.6192565 0.6529715 0.020150956 0.12917165 0.22007877 0.91670585 0.8234286 0.8081162 0.54953474 0.48119313 0.45585284 0.616706 0.5640964 0.8410701 0.50271803 0.9318932 1.0005795 0.022338426 0.12721151 0.8894658 0.38233304 0.33051646 0.049704563 0.8120061 0.6567166 0.43476847 0.20609237 0.031612992 0.069657534 0.9565005 0.28107646 0.7108056 0.80163324 0.10010884 1.0067463 0.9795396 0.08015639 0.2982296 0.51637894 0.5517313 0.8223246 0.5797474 0.9239232 0.49184626 0.66066873 0.23774388 0.6119367 0.55581653 0.22836131 0.39160436 0.81243104 0.13815016 0.3703949 0.4472198 0.17420657 0.010628504 0.76133007 0.02824374 0.7014397 0.016893853 0.9075893 0.17388916 0.08175323 0.7751129 0.67624956 0.65255 0.6098055 0.9324525 0.43803254 0.038174283 0.7078907 0.70208883 0.18747076 0.93279976 0.18844232 0.2409107 0.61197084 0.51503766 0.16265598 0.018270401 0.17449135 0.6681444 0.5326323 0.17280748 0.28536183 0.60737145 0.028453931 0.71745217 0.0946416 0.85372967 0.42158356 0.8423888 0.5103541 0.14472134 0.11043095 0.7996859 0.9661527 0.024339613 0.110893525 0.47859633 0.74832165 0.24445577 0.19579373 0.24434192 0.7942466 0.632114 0.17387481 0.80084014 0.41765395 0.955172 0.59181285 0.69855976 0.037352655 0.26131514 0.8910969 0.15181263 0.37651402 0.35759363 0.38339457 0.47261378 0.45706698 0.44160566 0.90607524 0.3216781
l69 0.33884248 0.13500531 0.6647443 0.7137468 0.00048562567 0.12739089 0.04540813 0.29870728 0.08802047 0.07748963 0.9738884 0.52093935 0.52668977 0.7924841 0.17982405 0.017898438 0.27968693 0.96167034 0.032010604 0.69990337 0.060488738 0.068719335 0.87765205 0.093341656 0.81005806 0.33898234 0.35381734 0.15038256 0.18572713 0.0668516 0.047378454 0.8662218 0.9759555 0.14741541 0.13654247 0.52298963 0.84608746 0.5547615 0.1781492 0.44369158 0.29876137 0.03250894 0.68164045 0.12046604 0.27986258 0.9219661 0.33469483 0.538639 0.78345144 0.4805696 0.41977182 0.11338746 0.5632247 0.43246815 0.5143169 0.30755764 0.32336736 0.708389 0.6261518 0.85723794 0.59642786 0.3025748 0.97180706 0.32979938 0.93576854 0.28105366 0.39604992 0.6643601 0.047852945 0.76449096 0.3846915 0.4004504 0.82299143 0.5514602 0.9491428 0.6685452 0.65823025 0.7414447 0.5706927 0.47642207 0.14102809 0.6315775 0.8945482 0.79685825 0.70832735 0.56611985 0.43923366 0.9062569 0.046585873 0.9090916 0.32557932 0.2670728 0.8424376 0.14832273 0.5703236 0.88535464 0.29340237 0.8625938 0.9461295 0.0152995 0.76673806 0.42944583 0.44603845 0.69925255 0.3541419 0.8593268 0.8680725 0.20416538 0.9161616 0.59786475 0.06731127 0.5271571 0.6707062 0.20326297 0.43973246 0.54958546 0.5097669 0.5131168 0.29036903 0.90881145 0.60742617 0.48072803 0.5107914 0.37410122 0.33137852 0.8551634 0.4875865 0.55984974
l70 0.5278082 0.4919259 0.5423917 0.012683986 0.31167617 0.2398277 0.82538944 0.09845618 0.67196184 0.5578457 0.17087322 0.28789666 0.86367273 0.3896415 0.14053747 0.13065666 0.6954339 0.849938 0.3468797 0.68875915 0.2202723 0.46475965 0.47645295 0.35782316 0.35247207 0.07859981 0.8581367 0.23155724 0.042064376 0.9234114 0.4885854 0.77228093 0.4176524 0.09247192 0.82881474 0.5359982 0.58968115 0.71974707 0.84093 0.5621282 0.8187082 0.4103887 0.117559046 0.081302166 0.5352555 0.9914301 0.05021645 0.3869478 0.633794 0.6318457 0.2548844 0.36842045 0.9633494 0.9812703 0.6488654 0.36360714 0.9932115 0.38575566 0.02293891 0.081604764 0.24957794 0.44026262 0.5183065 0.49822 0.75893766 0.17735925 0.50451577 0.15736875 0.5415542 0.04100529 0.3328161 0.022596035 0.9801691 0.14482525 0.6549314 0.9994076 0.07531104 0.09681813 0.86786807 0.46635383 0.8069676 0.19721 0.8303147 0.27095324 0.1021973 0.30183867 0.69701725 0.71799165 0.056465104 0.98883754 0.03335054 0.55556476 0.14304167 0.11675629 0.8395008 0.75122017 0.11968814 0.14653234 0.07769952 0.7836084 0.2577924 0.95646566 0.20776612 0.814919 0.13705264 0.27864882 0.8420884 0.51185185 0.83905476 0.98491246 0.19009304 0.4342114 0.6742289 0.61319387 0.8237499 0.2605624 0.26195252 0.9837364 0.09730758 0.032063104 0.25669286 0.5592785 0.021087406 0.99035716 0.3138163 0.4342457 0.6356354 0.06631695
l71 0.319682 0.19078995 0.8195448 0.9556 0.96506214 0.10581666 0.9865943 0.2614511 0.34443238 0.1343677 0.0664352 0.81257635 0.04970233 0.6258922 0.37340248 0.6456216 0.53377664 0.44540063 0.5976605 0.2253133 0.565181 0.7960865 0.52906954 0.37324825 0.9364585 0.8113636 0.76984376 0.79408145 0.96236694 0.009703953 0.7061943 0.46713856 0.7617953 0.63748574 0.03913753 0.8218903 0.38242862 0.73668504 0.47697228 0.646389 0.90314573 0.6817167 0.2907064 0.9690587 0.7756097 0.06634717 0.39848876 0.116791956 0.10218981 0.1008553 0.4764432 0.030937368 0.5248815 0.09790352 0.2358211 0.7478063 0.35436562 0.16106872 0.6335683 0.14228578 0.6354754 0.93711495 0.7120496 0.45356435 0.8617917 0.2682231 0.8727506 0.26839268 0.6863764 0.3983818 0.94625217 0.568846 0.8604639 0.15425363 0.6790339 0.86572623 0.6293836 0.7141735 0.6662151 0.29249945 0.22300582 0.29521158 0.6987763 0.43152183 0.5595702 0.37838063 0.25562087 0.16667818 0.24988778 0.027957218 0.3683471 0.5332694 0.6483458 0.7627152 0.2646715 0.45165995 0.95353866 0.4418695 0.43200967 0.7066672 0.29894498 0.35530406 0.14967525 0.37795195 0.7742139 0.25625503 0.77397686 0.2560529 0.22191128 0.32546708 0.79154146 0.7527171 0.80504173 0.23228477 0.77219504 0.12861617 0.10566145 0.20954096 0.55355406 0.32258278 0.924517 0.7910358 0.19537143 0.24410985 0.7637042 0.5452433 0.94420254 0.031645134
l72 0.23913047 0.26738977 0.0620964 0.5485065 0.9646191 0.99772286 0.13420582 0.96856433 0.5445993 0.5322642 0.67064726 0.14466235 0.8446816 0.5633833 0.4575618 0.7869465 0.8158938 0.82604784 0.03907864 0.55914277 0.8995386 0.8090016 0.96008885 0.5436497 0.7646074 0.38095874 0.8198354 0.3030147 0.010580028 0.041170392 0.22077675 0.23037595 0.98648435 0.3325856 0.9755791 0.109284334 0.011081819 0.3139845 0.71878785 0.7714521 0.1569914 0.29250768 0.5408235 0.9791489 0.8665823 0.43455818 0.42537108 0.7664928 0.8245241 0.33402663 0.23518325 0.8639185 0.6202699 0.45799452 0.306465 0.49919116 0.9618788 0.022245897 0.33108243 0.9026321 0.2456957 0.88783985 0.4128537 0.03373812 0.73772424 0.126977 0.7406553 0.12796345 0.5447871 0.65243226 0.30884266 0.6544431 0.9271873 0.9179109 0.15257914 0.30198097 0.74700063 0.44456753 0.837256 0.91832334 0.7727029 0.4179863 0.16017722 0.98576903 0.6729925 0.77184826 0.4822014 0.54469097 0.4568254 0.71461165 0.5969968 0.07693988 0.67071545 0.7624785 0.67082655 0.9514038 0.7664791 0.85975647 0.39881796 0.28525695 0.86849105 0.11019016 0.3975483 0.5801045 0.16586956 0.09067687 0.45851454 0.09604338 0.019633913 0.8406517 0.95269936 0.14777514 0.7900621 0.78286195 0.21851799 0.33577308 0.11735528 0.35203743 0.080315776 0.060827646 0.17650425 0.00038741165 0.7503759 0.85545254 0.40915436 0.7224682 0.5055213 0.40358612
