1730	32
l0 0.71448725 0.96866333 0.10501445 0.70480293 0.8808458 0.1699968 0.011731938 0.9950946 0.9584652 0.3792806 0.24817857 0.40877193 0.38872898 0.6776172 0.9019586 0.5820675 0.23462081 0.27171764 0.8093676 0.39652178 0.6781667 0.6719373 0.7319346 0.42286482 0.9535873 0.80319446 0.084078126 0.4758876 0.6318146 0.8684209 0.5746297 0.16464178
l1 0.3847934 0.39308825 0.73877734 0.7260831 0.026894035 0.5272504 0.44858322 0.27077118 0.3894098 0.9789018 0.930107 0.068171844 0.35788465 0.036431283 0.59661084 0.38461262 0.62809354 0.82431525 0.95417297 0.110154726 0.3912304 0.35204667 0.17392224 0.65816295 0.65124756 0.43391696 0.3944123 0.55069673 0.3220437 0.36925966 0.09664311 0.9815934
l2 0.08763364 0.6094185 0.4668095 0.18109274 0.8867088 0.81102276 0.66385275 0.3464598 0.98246795 0.5108842 0.4948284 0.57294434 0.24492152 0.303017 0.24168253 0.8868018 0.7447199 0.70721227 0.8384234 0.14443919 0.43604666 0.72766083 0.8852728 0.06773766 0.89332193 0.8559251 0.0050505856 0.19084097 0.91360205 0.025667747 0.2575486 0.022769878
l3 0.68011385 0.8551132 0.68593156 0.06404647 0.435705 0.47543532 0.60672826 0.71338975 0.96472335 0.77616626 0.11516601 0.57401216 0.5828371 0.0137582915 0.51958674 0.1549509 0.28761664 0.26196456 0.90086025 0.56525505 0.51167804 0.7041771 0.17630294 0.20972505 0.5571252 0.58130527 0.027960477 0.98162186 0.96101016 0.3567401 0.5219408 0.87571776
l4 0.2645639 0.68556124 0.37040243 0.7936977 0.25671786 0.28436613 0.079642065 0.058612388 0.61043483 0.94166636 0.98915374 0.56418586 0.5764531 0.25598055 0.88594157 0.28917488 0.10389645 0.33596107 0.1911067 0.29981267 0.14695863 0.2880489 0.113414384 0.41062918 0.48986217 0.9244477 0.23837438 0.5925184 0.063370176 0.38305247 0.36776507 0.70732254
l5 0.25016293 0.9392052 0.69625723 0.41701385 0.6912923 0.04546663 0.8186654 0.9640546 0.35403964 0.7790938 0.8369152 0.97953445 0.90392315 0.5088014 0.0986959 0.38431174 0.9639281 0.11211195 0.47089535 0.7650272 0.94135344 0.3008772 0.92689764 0.8800839 0.71641976 0.594752 0.038694028 0.21722345 0.112429015 0.44426504 0.35720947 0.044040523
l6 0.80769527 0.13792309 0.7924645 0.23781581 0.61025244 0.040259607 0.91384935 0.03794959 0.8464418 0.8706108 0.10540947 0.6889262 0.9697872 0.4035286 0.2277437 0.094225794 0.54216915 0.5360562 0.30556282 0.5319296 0.86888885 0.110773444 0.25242686 0.38373134 0.9003188 0.03954267 0.4479768 0.97712547 0.522688 0.41974717 0.48180372 0.4116452
l7 0.2118364 0.60670006 0.5999167 0.14699957 0.5940094 0.75179803 0.8272089 0.9249254 0.040357094 0.26431158 0.3552334 0.52424073 0.38807708 0.27362663 0.8837158 0.7453341 0.561012 0.6964154 0.43786716 0.6308004 0.69275343 0.15724428 0.8923871 0.6614442 0.9526858 0.5754982 0.59558094 0.07434457 0.9488109 0.071697354 0.038803358 0.27124986
l8 0.31772277 0.575494 0.46647593 0.36749014 0.9896087 0.6796351 0.7082236 0.88433135 0.010438862 0.019711187 0.8680471 0.580804 0.63068575 0.4739665 0.37007716 0.44730523 0.5463682 0.075248055 0.541185 0.8066426 0.53590554 0.3221992 0.4974352 0.8240548 0.6299668 0.15068148 0.46401298 0.9479448 0.20526192 0.50517344 0.35301098 0.36970645
l9 0.69841754 0.22529335 0.94757324 0.8435898 0.13947245 0.1909992 0.6185222 0.33331734 0.77170265 0.8289071 0.695218 0.3263334 0.24196061 0.55635804 0.69924927 0.11472922 0.5591714 0.9051193 0.13120727 0.69514644 0.37729788 0.7086787 0.45626494 0.07854984 0.8565437 0.7758505 0.97168547 0.3752659 0.09122878 0.985799 0.90766865 0.5526779
l10 0.9602908 0.9081239 0.51364136 0.6056013 0.15736689 0.6268811 0.8268211 0.41019198 0.64133155 0.962049 0.46107358 0.81369966 0.8730208 0.68348986 0.44808504 0.14561404 0.7547766 0.89455515 0.9627049 0.3454132 0.71043175 0.055431105 0.053073734 0.94685686 0.24116984 0.46846145 0.19000733 0.7079098 0.53955877 0.879437 0.2122457 0.38602313
l11 0.35009223 0.92593354 0.8161598 0.68284273 0.636963 0.7437391 0.21586615 0.45673352 0.5018485 0.3570068 0.2811517 0.5928289 0.2841207 0.69831866 0.15754403 0.84536266 0.85827297 0.2258246 0.84263617 0.30519617 0.23908207 0.62888217 0.36531729 0.6754657 0.22911859 0.83895886 0.38809034 0.5282587 0.56222945 0.59523386 0.50177604 0.252282
l12 0.6152817 0.64999926 0.8365864 0.7742819 0.5391451 0.00026199664 0.1714216 0.32304397 0.8521654 0.096962415 0.17586133 0.8187123 0.92215484 0.3636362 0.44575456 0.8797964 0.95348305 0.32194334 0.3898082 0.9068838 0.7560708 0.6960572 0.30606362 0.52942365 0.4048239 0.8200355 0.35795918 0.5970463 0.37882417 0.24143298 0.8837072 0.3751578
l13 0.09039384 0.4442435 0.9113472 0.28809363 0.89009684 0.21220662 0.41456068 0.325601 0.9160171 0.13401508 0.32656863 0.18649739 0.8301117 0.18551044 0.391835 0.41713804 0.9359808 0.22428146 0.72113425 0.20878729 0.043439414 0.10046854 0.31531382 0.14418237 0.67482764 0.8686083 0.20419422 0.5868836 0.0828314 0.41447583 0.6662987 0.4103235
l14 0.6133964 0.6310501 0.73767424 0.04571008 0.21435983 0.43026352 0.97020215 0.5392085 0.8737499 0.3652602 0.9099695 0.192687 0.96534896 0.38745782 0.54986584 0.6389154 0.9711529 0.8362425 0.23463795 0.95663214 0.93312556 0.5000504 0.4270403 0.5111844 0.49336067 0.17241451 0.62508744 0.24183205 0.40786457 0.4124315 0.25505432 0.36628968
l15 0.3446714 0.51597434 0.92362905 0.0185451 0.124747574 0.49536204 0.74708784 0.91886157 0.8201836 0.3660567 0.295912 0.39987957 0.13034615 0.4502255 0.19876339 0.2241031 0.8396946 0.31184995 0.19330275 0.35494256 0.11150983 0.21111795 0.07542349 0.37288705 0.08413735 0.246472 0.17176048 0.2381734 0.68556446 0.085504 0.07842941 0.29655504
l16 0.07686833 0.073586345 0.049632378 0.027900642 0.46102455 0.38806564 0.71873564 0.9157744 0.12514207 0.47295716 0.104099296 0.5885651 0.53459895 0.6712025 0.46850756 0.5009316 0.9635679 0.50169253 0.7489087 0.767212 0.81825095 0.3962096 0.25098613 0.41630495 0.50072277 0.9822865 0.6621465 0.95742744 0.7554619 0.4366801 0.9306918 0.22782329
l17 0.33722144 0.85249 0.9702928 0.6588697 0.8226029 0.15984355 0.11617946 0.29963017 0.68992233 0.6717599 0.34564266 0.31903696 0.81362617 0.2295552 0.34540722 0.9103737 0.46337438 0.5812754 0.67010015 0.07626022 0.2137085 0.32818022 0.7757305 0.858886 0.839749 0.67565566 0.54871655 0.05402303 0.35866985 0.08117766 0.84069765 0.7711124
l18 0.17846732 0.023886371 0.080187045 0.77401847 -0.006589253 0.418063 0.1637847 0.37524337 0.9559776 0.24005389 0.7276557 0.9139116 0.7372281 0.73319125 0.09067656 0.01210254 0.6539477 0.9148783 0.5884315 0.89533556 0.11754131 0.6287796 0.34142828 0.9579891 0.3036163 0.70620286 0.85728455 0.81378025 0.8279454 0.21201675 0.59488446 0.4046151
l19 0.14054126 0.24651447 0.2989894 0.31265494 0.34183252 0.36964327 0.8515451 0.43316245 0.23571798 0.038321633 0.16669196 0.15112281 0.09067685 0.921624 0.9441549 0.5500295 0.5149499 0.9495091 0.77553785 0.6706474 0.73406535 0.41221085 0.3396659 0.5341655 0.91978204 0.6618035 0.7591067 0.64072806 0.56987685 0.06685962 0.696277 0.17887823
l20 0.48834088 0.59223086 0.8164511 0.01720908 0.5836447 0.09952329 0.18295024 0.57066005 0.35663915 0.12218689 0.397921 0.26580936 0.8072108 0.14598872 0.7648375 0.5581465 0.019332642 0.82459027 0.536281 0.0939302 0.6476168 0.3657239 0.29662275 0.28588924 0.019947652 0.6979205 0.03331188 0.38666466 0.55175364 0.7558197 0.6262397 0.23694324
l21 0.17172061 0.631511 0.6724025 0.03458158 0.08325904 0.27023596 0.72171295 0.75772166 0.84513587 0.107375905 0.7023062 0.55100864 0.008867049 0.7581909 0.38099265 0.7259674 0.59132326 0.33069772 0.26141194 0.23201038 0.9120741 0.27895457 0.614645 0.4842392 0.63810825 0.62617797 0.7869085 0.07113614 0.8162934 0.027663313 0.22697586 0.39102143
l22 0.8385111 0.12724178 0.9453565 0.1690061 0.8369178 0.46417248 0.9602612 0.43463123 0.5361317 0.9651648 0.22173746 0.5483833 0.12306023 0.3903546 0.93487525 0.90767384 0.10473831 0.3798881 0.07106262 0.08750382 0.8039228 0.4958792 0.86791426 0.29906017 0.7338774 0.4022712 0.70187616 0.9322981 0.2855573 0.41906485 0.12940405 0.8976427
l23 0.9472974 0.7378842 0.2773945 0.045919124 0.2542593 0.41766316 0.7567154 0.79410875 0.8028488 0.85151374 0.63625646 0.3432681 0.33257556 0.964307 0.7315696 0.90437585 0.29644868 0.61744595 0.47355527 0.60618246 0.015559827 0.76816756 0.8810143 0.4544529 0.188299 0.503913 0.36145276 1.0037516 0.18186036 0.15175289 0.6731804 0.5569753
l24 0.16350931 0.4406769 0.045625493 0.22282214 0.96139896 0.84259313 0.53271276 0.910026 0.8879509 0.43167117 0.5072012 0.418856 0.8045757 0.13251992 0.04611182 0.8134489 0.56477624 0.68952715 0.010893174 0.34913453 0.4939188 0.92178965 0.36025086 0.39782017 0.53567886 0.6893127 0.6180329 0.5580514 0.95443845 0.117868125 0.8874209 0.69087535
l25 0.2338093 0.9290103 0.5222112 0.110931836 0.23653986 0.66313714 0.28181472 0.4160576 0.3250461 0.04796736 0.26505816 0.7166411 0.64183855 0.6438781 0.34983107 0.7192309 0.16842335 0.9848108 0.22944702 0.94132733 0.93624175 0.75379735 0.23745485 0.3630351 0.12930946 0.5435197 0.1255653 0.3945269 0.41872844 0.17551254 0.32029653 0.0056849993
l26 0.01657138 0.4512556 0.42853823 0.33955416 0.7275419 0.3236283 0.24630994 0.9582051 0.5781129 0.21103042 0.4138321 0.27093813 0.12383602 0.34816074 0.7003693 0.74959505 0.47874555 0.7078965 0.42387983 0.16956204 0.27998194 0.43446872 0.93974733 0.110653974 0.8242958 0.28145227 0.6602596 0.33938 0.12685078 0.22576079 0.75061667 0.70174074
l27 0.70104325 0.86003876 0.50355893 0.3505518 0.5648224 0.16218087 0.36137936 0.0870079 0.036556095 0.8236107 0.46924135 0.2903725 0.67562693 0.2763918 0.98885953 0.26505294 0.052057624 0.22418752 0.9980746 0.9172121 0.811599 0.4805172 0.59242636 0.89067644 0.10818658 0.44975793 0.65943646 0.7373057 0.29591125 0.9957914 0.17169245 0.98622704
l28 0.68506587 0.9712627 0.3379814 0.34244776 0.21377721 0.07563528 0.10375018 0.90157855 0.08191301 0.50090057 0.7123663 0.11916999 0.69485885 0.89095294 0.62992334 0.24536599 0.11851459 0.8645756 0.98067933 0.23795244 0.5153704 0.8422018 0.57596004 0.49210635 0.9707957 0.7033497 0.23592232 0.7545177 0.80547106 0.73634773 -0.020441994 0.24897332
l29 0.7827849 0.7625984 0.54802716 0.09286379 0.48069212 0.012596825 0.9598916 0.3918763 0.6217306 0.9967068 0.8639738 0.41400784 0.24699189 0.38547963 0.23594776 0.8178243 0.26220343 0.8279817 0.8580322 0.7048712 0.29695418 0.7815593 0.41359955 0.4296625 0.6607261 0.6799563 0.85965705 0.29622978 0.8792729 0.7750423 0.8650537 0.53084505
l30 0.8642091 0.324472 0.80550367 0.6046968 0.23340401 0.36796862 0.96101713 0.78433776 0.582291 0.06383196 0.81628305 0.45743203 0.46112037 0.3176185 0.63483775 0.68998015 0.6482923 0.058074825 0.3393336 0.42409655 0.6635923 0.8439048 0.7707449 0.34562013 0.60944116 0.34084982 0.7977544 0.21853168 0.726463 0.9290413 0.074042924 0.8214547
l31 0.75260466 0.19144031 0.665957 0.2645693 0.8200474 0.9563182 0.19182055 0.17774732 0.51613355 0.15650868 0.26021406 0.62757 0.7444907 0.5428181 0.89541036 0.6360602 0.5873856 0.9113464 0.9676 0.2262236 0.45192766 0.8712674 0.027215648 0.17219138 0.072296895 0.52488524 0.2533031 0.39826843 0.14839865 0.53202987 0.9818225 0.49817544
l32 0.6835148 0.9098239 0.2410264 0.8954807 0.45962372 0.16357931 0.99805164 0.43903035 0.72057515 0.44635823 0.8548994 0.34560212 0.12930578 0.87375194 0.98907304 0.096783265 0.19591095 0.97879475 0.58976245 0.7546888 0.110962056 0.6728588 0.7772861 0.059809458 0.7835417 0.03766978 0.28924477 0.37800795 0.21575065 0.38269207 0.089279294 0.69474995
l33 0.14406271 0.7664374 0.75320613 0.13936982 0.20645526 0.74521965 0.6816719 0.75399405 0.09031396 0.95931774 0.06665743 0.7133938 0.04792896 0.64841247 0.28657475 0.6701523 0.7207901 0.5757996 0.92378616 0.5760082 0.86119956 0.40579963 0.7821174 0.8155956 0.44448966 0.83402306 0.11246944 0.8741484 0.10559113 0.10236149 0.26383314 0.2971262
l34 0.9100692 0.82270646 0.698411 0.25281507 0.17633212 0.2938686 0.14653282 0.89801407 0.012316759 0.0136402305 0.73749727 0.8325464 0.7465303 0.8503892 0.6275726 0.8114644 0.26965767 0.8670061 0.73975575 0.114711754 0.4645857 0.9860255 0.39069763 0.36326638 0.42538983 0.79757404 0.87063235 0.6270613 0.44268078 0.64988595 0.08776114 0.63765687
l35 0.98111993 0.38880882 0.6819328 0.2957461 0.50518453 0.86522865 0.50819707 0.067429215 0.6845584 0.10370336 0.18417214 0.30245364 0.063414104 0.1431422 0.70615584 0.7680075 0.4019314 0.3678848 0.7012611 0.3484062 0.76625186 0.077934444 0.042478953 0.6702824 0.57298744 0.29239863 0.17490427 0.4413777 0.9111947 0.0908487 0.78405386 0.39914164
l36 0.9681624 0.05751876 0.9272209 0.9562223 0.070513815 0.2912229 0.3941319 0.4062944 0.85808367 0.90282494 0.13141032 0.6641732 0.01850463 0.15371904 0.31873167 0.60234994 0.84555775 0.44741464 0.22115965 0.4935157 0.18594612 0.47689158 0.92248094 0.008652654 0.42982805 0.30955803 0.22611561 0.5879492 0.30291706 0.2559202 0.2921374 0.5278891
l37 0.9719069 0.38140747 0.6082269 0.29011494 0.5751952 0.65198314 0.7842557 0.78456557 0.018280087 0.22809246 0.10587087 0.7911603 0.54474354 0.69495296 0.4324114 0.33527312 0.94247776 0.77574027 0.9904885 0.99375725 0.9419503 0.4447286 0.1515466 0.9482355 0.69656557 0.39046022 0.3149998 0.6915025 0.9487488 0.95470154 0.98200965 0.70372176
l38 0.82457334 0.16866395 0.7760397 0.5547281 0.59205693 0.8460987 0.46978617 0.78089285 0.5436968 0.49377063 0.8299944 0.7838603 0.34260502 0.17756422 0.96688336 0.023510046 0.027198061 0.46638742 0.11303459 0.83393085 0.32099342 0.022932958 0.078658566 0.8137213 0.26517203 0.47360095 0.62261987 0.36091238 0.35269356 0.22185093 0.43939897 0.6355053
l39 0.34565255 0.9173685 0.058561962 0.6708875 0.57492495 0.9161234 0.020589264 0.69482493 0.31285155 0.5541691 0.2302273 0.70938766 0.29961511 0.7807711 0.7171765 0.23180695 0.6720293 0.34945223 0.17126876 0.8552539 0.10570637 0.69035906 0.97914726 0.6663988 0.063349575 0.525343 0.039545763 0.6672805 0.7722425 0.21635735 0.030111548 0.49392468
l40 0.21831886 0.42180866 0.64963436 0.48857614 0.051949523 0.4344044 0.20266229 0.47249162 0.8108018 0.82471424 0.1885174 0.42615414 0.08490239 0.91191655 0.8144226 0.0721743 0.11616551 0.7532609 0.935053 0.3988637 0.9554626 0.8147973 0.04029518 0.50326765 0.8671257 0.15138249 0.38489822 0.30247733 0.93352896 0.39374062 0.2850934 0.41975605
l41 0.55351275 0.9418536 0.72871995 0.9436091 0.893265 0.49955317 0.11069349 0.38453937 0.12381328 0.3899491 0.04953756 0.5354053 0.17997454 0.92430854 0.6683804 0.7709701 0.48006395 0.89647454 0.89750326 0.9767354 0.82209754 0.877126 0.41695058 0.5622691 0.76931083 0.4797952 0.8231789 0.67821705 0.10079202 0.7013241 0.9753384 0.5747237
l42 0.9856867 0.4601497 0.3597843 0.2830946 0.79772055 0.19275033 0.976936 0.26877707 0.67929244 0.7238016 0.36374345 0.47729856 0.10948253 0.5297218 0.7646027 0.33382824 0.7210962 0.59534127 0.6386149 0.8029113 0.7317351 0.928774 0.050564155 0.44916174 0.65758985 0.10536654 0.4043162 0.57389015 0.20298158 0.48424038 0.4933829 0.4165367
l43 0.10330007 0.36307535 0.581399 0.24757925 0.44974965 0.6833822 0.17382987 0.6609965 0.82280976 0.050689586 0.83794254 0.18894365 0.80334455 0.24096231 0.55558795 0.7581387 0.5425132 0.044110145 0.020737851 0.5895628 0.12052775 0.17454854 0.3594643 0.63917714 0.7773905 0.43960422 0.6887689 0.1878429 0.37590802 0.19030035 0.16236192 0.25630122
l44 0.1758485 0.12019453 0.7071475 0.34932095 0.27231517 0.76821506 0.76175034 0.3346761 0.19783022 0.34910393 0.10622196 0.72371405 0.6328779 0.52619547 0.7102627 0.59346366 0.90272194 0.30020893 0.38821757 0.2973618 0.220504 0.8379728 0.4356954 0.24433371 0.5228564 0.54791355 0.3318481 0.22352937 0.21639277 0.23756029 0.16644359 0.16646595
l45 0.46918336 0.115424596 0.68924785 0.2531708 0.76333034 0.38289514 0.13627547 0.76877415 0.9639797 0.7497177 0.48583472 0.32348317 0.11421964 0.8561801 0.3423129 0.66092384 0.045665894 0.48725826 0.69343275 0.9511207 0.2720005 0.6439315 0.47611144 0.2715292 0.6458986 0.80228454 0.95995367 0.63193786 0.4417882 0.35775718 0.6212481 0.29479375
l46 0.7858143 0.581922 0.21514757 0.42499602 0.41123918 0.6112695 0.43931937 0.5860815 0.683948 0.69671214 0.4971057 0.760862 0.27670807 0.19860159 0.31549174 0.53560257 0.8742157 0.6815542 0.35094252 0.66419405 0.50170803 0.7148515 0.3943476 0.7897765 0.55587786 0.25592768 0.20219064 0.035623178 0.2431547 0.39743835 0.27220157 0.65651524
l47 0.2453998 0.39161977 0.44574827 0.8139951 0.54946864 0.1369267 0.40867218 0.42198583 0.42434767 0.865914 0.67518914 0.71417904 0.5812981 0.7863093 0.6590621 0.76425755 0.06803748 0.16835341 0.0454054 0.485682 0.51726305 0.5839904 0.0807602 0.47548077 0.8831677 0.6377976 0.16172655 -0.0021419388 0.6982363 0.48293203 0.71619266 0.94484013
l48 0.9489502 0.4182491 0.10270123 0.051988453 0.22410457 0.9190097 0.9419508 0.059435844 0.8094369 0.5593723 0.9288316 0.08164127 0.033309344 0.9589535 0.6271135 0.34937236 0.84247684 0.6058774 0.40038526 0.39262933 0.9524388 0.063509606 0.8918759 0.93304574 0.4222157 0.37545452 0.30596015 0.20391434 0.6600635 0.532352 0.286478 0.11068052
l49 0.88940454 0.44256052 0.9703445 0.9947072 0.29418433 0.8481172 0.58902514 0.4673453 0.40241787 0.34602425 0.14669715 0.883276 0.9772861 0.93866795 0.21016091 0.89314514 0.32399777 0.8557482 0.41055596 0.46029577 0.08460705 0.11105279 0.18038969 0.03685056 0.48977035 0.8458002 0.5062721 0.4767242 0.78777933 0.47668946 0.3846402 0.3598454
l50 0.15225233 0.13014022 0.72588384 0.96390504 0.5264629 0.6599121 0.754661 0.33243257 0.1514144 0.85518664 0.7075735 0.19462933 0.33395126 0.84204686 0.2685472 0.56595594 0.86750066 0.40194052 0.24941133 0.9923966 0.044827078 0.8511981 0.3128099 0.4930864 0.9134675 0.621168 0.51933587 0.30607185 0.8833518 0.24288307 0.683472 0.50074744
l51 0.22931245 0.0726258 0.48071146 0.17315213 0.35753337 1.0177549 0.251508 0.74192584 0.21727167 0.7890866 0.9557808 0.04487998 0.8989822 0.4736721 0.49586806 0.68083555 1.0026897 0.5927944 0.79523176 0.08646178 0.41616002 1.0115598 0.1284556 0.25200292 0.08054734 0.65543556 0.11325187 0.6814597 0.01467437 0.24685153 0.6366602 0.76935583
l52 0.4284366 0.5386099 0.98158795 0.1781617 0.024994744 0.64139205 0.6658523 0.71682966 0.3691427 0.43975237 0.32514212 0.31934264 0.058968592 0.5996547 0.8655775 0.9960644 0.30357304 0.8462342 0.15546313 0.8173541 0.15799242 0.788618 0.42848536 0.14900485 0.63486713 0.20363285 0.2946983 0.74330187 0.0036593352 0.98279685 0.3861323 0.832698
l53 0.64538 0.08225848 0.30097932 0.42041203 0.900375 0.07149425 0.21403226 0.7125946 0.6578826 0.3889975 0.24457443 0.637465 0.69510585 0.88680506 0.38461727 0.8854096 0.22219263 0.735736 0.8917937 0.37440428 0.13916177 0.70302474 0.6435092 0.09509654 0.9311908 0.5611623 0.07766308 0.8574685 0.8837181 0.8118331 0.9094265 0.59472597
l54 0.432213 0.96250963 0.8014862 0.8575452 0.78827924 0.13466759 0.922032 0.43010202 0.26931053 0.13522233 0.45831454 0.6764068 0.646999 0.68487614 0.21686034 0.904281 0.10586779 0.968781 0.60662705 0.15540974 0.76952976 0.15358955 0.19524989 0.4401809 0.42180136 0.8292235 0.72971034 0.18630493 0.9245224 0.21384153 0.17579925 0.37313864
l55 0.35480076 0.19911185 0.9036022 0.44129843 0.61389136 0.13906486 0.09160867 0.7543765 0.6143802 0.40977183 0.78414327 0.96744335 0.92093635 0.9314635 0.62504715 0.2960811 0.40314376 0.9739564 0.97304946 0.7474478 0.71173453 0.77127314 0.11167309 0.15228534 0.8254233 0.7743567 0.15405843 0.29950577 0.4024454 0.19994718 0.571898 0.81779873
l56 0.8784968 0.59134173 0.5127034 0.36750764 0.81769824 0.74888295 0.9361905 0.95654875 0.5121815 0.26449057 0.22123493 0.79034364 0.022827841 0.879652 0.05142044 0.6170916 0.9166558 0.29839477 0.86578447 0.7572899 0.06902189 0.12715037 0.050952867 0.9166793 0.05366151 0.30461353 0.07171922 0.8072563 0.8945488 0.95035297 0.28106546 0.5369701
l57 0.022602014 0.9022353 0.97547334 0.8114061 0.9603613 0.1514308 0.61255103 0.4633722 0.67041034 0.7214742 0.5940106 0.79270464 0.81471974 0.8611385 0.6156747 0.9442148 0.26752284 0.1502531 0.8715177 0.42403173 0.31780878 0.19831833 0.31758353 0.63660926 0.95440954 0.8327829 0.7306341 0.68999165 0.29140368 0.37861648 0.5195098 0.9869486
l58 0.76786184 0.4956579 0.8385977 0.6945295 0.04752789 0.6438491 0.47764525 0.0342241 0.09486551 0.6607965 0.35842395 0.70494187 0.17110623 0.13404372 0.4392697 0.4173387 0.81986535 0.28831908 0.42074025 0.22613782 0.9736115 0.5454447 0.3199718 0.74173564 0.4226121 0.7408507 0.0393469 0.2373074 0.373169 0.22718868 0.93919605 0.21772733
l59 0.20388725 0.03065473 0.6690337 0.32527208 0.85361147 0.5943171 0.8661529 0.6104224 0.31026268 0.4465567 0.9504539 0.2769454 0.44322622 0.1546174 0.11259664 0.2474596 0.32437798 0.6616399 0.269415 0.041427296 0.71035475 0.22608905 0.7757292 0.984125 0.43597993 0.33277544 0.85474825 0.27440417 0.92053896 0.22988379 0.9234577 0.09880662
l60 0.11817843 0.53659123 0.7250838 0.5911106 0.19165237 0.5731581 0.31027025 0.5621197 0.6746288 0.87925094 0.09122648 0.06566941 0.77505183 0.7942142 0.18207902 0.40319398 0.54511005 0.56253517 0.8961444 0.7810374 0.40341058 0.8517633 0.22661336 0.5429304 0.6181963 0.2985277 0.47786346 0.6510986 0.38257682 0.5709002 0.8565531 0.5064305
l61 0.74580765 0.685165 0.3052785 0.2501951 0.18136866 0.20311388 0.9486973 0.10102367 0.10203236 0.9686817 0.34043217 0.2133172 0.24087301 0.4829101 0.6600407 0.7034821 0.8828441 0.5190142 0.023254573 0.28258935 0.57618916 0.7698545 0.20764755 0.5849711 0.8791556 0.085479625 0.5222551 0.65418714 0.97794646 0.29876977 0.64857125 0.72131157
l62 0.20809247 0.8888366 0.74021864 0.1492156 0.5127022 0.11976073 0.15333079 0.8631644 0.5691241 0.48163274 0.5785498 0.69762164 0.74410796 0.9685147 0.26864633 0.4243733 0.1246276 0.7853301 0.78256005 0.043245047 0.56212217 0.22917557 0.7616479 0.028685695 0.863408 0.3425047 0.6544132 0.8204084 0.015135712 0.84731835 0.9099547 0.12149678
l63 0.63079846 0.43671185 0.39813444 0.08316052 0.3767962 0.33934385 0.2862384 0.6006494 0.9830658 0.05025577 0.32068917 0.22286218 0.56509465 0.2537459 0.90182024 0.9352035 0.41750544 0.31544054 0.14741156 0.7776233 0.5704406 0.7708828 0.9185446 0.7625722 0.5394821 0.5178531 0.042561702 0.50045973 0.041201048 0.5516505 0.8270947 0.2852517
l64 0.106514275 0.9312855 0.4902909 0.99924445 0.71746546 0.81087756 0.21594076 0.14756525 0.101754956 0.40549698 0.4230986 0.42918706 0.712558 0.58194745 0.054648653 0.440057 0.8789489 0.93320227 0.32346198 0.37733194 0.68950844 0.25993112 0.09922206 0.89576083 0.59319127 0.7412986 0.409342 0.7620518 0.96429735 0.19927704 0.27000254 0.955414
l65 0.11943489 0.7160602 0.9263385 0.79205406 0.27659535 0.78798366 0.29992074 0.15640788 0.7647912 0.4171974 0.2253738 0.7765479 0.5351253 0.5574709 0.9429815 0.6696743 0.009450953 0.26332396 0.7249331 0.59790194 0.6021727 0.756936 0.5957443 0.90745026 0.50805783 0.17411129 0.35379058 0.43472916 0.5656768 0.08545462 0.83751184 0.8249832
l66 0.08585713 0.8630256 0.9967352 0.63607675 0.04702113 0.64965624 0.9237486 0.73131365 0.3325904 0.3828177 0.04142178 0.9014605 0.95387477 0.63360465 0.5225063 0.89920163 0.4415014 0.112896144 0.7740278 0.346765 0.5996653 0.62893635 0.047622804 0.32304558 0.1182747 0.25092152 0.013466008 0.04378963 0.054534808 0.26614344 0.63804656 0.5382363
l67 0.63885635 0.043012545 0.274736 0.6746577 0.59364325 0.2341745 0.6267986 0.73138064 0.6333061 0.6893766 0.81961924 0.51191014 0.16862875 0.3397753 0.030177347 0.8743256 0.18152788 0.37179172 0.6615004 0.09914945 0.66020614 0.43896422 0.64629364 0.14655212 0.65940976 0.7687487 0.7183473 0.95675695 0.6034477 0.09195486 0.7363247 0.46785116
l68 0.47831723 0.048441105 0.4570125 0.8915607 0.046730105 0.65698665 0.4304835 0.7706894 0.56742424 0.9321419 0.91143614 0.18147433 0.9714259 0.44859254 0.56433 0.5329476 0.696401 0.25603372 0.72727835 0.9225059 0.8051897 -0.0032586332 0.31427443 0.5319884 0.09661523 0.7496398 0.73281693 0.7191313 0.6812282 0.95623374 0.18942615 0.056472875
l69 0.28938812 0.24603438 0.5216472 0.9562595 0.29023045 0.19868574 0.3048883 0.711712 0.81907827 0.14647692 0.67944556 0.44486856 0.9906343 0.8121886 0.8881806 0.95559615 0.16365692 0.9474398 0.022539128 0.71912163 0.6894423 0.5047184 0.55999327 0.32293466 0.19187611 0.48287222 0.8696403 0.6472782 0.211861 0.46412072 0.007855094 0.3726947
l70 0.2562821 0.8700612 0.36955985 0.79546404 0.70600456 0.06404565 0.19392814 0.19175717 0.11969811 0.78289986 0.3904355 0.05013695 0.5293184 0.6796805 0.3703854 0.16014746 0.35188568 0.8446472 0.8735173 0.064246014 0.1800093 0.62164575 0.19878061 0.8253189 0.46514708 0.65471363 0.8380523 0.65021336 0.06333435 0.4446293 0.85891545 0.5314843
l71 0.90503055 0.5603234 0.93708014 0.8291893 0.6466998 0.0090784235 0.23210412 0.3158065 0.69067484 0.49040955 0.37873062 0.63362616 0.9711677 0.12943593 0.9188491 0.5575301 0.28187254 0.36892596 0.8705324 0.14404596 0.73298997 0.5715862 0.2681185 0.6251381 0.8540221 0.7900812 0.9007905 0.6257224 0.7243588 0.25463676 0.28820717 0.27723262
l72 0.92236096 0.8770683 0.979726 0.21931423 0.021646194 0.9518836 0.9851861 0.12356787 0.6330392 0.9733611 0.1436289 0.43776911 0.76268345 0.24333866 0.8768792 0.083702885 0.43474185 0.4521713 0.5189736 0.6148473 0.60796714 0.98362446 0.66993433 0.4536981 0.306818 0.20921288 0.07337314 0.5673404 0.34718898 0.19643633 0.6299704 0.55019504
l73 0.28145334 0.84914315 0.78376806 0.40033588 0.8322441 0.078686826 0.106888734 0.103988476 0.5579318 0.82273525 0.48468634 0.5581398 0.7736257 0.7912964 0.89150023 0.5066501 0.7494652 0.5179639 0.58313495 0.95322555 0.5428572 0.7218616 0.97214997 0.5916375 0.69895524 0.50344145 0.80854 0.8507568 0.38446552 0.3035441 0.03266197 0.38448393
l74 0.24793324 0.4214926 0.25099283 0.8783084 0.9333759 0.8054615 0.6432647 0.9554861 0.80392325 0.09197362 0.6303116 0.027581517 0.9234237 0.3991318 0.37222078 0.39792112 0.16426776 0.77549237 0.18874551 0.7230351 0.45952654 0.9050791 0.60010517 0.56894934 0.38818198 0.3753688 0.9842951 0.36430785 0.13725172 0.47258648 0.97765225 0.56633747
l75 0.9487016 0.8485583 0.16282447 0.68813974 0.7712935 0.10914265 0.93857735 0.1591855 0.794269 0.7855876 0.13063847 0.8301461 0.7998781 0.8339185 0.049191803 0.07975274 0.7700074 0.54195625 0.69000816 0.7533751 0.27077174 0.7276393 0.4074556 0.7356931 0.18231559 0.9887037 0.8933043 0.48988333 0.43910053 0.057796407 0.12465904 0.394374
l76 0.86582685 0.24724993 0.16597666 0.2861146 0.9006695 0.6458268 0.91558814 0.39191055 0.096633226 0.79753697 0.93631595 0.90658474 0.32344827 0.86196303 0.81391037 0.66878885 0.90430886 0.41977555 0.7445096 0.25570613 0.49677798 0.85227907 0.6287823 0.73151076 0.2647045 0.07372193 0.103571855 0.49166057 0.54762256 0.6722431 0.22933845 0.51000684
l77 0.40594268 0.10663615 0.09157179 0.30063784 1.0068023 0.9609266 0.74993217 0.038326982 0.8526549 0.1774416 0.60382235 0.077053554 0.5701127 0.29389867 0.89267004 0.35243762 0.23633103 0.16073427 0.24464412 0.031403933 0.65904164 0.6819445 0.012970626 0.692403 0.67771363 0.6551454 0.4036563 0.0709412 0.760097 0.050381195 0.036486883 0.14252773
l78 0.037774693 0.057980176 0.4888112 0.76107013 0.66439074 0.58429295 0.76801544 0.120611906 0.35538927 0.7672123 0.6582657 0.9107655 0.9132328 0.15665936 0.6458427 0.50179356 0.43307793 0.82280546 0.23032543 0.0012775367 0.35136476 0.4606425 0.4214761 0.7196368 0.6789345 0.91813254 0.17653777 0.62187445 0.48346108 0.90914786 0.8082176 0.18628627
l79 0.13920653 0.30209115 0.34172916 0.39773914 0.48321024 0.60613203 0.8869305 0.73943055 0.07701277 0.45872116 0.79523176 0.36504763 0.48575327 0.5579394 0.5005202 0.49234042 0.453343 0.43099478 0.09494 0.452331 0.3728472 0.023559839 0.115234815 0.69917905 0.62437195 0.43569496 0.6402527 0.73558843 0.1607274 0.060651515 0.100075185 0.048311718
l80 0.6813311 0.91855145 0.014192515 0.061015867 0.7590908 0.8550387 0.40705395 0.40430084 0.8836667 0.40267122 0.5974844 0.67289716 0.41012734 0.7932334 0.21589853 0.061265238 0.3659628 0.43741533 0.6655719 0.28544232 0.15826347 0.7366227 0.9836914 0.38996273 0.8970577 0.6271782 0.7785582 0.14921565 0.6128035 0.74502337 0.7558452 0.9350772
l81 0.7891385 0.64557636 0.72361296 0.71579725 0.14325517 0.27327603 0.8864074 0.27083802 0.62473834 0.16895707 0.81318927 0.4958383 0.92506635 0.7081434 0.45747954 0.16588171 0.84214365 0.122933626 0.61055875 0.22717923 0.596435 0.19390038 0.21112847 0.6861565 0.26393682 0.90615314 0.22046867 0.15125859 0.74917006 0.39506447 0.64463526 0.53924674
l82 0.20695981 0.8792076 0.7097098 0.7166099 0.3756754 0.3777409 0.112297334 0.109622136 0.6354823 0.066355914 0.9839922 0.23724744 0.71947676 0.58015406 0.12283001 0.84901446 1.0080581 0.61897266 0.05091485 0.748712 0.6844911 0.19310564 0.21509139 0.26587453 0.16062999 0.07094048 0.45356807 0.6209256 0.94461846 0.26258007 0.043171037 0.29631603
l83 0.55570585 0.8475201 0.05057111 0.96029145 0.6254569 0.045337006 0.358799 0.9546869 0.66470337 0.8645661 0.87894356 0.05203363 0.2396596 0.80265915 0.6250773 0.039112978 0.9156992 0.16759679 0.32736817 0.24052896 0.82074356 0.80584806 0.9371318 0.123677015 0.21213707 0.60272443 0.2931743 0.94255877 0.8429349 0.78829 0.71113044 0.61085093
l84 0.01541989 0.17589104 0.8879192 0.68598443 0.75007004 0.6366246 0.060048893 0.7112518 0.4237138 0.6245189 0.648498 0.19939288 0.040294655 0.501445 0.30542192 0.40300906 0.6212243 0.40996984 0.19966044 0.6536928 0.9144976 0.980504 0.1941925 0.0032134051 0.415273 0.24040304 0.5354696 0.018734392 0.94643754 0.59454906 0.23907651 0.17575426
l85 0.32740122 0.3890706 0.1055921 0.84154534 0.92734814 0.31444746 0.569126 0.03773035 0.4356398 0.17501341 0.41828722 0.8051326 0.5853013 0.1463747 0.020828767 0.23199783 0.14008625 0.75786626 0.10291473 0.8484193 0.24661328 0.38265246 0.24990429 0.57866 0.4498236 0.9636338 0.8699679 0.60646284 0.6115494 0.1489078 0.6584488 0.3163357
l86 0.97085243 0.14172243 0.29603273 0.70123446 0.5720003 0.6004223 0.052232843 0.94019264 0.7583943 0.8808444 0.82188493 0.33169425 0.66724145 0.36398205 0.49975595 0.41455546 0.7462533 0.33509922 0.109947525 0.72774297 0.42098537 0.0029665865 0.53875923 0.917632 0.82275623 0.5600647 0.4126114 0.63623196 0.75752133 0.82014847 0.24851061 0.89284945
l87 0.44357324 0.71488196 0.73307633 0.44344848 0.7090214 0.25856704 0.7672223 0.03709144 0.70600426 0.73268795 0.61429113 0.9945682 0.3332854 0.01517333 0.9558374 0.50609136 0.28568208 0.97207946 0.07417219 0.9577979 0.8424121 0.21916443 0.9467171 0.1418554 0.72823167 0.4258714 0.85767686 0.09240738 0.13576749 0.2931888 0.18666494 0.581473
l88 0.46194807 0.19418576 0.66307235 0.33931488 0.7038231 0.97648144 0.80704737 0.9361199 0.5400296 0.21731736 0.12731671 0.52238417 0.07462346 0.98774827 0.8705052 0.58544284 0.41267502 0.923211 0.31911263 0.18202136 0.4607045 0.8223655 0.5116936 0.47064728 0.78277504 0.35895163 0.6948775 0.30133685 0.6786081 0.51355827 0.5139337 0.85852003
l89 0.7428881 0.3705233 0.070412666 0.2787491 0.89235395 0.061996892 0.3903401 0.545471 0.5151442 0.7971816 0.21428478 0.42458344 0.36622578 0.4024216 0.82645464 0.19741109 0.97567075 0.428 0.607295 0.6362861 0.78773874 0.565531 0.7386456 0.9373247 0.7404277 0.9016148 0.42542267 0.26090232 0.20985022 0.46185586 0.20390964 0.7167547
l90 0.59881043 0.17315532 0.6623271 0.24632032 0.6394328 0.26428273 0.63015276 0.4950293 0.054451205 0.5412034 0.6987147 0.6212964 0.13433568 0.8125239 0.36106473 0.2757548 0.32193667 0.09400966 0.37719622 0.13737477 0.8557004 0.8121257 0.1008098 0.7117172 0.33046308 0.27207756 0.7568507 0.68105525 0.79384863 0.94300574 0.65255547 0.95456475
l91 0.06764059 0.15618627 0.28099912 0.9140251 0.7646262 0.5647754 0.5652742 0.8170566 0.6420166 0.5212945 0.51730126 0.05610197 0.53228873 0.4653615 0.63835007 0.59420884 0.4971266 0.40025964 0.49543354 0.79864335 0.7978155 0.24460879 0.35929447 0.56185156 0.069996424 0.50045717 0.6678247 0.9514618 0.70647985 0.15840532 0.8241311 0.8968312
l92 0.62026554 0.93247205 0.39998865 0.6754683 0.5601657 0.34691355 0.6261562 0.4456685 0.7811881 0.60218024 0.2798031 0.63304234 0.26945412 0.4962405 0.66251147 0.42710918 0.8098671 0.72529364 0.53037876 0.340521 0.71244115 0.7977076 0.23716024 0.5015516 0.93455595 0.0030295632 0.35962048 0.2587514 0.7693419 0.16714478 0.82924503 0.97276974
l93 0.09345445 0.24294955 0.872392 0.33151114 0.66224974 0.4172264 0.69509125 0.062880665 0.14026801 0.12693249 0.34809265 0.05135853 0.88205266 0.19602127 0.37525943 0.39038464 0.43917853 0.25209376 0.67700857 0.5222467 0.81225234 0.97305506 0.19161922 0.7017665 0.35509637 0.64212507 0.32733524 0.94448894 0.29830092 0.60137844 0.8523742 0.010243171
l94 0.6414258 0.44579038 0.44184628 0.3595196 1.0176498 0.062253837 0.13864271 0.25008684 0.652843 0.6838833 0.6337918 0.6981499 0.76436096 0.27236933 0.99613315 0.12833403 0.27576116 0.23354132 0.08955935 0.16099092 0.70057774 0.3683899 0.86383456 0.28400025 0.2387815 0.16235365 0.31289387 0.6429131 0.05217821 0.77845174 0.23445237 0.04016206
l95 0.24603544 0.91257185 0.43609715 0.6534587 0.7970368 0.37075117 0.77110773 0.20238261 0.6146048 0.22895165 0.8583449 0.29668975 0.08467489 0.049793143 0.505268 0.91369766 0.9493008 0.19486637 0.43500802 0.5389653 0.60920507 0.043074183 0.4125109 0.37740162 0.6004515 0.86221635 0.30871376 0.4528403 0.37384063 0.7920288 0.052725125 0.84677
l96 0.12405132 0.4701174 0.07792089 0.9120735 0.6520535 0.5070631 0.044055063 0.061060958 0.126236 0.7752915 0.47550842 0.016180608 0.32112312 0.56412244 0.2680984 0.8259542 0.9398075 0.36938316 0.13999885 0.08491182 0.7677699 0.22591022 0.8701562 0.69352996 0.73880255 0.32080075 0.19558477 0.040826295 0.7547317 0.5393745 0.5087744 0.97153753
l97 0.04983331 0.24636932 0.19113012 0.5271674 0.42231128 0.6229607 0.6501547 0.9073399 0.66663456 0.7297235 0.05408755 0.2639639 0.7939304 0.70423853 0.30972213 0.7637227 0.32252792 0.46216866 0.6337066 0.17325129 0.9008971 0.30176324 0.38304463 0.5766167 0.22165152 0.7612237 0.6222152 0.7889628 0.7052851 0.7252514 0.07128776 0.8135449
l98 0.3575204 0.5557287 0.18543237 0.047331445 0.5017237 0.6392625 0.29508084 0.44560978 0.70717096 0.61814207 0.29300305 0.57623535 0.715157 0.061699312 0.3186372 0.7502717 0.40523848 0.68407524 0.8031548 0.96674615 0.87114453 0.7806494 0.22655244 0.43929827 0.9373813 0.110955074 0.08068069 0.7888146 0.4634724 0.1310241 0.22115871 0.09527959
l99 0.23871039 0.17398456 0.6273239 0.16687305 0.0031782228 0.329634 0.28686807 0.2587986 0.15594035 0.72809225 0.19969656 0.67589915 0.17667443 0.75060517 0.34189194 0.83556813 0.78032327 0.14701037 0.8818913 0.4792811 0.55705607 0.2791358 0.17162201 0.8116492 0.7404061 0.92771035 0.6310618 0.30607024 0.039348397 0.15418643 0.56535006 0.596858
l100 0.5033199 0.8120243 0.56218946 0.55848897 0.5317443 0.75235695 0.47335985 0.5748777 0.72279114 0.61444783 0.2850578 0.03286476 0.09575365 0.48426065 0.49416792 0.20594588 0.34734815 0.53395754 0.8473857 0.8126304 0.092523724 0.74414265 0.6265317 0.4198008 0.80015266 0.02893007 0.043309323 0.30980033 0.40568832 0.84413725 0.6526361 0.667494
l101 0.0207279 0.5319439 0.07537939 0.2437852 0.23722349 0.17317462 0.75222915 0.4450084 0.46019515 0.051164888 0.68503636 0.40818855 0.41200957 0.6117527 0.64929444 0.46944332 0.2652516 0.79169583 0.76886714 0.4104582 0.61263657 0.8525897 0.88820183 0.38320035 0.6519467 0.70410687 0.52929676 0.8429125 0.4744181 0.5252667 0.4814343 0.34706068
l102 0.5550278 0.17483985 0.9529297 0.40945426 0.9144426 0.8980738 0.6983237 0.58481205 0.1650256 0.32941487 0.70975024 0.9369109 0.5100305 0.2589502 0.61959434 0.13575344 0.26909065 0.9083004 0.16139612 0.15176015 0.04322735 0.5280565 0.54642123 0.32878044 0.3496336 0.46665388 0.59203774 0.060262974 0.24899411 0.38184452 0.4992454 0.022331644
l103 0.4057242 0.6181487 0.3181915 0.5504124 0.81866324 0.2156126 0.6285245 0.693283 0.17346786 0.95121884 0.9081418 0.04443174 0.8520246 0.385907 0.71811354 0.64110035 0.9422466 0.6321317 0.15556502 0.723819 0.13755184 0.38064218 0.4417235 0.34268585 0.37082097 0.5274324 0.83234274 0.12976879 0.9885684 0.45739067 0.20574157 0.09014575
l104 0.46087867 0.8117928 0.82113266 0.7607597 0.9336031 0.6461619 0.06481081 0.037761677 0.4944681 0.6544663 0.9345669 0.45057333 0.38826743 0.4976962 0.81060183 0.8181296 0.43547904 0.2845441 0.84164816 0.97030824 0.55263555 0.3613396 0.6983016 0.8306891 0.4585433 0.72222036 0.71858233 0.7261374 0.41891477 0.6811899 0.5358441 0.7128958
l105 0.5809614 0.08809747 0.72485983 0.5309295 0.2974671 0.7947223 0.9766994 0.6818579 0.7772076 0.9640036 0.5566114 0.488508 0.3948222 0.623734 0.94519246 0.48194513 0.993371 0.22958866 0.8195001 0.37623248 0.07023185 0.5217335 0.9454979 0.09891554 0.6306852 0.06891774 0.982824 0.4971861 0.054618333 0.91208065 0.078428134 0.84942645
l106 0.7725389 0.13958627 0.21680667 0.6066853 0.50490844 0.5527743 0.07920498 0.02612669 0.48878533 0.2530564 0.15305676 0.5834818 0.6540299 0.1834984 0.83665824 0.57787555 0.41402075 0.48585376 0.37528536 0.4924082 0.27619645 0.9451783 0.4223855 0.8717876 0.81322503 0.6311392 0.9144538 0.09127655 0.6121629 0.5756023 0.7108566 0.49638063
l107 0.06067363 0.9227387 0.36025882 0.5730254 0.60545295 0.5578719 0.5530581 0.47338545 0.93494874 0.8968973 0.25992996 0.2613823 0.6729381 0.3439353 0.32198894 0.15464203 0.32550615 0.33077902 0.117821485 0.10965309 0.7243214 0.22749299 0.41925687 0.93710506 0.3143703 0.2743544 0.022539072 0.24827167 0.46061736 0.883718 0.35319299 0.57788163
l108 0.62893236 0.77737784 0.53521854 0.86582834 0.012885728 0.42997032 0.040383656 0.06576004 0.3139625 0.7997136 0.03895579 0.8780726 0.19632627 0.87251276 0.21465737 0.020864863 0.4318971 0.12449302 0.83794534 0.97067606 0.606863 0.96929824 0.28220254 0.5334716 0.97197986 0.46543762 0.07098566 0.716441 0.25087595 0.9157811 0.47362998 0.91564196
l109 0.27851674 0.37672505 0.81142783 0.8201909 0.21763523 0.8169176 0.3835247 0.9743068 0.22903588 0.39819756 0.3204562 0.7207683 0.30444577 0.5073869 0.22943889 0.81564486 0.9081786 0.54270643 0.08530558 0.31485885 0.18933326 0.16411096 0.35160044 0.7592458 0.3468168 0.5044103 0.18662643 0.6860984 0.8403652 0.72133565 0.16207351 0.27739856
l110 0.0873028 0.60655844 0.12852393 0.28339002 0.85414803 0.6830828 0.06902165 0.26249814 0.42276806 0.42014715 0.7667197 0.8827433 0.052675407 0.23093404 0.18297513 0.23018701 0.7813944 0.9638116 0.6331324 0.80844945 0.1668026 0.48325 0.5786909 0.056775097 0.9146168 0.16310444 0.5775335 0.5587117 0.53347504 0.2352732 0.88698447 0.42126206
l111 0.097562894 0.96503335 0.09934151 0.43343303 0.8718321 0.23887925 0.5294055 0.6993551 0.62699014 0.29044688 0.85074717 0.7412845 0.87692773 0.5237969 0.77387923 0.25928134 0.6450918 0.48653638 0.54113925 0.4226395 0.5629455 0.24614052 0.44688874 0.12569316 0.4021896 0.8228016 0.80800784 0.09771132 0.7724009 0.048801195 0.76258713 0.16333844
l112 0.44132537 0.01847082 0.59641665 0.17384376 0.91709775 0.22449636 0.9873956 0.29995692 0.680721 0.5029621 0.50562674 0.91261303 0.0788747 0.014185931 0.50984865 0.17944036 0.76939887 0.30121025 0.74755037 0.5526489 0.5722697 0.08898538 0.8862277 0.26488888 0.7776396 0.9759939 0.24299154 0.65967625 0.021162512 0.03688125 0.48945323 0.5952941
l113 0.6622373 0.5405869 0.09180455 0.2857519 0.3105994 0.24879307 0.29526922 0.86351573 0.14568414 0.7749241 0.66851884 0.67412 0.2468631 0.89815634 0.86820143 0.93072873 0.0907397 0.15525372 0.28954726 0.6725545 0.20274346 0.69389516 0.20282102 0.7925313 0.20869857 0.029127497 0.50156915 0.24001908 0.8223061 0.19125757 0.7516647 0.0980229
l114 0.34472063 0.40656918 0.6192419 0.626495 0.6201034 0.22015806 0.7260497 0.23443168 0.15000091 0.54580855 0.16954179 0.95958984 0.69067824 0.81858903 0.04239404 0.097039595 0.1494458 0.049568933 0.21164116 0.016935557 0.6752965 0.92017287 0.038214277 0.7761335 0.4126376 0.9271298 0.092692666 0.54357 0.77480245 0.99346995 0.6951613 0.095653124
l115 0.56649166 0.19502111 0.13893113 0.8268568 0.5896319 0.116835535 0.36182514 0.2612547 0.043610662 0.8097947 0.49377212 0.52588165 0.88176304 0.71350205 0.58865136 0.25679514 0.1177338 0.8871593 0.792224 0.75098693 0.3522639 0.3345869 0.48860395 0.16095383 0.6251155 0.18993123 0.57440627 0.33321846 0.118263885 0.05148903 0.7152357 0.69343567
l116 0.3390394 0.67157423 0.336013 0.07750473 0.8786707 0.33157057 0.25601026 0.664488 0.6223293 0.008462741 0.2681623 0.8405065 0.7587188 0.31038135 0.50608474 0.12420206 0.3322549 0.7366525 0.32899588 0.38989437 0.1446286 0.77548987 0.3025482 0.65937436 0.1274746 0.3501369 0.37620443 0.889883 0.74995965 0.7037374 0.14537977 0.349015
l117 0.2946708 0.89109653 0.60741496 0.93082726 0.34973374 0.5744682 0.6544059 0.50544906 0.71949184 0.55941427 0.49874803 0.71443444 0.013448875 0.17558542 0.14626352 0.46248707 0.0464719 0.2382167 0.7860339 0.6618206 0.33341733 0.102850504 0.17377928 0.94465107 0.8755846 0.66433334 0.6870497 0.16163805 0.3255172 0.04030775 0.30461463 0.6194056
l118 0.6555476 0.5548412 0.65549123 0.9931294 0.37461206 0.1667102 0.4724424 0.17646483 0.5211412 0.5761502 0.91981906 0.036056884 0.9845588 0.04369956 0.33495906 0.0872218 0.48783037 0.5246463 0.28441477 0.44655535 0.15795986 0.5731646 0.5962139 0.42675564 0.3797623 0.4180304 0.2482272 0.79304093 0.5711497 0.9803657 0.6202327 0.4850596
l119 0.10745532 0.8128686 0.039149698 0.974209 0.40845236 0.3794829 0.89438564 0.50357074 0.44644827 0.88507664 0.84168506 0.054340694 0.7484635 0.214394 0.08629449 0.26308772 0.14699034 0.49152318 0.7744642 0.31569004 0.53409463 0.21764286 0.71062046 0.7414167 0.41066724 0.60548383 0.25108832 0.8976909 0.44559085 0.7244969 0.978319 0.5343099
l120 0.45576888 0.3018651 0.8123439 0.7748372 0.9872161 0.64826465 0.8472575 0.5372123 0.27287903 0.007655288 0.49792853 0.064982034 0.7390788 0.5614863 0.0835007 0.9205917 0.042588063 0.9278725 0.3845278 0.33018738 0.91854733 0.94149166 0.71528393 0.8967499 0.78006876 0.6028298 0.6986864 0.0678588 0.3851607 0.49384293 0.06873741 0.31710482
l121 0.39583725 0.25167304 0.8929907 0.46071482 0.456183 0.3260125 0.6832165 0.84484345 0.63724446 0.83355147 0.978008 0.37932453 0.09844037 0.09164818 0.046296336 0.56123376 0.35173726 0.8254998 0.17242579 0.52703863 0.121149786 0.9479544 0.74367434 0.9149084 0.73838013 0.4120945 0.08619623 0.4148979 0.97873205 0.79494053 0.54735434 0.8466877
l122 0.85618496 0.85809684 0.40468192 0.46869308 0.043100014 0.7396238 0.08007582 0.86561126 0.88593704 0.4786165 0.5699775 0.66452146 0.5852079 0.08286944 0.83659416 0.7699849 0.2703848 0.5105461 0.058951747 0.099196486 0.06938164 0.63825756 0.57847625 0.5775092 0.15154058 0.72974354 0.9423493 0.58626497 0.041901723 0.09002125 0.77082574 0.28244758
l123 0.7337937 0.22518824 0.6117131 0.054208912 0.44239712 0.39759797 0.3058754 0.29675114 0.5653962 0.39909223 0.7357448 0.22892763 0.73055476 0.46797052 0.51801807 0.85178035 0.49006343 0.5783554 0.044645246 0.6080808 0.4191244 0.8970298 0.6811709 0.26664323 0.64139104 0.9758899 0.2771986 0.97186375 0.105628334 0.23416325 0.38683015 0.5427319
l124 0.6482232 0.7077364 0.6385889 0.66355956 0.9087473 0.6080938 0.26991165 0.5245414 0.2687529 0.18614653 0.11438143 0.7317485 0.7217022 0.44376883 0.037574857 0.7616325 0.15303476 0.4546263 0.46684095 0.29797125 0.8621592 0.7872885 0.46400103 0.69683737 0.19752383 0.7222796 0.7405109 0.97395724 0.6728829 0.59202695 0.56000286 0.7844696
l125 0.102130234 0.952238 0.44806603 0.22620898 0.8573207 0.6394485 0.51375663 0.9520723 0.7206683 0.89712465 0.46979633 0.38496244 0.86900896 0.44875753 0.32610252 0.7668717 0.72150284 0.14039986 0.35366267 0.71688473 0.87390864 0.98653054 0.021030972 0.2869423 0.72555315 0.2406311 0.5513633 0.25684366 0.862046 0.1809548 0.26182246 0.94610715
l126 0.91253626 0.1583763 0.8097717 0.053174417 0.48214492 0.04303081 0.76303965 0.97153103 0.6142787 0.96318334 0.29872683 0.8430383 0.788019 0.060623035 0.5140234 0.14027916 0.22426103 0.16090621 0.77096915 0.23952244 0.26012293 0.9398328 0.61385006 0.97847474 0.7042378 0.94967026 0.70300454 0.01693544 0.0843241 0.07740839 0.42809388 0.6709022
l127 0.15774661 0.7558311 0.1265264 0.8276891 0.5903955 0.6561173 0.104211174 0.34625572 0.21938512 0.32208672 0.25663424 0.9586096 0.9077762 0.55710423 0.09262311 0.07334957 0.50341326 0.37204835 0.89529836 0.374494 0.5928378 0.8525136 0.5662606 0.77265835 0.11356081 0.19157818 0.90459025 0.7807765 0.54617023 0.19889611 0.56937337 0.8451808
l128 0.47062874 0.9836501 0.8408855 0.3393113 0.5441321 0.24535255 0.5100946 0.13156621 0.24156968 0.020519782 0.6349563 0.48504907 0.7259642 0.9558205 0.15792853 0.5675306 0.38590422 0.8635654 0.4205819 0.4277135 0.5130634 0.41688797 0.6619103 0.39243674 0.07942199 0.8744916 0.06461489 0.7227267 1.002241 0.5376457 0.20816374 0.69154274
l129 0.93683285 0.76236737 0.28415713 0.8193752 0.48280278 0.30503994 0.99892974 0.6310574 0.26869646 0.21108441 0.13184811 0.651719 0.075827695 0.43832862 0.3215026 0.92234 0.24904193 0.54413354 0.06746426 0.19173998 0.9256821 0.8564934 0.72925246 0.8375578 0.65437603 0.660734 0.1067726 0.38972294 0.030770438 0.15117015 0.4746107 0.40523142
l130 0.45310494 0.7944704 0.75627476 0.4681241 0.9705707 0.8864691 0.7005827 0.95841706 0.07898361 0.3246302 0.41728818 0.6386941 0.29483634 0.5479167 0.48984537 0.7714762 0.68219215 0.15008108 0.8452453 0.5772685 0.9305598 0.87728703 0.17336339 0.8671704 0.4118669 0.88771135 0.24073638 0.36780623 0.94504297 0.4777568 0.9730306 0.09582128
l131 0.6823949 0.4700471 0.8816151 0.77117467 0.12660895 0.46067035 0.43209738 0.25432214 0.32672343 0.8171879 0.9789902 0.11049651 0.55734295 0.5205093 0.85817456 0.44288945 0.5486318 0.92179745 0.042691883 0.45710856 0.99495935 0.7788406 0.4575296 0.010695332 0.42449 0.34058395 0.979708 0.30047867 0.4392537 0.39372563 0.053649522 0.89300805
l132 0.36140588 0.22389285 0.37459677 0.20581281 0.819897 0.14563209 0.16165805 0.89397246 0.9830972 0.069171965 0.3196034 0.8226723 0.79504025 0.2252847 0.61738294 0.73059946 0.2132973 0.6991665 0.4933655 0.16504607 0.44629866 0.04908084 0.7053403 0.36029625 0.10112585 0.6017732 0.484179 0.5306001 0.2658427 0.52229285 0.56269056 0.5541871
l133 0.03922706 0.15199763 0.9149943 0.89596087 0.13936596 0.1994966 0.28485438 0.8164372 0.9555084 0.69909006 0.39632443 0.9802131 0.96836334 0.5797418 0.30379376 0.23519742 0.9428417 0.4042226 0.08026936 0.011627425 0.49651834 0.91791075 0.42571962 0.9315666 0.60300654 0.34690404 0.29718056 0.085477814 0.52507293 0.19432761 0.61649793 0.8696284
l134 0.673157 0.40264636 0.4892364 0.41573995 0.95408165 0.8757003 0.2866139 0.40452433 0.8843784 0.6089953 0.1796742 0.80162966 0.16905537 0.84561265 0.33606952 0.81144553 0.23500435 0.8517572 0.30486014 0.4492894 0.8538365 0.24311887 0.023429995 0.32838222 0.81216466 0.026934253 0.28603393 0.037268482 0.3411996 0.6707535 0.78411925 0.1316622
l135 0.16039065 0.027495401 0.81772494 0.84608155 0.33836636 0.009537948 0.9633819 0.734666 0.90053827 0.46875718 0.164831 0.7173565 0.22977677 0.9523332 0.98799264 0.24918333 0.46786216 0.52871114 0.0004090736 0.08695626 0.37906358 0.5880202 0.6001335 0.2620717 0.6053005 0.74121714 0.3980608 0.7320966 0.6971388 0.47900772 0.21666835 0.5284887
l136 0.18188408 0.8989945 0.028788641 0.7323 0.55255204 0.4805657 0.7673921 0.97681385 0.52239203 0.033834305 0.09630807 0.047367286 0.19080278 0.63104457 0.9276655 0.1259916 0.8515231 0.64181423 0.15494826 0.30868044 0.7053326 0.93616086 0.5540837 0.76362014 0.43663323 0.22876395 0.47205812 0.13896711 0.37835726 0.8386669 0.69394547 0.46818408
l137 0.8209672 0.23032096 0.97513115 0.50050294 0.06653998 0.91839117 0.97700375 0.94177437 0.8163966 0.50112814 0.3109708 0.22153571 0.9310883 0.92287886 0.69747025 0.022402503 0.41186813 0.6374145 0.37489408 0.06151316 0.66056126 0.19513847 0.53879917 0.24679747 0.75066715 0.9671852 0.33747897 0.5573024 0.6513086 0.19868025 0.26999968 0.43315393
l138 0.62688714 0.39599788 0.15920416 0.51996815 0.68019366 0.89242643 0.77195454 0.47878 0.6302057 0.8331072 0.39842448 0.8528793 0.026248815 0.49989903 0.48009905 0.6385318 -0.00069264154 0.6856829 0.21037972 0.47655287 0.87514216 0.82571536 0.9785815 0.84382564 0.76416874 0.00047227243 0.53643894 0.4650378 0.43264523 0.5947933 0.43735638 0.62995756
l139 0.8992321 0.59741575 0.33742666 0.47697562 0.9417793 0.23316307 0.7774935 0.14553005 0.6383801 0.08310622 0.13080503 0.60334414 0.8326253 0.42170492 0.27313054 0.20821117 0.10336894 0.81304586 0.5374694 1.0041221 0.69475543 0.2427479 0.35484308 0.86064714 0.5926698 0.6235464 0.20108534 0.4129576 0.64535373 0.06570771 0.6897496 0.7801182
l140 0.3386154 0.9177019 0.9594041 0.33314335 0.29725105 0.5859605 0.79324764 0.039455492 0.9264583 0.7797031 0.19176391 0.118681446 0.26984626 0.9410746 0.13011955 0.78318495 0.7670339 0.20219569 0.77933323 0.7330817 0.5178115 0.9535316 -0.0078581 0.022479977 0.6970832 0.6328963 0.94279855 0.23918909 0.12036781 0.66723657 0.9248445 0.09020961
l141 0.5963602 0.07244754 0.8612256 0.07692231 0.87803406 0.015174073 0.27654654 0.81339914 0.6363673 0.10803835 0.8968271 0.17126164 0.37711427 0.8332302 0.67532736 0.479893 0.8092252 0.087760456 0.9221779 0.7739298 0.22805236 0.80483526 0.099588975 0.9328902 0.29800427 0.6912309 0.86070436 0.3729928 0.5129433 0.61663157 0.43884397 0.08867389
l142 0.89828306 0.15302816 0.9572729 0.4136578 0.18062238 0.7962616 0.23188387 0.13382521 0.3470475 0.3188219 0.2638156 0.25982428 0.019198667 0.56350565 0.055990223 0.15599456 0.49236655 0.85176986 0.83310723 0.92315656 0.30074376 0.04430195 0.038046855 0.5653521 0.5553631 0.82499593 0.47591382 0.6917143 0.8908621 0.4870698 0.5731641 0.024546582
l143 0.27913252 0.6101827 0.5597673 0.633862 0.6726859 0.93585944 0.5967681 0.5850566 0.24624157 0.49366233 0.113932624 0.20017129 0.6858023 0.49661607 0.72648394 0.08910933 0.23529652 0.6707365 0.49006608 0.35744935 0.75670946 0.07664159 0.9428908 0.7118271 0.24446362 0.38965595 0.40654722 0.5382418 0.0779794 0.039863095 0.77326536 0.69741243
l144 0.57063323 0.82941216 -0.009433006 0.28160748 0.9714317 0.3466224 0.69686496 0.7525988 0.15404369 0.59141153 0.17426561 0.44558793 0.5462608 0.42717025 0.85622376 0.6517058 0.8107993 0.82057947 0.33192405 0.012348295 0.80961806 0.445799 0.94005525 0.9485871 0.7080261 0.87718827 0.1296648 0.08724991 0.8582769 0.11503155 0.6171414 0.82563084
l145 0.72556174 0.18139161 0.05478224 0.8951583 0.6292408 0.24212405 0.49059585 0.16849157 0.33795714 0.19950937 0.98684895 0.117470704 0.608255 0.05990496 0.4761646 0.6832589 0.8024148 0.68935674 0.07488 0.095938556 0.3836346 0.4665573 0.5927822 0.9591046 0.4464193 0.08963149 0.25396731 0.2475628 0.7111518 0.11112177 0.9576969 0.59954846
l146 0.29901707 0.09207692 0.533858 0.60700446 0.5685964 0.3904275 0.38385382 0.5548991 0.5917034 0.0962824 0.95413446 0.74653834 0.79045594 0.6453674 0.13716632 0.82361543 0.9579686 0.9796321 0.38458544 0.58333683 0.07551006 0.47494182 0.40699452 0.23832534 0.084268466 0.73077947 0.6559056 0.6091201 0.03513839 0.2839154 0.6218952 0.8759843
l147 0.22542986 0.31644467 0.9077906 0.039488852 0.36649507 0.9802856 0.5935713 0.45219368 0.6421077 0.56073874 0.9793729 0.47916982 0.06379977 0.1111425 0.3195743 0.08294244 0.96574867 0.16134113 0.8052487 0.15075193 0.10239425 0.5671134 0.4680923 0.60685927 0.60105586 0.9372136 0.37254518 0.6301235 0.5248388 0.08797657 0.7107124 0.5647506
l148 0.20159882 0.54205996 0.85032153 0.8937097 0.29544175 0.52961224 0.23893344 0.36377552 0.31312692 0.31150696 0.8564511 0.93641156 0.541766 0.119828075 0.7698164 0.6725731 0.4209758 0.5978668 0.2970778 0.36206016 0.4094954 0.17569378 0.9358544 0.56393826 0.50144875 0.122333415 0.3733506 0.04606813 0.3848394 0.99931467 0.9414455 0.6089318
l149 0.59513766 0.9424599 0.5008413 0.7424195 0.9847196 0.61767465 0.7819227 0.21274821 0.5784877 0.4905005 0.017361319 0.6774051 0.4301291 0.4789533 0.806724 0.31873697 0.7184214 0.21024233 0.3141866 0.9919509 0.26590383 0.5557043 0.5503359 0.7341025 0.55487084 0.7610092 0.4593642 0.0051168944 0.9167764 0.9454432 0.049530037 0.82517385
l150 0.9471571 0.8609973 0.40708056 0.2928785 0.5453172 0.81738865 0.5086291 0.95058936 0.6704547 0.20067838 0.94221693 0.6027496 0.4065774 0.12830868 0.50764453 0.839953 0.6990017 0.25467896 0.48423243 0.63736904 0.26448244 0.4329025 0.16673857 0.12050657 0.57870376 0.23748419 0.1483341 0.1587851 0.7759087 0.16539064 0.7832043 0.112171
l151 0.32406378 0.984078 0.6838836 0.2901734 0.6664547 0.5667678 0.20110732 0.32518497 0.49692804 0.98430914 0.42416275 0.29131153 0.34293586 0.45600748 0.1414028 0.62426233 0.8908375 0.14181358 0.5246714 0.36867544 0.91979223 0.9178994 0.9775358 0.51785874 0.70308506 0.07449045 0.7744057 0.483421 0.36813608 0.41390762 0.5168541 0.6756209
l152 0.6132506 0.16209349 0.43331173 0.6809736 0.8288921 0.804992 0.25379482 0.25087407 0.6625905 0.9752121 0.96988666 0.39625567 0.8786238 0.57300895 0.29755366 0.74346066 0.4903085 0.7431518 0.14382061 0.10124126 0.2908124 0.29037112 0.16861571 0.528373 0.15588774 0.30186006 0.1729849 0.6079478 0.38656735 0.95455706 0.39647987 0.05987529
l153 0.2240203 0.500159 0.97890246 0.29075515 0.53164166 0.22554228 0.9704613 0.112812445 0.45827594 0.03397039 0.56420267 0.87091625 0.770885 0.12905481 0.27858353 0.075990975 0.9554536 0.9057554 0.40823647 0.29119304 0.04924871 0.06475694 0.24120668 0.29424885 0.6505495 0.7519988 0.8786292 0.91704357 0.9541621 0.55778384 0.89934206 0.24744247
l154 0.88219154 0.78171986 0.533069 0.5000279 0.0017511405 0.81643665 0.43771785 0.8536115 0.6938021 0.3600701 0.039285593 0.9659186 0.31875572 0.40266132 0.27359214 0.097788505 0.34077245 0.4905047 0.64559186 0.25236887 0.1847881 0.6358248 0.21101171 0.46180794 0.6908027 0.409299 0.8151733 0.03144357 0.6434403 0.77397305 0.36980784 0.8089233
l155 0.2262016 0.07095951 0.26066476 0.7638938 0.43109033 0.8214511 0.9183613 0.5579405 0.76058143 0.077458546 0.2874549 0.26653883 0.87368965 0.4377605 0.997146 0.04050975 0.32164046 0.8995285 0.49444196 0.4355595 0.18893014 0.2553588 0.5982074 0.5273668 0.04853359 0.7950446 0.30414534 0.9736366 0.5829236 0.76307887 0.74551016 0.80722004
l156 0.19383265 0.23266542 0.018170325 0.7414184 0.9464989 0.96085256 0.7713287 0.532618 0.57939893 0.058855344 0.75351703 0.44492862 0.4876225 0.8794887 0.61515063 0.5624164 0.03722465 0.45530254 0.21507119 0.89789146 0.95609266 0.65703475 0.4513922 0.5734533 0.9311549 0.36793643 0.9473346 0.7387752 0.9656396 0.911311 0.5152007 0.9493369
l157 0.7700619 0.80840987 0.18653457 0.07752759 0.05481477 0.77302885 0.9365678 0.7723046 0.8417592 0.688614 0.34120274 0.0105817085 0.41585508 0.8546752 0.36742848 0.6379554 0.8864093 0.58800507 0.7096793 0.29143834 0.80809844 0.6912854 0.042630512 0.7342664 0.19980496 0.26349375 0.21671632 0.46979013 0.034466617 0.88141775 0.6857977 0.15163606
l158 0.9865963 0.21671419 0.7855777 0.72945946 0.7995461 0.8288112 0.42920324 0.17191567 0.84424555 0.33564165 0.03509011 0.13914168 0.039884686 0.4015767 0.81768733 0.6504901 0.96982634 0.7217188 0.27923924 0.61081195 0.69920915 0.20472926 0.8854057 0.73769015 0.7571888 0.24362811 0.6217409 0.7580656 0.047418296 0.2547188 0.388688 0.673473
l159 0.6387836 0.30138132 0.6269617 0.53416485 0.09649793 0.6954639 0.21917693 0.6396878 0.48409158 0.47409943 0.2713479 0.043813027 0.15883204 0.6325747 0.080816075 0.8419806 0.436622 0.5719256 0.47616515 0.28754482 0.83905333 0.73261946 0.8886807 0.17988788 0.70176774 0.27684483 0.21925947 0.48723218 0.7179524 0.8247762 0.5702047 0.65077883
l160 0.08201502 0.9818407 0.9131093 0.015794013 0.118413165 0.3210624 0.50547194 0.40662467 0.72866225 0.92305255 0.7946518 0.51846045 0.9012692 0.044786483 0.36325887 0.12601767 0.46899748 0.15070412 0.8775649 0.6976756 0.32093307 0.85213774 0.91708314 0.44246754 0.40128973 0.7325394 0.8918717 0.27102962 0.09495695 1.0003484 0.24970073 0.6713965
l161 0.11425826 0.63901377 0.4932469 0.62619585 0.54214627 0.17773782 0.034873575 0.49428925 0.7837606 0.46336505 0.88399005 0.87466294 0.300995 0.6195412 0.49831676 0.19990286 0.7495953 0.04614095 0.09109172 0.72028744 0.21370947 0.124180846 0.29092667 0.4629309 0.7727128 0.480172 0.5674063 0.6852105 0.22186194 0.05940728 0.45492822 0.75863016
l162 0.75245816 0.70650274 0.19529395 0.89325297 0.51718974 0.18729767 0.30080655 0.90559876 0.4373327 0.28218976 0.11974628 0.84063035 0.97505856 0.43634617 0.12530245 0.22850071 0.5211641 0.7127201 0.30839002 0.9508119 0.7590804 0.6807852 0.72187763 0.91360396 0.02122469 0.33927864 0.067131594 0.7097483 0.030728398 1.0056936 0.7946478 0.7260881
l163 0.21211445 0.219667 -0.0150197325 0.88146317 0.6305709 0.23316371 0.8027439 0.6420411 0.04609751 0.17579263 0.5696215 0.7120854 0.114851445 0.78345644 0.5919031 0.41367573 0.17769496 0.9221715 0.34589106 0.07128935 0.16298129 0.2014956 0.17548075 0.8858198 0.7334497 0.5806042 0.55305254 0.9483683 0.9463548 0.058367625 0.55799216 0.79077935
l164 0.41277233 0.874349 0.19602783 0.9336936 0.510789 0.74887574 0.28503564 0.3893814 0.5719488 0.8960215 0.9093817 0.93307996 0.1430745 0.022030104 0.8000194 0.46015227 0.1798781 0.7006149 0.7515708 0.07866906 0.526183 0.6638714 0.6285352 0.14254686 0.34514204 0.52440274 0.8966846 0.5959142 0.29645506 0.16083513 0.5065982 0.7642156
l165 0.95677173 0.07659074 0.35412508 0.7045021 0.7671345 0.7423639 0.765393 0.9173975 0.18914215 0.92508495 0.96945965 0.7991507 0.9667298 0.04633068 0.13066685 0.53762776 0.8580237 0.009502586 -0.0029026982 0.94502276 0.46879494 0.7589753 0.2991347 0.09158666 0.59181595 0.92168033 0.17307931 0.73318 0.91390455 0.057805978 0.71835655 0.6852641
l166 0.26151416 0.46709526 0.7612407 0.1153916 0.25141594 0.92699337 0.77171844 0.4809934 0.49337053 0.44541413 0.10351058 0.75562763 0.18978876 0.4731343 0.6071073 0.76865554 0.96314055 0.29263812 0.67159957 0.7534967 0.6498199 0.049580466 0.08631988 0.37995598 0.4846806 0.5383358 0.7808191 0.04977035 0.49962422 0.84693754 0.7816687 0.3990093
l167 0.21283282 0.18926406 0.8117846 0.66364217 0.14824145 0.90645546 0.011378587 0.334371 0.25529888 0.28655902 0.27478284 0.46166688 0.3538049 0.86031854 0.6782339 0.7439199 0.64247745 0.77909255 0.49436742 0.9282579 0.73903525 0.0013324425 0.95362836 0.69923323 0.6178397 0.9761193 0.52806234 -0.008318242 0.80051774 0.5142231 0.8961552 0.73984957
l168 0.6064735 0.5953827 0.071412094 0.48290953 0.5646019 0.5953223 0.022740858 0.76438165 0.3725499 0.78437924 0.9428112 0.8234899 0.438637 0.045139648 0.5255087 0.055146325 0.16903673 0.4455111 0.58581865 0.12112725 0.3280811 0.13603745 0.41270277 0.9754165 0.71159256 0.729573 0.71556836 0.7423308 0.05902519 0.2612034 0.56046903 0.7577686
l169 -0.0011087857 0.09288951 0.6430944 0.22540143 0.31088114 0.036578555 0.79595864 0.80422723 0.7322868 0.8346994 0.22894135 0.89722544 0.8744161 0.9028818 0.5622589 0.26970163 0.7101455 0.8348289 0.3431203 0.84931576 0.7435161 0.6045446 0.5514179 0.20455946 0.96968985 0.6474147 0.61844593 0.048661303 0.7771041 0.91241217 0.8386594 0.3738317
l170 0.8540479 0.11717089 0.7163574 0.68587893 0.59424174 0.13275707 0.17396124 0.12309466 0.35995892 0.86205804 0.6926423 0.44659135 0.7433105 0.87397903 0.5568322 0.38216165 0.7760843 0.09972997 0.11991811 0.8878422 0.8006744 0.71258605 0.9510247 0.1329138 0.12725902 0.43349588 0.9717426 0.45376706 0.47019452 0.14758775 0.22820133 0.63585645
l171 0.11658299 0.118558004 0.8207323 0.54943466 0.9433671 0.7043361 0.9582862 0.97533005 0.23331815 0.031591557 0.6665367 0.29819816 0.05603589 0.84523904 0.50038266 0.4581821 0.9767866 0.05005944 0.75731903 0.13203147 0.88028747 0.9263453 0.7376405 0.36222187 0.62097204 0.2785284 0.32960543 0.12754206 0.9871738 0.10046061 0.71569145 0.530462
l172 0.7896785 0.9934547 0.90637356 0.8018126 0.22083578 0.8972104 0.72506154 0.010899351 0.21021293 0.5770965 0.9852172 0.74945724 0.13440709 0.334489 0.88462156 0.39418256 0.0042899153 0.09525176 0.26597494 0.46273616 0.5416874 0.84983975 0.7884013 0.6471836 0.453755 0.13602383 0.9568258 0.61541075 0.3570199 0.66463387 0.12009222 0.1272012
l173 0.9357672 0.06637308 0.72218806 0.008502977 0.081377104 0.32794705 0.8655824 0.5999891 0.15556203 0.60818774 0.009274271 0.6573711 0.06368485 0.514916 0.60948825 0.6798346 0.032850195 0.23418644 0.34609452 0.79715186 0.5015466 0.50798005 0.9431497 0.9234622 0.23298575 0.20134479 0.6022529 0.6074714 0.34079716 0.93174136 0.34778848 0.22293964
l174 0.9659498 0.2395059 0.15927044 0.7372625 0.6402169 0.39621454 0.95336944 0.67041683 0.62854254 0.024407454 0.9756843 0.20168021 0.59050405 0.79892117 0.24944615 0.32051292 0.4536071 0.32964644 0.123566285 0.840813 0.30618894 0.10906605 0.12195336 0.6518805 0.8675704 0.1511895 0.54119194 0.30008885 0.08600825 0.55894256 0.12282833 0.7141461
l175 1.0010111 0.032904234 0.4621676 0.8650643 0.5375845 0.5968154 0.16013642 0.56884426 0.49385723 0.4082145 0.5605758 0.81531125 0.04460734 0.25273454 0.29991397 0.21580966 0.34934583 0.49189934 0.5986195 0.7767733 0.8122407 0.13588542 0.021446483 0.26195648 0.377739 0.10109841 0.6062069 0.37194768 0.16365534 0.8466725 0.15461618 0.7382547
l176 0.7816812 0.82238424 0.36724982 0.8130748 0.08513206 0.7228906 0.93954986 0.033654425 0.5534224 0.7977969 0.90788287 0.64084023 0.15266974 0.8410956 0.9429228 0.51156944 0.5911871 0.049612597 0.5960497 0.78459066 0.17974809 0.10100762 0.83547556 0.04949273 0.73022497 0.5097444 0.591215 0.023281764 0.71576256 0.7239077 0.75767404 0.21092452
l177 0.4083941 0.89011824 0.6970448 0.11058118 0.5118581 0.92395824 0.6795231 0.8471469 0.32096276 0.30452797 0.742215 0.12982237 0.6424952 0.6851275 0.65745896 1.0055193 0.7852415 0.46364808 0.91726863 0.142614 0.13698463 0.384951 0.0054815956 0.20078416 0.027747052 0.36844507 0.28703102 0.36825824 0.89533174 0.8375853 0.80898446 0.25058445
l178 0.92943007 0.42436078 0.49769014 0.8820593 0.42408848 0.9043611 0.06947292 0.13426554 0.23116544 0.70809335 0.54071456 0.88603634 0.3643989 0.9310944 0.6303095 0.41695896 0.6492039 0.73522407 0.83824027 0.005220417 0.54198396 0.85380775 0.08524104 0.4986454 0.7131054 0.7714649 0.7131461 0.29843438 0.06967523 0.097097605 0.57389146 0.8018774
l179 0.36056158 0.1239123 0.8513047 0.52863693 0.44416648 0.7088683 0.23112372 0.6044725 0.14588162 0.5731832 0.2646834 0.3458907 0.5585859 0.5276348 0.53368515 0.12630875 0.8808995 0.7205196 0.47300524 0.31074685 0.078279674 0.24586672 0.25114563 0.5858703 0.20981245 0.45125002 0.84195966 0.028047832 0.58604527 0.7307219 0.7909271 0.9092982
l180 0.24319188 0.13226964 0.3345342 0.9609055 0.14241323 0.65810794 0.6631019 0.45934904 0.46215805 0.20339172 0.25557345 0.62394613 0.22015648 0.5546337 0.76905525 0.872381 0.60560364 0.0629205 0.3528399 0.26322797 0.24185708 1.0038644 0.17281722 0.3267548 0.10534854 0.22294044 0.268093 0.4361177 0.81691664 0.78419644 0.7525754 0.2357389
l181 0.29769924 0.9803215 0.8403166 0.59843266 0.30152315 0.2490329 0.2634838 0.57472277 0.17668384 0.5950903 0.35296804 0.8944429 0.6613927 0.61846083 0.17767854 0.91563123 0.6349179 0.68961966 0.36284083 0.49204028 0.28556913 0.658379 0.45378444 0.4838213 0.77143675 0.08029301 0.44744208 0.48307034 0.49728414 1.0035478 0.21193416 0.64013696
l182 0.74459505 0.40717572 0.034252886 0.06970955 0.6396653 0.680367 0.4868222 0.8350422 0.051382188 0.31457812 0.92596203 1.0242978 0.9723611 0.6640517 0.22259769 0.7467093 0.16495915 0.78041077 0.5354676 0.20183346 0.7459914 0.22255422 0.27739313 0.5239162 0.47779623 0.55014706 0.486229 0.2753473 0.26121688 0.6750673 0.3532285 0.23809643
l183 0.3939961 0.36348268 0.8739603 0.33462998 0.27283782 0.5759355 0.8771791 0.86083794 0.9400492 0.89268696 0.73027647 0.06019986 0.5525987 0.9227748 0.9351836 0.69345236 0.84821147 0.039649922 0.9772445 0.34441766 0.8859155 0.1353752 0.44449362 0.14207642 0.6314124 0.23029296 0.92345715 0.35353833 0.9772506 0.32480058 0.47472355 0.6394606
l184 0.94725865 0.57184196 0.6310913 0.49144325 0.43887925 0.44352865 0.6925574 0.9285625 0.7641808 0.03700704 0.32026684 0.4896147 0.3486497 0.22594622 0.58834845 0.3327708 0.12792729 0.42185768 0.64438623 0.13178317 0.76177895 0.9467614 0.3287473 0.92489594 0.70420575 0.2949368 0.044203863 0.58712375 0.07774097 0.47356355 0.30368313 0.8306353
l185 0.8893249 0.9718078 0.050334107 0.9143009 0.8895984 0.18057808 0.90828997 0.4263109 0.9564715 0.55816513 0.4490505 0.80244416 0.76815534 0.34571233 0.25348747 0.5899477 0.08196955 0.14634886 0.054912727 0.37261873 0.8428571 0.35524592 0.05250411 0.8145999 0.16551226 0.70128495 0.23948108 0.39978352 0.70731616 0.19917618 0.27917656 0.7854613
l186 0.20487446 0.60996425 0.6412428 0.63117796 0.07230642 0.41319072 0.836065 0.38444218 0.7691597 0.8736911 0.031524807 0.72128534 0.9253026 0.7840063 0.5240008 0.33136332 0.07774217 0.43364027 0.13766703 0.20286004 0.6884425 1.0009227 0.21284775 0.99237007 0.26918423 0.6813078 0.52660596 0.42099398 0.28746858 0.25792912 0.37578443 0.48760408
l187 0.5464908 0.5585595 0.089865305 0.97218156 0.32240635 0.55478203 0.95442635 0.93266 0.91127515 0.57703614 0.4932011 0.88676244 0.12225313 0.5438026 0.90209156 0.09136744 0.64206624 0.18788064 0.42669818 0.41420016 0.8339179 0.43389076 0.50926185 0.98117596 0.49135005 0.8393364 0.18844312 0.13620195 0.09408939 0.027703812 0.6631695 0.88713735
l188 0.33699322 0.9230261 0.090846434 0.4018346 0.34286916 0.43211088 0.094513424 0.015653232 0.74998105 0.6109852 0.018489499 0.7184148 0.92674357 0.07188915 0.5983536 0.5870552 0.36361787 0.18552983 0.9061676 0.30918753 0.85360926 0.48762295 0.8430289 0.8309982 0.15256584 0.41237763 0.56969863 0.3257336 0.19371648 0.09000845 0.5109623 0.71209407
l189 0.6052013 0.5075114 0.86581683 0.600311 0.33400124 0.7588734 0.12812287 0.816718 0.7871604 0.42838636 0.94811314 0.09300463 0.9948968 0.029129768 0.25742397 0.52129567 0.9537014 0.9133948 0.8520089 0.9860652 0.84081817 0.66854036 0.16372298 0.19637905 0.43389285 0.80872166 0.28819436 0.42976612 0.26545766 0.024144871 0.49273562 0.45163956
l190 0.53491694 0.95091057 0.85369253 0.5151224 0.96857226 0.906484 0.3493333 0.36273035 0.5099846 0.7670195 0.025275707 0.9476618 0.033670723 0.62112653 0.08546665 0.32500216 0.1438478 0.13789105 0.79308426 0.4426516 0.40039876 0.034403887 0.1408897 0.19189852 0.6579749 0.5439171 0.7311618 0.5132813 0.99959457 0.84347534 0.27553946 0.3265262
l191 0.4341236 0.7361285 0.07205011 0.57133746 0.94750994 0.05877665 0.027776662 0.42699915 0.25777647 0.86538845 0.16369343 0.7161654 0.7904777 0.41137922 0.38545802 0.93958485 0.25400507 0.47469816 0.08698173 0.685006 0.15897882 0.26809222 0.9059395 0.6538371 0.73654044 0.2816822 0.36182964 0.710923 0.14641675 0.70822084 0.67743623 0.526211
l192 0.65424496 0.8191351 0.33015665 0.7934769 0.74828726 0.021402497 0.25022414 0.31361026 0.12874618 0.19499958 0.89205754 0.90267456 0.1400721 0.8783344 0.16595663 0.62724507 0.85000736 0.9641708 0.8869167 0.33429042 0.6436702 0.8124826 -0.011296404 0.97109306 0.4319926 0.8228729 0.3162569 0.91481286 0.3679344 0.32741177 0.94720364 0.4016266
l193 0.9187245 0.82102925 0.80577135 0.13181554 0.00054454623 0.844647 0.4197688 0.48472443 0.15817916 0.17617232 0.4978373 0.812057 0.14301255 0.7537198 0.38931298 0.47000992 0.6321387 0.6889683 0.45873863 0.66009927 0.7622894 0.29607055 0.6225181 0.8669508 0.40732872 0.3631442 0.08049547 0.62754637 0.93975055 0.040793166 0.7154762 0.36184296
l194 0.065288626 0.13858733 0.74443096 1.0168889 0.31501603 0.094239175 0.42755258 0.39432412 0.6424754 0.49606964 0.42721957 0.8240996 0.119470716 0.46857706 0.40198508 0.14062414 0.448168 0.21419556 0.8910709 0.64648134 0.32347694 0.11635477 0.42346326 0.38660952 0.80419225 0.8375049 0.121621594 0.26742598 0.98128045 0.33170784 0.6523072 0.7289461
l195 0.72812086 0.015094279 0.9436537 0.12867908 0.38111505 0.42747787 0.14115012 0.21287258 0.49028715 0.22303633 0.2264752 0.7063139 0.699669 0.14189856 0.38873136 0.32524738 0.059554286 0.8330273 0.19310825 0.56718856 0.4311922 0.30769056 0.1641743 0.37542328 0.9921191 0.27429757 0.12738137 0.12636884 0.5519833 0.9444676 0.6506183 0.0441161
l196 0.83046347 0.6501688 0.6999004 0.03714435 0.88915396 0.19406018 0.07244399 0.8800441 0.96877444 0.09805776 0.32911456 0.58305556 0.07506451 0.8627299 0.4230666 0.17971113 0.5926953 0.9842347 0.14835449 0.1604686 0.9084998 0.78103274 0.8298228 0.8334579 0.9484778 0.18293111 0.5353394 0.9780234 0.25890324 0.8616146 0.79854375 0.6298049
l197 0.5861778 0.95555216 0.49452385 0.6726223 0.66316783 0.5021583 0.46209395 0.32665837 0.9243442 0.60086364 0.86105794 0.7429673 0.44180465 0.94871104 0.9236436 0.47749478 0.50343126 0.520464 0.85878325 0.67185324 0.9080343 0.09212528 0.13147601 0.5759889 0.21499489 0.23920475 0.52194566 0.3002008 0.059986778 0.9848246 0.7460231 0.13126712
l198 0.72204196 0.25244915 0.91219175 0.87292415 0.9725475 0.85201687 0.13482925 0.1341938 0.70763034 0.11716895 0.59427744 0.2073794 0.82089657 0.70287156 0.8427902 0.6236687 0.37403384 0.46567488 0.54645455 0.5639255 0.15751217 0.19361433 0.43934113 0.7849497 0.38022268 0.5515024 0.32378381 0.27201176 0.45724535 0.16995338 0.19983803 0.25960594
l199 0.7639225 0.28944042 0.887367 0.70708334 0.68748623 0.49132523 0.3539419 0.88709575 0.38377154 0.38100293 0.75169474 0.8903826 -0.018666055 0.4546389 -0.0009776816 0.77023643 0.35529006 0.3381075 0.25210297 0.7871473 0.8276777 0.93781465 0.43123767 0.81166977 0.40128684 0.6599837 0.7036473 0.9375291 0.90531003 0.2943719 0.88929725 0.93425965
l200 0.41987234 0.03280073 0.7978086 0.3931261 0.5519629 0.41866136 0.92618346 0.8054715 0.5369806 0.8472911 0.60542506 0.8135605 -0.004767345 0.426718 0.19900508 0.7432388 0.4021949 0.32647687 0.47790405 0.2810781 0.009080099 0.027500834 0.24895318 0.051618792 0.39683416 0.115342796 0.46021146 0.87792206 0.48087728 0.9165125 0.60192716 0.6685865
l201 0.8010158 0.9535741 0.418899 0.62103534 0.06112893 0.83820474 0.47868684 0.79452497 0.23502132 0.921788 0.3459335 0.717152 0.004251458 0.39299905 0.8345331 0.3602477 0.4003161 0.29686219 0.89624804 0.08575177 0.45532554 0.78543675 0.47424144 0.59544873 0.8774956 0.3066765 0.0215802 0.19394375 0.09716538 0.89948237 0.9304724 0.5091818
l202 0.21981269 0.98274106 0.25693724 0.8010387 0.0060244594 0.512743 0.960703 0.35759044 0.11408755 0.6663609 0.6588149 0.43553048 0.48931116 0.70350873 0.42456493 0.6815743 0.09473464 0.57272863 0.056383297 0.16209984 0.7410222 0.15137863 0.33178312 0.02187174 0.21779643 0.42802578 0.4192103 0.6213587 0.9327188 0.25507325 0.6612412 0.45421717
l203 0.5487038 0.16405743 0.5757488 0.58672535 0.0041896845 0.66407865 0.20214458 0.5222069 0.016319286 0.8570992 0.88047457 0.73369265 0.66659343 0.4886556 0.33370978 0.07422919 0.6258409 0.7269434 0.208162 0.58550715 0.23747867 0.7950734 0.90497077 0.577458 0.312269 0.58192104 0.20364374 0.3553105 0.91184974 0.042079765 0.15319185 0.7687292
l204 0.9613202 0.85364985 0.7094152 0.5906388 0.82420844 0.9264578 0.72412336 0.3909897 0.69459206 0.18741049 0.81428343 0.12533954 0.051517148 0.93740374 0.84094065 0.59557986 0.41902152 0.52158564 0.8448109 0.63608474 0.40081802 0.25618646 0.39945543 0.38105822 0.45610902 0.5020302 0.011668651 0.45672032 0.45124432 0.6984295 0.3412289 0.81792647
l205 0.52598566 0.7880603 0.40571424 0.42411384 0.0065141027 0.37595466 0.4481402 0.5231975 0.9655205 0.63392156 0.13087226 0.83958364 0.9473512 0.5609941 0.8638427 0.8208256 0.40766382 0.5195003 0.56286615 0.9763474 0.70787483 0.19537975 0.82739085 0.1170933 0.21549988 0.7890174 0.9013536 0.26842156 0.50876737 0.8302414 -0.023289254 0.88146776
l206 0.66781163 0.7502353 0.10656163 0.71641797 0.088126674 0.5833962 0.4843267 0.69751894 0.42531288 0.08264941 0.20913862 0.21022259 0.29132736 0.2742374 0.5260298 0.4177125 0.10790987 0.66001076 0.80056643 0.6436381 0.7966519 0.10770693 0.20994328 0.93899477 0.45059702 0.7612936 0.4722895 0.9158865 0.5327962 0.2866713 0.7742578 0.13762932
l207 0.24527904 0.2314594 0.6651429 0.70501745 0.9025427 0.4270965 0.89150125 0.5974577 0.35718632 0.85868716 0.024832062 0.46276978 0.44410434 0.45271575 0.8633878 0.4132786 0.66245824 0.11720396 0.62194866 0.21066009 0.3041388 0.20682977 0.60962385 0.65652895 0.2114536 0.023564601 0.23014413 0.96900755 0.3569046 0.96304816 0.32358626 0.8469905
l208 0.40067995 0.19003834 0.016544286 0.3428776 0.056957953 0.6106449 0.98001677 0.8302165 0.9551327 0.86167365 0.014937642 0.7957858 0.59101784 0.085506834 0.37400845 0.16051811 0.5511676 0.9749636 0.4613171 0.9413857 0.052027334 0.8453715 0.7694096 0.8784909 0.70461136 0.49018723 0.020207793 0.49500102 0.6393015 0.030699346 0.43952447 0.6423932
l209 0.21933438 0.017763741 0.49413726 0.78801274 0.23280117 0.38459057 0.28374463 0.7984088 0.41598132 0.17479746 0.5621295 0.9511159 0.26153767 0.8156401 0.31738392 0.56894386 0.039904796 0.84744155 0.31297508 0.5100824 0.49018148 0.053186823 0.06444271 0.46507192 0.6893665 0.8992802 -0.0028855526 0.71971685 0.7870509 0.07919351 0.8528233 0.9712499
l210 0.31314558 0.08665205 0.98963207 0.4832673 0.18232802 0.12630518 0.63908565 0.083077736 0.121407524 0.6281743 0.8722441 0.83357006 0.6765722 0.02113703 0.43412274 0.5790229 0.7964503 0.92946225 0.6991235 0.42029142 0.036194317 0.56741476 0.24951218 0.087464556 0.5760437 0.2004042 0.69920135 0.48115194 0.99352026 0.4502327 0.14801006 0.29809138
l211 0.30178264 -0.012028054 0.017639307 0.15551266 0.16644156 0.48973802 0.60143477 0.06523294 0.44189098 0.6690868 0.9605534 0.7052341 0.5848764 0.06574392 0.4133471 0.07399923 0.23458065 0.7709283 0.8151889 0.008803513 0.209227 0.8462837 0.26006758 0.78828317 0.436786 0.67855424 0.68724185 0.42009634 0.6131712 0.47749585 0.62478817 0.014495954
l212 0.42879772 0.22506754 0.9527918 0.26295805 0.58641857 0.16573712 0.24525514 0.8447128 0.0429334 0.931552 0.08827557 0.2922826 0.94500846 0.18555507 0.4305797 0.62838125 0.37500656 0.32551497 0.90264964 0.13114446 0.27860025 0.56201035 0.6407521 0.22690035 0.65492916 0.3270083 0.45037684 0.22358914 0.871171 0.7916748 0.84131247 0.707173
l213 0.85527986 0.37317607 0.64452136 0.5818112 0.76547307 0.80079865 0.0725583 0.022023374 0.882609 0.2669664 0.7767412 0.49989834 0.7243732 0.55115384 0.40089342 0.24408649 0.611688 0.20743746 0.2540224 0.8100208 0.00031961966 0.98779815 0.09932983 0.39325872 0.89905065 0.66953284 0.4848474 0.19074208 0.124377 0.047026645 0.964788 0.6353326
l214 0.019712275 0.4568765 0.7313752 0.56906426 0.045983505 0.92864573 0.54930246 0.06895373 0.67980087 0.89947385 0.7154141 0.6724136 0.32501096 0.03794709 0.38591337 0.64051247 0.20848916 0.95183045 0.41314015 0.33212256 0.79519993 0.45770887 0.011469506 0.7738697 0.45733705 0.8085414 0.3632044 0.34331954 0.49592087 0.40645158 0.41311675 0.52933
l215 0.5952298 0.7307873 0.098292775 0.006335396 0.483629 0.8924405 0.4271977 0.9850257 0.31483915 0.5494133 0.9324741 0.77231705 0.6999159 0.26972574 0.54592216 0.92235 0.74386126 0.47205263 0.4447243 0.13451345 0.9479267 0.58693004 0.34285933 0.38978446 0.75306344 0.8913632 0.30488285 0.92783654 0.64077216 0.7325417 0.17287585 0.38577995
l216 0.31244683 0.46181846 0.15975448 0.9585546 0.23879325 0.10864435 0.6648228 0.54274184 0.06374615 0.07809544 0.48765483 0.55884683 0.94983023 0.20975399 0.33943468 0.9958331 0.53095 0.13661422 0.009472618 0.4169478 0.44914454 0.7487618 0.7531006 0.95859665 0.44206497 0.28409842 0.84786004 0.8374414 0.3052447 0.29976568 0.5720482 0.10698006
l217 0.5760838 0.66379124 0.43613625 0.3412703 0.27784976 0.06743969 0.31408527 0.49256223 0.9919419 0.060520243 0.7854401 0.027139928 0.14797908 0.88199776 0.408738 0.0655839 0.081640765 0.28372347 0.17611817 0.8276225 0.46956292 0.83267134 0.29565942 0.6634104 0.20504223 0.48078454 0.18537743 0.22284168 0.5045235 0.39431518 0.825252 0.15064569
l218 0.5641336 0.6424079 0.70345527 0.64584106 0.6568008 0.3163638 0.024988798 0.9568247 0.52933395 0.64532816 0.2655003 0.34569168 0.39926472 0.47148862 0.030081632 0.6255753 0.9955522 0.095337965 0.56023717 0.7093565 0.8660181 0.80050707 0.49197862 0.7616938 0.35316384 0.30354267 0.47526473 0.5606702 0.69078606 0.15586033 0.08573281 0.33600944
l219 0.8301566 0.39646006 0.5860974 0.8166802 0.0912205 0.33630827 0.27813026 0.19966383 0.65856415 0.30583033 0.4832342 0.538955 0.7491661 0.052715782 0.9471633 0.85716933 0.07273761 0.63422567 0.7959177 0.8183698 0.34192756 0.037448797 0.8372984 0.7684203 0.20821185 0.92552817 0.87126416 0.7116623 0.82248175 0.32510453 0.31201074 0.2621928
l220 0.71936923 0.08152671 0.48378193 0.843885 0.9094913 0.9217359 0.6136821 0.44913322 0.7414471 0.083002605 0.41656023 0.53116214 0.8347813 0.72282153 0.18779236 0.26495022 0.21421902 0.81756955 0.5133256 0.33502737 0.76288855 0.16650657 0.29328182 0.57894135 0.37179035 0.7327727 0.1111859 0.9251874 0.34840178 0.6909401 0.17741147 0.2699811
l221 0.49154565 0.27728352 0.94946116 0.031464692 0.53446835 0.028818866 0.8473441 0.86562896 0.2071907 0.058675822 0.026512837 0.30487663 0.5024045 0.6685935 0.56197596 0.92891496 0.47354797 0.26709452 0.49223047 0.34773895 0.92278963 0.9756994 0.81824243 0.9158405 0.052213285 0.63532096 0.25533167 0.28877535 0.28660637 0.27261358 0.3853448 0.52967393
l222 0.8560088 0.17107837 0.62828285 0.96717364 0.94044226 0.042298757 0.8609149 0.5203182 0.8712104 0.027585367 0.12979661 0.22042246 0.40976992 0.8960455 0.53729963 0.7119532 0.95568645 0.89333904 0.6695712 0.017517598 0.88312083 0.7395968 0.26780304 0.42416924 0.69182646 0.8094394 0.24275957 0.6347098 0.20893717 0.28314772 0.89554745 0.45767325
l223 0.3905421 0.94194585 0.9990546 0.14815196 0.74397004 0.14692017 0.3992697 0.86229295 0.769359 0.7701803 0.4755267 0.15033774 0.24331757 0.9011373 0.14988111 0.09699577 0.627319 0.9308984 0.79887885 0.75312465 -0.0064326813 0.43107265 0.46286443 0.261951 0.65729445 0.3720897 0.24789941 0.6583193 0.44177997 0.66040236 0.57860816 0.41940343
l224 0.194086 0.72618914 0.14313254 0.77771807 0.45284548 0.74920803 0.5397118 0.2494162 0.30302238 0.9925412 0.92198265 0.09238696 0.9262033 0.31659576 0.11131287 0.9981123 0.30867305 0.66511065 0.609322 0.5228904 0.17818874 0.0813555 0.17643888 0.75090533 0.30422154 0.657681 0.8953576 0.71519387 0.7150412 0.018352203 0.08294453 0.72489095
l225 0.92919487 0.34599698 0.71556705 0.9360265 0.32888484 0.7604528 0.034569666 0.8268881 0.67592156 0.52502894 0.8801411 0.8267704 0.6211352 0.57872546 0.47135687 0.87970537 0.34921962 0.6689295 0.7822375 0.61540806 0.75602114 0.5105374 0.85823226 0.7629506 0.84263116 0.84895444 0.9452634 0.1515968 0.30110386 0.3631434 0.7085927 0.74731725
l226 0.06961567 0.5200231 0.47460216 0.8720256 0.43800566 0.015764667 0.17239279 0.1406095 0.33233303 0.9647009 0.6676285 0.715303 0.50592744 0.4067051 0.9686535 0.8935219 0.74108577 0.25676155 0.14147052 0.27360544 0.0011475302 0.9222192 0.8469873 0.7599343 0.25520462 0.11450278 0.5337009 0.9054243 0.97185814 0.10342268 0.3800778 0.47329065
l227 0.77762216 0.9754521 0.80784893 0.3518754 0.8482739 0.44025534 0.68239444 0.28246972 0.5636983 0.20558655 0.73926985 0.78281647 0.80794114 0.947515 0.6621696 0.37918887 0.79884887 0.048088573 0.37749618 0.93914133 0.7200066 -0.00091609516 0.026125373 0.73764896 0.55844957 0.32413295 0.12054394 0.064059906 0.77465224 0.5146872 0.3859885 0.5355743
l228 0.78220046 0.67582726 0.5985586 0.92223173 0.27252257 0.40910482 0.6356498 0.47438827 0.74552053 0.36703193 0.5584918 0.44313985 0.47671208 0.49148786 0.64815116 0.03528257 0.07297381 0.10193047 0.96436316 0.5530959 0.67594576 0.04863608 0.07728349 0.2736059 0.7952646 0.21927936 0.038712192 0.7206869 0.57759297 0.33993274 0.5868889 0.87120754
l229 0.80819136 0.3585646 0.89037293 0.2562284 0.46736288 0.9452121 0.56285304 0.47052032 0.40190327 0.96600544 0.23738056 0.62064946 0.082515694 0.7543604 0.44234878 0.77025765 0.990788 0.1287842 0.9747475 0.36916202 0.8978282 0.9081839 0.7646635 0.15187094 0.49566054 0.48795915 0.7065195 0.58531183 0.72780466 0.65149295 0.7256437 0.41447085
l230 0.85865813 0.38176706 0.45947582 0.7737953 0.42571086 0.14560066 0.1349763 0.28911307 0.6315263 0.8564287 0.7585393 0.42737782 0.30303314 0.8117833 0.70219666 0.3457113 0.7458979 0.35773468 0.8324538 0.64432967 0.5078888 0.44752872 0.2417788 0.6991802 0.37431794 0.23505202 0.8286366 0.32437015 0.20466775 0.21848953 0.710781 0.24057192
l231 -0.005142309 0.6501177 0.6336587 0.41099995 0.16238013 0.46491945 0.6651998 0.9894989 0.96161264 0.55075157 0.029682579 0.37609896 0.592502 0.41523212 0.116235375 0.45472068 0.27514002 0.578617 0.94991267 0.18238185 0.8433345 0.95306814 0.7255465 0.117918245 0.056949154 0.64106095 0.35216263 0.2856093 0.6967591 0.69170535 0.79227245 0.7311993
l232 0.8039033 0.90544534 1.0033361 0.26534548 0.5905477 0.07564222 0.9158518 0.40834573 0.3674078 0.029079802 0.38715404 0.062050305 0.61907375 0.969357 0.92579806 0.24847867 0.15357368 0.33361974 0.08580635 0.5006675 0.36076966 0.65266347 0.1723004 0.72877187 0.8849551 0.6753794 0.6807548 0.40618128 0.11847008 0.6666158 0.7799849 0.665326
l233 -0.002220547 0.15130138 0.47593817 0.459569 0.9392493 0.77385384 0.6251038 0.98360765 0.26476955 0.35407913 0.97675806 0.25744408 0.9562689 0.70081174 0.44138807 0.7424442 0.7718261 0.1719303 0.104163766 0.2038716 0.71214056 0.5501104 0.6973824 0.86671627 0.5999084 0.70555675 0.6947258 0.66239303 0.1328419 0.5379466 0.93066955 0.5684398
l234 0.66379696 0.116937004 0.78538924 0.53384817 0.79798156 0.92118376 0.80163807 0.40415543 0.9120317 0.9706557 0.6991036 0.9112153 0.40799487 0.42399096 0.003286018 0.71157956 0.9432908 0.25575578 0.87099946 0.6861486 0.046655454 0.11792589 0.81150705 0.78674036 0.18257666 0.049232654 0.39794067 0.2819387 0.22464538 0.3907564 0.9689547 0.103557795
l235 0.7157709 0.1933552 0.6322278 0.38798377 0.6385134 0.6501054 0.42994487 0.5372483 0.7188917 0.5915944 0.56066084 0.1407114 0.4124228 0.99184525 0.67747456 0.53490305 0.18794814 0.8344851 0.34205753 0.75668657 0.2533527 0.888625 0.2903266 0.4641665 0.8004447 0.7810888 0.8356238 0.6143816 0.863421 0.41284397 0.57985896 0.1578469
l236 0.7996048 0.37518546 0.33818787 0.44039303 0.39132068 0.29982236 0.50726575 0.24583606 0.6203722 0.14224711 0.057158418 0.20306182 0.26561067 0.32999435 0.66159946 0.89869064 0.21942958 0.82111174 0.5806735 0.7085142 0.58453393 0.49896997 0.23565494 0.41009632 0.7438062 0.17603582 0.5607253 0.89566624 0.21832095 0.18235987 0.66689646 0.3098353
l237 0.48003176 0.45222422 0.026780453 0.4315445 0.8915714 0.09690746 0.36944413 0.2628591 0.21048355 0.69509417 0.009202516 0.90005845 0.9383335 0.45395473 0.5699503 0.3017289 0.43108612 0.61421 0.96337414 0.632411 0.7577587 0.19094974 0.45936823 0.5179545 0.070634186 0.726396 0.06021278 0.82236415 0.14373018 0.44732457 0.7185635 0.9102984
l238 0.8573428 0.74663883 0.12495849 0.08577396 0.76051486 0.5503184 0.4276597 0.66493183 0.93936336 0.38361 0.98417044 0.75272703 0.78052586 0.14915264 0.07475637 0.44000188 0.105104074 0.7856913 0.7818842 0.058686897 0.036098614 0.94462025 0.10255853 0.93188447 0.7278445 0.4689662 0.21801221 0.9243564 0.6983703 0.87522155 0.8277649 0.41946682
l239 0.8597768 0.9547233 0.21651515 0.32861963 0.41631243 0.8790085 0.9735286 0.9394655 0.63701415 0.72204226 0.82908046 0.32647303 0.84273237 0.46490392 0.42541042 0.48437187 0.6760859 0.8765737 0.70025504 0.7601741 0.6308318 0.3904968 0.026764829 0.9114281 0.23379236 0.68298745 0.033508122 0.783354 0.6036349 0.922268 0.9465816 0.45242596
l240 0.90437394 0.92655766 0.9005512 0.8316956 0.06438371 0.5349733 0.9661557 0.90351504 0.58846337 0.76080114 0.81564224 0.9733262 0.7429993 0.86437297 0.56548 0.87294155 0.5612593 0.09029009 0.8119312 0.38525757 0.4455089 0.56455624 0.834983 0.5434532 0.9106348 0.30948687 0.9103213 0.4700188 0.5970891 0.49860027 0.53072286 0.6787861
l241 0.9264085 0.5725233 0.15853408 0.59134066 0.5919984 0.40651116 0.74075466 0.2627999 0.22233923 0.6975823 0.13216494 0.52751213 0.21984899 0.41304365 0.26115268 0.24752486 0.1737102 0.20717219 0.3145554 0.27880323 0.032302376 0.7367817 0.88946074 0.4273465 0.57860124 0.69673926 0.37464446 0.44408372 0.72736174 0.1928383 0.18188988 0.84372133
l242 0.15793243 0.41393945 0.7133474 0.3588912 0.047425903 0.53107196 0.93327135 0.52836055 0.5831906 0.49535987 1.0083116 0.23145814 0.08825353 0.4533943 0.11231322 0.22643253 0.12324408 0.10538746 0.8511934 0.9492553 0.9555563 0.64347047 0.36923206 0.31051654 0.29847386 0.7577264 0.8895973 0.55427283 0.9285737 0.9224665 0.009042074 0.71767235
l243 0.04898989 0.7040624 0.4807747 0.89065284 0.5656077 0.0510819 0.2804815 0.5578964 0.4290029 0.3338593 0.8814171 0.26627406 0.7566643 0.30281308 0.07878483 0.9486783 0.01631786 0.054635525 0.6614703 0.7965412 0.27689984 0.54489464 0.041716117 0.99037623 0.80459785 0.56174207 0.5297407 0.27768782 0.13526106 0.5884562 0.70735556 0.46438932
l244 0.023373777 0.16972823 0.2904996 0.25514826 0.24552478 0.3691982 0.8685442 0.07621833 0.8646591 0.69958824 0.4243803 0.35784408 0.45287687 0.59307534 0.9785423 0.7240392 0.83354914 0.30594316 0.18504108 0.4871296 0.58332187 0.599005 0.9242108 0.31920224 0.4919968 0.30027196 0.65771216 0.034390092 0.11613669 0.12650181 0.2678177 0.13816953
l245 0.4443083 0.4422163 0.5665785 0.1563957 0.25712496 0.4795217 0.5287186 0.57150733 0.9126834 0.62916803 0.7612615 0.9508493 0.25542545 0.08180985 0.05918459 0.1108415 0.51245373 0.8553906 0.8418997 0.21783976 0.2129241 0.019432979 0.7759432 0.6102357 0.21872874 0.7258724 0.7811245 0.094875835 0.31420815 0.88017625 0.70434076 0.014319797
l246 0.3986168 0.08115303 0.62474126 0.81619096 0.3643291 0.15692408 0.87542677 0.7803369 0.8860565 0.92476624 0.8031439 0.95008916 0.3118287 0.2598138 0.19906466 0.42528766 0.0122048855 0.2577443 0.6589161 0.042002913 0.91476923 0.30582118 0.18852463 0.50499856 0.7240761 0.31490597 0.14390706 0.7971446 0.3385328 0.9763893 0.50605977 0.057730194
l247 0.6109361 0.21278298 0.3915746 0.3955707 0.39813983 0.1204135 0.32478255 0.32207027 0.88475066 0.7462345 0.6688368 0.78867096 0.2781131 0.6664269 0.7214549 0.26837403 0.92825747 0.28291067 0.8816378 0.6823974 0.47526142 0.81655926 0.51719224 0.70133793 0.7538058 0.4803839 0.5535613 0.17748028 0.9145845 0.40374115 0.20994139 0.43075165
l248 0.9218146 0.38410753 0.18086529 0.016530225 0.70693105 0.033778995 0.3775601 0.5897243 0.37214646 0.25927082 0.42751575 0.8544043 0.65759164 0.39311248 0.31763363 0.7754778 0.021931944 0.15641154 0.3299344 0.4712938 0.90544444 0.4628215 0.5732942 0.19412924 0.47285026 0.07995023 0.6697742 0.90564233 0.26425266 0.21934032 0.5710718 0.7013009
l249 0.29762065 0.76938474 0.89154863 0.34349915 0.6715844 0.83854383 0.48726445 0.6699653 0.0069480333 0.78432536 0.7772083 0.76105946 0.8148567 0.9552704 0.92654943 0.21640185 0.7188552 0.28472465 0.2759707 0.83672494 0.8516892 0.13381574 0.87138015 0.74869823 0.7688811 0.79224825 0.21838263 0.30144203 0.3713848 0.5180842 0.6806292 0.32088247
l250 0.77558374 0.8302775 0.5617245 0.6273345 0.7811446 0.57816416 0.6753001 0.7852262 0.09287136 0.45740792 0.1336149 0.29361162 0.085968986 0.14001046 0.3492898 0.5291436 0.47722262 0.47975862 0.73894054 0.882543 0.07070434 0.6285525 0.104840115 0.70546305 0.9431901 0.054407027 0.7845248 0.2544502 0.7659072 0.50132763 0.5305168 0.93007684
l251 0.7879859 0.10830691 0.45382044 0.4714954 0.63972163 0.15034083 0.34984043 0.23344882 -0.015130532 0.4025859 0.38272613 0.57264704 0.68198395 0.22803882 0.21253681 0.8864199 0.32659745 0.07197208 0.8828599 0.21065055 0.9051441 0.37165964 0.40507942 0.4271141 0.8414355 0.86176556 0.45856184 0.42757103 0.90667266 0.17221083 0.8543128 0.50951314
l252 0.63606256 0.9398335 0.7921254 0.42056158 0.93427724 0.7217905 0.7895114 0.517143 0.05591503 0.58195627 0.8424816 0.91509974 0.7609267 0.72521555 0.7761927 0.5216726 0.6747682 0.9230639 0.23583129 0.04223062 0.31894293 0.5658326 0.5596355 0.022651972 0.004116032 0.67336166 0.22819692 0.92333657 0.66631407 0.65917635 0.042920496 0.7116986
l253 0.36103475 0.6459348 0.5110981 0.18387325 0.4373169 0.0027406397 0.82751745 0.53996783 0.94217575 0.8229711 0.6943405 0.04808855 0.799234 0.69566655 0.49497023 0.009084349 0.48463845 0.91525173 0.1701772 0.44273245 0.95183855 0.4375759 0.37864077 0.48771206 0.25569314 0.65173775 0.96836245 0.746474 0.50294614 0.03591939 0.17172258 0.30862477
l254 0.73440695 0.26940694 0.57526463 0.37811935 0.92852277 0.9538384 0.70605946 0.6458176 0.56303966 0.9124592 0.5870817 0.023917923 0.5129279 0.71386486 0.41503066 0.0837535 0.8016657 0.91852486 0.024881948 0.29737717 0.7122646 0.58862376 0.13100837 0.2870696 0.50090826 0.16291004 0.51544523 0.694574 0.73562795 0.816359 0.7366715 0.07531894
l255 0.49687877 0.8113883 0.23777957 0.20973015 0.08432636 0.6955092 0.75287265 0.24114497 0.64899147 0.90857375 0.46755826 0.19074601 0.044055693 0.29465285 0.50745857 0.71854424 0.12516364 0.6612967 0.368386 0.9576335 0.8703724 0.113867536 0.61049914 0.84514886 0.0133515075 0.7315285 0.25176919 0.4951912 0.97803044 0.9401667 0.28019324 0.27297112
l256 0.5859931 0.42276356 0.50452995 0.667351 0.37605032 0.08450534 0.551744 0.7434322 0.023228208 0.26894775 0.50234973 0.25333712 0.9383695 0.9599727 0.110084586 0.7957392 0.013923929 0.6791799 0.8961262 0.37472117 0.6600754 0.13363478 0.94049793 0.2829893 0.4814062 0.5391101 0.05265703 0.49499163 0.088884234 0.68553394 0.10758005 0.9097374
l257 0.6868612 0.06719995 0.47169426 0.03920314 0.33662057 0.6129863 0.6823777 0.022015644 0.6351547 0.26669237 0.734535 0.26403388 0.085663766 0.726978 0.36225113 1.0051316 0.5793658 0.19024695 0.12051486 0.7748227 0.62670743 0.86689883 0.033310782 0.2179502 0.62331444 0.06396159 0.7788206 0.7680672 0.72978556 0.29704848 0.08371438 0.4269708
l258 0.14779368 0.45740262 0.7626269 0.3580498 0.97319365 0.509778 0.26144934 0.6209796 0.8818595 0.7714076 0.08371576 0.48741227 0.9550859 0.9097014 0.028667202 0.063009925 0.3698621 0.7147702 0.74390477 0.6819413 0.3334561 0.643323 0.42733487 0.575263 0.90732443 0.5214923 0.97033024 0.09338625 0.3235739 0.74454933 0.28390417 0.6208055
l259 0.035736144 0.8761131 0.31703565 0.5413079 0.7994164 0.2114124 0.6281044 0.845293 0.10094588 0.07548912 0.7226491 0.17247741 0.33437005 0.3741869 0.97599715 0.6758674 0.65759265 0.584478 0.13105884 0.79867595 0.83325225 0.49584192 0.44874606 0.64137113 0.7510942 0.49736845 0.80175614 0.22185364 0.2578948 0.40579277 0.18143256 0.411931
l260 0.39303353 0.9554251 0.5086315 0.6689035 0.8855842 0.52960217 0.6996215 0.99200535 0.40914825 0.97116387 0.16757761 0.6489947 0.55114 0.4437859 0.29083574 0.15641952 0.5334147 0.868353 0.32372266 0.892464 0.7011658 0.9612029 0.40233567 0.3925715 0.6323361 0.8912322 0.63566256 0.70139134 0.2948726 0.13371761 0.71269906 0.24104412
l261 -0.0012103919 0.4405159 0.31416398 0.6969912 0.5528666 0.027337136 0.3345775 0.7131065 0.46436846 0.9626036 0.23697448 0.10342668 0.32783642 0.89846635 0.24712689 0.88582927 0.5466389 0.25984454 0.38408676 0.048009757 0.7952703 0.6999096 0.46701935 0.024715062 0.6989986 0.16164422 0.19286549 0.8070526 0.2764006 0.027449269 0.33155063 0.5915956
l262 0.9918993 0.24115816 0.6577901 0.6333301 0.046619456 0.6320966 0.7355653 0.71678925 0.6633452 0.3016667 0.73988956 0.33270577 0.35650384 0.60713124 0.29445902 0.4234113 0.47433805 0.07768047 0.09433183 0.401893 0.32979384 0.199813 0.57602423 0.8547098 0.7202026 0.86887866 0.5521094 0.61659455 0.8682723 0.46367338 0.14415503 0.1969787
l263 0.3360978 0.74688274 0.9379631 0.35891378 0.5589354 0.5868481 0.4916159 0.4791827 0.42991793 0.50123954 0.24425599 0.9711048 0.06443309 0.54067093 0.5007016 0.073277116 0.20965405 0.29990396 0.80677193 0.77854186 0.029225005 0.49447367 0.2635768 0.24762708 0.5119433 0.946739 0.88686925 0.7313695 0.88124454 0.8908942 0.18020433 0.03044853
l264 0.50376815 0.30431563 0.31606823 0.5150856 1.0045396 0.48421222 0.05584864 0.8478016 0.13449547 0.16473398 0.69551754 0.91174215 0.70412236 0.49239096 0.26843563 0.4904321 0.83808726 0.98076546 0.5530951 0.76223904 0.13441882 0.38433355 0.05725255 0.41274145 0.28246143 0.018395277 0.2097511 0.4704465 1.0029871 0.13291685 0.53613925 0.6707524
l265 0.71478456 0.114203416 0.5920425 0.23700245 0.122096404 0.6844188 0.56924903 0.5932684 0.66851836 0.3144656 0.73517376 0.09669123 0.12264118 0.18913259 0.31867647 0.9975021 0.19021806 0.8942101 0.58806115 0.72143406 0.7699518 0.51137596 0.15507591 0.93172693 0.79949766 0.4333747 0.73835033 0.014734231 0.32118827 0.4955531 0.7435972 0.50062674
l266 0.5594099 0.3294127 0.85617834 -0.007913743 0.3791379 0.6356647 0.64713615 0.12389959 0.93558156 0.3460455 0.43986052 0.06711051 0.70732665 0.9743074 0.25494224 0.7960614 0.51204914 0.59048146 0.97561556 0.2703763 0.6427653 0.39725533 0.0885422 0.5416779 0.70250374 0.2955601 0.68984216 0.24285531 0.7921787 0.33458784 0.07426873 0.71337026
l267 0.8855816 0.54154074 0.20036596 0.64716434 0.1952321 0.13278107 0.59519553 0.67959267 0.31081298 0.7412286 0.6175999 0.121193625 0.15628482 0.058889087 0.94125813 0.20620792 0.63991016 0.76693094 0.9426847 0.93917644 0.79430825 0.6229656 0.41820824 0.31411472 0.4320934 0.8235195 0.22307645 0.8426635 0.7432813 0.7904114 0.74264044 0.28662524
l268 0.58388406 0.7745246 0.57969314 0.7035171 0.39741987 0.6532889 0.67315865 0.8320081 0.11011606 0.2752242 0.4815845 0.026089508 0.08000203 0.2409505 0.17987011 0.022057462 0.33868507 0.9898517 0.16517524 0.057304077 0.63255143 0.15258822 0.695343 0.8448938 0.10327576 0.48934335 0.23005536 0.0040076766 0.38654077 0.11824635 0.998689 0.19675533
l269 0.7238063 0.8844454 0.07830512 0.32605878 0.30655262 0.23441358 0.6836117 0.63824 0.25243133 0.788548 0.8352863 0.9105746 0.60697705 0.032381352 0.021693004 0.047909364 0.62161237 0.8952035 0.046086043 0.7076612 0.06884357 0.8453765 0.44837782 0.76647496 0.13721794 0.19782276 0.34685776 0.35822216 0.25973612 0.12716946 0.4254011 0.8277464
l270 0.9558597 0.66280204 0.6825813 0.9238572 0.66606563 0.8056847 0.83911556 0.9300092 0.6100784 0.66907483 0.029552976 0.32648882 0.25218898 0.34040776 0.2813282 0.57517576 0.35625538 0.44146204 0.4644196 0.7602507 0.1761026 0.14197718 0.6745807 0.2713886 0.12733175 0.22389401 0.53003544 0.32859147 0.21297108 0.83056825 0.59746516 0.72476923
l271 0.11706002 0.59354 0.99039495 0.7637017 0.76764476 0.1776009 0.40396774 0.03640203 0.27400443 0.3099751 0.82859546 0.9847497 0.2733316 0.20647556 0.5622143 0.45572495 0.18004134 0.63508046 0.6574399 0.039453465 0.52712196 0.7872554 0.4965027 0.37313524 0.32705098 0.730741 0.7343658 0.56760406 0.73004556 0.20011972 0.6207188 0.3709701
l272 0.53086257 0.5830401 0.28823614 0.10104662 0.74275535 0.51008564 0.026144285 0.42734143 0.6987339 0.90515023 0.4365851 0.32291764 0.34759277 0.7417587 0.7585456 0.9752625 0.5006143 0.507165 0.9394654 0.15998256 0.17334445 0.5841221 0.4149005 0.063123316 0.95351255 0.87480336 0.6241819 0.68428916 0.2036469 0.37787282 0.9341011 0.086956285
l273 0.993123 0.23916115 0.033471916 0.3458509 0.8267862 0.5745993 0.19064672 0.22004962 0.682994 0.7590941 0.58157796 0.12038381 0.4805737 0.46181178 0.21948773 0.497457 0.8451397 0.08467441 0.5315973 0.11983229 0.5670306 0.4278222 0.4235179 0.90760595 0.94868207 0.80109704 0.3558125 0.13278632 0.16675268 0.4743569 0.7353402 0.9858546
l274 0.2135248 0.60370284 0.67636967 0.611598 0.56047875 0.52344805 0.9142636 0.13066311 0.5108521 0.1679528 0.24887268 0.08267244 0.12396777 0.015433965 0.25377283 0.3983994 0.6676593 0.14728422 0.819362 0.17806128 0.26533327 0.8220416 0.2920891 0.8852881 0.05490234 0.7964903 0.44427508 0.39952302 0.45712212 0.15040748 0.5455314 0.7126419
l275 0.55176413 0.27894858 0.28819007 0.61625403 0.9178378 0.6155806 0.30283386 0.18499972 0.026089517 0.06383281 0.98053026 0.058084197 0.69699454 0.4675604 0.26374012 0.42698136 0.9026274 0.3739119 0.24919257 0.029420247 0.43990403 0.2468558 0.6133409 0.26881543 0.73544425 0.25884983 0.6956795 0.20943145 0.8825185 0.60979897 0.20210497 0.75904006
l276 0.5916783 0.6961729 0.96697205 0.41772822 0.41531956 0.84041095 0.29382423 0.8144797 0.6963896 0.04781032 0.7187366 0.70316666 0.92790407 0.8370639 0.09969691 0.6466228 0.8046121 0.6790736 0.17883343 0.9702581 0.23294243 0.70039713 0.038997617 0.03398098 0.7401957 0.6280991 0.30546576 0.12868465 -0.005800543 0.30359387 0.5796548 0.42365968
l277 0.7554192 0.53288907 0.71263975 0.50775015 0.9177939 -0.015080375 0.09103507 0.68939805 0.56877464 0.4439036 0.8666579 0.40450835 0.26489213 0.32218492 0.6632081 0.02697898 0.4495377 0.022425976 0.6583519 0.52684104 0.7793006 0.3734361 0.29013756 0.06592053 0.04020743 0.23030667 0.8959215 0.7010593 0.2750641 0.04258933 0.63517547 0.8390004
l278 0.75291544 0.9791674 0.96271366 0.39439645 0.40612364 0.4567563 0.37358424 0.78551704 0.02624521 0.032383505 0.90270156 0.612685 0.13594158 0.2592388 0.2174207 0.2284978 0.35753158 0.055486493 0.19848599 0.16465494 0.08194956 0.5745047 0.8361637 0.9161612 0.5582878 0.8489578 0.42768398 0.067827865 0.17500475 0.335018 0.82724416 0.16071503
l279 0.63646173 0.8004118 0.79961777 0.43543023 0.40867627 0.8375368 0.058227155 0.19632456 0.9043452 0.2257685 0.9805096 0.6258977 0.5206093 0.1094245 0.9614961 0.18115123 0.29370537 0.19193733 0.5604547 0.30727977 0.37063763 0.24033788 0.3441489 0.7050513 0.4347017 0.7042987 0.06074145 0.41959175 0.23842055 0.025797216 0.41828534 0.86531174
l280 0.15159129 0.09545276 0.10932501 0.16605736 0.054351762 0.10347666 0.08279194 0.36107883 0.90828687 0.4188056 0.72874564 0.17459515 0.38890445 0.48602337 0.11404125 0.1093361 0.51777655 0.9673605 0.19235879 0.93965447 0.703993 0.14018351 0.6599361 0.19175112 0.53438413 0.88772184 0.399309 0.3612143 0.12590094 0.9717563 0.6290349 0.06724486
l281 0.10981145 0.15907595 0.06445608 0.933045 0.43635607 0.29108644 0.9125469 0.5977653 0.9931235 0.94260955 0.6549019 0.4074619 0.034692615 0.5321795 0.7189652 0.79866505 0.3388906 0.630683 0.19226345 0.031516254 0.48674434 0.75648904 0.865912 0.54558474 0.034485698 0.23410241 0.5980736 0.7431419 0.061865557 0.095894285 0.67154926 0.7787061
l282 0.44180724 0.83595604 0.33674228 0.8350135 0.33876368 0.39759848 0.75165087 0.716519 0.62527466 0.09280218 0.8557908 0.07023593 0.350144 0.93037903 0.81330633 0.71014386 0.9340975 0.052544776 0.9292714 0.28875172 0.19475012 0.2953781 0.0707539 0.7144637 0.43434593 0.783862 0.32573164 0.09071099 0.585467 0.814741 0.7069323 0.47770014
l283 0.2044283 0.49265695 0.77138823 0.101672895 0.54359263 0.583578 0.89442635 0.059186563 0.67563635 0.66485876 0.6507586 0.89544415 0.2072879 0.40314347 0.49197176 0.2678304 0.11807575 0.9012964 0.31463674 0.8368501 0.2544528 0.7626746 0.8817142 0.14793158 0.6406316 0.35555238 0.21149418 0.36547393 0.14651102 0.69065636 0.16577056 0.08321726
l284 0.10875255 0.7184226 0.35100764 0.76435363 0.12941751 0.48291963 0.95239365 0.2178949 0.9768715 0.6597448 0.5254545 0.86206317 0.46055973 0.5848234 0.4723476 0.19914338 0.6724175 0.3514194 0.16869038 0.033772036 0.15405191 0.86457783 0.65766466 0.06781316 0.4476446 0.06666371 0.92010415 0.23930375 0.7311444 0.33001328 0.9464159 0.7095043
l285 0.5059261 0.9371442 0.8470484 0.35500652 0.7586566 0.8364451 0.39412573 0.41899043 0.8363429 0.87011844 0.8876756 0.58224535 0.9334959 0.06692612 0.047085814 0.35170645 0.7380641 0.5685088 0.34795254 0.2879843 0.344504 0.82784027 0.8923812 0.13619892 0.20368704 0.12922126 0.48100165 0.6060375 0.40832943 0.4067867 0.28551525 0.796295
l286 0.9070362 0.6487706 0.6175599 0.20018789 0.7279375 0.34062877 0.092319585 0.8827862 0.015655767 0.8639682 0.41681495 0.16897446 0.06719635 0.087060705 0.42243746 0.829409 0.9807256 0.8194222 0.26229382 0.98765844 0.8224333 0.6742266 0.08361351 0.67903715 0.9981884 0.9178266 0.49472746 0.11472379 0.3234944 0.88798887 0.95785993 0.3282685
l287 0.27849963 0.74943954 0.43927583 0.25094938 0.16407219 0.26479447 0.51039433 0.3944838 0.2864749 0.59365004 0.45612442 0.77767736 0.20037365 0.36234325 0.17228454 0.90884876 0.4856822 0.48540127 0.7541999 0.37855652 0.59040064 0.2578127 0.41417348 0.11468928 0.5231728 0.51648134 0.2981517 0.8966582 0.44814238 0.77727157 0.7797824 0.8504234
l288 0.9639678 0.7558371 0.2161009 0.59784085 0.8108618 0.008780002 0.23257169 0.029060774 0.8396772 0.72914505 0.8104172 0.32580444 0.41870445 0.5261062 0.42715806 0.13191853 0.97452193 0.22974445 0.7773158 0.04311113 0.6992408 0.30031744 0.55348307 0.64523166 0.48384738 0.5482514 0.7945235 0.5858036 0.6199049 0.8976893 0.5293683 0.10344244
