1089 64
l-l 0.010551488296431794 0.008042490716509287 0.046963114986604104 0.04838603332027639 0.10852966935981997 0.01305763009362193 0.012785360667700717 0.006257657330865917 0.018731838949683163 0.004099970019871458 0.006396648043420094 0.08971940607549385 0.030583301377826208 0.011878005858304981 0.05318038415923496 0.004417997301282186 0.03468032415299436 0.011383944761884026 0.0275748535914544 0.061369175682525444 0.04258357377500516 0.03434237887430578 0.010578309875595195 0.024490503700897292 0.027951246432087823 0.01726563163304924 0.002839522760233665 0.024542742512267297 0.00747429142105505 0.003244920909737627 0.04395998029402623 0.010658836886337534 0.026647870872883336 0.023773449336090227 0.004080317581669565 0.03582039468350639 0.022277375270574083 0.023001045371895963 0.015180369126865238 0.09776998897128356 0.01375248652817454 0.012876724315871474 0.011967411873063685 0.06986445020663298 0.041893598291790665 0.035291111770187934 0.03977468362608577 0.017355630587931874 0.013038200974961556 0.00846578931903305 0.05357414811869148 0.028226956244511048 0.021909076047322815 0.004088748087156276 0.022596289576245158 0.04257701572897713 0.015585175227635138 0.08254523134595837 0.029123699372462477 0.1603977863199518 0.03939937433509645 0.010900005380254554 0.008765410678995746 0.036992415438037836
m-m 0.016673112766044336 0.013043732925896737 0.027645187508243463 0.05508846541832337 0.0806267824926713 0.009941414621123397 0.013515780878547457 0.013706995463587229 0.027625946646530293 0.0035039599963640534 0.002855156747069626 0.038613721141639704 0.01832709972323699 0.007229964203746694 0.03966576442783874 0.008179120858534247 0.021402932864528226 0.01621781286276329 0.017983208307348002 0.045339179238364835 0.015088601055417802 0.02631725673109421 0.013197514993673266 0.02278543968783495 0.008381164884727203 0.019660975142938405 0.00901646526538319 0.019118304324760593 0.0010525092812181845 0.012536622976215833 0.035385899797485486 0.00805797842408626 0.016923882297941565 0.0247162946574636 0.007827366408004244 0.019988667588878628 0.007984561722498432 0.017072191547438553 0.022776757798646116 0.07166118722688229 0.006797753291334651 0.01061736091935988 0.02159783797338997 0.06247354332835921 0.023016661440969137 0.02249136990783094 0.027947274036860096 0.018189320572138054 0.012042905031600932 0.010575121067890493 0.03517576865449927 0.0219104762619368 0.018318926435432273 0.009798713887769183 0.011984474410574635 0.03651499819983151 0.00788446391801553 0.032696941221738815 0.02016460357926984 0.09065423444472033 0.022297571202178196 0.0093136623629293 0.006765292221306816 0.03645400652856047
l-l,l-l 0.005683923717706223 0.0070748432598918545 0.024002588265616843 0.020641248392886443 0.03610147239428687 0.007759036493549994 0.001729991008903423 0.0022228912454072616 0.010345336393450394 0.0011750615980285748 0.007852887634483734 0.03560082600062779 0.009408817427508669 0.003262124725137735 0.028235187121110894 0.0117818406007004 0.016004176716638063 0.01502995631158046 0.014273007812807168 0.02877252514574302 0.030522062555457502 0.008217560931235773 0.006108031956778374 0.015847242846540564 0.008141435291010187 0.015714581682638 0.0015067052422196073 0.018381548039015195 0.0020273746829597397 0.004850673763880281 0.014828941643090027 0.01253687852472349 0.010926417019124057 0.01692829602885876 0.012076836955030394 0.012415799489194104 0.009537202111949163 0.00471056647062173 0.001979275288319827 0.030009876573208492 0.013182211451222387 0.007855524293022309 0.0048245695067358815 0.03228954498630731 0.023253169560805528 0.011263163744567777 0.02068654108994049 0.015604078408811206 0.011289366505907152 0.016159526137448182 0.026843605423118085 0.011055493323308005 0.008622985369565473 0.004332476796059054 0.018645052019359464 0.018004748563932485 0.01739897287265378 0.03357826449797608 0.01048188064334214 0.057695704081543696 0.013935333424088703 0.004863135565392762 0.004539923698421935 0.02291754604398183
m-m,m-m 0.0029567423485379273 0.004503050619141347 0.018050651980914472 0.02516385165687903 0.03280482035434404 0.004690480145089006 0.013444888915106557 0.008492606097749256 0.004533201072469586 0.009815696164060899 0.011964745390266148 0.02207571068369185 0.007028959707931252 0.005807781996677459 0.02296309959203755 0.0075694421751636275 0.007782197163872363 0.01812632703077072 0.02072810303693408 0.02352339009715416 0.016037779450284992 0.01928066669791586 0.007168728098986804 0.007783295032018006 0.007665234485880964 0.008185166939167089 0.0054026330089794105 0.001098949324031124 0.00744822985797411 0.0007357174074116173 0.01719518793810032 0.005814787935205701 0.0019608425825568734 0.004588683324606821 0.008967879177767332 0.00889139043090441 0.013964678702515195 0.01931147637764564 0.018754699686987952 0.01907985816553442 0.003474178587486812 0.0019142872856816255 0.014982462628802465 0.025053496742952014 0.014701079164354449 0.01288243703794208 0.011664011619032449 0.00813578841729444 0.004653254935655936 0.0008155401480376614 0.013681092671887636 0.011725564913063091 0.015550357220306725 0.014774193499289795 0.015195706861030132 0.009193109127346189 0.010146221857945618 0.014769571079698488 0.00421289722873114 0.03669879719502229 0.01245555348153988 0.01142072251597835 0.002641214638495508 0.019366959579640543
m-l 0.009722786408567613 0.014190247969684482 0.03005382066149654 0.05173957790299901 0.07782699469618262 0.00862158138568205 0.003109404110012644 0.004594046314458394 0.026984980926592184 0.00998819378209114 0.0077829475469118475 0.05079939877588384 0.015377522082449017 0.011063357010966644 0.03212629904369376 0.0061756201036829 0.02311250542309503 0.01524465916939826 0.026270985160451094 0.045507996585278536 0.02992972400039065 0.03478942619311973 0.01864383385809044 0.010091762640556385 0.009130966271089282 0.009216658181643475 0.014372981253990835 0.013148931598564418 0.01359407598371136 0.014570753450736915 0.04220966752356633 0.004746922577916831 0.017769529292328723 0.014236617380298926 0.006738873786516835 0.015396803360310981 0.01151793981811429 0.014198553540010482 0.01970276595366344 0.06050194760842643 0.007422859226429817 0.006704390608970301 0.011895805315592986 0.06107883378414008 0.022036961979428855 0.028036375014868102 0.03816541495559919 0.0111438556423545 0.016705794180265427 0.011493890505791433 0.033027417092099914 0.010660663364099385 0.00938787366847553 0.004675957773423906 0.010864474763510422 0.03607517607876767 0.011578209789777789 0.042431074041269154 0.008584724415445064 0.09806912120662492 0.028933122725396623 0.006281270062424921 0.013297234657929669 0.03366401349632104
l-m 0.005179233800122609 0.014355764465325244 0.035938498147316894 0.04725495684508277 0.07547628632347755 0.012624179666425 0.013092463399984343 0.0020637494518047266 0.026197151174206845 0.010456926063404188 0.008939980519470132 0.056957421205072634 0.014611415883876998 0.011067786601188618 0.029393609036361686 0.014187835619838246 0.02803625162683691 0.019160876003591926 0.02178530373495734 0.039045389030580226 0.028183665333565398 0.030387726082394532 0.010481931114760772 0.011146975986824958 0.019563165239132842 0.006221925001906814 0.008571632067321906 0.008916580308026431 0.0005104980383295557 0.004607600171783698 0.030410887998375095 0.014275559054818228 0.005626633896404964 0.019211909406090407 0.0075330234588983245 0.013692323397483674 0.01734766132179195 0.015960605466738848 0.02273406950144577 0.06578695824869117 0.0011838485883444289 0.00726888363961031 0.020098032481794197 0.0531845146672901 0.020971437122135023 0.024428015159031164 0.0347246595741587 0.012647292059683114 0.009534857668562418 0.005940757108839733 0.041853361913728696 0.01938107224564499 0.007741215700995042 0.00019055260511033047 0.015477529234937858 0.03512960203141135 0.014603602364298989 0.039835802246915124 0.019285918310908264 0.10253055282360735 0.022422099560422168 0.002974195603358267 0.006871940129790905 0.02580233213925455
l-l,l-l,l-l 0.014145293696003437 0.012242160305410347 0.014139076507519277 0.007718312475960663 -0.001001068765691637 0.007916193026006697 0.0026726748255719948 0.012895111449486811 0.006159019928033437 0.011780676025090041 0.007982494246215987 0.018531916987895036 0.0025219466271861266 -0.00036024718438178356 0.01171559492091216 0.0038783613791519844 0.012001045348425535 -0.0003442394938563149 0.010845947729747434 0.00717809275019724 0.008879621877658924 0.005635006555513072 0.003958168525424021 0.0037400350501874905 0.00562775861971692 0.001122614739508587 0.007843153102305675 0.013024072466467328 0.006652373986448987 -5.725082497963852e-05 0.0027306741739853905 0.010090915658847111 0.00573890647834539 0.014124158946464028 0.0029001931900317314 0.003427891276966187 0.002925724157523394 0.004200975217083389 0.0003447415478620558 0.0002555195285135983 0.008825345652082574 0.001768723059266471 0.004746649486232419 0.0008897652158089585 0.008712251923511055 0.007212075281175207 0.0013624898265277349 0.01569356603016882 0.001467678319561903 0.006333164130497099 0.0023470095381071 0.00033901746918814737 0.005476127723149529 0.012340346156744009 0.010027347006470178 0.01044919942368482 0.0029478791245498522 0.010922119303765609 0.010982004272830057 0.008962678168473239 0.0010286915815673307 0.003520876276075094 0.0009843614985605724 0.007920639420111552
l-d 0.022371029647672774 0.017981628794225258 0.04379133035150427 0.06551071266255903 0.136094673751746 0.01838613846917654 0.0053054766195443 0.009956520742932297 0.029087237677611656 0.01593094724301267 0.006434151698601011 0.09001261523206404 0.01974089456387385 0.014185143731621769 0.05846013561502546 0.01049514246518759 0.04774500535221496 0.016280866636974756 0.028097314149231396 0.06885090797872104 0.04424585804214629 0.05283795814083677 0.01767875609357559 0.027566452616903343 0.027218590448498108 0.00956733307495557 0.0035180573796544956 0.025125168591646072 0.01675110881950577 0.004824173708721078 0.04893004466079179 0.019261578231770823 0.025576889032234918 0.017439356918210597 0.002617399020755387 0.02369638818851615 0.023299469323054746 0.0300043214132169 0.016412263589602297 0.10885920299392031 0.014300123917191378 0.011323749091982915 0.021581718888353175 0.08636497935232082 0.044997585498539806 0.040974738141981104 0.049645162823502405 0.030984146136160615 0.006933519029659667 0.009903241406491757 0.04825279830038622 0.02472126961699187 0.02234442870947555 0.001001047913179285 0.03308468155213919 0.055040251160764754 0.007669993997774135 0.08417978897489639 0.03650716764343695 0.17681429401871548 0.03674725818644515 0.007785258862705558 0.0047869170451464585 0.04803268511482066
d-l 0.01407622776964914 0.01690561154355652 0.015590399093612298 0.034784550182492185 0.06040037832793736 0.0068882230717791275 0.016062547740968144 0.012280878210222997 0.0187118388916771 0.0003675312678079381 0.00906588051579606 0.03687161088029324 0.011138661847492346 0.005379485138828434 0.026350315400192944 0.004514676766242417 0.01747743792580232 0.010763664762140464 0.011098504050111686 0.028044972880101993 0.02151379175534451 0.027239696008892984 0.009380197462583818 0.017239958772203273 0.01936486613192227 0.01083109336746695 0.013245169023215892 0.0074951848714003965 0.002742962962069136 0.004486610960437738 0.031224348850509513 0.006849513156309882 0.006443827382596247 0.0063155853134658066 0.010806491362558034 0.020716318256023804 0.010337190763018813 0.015029406942782023 0.017281821546331972 0.03763942912889697 0.008757944295235612 0.002366614776937927 0.006630735344828857 0.04142048595248107 0.01772654171580433 0.014266704779142514 0.01787273485744313 0.0068652441772358375 0.003937203743108744 0.013656602582629062 0.023060533413292922 0.008268645339263251 0.009196248033604524 0.001968072613203153 0.014733846408599012 0.02342091991886592 0.0026428504944590657 0.027292634736380113 0.02252071137097125 0.066430091967644 0.015317995599289796 0.01196526220460261 0.006490356882365967 0.0249688763701835
m-m,m-m,m-m 0.01243216173466468 0.0030976748045344186 0.00676088665476662 0.015274014407559476 0.006899712038905747 0.010754738634596556 0.00195920726410996 0.0018846002871013767 0.01351918439521298 0.011863652316237119 0.00613530427848736 0.005668187586417529 0.01128961499266477 0.008529443784330834 0.005839818219100828 0.01207705268849733 0.013824106142106274 0.01335546575160104 0.002175478500253122 0.00955966380186955 0.006085242501900661 0.0038319678801197036 0.01076213038019033 0.002033452422207314 0.0022225602156924645 0.009116136564176425 0.012489349358058186 -0.00012287906590289073 0.0003175004953555147 0.009524914341428006 0.010930934571618976 0.008076019586360604 0.009378807258337294 0.010296427965037139 0.003567303031863608 0.013737963774807144 0.002831731409144498 0.0027853309090427525 0.01000445903020081 0.004940640139976384 0.006760690748880808 0.0023527067788180847 0.012139775033750955 0.010087910872832142 0.01573490352952434 0.005727657249864412 0.013413707475048215 0.009112319472791031 0.009022202828801208 0.011250429234244191 0.012188522578093525 0.0057356507278770235 0.010011799834427085 0.010956877929116562 0.0002910519613299321 0.004608694241745772 0.01364071078903322 0.004198584061820114 0.008402995567648775 0.007099210954828369 0.015314673151619261 0.015044339929341746 0.007664863746283932 0.00329188519409286
d-m 0.0034231985062986013 0.00992140226595509 0.019320794617463246 0.022242039941929914 0.030982569372002545 0.012616574624215239 0.005674755665040624 0.003380631358532105 0.008491919021085228 0.007042841324277962 0.012983361023139142 0.022896353199957472 0.010394785535881568 0.012443334301848233 0.015791093101869286 0.015017310774601889 0.014928499170446058 0.009385004969669262 0.015782781843163816 0.010896401578344475 0.014997297168702479 0.02251110876979884 0.00879704788677878 0.01815143730160489 0.007206088859468047 0.010620554469150115 0.0057402483751976515 0.01719905674948621 0.015263915310398928 0.01538261348430305 0.019103926122698064 0.012057756047794885 0.009840056623088626 0.01250312181754175 0.008881584368123589 0.013346612794431117 0.010422458673583108 0.01044869796311691 0.007368079742615042 0.02776707931541878 0.00615441380866166 0.005488123730526168 0.002537035672277982 0.01842327235495291 0.016284701967313242 0.019291926026053688 0.015275901117699433 0.007606558089219775 0.01290547421300274 0.0018926382607888147 0.014536696793778902 0.009901366854147643 0.01421078438205466 0.007939506590845382 0.015271045101124472 0.016556840412311653 0.007433507460410141 0.016332096230689118 0.008429774826054441 0.03860397719182706 0.01031128492936576 0.009628174211961498 0.01156753100442605 0.006430530891404649
l-l,l-d 0.01625323215238324 0.009083192078978664 0.024134688432392578 0.03768041904352254 0.06544004045476172 0.01321962485862588 0.014814338327323784 0.009066101603662714 0.022912356068072695 0.008450555086037558 0.002574835743012593 0.04855394819489414 0.00943432605095495 0.011965454920686276 0.04138364282717379 0.014519820243694727 0.028353763374088004 0.019704125942221404 0.02429257838609445 0.040761134439509794 0.027342456946897794 0.02057371225103851 0.010852724725032114 0.02285808935963918 0.013038749080431209 0.011801358859117223 0.00813359375848813 0.016072129641392676 0.011337949688908893 0.005692062993624427 0.021827918454460655 0.006410027510641825 0.006487154347357219 0.0198707892379114 0.001927542136618504 0.02306243948544545 0.008779160633112532 0.013560347823495546 0.010454226561965757 0.0652027322669621 0.01054707766431657 0.0049367028611730845 0.020276519360490537 0.050290025001050676 0.02704422228339101 0.029837872311664723 0.022755680509520797 0.017077262490049823 0.01614765539664403 0.008869847391928537 0.03980388028541586 0.022057800881242637 0.004540584761561117 0.014594554693352505 0.022372062744528166 0.027695010430229528 0.008204602284615831 0.04222967862852428 0.02044528917979296 0.09746751378477353 0.021818501090512636 0.009627062546205378 0.0019345484553413986 0.03347700519702051
m-d 0.016400130341721084 0.007805765600733837 0.030613136217219394 0.03922658387905229 0.06444583106510653 0.012317586721225175 0.004447413700609996 0.006482526997680248 0.017958941429289135 0.014479287563354377 0.012452438706838325 0.0413225559912086 0.012085416187243632 0.005566646992787446 0.025273567262042537 0.0019705329482779164 0.020562841752718813 0.01965020200759324 0.014557389456001118 0.03466134976418837 0.02164942790567783 0.01948727294700961 0.013435035087775426 0.016321875569389726 0.013248383453111811 0.015210426805707729 0.011447199976261235 0.01989449575770683 0.014780802305022121 0.01602306971857077 0.02355752692486697 0.004801694214413911 0.007807998802641534 0.014540760263412377 0.0013881790820322432 0.010245818735508866 0.017060633537834366 0.017115518643715008 0.013014734752067226 0.04704506877886411 0.013014380106120837 0.007973241358120765 0.013866689822305866 0.04445323951207418 0.01946987829402165 0.019366172302806076 0.024415958514460705 0.01129091800557373 0.011944418607529364 0.0030237552284966486 0.0246684828838471 0.0153665642653731 0.012825050375563272 0.0032242082892037574 0.021923657457558435 0.019975933864837522 0.013600871222717992 0.027834168706135514 0.01060499050718993 0.07424064414633876 0.026809896835155365 0.003279192542383881 0.016373000140382614 0.023318960899861105
l-l,l-l,l-l,l-l 0.011279284140027311 0.014543006798534328 0.004093056250007242 0.003462138117921641 -0.006127549908571627 0.003448824458388546 0.0008945285876627213 0.006575925188448872 0.0020239577826751385 0.001936437321373096 0.01118747973278585 0.001830413624093137 0.012076499436274351 0.005720600798230975 0.008449360650178393 0.0150380451601738 0.0009858946628290006 -0.001130219402469858 0.0039417703887112045 -0.0017662151634714354 0.012705747643835882 0.003937355616071113 0.01275219946847377 0.008730421328967685 0.006810820063077249 0.005121261479422495 0.0009458200729211883 0.0034232863972391532 0.0010014359461486733 0.013774123365678672 0.006935624893941976 0.004664871255655039 0.006968674515673749 0.003885691606771056 0.01470666485664217 0.004089635495998373 0.013599682205469938 0.005241053354552245 0.008042919254252191 0.004947542709813694 0.008974728277283201 0.007212819928172022 0.006521385814498462 0.006432402113398382 -0.0017088816217481343 0.006919166327048341 -0.004700315637766937 0.0011822284055047138 0.0019500556762956547 0.0024653579074703108 -0.0016822860151861781 0.013032925156169852 0.012293560475481902 0.012862914758626736 0.005912902087799616 -0.002522956745112506 0.0011893334188874717 0.0023070928604131758 0.011411396694718962 0.0007825328048990415 0.009500255629678891 0.0020102111889871515 0.0027110284758643344 0.006496149394197539
m-m,m-l 0.004229835622745895 0.013096230319939435 0.02108035793445431 0.025796305158238223 0.02415006027756499 0.008406728812255886 0.0057874384465777425 0.010775862038813401 0.013758779421214716 0.0034909833155461725 0.008978418128236094 0.018479159296330004 0.01813648955866719 0.003392668599418478 0.015601382728509824 0.0001933738131710156 0.020619283805163202 0.011890529466168082 0.015927736900003753 0.019802714826812857 0.00889444675473811 0.018879223250951264 0.004686083329795016 0.01769574742756155 0.007087069394923454 0.0025572909748729747 0.01295840068921194 0.0015807076077749573 0.009907656298996865 0.013959327764841831 0.019082552836034942 0.014664123865498242 0.016726160326161768 0.00960439845679321 0.009436389784819125 0.013025348397717683 0.0056106258923707564 0.006076595283785343 0.006894720039284038 0.027609674718148434 0.0004959254989277355 0.0013676696642286746 0.01712073982992676 0.016076819883930886 0.00997676149336837 0.007755211899709535 0.02293947268361714 0.014932469281881631 0.013476765766615738 0.014972238344848489 0.023379802378524245 0.0053987276114959215 0.017299573480958348 0.00029359858224964775 0.016548533487029986 0.016056279485065158 0.014988608045228642 0.020850552718012887 0.01251439118374075 0.040235638777283644 0.016190678802168245 0.015610873602264895 0.005074723301814762 0.010592565344343817
l-d,d-l 0.008142552535285159 0.01508261860666943 0.01836929813295648 0.03158900195692682 0.03607998105537725 0.014790507866304885 0.0025673826858206242 0.011199235869712417 0.012228999193436967 0.0013155831998507457 0.015202922785864721 0.034755476472571684 0.0135889391544256 0.01507973393808462 0.02491412521671289 0.010435848280865462 0.020392177056197405 0.014257203743830445 0.018124320321548457 0.024917667709181558 0.014631270373116963 0.01141531411866414 0.0119538899732994 0.017818842862951344 0.015346496544879658 0.006575856521698934 0.003267629153201019 0.01672266827063812 0.015455499962525635 0.0018321905135601467 0.027543447789251527 0.012714328380115296 0.003690941252530932 0.003803584226367803 0.008964350326930845 0.016054111320390446 0.015061226376049034 0.010260220262561959 0.015937797658700438 0.02854585487429884 0.0030925917685647075 0.003922499477849948 0.007827350653675822 0.031649736481117845 0.013056453918931982 0.022880395083428894 0.023526761426241414 0.012600678085705188 0.01670946670134365 0.004056455030800469 0.017223250408232596 0.018660139323442487 0.009623763336596487 0.011697493180405985 0.013222136172452699 0.02018148769529044 0.0054618260966296526 0.029892491342440864 0.01513649255209406 0.06154398467915335 0.02071321266559335 0.0006865560142744 0.015627197603120598 0.01168185050389885
l-m,m-m 0.013021293791102503 0.016420314389286036 0.03260221030130202 0.03282719831218017 0.06337897112366586 0.014925209745523289 0.006354178162030304 0.009453044882225651 0.020438460144373637 0.008593448237726386 0.0009845490263972443 0.03567943324725266 0.01934017908826937 0.01060903839782388 0.019912834172770122 0.008860664278912453 0.014657995625590852 0.01404053013806995 0.02171622230171937 0.03699235778368208 0.022668356281531868 0.02718565459741538 0.005394771551594754 0.014592279728003728 0.016513601463266546 0.0054716544032997515 0.0032628630702911513 0.01915992508161585 0.013476143209024564 0.009838611286105038 0.030362813559552056 0.002513110853752158 0.007752588386109775 0.010655425366755854 0.0016537591981377405 0.02052688289716938 0.009702122424786748 0.019097015861614414 0.018202724374349194 0.047282408159174845 0.005090982077964765 0.004021132794394364 0.011691013991515233 0.044675399884536934 0.018951637803734656 0.019831326774642236 0.025057341394819504 0.01923377991225347 0.009508708907806813 0.00633629136429059 0.029720325826064112 0.017829850242924068 0.008738676306383466 0.0005245241072991561 0.019995970605483398 0.028684776701888345 0.005581897164410772 0.02499565789368955 0.02055222938668869 0.06713371897753768 0.020912690373280685 0.015143529630106284 0.012299553003241953 0.019425787109279568
d-l,l-l 0.01915216636365352 0.0031464254778585856 0.02236876508398206 0.036907603092598364 0.057517211444764134 0.0024468872670123285 0.0172300010405991 0.010326596197337553 0.015026551458186254 0.0008131652170604117 0.002266498380314454 0.044834255713294906 0.011751851070458954 0.01595130008976948 0.02860722835118266 0.0144395522904775 0.0148678163880841 0.013983995588535806 0.012513455825390254 0.026649479819841462 0.020151293647056628 0.025373291734521332 0.013564752389854154 0.019907763352737078 0.012784753862919565 0.006058627949114602 0.0018254015124580184 0.02202531753710297 0.007788197792077963 0.009502217475336847 0.02038265123768994 0.011418217988555086 0.007445870483226756 0.00664819823460948 0.0003991916285520204 0.019231392096656433 0.01570810996596176 0.014206456473969746 0.01466262071435803 0.04940195450204256 0.009524363886215739 0.009890272238263333 0.012512921995376887 0.0417144512488579 0.02766133640059748 0.020971875834237125 0.025380049852782624 0.021522310772181356 0.004036968558638676 0.007783272508351454 0.03406971145775283 0.017130115806629344 0.008163219645698246 0.01249782866652974 0.014889923754860855 0.030800285578252793 0.012068583577925054 0.045743338651268214 0.022184704514121353 0.08569935734173531 0.022192149675522205 0.007157272235534886 0.011226908815740557 0.02535353695161663
m-l,l-m 0.003414437572918909 0.00233209694624576 0.01349642989003969 0.016885547617421934 0.03679178131885199 0.011486074944911655 0.013920191375294252 0.014151327612913916 0.008979945737936656 0.0019265004843236249 0.007598734740005065 0.02497186591363204 0.017857145503028613 0.006062502099755481 0.00970021519206734 0.004007236473593482 0.018209333341097988 0.016273707319905333 0.007264268838426742 0.026209331280149226 0.014352125754954929 0.008930024384715175 0.013741994923685193 0.016983853595773157 0.010373550300024294 0.0038475628571722426 0.013571043200723158 0.016664074145781485 0.010700752459038928 0.00447635837361297 0.015360274003894355 0.004696443439539105 0.01567552734230859 0.01523960631689131 0.001787608856468814 0.010514645416426894 0.005454488015302224 0.013839585365890335 0.014164485788492652 0.03151495255578302 0.01490166607366888 0.007308007320439337 0.017996321982327427 0.024828277781463837 0.007670514347678732 0.016409169354935995 0.019864779315878576 0.008266936708006899 0.006106170055116158 0.0053342058651663195 0.022757479545694164 0.014787324629712691 0.006946086201815166 0.008028818726465768 0.011104436963233415 0.019374786151152925 0.008528613795256677 0.01799023573928456 0.014608257295458012 0.03628341665568502 0.01447972099523686 0.006623275604181804 0.00962758562581267 0.01808541198835728
l-l,l-l,l-d 0.004266628091286564 0.002427447662237672 0.015221977833749494 0.014594365547726513 0.03073402657829898 0.01555371091514959 0.010643475582926776 0.00579262055719853 0.005549646271349809 0.00242453093753832 0.002009218995150736 0.023877218259813055 0.01624665778814488 0.004073380501294142 0.016921243554995136 0.01315172213131076 0.018227547873787307 0.010046899802261984 0.015357878695185559 0.026285779716808493 0.019897764202003163 0.021911286555834762 0.012312025053533892 0.011398772533410107 0.009585466271718367 0.01205009509168464 0.0008697870455625761 0.012491411244083511 0.0028472590649956187 0.010708478580133811 0.011388601947101054 0.013434536997111807 0.013803689135187628 0.00771407255460389 0.007882478902777837 0.011101365119134716 0.006691034539188058 0.01383876958159848 0.004289238487398328 0.02882713615641923 0.001976595316437755 0.0024690515372065088 0.008078975196020884 0.01885621595342623 0.017457482756489985 0.02207191246568495 0.012743703470583446 0.009834613340852776 0.009430335358550238 0.01118515347095798 0.0168527036859552 0.009976474242894832 0.01702992171353233 0.00611908623694309 0.020288792843486204 0.014063169116460893 0.016193223084845446 0.023314367571684914 0.01524674920492918 0.03978480388508079 0.017393848699081997 0.0019056630301853188 0.0021355197130293853 0.009799803975737775
d-d 0.007576486718896926 0.0125683941004545 -0.0012645869558566129 0.00012656751412213504 -0.001859779950186474 0.004734360856350221 0.0058498273579797285 0.0023770134506367973 0.006816702860373916 0.010704366518095903 0.01346877227040035 0.0033911258610286456 -0.0015006030970261637 0.0005270705868470746 0.006709220579494792 0.01268817315265944 0.010711493163241286 0.012243798708250878 0.01189887909882243 0.0034211005454257916 0.001372850680786604 0.0031182776695652774 0.011234440152936101 0.0035979038346956415 0.003814440046584954 0.0008792359297532871 0.001036039280845924 0.005152259015736712 0.0007719831364677137 0.013170722578628169 0.0013193522622474867 0.01110066782751822 0.0025465570959693033 -0.0015263583874551782 0.005771446072515747 0.008534699460493565 0.0008163605693793074 0.002981205667777294 0.0016947956809294992 0.0021388130181874865 0.000363408278250274 0.01113444015396588 0.010924035119640983 -0.0005769215896394573 0.004115281428677382 0.00099282485691985 0.0020078709916672996 -0.0001444182938305993 -0.00044541716842224174 0.01316662519409701 -0.005358204113681439 0.0010509428766031208 0.013109103366013078 0.008606888883535313 0.008805569761062122 -0.006162550627466598 0.0022077269458477596 -0.004525828738909308 0.009031068382087835 -0.014762799304766698 -0.003643478117590149 8.129129643163035e-05 0.012496688124924573 -0.003554890335176167
l-l,l-d,d-l 0.016246743158892622 0.015560479724444102 0.005546783532433364 0.020870113062471492 0.028211306507964377 0.004902629263960934 0.004650650647703943 0.015130109517475515 0.005673290251093678 0.01492269275520744 0.003675258318467137 0.02047309922456065 0.01114158132557174 0.010198797525233604 0.009197792080157745 0.0007296665813793803 0.01230064495958738 0.011205075674537001 0.01213876703222359 0.01783250948473389 0.019182610077285715 0.01633980623688074 0.013637428614102772 0.01232946712818637 0.01399810355091943 0.003671973582298896 0.012483866917680279 0.010652031877291399 0.013982730271308997 0.005599589279428216 0.013727024328199371 0.011490383671292724 0.0024101066181333947 0.01086434154253727 0.0020504741038037937 0.009355053525441862 0.010064299293562838 0.014064472602585538 0.0016672126274133862 0.02253058538125611 0.010341255012491404 0.004267015533596555 0.006099488809882493 0.024312006191946966 0.015759167968381782 0.011420403496212445 0.015160791678228463 0.008158450669409215 0.005732922426565888 0.011211578965713245 0.006485483217806431 0.00812731698376943 0.0012000069287588064 0.010297883569893177 0.006112852218577216 0.016069071221078198 0.010709727546309132 0.017966349038911505 0.016601841089624165 0.03628034981375084 0.015049106868955511 0.012624140044999 0.012898253235413881 0.011398565210152601
d-m,m-m 0.013878519936955146 0.0008647540047887088 0.015011348743848461 0.025282646949499846 0.029980753831036273 0.0061370916841918186 0.005369043580164834 0.006353884014771767 0.007845150578611145 0.004783105753481355 0.0005945476364437201 0.022579254647643744 0.008747122898364863 0.00472740612692828 0.017130003724408586 0.010106024747052673 0.01297214602724703 0.01669495021790648 0.015835871846779717 0.01843124837236857 0.009262477546076989 0.012507785773195858 0.005532143345614035 0.013886182467167201 0.0016624350349924578 0.0083997097737274 0.0049737010562016 0.01593493607188301 0.008950507943963779 0.01209136289095221 0.020460779822217584 0.0010861694329836382 0.016414447736511767 0.013392711293839392 0.010433842923607634 0.004381089200068028 0.016370570838193137 0.005229256630438545 0.01459256594954285 0.030119544638230557 0.0039562430700297736 0.001633518889481469 0.0037488856204734244 0.023236160486969446 0.017093052463277907 0.014392666597170216 0.022682017726440542 0.013651116694488128 0.015518657122805197 0.0023288450836859396 0.022782403825050306 0.005693747098322279 0.004684827747346927 0.014178591647508907 0.01801933152439234 0.01831353223074906 0.0038483143358079264 0.019987224791007424 0.0040137240343206945 0.0378659135528809 0.010606712940182454 0.00406502953498843 0.006547337491282494 0.019551343257122076
m-m,m-d 0.009333362765409496 0.0031082232828214614 0.012700549660885345 0.015115320493830785 0.03560823492983345 0.004534185425321026 0.01377405685164824 0.009229457161637677 0.014529942532476834 0.0006776971986964914 0.015166779415280971 0.021682316150641683 0.018601974894804044 0.013087970251225737 0.0123110730649477 0.0014114675501975666 0.020891814182069916 0.015501923518255837 0.017141577402828446 0.017130750395160845 0.01143097808363733 0.017337567158145974 0.010470848423504958 0.01876203241597151 0.0018307904807261018 0.0020536270040177372 0.00856261096130683 0.016537581632236165 0.015130316167606758 0.008598744418838723 0.02470831966264522 0.007106917622489731 0.00529178409478864 0.0039274142027606335 0.010325259767394982 0.014811724852474947 0.014927085203109775 0.017361698049701876 0.012456325928926476 0.031324166446223906 0.004579744383889144 0.013705152377464433 0.01305578553998224 0.03133846671974515 0.00966854197390905 0.011016635510065636 0.015927409469150385 0.009380865315747963 0.012461702397846918 0.004528693080987594 0.013980161723003917 0.006319820625174638 0.0055620112412854755 0.008755195685002172 0.006362142537312094 0.011466364710311412 0.002426416617937809 0.02294964371319169 0.005630436707713387 0.03439990285947261 0.009527466721415438 0.014174449778052845 0.006613916054135517 0.012867581276446681
m-l,l-l 0.0013533830998535953 0.003910119353218888 0.00823185796442865 0.01635874622309443 0.021676496272982626 0.013226791741687895 0.001484789498018453 0.012113370591975172 0.005518943702884761 0.015095516938639933 5.2969557892587854e-05 0.02171843186921828 0.01719643684975452 0.01548014049839898 0.01879583255443745 0.013591971659098116 0.01744761937498926 0.00709408916986305 0.014597064739251165 0.02114752264696713 0.010623931344094478 0.013329010963723931 0.0013734420459532927 0.00824752889515642 0.0053324319354117 0.014032570092563411 0.011673021394906002 0.01211261471857205 0.01431813112522005 0.01474596827045065 0.008186134143381627 0.0051707263585632005 0.0129255533067988 0.009475409302450206 0.0022643854342908575 0.015065909800305165 0.013660242234353642 0.004157023284791127 0.0026778805258407413 0.025942156704305365 9.329243429249255e-05 0.003749123084551931 0.016510974687261547 0.01950899146020054 0.015121025301964266 0.008764890739448724 0.009052896429563992 0.013097785772840593 0.007931315899077567 0.0005848338111647376 0.018300957882880903 0.012626487036276593 0.008249285021502803 0.011785680981188977 0.016203415567726517 0.007366002487553298 0.015281030486257622 0.0208681590905389 0.005281945407935334 0.027003686234523847 0.0072079393441978005 0.006510556611348148 0.013130877669909084 0.008494075954525974
l-d,d-l,l-l 0.0076626821928961735 0.01464954335120352 0.020119449942875737 0.021092969766440463 0.03920276909501104 0.016073765290774658 0.003780098643414139 0.0063994409045824915 0.012722234956390346 0.012449727605332386 0.01141708822269789 0.027020037188146336 0.013345326691134762 0.012584362646920625 0.024516900648618473 0.010433582851357833 0.014227361638243941 0.004592250234601979 0.0071707114451055485 0.025578971470975438 0.018269395026480267 0.013845636858627214 0.0030762127192956765 0.01568424144815795 0.005463120131266672 0.011480312558729543 0.01452087448327069 0.015741522249209113 0.002636997810343726 0.007461538642583587 0.013534541878457212 0.014288880684542704 0.0031974171083166574 0.0063321322111884815 0.002712231479503591 0.014037839897744975 0.018305534770909217 0.0053988612302281885 0.01099179225971361 0.02732881755901733 0.009342304016641781 0.012118388891455126 0.011634632558181307 0.032443590727385424 0.022012815044987852 0.011486788918059154 0.02445303085846103 0.00918856386416059 0.0033341938915620807 0.00966917449944404 0.012488805580164818 0.013220857449832969 0.002497377217583356 0.003588109147650503 0.01649967493659282 0.020093775375192826 0.0069182456612515535 0.021385828511585474 0.015146154542547184 0.0524198930832502 0.02010161536278177 0.0061718208153676 0.012763403895508793 0.00969393661918777
d-l,l-l,l-l 0.010576692631922765 0.006717058213676381 0.019875921794364274 0.03105187211119449 0.06277374686166615 0.003827541602577194 0.010448912603560366 0.0031192277744286827 0.015169990362818509 0.0050371207265217125 0.011582708108476086 0.03522549920939446 0.017473802768648575 0.007225122081754972 0.026601349792102404 0.008015959334835811 0.023273169849530092 0.010898544859904791 0.01957157529929554 0.023046469713936802 0.026286607676192127 0.022653379492216106 0.0072854580342240054 0.013227195488062015 0.009320447328443848 0.006942750938506489 0.004985160161695045 0.01366258653385499 0.0007829247760975383 0.01540571716809106 0.02197967595038969 0.0015964201249695476 0.008756687469596507 0.010989922227902522 0.01313935733956641 0.008663457921298585 0.018810018369197802 0.011482673836033006 0.013450244184253352 0.04944179602402562 0.007213276944539427 0.0095455467255819 0.0074900221088783315 0.039743982143877865 0.01450149247475435 0.012844681143944514 0.02271536940392887 0.008848529697509195 0.008970946670277804 0.002031834247828367 0.0341209060180429 0.016768586914534065 0.006200879277385597 0.01147728430542746 0.01572134789868256 0.030449563976946977 0.01031636127754422 0.029517118164692806 0.013869566654043904 0.06537789861699052 0.018768318310091688 0.0014540099667421055 0.00919032503671995 0.0181503427265299
l-m,m-m,m-m 0.007177332801170648 0.0015957643264055384 0.02184202378030561 0.029073406542186844 0.04224902519113534 0.01064120796374574 0.0018809779308346678 0.011087573949865866 0.007659188195751863 0.011296879686316758 0.00018324440550435833 0.029448538492995828 0.008649600839667516 0.006138287819784145 0.020188847634930247 0.006912762180394275 0.023458694234783476 0.015004286400534556 0.0193768977559646 0.021906161078248047 0.024049325354589583 0.019731639045441444 0.010468699990075648 0.00645753758813726 0.008728292658387465 0.012077701281065369 0.009433340134838927 0.010221940295758897 0.005207552390905083 0.004899753192512384 0.019461023477532972 0.0011401840809172733 0.010121663095891171 0.01615657054575963 0.013675834846150566 0.014792916887016162 0.008268545896696722 0.01805644828794133 0.005676345516570333 0.041442342610544955 0.01415232170362201 0.006823016201098398 0.009908639644162755 0.03566942621514973 0.012621639352171449 0.021331325454876572 0.023737254386196522 0.016542872677007277 0.007064357217627931 0.006984677389524692 0.01698204119366659 0.01792399517845661 0.009175714955054195 0.008297155320594756 0.006521477097996523 0.0236338794701966 0.011246602848515107 0.028472742873679867 0.015455015022464347 0.05337764304286978 0.02290421148947352 0.004523150245089321 0.0032529290849664144 0.016135019230261054
m-m,m-m,m-m,m-m 0.01169055767787006 0.015319100548167252 0.005412606879518454 0.008754998692957441 0.01385134224439985 0.010855987271151658 0.0012468633450120222 0.007559306583979276 0.001785601525426864 0.000748561415232432 0.00869011529431304 0.010202444631702935 0.006526558053482883 0.014242295676450358 0.014629472431731579 0.010707287648296314 0.008569596520009447 0.012679816704262766 0.011640627982106489 0.007143803648109088 0.0007370056803597927 0.0011786455904145734 0.0013135568168588087 0.0029225885916357697 0.009422253749923271 0.010378073247239973 0.014513566249477495 0.005680541334663284 0.01513551200180841 0.002228101223597332 0.003993521750068506 0.0019581137092354395 0.0008843894574708212 0.002595531208373732 0.009663233639411847 0.007822865962279687 0.012703735793241985 0.003685170725097051 0.009257565535446419 0.008538654302779764 0.013199245697473357 0.0033897706992283092 0.009865566280819802 0.008577103859879122 0.007985660358880922 0.0004996068141398092 0.009281214016767488 0.00425949971850086 0.0015435342113516725 0.01488503111398543 0.0002517241338917467 0.007935380752932014 0.00041656687071138667 0.009681708460030317 0.01014322475358461 0.006030308455416701 0.003004105826585125 0.008463487211005124 0.004081165343418221 0.004888627238844469 0.01114924531134264 0.0019904029635526826 0.0030769465042768977 0.00527640353284865
l-l,l-l,l-l,l-d 0.011405213074566696 0.015962743898187852 0.0017938388156437163 0.0025460227777505057 0.010333416529142027 0.001964147604041436 0.009216267324760398 0.006184701789146856 0.00953686326590946 0.007946325143244141 0.006462893071446887 0.0053287223470573596 0.014521671654330184 0.014275473415097306 0.0044136438934772315 0.012541595440270724 0.013412422431517588 0.0009183899728539948 0.01425681436179695 0.005108559700775722 0.015737723830469046 0.007917819079882059 0.0017352069813577526 0.009152636399814083 0.013492324045996233 0.014859486913458267 0.010330493222041737 0.009945698870413602 0.013658735582143505 0.01252388872333581 0.003425289096830571 0.0009567859420259071 0.009653537540344993 0.006281658480789275 0.005972695945685085 0.004148115031996713 0.01020391195262735 0.008643705220705436 0.003045563833721601 0.011929027141761618 0.013076801868127565 0.0058285266479755965 0.007635992835739086 0.0033938893419102525 0.011836937605285015 0.003366448068282427 0.011431718797023663 0.006060796492449169 0.0006066585817698618 0.013232331629247127 0.013306265452679029 0.00297874873435104 0.015420239544529622 0.008569653467876555 0.015071395502836867 0.006422624778574558 0.00439491639307565 0.008295099157323519 0.004248323399913527 0.015127685197827732 0.0008805021322911854 0.00548263801697739 0.0015840841659693595 0.008807197946848982
l-m,m-l 0.0039152428570947626 0.013431727544919668 0.019588138652515782 0.030916947408459985 0.032649946517581165 0.007267286016126431 0.01254930139739826 0.0014850679290444799 0.011102049898153247 0.0012695261154541115 0.015155663383528563 0.03256998975178715 0.008197953814140782 0.005474531854982453 0.015295205448469214 0.0020456647439950583 0.019412291932626086 0.015892939450886424 0.007953332436067663 0.027660139653377356 0.01750035263776871 0.01690713763785762 0.0152287750226078 0.006307518804516029 0.0038622462199727954 0.011375865216883975 0.004095893875607072 0.013138126920572712 0.004561883263152785 0.006478920473808572 0.01967292907597686 0.006995364869685854 0.016278282184801682 0.015154765829168896 0.014582816693793325 0.0057315153987447225 0.012353872058215929 0.01270378980127178 0.0076803705323012445 0.03522857044381137 0.004402237014694606 0.01356422136423222 0.011481025071861821 0.036360406797183636 0.02377355351987202 0.009923320645352403 0.0138175083356687 0.011951398347504076 0.0037603354996574153 0.007442739055869321 0.015777646096648876 0.006150596289310552 0.007460587744082407 0.0008687115596131544 0.005411788464866444 0.021706083282875165 0.00911987118475994 0.020425644906110773 0.009545990704413511 0.05529174214724941 0.014575332669808042 0.015346466147796957 0.0036087608077035333 0.013500098442441624
m-m,m-m,m-l 0.007869290665671245 0.005992100713272008 0.014760127089842446 0.01146602526474695 0.012155631148351193 0.01600312262758172 0.0034152409536366843 0.00026304513852479976 0.004589063618613547 0.00420209813182384 0.009683704456970931 0.013083725800788495 0.010496375375818877 0.007325074798207798 0.01587858868885881 0.008321813855322845 0.011013041447136579 0.002525915140319184 0.006277834653743978 0.01726541681568016 0.00481984251706273 0.0028987044403860226 0.009108135703385147 0.012226290182327015 0.014672746023017911 0.007738655635291128 0.010074394335754263 0.008893331704678565 0.00606570383847685 0.011577956598945121 0.01581531772077554 0.009489649388835543 0.012964007022682968 0.009846933018968794 0.008405961475628543 0.013813683860258927 0.009969690349593992 0.012343382644091997 0.016061844836484696 0.017234718303230038 0.011228080978076243 0.005833910143861355 0.0012051588505118578 0.015051791770685765 0.014650416863187151 0.015350583600792925 0.01138320297482454 0.009082025895780997 0.007497392318083461 0.00445566976041351 0.014489435516413185 0.0024891999206974784 0.008201370627961784 0.01232000558116147 0.008812321725509536 0.017657262350384603 0.006886770142825544 0.014109383405205348 0.007039480062062947 0.011080433508854515 0.008793527624320775 0.00825903909931798 0.01014641207693712 0.005697374491749404
m-d,d-m 0.010441818226673965 0.005132853195923761 0.015174242598707203 0.014332125145656892 0.03007689964152241 0.002901697591128955 0.008533696152616937 0.008211137701407576 0.005241379250630614 0.0019193109832832975 0.00046248722016297295 0.0120301662071224 0.006549282441492652 0.0027289135930828588 0.019935463537095834 0.007015836598163076 0.008761502960732083 0.0033675303544854107 0.008514506427075864 0.011382396304479141 0.014627517126752245 0.015195805259627944 0.002445847156784973 0.0173568467093745 0.006902113298612427 0.008640361240882284 0.015127423022961667 0.002195867469488943 0.0016927532546166333 0.009653343927489072 0.007384950955420447 0.010853900687201365 0.015100619555570204 0.004400688234210621 0.012346605399531689 0.012319011348616462 0.010933267928006828 0.008336441809481673 0.009022590717153165 0.02335125544890194 0.012462744929512135 0.015148863390277215 0.002626030658973447 0.026791119515309176 0.007173150816537787 0.006594591750018944 0.014001451741385704 0.003193028748830233 0.012930308746572302 0.013100843240677952 0.009199032978927248 0.016130382489821876 0.0018092322806092943 0.0001926677472575653 0.005481438645658359 0.02129127678215831 0.011221647883178674 0.009585329833084879 0.005073056244486139 0.027619425259097472 0.006449737394389142 0.003939570169958867 0.0016216914326054697 0.01406375113469832
l-l,l-l,l-l,l-l,l-l 0.009069927656177904 0.008460433874441427 -0.0029568512201673123 0.0008846681317820111 -0.013288664817125007 0.01465447659446737 0.010529217283722109 0.010618751903080563 0.0067295654315810945 0.014015030599587423 0.0024484864578228674 0.0031693733089735807 0.003578816968685798 0.0004454322695699468 0.009689579763158094 0.004302571379162786 0.010293000438621707 0.0038842408684765686 0.007331589426466541 -0.003454247082829202 -0.0009028623975109192 0.009119831217348781 0.005576860484078968 0.009219715500825848 0.005504130329282599 0.013061501697327555 0.014066657607901913 0.010232842797474707 0.01389192012740666 0.00926271742100545 -0.004029225503903637 0.0038926620138161295 0.009693603912929817 0.009485437873652296 0.001173913143690601 0.003053121012105778 0.004749734912268416 0.007334582771241127 0.003110986886314157 0.003963023329392441 0.012937208343521783 0.015389065746758806 0.0062993378903849215 -0.004971807011890093 0.002280928384528672 0.011084183327935305 -0.0045758067493387984 0.007217997443366956 0.012257888520084912 0.0021612805663983677 0.009195612808554928 -4.377568382239284e-05 0.0067826600400375595 0.004155873306093008 0.009131720634941451 0.0022084666858222766 0.006446007252295581 0.007136539197521063 0.008046156590322534 -0.0022454683140048486 0.005889095815291956 0.006387691048363587 0.002430016225484102 5.968274211849536e-05
l-l,l-l,l-d,d-l 0.013762026875907149 0.0004518183575030211 0.006070733582533087 0.016345103178834117 0.009358916176334869 0.005098563115771886 0.00826905312391299 0.01507914450090356 0.011866819847224893 0.003499298746843159 0.01209936677377299 0.01510139693909291 0.0056991636164750205 0.01261919470933333 0.00866258677246706 0.004831790162195989 0.00460247183452708 0.012492564388337273 0.009428756477816769 0.008323898710339478 0.01503219763616294 0.004031147011889975 0.004637315938512678 0.0008545327265454138 0.0025019556923221 0.013159146659323573 0.003753266234285478 0.0023458231747049943 0.007448953247475499 0.0032989151798974562 0.012730946229011829 0.0009941138508998803 0.010225241069625442 0.005750621833320166 0.01128244592149239 0.005020516898443626 0.005437911115977373 0.01325410146764354 0.00929189030220075 0.015228436491262588 0.01102239192775039 0.013422140720555729 0.014337873060079734 0.014118270241104833 0.010948279550670568 0.017139272316024152 0.011738035100751961 0.009266060005719156 0.007205954009789654 0.012302308288821338 0.0026874024932429384 0.011031389639848248 0.011543233903970699 0.013989049324854647 0.0021368538714130756 0.01669846606571191 0.004452107363862834 0.008059894063666004 0.013054721162160679 0.010447713233948799 0.016269072913711873 0.002350114340976704 0.0007722982759878716 0.010644188119859337
l-l,l-m 0.005074788726008303 0.007490500132637974 0.004441002701685982 0.013053154618812275 0.008718010800066893 0.0014940279606323406 0.007663222135529374 0.0010052585929583647 0.007385289459292817 0.008950988130236572 0.004894957486219188 0.010680317915465755 0.007763136293203477 0.011399298044110807 0.004021066773616266 0.010901252110087831 0.014263826463233334 0.0051574233843207475 0.003138569796235001 0.013145786961929976 0.011003908353221976 0.015799553140047305 0.0030586510188852674 0.004849582736712737 0.00040777261910029657 0.0010998370030948308 0.002697421724565931 0.0010284152443112641 0.01529627278137037 0.0005008304716975353 0.0035907127230624903 0.0013857940438210883 0.012198919941779268 0.012600886819783719 0.014544870920986731 0.011232787466531535 0.011788233500812501 0.01280571581725332 0.014677074012954067 0.008680296337976576 0.009799126409598347 0.002744685036062426 0.003551412192663032 0.00504389594255181 0.0029400906993958314 0.014875722390317602 0.01284342466876482 0.006912626573312009 0.007528568604645834 0.0035757156485223575 0.0027580976670914556 0.0006338414513024697 0.015316693227711422 0.0086722460072429 0.0018668374848938448 0.017096305218687057 0.011512379391043777 0.015670363284558963 0.004659956475687287 0.017890117592570004 0.01288100174203455 0.011749313214922173 0.012360909990218437 0.0010696670861688878
m-l,l-m,m-m 0.0035852733856130263 0.004108100160676088 0.00986026560766403 0.016984593282261304 0.025516372634319114 0.013983974078237302 0.01572403301562729 0.014329374925608264 0.011788983454092754 0.013444121662950413 0.0009125387256531858 0.013496753632742461 0.0076904555660398215 0.007931224634024186 0.01846979738926657 0.00428767638081637 0.01195053072591663 0.009259194132772553 0.01407884767225085 0.022649122805208834 0.010901123319272869 0.007413017878584141 0.006961224002195938 0.010327814533275284 0.0038471954889000605 0.01558290732699303 0.006792093381612611 0.01526932481309133 0.013237166127476437 0.0006059577832784177 0.008506048094420033 0.006126269014585008 0.014661752968600922 0.01715787688776302 0.01093983413135006 0.01262859509288196 0.01621661014051669 0.011383935928147963 0.010923337239181633 0.013163641202818793 0.013429936927846511 0.011630128269697431 0.013057858567979424 0.023073021056831493 0.013938097715712814 0.01173380878783893 0.009824125240621972 0.006001631641273747 0.013739514062889136 0.01274264792399016 0.01687489368641601 0.013884866493148665 0.011420501824719605 0.010991505809581043 0.0056063779804298155 0.010743262861952999 0.013948678206001205 0.008951177277840441 0.00346739740838898 0.028542745455286202 0.008343771652387472 0.002633581870356464 0.003209222223741132 0.005311894061405211
m-m,m-l,l-m 0.010750774464936193 0.006519489266575862 0.013191269333156518 0.00587251446464353 0.019535597043018115 0.006760037032473674 0.014077468044031337 0.004857597424397037 0.005793495122817235 0.014807845707994396 0.000848695327263085 0.013391214207311588 0.014319131639132801 0.015040934621435955 0.009857092546582118 0.009307637449269456 0.010098115709445897 0.002724490628539593 0.0024441124259633297 0.008107075045238093 0.004100543909266063 0.005630067188635957 0.005566336452145298 0.0033626298702211254 0.0010593082423523976 0.0015365111987062459 0.0077788806526797065 0.012643966638436897 0.003940153187939955 0.008569152107428594 0.00691632351004147 0.015092654016695715 0.0034046428306955773 0.011891750065463556 0.00034430798902322705 0.01484141246223235 0.016043353272821022 0.010923657525200518 0.0077644577295740164 0.007629580978962861 0.010429781905673138 0.013495994286019154 0.006984019445516419 0.02080761833074248 0.01020451641281889 0.010102491416449073 0.012468774357677771 0.010018150801804333 0.0010846323290342288 0.006988600763780963 0.014508764544312523 0.008520257430919451 0.0014110086619283258 0.0006528365718726119 0.0066950697609496875 0.007848270088344935 0.008299192911911663 0.016674747556850812 0.003665419099675144 0.010055233349751322 0.010864324162326734 0.008311097004705312 0.006096510865022796 0.016584000914587435
l-l,l-d,d-l,l-l 0.015603639564564896 0.01524123739036743 0.020253401741145313 0.022104043155122544 0.016990202630085213 0.0032138095762929194 0.007412533739810531 0.01019926025920419 0.015697529234927534 0.000989726395053038 0.011135057349423112 0.017104005986506975 0.004618491604678485 0.00989288285946538 0.015926755481151328 0.005748152200211845 0.011569436834861568 0.015176911110130793 0.0073194897239061965 0.015696220305803473 0.015003559442134336 0.019856242547213115 0.015686609868560967 0.012788907961231544 0.012700792454507708 0.011457364338092902 0.007005887912761236 0.003664806910340282 0.010549669928924095 0.00030979587574388054 0.011304036891101694 0.0157146739338272 0.015997669240621924 0.014599173965434786 0.008724782727105505 0.007066031001831468 0.008924769215226695 0.013486864486522473 0.01690104880579411 0.02550966215992062 0.012226732915833934 0.0091110306881703 0.012213136775293756 0.016625148505802982 0.016371326255504956 0.009510077528288688 0.01511949484973675 0.006309426283521534 0.00617182885596877 0.0034430882258790984 0.01826502218353126 0.0027721182169199513 0.01190825785871054 0.006610106710271888 0.011335265523381323 0.012155323137060133 0.015543529914784145 0.015490879204000765 0.01582568039917484 0.026390899184721515 0.019020460023178927 0.007795159663145106 0.008214061151439196 0.012836487636704285
m-m,m-m,m-d 0.00767824741454686 0.00034057980618203127 0.013762553268320281 0.01632577169702974 0.010222806839757093 0.011232252120192623 0.007429999453762949 0.0014312529675489028 0.009514353048378813 0.0031685810381821317 0.012976857417120367 0.010362346733675625 0.006787629239568524 0.010905986621945996 0.018215387715573975 0.002907379182847274 0.00905753189724263 0.0013829954152595658 0.01654354131708252 0.013460049373364454 0.010590547658598275 0.009167862125608519 0.010904430612578859 0.00252183677410553 0.012525536507589046 0.0018081625643227891 0.001863660188018047 0.015227091647622525 0.007011527354748333 0.005171261512170097 0.012343771877063984 0.012609847149015843 0.00783684831082113 0.012757043848367849 0.0077248163455851115 0.0019036049117742715 0.0025702282564420698 0.0026929172844869895 0.00376832489790995 0.00937783623786748 0.0061630366225679575 0.005276680336556547 0.00190317581550448 0.011220643102419112 0.011377071336420122 0.002019055310068037 0.017083401600682547 0.0017999376529590683 0.014111767306443866 0.0011138255570835804 0.01466712573701865 0.011436333482212012 0.0069019647164752776 0.013372702043138408 0.001786657517750867 0.008960251925893677 0.008262741053432157 0.003941290336589905 0.012926284597102518 0.01053333748064783 0.0077037889362662195 0.0139507010099858 0.006103776824779108 0.015286953529381458
m-l,l-l,l-l 0.008744884684925423 0.0032104002480822878 0.01011579891226162 0.012649063632303989 0.025521999319980334 0.007780202393951892 0.011189927102989565 0.011670443524944186 0.009837536925497667 0.0095609567078023 0.009844429099126866 0.018586854967170833 0.0045151904931281135 0.010748450901560229 0.01771697428681043 0.009068066223874379 0.0036021574464383498 0.0053257476731320905 0.013287818319379736 0.016210943988423956 0.0031020283283787094 0.013374171649523953 0.012396421013645199 0.013645077135691798 0.016290102565597406 0.01447302780232167 0.006193415250155669 0.00833729966096467 4.963745380312948e-05 0.00015887223209995975 0.007454031004890291 0.014719624272679714 0.01193561472374379 0.015065932444664396 0.004255426060416845 0.008171783379326522 0.009305267255956682 0.009036124812427139 0.005143657003505248 0.02591762961272637 0.012643553999701209 0.014801914790495984 0.005390937795789782 0.020999088420257852 0.013119057857899966 0.007225085006074227 0.009788630280789764 0.014944083640757817 0.011206463386306395 0.013173057320459704 0.014740542279396378 0.009218133082076205 0.0011096621506232192 0.00830451885248055 0.00626333675697368 0.005531748069149634 0.0023743609006484537 0.005819230045578167 0.00894191212016954 0.025954366189447704 0.01445790549823032 0.0006586054793307654 0.005846072442328316 0.014415468376355389
d-d,d-d 0.01004933838178792 0.010477670674457517 0.004779538397660144 0.007601430267204941 -0.011564524350988103 0.0006100903795037287 0.0013107585198030684 0.013282407152956335 0.011844033179691573 0.0035587362242502202 0.002035172085232316 -0.004687844157318441 0.011371067364134856 0.009070368720848135 -0.0012060448410313777 0.013121968888526972 0.007477858754014676 0.0020484747121633307 0.004660565393499555 0.00840184876984193 0.009030226076935086 -0.003723740794455681 0.0016227034497255889 0.0008851188974971349 0.0030703454385973715 0.0004638062082407477 0.005046633886812424 0.00012227394436694695 0.0014898071584139847 0.004761474826536707 0.0027421442444999088 0.008909179054007465 -9.367144017947351e-05 0.0001808435675650059 0.004157930889823348 0.003025609138359485 0.013686599631868943 0.00120097599180855 0.003199083625274285 0.004618867095715661 0.009717370479458018 0.010337552789473585 0.0021429446250231317 0.007118445273833702 0.0056244983386658474 0.010183574225322208 0.009996017122356426 -0.0012021495846513393 0.002814651272508959 0.005846437520764186 0.007912294340905804 -0.0006466565102209028 0.004537521800764414 0.0079589217745206 -0.0016160326948848158 0.002077985774029688 0.01368101734058496 0.0021023047425868225 0.012222190639185657 -0.013424079094333135 0.011606436925513034 0.01514839278401228 0.003437152706459435 0.007770980964234185
d-m,m-m,m-m 0.0014244532329557413 0.008329493991641367 0.015274723937582748 0.012585508328864396 0.02389234427075939 0.0076375269438994425 0.007087838016456044 0.003037517638062106 0.0030295339459799693 0.001057068567607853 0.013982554552660023 0.019307314871700145 0.015692497854646863 0.014732833265347084 0.017268106095514074 0.007986058322885846 0.004568356795648089 0.01683071334568989 0.011327768335097408 0.01116860335283639 0.009717733469270157 0.012104997402797342 0.011559947050363388 0.01488711021571626 0.002574253642821089 0.002096727727694935 0.003777925920658113 0.010979606216164934 0.009476177971947173 0.012250919558675877 0.011008748120866017 0.015009453548669175 0.0020472488253831475 0.003950423697537008 0.00607406380937147 0.003527647683861803 0.016982952264330862 0.015886639234766603 0.015356449072808026 0.017687810819899473 0.008173488879094208 0.01350500803271399 0.005156093541102789 0.02022672848512016 0.0056053260825138125 0.004125388691245714 0.015095071854853929 0.016653651454105262 0.0029553433766248216 0.004409938271203817 0.017479661042171864 0.0026900549411202138 0.014309172272920796 0.0028946572502562004 0.01567216917923869 0.01745660095871567 0.015195212873633433 0.008721920421387433 0.009482383522035788 0.030045331173796243 0.012520976049872587 0.0033771313180869927 0.005876602224281866 0.005016669142632363
l-d,d-l,l-l,l-l 0.010921246652381205 0.00958563574494946 0.010877352059783319 0.013029323473461406 0.039127478967606606 0.008325223450080724 0.0065400578896199135 0.002103428234167234 0.016291626936767466 0.01343303582200558 0.0072342780202427 0.032600495462330195 0.005036804706467487 0.005216734159060841 0.013420258004675998 0.0122232460485343 0.013711244187624084 0.002889964182374022 0.015207809281629714 0.026743987565996854 0.01384424013150417 0.021995224500513156 0.009638536815666732 0.004513778283496736 0.003372235546156362 0.00983820285736305 0.0007151905071978868 0.017841016306448857 0.011409296838184669 0.011943234590715817 0.022811846833345455 0.008441773570516311 0.005271464254592092 0.004931661159391616 0.00881691714106985 0.00608960900895677 0.0033317050061961316 0.018128174768639586 0.005170758508956842 0.032583334352685685 0.006482631501015519 0.0022384700972619006 0.007305769823989923 0.03125933216419997 0.010510269217339085 0.008046971288339857 0.022921279514022307 0.009057715796462123 0.009811957343098095 0.006935182775797574 0.018656370676672925 0.00777944743818486 0.011923256030024691 0.0035561644505913586 0.01782130556646001 0.017069975594674318 0.007963561675117074 0.016598618553693354 0.006567144089082104 0.03430639122756498 0.015931380184648028 0.007049013514654348 0.013356316407847688 0.0176249286921038
m-m,m-d,d-m 0.01186563810736455 0.0007984560586781067 0.012395430758240993 0.008138555507241288 0.008574147142158971 0.004109770634195497 0.004818585746850862 0.00642849085977458 0.009440030684295124 0.004354702283765339 0.015086889235160097 0.01625648872327636 0.014199059748360401 0.014009552387216552 0.01793131380853351 0.002239014738625586 0.006669529803281841 0.012171031303594705 0.005291392368013118 0.004816785078375299 0.002711033675448836 0.004630233303939073 0.0034534699431388763 0.007811635972134655 0.012260478508869018 0.01467912506191991 0.014438970336830753 0.015980516203275823 0.006784370856671569 0.004042075972332946 0.013885022122021157 0.015058575222959062 0.0032536506573126365 0.006266402917849455 0.0013115599002418562 0.0072110371815384345 0.003227100339346529 0.00941311695570774 0.015903343788265557 0.020501933828304682 0.005868781789027819 0.015177063359759213 0.01003180827454698 0.006953296252696803 0.00952209090064417 0.012761120441925252 0.0037714146678785075 0.0035920803520077403 0.004038257504459388 0.010419284469912398 0.017982826562936333 0.006415251253831182 0.008952786563652525 0.0015914029104911302 0.006380647609402892 0.007231378407569966 0.010147444936551389 0.003942448362662105 0.012950191368738592 0.022294307106751326 0.0022745419082494194 0.01133667570323289 0.0060924237046148435 0.01722510311301607
l-l,l-l,l-l,l-l,l-d 0.013857155730016302 0.00340042181404639 0.005088921919562859 -0.0021546958926622847 -0.00035659223210206595 0.009663830513222267 0.0047300647179622434 0.015044748895258997 0.0005575037445854656 0.012422671398357432 0.009526404840244314 4.6016887110796e-05 0.0054480646631872255 0.014367987046066443 0.0005733463513613668 0.011677993758054712 0.00013297820891795885 0.010827856806210468 0.013000117832118381 0.0001962494921515029 0.006658938424607743 0.01136351660792931 0.009934064614872775 0.007736714416868074 0.0009766222963245197 0.013044700438625476 -0.00013360855072958483 0.011927180844349706 0.012464887171353271 0.0023913029894166242 -0.002879815349427528 0.010241583523061051 0.01493248888400028 0.00713258278332653 0.009312049936296543 0.011599460547501975 0.003407015418562347 0.01264794079674734 0.006594310942122029 0.005355642035026752 0.013984666984290893 0.006393235830824033 0.01445915300435009 -0.001794505973921109 -0.0015083760757220875 0.006293702281630562 0.0012174877425418316 0.005902885567169937 0.0068263057518334275 0.010531163934575372 0.0041181159969765685 0.013844772644480714 0.00943305629078345 0.005373936509109058 0.0029645396785760716 0.007984030461966923 0.011435672396224138 0.00173719664734394 0.008610289366506698 0.0024771465648788407 0.0046784450232833855 0.01174367360364687 0.005531326132189209 -0.0006625813626345981
l-l,l-l,l-l,l-d,d-l 0.010965797940291167 0.005547779671683153 0.005643084454483689 0.010955088681566584 0.015251121934841629 0.00033905446742238816 0.012305764685056609 0.00805995713901255 0.008560156548078743 0.013749071107916146 0.004782891348813794 0.009353062000035516 0.009163274123143004 0.007226389144875151 0.007844624118011312 0.015023253034606037 0.006608244508615153 0.01458966397077551 0.00903320581879451 0.007832198598447223 0.010363542866638733 0.0005994074089806805 0.004394344093426996 0.009118476863480893 0.00941209046493949 0.010959300825655794 0.009858811518151645 0.004735247499226026 0.0031858849983827805 0.0032495662607374635 0.015300036937993929 0.0033810450329740055 0.010708969634291564 0.015358523299851412 0.00876894258406207 0.010075891027852384 0.007930437489614911 0.010241204191082553 0.003632837265937464 0.005596538764665407 0.003129081610906255 0.0004616877832315947 0.006785373104454465 0.004349813641873606 0.012506195777595803 0.004070035320243574 0.011585256875066983 0.011888340106609692 0.0019116208632092284 0.007528427767790407 0.002037597937771292 0.011406333303648826 0.0005093210196970866 0.014119848902992437 0.013004803819399993 0.004097062926877982 0.011610122295305354 0.008281077724864173 0.009214910234487547 0.001812186719255739 0.01434127017633518 0.014434921543849122 0.005066832531507205 0.004964562563060281
d-l,l-l,l-l,l-l 0.008396576063887535 0.007712831141614493 0.01959559219346886 0.017711662748532732 0.03566469174095343 0.013250466369916038 0.015567607004215049 0.015593432870142804 0.019127269390642597 0.014265184903002263 0.014228136763659487 0.027818836001987354 0.0067276516245859215 0.015250311791747621 0.025432770397824104 0.0008259707684156936 0.01210809549673341 0.0052156967457086065 0.0187502650389507 0.02324722775796067 0.0251544864874396 0.016736694696272692 0.01495151376387113 0.008576133406985154 0.007957991692557504 0.007896979836218572 0.011888528634994032 0.009446581420923339 0.0012552736762942594 0.003974577150555168 0.019193689770038956 0.008652158268217781 0.013244223212673599 0.01114380934853944 0.007362397576174437 0.012928862536204871 0.014727103502918847 0.015423054660814945 0.012634417371094645 0.02625750878528913 0.009358390969000206 0.0011525894023414083 0.007501276583729492 0.03239474550715542 0.009619808157658647 0.008929306032255642 0.02570650226010552 0.015057110293602669 0.011671185633278076 0.013883814446310762 0.013487713675591265 0.0072266093847989325 0.004553063512579095 0.01356975062847319 0.013264219769155481 0.02617482340972714 0.011420157505036587 0.023785162308944625 0.011847409286350863 0.05420870430832497 0.019089271342763777 0.004102494612860964 0.005482775706255072 0.012707166260105979
l-l,l-l,l-d,d-l,l-l 0.002107691042725493 0.012509482762437282 0.01284388411916955 0.012490888696950302 0.01425426146459171 0.0026102344694471933 0.015368527827066101 0.00596229134594586 0.007899142197368687 0.01424950032144854 0.00535294998919369 0.018353933808391898 0.012373077051649247 0.010581708780543663 0.005928056319862062 0.010086940831945987 0.016846883567287294 0.0018199406027100725 0.012307052089470921 0.002869157693167639 0.01019552170277759 0.016794801835864657 0.016103604425672376 0.0010752393766817075 0.0012594908399368835 0.01399608568167567 0.0008753390579138785 0.008447006936848212 0.00836975191204604 0.0020444622200716006 0.01713656527501501 0.006813788881605158 0.012346371471859732 0.008589546371032548 0.00539033872440919 0.010975318969926729 0.005297977411757232 0.004039154819968147 0.0068089976936356045 0.005678533978370494 0.008151453310812054 0.007116583978559061 0.004680969669695265 0.006331397976136417 0.01000950941996966 0.011237649512067932 0.010957103839295542 0.01419420765663513 0.004472257354577556 0.00578738852813669 0.013764491697264798 0.006466384883855401 0.013250977734850978 0.0016442054850221838 0.0018409785691673368 0.01274090367024168 0.0008926260881123552 0.01830955647748178 0.005180050784277836 0.0097176257007063 0.0015581091927470583 0.007361054098524915 0.008843848797539324 0.005560855231172035
m-m,m-l,l-l 0.0012681713439373437 0.00390089715989831 0.016769037781414187 0.011092399483345873 0.010821317676252041 0.010908562193103011 0.005494167905165421 0.014626373096425253 0.014455099354712146 0.003012161939251001 0.007302187965944243 0.007178258742620336 0.002966512276992003 0.008138591878356048 0.006952555332171973 0.004496845135187923 0.003666232591957072 0.0018921142948205535 0.009962401446363027 0.010826736672586998 0.0020022193655074476 0.0128280737769538 0.01545934612950492 0.0007867041183903018 0.006874352897010886 0.006002550652824309 0.0008370119223538181 0.009601598523327641 0.013096818999049738 0.01315299976904563 0.008902777133902756 0.009719724414656012 0.008114113306335765 0.0015688776646273894 0.013105457748520472 0.010780059168858843 0.006708596997442546 0.0028442312226338506 0.00764879638198476 0.017807376046444202 0.014099776522533532 0.011331762695075211 0.011324049025756936 0.01351464041497682 0.005020939603901604 0.007737810441321416 0.01522399821552522 0.014913531487012539 0.005125496622517657 0.006125294714355508 0.007602007661816311 0.012192050626903046 0.015383303247129082 0.0029821355773215572 0.0021175440031196125 0.006253329199855538 0.012151129125644328 0.010954480615271083 0.006146359625263677 0.014706182980775346 0.0016549829861449668 0.00033450775115540985 0.005279847397551638 0.003515399286444809
m-d,d-m,m-m 0.0015312953783731286 0.010812036233968852 0.018578781062601454 0.011944058514924432 0.015157742906702215 0.007867071482053543 0.002186123384471325 0.0009611146905185914 0.017103713271786773 0.00677321737113294 0.01421162340147163 0.02102451605606298 0.01488562727822572 0.011191459688008212 0.013686722928216594 0.0053089190309654165 0.01442370436763878 0.00993074685547614 0.012706278825377169 0.01990447253980848 0.016098932580864922 0.016849161576361713 0.008398096130345836 0.010022272049176814 0.007525201405583904 0.00446453536315888 0.009418997477210376 0.00793921576702424 0.004724354546688881 0.004839728994848333 0.01712229679450172 0.010904798594629088 0.01198996457903525 0.0022187286112819553 0.015594352316913928 0.01595569065884784 0.0028945690052412593 0.01572659747998296 0.014229660418349608 0.01172002249137076 0.007936128972798637 0.013418743941962684 0.008905839603987708 0.020787539247882805 0.007155350913080432 0.015776005456965128 0.007946187071211459 0.009759340100941722 0.01328853161285069 0.010313336707339357 0.0057926098020276975 0.010217432498223595 0.010870490154874993 6.276615088960196e-05 0.003958084735769612 0.019611187445937484 0.0007862973343454846 0.00908956855014487 0.014173714321439063 0.01940595373773612 0.014501525813330678 0.0038941984118972634 0.0017724584718251466 0.006943204868315683
l-d,d-m 0.005859791700924296 0.0012110041229749628 0.009414076990923755 0.01681677768044724 0.020023543254525752 0.002797016588865791 0.01324971755126172 0.005378530223784343 0.006770848739149747 0.015245214845878144 0.00893499528023767 0.017995543057145742 0.013284543590281377 0.007103234248628018 0.011454642948036454 0.0028421244570665306 0.008072311183076133 0.012835686103810367 0.016275614707813215 0.021559995499268885 0.012944588630199937 0.018773003599916425 0.014741689399495722 0.017525234073104804 0.006077473562527643 0.01051298823550967 0.004066500123824126 0.007630037804813501 0.014558336659027116 0.004044886361788973 0.0110616573611887 0.004828712544608491 0.0037332871598755903 0.008346340614334445 0.00874358984933742 0.009769009486654559 0.004562813462993007 0.009317039421094738 0.004696289390596576 0.026855680831226757 0.002184813690552578 0.006741969018426734 0.012005821241683907 0.022976677459608987 0.014761184154453776 0.017019940683605288 0.0057361992520266495 0.004980989760665431 0.014446567080855675 0.013901724066624821 0.007814472794934595 0.005659506836078797 0.016385855697983502 0.010131222190889681 0.004791029413456098 0.0208412813534292 0.013624865906043823 0.022546177406844423 0.012133152052890306 0.030157428928184946 0.019604340327560886 0.010891387021871106 0.001257339148478547 0.008635240745496037
l-l,l-d,d-l,l-l,l-l 0.00490947451273777 0.0036931513654791157 0.013830459618919504 0.00679706836537847 0.023366768176741284 0.012365596527910284 0.010776232832052724 0.003267119211621842 0.006005293830212691 0.005171120176143941 0.0012388052083979282 0.021537939079189685 0.009004918930162762 0.008079714369140732 0.009995725937339134 0.0018248331535065405 0.006113229859872919 0.015035085009661135 0.012160965062234626 0.01377841320831133 0.01384039311923483 0.007814996268004816 0.009360018190473756 0.016451100539292447 0.01193046542918903 0.00626963246522421 0.008278839134090667 0.0034021936769426174 0.0005498453588573163 0.00040889603506116665 0.01564606567340352 0.008836879847147316 0.012917092325958075 0.004516781151679538 0.0007674948530409939 0.016660210171139753 0.011175491951368894 0.009978899234372545 0.013087080331807825 0.024499469869861186 0.003905941284891363 0.015591746540835467 0.007956745384970886 0.019474420293255596 0.01859715259551234 0.010298732674910611 0.018446147153168457 0.0022113191024961394 0.010843026273979097 0.0010076693429959354 0.005294392252390003 0.006794364299946155 0.0028395813404067786 0.005634381408463839 0.00961010384103272 0.013603047232663201 0.007163717851813059 0.01741204668054 0.013740022723737257 0.02843229699145562 0.01716637740971652 0.0001290399102655103 0.013982319489941166 0.014161105443455592
l-m,m-m,m-m,m-m 0.009708759092639444 0.009828996784981038 0.02233576056698585 0.019649264965800623 0.03000253590587808 0.00506340046028138 0.0037021987450335673 0.0002388283583462505 0.007873748735855035 0.004269814244557596 0.013018158164742926 0.026458967210632598 0.01634084435054698 0.00930137565111357 0.014142618138085697 0.0001374879326244437 0.016978122007499735 0.01019878330463077 0.014631771171701096 0.02044785097682189 0.00611525416118178 0.015933686474611068 0.006378188097586699 0.010463669356063751 0.013203110191481255 0.006021732489550223 0.004955753057273069 0.005063786857101872 0.005658744010553774 0.005131731049153151 0.01616438624996812 0.004921820178068499 0.005755207996734131 0.009947624310456366 0.006727182030988402 0.01642972498711358 0.002731945523330599 0.013133876170161013 0.013439542187181176 0.025016621256779108 0.005302630035030597 0.00710312218649277 0.0064934002707605675 0.018733381838961033 0.017766854692372543 0.004986855711675245 0.007171132955205636 0.005420677672472636 0.002154111451366514 0.010701756729393724 0.009705315699698076 0.015021799704557416 0.011129477146174812 0.014210001568605272 0.011058849693612326 0.011093182788340145 0.0042576810585911 0.011265640320594919 0.011723487836454218 0.02796927993823039 0.01567909642526961 0.002476085559861552 0.0030185937630444054 0.011950933695016708
m-l,l-m,m-m,m-m 0.0030018473068497654 0.0034323082585058138 0.01746419575127279 0.01782942842785574 0.01444033572440235 0.01165556512968536 0.010138555435564285 0.0013562009527388977 0.014311110702019188 0.0017561368975268791 0.014616685554582051 0.008201689852044293 0.01422853866176263 0.010376107064311182 0.015249770184655644 0.0014629313117123358 0.003436536004518808 0.009140752669721327 0.003679420232702367 0.019671905190959876 0.01665041914737236 0.010225354681947562 0.012254039035863161 0.015593439773219862 0.0016547418739994762 0.005310124345057315 0.002042498520022132 0.0059845246327855026 0.009126962045384018 0.007069824949226914 0.018793117076640154 0.007876485566315716 0.007198934118775362 0.013003832464855937 0.007514358238033973 0.0125510148905705 0.010316112605908968 0.015572528730431651 0.0037031853388134234 0.012116098182126405 0.011718787486227776 0.0029865056786598306 0.007593747710658281 0.015869906837888553 0.015097415620546636 0.0029982815592034134 0.004467414768257089 0.011834257324981648 0.0018129478074388936 0.009739068120841873 0.009470745429191454 0.010350131837121239 0.01432626951339407 0.006629934107075437 0.013520894461313123 0.004864821433746622 0.015345058102082908 0.006202256338195508 0.013346624512078575 0.029043299880339594 0.003635141593958156 0.0015554668495885782 0.010875512776877776 0.004747109396730742
l-l,l-m,m-m 0.011236184070444539 0.009976201390255334 0.01369795396839596 0.011607173694192575 0.006945259653018306 0.0027145894466279238 0.010279974584537237 0.015263244718765013 0.00452159336402094 0.012045485797868823 0.0014696996581887594 0.009479228133237098 0.0029751351505560982 0.009156729795092853 0.014963403628210284 0.013592001514280807 0.005997451073781879 0.0037596111558560576 0.0065434627737647804 0.002217865557226797 0.011132830577771051 0.010737837092485453 0.013451727253714624 0.003757297907165566 0.014652076361702602 0.01087785998298059 0.0008277984486833477 0.005826049497483059 0.012075361357957828 0.005208038852825299 0.01615228677549052 0.014727012105919184 0.010591499041888271 0.014974335497318605 0.010356459919092618 0.0017602391446498887 0.003199776939457042 0.003151136762145976 0.006191354764380701 0.012931282281848661 0.0015549900364139314 0.0008717178999357178 0.005536039454815913 0.002261173042463328 0.002396977037104273 0.0129071116128111 0.011969174182357503 0.0058258889483917935 0.00037767204031199415 0.010123851626946215 0.008540029722755312 0.010879256338485138 0.0008442453626359175 0.013621463335374914 0.0039441775422557656 0.011272627513635246 0.004855561408102156 0.01647099799121206 0.014838745673897607 0.004797284289552136 0.01297095555824992 0.015409241097315056 0.008459085013986352 0.0016696998465525917
m-l,l-m,m-l 0.01095559591285935 0.006182143846446006 0.003798697229030364 0.011493382962688712 0.012185767138673673 0.003769090563138456 0.006921547091422886 0.004086604609216888 0.016734694795266063 0.015349864014757087 0.012376757876731497 0.009834739080752192 0.008426795801116212 0.0027464374435506303 0.010032712457951795 0.0037300257302156766 0.012533219880629474 0.0022866491994159087 0.011193349852440219 0.013502836252797296 0.016381549366327755 0.013104001201291958 0.00871355328350554 0.005923966937697245 0.008482046072195739 0.011059196802321845 0.008684903321533167 0.010640450507312488 0.005366945197799053 0.015125466922840678 0.006011458321706021 0.0068637096095409585 0.004362706113546385 0.008965798822450336 0.003667798085930276 0.007151111034595772 0.015115203950014854 0.012383483700610154 0.0051671152942954135 0.021466780958470457 0.0128678921502016 0.010549316074222666 0.015945256985771462 0.02213081262822392 0.009455635526106152 0.0026121527995882736 0.011281306495078528 0.009652704918124597 0.004637261574305781 0.0025244320195721543 0.013111829410597095 0.010804588671820978 0.010599396793173843 0.009118673328557153 0.009653667614099075 0.008410337048398294 0.011627141381884679 0.011327393552756629 0.013750350516063086 0.023102774393646667 0.011325716570351637 0.012486269794005161 0.015409144181829995 0.015925446930806622
m-m,m-m,m-l,l-m 0.007766958544581912 0.00546064427539929 0.011671226780845928 0.013043092018845738 0.004405846210314123 0.003094214775566407 0.012188984085257403 0.015318417401812496 0.008939090956157341 0.008158198261284602 0.012615806167071888 0.004705455808541979 0.015927904480350714 0.0022259478522583826 0.012689213169228612 0.0007793613839219105 0.016121574855622392 0.014475958989164497 0.007589327410990019 0.01625445879920316 0.0031933268931047996 0.0025028279975541226 0.0008697632296199901 0.002091169638320132 0.011484084058337573 0.013109998919006782 0.012798042559395305 0.0024128900130039126 0.007887354828244784 0.013185817762221169 0.005490383518110061 0.007899881585144963 0.008371137568198163 0.011824608345257826 0.0142833013116719 0.013384585482962947 0.007899250526460278 0.013383195183676947 0.014237870841479802 0.003937633941448177 0.0018519578643617829 0.006753278841260853 0.0033430664420973817 0.013630622615776689 0.014871997562231506 0.00483276146149243 0.016460051019998766 0.010755790953243327 0.010838899999356876 0.008934883058988362 0.014072009909897138 0.013577843012932762 0.0015035737424988643 0.003757390542081472 0.003662966111361026 0.01621220126621078 0.00040656697788808656 0.00993179659902941 0.008096290355633059 0.01667297431735722 0.016327950262224476 0.00888273026657932 0.012042565208434667 0.014362759318958052
m-m,m-m,m-m,m-l 0.014567531705918096 0.0011440415645008152 0.014604711166122506 0.008522306319096448 0.016251494075653593 0.014717409034000808 0.00978078518683273 0.005748621394793983 0.01377943397731503 0.015523656167258669 0.012035114989766109 0.0020125274590450117 0.008193694282184461 0.004502126006776652 0.015004967558189515 0.003152994977054712 0.007218003108778816 0.010599565986176332 0.010087356709111012 0.007211057033147297 0.004942400048400051 0.0015345687352625705 0.004612889214717868 0.007341942374113914 0.01510680740303303 0.011319071480878216 0.005777103943261601 0.004418397333365122 0.00012443022692604306 0.008630953760906637 0.010771077512581065 0.0002559246312207843 0.005591218458630624 0.0012301407748328086 0.013145513562236439 0.012744108569423637 0.0025476309266943974 0.006802511228759496 0.006517862773916363 0.005553555355113912 0.012139255757950516 0.011113536164519157 0.005612582975196819 0.008651142274749486 0.005388329650436651 0.008643848995020603 0.010828941328512929 0.015271143586806047 0.011580744473695132 0.007395750596178606 0.0005954920920131035 0.004480347253375439 0.009645400258347998 0.011571329437596357 0.003318619406055246 0.015901524300417007 0.003077084074998353 0.005924808376458547 0.01041785003686594 0.0038840352026449335 0.01379036466375751 0.0020021735131575107 0.00671210315502977 0.0015028996322477425
m-l,l-l,l-l,l-l 0.007354886819649463 0.005448562492138778 0.01651647165636892 0.017318302078039742 0.011728598792947758 0.0028093768211870066 0.007732991966459285 0.007943479143205432 0.012580411303868251 0.005050199783564181 0.009686603773514688 0.014175616921471972 0.0031975684255064665 0.013543506297141683 0.01682133011470974 0.0018907742591557546 0.010771064410988953 0.007274480509684383 0.004817406469055493 0.005382934167212929 0.01006946381882453 0.0061752202736584695 0.01228009180198168 0.0032005337373335082 0.00737456016350517 0.007018287814407546 0.014888443499588726 0.0049613722407387045 0.007955190557445238 0.011970505178785585 0.010575106536014667 0.012230026670851015 0.015321871574785335 0.01301431109354501 0.0018809242499914721 0.006006520251896704 0.003341490405455844 0.0035682650435618665 0.007410826345187601 0.020630328407144294 0.0019433732073360493 0.010376859545563206 0.010296393392151836 0.017660357120147976 0.017932036731738522 0.009713344096844375 0.012522641755285823 0.013894916311896424 0.003383798085190867 0.00596862484434068 0.005495837204754639 0.01509512314472324 0.0011022142455915935 0.005847977780817269 0.006334391629924387 0.006307927852359783 0.00874838149547097 0.012741670487285393 0.002395773269759566 0.021682845752412694 0.0034235987330772802 0.010635786478039332 0.004180345422380809 0.015502969868000833
m-m,m-l,l-m,m-m 0.012556542370197786 0.008848184095685599 0.002667466022921063 0.007915916859187027 0.01950378451611003 0.002384462217306897 0.005386839327256361 0.015632309785122502 0.010094824936902317 0.014203631268964545 0.006291036629814586 0.010057610501798198 0.00706500532369491 0.010487111833030844 0.005214671715353259 0.015458972103163937 0.010019371956160716 0.01020560277899126 0.008768699743638473 0.006851764014280762 0.014279463657802714 0.011599871423185186 0.006095183158968685 0.011117186978276591 0.014474535356733495 0.013382074874417373 0.01413585175112511 0.003958320763629953 0.005580517780410414 0.005056885383871405 0.015830628815839864 0.00040172202414942614 0.015781348974360752 0.008181695332142703 0.009901290585121304 0.014916829146972782 0.0059343113417450405 0.0066121355064025595 0.015121744753212254 0.008074269240417974 0.005947595273906012 0.010656362376854496 0.005230768412270177 0.0195105902684225 0.01140214538460825 0.004001204046075014 0.010659649585000968 0.013802543997979054 0.011962385826386788 0.00926448604141097 0.017546459686187843 0.014535013634683519 0.006864275624553143 0.015542598057941304 0.01372640021680558 0.007370396972475737 0.0021834253191991655 0.016755306456261096 0.002966240637664488 0.02040128796070441 0.005682272804595718 0.014232784737209292 0.011842201323217463 0.0030170297504819397
m-m,m-m,m-m,m-d 0.004487899183691801 0.0032200180248724885 0.0063289295605051836 0.002273104452308671 0.01282192800107086 0.0006357155223376467 0.0008872700824721154 0.003175585593396731 0.014978995704888498 0.005095725430259634 0.011368050247128563 0.006438103182007058 0.014913583228710824 0.0022933376977401264 0.011681106565848642 0.011038791376831454 0.006322401202912731 0.008702019990170107 0.01205968319002374 0.004476319435435529 7.064125738915604e-05 0.012387009111018135 0.014050576896247663 0.002039844851647615 0.0007934016975356833 0.012998582853388339 0.0025070244661032234 0.013590676183774459 0.0014289140911600555 0.0012274744176486948 0.0011399577588410814 0.004297835537583542 0.011035750012012572 0.012878762782357863 0.015329793996481617 0.0005351989646243053 0.0007832973256379939 0.013484841538828885 0.015048888989678771 0.011815706555194606 0.0004935561936138919 0.000484329056023014 0.012931873272606878 0.011861933465432569 0.010640998808042793 0.007708686820210379 0.005963389102808488 0.01566526282022113 0.010051615860193104 0.015562320399884519 0.002555089420977306 0.011656139381109447 0.007784931381626845 0.003727394831870327 0.008121181979441887 0.00542698309728875 0.001010667113925676 0.011920920482599427 0.014790169433995463 0.006037244128543865 0.0019933428312572973 0.006111168176210431 0.007016148074573566 0.011196518450408685
l-m,m-l,l-m 0.0038465304295974773 0.0020210019651863993 0.009885865420050028 0.009220188892571698 0.026897021312644525 0.01569342625574392 0.01588921450071149 0.005910285499066 0.014577987598599238 0.004811205142406284 0.0057484966568536735 0.00885470021720185 0.007603252744039038 0.006559075751426387 0.01006734053007072 0.0004236218585449066 0.011130439491648414 0.006887530105081371 0.0037555814010529326 0.012379240166171875 0.007680390771677796 0.013611446491308072 0.0037828748823676003 0.003605357191233644 0.0057568996087672495 0.013033142580363043 0.0054619427777547105 0.005443760224220379 0.004974846536532846 0.01497414233055918 0.01779725411614116 0.002304799012840676 0.0009096686304956389 0.002536474041728587 0.008509989452797196 0.00306062071260226 0.01198396975505435 0.009112396308503884 0.009783393832935739 0.0208290686798815 0.0133078038265399 0.01122515280313215 0.010432861680929379 0.021578945767320615 0.010238198558507779 0.005069857366641888 0.0040501683125087245 0.00991337683643475 0.005418143571216897 0.006834849599220324 0.01646589549700172 0.002379521415250199 0.0063976816325608775 0.002857167055808418 0.008880087209616173 0.011908181661129577 0.011564043545957156 0.011765249877936316 0.010558090898696235 0.021228201514109753 0.008060408116823098 0.00693122240189003 0.009353876390713686 0.010755983614640304
l-d,d-l,l-l,l-l,l-l 0.002329422984599752 0.008661844285081814 0.012574185553008436 0.023872317739938614 0.026305675980128975 0.009662961707593284 0.009899363478924297 0.006524491257932182 0.0076132774867376345 0.012523678785416196 0.010368857938987588 0.01590614845421912 0.0039442457586736385 0.000300405589664632 0.008089495057222838 0.011982868925122127 0.020430570140925784 0.012266945492533548 0.016220103289341033 0.019007507870608637 0.008285926817141832 0.01118043574271244 0.00948035311084167 0.003124260367697839 0.00871102531924442 0.0070408013306761975 0.006611144283690112 0.00701747628024296 0.009643374416189072 0.012372090031187671 0.008021112437483222 0.002914820077147606 0.0036215245455938658 0.015346010148800517 0.003288383198615455 0.005047203147812786 0.011647756908760236 0.009472621778799692 0.017372398116358226 0.02602434049496227 0.004728203027775011 0.010465128530441407 0.00429428428113489 0.01811001826643869 0.012381556725799648 0.006894131080861661 0.014947438388209895 0.015755135358097496 0.014021948136487897 0.0019764473186049225 0.01861470170126134 0.01635936620576887 0.011494528994642829 0.0039744530843148496 0.008409646573858186 0.010084192889756469 0.0028725985980817374 0.019706902298488267 0.01792148804415981 0.040463068136199154 0.008459730585286764 0.005596162869133779 0.013459562726500975 0.008904865927502236
m-m,m-m,m-m,m-m,m-m 0.010169354700475095 0.009180278777162754 0.0011521789493651364 0.014767830934567463 0.0032110174336489393 0.015578685313394437 0.005675428139420148 0.0049013217300102946 0.011684945936740103 0.013733352805622096 0.0016033574999903895 0.002516203651541821 0.0141323816573752 0.0030538980492685634 0.01371676068454267 0.008453906680961382 0.008421228811464806 0.01074827144629858 0.015520370819815875 0.007355537571728168 0.005776225067030674 0.01142693733094002 0.008160428571831557 0.007231606832318414 0.005407128073016614 0.008711498009951739 0.0010094013125516899 0.014449414757254348 -2.180290459594863e-06 0.0044190850716456075 0.004344291893670064 0.004151104399093139 0.011580792238023876 0.012398120557518363 0.0008073710752919967 0.008000999888028191 5.638042218131702e-06 0.00254516450009824 0.00786314833832249 0.009339414242369039 0.00018286752901367642 0.0004957509579812765 0.008151704728303462 0.004910878023657787 0.012692057411299203 0.005443078306167588 0.006196231309490313 0.010858769648118993 0.015497671565775101 0.011901814332855068 0.012407049619997505 0.002171785677893662 0.00947549518814453 0.008238395055243477 0.006277444941904636 -6.230698324815314e-05 0.0016731901252910535 0.014295875027870952 0.005654790811212993 -1.424821151131041e-05 0.0019853876824734024 0.0014951602193082557 0.00978002151691111 0.011872373572714185
d-d,d-d,d-d 0.008633889205249571 0.008004200363257715 -0.00034000383201912224 0.00163292636202729 -0.0008133119713737303 0.009563943373842462 0.00411427422141144 0.0035994215161154895 0.010910206644903003 0.009152954394907596 0.00046600989114255436 0.0060903215927128685 0.008139496657368198 0.005946772739965103 0.004971598045905183 0.013206756539980791 0.0014545873501829608 0.012034802826326328 -0.00107544248615155 -0.002252156707788647 0.0012155371441401627 0.00863086779710063 0.0017814891260990462 0.012851808686564064 0.01073636998643768 0.009357559608507869 0.013832695849827662 0.0033422837606419194 0.0012008363035598908 0.005948854390468996 0.01111957422060937 0.0005314123376208613 0.01194773357760489 0.004999293230041249 0.004903230683582426 0.011457295318429907 0.0040758397791646455 0.007277444901630966 0.010044737827446628 0.0024096820712974556 0.004439946542123121 0.003228997211282564 0.004966454193978892 -0.003172579751177154 0.004582419990031196 0.00027421648190262607 0.007770750635263232 0.010190264881759154 0.01065198716186761 0.014497157235396785 0.008938534395633793 0.0011718070898453679 0.011772410931752703 0.002173730047416395 0.007814936936885746 0.00041202648138087783 0.01414914507734311 -0.0012547659813446988 0.014061833552518447 -0.005589352127036632 0.008812323209965113 0.012564975791188407 0.009806039638606712 0.009258349243451189
l-l,l-d,d-m 0.008962839897362221 0.007476317499012844 0.003959489281273726 0.005884450853970451 0.022794691693282333 0.0047466830726760395 0.000484734897663901 0.012591982724065249 0.007783037909755813 0.014637172584394917 0.008914598531344244 0.020095037774218897 0.009745391995246325 0.015585244717487007 0.015382695738508756 0.009220150954745066 0.004958171307071595 0.007676079264915513 0.001790822017381761 0.017206134921968225 0.011393875789433128 0.017046067412674504 0.010973036459546795 0.007809701660437073 0.005854753426283476 0.013887867072984611 0.008060909080452781 0.01084938048280579 0.004761470512910257 0.007563774112593726 0.013942683293760845 0.009569676100831809 0.00773157124744941 0.015476274259297694 0.011116451047317028 0.007117707108446282 0.010231846997718657 0.011735249843231078 0.0119321007414569 0.008373756748244506 0.011634565638198745 0.0009806145731883964 0.011168603431838786 0.016216040140043995 0.013925362405797902 0.014460396830000178 0.015293987310812879 0.010539107873507841 0.0013606138367213175 0.013937866791635063 0.01618161368365792 0.014887271754077908 0.012729459331549769 0.00394733581151434 0.013389068281053991 0.018474063721404678 0.010850299373751216 0.01450168077080325 0.011591370774969726 0.014088076913304564 0.006748742493532001 0.009871966871624255 0.014982560457473764 0.007017972364345733
m-d,d-l 0.010748403010574142 0.01196214640753455 0.010786647283603946 0.016492060124714027 0.013344657129011572 0.009338080871864354 0.00828657240470492 0.008323403125114731 0.008794406795279283 0.014138859153929931 0.005766679777440429 0.013815941834914448 0.0043408199241200505 0.015673648174189505 0.010115219303001244 0.012336107520182826 0.012546062604601558 0.010168851890104507 0.011002886033359317 0.006343010523411127 0.017583504647354347 0.00329397186225514 0.008454108941120943 0.006121504025817214 0.005610822535394246 0.000813865538653342 0.0068501439106870825 0.010289071716338286 0.009100857101856267 0.00488290726263097 0.011611085146909773 0.014613790493086533 0.013663137556963752 0.012009190122544122 0.013258148352125689 0.01136174463416607 0.0014392417432635524 0.011470077187605074 0.013292596238298291 0.02105383746754011 0.002754986603310223 0.013229870148426321 0.00618695122075126 0.006494154608781996 0.0035281905665402774 0.014981704817745113 0.01900351923202691 0.002025117336513529 0.012136868211352287 0.0068142300164933545 0.00979703275784075 0.009032788659103137 0.0013537487501589078 0.008344807270662384 0.015549550792523353 0.007255322150659078 0.0021926798559848038 0.018829509731069713 0.004401986718378057 0.021575824263105208 0.01186917983238098 0.003003685191642105 0.005616932178669073 0.006990914444419644
m-m,m-m,m-d,d-m 0.005527599039047157 0.011072172934796249 0.014830915082354299 0.009307867681616155 0.011758344332175973 0.015270763410687222 0.010718820906650592 0.00382021389086772 0.004866932214261203 0.0008731646839947343 0.003559673575627918 0.008098853701587586 0.0006453908050130455 0.01317535011725115 0.0034108830579444548 0.0059173685964108635 0.007616161289502699 0.01213870332307251 0.007135552326193135 0.016041627190257184 0.0034601464337070034 0.0008781324952733656 0.0021437849807994297 0.015025406225583985 0.01411307369951171 0.006975418974320211 0.0081930399520481 0.0021548959776270106 0.0008455417983710933 0.005233408874699463 0.00847504738230739 0.0006087853851391221 0.008599835182245462 0.011861327094879285 0.008095257760033756 0.003328371864018072 0.003022988720764336 0.01100239754926103 0.003214956249708294 0.006505362109762534 0.008759917699143468 0.003949062838840988 0.008666133482674636 0.013796956256071845 0.007601434224843215 0.0058582097495394 0.008449073223448627 0.009923436770369444 0.003260577531830445 0.006087653837270827 0.012515043416192523 0.0029805785950538116 0.011986220609908201 0.0017803384681064885 0.004224071730920484 0.010307440497388798 0.008826286413560633 0.005515399537402598 0.00432114955862627 0.004561437708642681 0.007334439073385445 0.013466298632611397 0.003171740591571828 0.015141102205660086
m-m,m-d,d-m,m-m 0.011385272358749416 0.012988664675521183 0.005780634710470756 0.014524889913027477 0.013489478509039346 0.011679510783966406 0.01133674304365509 0.004255595595845037 0.005782430850690503 0.01499566254317491 0.007472461292289004 0.012549301679753017 0.006000829233976911 0.0062632918094777685 0.002684707608858616 0.009799724556936808 0.0042138652976406905 0.007344542989693302 0.010172294049329266 0.01196916798220621 0.015435414268385692 0.004987810061710532 0.007950249435589868 0.014543013527340595 0.012790295971948832 0.01235490669640722 0.01590698898431738 0.006234135781511901 0.001151469264284134 0.014837077757398879 0.013559018538153188 0.0035045403312289583 0.013862081695365827 0.010579920313665309 0.011011239722809063 0.01072847541040858 0.006744843838173882 0.0021326745053492167 0.0040858147801530985 0.00782274277624722 0.0006353746644798047 0.00854403866457979 0.0018432568003770098 0.012264186141224372 0.0016879485013578108 0.014492468137859614 0.009157200903304174 0.014384103509134752 0.015210579418104343 0.005497650294554063 0.011995411349667131 0.001622722248554404 0.015514384168753243 0.005153899473736378 0.0020004913810409857 0.01704712478571293 0.0045419695908148665 0.013591489266502414 0.011643783772379492 0.007683094402088991 0.015254206237452134 0.001232595770468457 0.0007038842018760573 0.007872048350250032
l-l,l-l,l-m 0.014152482302747989 0.005616171513740087 0.0009790417832021996 0.006566609347189078 0.011223934971059328 0.011380337358917806 0.0014319273997798754 0.0011028247161111305 0.002496653965258038 0.006121745584616956 0.01048674555112372 0.009081575042100247 0.005397309223843825 0.014164791860939246 0.001634832558824362 0.002253836735575119 0.007312444252210524 0.008709512523603545 0.008914241857211812 0.006980848835868925 0.0068416575246146825 0.004584263345454387 0.007697745981199371 0.011569527910738025 0.014576581244557059 0.011329076333634124 0.0006180251564119401 0.015414787152136056 0.007909170405519474 0.008634081756022418 0.007096241350367682 0.003352505721193588 0.004113874150608001 0.008446250227830625 0.0046027608451412435 0.014880961983731046 0.011590376115068204 -0.00010068424513270946 0.006185390281964939 0.007974359331370024 0.007033611034479422 0.012247058235271455 0.00011060093786955092 0.01219176339917939 0.0014659811159288434 0.002607994052943868 0.0090255895640496 0.01208478316323538 0.014639567788409425 0.014440620927195667 0.01066565580861226 0.00021150802681021836 0.0050981522214309525 0.0004922276329349171 0.004568777519369524 0.0012149661813637507 0.013848114642389756 0.010282295673818225 0.013227983771871316 -0.0013603475016147036 0.006489397750650213 0.013075841650694408 0.008986757699997312 0.005041298926812973
d-l,l-m 0.01614699923603595 0.010114043893846554 0.010112898912084663 0.012047385108678284 0.014977629079030585 0.013148688792154133 0.010292819027313398 0.0007355432287692647 0.010142186293255681 0.01290583534262395 0.007779302451990308 0.022448029975625828 0.011186186032527936 0.009802176142626975 0.019030580251945223 0.003619988468378935 0.010350784528987004 0.006067337232759676 0.00441273745013152 0.01841469854234111 0.004017740408887892 0.015841600344500415 0.014946581510517873 0.008803315860028518 0.013739770036515699 0.0015540445199441555 0.014452817718996931 0.012563786184784344 0.006535471331977489 0.009699935505682428 0.01528116824173431 0.011861260047497858 0.00738288063020114 0.009297966641858219 0.015321929257777273 0.015264806427302022 0.01531218089827096 0.007500557245411074 0.012879608010635231 0.02259322285439189 0.0005591573202740451 0.010100771633007596 0.009887346481717938 0.009244536049363554 0.009206430504995363 0.01029569345675217 0.011043171024674872 0.016411002931407567 0.014200077529796781 0.0032476848948016193 0.012060089613280306 0.004109437479492515 0.011542933775083 0.008466428144197638 0.007532462378888133 0.009143812769847675 0.015571579456629174 0.006338648317060776 0.01157210977251242 0.022968165964808517 0.00636625898299624 0.004454633906472142 0.011257894507433744 0.008837957860365519
d-m,m-m,m-m,m-m 0.004607454534296891 0.014715669917190883 0.010819113658389045 0.011704449677734314 0.015096546190367315 0.005654851833357677 0.007484180543419013 0.000639255748346503 0.0027162975408643003 0.00632370170622306 0.0037566625459552016 0.010684809968875613 0.013139771921375476 0.008978693490298704 0.018388290171847423 0.005972078283013741 0.018046242934610098 0.004461922853479035 0.01217168000056789 0.0183569569163303 0.01735538626119803 0.015021858385204517 0.004510348074146614 0.0015198566345820696 0.004021569709590483 0.015565303821396072 0.003124734939583158 0.012360072884570264 0.0088754032482384 0.014103170751403073 0.005295676053970513 0.010312178771513254 0.00472637988180933 0.006635192145731361 0.009891399621733203 0.007716234410982454 0.005071882672657749 0.017040545236728263 0.0151907402749729 0.010830612478464082 0.004190030190559689 0.008429279086204531 0.011171428853104994 0.0213746361863959 0.008965237739115195 0.0097681086641924 0.0061676988419549625 0.01000610408789825 0.006989395989870333 0.00207688527775323 0.010029223135853905 0.0030892513010474187 0.008703754548296878 0.00022064126699835614 0.012174591022039341 0.010189809749406902 0.002591228306325856 0.008877401492398565 0.005093032299014897 0.02598727138233245 0.007006255108475316 0.00020658387853101273 0.00468601967402279 0.008997453632766146
